svm_type c_svc
kernel_type rbf
gamma 3.05176e-05
nr_class 5
total_sv 263
rho nan nan -1.19587 -4.47292 nan -5.96447 -12.9606 -6.85613 -24.4302 -2.07389
label 0 1 2 3 4
nr_sv 24 58 77 26 78
SV
0 0 42.89073351220878 128 0:-1 1:-1 2:-1 3:-1 4:-1 5:-1 6:-1 7:-1 8:-1 9:-1 10:-1 11:-1 12:-1 13:-1 14:-0.89885 15:-1 16:-1 17:-1 18:-1 19:-1 20:-1 21:-1 22:-1 23:-1 24:-1 25:-1 26:-1 27:-1 28:-1 29:-1 30:-1 31:-1 32:-1 33:-1 34:-1 35:-0.693661 36:-1 37:-1 38:-1 39:-1 40:-1 41:-1 42:-1 43:-1 44:-1 45:-1 46:-1 47:-1 48:-1 49:-1 50:-1 51:-1 52:-1 53:-1 54:-0.803482 55:-1 56:-1 57:-1 58:-1 59:-1 60:-0.795248 61:-1 62:-1 63:-1 64:-1 65:-1 66:-1 67:-1 68:-1 69:-1 70:-1 71:-1 72:-1 73:-1 74:-1 75:-1 76:0.236893 77:-1 78:-1 79:-1 80:-1 81:-1 82:-1 83:-1 84:-1 85:-1 86:-1 87:-1 88:-1 89:-1 90:-1 91:2.52201 92:-1 93:-1 94:-1 95:0.0866704 96:-1 97:-1 98:-1 99:-1 100:-1 101:-0.640592 102:-1 103:-1 104:-1 105:-0.676317 106:-1 107:-1 108:-1 109:-1 110:-1 111:-1 112:-1 113:-1 114:-1 115:-1 116:-1 117:-1 118:-1 119:-1 120:-1 121:-1 122:-1 123:-1 124:-1 125:-1 126:-1 127:-1 128:-1 129:-1 130:-1 131:0.749395 132:-1 133:-1 134:-0.416221 135:-1 136:-1 137:-1 138:-1 139:-1 140:-1 141:-1 142:-1 143:-1 144:-1 145:-1 146:-1 147:-1 148:-1 149:-1 150:-1 151:-1 152:-1 153:-1 154:-1 155:-1 156:-1 157:-1 158:-1 159:-1 160:-1 161:-1 162:-1 163:-1 164:-1 165:-0.896562 166:-1 167:-0.934844 168:0.452204 169:-1 170:-1 171:-1 172:-0.705203 173:-1 174:-1 175:-1 176:-0.699414 177:-1 178:-1 179:-1 180:-1 181:-1 182:-1 183:-1 184:-1 185:-1 186:-0.603104 187:-1 188:-1 189:-1 190:-1 191:-1 192:-1 193:-1 194:-1 195:-1 196:-1 197:-1 198:-1 199:-1 200:-1 201:-1 202:-1 203:-1 204:-1 205:-1 206:-1 207:-1 208:-1 209:-1 210:-1 211:-1 212:-1 213:1.3005 214:-1 215:-1 216:-1 217:-1 218:-1 219:0.614525 220:-1 221:-1 222:-1 223:-1 224:-1 225:-1 226:-1 227:-1 228:-1 229:-1 230:-1 231:-1 232:-1 233:-1 234:-1 235:-1 236:-1 237:-1 238:-1 239:1.33112 240:-1 241:-1 242:-1 243:-1 244:-1 245:-0.609076 246:-1 247:-1 248:-1 249:-1 250:-1 251:-1 252:-1 253:0.167559 254:-1 255:-1 256:-1 257:-0.387322 258:-1 259:-1 260:-1 261:-1 262:-1 263:-1 264:-1 265:-0.132197 266:-1 267:-0.834857 268:-1 269:-1 270:-1 271:-1 272:-1 273:-1 274:-1 275:-1 276:-1 277:-1 278:-1 279:-1 280:-1 281:-1 282:0.872824 283:-1 284:-1 285:-1 286:-1 287:-1 288:-1 289:-1 290:-1 291:-1 292:-1 293:-1 294:-1 295:-0.79961 296:0.163181 297:-1 298:-1 299:-1 300:-1 301:-1 302:-1 303:-1 304:-1 305:-1 306:-1 307:-1 308:-0.271719 309:-1 310:-1 311:-0.100607 312:-1 313:-1 314:-0.80243 315:-1 316:-1 317:-1 318:-1 319:-1 320:-1 321:-1 322:-1 323:-1 324:-1 325:-1 326:-1 327:-1 328:2.52209 329:-1 330:-1 331:0.61084 332:-1 333:-1 334:-1 335:-1 336:-1 337:-1 338:-1 339:-1 340:-1 341:-1 342:-1 343:-1 344:-1 345:-1 346:-1 347:-1 348:-1 349:-1 350:-1 351:-1 352:-0.392283 353:-1 354:-1 355:-1 356:-1 357:-1 358:-1 359:-1 360:-1 361:-0.317954 362:-1 363:-1 364:-1 365:-1 366:-1 367:-1 368:-0.869912 369:-1 370:-1 371:-1 372:-1 373:-0.248619 374:-1 375:-1 376:-1 377:-0.787297 378:-1 379:-1 380:-1 381:-1 382:-1 383:-1 384:-1 385:-0.54916 386:-1 387:-1 388:-1 389:-1 390:-1 391:-1 392:-1 393:-1 394:-1 395:-1 396:-1 397:-1 398:-1 399:-1 400:-1 401:1.16742 402:-1 403:-1 404:-1 405:-1 406:-1 407:-1 408:-0.780362 409:-1 410:-1 411:-1 412:-1 413:0.499578 414:-1 415:-1 416:-1 417:-1 418:-1 419:-1 420:-1 421:-1 422:-1 423:-0.587688 424:-1 425:-1 426:-1 427:3.41053 428:0.953693 429:-1 430:-1 431:-1 432:-1 433:-1 434:-1 435:-1 436:-1 437:-1 438:-0.757226 439:-1 440:-1 441:0.572789 442:-1 443:0.234647 444:-1 445:-1 446:0.156463 447:-1 448:-0.932991 449:-0.757226 450:-1 451:-1 452:-1 453:-1 454:-1 455:-1 456:-1 457:-1 458:-1 459:-1 460:-1 461:-0.51449 462:-1 463:-1 464:-1 465:-1 466:-1 467:-1 468:-1 469:-1 470:-1 471:-1 472:-1 473:-1 474:-1 475:-1 476:-0.348769 477:-1 478:-1 479:-1 480:-1 481:-1 482:-1 483:-1 484:-1 485:-1 486:-1 487:-1 488:-1 489:-1 490:-1 491:-1 492:-1 493:-1 494:-1 495:-1 496:-0.206139 497:-1 498:-1 499:-1 500:-1 501:-1 502:-1 503:-1 504:-1 505:-1 506:-1 507:-1 508:-1 509:-1 510:-1 511:-1 512:-1 513:-1 514:-1 515:-0.949739 516:-1 517:-1 518:-1 519:-0.803482 520:-1 521:-1 522:-1 523:0.62428 524:-1 525:-1 526:-1 527:-1 528:-1 529:-1 530:-1 531:-1 532:-1 533:-0.424904 534:-1 535:-0.66928 536:-1 537:-1 538:-1 539:-1 540:-1 541:-1 542:-1 543:-1 544:-1 545:-1 546:-1 547:-1 548:-1 549:-1 550:-0.750205 551:-1 552:-1 553:-1 554:-1 555:-1 556:-1 557:-1 558:-1 559:-1 560:-1 561:-1 562:-1 563:-1 564:-1 565:-1 566:-1 567:-1 568:-1 569:-0.932522 570:-0.42195 571:-1 572:-1 573:-1 574:-1 575:-1 576:-1 577:-1 578:-0.838146 579:-1 580:0.7341 581:-1 582:-1 583:-1 584:-1 585:-1 586:-1 587:-0.87862 588:-1 589:-1 590:-1 591:-1 592:-1 593:-1 594:0.855446 595:-1 596:-1 597:-1 598:-1 599:-1 600:-1 601:-1 602:-1 603:-1 604:-1 605:-1 606:-1 607:-1 608:-1 609:-0.516751 610:-1 611:-1 612:-1 613:-0.606929 614:-1 615:-1 616:-1 617:-1 618:-1 619:-1 620:-1 621:-1 622:-1 623:-1 624:-1 625:-1 626:-1 627:-1 628:-1 629:-1 630:-1 631:-1 632:-0.0231536 633:-1 634:-0.75724 635:-1 636:-1 637:-1 638:-1 639:0.0833099 640:-0.616563 641:-1 642:-1 643:-1 644:-0.229025 645:-1 646:-0.184997 647:-1 648:-1 649:-1 650:-1 651:-0.560686 652:-1 653:-1 654:-1 655:-1 656:0.621318 657:-1 658:-1 659:-1 660:-1 661:-1 662:-1 663:-1 664:-1 665:-1 666:-1 667:-1 668:-1 669:-1 670:-1 671:-1 672:-1 673:-1 674:1.34673 675:-1 676:-1 677:-1 678:-1 679:-1 680:-1 681:-1 682:-1 683:-1 684:-1 685:-1 686:-1 687:-1 688:0.942125 689:-1 690:-1 691:-1 692:-1 693:-1 694:-1 695:0.0404104 696:-1 697:-1 698:-1 699:-1 700:-1 701:-1 702:-1 703:-1 704:-1 705:-1 706:-1 707:-1 708:-1 709:-1 710:-1 711:-1 712:-1 713:0.321747 714:-1 715:-1 716:-1 717:-1 718:-1 719:-1 720:-0.271719 721:-1 722:-1 723:-1 724:-1 725:-1 726:-1 727:-1 728:-1 729:-1 730:-1 731:-1 732:-1 733:-1 734:-1 735:-1 736:-1 737:-1 738:-1 739:-1 740:-1 741:-1 742:-1 743:-1 744:-1 745:-1 746:-1 747:-1 748:-1 749:-1 750:-1 751:-1 752:-1 753:-0.743539 754:-1 755:-1 756:-1 757:-1 758:-1 759:-1 760:-1 761:-1 762:-1 763:-1 764:0.225461 765:-1 766:-1 767:-1 768:0.480343 769:-1 770:-1 771:-1 772:-1 773:-1 774:-0.653197 775:-0.639967 776:-1 777:-1 778:-1 779:-1 780:-1 781:-1 782:-1 783:-1 784:-1 785:-1 786:-1 787:-1 788:-1 789:-0.45091 790:-0.290539 791:-1 792:-1 793:-0.0288954 794:1.87849 795:-1 796:-1 797:-1 798:0.537438 799:-1 800:-1 801:-1 802:-1 803:-1 804:-1 805:-1 806:-0.803482 807:-1 808:-1 809:-1 810:0.934572 811:-1 812:-1 813:-1 814:-1 815:-1 816:-1 817:-1 818:-1 819:-0.75724 820:-1 821:-1 822:-1 823:-1 824:-1 825:-1 826:-1 827:-1 828:-1 829:-1 830:-0.297268 831:-1 832:-1 833:-1 834:-1 835:-0.88729 836:-1 837:-1 838:-1 839:-1 840:-1 841:-1 842:-0.915927 843:-1 844:-1 845:-0.70233 846:-1 847:-1 848:-1 
0 0 80.41039974805511 128 0:-1 1:-1 2:-1 3:-1 4:-1 5:-1 6:-1 7:-1 8:-1 9:-1 10:-1 11:-1 12:-1 13:-1 14:-0.555081 15:-1 16:-1 17:-1 18:-1 19:-1 20:-1 21:-1 22:-1 23:-1 24:-1 25:-1 26:-1 27:-1 28:-1 29:-1 30:1.29089 31:-1 32:-1 33:-0.43435 34:-1 35:-0.77544 36:-0.428012 37:-1 38:5.90005e-05 39:-1 40:-1 41:-1 42:-1 43:-1 44:-1 45:-1 46:-1 47:-1 48:-1 49:-1 50:-1 51:-1 52:-1 53:-1 54:-1 55:-1 56:-1 57:-1 58:-1 59:-1 60:-0.362091 61:-1 62:-1 63:-1 64:-1 65:-1 66:-1 67:-1 68:-1 69:-1 70:-1 71:-1 72:-1 73:-1 74:-1 75:-1 76:-1 77:-1 78:-1 79:-1 80:-1 81:-1 82:-1 83:-1 84:-1 85:-1 86:-1 87:-1 88:-1 89:-1 90:-1 91:-1 92:-1 93:-1 94:-1 95:-1 96:-1 97:-0.525431 98:-0.813574 99:-1 100:-1 101:-0.736538 102:-1 103:-1 104:-1 105:-1 106:-0.511698 107:-1 108:-1 109:-1 110:-1 111:-0.50003 112:-1 113:-1 114:-1 115:-1 116:-1 117:-1 118:-1 119:-1 120:-1 121:-1 122:-1 123:-1 124:-1 125:-1 126:-1 127:-1 128:-1 129:-1 130:-0.972195 131:-1 132:-1 133:-1 134:-1 135:-1 136:-1 137:-1 138:-1 139:-1 140:-0.830507 141:-1 142:-1 143:-1 144:-1 145:-1 146:-1 147:-1 148:-1 149:-1 150:-1 151:-1 152:-1 153:-1 154:-1 155:-1 156:0.0423124 157:-1 158:-0.593085 159:-1 160:-1 161:-0.13987 162:-1 163:-1 164:-1 165:-0.696684 166:-1 167:-1 168:-1 169:-1 170:0.0423124 171:-1 172:-1 173:-1 174:-1 175:-1 176:-0.889838 177:1.35585 178:-1 179:-1 180:-1 181:-1 182:-1 183:-0.624313 184:-1 185:-1 186:1.03674 187:-1 188:-1 189:-1 190:-1 191:-1 192:-1 193:1.2062 194:-1 195:-1 196:-1 197:-1 198:-1 199:-1 200:-1 201:-1 202:-1 203:-1 204:-1 205:-1 206:-1 207:-1 208:-1 209:0.576265 210:-1 211:-1 212:-0.178 213:-1 214:-1 215:-1 216:-1 217:3.27167 218:-1 219:-1 220:-1 221:-1 222:-1 223:-1 224:-1 225:-1 226:-1 227:-1 228:-1 229:5.90005e-05 230:-1 231:-1 232:-0.339053 233:-1 234:-0.949156 235:-1 236:-1 237:-1 238:-1 239:-1 240:-1 241:-1 242:-1 243:-1 244:-1 245:-1 246:-1 247:-1 248:-1 249:-1 250:-1 251:-1 252:-1 253:-1 254:-1 255:-1 256:-1 257:-0.55088 258:-0.0475441 259:-1 260:-1 261:-1 262:-0.178 263:-1 264:-1 265:-1 266:-1 267:-1 268:-1 269:-1 270:-1 271:-1 272:-1 273:-1 274:-0.338949 275:-1 276:-1 277:-1 278:-1 279:-0.32208 280:-1 281:-1 282:-0.796612 283:-1 284:-1 285:0.293005 286:-1 287:-1 288:-1 289:-1 290:-1 291:-1 292:-1 293:-1 294:-1 295:-0.8531 296:-0.00521523 297:-1 298:-1 299:-1 300:-1 301:-1 302:-1 303:-1 304:-1 305:-1 306:-1 307:-1 308:-1 309:-1 310:-1 311:-1 312:-1 313:-1 314:-1 315:-1 316:1.36468 317:-1 318:-1 319:-1 320:-1 321:-1 322:-1 323:-1 324:-1 325:-1 326:-0.88135 327:-1 328:-1 329:-1 330:-1 331:-1 332:-1 333:0.35584 334:-1 335:-1 336:-1 337:-1 338:-1 339:-1 340:-1 341:-1 342:-1 343:-1 344:-1 345:-1 346:-1 347:-1 348:-1 349:-1 350:-1 351:-1 352:-0.554516 353:-1 354:-1 355:-1 356:-1 357:-1 358:-1 359:-1 360:-1 361:-1 362:-1 363:-1 364:-1 365:-1 366:-1 367:-1 368:-1 369:-1 370:-1 371:-1 372:-1 373:-1 374:-1 375:-1 376:-1 377:-1 378:-1 379:-1 380:-1 381:-1 382:-1 383:-1 384:-1 385:-1 386:-0.548053 387:-1 388:-1 389:-1 390:-1 391:-1 392:-1 393:-1 394:-1 395:-1 396:-1 397:-1 398:-1 399:-1 400:-1 401:-1 402:-1 403:-1 404:-1 405:-1 406:-1 407:-1 408:-1 409:-0.440678 410:-1 411:-1 412:-1 413:-0.450418 414:-1 415:-1 416:-1 417:-1 418:-1 419:-1 420:-1 421:-0.855943 422:-1 423:-1 424:-1 425:-1 426:-1 427:-1 428:-1 429:-1 430:-1 431:-1 432:-1 433:-1 434:-1 435:-1 436:-1 437:-1 438:-0.940682 439:-1 440:-0.644099 441:-1 442:-1 443:3.52547 444:-1 445:-1 446:-1 447:-1 448:-0.852627 449:-1 450:-1 451:-1 452:-1 453:-1 454:-1 455:-1 456:-1 457:-1 458:0.576304 459:-1 460:-1 461:2.20336 462:0.282536 463:-1 464:0.686368 465:-1 466:-1 467:-1 468:-1 469:-1 470:-1 471:-1 472:-1 473:-0.855943 474:-1 475:-1 476:-1 477:-1 478:-1 479:-1 480:-1 481:-1 482:-1 483:-1 484:-0.91525 485:-1 486:-1 487:-1 488:-1 489:-1 490:-1 491:-1 492:-1 493:-1 494:-1 495:-1 496:-1 497:-1 498:-1 499:-0.0660128 500:-1 501:-0.822046 502:-1 503:-1 504:-1 505:-1 506:-1 507:-1 508:-1 509:-0.50003 510:-1 511:-1 512:-1 513:-1 514:-1 515:-1 516:-1 517:5.90005e-05 518:-1 519:-1 520:-1 521:-1 522:-0.54235 523:-1 524:-1 525:-1 526:-1 527:0.182199 528:-0.288114 529:-1 530:-1 531:-1 532:-1 533:-1 534:-1 535:-0.757567 536:-1 537:-1 538:-1 539:-1 540:-1 541:-1 542:-1 543:-1 544:-1 545:0.146975 546:-1 547:-1 548:-1 549:-1 550:-1 551:-1 552:-0.905084 553:-1 554:-1 555:-1 556:-1 557:-1 558:-1 559:-1 560:-1 561:-1 562:-1 563:-1 564:-1 565:-1 566:-1 567:-1 568:2.40157 569:-0.851595 570:1.9661 571:-0.50003 572:-1 573:-1 574:-1 575:-1 576:-1 577:-1 578:-1 579:-1 580:-1 581:-1 582:-1 583:-1 584:-1 585:-1 586:-1 587:-0.911023 588:-1 589:-1 590:-1 591:-1 592:-1 593:-1 594:-0.0931949 595:-1 596:-1 597:1.58586 598:-1 599:-1 600:-1 601:-0.533935 602:-1 603:-1 604:-1 605:-1 606:-1 607:-1 608:-1 609:-1 610:-1 611:-1 612:-1 613:-1 614:-1 615:-1 616:-1 617:1.35517 618:-1 619:-0.652563 620:-1 621:-1 622:-1 623:-1 624:-1 625:-1 626:-1 627:-1 628:-1 629:-1 630:-1 631:-1 632:-1 633:-1 634:-1 635:-1 636:-1 637:-1 638:-0.178 639:-1 640:-0.437863 641:-1 642:-1 643:-1 644:-1 645:-1 646:-1 647:-1 648:-1 649:-1 650:-1 651:-1 652:-1 653:-1 654:-1 655:-1 656:-1 657:-1 658:-1 659:-1 660:-1 661:-1 662:-1 663:-1 664:-1 665:-1 666:-1 667:-1 668:0.0423124 669:-0.914512 670:-1 671:-0.669514 672:-1 673:-1 674:-1 675:-0.840465 676:-1 677:2.0547 678:-1 679:0.358884 680:-1 681:-1 682:-1 683:-1 684:-1 685:-1 686:-1 687:-1 688:-0.644099 689:-1 690:-1 691:-1 692:-1 693:-1 694:-1 695:-1 696:-1 697:-1 698:-1 699:-1 700:-1 701:-1 702:-1 703:-1 704:-1 705:-1 706:0.0423124 707:-1 708:-1 709:-1 710:-1 711:-1 712:-1 713:-1 714:-1 715:-1 716:-1 717:-1 718:-1 719:-1 720:0.601714 721:-1 722:-1 723:-1 724:-1 725:-1 726:-1 727:-0.43435 728:-1 729:-1 730:-1 731:-1 732:-1 733:-1 734:-1 735:-1 736:-1 737:-1 738:-1 739:-1 740:-0.956855 741:-1 742:-1 743:-1 744:-1 745:-1 746:-1 747:-1 748:-1 749:-1 750:2.12718 751:-1 752:-1 753:-1 754:-1 755:-1 756:-1 757:-1 758:-1 759:-1 760:-1 761:-1 762:-1 763:-1 764:-1 765:-1 766:-1 767:-1 768:-1 769:-1 770:-1 771:-1 772:-1 773:-1 774:-0.745777 775:-0.472148 776:-1 777:-1 778:-1 779:-1 780:-1 781:-1 782:-1 783:-1 784:-1 785:-1 786:-1 787:-1 788:-1 789:-1 790:-0.653268 791:-1 792:-1 793:-1 794:-1 795:-1 796:-1 797:-1 798:-1 799:-1 800:-1 801:-1 802:-1 803:-1 804:-1 805:-1 806:-1 807:-0.666457 808:0.171089 809:-1 810:0.418173 811:-1 812:-1 813:-1 814:-1 815:-1 816:-1 817:-0.50003 818:-1 819:-1 820:-1 821:-1 822:-1 823:-1 824:-1 825:-1 826:-1 827:-1 828:-1 829:-1 830:-0.484849 831:-1 832:-1 833:-1 834:-1 835:-0.586873 836:-1 837:-1 838:-1 839:-1 840:-1 841:-1 842:-1 843:-1 844:-1 845:-0.345333 846:-1 847:-1 848:-1 
0 0 60.03797263573611 31.89200651432123 0:-1 1:0.182478 2:-1 3:-1 4:-1 5:-1 6:-1 7:-1 8:-1 9:-1 10:-0.713591 11:-1 12:-0.478721 13:-1 14:-1 15:-0.639841 16:0.182199 17:-1 18:-1 19:0.329777 20:-1 21:-1 22:-0.452879 23:-0.82134 24:-1 25:1.2062 26:-1 27:-0.24631 28:-1 29:-1 30:-1 31:1.36596 32:-1 33:-1 34:-1 35:-1 36:-1 37:-1 38:-0.749956 39:-1 40:1.1821 41:-1 42:-1 43:-1 44:-0.354455 45:0.440666 46:-0.349201 47:-1 48:-0.602028 49:-1 50:-1 51:-1 52:-1 53:-1 54:-1 55:-1 56:0.145445 57:-0.519719 58:-1 59:-1 60:-1 61:-0.31435 62:0.103359 63:0.0175312 64:-1 65:0.0423124 66:-1 67:-1 68:-1 69:-0.37704 70:-0.88194 71:-1 72:-0.66888 73:-1 74:-0.236195 75:0.72026 76:-1 77:0.050713 78:-0.408761 79:-1 80:-0.91524 81:-1 82:-1 83:-0.738943 84:-1 85:-1 86:-1 87:-1 88:-1 89:-0.733006 90:-0.127202 91:0.290784 92:-0.519719 93:-1 94:0.324375 95:0.99154 96:-1 97:-1 98:-1 99:-0.882983 100:-1 101:-0.868238 102:-1 103:-1 104:-1 105:-1 106:-0.511698 107:-1 108:-1 109:-1 110:-1 111:-1 112:-1 113:-1 114:-1 115:-0.140714 116:-1 117:-1 118:-0.959739 119:-1 120:-1 121:-1 122:-1 123:-1 124:-1 125:-1 126:-1 127:-0.792336 128:-1 129:-1 130:-1 131:-0.358656 132:-1 133:0.171365 134:-0.785981 135:-1 136:-0.215185 137:-1 138:-1 139:-1 140:-0.971747 141:-1 142:-1 143:-1 144:-1 145:-1 146:-1 147:-1 148:-1 149:-0.504154 150:-0.508979 151:-1 152:3.32234 153:-1 154:-1 155:-1 156:-1 157:-1 158:-1 159:-0.178 160:-0.444608 161:-0.569834 162:-1 163:-1 164:0.72026 165:-1 166:-1 167:-0.976113 168:-0.201608 169:0.0552789 170:-1 171:0.178204 172:-1 173:-1 174:-1 175:0.063755 176:-0.889838 177:-1 178:-1 179:-0.63519 180:-0.205325 181:-0.151382 182:-0.613392 183:-0.812112 184:-1 185:-1 186:-0.418046 187:-1 188:-0.408761 189:-1 190:-1 191:1.2878 192:-1 193:-1 194:-1 195:-0.511582 196:-1 197:-1 198:-1 199:-0.110206 200:-1 201:-1 202:-1 203:-0.338019 204:-1 205:-0.89351 206:-1 207:-1 208:-1 209:-1 210:-1 211:-1 212:-0.588903 213:-0.156617 214:-1 215:-1 216:-1 217:-1 218:-1 219:-0.408101 220:-1 221:-1 222:-1 223:-1 224:-1 225:-1 226:-1 227:-1 228:-1 229:-1 230:-1 231:-0.112089 232:-1 233:-1 234:-1 235:-0.347398 236:-1 237:-1 238:-1 239:-0.145392 240:-1 241:-1 242:1.13558 243:-1 244:-1 245:-0.713435 246:-1 247:-1 248:-1 249:-1 250:-1 251:-1 252:-0.066123 253:-1 254:-1 255:-0.733006 256:-1 257:-0.775387 258:-1 259:-1 260:1.38101 261:-1 262:-1 263:-1 264:-1 265:-0.0457173 266:-1 267:-0.878943 268:-1 269:-1 270:-1 271:0.649922 272:-1 273:-1 274:-1 275:-1 276:-1 277:-1 278:-1 279:-1 280:-1 281:-0.822008 282:-0.949156 283:-0.97881 284:-1 285:-1 286:-1 287:-1 288:-1 289:-1 290:-1 291:-1 292:-1 293:-1 294:-0.216781 295:-0.963271 296:-1 297:-1 298:0.833802 299:-1 300:-1 301:0.775403 302:-0.139667 303:-0.761033 304:-1 305:-1 306:-1 307:-1 308:-1 309:-1 310:-1 311:-0.538478 312:-1 313:-1 314:-0.782742 315:-1 316:-1 317:-1 318:-1 319:0.286864 320:-1 321:0.249042 322:-0.795325 323:0.32811 324:-1 325:-0.874978 326:-1 327:-1 328:0.290952 329:-1 330:-1 331:-1 332:-1 333:-1 334:-1 335:-1 336:-1 337:-0.775387 338:-1 339:-1 340:-1 341:-1 342:-1 343:-1 344:-1 345:-0.300775 346:-1 347:-0.857321 348:-1 349:-1 350:-0.770869 351:-1 352:0.113763 353:-1 354:-1 355:-1 356:-1 357:-1 358:-1 359:-1 360:-1 361:-1 362:-1 363:-1 364:-1 365:-0.749956 366:-1 367:-1 368:-0.952309 369:-1 370:-0.752135 371:-1 372:-0.822008 373:-0.724537 374:-0.970334 375:-0.140916 376:1.3644 377:-0.844079 378:1.03653 379:-1 380:-1 381:-1 382:0.000708383 383:-0.564887 384:-1 385:-0.834718 386:-1 387:-0.199143 388:-1 389:-1 390:-1 391:1.56342 392:-0.911016 393:-1 394:0.063504 395:-1 396:-1 397:-1 398:-1 399:-1 400:-1 401:-0.205662 402:-1 403:0.72026 404:1.56342 405:-1 406:-1 407:-1 408:-0.919479 409:-1 410:-1 411:-1 412:-1 413:-1 414:-0.112089 415:-1 416:-1 417:-1 418:-1 419:-1 420:-1 421:-0.927955 422:-1 423:-0.395442 424:-0.347398 425:-0.338019 426:-1 427:0.61694 428:-1 429:-1 430:-1 431:-1 432:-1 433:-1 434:-1 435:-1 436:-1 437:-1 438:-1 439:-1 440:-1 441:-1 442:-1 443:-0.547367 444:-1 445:-1 446:-1 447:-0.546544 448:-1 449:-0.970334 450:-1 451:-1 452:-1 453:-1 454:-0.914392 455:-0.546544 456:3.22062 457:-1 458:0.970241 459:-0.358656 460:-0.970334 461:-0.110206 462:-1 463:-1 464:-1 465:-1 466:-1 467:-1 468:-1 469:-1 470:-1 471:-0.216781 472:-0.902314 473:-1 474:-1 475:-1 476:-1 477:-1 478:-1 479:1.07036 480:-1 481:-0.955501 482:-1 483:2.30886 484:-1 485:-0.440734 486:-0.478721 487:-0.917359 488:-0.887693 489:-1 490:-0.749956 491:-1 492:-1 493:-1 494:-0.5763 495:-0.283759 496:-0.854494 497:-1 498:-1 499:-0.766476 500:0.245627 501:-0.911002 502:-1 503:-0.717354 504:-0.283759 505:-0.50003 506:-1 507:-1 508:-0.478721 509:-0.749956 510:-0.436361 511:-1 512:-1 513:-1 514:-1 515:-1 516:-1 517:-1 518:-1 519:-1 520:-1 521:-1 522:-0.771202 523:-0.404524 524:-1 525:-1 526:-1 527:-1 528:-1 529:-0.889284 530:-1 531:-1 532:-1 533:-1 534:-1 535:-0.0302111 536:-1 537:-1 538:-1 539:-1 540:-0.425356 541:-0.20607 542:-0.73936 543:-1 544:-0.145392 545:-0.42658 546:-1 547:-1 548:0.281912 549:-1 550:-0.816889 551:-1 552:-0.984178 553:-1 554:-0.736721 555:-1 556:-1 557:-1 558:-1 559:-0.61265 560:-1 561:-1 562:-1 563:-1 564:-1 565:-1 566:-1 567:-1 568:-1 569:-1 570:-1 571:-1 572:-1 573:-0.408761 574:-1 575:-1 576:-1 577:-0.0580129 578:-0.940682 579:-1 580:0.2712 581:-1 582:-1 583:-0.139667 584:-1 585:-1 586:-1 587:-1 588:-1 589:-0.478721 590:-1 591:-0.874978 592:-1 593:-1 594:-0.319923 595:-1 596:-0.466045 597:-1 598:-1 599:-1 600:-0.404524 601:-0.766912 602:-1 603:-1 604:-0.338019 605:-1 606:-0.726129 607:-1 608:-0.570357 609:-0.822894 610:-1 611:-1 612:-0.408761 613:-1 614:-1 615:-1 616:-1 617:-0.357672 618:-0.887747 619:-1 620:1.12754 621:-1 622:-1 623:-1 624:-0.812112 625:-1 626:-1 627:-1 628:-0.510511 629:-0.906765 630:-1 631:-1 632:-1 633:-1 634:-1 635:-0.562235 636:-1 637:-1 638:-0.588903 639:-0.205885 640:-0.92972 641:-0.572653 642:-1 643:-1 644:-1 645:-1 646:-0.402566 647:-0.0933019 648:-0.195978 649:-1 650:-0.452738 651:-0.919479 652:-1 653:-1 654:-0.822848 655:-1 656:0.188499 657:-1 658:-0.906765 659:-1 660:-1 661:-1 662:-0.605877 663:-1 664:-1 665:-1 666:-1 667:-1 668:-1 669:-1 670:-1 671:-1 672:-1 673:-1 674:-1 675:-0.973407 676:-1 677:-1 678:-0.225229 679:0.358884 680:-0.139667 681:-1 682:-1 683:-1 684:-1 685:-0.571962 686:-0.440602 687:-1 688:-0.644099 689:-1 690:-1 691:-1 692:-0.249985 693:-1 694:-0.449204 695:-1 696:-1 697:-1 698:-1 699:-0.737243 700:0.131642 701:-1 702:-1 703:-1 704:-1 705:-1 706:-0.478721 707:-1 708:0.182199 709:-0.557112 710:1.52052 711:-1 712:-0.733006 713:-1 714:-1 715:-1 716:-1 717:-1 718:-1 719:-0.0933019 720:-1 721:-1 722:-1 723:-1 724:-1 725:-0.283759 726:-1 727:-1 728:-0.612295 729:-1 730:-1 731:-0.466137 732:-0.173741 733:-1 734:-1 735:-0.704751 736:-1 737:-1 738:-1 739:-1 740:-0.989212 741:-1 742:-1 743:-1 744:-1 745:-1 746:-0.178 747:-0.0396646 748:-1 749:-0.322787 750:-1 751:-1 752:-1 753:-0.717981 754:-1 755:0.0394995 756:-1 757:-0.644099 758:0.0119389 759:-1 760:-0.145392 761:-0.478721 762:-1 763:-1 764:-1 765:-1 766:-1 767:-1 768:0.627865 769:-1 770:-1 771:-1 772:-1 773:-1 774:-0.745777 775:-1 776:-1 777:0.334719 778:-1 779:-1 780:-1 781:-0.73936 782:-1 783:-1 784:-1 785:-1 786:-1 787:2.15253 788:-1 789:-1 790:-1 791:-1 792:-1 793:-0.466107 794:-1 795:-1 796:-0.960317 797:-1 798:-1 799:-0.408761 800:-0.519719 801:-1 802:-0.436361 803:-1 804:-1 805:-1 806:-0.927955 807:-1 808:-0.414317 809:-1 810:-0.645415 811:-1 812:-1 813:-0.927955 814:-0.408761 815:-0.906765 816:-0.724537 817:-1 818:-1 819:-0.64405 820:-1 821:-1 822:-1 823:1.77654 824:-1 825:0.282385 826:-0.633331 827:-1 828:-0.567727 829:-1 830:-1 831:-0.216781 832:-0.478721 833:-1 834:-1 835:-1 836:-1 837:-0.834718 838:-1 839:1.93038 840:-1 841:-0.644015 842:-0.84592 843:-0.374557 844:-1 845:-0.890872 846:-1 847:0.32811 848:-0.834718 
0 0 11.43696390295992 40.40848409998808 0:-1 1:-1 2:-1 3:-1 4:-1 5:-1 6:-1 7:-1 8:-1 9:-1 10:-1 11:-1 12:-1 13:-1 14:-1 15:-0.507242 16:-1 17:-1 18:-1 19:-1 20:-1 21:-1 22:-1 23:-1 24:-1 25:-1 26:-1 27:-1 28:-1 29:-1 30:-1 31:-1 32:-1 33:-1 34:-1 35:-1 36:-1 37:-1 38:-1 39:-1 40:-1 41:-0.0326069 42:-1 43:-1 44:-1 45:-1 46:-1 47:-1 48:-1 49:-1 50:-1 51:6.13063 52:-1 53:-1 54:-1 55:-1 56:-1 57:-1 58:-1 59:-1 60:-1 61:-1 62:-1 63:-1 64:-1 65:-1 66:-1 67:-1 68:-1 69:-1 70:-1 71:0.188438 72:-1 73:-1 74:-1 75:-1 76:-1 77:-1 78:-1 79:-1 80:-1 81:-1 82:1.92758 83:-1 84:-1 85:-1 86:-1 87:3.92792 88:-1 89:-1 90:-1 91:-1 92:-1 93:-1 94:-1 95:-1 96:-1 97:-1 98:-0.362314 99:-1 100:-1 101:-1 102:-1 103:-1 104:-1 105:-1 106:-1 107:-1 108:-1 109:-1 110:-1 111:-1 112:-1 113:-1 114:-1 115:-1 116:-1 117:-1 118:-1 119:-1 120:-1 121:-1 122:-1 123:-1 124:-1 125:-1 126:-1 127:-1 128:-1 129:-1 130:-1 131:-1 132:-1 133:-1 134:-1 135:-1 136:-1 137:-1 138:-1 139:-1 140:-1 141:-1 142:-1 143:-1 144:-1 145:1.43478 146:4.6813 147:-1 148:-1 149:-1 150:-1 151:-1 152:-1 153:-1 154:-1 155:-1 156:-1 157:-1 158:-1 159:-1 160:-0.24013 161:-1 162:-1 163:-1 164:-1 165:-1 166:-1 167:-1 168:-1 169:-1 170:-1 171:-1 172:-1 173:-1 174:-1 175:-1 176:-1 177:-1 178:-1 179:-1 180:-1 181:-1 182:-1 183:-1 184:-1 185:-1 186:-1 187:-1 188:-1 189:-1 190:-1 191:-1 192:-1 193:-1 194:-1 195:-1 196:-1 197:-1 198:1.26082 199:0.217388 200:-1 201:-1 202:-1 203:-1 204:-1 205:-1 206:-1 207:-1 208:-1 209:-1 210:-1 211:-1 212:-1 213:-1 214:-1 215:-1 216:-1 217:-1 218:-1 219:-1 220:-1 221:-1 222:-1 223:-1 224:-1 225:-1 226:-1 227:-1 228:-1 229:-1 230:-1 231:-1 232:-1 233:-1 234:-1 235:-1 236:-1 237:-1 238:0.996144 239:-1 240:-1 241:-1 242:-1 243:-1 244:-1 245:-1 246:-1 247:-1 248:-1 249:-1 250:-1 251:-1 252:-1 253:-1 254:-1 255:-1 256:-1 257:-1 258:2.25795 259:-1 260:-1 261:-1 262:-1 263:-1 264:-1 265:-1 266:-1 267:-1 268:-1 269:-1 270:-1 271:-1 272:0.5 273:-1 274:-1 275:-1 276:-1 277:-1 278:-1 279:-1 280:-1 281:-1 282:-0.826084 283:-0.85507 284:-1 285:-1 286:-1 287:-1 288:-1 289:-1 290:-1 291:-1 292:-1 293:-1 294:-1 295:-1 296:-1 297:-1 298:-1 299:-1 300:-1 301:-1 302:-1 303:-1 304:-1 305:-1 306:-1 307:-1 308:-1 309:-1 310:-1 311:0.803983 312:-1 313:-1 314:-1 315:-1 316:-1 317:-1 318:-1 319:-1 320:-1 321:-1 322:-1 323:-1 324:-1 325:-1 326:-1 327:-1 328:-1 329:-1 330:-1 331:-1 332:-1 333:-1 334:-1 335:-1 336:-1 337:-1 338:-1 339:-1 340:-1 341:-1 342:-1 343:-1 344:-1 345:-1 346:-1 347:-1 348:-1 349:-1 350:-1 351:-1 352:-1 353:-1 354:-1 355:-1 356:-1 357:-1 358:-1 359:1.3389 360:-1 361:-1 362:-1 363:-1 364:-1 365:0.710189 366:-1 367:-1 368:-1 369:-1 370:-1 371:-1 372:-1 373:-1 374:-1 375:-1 376:-1 377:-1 378:-1 379:-1 380:-1 381:-1 382:-1 383:-1 384:-1 385:-1 386:-1 387:-1 388:-1 389:-1 390:-1 391:-1 392:-1 393:-1 394:-1 395:-1 396:-1 397:-1 398:-1 399:-1 400:-1 401:-1 402:-1 403:-1 404:-1 405:-1 406:-1 407:-1 408:-1 409:-1 410:-0.225284 411:-1 412:-1 413:0.879888 414:-1 415:-1 416:-1 417:-1 418:-1 419:-1 420:-1 421:-1 422:-1 423:0.0338481 424:-1 425:-1 426:-1 427:-1 428:-1 429:-1 430:-1 431:-1 432:-1 433:-1 434:-1 435:-1 436:-1 437:-1 438:-1 439:-1 440:-1 441:-1 442:-1 443:-1 444:-1 445:-1 446:-1 447:-1 448:-1 449:-1 450:-1 451:-1 452:-1 453:-1 454:-1 455:-1 456:-1 457:-1 458:4.39124 459:-1 460:-1 461:-1 462:1.19325 463:-1 464:-1 465:-1 466:-1 467:-1 468:-1 469:-1 470:-1 471:-1 472:-1 473:-0.507242 474:-1 475:-1 476:-1 477:-1 478:-1 479:-1 480:-1 481:-1 482:-1 483:-1 484:-0.85507 485:-1 486:-1 487:-1 488:-1 489:-1 490:-1 491:1.60877 492:-1 493:-1 494:-1 495:-1 496:-1 497:-1 498:-1 499:-1 500:-1 501:-1 502:-1 503:-1 504:-1 505:-1 506:-1 507:-1 508:-1 509:-1 510:-1 511:-1 512:-1 513:-1 514:-1 515:-1 516:-1 517:-1 518:-1 519:-1 520:-1 521:-1 522:-1 523:-1 524:-1 525:-1 526:-1 527:-1 528:-1 529:-1 530:-1 531:-1 532:-1 533:-1 534:-1 535:-1 536:-1 537:-1 538:-1 539:-1 540:-1 541:4.43012 542:0.782657 543:-1 544:-1 545:-1 546:-1 547:-1 548:-1 549:-1 550:-1 551:-1 552:-0.783571 553:-1 554:-1 555:-1 556:-1 557:-1 558:-1 559:-1 560:-1 561:-1 562:-1 563:-1 564:-1 565:-1 566:-1 567:-1 568:-1 569:-1 570:-1 571:-1 572:-1 573:-1 574:-1 575:-1 576:-1 577:-1 578:-0.797098 579:-1 580:-1 581:-1 582:-1 583:-1 584:-1 585:-1 586:-1 587:-1 588:-1 589:-1 590:-1 591:-1 592:-1 593:-1 594:-1 595:-1 596:-1 597:-1 598:-1 599:-1 600:-1 601:-1 602:-1 603:-1 604:8.0553 605:-1 606:-1 607:-1 608:-1 609:-1 610:-1 611:-1 612:-1 613:-1 614:-1 615:-1 616:-1 617:-1 618:-1 619:-1 620:-1 621:-1 622:-1 623:-1 624:-1 625:-1 626:-1 627:-1 628:9.04343 629:-1 630:-1 631:-1 632:1.44938 633:-1 634:-1 635:-1 636:-1 637:-1 638:1.81172 639:-1 640:-1 641:-1 642:-1 643:-0.225284 644:-1 645:-1 646:-1 647:-1 648:-1 649:-1 650:-1 651:-1 652:-0.971014 653:-1 654:-1 655:-1 656:-1 657:-1 658:-1 659:-1 660:-1 661:-1 662:-1 663:-1 664:-1 665:5.8785 666:-0.391293 667:-1 668:-1 669:-1 670:-1 671:-1 672:-1 673:-1 674:-1 675:-1 676:-1 677:-1 678:-1 679:-1 680:-1 681:-1 682:-1 683:-1 684:-1 685:-1 686:2.82603 687:-1 688:0.217388 689:-1 690:-1 691:-1 692:-1 693:-1 694:0.884043 695:1.60877 696:-1 697:-1 698:-1 699:-1 700:-1 701:-1 702:-1 703:-1 704:-1 705:-1 706:-1 707:-1 708:-1 709:-1 710:-1 711:-1 712:-1 713:-1 714:-1 715:-1 716:-1 717:-1 718:-1 719:-1 720:-1 721:-1 722:-1 723:-1 724:-1 725:-1 726:-1 727:-1 728:-1 729:-1 730:-1 731:0.82612 732:-1 733:-1 734:-1 735:-1 736:-1 737:-1 738:-1 739:-1 740:-0.926217 741:-0.362314 742:-1 743:0.704357 744:-1 745:-1 746:-1 747:-1 748:-1 749:3.63183 750:-1 751:-1 752:-1 753:-1 754:-1 755:2.55569 756:-1 757:-1 758:-1 759:-1 760:-1 761:-1 762:-1 763:-1 764:-1 765:-1 766:-1 767:-1 768:-1 769:-1 770:-1 771:-1 772:-1 773:-1 774:-1 775:-1 776:-1 777:-1 778:-1 779:-1 780:-1 781:-1 782:-1 783:-0.545282 784:-1 785:-1 786:-1 787:-1 788:-1 789:-1 790:-1 791:-1 792:-1 793:-1 794:-1 795:-1 796:-1 797:-1 798:-1 799:-1 800:-1 801:-1 802:-1 803:-1 804:-1 805:-1 806:-0.507242 807:-1 808:-1 809:-1 810:-1 811:-1 812:-0.144905 813:-0.507242 814:-1 815:-1 816:0.884043 817:-1 818:-1 819:-1 820:-1 821:-1 822:-1 823:-1 824:-1 825:-1 826:-1 827:-1 828:-1 829:-1 830:-1 831:-1 832:-1 833:-1 834:-1 835:-0.717386 836:-1 837:-1 838:-1 839:-1 840:-1 841:-1 842:-1 843:-1 844:-1 845:-1 846:-1 847:-1 848:-1 
0 0 3.348032593969175 53.83388591700342 0:-1 1:-1 2:-1 3:-1 4:-1 5:-1 6:-1 7:0.35584 8:-1 9:-1 10:-1 11:-1 12:-1 13:-1 14:-1 15:-0.279682 16:-1 17:-1 18:-1 19:-1 20:-1 21:-1 22:-1 23:-1 24:-1 25:-1 26:-1 27:-1 28:-1 29:-1 30:-1 31:-0.0535485 32:-1 33:-1 34:-1 35:-1 36:-1 37:-1 38:-1 39:-1 40:-1 41:-1 42:-1 43:-1 44:-1 45:0.440666 46:-1 47:-0.833343 48:-0.204245 49:-1 50:-1 51:-1 52:-1 53:-0.50003 54:-0.855943 55:-1 56:-1 57:-0.0396646 58:-0.724593 59:-1 60:-0.962479 61:1.74227 62:-1 63:-1 64:1.08487 65:-1 66:-1 67:-1 68:-1 69:-1 70:-1 71:-1 72:-0.337917 73:-1 74:-1 75:-1 76:-1 77:-1 78:-1 79:-1 80:-1 81:-1 82:-1 83:-1 84:-0.557239 85:-1 86:-1 87:-1 88:-1 89:-1 90:-1 91:-1 92:-0.0396646 93:-1 94:-1 95:-1 96:-1 97:-0.881365 98:-0.813574 99:-0.298009 100:-1 101:-1 102:-1 103:-1 104:-1 105:-0.762726 106:-1 107:-1 108:-1 109:-1 110:-0.55088 111:-1 112:-1 113:-1 114:-1 115:-1 116:-1 117:-1 118:-1 119:-1 120:-1 121:-1 122:0.81361 123:-0.220423 124:0.0423124 125:0.0423124 126:-1 127:-1 128:-1 129:-1 130:-0.972195 131:-1 132:-1 133:-1 134:-1 135:-1 136:-1 137:-1 138:-1 139:-1 140:-0.943507 141:-0.958049 142:-1 143:-1 144:-1 145:-1 146:0.660917 147:-1 148:-1 149:-1 150:-1 151:-1 152:-1 153:-1 154:-1 155:0.432145 156:-1 157:0.775403 158:-0.593085 159:-1 160:-0.777854 161:-1 162:-1 163:-1 164:-1 165:-0.469192 166:-1 167:-0.952237 168:-0.46778 169:-1 170:-1 171:-1 172:-1 173:-1 174:-1 175:3.25452 176:-0.889838 177:-1 178:-1 179:-1 180:-1 181:-1 182:-1 183:-1 184:-1 185:-1 186:-0.418046 187:-1 188:-1 189:-1 190:-1 191:-1 192:-0.669514 193:-1 194:-0.42658 195:-1 196:-1 197:-1 198:-1 199:-1 200:-1 201:-1 202:-1 203:-1 204:-1 205:-1 206:-1 207:-1 208:-1 209:-1 210:5.90005e-05 211:-1 212:-1 213:-1 214:-1 215:-1 216:-1 217:-1 218:-1 219:0.18352 220:-1 221:-1 222:-1 223:-1 224:1.26272 225:-1 226:-1 227:0.6948 228:-1 229:-1 230:-1 231:-1 232:-0.339053 233:-1 234:-1 235:-1 236:-1 237:-1 238:-0.416431 239:-1 240:-1 241:-1 242:-1 243:-1 244:-1 245:-0.713435 246:-1 247:-1 248:-1 249:-1 250:-1 251:-1 252:-1 253:-1 254:-1 255:-1 256:-1 257:-1 258:-1 259:1.27185 260:1.38101 261:-1 262:-1 263:-1 264:-1 265:-1 266:-1 267:-1 268:-1 269:-1 270:-1 271:2.30023 272:-1 273:-1 274:-1 275:-1 276:-1 277:-1 278:-1 279:-1 280:-1 281:-1 282:-1 283:-0.95763 284:-1 285:-1 286:-1 287:-1 288:-1 289:-1 290:-1 291:-1 292:-1 293:-1 294:0.566069 295:-1 296:-0.431556 297:-1 298:-1 299:-1 300:-1 301:-1 302:-1 303:-0.761033 304:-0.644099 305:-1 306:-1 307:-1 308:-0.466137 309:-1 310:-1 311:-1 312:-1 313:-1 314:-0.855173 315:-1 316:-1 317:-1 318:-1 319:0.286864 320:0.182199 321:1.49749 322:-1 323:-1 324:-1 325:-1 326:-0.88135 327:-1 328:-1 329:-1 330:-1 331:-1 332:-1 333:-1 334:-1 335:-1 336:-1 337:-1 338:-1 339:-1 340:-1 341:-1 342:-1 343:-1 344:-1 345:-1 346:-1 347:-1 348:-1 349:-1 350:-0.541847 351:-1 352:-0.108927 353:-1 354:-1 355:-1 356:-1 357:-1 358:-1 359:-1 360:-1 361:-1 362:-1 363:-1 364:-1 365:0.50003 366:-1 367:-1 368:-1 369:-1 370:-1 371:-1 372:-1 373:-1 374:-0.88135 375:-1 376:-1 377:-1 378:-1 379:-1 380:-1 381:-1 382:-1 383:-0.129979 384:0.770951 385:-1 386:-1 387:-1 388:-1 389:-1 390:-1 391:-1 392:-1 393:-1 394:-1 395:-1 396:-1 397:-1 398:-1 399:-1 400:-1 401:-1 402:-1 403:-1 404:-1 405:-1 406:-1 407:-1 408:-0.516948 409:-1 410:-1 411:-1 412:-1 413:0.648875 414:-1 415:-1 416:-1 417:-1 418:-1 419:-1 420:-1 421:-1 422:-1 423:-1 424:0.304897 425:0.323649 426:-1 427:-1 428:-1 429:-1 430:-1 431:-1 432:-1 433:-1 434:-1 435:-1 436:-1 437:-1 438:-1 439:-1 440:-1 441:0.152925 442:-1 443:-1 444:-1 445:-1 446:-1 447:-1 448:-0.95088 449:-1 450:-1 451:-1 452:-1 453:-1 454:-0.828825 455:-0.0933019 456:-1 457:-1 458:-1 459:-1 460:-0.940682 461:4.33885 462:-0.358808 463:-0.813574 464:-1 465:-1 466:-1 467:-1 468:-1 469:-1 470:-1 471:-1 472:-1 473:-1 474:-1 475:-1 476:-1 477:-1 478:-1 479:1.07036 480:-1 481:-1 482:-1 483:-1 484:-1 485:-1 486:-1 487:-1 488:-1 489:-1 490:-1 491:-1 492:-1 493:-1 494:-1 495:-1 496:-1 497:-0.95763 498:-1 499:-1 500:0.245627 501:-0.466095 502:-1 503:0.695612 504:-1 505:-1 506:-1 507:-0.644099 508:-1 509:-1 510:-1 511:-1 512:-1 513:-1 514:-0.694938 515:-1 516:-1 517:-1 518:-1 519:-1 520:-1 521:-1 522:-0.771202 523:0.19067 524:-1 525:-1 526:-0.893227 527:-1 528:-1 529:-1 530:-1 531:-1 532:-1 533:-1 534:-1 535:-0.515077 536:-1 537:-1 538:-0.944193 539:-1 540:-1 541:-1 542:-1 543:-1 544:-1 545:-1 546:-0.156816 547:-1 548:-1 549:-1 550:-0.816889 551:-1 552:-1 553:-1 554:-0.473567 555:-1 556:-1 557:-1 558:-1 559:-1 560:-1 561:-1 562:-1 563:-1 564:-1 565:-1 566:-1 567:-1 568:-1 569:-1 570:0.0593 571:-1 572:-1 573:-1 574:-0.173752 575:-1 576:-1 577:-1 578:-0.762714 579:-1 580:0.6949 581:-0.724593 582:-1 583:-1 584:-1 585:-1 586:-0.478844 587:-1 588:-1 589:-1 590:-1 591:-1 592:-1 593:-1 594:-0.546651 595:-1 596:-1 597:-1 598:-1 599:-1 600:-1 601:-1 602:-1 603:-0.449204 604:-1 605:-1 606:-1 607:-1 608:-1 609:-1 610:-1 611:-1 612:-1 613:-1 614:-1 615:-1 616:-1 617:1.14108 618:-1 619:-1 620:-1 621:-1 622:-1 623:-1 624:-1 625:1.60979 626:0.0423124 627:-1 628:-1 629:-1 630:-1 631:-1 632:-1 633:-1 634:-1 635:-1 636:-1 637:-1 638:-0.178 639:-1 640:-0.437863 641:-1 642:-1 643:-1 644:0.130452 645:-1 646:-1 647:-1 648:-1 649:-0.693116 650:-1 651:-1 652:-1 653:-1 654:-0.64578 655:-1 656:0.188499 657:-1 658:-1 659:-1 660:-1 661:-1 662:-1 663:-1 664:0.432145 665:-1 666:-1 667:-0.940682 668:-1 669:-1 670:0.144053 671:-1 672:-1 673:-1 674:-1 675:-1 676:-1 677:-1 678:-1 679:-1 680:-1 681:-1 682:-1 683:-0.50003 684:-1 685:-0.144127 686:0.118532 687:-1 688:-1 689:-1 690:-1 691:-1 692:5.90005e-05 693:-1 694:-1 695:-1 696:-1 697:-1 698:-1 699:-1 700:-1 701:-1 702:0.72026 703:0.432145 704:-1 705:-1 706:-1 707:-1 708:-1 709:-1 710:-1 711:-1 712:-1 713:-1 714:-1 715:-1 716:-1 717:-1 718:-1 719:-1 720:0.0678511 721:-1 722:-1 723:-1 724:-1 725:0.432145 726:-1 727:-1 728:1.32586 729:-1 730:-1 731:-1 732:-1 733:-1 734:-1 735:-1 736:0.432145 737:-1 738:-1 739:-1 740:-1 741:-1 742:-1 743:-1 744:-1 745:-1 746:-1 747:-1 748:-1 749:-1 750:-1 751:-1 752:-1 753:-1 754:-1 755:0.0394995 756:-1 757:-1 758:-1 759:-1 760:-1 761:-1 762:-1 763:-1 764:-0.55088 765:-1 766:-1 767:-1 768:-1 769:-1 770:-1 771:-1 772:-1 773:-1 774:-0.237272 775:-0.384179 776:-1 777:-0.466137 778:-1 779:-1 780:-1 781:-1 782:-1 783:-1 784:-1 785:-1 786:-0.915858 787:-1 788:-1 789:-1 790:-0.479922 791:-1 792:-1 793:-0.288114 794:-1 795:0.72026 796:-1 797:-1 798:-1 799:-1 800:-0.0396646 801:-1 802:-1 803:-1 804:-1 805:-0.711852 806:-0.855943 807:-1 808:0.171089 809:-1 810:-1 811:-0.865276 812:-1 813:-0.855943 814:-1 815:-1 816:-1 817:-1 818:-1 819:-0.822046 820:-1 821:-1 822:0.72026 823:-1 824:-1 825:-1 826:-1 827:-1 828:-1 829:-1 830:-1 831:0.566069 832:-1 833:-1 834:-1 835:-1 836:-1 837:-1 838:-1 839:-1 840:-1 841:-0.288198 842:-1 843:-1 844:-1 845:-1 846:-1 847:-1 848:-1 
0 0 52.23680758982423 128 0:-1 1:-1 2:-0.497905 3:-1 4:-0.979845 5:-1 6:-0.141762 7:-1 8:-1 9:-1 10:-1 11:-1 12:0.0467405 13:-1 14:-1 15:-0.855331 16:-1 17:-1 18:-1 19:0.335425 20:-1 21:-0.784003 22:-0.450555 23:-0.730851 24:-1 25:-1 26:-0.356322 27:-1 28:-1 29:-0.731872 30:-1 31:0.188006 32:-1 33:-1 34:-1 35:-1 36:-1 37:-1 38:-1 39:-1 40:-1 41:-1 42:-1 43:-1 44:-1 45:-0.276437 46:-1 47:-1 48:-1 49:-1 50:-1 51:-1 52:-1 53:-1 54:-0.78298 55:-1 56:-1 57:-0.0355848 58:-0.585102 59:-1 60:-1 61:-1 62:-1 63:-1 64:-1 65:-1 66:-1 67:-1 68:-1 69:-1 70:-1 71:-1 72:-1 73:-1 74:-1 75:-1 76:-1 77:-0.472288 78:-1 79:-1 80:-1 81:-1 82:-1 83:-0.475792 84:-1 85:-1 86:-1 87:-0.276437 88:-1 89:-0.731872 90:-1 91:-1 92:-0.0355848 93:-1 94:-1 95:-0.599925 96:-1 97:-1 98:-1 99:-0.882486 100:-1 101:-1 102:-1 103:-1 104:-1 105:-0.52338 106:-1 107:-1 108:-0.966973 109:-1 110:-1 111:-1 112:-1 113:-0.424709 114:-1 115:-1 116:-1 117:-1 118:-1 119:0.212423 120:-1 121:-1 122:-1 123:-1 124:-1 125:-1 126:0.183208 127:-0.374461 128:-1 129:-0.356322 130:-1 131:-1 132:1.72352 133:-1 134:-1 135:-1 136:-1 137:-1 138:-1 139:-1 140:-1 141:-0.957871 142:-0.233981 143:-1 144:-1 145:-1 146:0.667973 147:-1 148:-1 149:-0.004329 150:-1 151:-1 152:0.447127 153:-1 154:-1 155:-1 156:-0.476507 157:-1 158:-1 159:-1 160:-0.888429 161:-1 162:-1 163:-0.356322 164:-1 165:-0.961918 166:-1 167:-0.688196 168:-0.732697 169:0.059761 170:-1 171:-1 172:-1 173:-1 174:-1 175:0.0682731 176:-0.944672 177:-1 178:-1 179:0.465266 180:-1 181:-1 182:-1 183:-1 184:-1 185:-0.687174 186:-0.415574 187:-1 188:-1 189:-1 190:-1 191:-1 192:-1 193:-1 194:-1 195:-0.509508 196:-1 197:-1 198:-0.668045 199:-0.463839 200:-1 201:-0.553204 202:-0.812782 203:-1 204:-1 205:-0.786165 206:-1 207:-1 208:-1 209:-1 210:-1 211:-1 212:-1 213:-1 214:-1 215:-1 216:-1 217:-1 218:-1 219:-1 220:-0.587157 221:-1 222:-1 223:-1 224:-0.431852 225:-1 226:-1 227:0.702 228:-1 229:-1 230:-1 231:-0.108318 232:-1 233:-1 234:-0.974464 235:-1 236:-1 237:-1 238:-1 239:-1 240:-0.834016 241:-1 242:0.0725806 243:-1 244:-1 245:-0.568293 246:-0.910624 247:-1 248:0.447127 249:-1 250:-1 251:-1 252:-0.530968 253:-1 254:-1 255:-1 256:-1 257:-0.774433 258:-1 259:-1 260:-1 261:-1 262:-1 263:-0.780177 264:-0.7872 265:-0.680504 266:-1 267:-0.9392 268:-0.497905 269:-1 270:-1 271:0.656931 272:-1 273:-1 274:-0.66811 275:-1 276:-0.476507 277:-0.24925 278:-1 279:-1 280:-1 281:-0.821252 282:-0.974464 283:-0.97872 284:-1 285:-1 286:-0.723367 287:-1 288:-1 289:-1 290:-1 291:-1 292:-1 293:-1 294:0.572722 295:-0.963115 296:-0.857294 297:-1 298:-0.0789872 299:-1 300:-1 301:-0.108318 302:-1 303:-0.879981 304:-0.821252 305:-1 306:0.438229 307:0.931911 308:-0.463869 309:-0.476507 310:-1 311:-0.337887 312:-1 313:-1 314:-1 315:-1 316:-1 317:-1 318:-1 319:0.938648 320:-1 321:-1 322:-1 323:0.333751 324:-1 325:-1 326:-0.970208 327:-0.807334 328:-1 329:-1 330:-1 331:-1 332:-0.628498 333:-1 334:-1 335:-0.784277 336:-0.519053 337:-1 338:-1 339:-1 340:-1 341:-0.136013 342:-1 343:-1 344:-0.165817 345:-1 346:-1 347:-1 348:-0.731872 349:-1 350:-1 351:-0.647462 352:0.342235 353:-1 354:-1 355:-0.821252 356:-1 357:-0.793588 358:-0.136013 359:-0.313322 360:-1 361:0.00430704 362:-1 363:-1 364:-1 365:-0.497905 366:-1 367:-1 368:-1 369:-1 370:-1 371:-1 372:-1 373:-1 374:-0.970208 375:-1 376:3.74944 377:-0.843417 378:0.0228311 379:-1 380:-1 381:-0.927649 382:-1 383:-0.126283 384:-0.110554 385:-1 386:-1 387:-0.195741 388:-1 389:-1 390:0.930732 391:-1 392:-0.970208 393:-1 394:-1 395:0.40462 396:-1 397:-1 398:-0.748894 399:-1 400:-1 401:-0.202287 402:-0.595668 403:0.727568 404:1.57431 405:-1 406:-0.821252 407:-1 408:-0.595759 409:-1 410:-0.943124 411:-1 412:-1 413:-0.723977 414:-1 415:-1 416:-1 417:0.175691 418:-1 419:-1 420:-0.846785 421:-0.927649 422:-1 423:-0.848201 424:-0.344626 425:-1 426:-1 427:-1 428:-1 429:-1 430:-0.141762 431:-1 432:-0.472288 433:-1 434:-1 435:-0.731872 436:-1 437:-1 438:-0.910638 439:-1 440:-0.821252 441:-0.420952 442:-1 443:-1 444:-1 445:-1 446:-1 447:-0.544618 448:-1 449:-0.880846 450:0.150581 451:-1 452:-1 453:-1 454:-1 455:-0.544618 456:-1 457:-1 458:0.187204 459:-1 460:-0.970208 461:0.251071 462:-1 463:-1 464:-1 465:-1 466:-0.47012 467:-1 468:-1 469:-1 470:-1 471:-1 472:-0.509589 473:-1 474:-1 475:-0.708812 476:-1 477:-1 478:-1 479:-1 480:0.346409 481:-0.821269 482:-1 483:-1 484:-0.97872 485:-0.438358 486:-0.476507 487:-1 488:-1 489:-1 490:-1 491:-1 492:-0.563218 493:-1 494:-0.5745 495:-0.280717 496:-1 497:-1 498:-1 499:-1 500:-1 501:-1 502:-1 503:-0.716153 504:-1 505:-1 506:-1 507:-0.821252 508:-1 509:-1 510:-1 511:-1 512:-1 513:-1 514:-0.846785 515:-1 516:-0.906369 517:-1 518:-0.881257 519:-1 520:-1 521:-1 522:-0.77023 523:-1 524:-0.351714 525:-1 526:-0.731922 527:-1 528:-1 529:-1 530:-1 531:-1 532:-1 533:-1 534:-1 535:-0.269554 536:-1 537:-1 538:-1 539:-1 540:-1 541:-1 542:-1 543:-1 544:-1 545:-1 546:-1 547:-1 548:0.287356 549:-1 550:-0.908034 551:-1 552:-0.95234 553:-1 554:-1 555:-1 556:-1 557:-1 558:-1 559:-0.611004 560:-1 561:-1 562:-1 563:-0.784277 564:-1 565:-1 566:-1 567:-1 568:-1 569:-0.950325 570:-0.68085 571:-1 572:-1 573:-1 574:-0.585023 575:-1 576:-0.834016 577:-0.054012 578:-1 579:-1 580:-0.1489 581:-1 582:-0.123494 583:-0.136013 584:-0.136013 585:-1 586:-1 587:-0.910645 588:-1 589:-0.476507 590:-1 591:-1 592:-1 593:-1 594:-0.772309 595:-1 596:-1 597:-0.675338 598:-1 599:-1 600:-1 601:-0.531955 602:-1 603:-0.723367 604:-1 605:-1 606:-0.816658 607:-1 608:-0.568532 609:-1 610:-1 611:-1 612:0.187221 613:-1 614:-1 615:-1 616:-1 617:-0.784998 618:-1 619:-1 620:-1 621:-1 622:0.343859 623:-1 624:-1 625:-1 626:-1 627:-1 628:-1 629:-1 630:-1 631:-1 632:-0.280886 633:-1 634:-0.463827 635:-1 636:-1 637:-1 638:-1 639:0.196326 640:-0.858877 641:-0.570838 642:-1 643:-0.8294 644:-0.716153 645:-0.748894 646:0.200085 647:-1 648:-1 649:-1 650:-1 651:-1 652:-0.995744 653:-1 654:-1 655:-1 656:-1 657:0.470629 658:-1 659:-0.136013 660:-1 661:-1 662:-1 663:-0.153035 664:-1 665:-1 666:-0.910624 667:-1 668:-1 669:-1 670:-1 671:-1 672:-1 673:-1 674:-1 675:-0.919894 676:0.210122 677:-1 678:0.555759 679:-1 680:-1 681:-1 682:-1 683:-1 684:-1 685:-1 686:-0.438226 687:-1 688:-0.821252 689:-1 690:-1 691:-1 692:-1 693:-1 694:-0.723367 695:-1 696:-1 697:-1 698:-1 699:-0.472379 700:-1 701:-1 702:-1 703:-1 704:-0.476507 705:-1 706:-1 707:-1 708:-1 709:-1 710:-1 711:-1 712:-1 713:-1 714:1.21557 715:-1 716:-0.762513 717:-0.987232 718:-1 719:-1 720:-1 721:-1 722:-1 723:-1 724:-0.136013 725:-1 726:-1 727:-1 728:-0.610649 729:-1 730:-1 731:-1 732:-0.723367 733:-1 734:-1 735:-1 736:-1 737:-0.141762 738:-0.712724 739:-1 740:-1 741:-1 742:-1 743:-1 744:-1 745:-1 746:-1 747:-1 748:-0.108318 749:-1 750:-0.476507 751:-1 752:-0.744697 753:-0.527987 754:-1 755:-1 756:-1 757:-0.821252 758:-1 759:-1 760:-1 761:-1 762:-1 763:-0.438226 764:-0.774433 765:-1 766:-1 767:-1 768:-1 769:-1 770:-1 771:-1 772:-1 773:-1 774:-0.617016 775:-1 776:-1 777:-0.195741 778:-0.476507 779:1.15751 780:-0.748953 781:-1 782:-1 783:-1 784:-1 785:-1 786:-0.95774 787:-1 788:-1 789:-1 790:-0.912939 791:-1 792:-1 793:-0.821252 794:-1 795:-1 796:-0.920315 797:-0.280717 798:-0.433967 799:0.187221 800:-0.0355848 801:-1 802:-1 803:-1 804:-1 805:-0.927649 806:-0.710628 807:-0.832481 808:0.176064 809:-1 810:-1 811:-1 812:-0.874447 813:-0.638311 814:-1 815:-1 816:-1 817:-1 818:-1 819:-0.910624 820:-1 821:-1 822:-1 823:-1 824:-1 825:-0.355932 826:-0.815908 827:-1 828:-1 829:0.0873786 830:-1 831:-0.213454 832:-1 833:-1 834:-1 835:-1 836:-1 837:-0.834016 838:-0.476507 839:-1 840:-1 841:-0.285174 842:-1 843:-1 844:-1 845:-0.780868 846:-1 847:0.333751 848:-0.66811 
0 0 0 37.14993055787821 0:-1 1:-1 2:-1 3:-1 4:-1 5:-1 6:-1 7:-1 8:-1 9:-1 10:-1 11:-0.0231536 12:-1 13:-1 14:-0.89885 15:-0.901741 16:-1 17:-1 18:-1 19:-1 20:-1 21:-1 22:-0.253808 23:-1 24:-1 25:-1 26:-1 27:-1 28:-1 29:-1 30:-1 31:-0.0316601 32:-1 33:-1 34:-1 35:-1 36:-1 37:-0.479795 38:-1 39:-1 40:-1 41:-1 42:-1 43:-1 44:-1 45:-1 46:-1 47:-1 48:-0.457226 49:-1 50:-1 51:-1 52:-1 53:-1 54:-0.901741 55:-1 56:-1 57:-0.344968 58:-1 59:-1 60:-0.795248 61:-1 62:-1 63:-1 64:-1 65:-1 66:0.456653 67:-1 68:-0.88729 69:-1 70:-1 71:-0.763018 72:-1 73:-1 74:-0.652707 75:-1 76:-1 77:-1 78:-1 79:-0.805407 80:-0.7688 81:-1 82:-1 83:-1 84:-0.697999 85:-0.946567 86:-0.413317 87:-1 88:-0.416221 89:-1 90:-1 91:-1 92:-0.344968 93:-1 94:-1 95:0.0866704 96:-1 97:-0.838161 98:-1 99:-0.840406 100:-1 101:-1 102:-1 103:-1 104:-1 105:-1 106:-0.666936 107:-1 108:-1 109:-1 110:-1 111:-1 112:-1 113:-0.218708 114:-1 115:-1 116:-1 117:-1 118:-1 119:-0.176521 120:-1 121:-1 122:-1 123:-1 124:-0.289053 125:-1 126:-1 127:-1 128:-1 129:-1 130:-0.981034 131:-1 132:-1 133:-1 134:-1 135:-1 136:0.0703704 137:-1 138:-1 139:0.312145 140:-0.922933 141:-1 142:-1 143:-1 144:-1 145:-0.51449 146:-1 147:-1 148:-1 149:-1 150:0.339358 151:-1 152:0.965318 153:-1 154:-1 155:-1 156:-1 157:0.210978 158:-0.722449 159:-1 160:-0.848477 161:-1 162:-1 163:-1 164:-1 165:-0.586231 166:0.0195802 167:-1 168:3.71951 169:0.439243 170:-1 171:0.606895 172:-1 173:-0.72363 174:-1 175:-1 176:-1 177:0.606895 178:-1 179:-1 180:-1 181:-1 182:-1 183:-1 184:-1 185:-1 186:-0.801552 187:-0.696413 188:-1 189:-1 190:-1 191:-1 192:-0.323661 193:-1 194:-1 195:0.332258 196:-1 197:-1 198:-1 199:-0.757245 200:-1 201:-1 202:-0.872841 203:-0.0971571 204:0.433354 205:-0.709526 206:-1 207:0.156 208:-1 209:-1 210:-1 211:-1 212:-1 213:-1 214:0.0681944 215:-1 216:-1 217:0.456653 218:-1 219:-0.192737 220:-1 221:-0.813114 222:-1 223:-1 224:-1 225:-1 226:-1 227:-1 228:-1 229:-1 230:-1 231:-1 232:-1 233:-1 234:-1 235:-1 236:-1 237:-1 238:-0.601956 239:-1 240:-1 241:-1 242:-1 243:-1 244:-1 245:-0.804538 246:-1 247:-1 248:0.965318 249:-1 250:-1 251:-0.961334 252:-1 253:-1 254:-1 255:-1 256:-0.839809 257:-1 258:-1 259:-1 260:-1 261:-1 262:-1 263:-0.701462 264:-1 265:-0.566099 266:-1 267:-0.834857 268:-1 269:-1 270:-1 271:0.125389 272:-1 273:-1 274:-1 275:-1 276:-1 277:-1 278:-1 279:-1 280:-1 281:-1 282:-1 283:-1 284:-1 285:-1 286:-1 287:-1 288:-1 289:-1 290:-1 291:-1 292:-1 293:-1 294:-1 295:-1 296:-0.515335 297:-1 298:-1 299:-1 300:-1 301:-1 302:0.173366 303:-0.510956 304:-1 305:-0.413317 306:-1 307:-1 308:-0.63586 309:-1 310:-1 311:-0.19054 312:-1 313:-1 314:-0.901215 315:-0.765622 316:-1 317:-1 318:-0.633435 319:-1 320:-1 321:-1 322:-1 323:-1 324:-1 325:-1 326:-1 327:-1 328:2.52209 329:-1 330:-1 331:-1 332:-1 333:-1 334:-1 335:-0.70703 336:-0.899498 337:-1 338:-1 339:-1 340:-0.877623 341:-1 342:-1 343:-1 344:-1 345:-1 346:-0.516399 347:-1 348:-1 349:-1 350:-1 351:-1 352:-1 353:-1 354:-1 355:-1 356:-1 357:-1 358:-1 359:-1 360:-1 361:-1 362:-0.497129 363:-1 364:-1 365:-1 366:-1 367:-1 368:-1 369:-0.818894 370:-1 371:-0.769363 372:-1 373:-1 374:-1 375:-1 376:-1 377:-1 378:-1 379:-1 380:-1 381:-1 382:-1 383:-0.406571 384:-1 385:-1 386:-1 387:-1 388:-1 389:-0.901741 390:-1 391:-1 392:-0.838146 393:-1 394:-1 395:-1 396:-1 397:-1 398:-1 399:-0.901741 400:-1 401:1.16742 402:-1 403:-1 404:-1 405:-1 406:-1 407:-1 408:-0.890181 409:-1 410:-0.691006 411:-1 412:-1 413:-1 414:-1 415:-1 416:-1 417:-1 418:-1 419:-0.711 420:-1 421:-1 422:-1 423:-1 424:-1 425:-1 426:-1 427:1.20527 428:-1 429:-1 430:-1 431:-0.658977 432:-1 433:-0.382676 434:-1 435:-1 436:-1 437:-0.271719 438:-0.91908 439:-1 440:-1 441:-0.213605 442:-1 443:-1 444:-1 445:-1 446:-1 447:-1 448:-0.932991 449:-0.95954 450:-1 451:-1 452:-1 453:-1 454:-1 455:-1 456:-1 457:-1 458:-0.462476 459:-1 460:-1 461:3.85535 462:-1 463:-1 464:-1 465:-1 466:-1 467:-1 468:-1 469:-1 470:-1 471:-1 472:-1 473:-1 474:-1 475:-1 476:-0.674385 477:-1 478:-1 479:-1 480:-1 481:-0.93931 482:-1 483:-1 484:-1 485:-1 486:-1 487:-1 488:-1 489:-1 490:-1 491:-1 492:-1 493:-1 494:-1 495:-1 496:-1 497:-1 498:-1 499:-0.681508 500:-1 501:-0.635818 502:-1 503:-1 504:-1 505:-1 506:-1 507:-1 508:-1 509:-1 510:-1 511:-1 512:-1 513:-1 514:-1 515:-0.949739 516:-1 517:-1 518:-1 519:-1 520:-1 521:-1 522:-1 523:-0.18786 524:0.760853 525:-1 526:-1 527:-1 528:-1 529:-0.848999 530:-1 531:-1 532:-1 533:-1 534:-1 535:-0.83464 536:-1 537:-1 538:-0.961935 539:-1 540:-1 541:1.16561 542:-1 543:-1 544:-1 545:-1 546:-1 547:-1 548:-1 549:-1 550:-1 551:-1 552:-0.978421 553:-1 554:-0.640927 555:-1 556:-1 557:-1 558:-1 559:-1 560:-1 561:-1 562:-1 563:-1 564:-1 565:-1 566:-1 567:-1 568:0.159944 569:-1 570:-0.13295 571:-1 572:-1 573:-1 574:-1 575:-0.911373 576:-1 577:-1 578:-1 579:-1 580:-0.711 581:-0.812149 582:-0.404676 583:-1 584:-1 585:-1 586:-0.644526 587:-0.93931 588:0.150249 589:-1 590:-1 591:-1 592:-1 593:-1 594:-0.381554 595:-1 596:-1 597:-0.118163 598:-0.404676 599:-1 600:-1 601:-1 602:-1 603:-1 604:-0.0971571 605:-1 606:-0.875474 607:-1 608:-1 609:-0.758397 610:-1 611:-1 612:-1 613:-1 614:-1 615:-1 616:-1 617:0.314368 618:-1 619:-1 620:-1 621:-1 622:-1 623:-0.948768 624:-1 625:-1 626:-1 627:-0.923126 628:-1 629:-1 630:-1 631:-0.109948 632:-1 633:-1 634:-1 635:-1 636:-1 637:-1 638:-1 639:-0.458345 640:-0.712414 641:-1 642:-1 643:-0.922758 644:-1 645:-1 646:-1 647:-1 648:-1 649:-1 650:-1 651:-0.670505 652:-0.982658 653:-1 654:-0.758392 655:-1 656:-1 657:-1 658:-0.745683 659:-1 660:-1 661:-1 662:-1 663:-1 664:-1 665:-1 666:-1 667:-1 668:-0.289053 669:-1 670:-1 671:-1 672:-1 673:-1 674:-1 675:-1 676:-1 677:-1 678:-1 679:-1 680:-1 681:-1 682:-1 683:-1 684:-1 685:-1 686:-1 687:-1 688:-0.271651 689:-1 690:-1 691:-1 692:-1 693:-1 694:-0.248619 695:-1 696:-1 697:-0.757245 698:-1 699:-1 700:-1 701:-1 702:0.173366 703:-1 704:-1 705:-1 706:-1 707:-1 708:-1 709:-1 710:-1 711:-1 712:-0.63586 713:-1 714:0.504816 715:-1 716:-1 717:-0.98266 718:-0.778196 719:-1 720:0.0925471 721:-1 722:-1 723:-1 724:-1 725:-0.0231536 726:-1 727:-1 728:-1 729:-1 730:-1 731:-1 732:-0.624309 733:-1 734:-1 735:-1 736:-0.0231536 737:-1 738:-1 739:-1 740:-1 741:-1 742:-1 743:-0.150291 744:-1 745:-1 746:-1 747:-1 748:2.63335 749:-1 750:-1 751:-1 752:-1 753:-1 754:-0.237064 755:-0.290972 756:-1 757:-0.757245 758:-1 759:-1 760:-1 761:-1 762:-1 763:-0.237064 764:-1 765:-1 766:0.749924 767:-1 768:0.480343 769:-0.332409 770:-1 771:-1 772:-0.192737 773:-1 774:-0.653197 775:-0.939998 776:-1 777:-0.63586 778:-1 779:-0.0231536 780:-1 781:-1 782:-1 783:-1 784:-1 785:-0.9711 786:-1 787:-1 788:-1 789:-0.725455 790:-0.881763 791:-0.657055 792:-0.77458 793:-0.271651 794:0.439243 795:-1 796:-1 797:-1 798:0.537438 799:-1 800:-1 801:-1 802:-0.231281 803:-1 804:-1 805:-1 806:-1 807:-1 808:-1 809:-1 810:-0.516399 811:-0.908118 812:-1 813:-1 814:-1 815:-1 816:-1 817:-1 818:-1 819:-0.635818 820:-0.395966 821:-1 822:0.173366 823:-1 824:-1 825:-1 826:0.375473 827:-1 828:-1 829:-1 830:-0.297268 831:-1 832:-1 833:-1 834:-1 835:-1 836:-1 837:-1 838:-1 839:-1 840:-1 841:-1 842:-0.915927 843:-1 844:-1 845:-1 846:-1 847:4.43466 848:-1 
0 0 0 53.46244684445848 0:-1 1:-1 2:-1 3:-1 4:-1 5:1.15425 6:-1 7:-1 8:-1 9:-1 10:-0.635737 11:-0.0890654 12:-0.337023 13:-1 14:-1 15:-0.358493 16:-1 17:-1 18:-1 19:-1 20:-1 21:-1 22:-1 23:-0.77268 24:-1 25:-1 26:-1 27:-1 28:-1 29:-1 30:-1 31:-0.699034 32:0.198044 33:-1 34:-1 35:-1 36:-1 37:-1 38:-1 39:-1 40:-1 41:-1 42:-1 43:-0.830215 44:-1 45:-0.083645 46:-1 47:-1 48:-1 49:-1 50:-1 51:-1 52:-1 53:-1 54:-1 55:-1 56:-1 57:-0.389166 58:-1 59:-1 60:-1 61:-0.127973 62:-1 63:-1 64:-1 65:-0.337023 66:-1 67:-1 68:-1 69:-1 70:-0.849848 71:-1 72:-1 73:-0.155569 74:-0.0283002 75:0.0941941 76:-0.423283 77:-0.33168 78:-1 79:-0.818537 80:-1 81:-1 82:-1 83:-1 84:-0.718376 85:-1 86:-1 87:-1 88:-0.455611 89:-0.66043 90:-1 91:-1 92:-0.389166 93:-1 94:-1 95:-1 96:-1 97:-1 98:-0.881421 99:-1 100:-1 101:-1 102:-1 103:-1 104:-1 105:-0.849079 106:-0.378702 107:-1 108:-1 109:-1 110:-1 111:-1 112:-1 113:-1 114:-1 115:-1 116:-1 117:-1 118:-1 119:-1 120:-1 121:-1 122:0.153649 123:-1 124:-1 125:-1 126:-1 127:-1 128:-1 129:-1 130:-1 131:0.631659 132:-1 133:-1 134:-1 135:-1 136:-0.00185185 137:-1 138:-1 139:0.22361 140:-1 141:-1 142:-1 143:-1 144:-1 145:-1 146:0.0564485 147:-1 148:-1 149:-0.369369 150:-0.375507 151:-0.681987 152:-1 153:-1 154:-1 155:-1 156:-1 157:-1 158:-1 159:-1 160:-0.57605 161:-1 162:-1 163:-0.184815 164:1.18879 165:-1 166:-1 167:-1 168:1.70858 169:0.342131 170:-1 171:0.498471 172:-1 173:-1 174:-0.337023 175:-1 176:-1 177:-1 178:-1 179:-1 180:-1 181:-1 182:-1 183:-1 184:-0.96766 185:-1 186:0.110554 187:-1 188:-1 189:-1 190:-1 191:-1 192:-0.369291 193:-1 194:-1 195:-0.378818 196:-1 197:-1 198:-1 199:0.132045 200:-1 201:-0.660388 202:-1 203:-0.158076 204:-1 205:-1 206:-1 207:0.078 208:-1 209:-1 210:-1 211:-1 212:-1 213:-1 214:-1 215:-1 216:-1 217:3.0756 218:-1 219:-1 220:-1 221:-1 222:-1 223:-1 224:-1 225:-1 226:-1 227:-1 228:-1 229:-1 230:-1 231:-1 232:-0.579596 233:-1 234:-1 235:-1 236:-1 237:-1 238:-0.257489 239:0.0869127 240:-1 241:-1 242:-1 243:-1 244:-1 245:-1 246:-0.88681 247:-1 248:-1 249:-1 250:-1 251:-1 252:0.18823 253:-1 254:-0.711641 255:-1 256:-1 257:-1 258:-1 259:1.89062 260:-1 261:-1 262:-0.477156 263:-1 264:-1 265:-0.595376 266:-1 267:-1 268:-1 269:-0.834526 270:-1 271:1.0993 272:-0.721072 273:0.126437 274:-1 275:-1 276:-1 277:-1 278:-1 279:-1 280:-0.861208 281:-1 282:-1 283:-1 284:-1 285:-1 286:-1 287:-1 288:-1 289:-1 290:-1 291:-1 292:-1 293:-1 294:-0.00388098 295:-0.906556 296:-0.819194 297:-1 298:-1 299:-1 300:-0.805063 301:1.25896 302:0.0941941 303:-1 304:-1 305:-0.452903 306:-1 307:-1 308:0.698104 309:-1 310:-1 311:0.593683 312:-1 313:0.051092 314:-0.815727 315:-1 316:-1 317:-1 318:-1 319:-0.181473 320:-1 321:-1 322:-1 323:-1 324:-0.544533 325:-1 326:-1 327:-1 328:0.0949528 329:-1 330:-0.544533 331:-1 332:-0.529314 333:-1 334:-1 335:-1 336:-1 337:-1 338:-0.708886 339:-1 340:-1 341:-1 342:-1 343:-1 344:-1 345:-1 346:-0.548946 347:-1 348:-1 349:-1 350:-1 351:-1 352:-0.149827 353:-1 354:-0.220334 355:-1 356:-1 357:-1 358:-1 359:-1 360:-1 361:-0.681987 362:-1 363:-1 364:-1 365:-1 366:-1 367:0.231718 368:-0.878667 369:-1 370:-1 371:-0.56977 372:-1 373:-1 374:-1 375:-1 376:0.503906 377:-1 378:0.295362 379:-1 380:-1 381:-1 382:-1 383:-1 384:0.126437 385:-1 386:-1 387:-1 388:-1 389:-1 390:-0.184815 391:-1 392:-0.96227 393:-1 394:-1 395:-1 396:-1 397:-1 398:-0.681987 399:-0.908371 400:-1 401:1.02137 402:-1 403:-1 404:-1 405:1.95649 406:-0.773625 407:-1 408:-1 409:-1 410:-1 411:-1 412:-1 413:-1 414:0.129269 415:-1 416:-1 417:-1 418:0.51447 419:-1 420:-1 421:-1 422:-1 423:-1 424:-1 425:-1 426:-1 427:-1 428:-1 429:-1 430:-1 431:-1 432:-1 433:-1 434:-1 435:-1 436:-1 437:-0.66043 438:-0.735848 439:-1 440:-0.773625 441:-0.266667 442:-1 443:-1 444:-1 445:-1 446:-1 447:-1 448:-1 449:-0.849052 450:-1 451:-1 452:-1 453:-1 454:-1 455:-1 456:-1 457:-1 458:-1 459:-1 460:-0.886796 461:-0.773625 462:-1 463:-1 464:-1 465:-0.926738 466:-1 467:-1 468:-1 469:-1 470:-1 471:-0.00388098 472:-1 473:-1 474:-1 475:-1 476:-1 477:-1 478:-1 479:-1 480:0.705157 481:-0.886789 482:-1 483:-1 484:-1 485:-0.288411 486:-1 487:-1 488:-1 489:-1 490:-1 491:-1 492:-0.446839 493:-1 494:-1 495:-1 496:-1 497:-1 498:-1 499:-0.405885 500:-1 501:-1 502:-1 503:-1 504:-1 505:-1 506:-1 507:-1 508:-1 509:-1 510:-1 511:-1 512:-1 513:-0.541861 514:-1 515:-0.976565 516:-1 517:-1 518:-1 519:-1 520:-1 521:-1 522:-0.85447 523:-1 524:-1 525:0.0869127 526:-0.932086 527:-1 528:-1 529:-1 530:-1 531:-1 532:-0.423283 533:-1 534:-1 535:-1 536:-1 537:-1 538:-1 539:-1 540:-1 541:2.0296 542:-1 543:-1 544:-1 545:-1 546:-1 547:-1 548:-1 549:-1 550:-0.88353 551:-1 552:-1 553:-1 554:-1 555:-0.494893 556:-1 557:-1 558:-1 559:-0.507358 560:-1 561:-1 562:-1 563:-1 564:-1 565:-1 566:-1 567:-1 568:-1 569:-0.937063 570:-0.86525 571:-1 572:-1 573:-1 574:0.0512871 575:-1 576:-1 577:0.198044 578:-1 579:-1 580:-1 581:-1 582:-0.444845 583:-1 584:-1 585:-1 586:-1 587:-1 588:-1 589:-1 590:-1 591:-1 592:-1 593:-1 594:-0.423176 595:-0.681987 596:-1 597:-1 598:-1 599:-1 600:-1 601:-0.703553 602:-1 603:-1 604:-1 605:-1 606:-0.767709 607:0.843365 608:-1 609:-0.887349 610:-1 611:-1 612:-1 613:-1 614:-1 615:-1 616:-0.681987 617:-0.863824 618:-1 619:-1 620:-1 621:-1 622:-1 623:-0.952225 624:-1 625:-1 626:-0.337023 627:-1 628:-1 629:-1 630:-1 631:-1 632:-1 633:-1 634:-0.88681 635:-1 636:-1 637:-1 638:-1 639:0.010402 640:-1 641:-0.456489 642:-1 643:-1 644:-1 645:-1 646:-1 647:-0.423283 648:-1 649:-1 650:-0.303977 651:-0.487878 652:-1 653:-1 654:-0.323998 655:-1 656:-0.244039 657:0.862474 658:-1 659:-1 660:-0.425067 661:-1 662:-1 663:-1 664:0.822207 665:0.27907 666:-1 667:-1 668:-1 669:-0.891228 670:-1 671:-1 672:-1 673:-1 674:-1 675:-1 676:-1 677:-1 678:-1 679:-0.135664 680:-1 681:-1 682:-1 683:-0.363856 684:-1 685:-0.455611 686:-1 687:-1 688:0.358505 689:-1 690:-1 691:-0.477084 692:-0.363856 693:-0.242658 694:-0.299188 695:-1 696:-1 697:-1 698:-1 699:-1 700:-1 701:-1 702:1.18879 703:-1 704:0.326199 705:-1 706:-1 707:-1 708:-1 709:-0.436723 710:0.603212 711:-1 712:-1 713:0.849074 714:1.80708 715:-1 716:-0.699236 717:-1 718:-0.793162 719:-1 720:0.018837 721:-1 722:-1 723:-1 724:-1 725:-1 726:-1 727:-1 728:1.46583 729:-1 730:-1 731:-0.66043 732:-0.649659 733:-1 734:-1 735:-0.624495 736:-1 737:-1 738:-1 739:-1 740:-1 741:-1 742:-1 743:-1 744:-0.439359 745:-1 746:-1 747:0.221895 748:-1 749:-1 750:-1 751:-0.681987 752:-1 753:-1 754:-1 755:0.983808 756:-1 757:-0.547165 758:-1 759:-0.953511 760:-1 761:-1 762:-1 763:-1 764:-1 765:-1 766:-1 767:-1 768:0.380715 769:-0.377454 770:-1 771:1.01986 772:-1 773:-1 774:-0.838298 775:-1 776:1.18879 777:-0.320733 778:-1 779:-1 780:-1 781:-1 782:-1 783:-1 784:-1 785:-1 786:-0.892941 787:-1 788:-1 789:-1 790:-0.779442 791:-1 792:-1 793:-0.547165 794:0.342131 795:-1 796:-1 797:-0.0890654 798:-1 799:-1 800:-0.389166 801:-0.722408 802:-1 803:-1 804:-1 805:-0.908371 806:-0.816707 807:-1 808:-0.255113 809:-1 810:-0.549029 811:-1 812:-0.681928 813:-0.816707 814:-1 815:-1 816:-0.649659 817:-1 818:-1 819:-0.660388 820:0.126764 821:-1 822:-1 823:-1 824:-1 825:-1 826:-0.416921 827:-1 828:-1 829:-1 830:-0.344619 831:0.992608 832:-1 833:-1 834:-1 835:-1 836:-1 837:-1 838:-1 839:-1 840:1.99703 841:-1 842:-0.9608 843:-1 844:-1 845:-0.305935 846:-1 847:0.689126 848:-1 
0 0 30.27494546531305 52.70289198631576 0:-0.649317 1:-1 2:-0.806124 3:-1 4:-0.984438 5:-0.671528 6:-0.668482 7:-0.73696 8:-0.94657 9:-0.516978 10:-1 11:-0.444651 12:-0.797786 13:-0.913692 14:-1 15:-0.916191 16:-1 17:-1 18:-1 19:-1 20:-0.720503 21:-1 22:-1 23:-0.965339 24:-0.797786 25:-0.144494 26:-1 27:-0.707629 28:-1 29:-0.896428 30:-0.555556 31:-0.816517 32:-0.269615 33:-0.890261 34:-1 35:-0.82579 36:-1 37:-1 38:-0.903003 39:-0.97534 40:-0.830673 41:-1 42:-1 43:-0.948214 44:-0.749581 45:-0.441346 46:-0.495393 47:-0.967668 48:-1 49:-1 50:-0.696174 51:-0.797786 52:-1 53:-1 54:-0.888243 55:-0.484795 56:-1 57:-0.441296 58:-0.839774 59:-0.59317 60:-1 61:0.0635819 62:-0.571986 63:-1 64:-1 65:-1 66:-1 67:-0.741196 68:-0.903865 69:-1 70:-0.954202 71:-1 72:0.0272678 73:-1 74:-0.604999 75:-1 76:-0.824096 77:-1 78:-0.770647 79:-0.834023 80:-0.9014 81:-1 82:-1 83:-0.696316 84:-0.656513 85:-1 86:-0.83313 87:0.117647 88:-1 89:-0.585838 90:-1 91:-0.749581 92:2.53853 93:-1 94:-1 95:-0.536567 96:0.158488 97:-0.884977 98:-1 99:-0.909269 100:-1 101:-0.948887 102:-1 103:-0.656426 104:-0.720503 105:-0.723918 106:-0.621182 107:-1 108:-0.961743 109:-1 110:-0.912868 111:-0.903003 112:-1 113:-0.777778 114:-1 115:-0.666667 116:-1 117:-1 118:-1 119:-0.765779 120:-1 121:-0.902456 122:-0.824096 123:-0.546458 124:-0.797786 125:-1 126:-1 127:-0.838985 128:-1 129:-0.503025 130:-0.994606 131:-0.502724 132:-0.47424 133:-1 134:-0.916978 135:-1 136:-0.087037 137:-0.584314 138:-1 139:0.119183 140:-1 141:-0.739662 142:-1 143:-1 144:-0.562974 145:-0.930953 146:-0.677773 147:-1 148:-0.930953 149:-0.615538 150:-0.619279 151:-1 152:0.676301 153:-0.775041 154:-0.905441 155:-0.444651 156:-1 157:-0.655563 158:-1 159:-0.681249 160:-0.698422 161:-0.83313 162:-0.313271 163:-1 164:-0.666261 165:-1 166:-1 167:-0.990734 168:-0.0710966 169:-0.590637 170:-0.797786 171:-1 172:-1 173:-0.921392 174:-0.797786 175:0.6501 176:-0.957282 177:-0.542952 178:-0.639337 179:-0.717139 180:-1 181:-1 182:-0.850027 183:-0.927115 184:-0.980284 185:-1 186:-0.717915 187:-0.827407 188:-1 189:-0.797786 190:-1 191:-1 192:-0.80773 193:-0.144494 194:-1 195:-0.053129 196:-1 197:-1 198:-1 199:-0.516842 200:-0.990335 201:-0.758416 202:-1 203:-0.743205 204:-0.796156 205:-0.917431 206:-0.94279 207:-1 208:-1 209:-1 210:-0.903003 211:-0.896636 212:-1 213:-0.34607 214:-0.696174 215:-1 216:-0.963832 217:-0.585685 218:-0.874781 219:-0.0818436 220:-0.521777 221:-0.946844 222:-1 223:-0.963832 224:-0.341877 225:-0.98357 226:-0.806155 227:-1 228:-1 229:-1 230:-0.915393 231:-0.655563 232:-1 233:-1 234:-0.980284 235:-0.746843 236:-0.871846 237:-0.913692 238:-0.886785 239:-1 240:-1 241:-1 242:-1 243:-1 244:-0.861991 245:-0.499848 246:-0.965476 247:-0.847933 248:-1 249:-0.727258 250:-0.666261 251:-0.956022 252:-0.637866 253:-1 254:-0.824203 255:-0.792982 256:-1 257:-0.825843 258:-1 259:-0.559249 260:-1 261:-0.595818 262:-0.681249 263:-0.830277 264:-0.8357 265:-0.753322 266:-0.946844 267:-1 268:-0.903003 269:-0.899119 270:-1 271:1.55997 272:-0.829952 273:-1 274:-1 275:-1 276:-0.595818 277:-0.420356 278:-1 279:-0.86848 280:-0.957667 281:-0.930953 282:-1 283:-1 284:-1 285:-1 286:-0.359116 287:-0.893143 288:-0.758342 289:-1 290:-1 291:-0.848395 292:-0.792944 293:-1 294:-0.392719 295:-0.985752 296:-0.972431 297:-1 298:-0.288899 299:-1 300:-0.881157 301:0.0328934 302:-0.666261 303:-0.953639 304:-0.861991 305:-0.83313 306:-1 307:-1 308:-0.378819 309:0.212792 310:-0.893204 311:-0.232892 312:-0.627057 313:-1 314:-0.971903 315:-0.800089 316:-1 317:-0.769004 318:-0.58308 319:-0.00167046 320:-1 321:-1 322:-1 323:0.0297712 324:-0.722326 325:-1 326:-1 327:-1 328:0.0013202 329:-1 330:-0.583404 331:-0.771074 332:-0.426027 333:-1 334:-1 335:-0.666785 336:-0.971432 337:-1 338:-0.955612 339:-1 340:-0.930427 341:-0.666261 342:-0.771074 343:-0.990616 344:-0.355939 345:-0.186603 346:-0.931225 347:-1 348:-1 349:-1 350:-1 351:-1 352:-0.913574 353:-1 354:2.44624 355:-1 356:-1 357:-0.5218 358:-1 359:-0.867344 360:-0.799071 361:-0.903003 362:-0.571081 363:-0.903003 364:-1 365:-0.806124 366:-1 367:-0.624314 368:-1 369:-1 370:-1 371:-0.9344 372:-0.792944 373:-0.893143 374:-0.850452 375:-1 376:0.834263 377:-0.848826 378:-0.604903 379:-1 380:-0.337366 381:-1 382:-1 383:-0.662628 384:-1 385:-0.935884 386:-0.824747 387:-0.792982 388:-1 389:-0.972052 390:-0.751361 391:-1 392:-1 393:-0.942459 394:-0.793675 395:-0.457426 396:-0.311544 397:-1 398:-0.903003 399:-0.972052 400:-0.832313 401:-0.0757405 402:-0.843815 403:0.334551 404:-0.668482 405:-0.699452 406:-0.930953 407:-1 408:-0.937566 409:-1 410:-0.912148 411:-1 412:-1 413:-0.893378 414:0.0328934 415:-0.821653 416:0.746369 417:-0.545856 418:-1 419:-0.9178 420:-1 421:-0.972052 422:-1 423:-0.941363 424:-0.240838 425:-1 426:-0.984388 427:-1 428:-0.722156 429:-1 430:-0.668482 431:-1 432:-0.796156 433:-0.824415 434:-0.722156 435:-0.896428 436:-0.655563 437:-0.792982 438:-1 439:-0.181773 440:-0.930953 441:-1 442:-1 443:-1 444:-1 445:-1 446:-0.671269 447:-0.824096 448:-1 449:-0.953982 450:-1 451:-0.419901 452:-0.83313 453:-0.871846 454:-1 455:-1 456:-1 457:-1 458:-0.541523 459:-1 460:-0.976998 461:-0.792944 462:-1 463:-1 464:-1 465:-0.977655 466:-1 467:-1 468:-1 469:-0.100712 470:-0.963832 471:-0.392719 472:-1 473:-1 474:-1 475:-1 476:-1 477:-1 478:-1 479:-1 480:0.0395444 481:-0.930973 482:-0.129075 483:-1 484:-1 485:-0.457761 486:-0.797786 487:-0.967942 488:-0.912921 489:-0.720503 490:-1 491:-1 492:-1 493:-0.978005 494:-0.507 495:-0.166808 496:-1 497:-0.98357 498:-0.499086 499:-0.909412 500:-0.758342 501:-0.930994 502:-0.83313 503:-0.452047 504:-0.444651 505:-1 506:-0.71599 507:-0.861991 508:-1 509:-1 510:-1 511:-0.861078 512:-1 513:-0.720697 514:-0.822521 515:-1 516:-0.963832 517:-1 518:-0.954132 519:-1 520:-0.516978 521:-1 522:-0.86689 523:-1 524:-0.499467 525:-1 526:-0.813646 527:-0.770647 528:-1 529:-0.957051 530:-0.585685 531:-1 532:-1 533:-1 534:-1 535:-0.764948 536:-1 537:-0.758471 538:-0.956706 539:-1 540:-1 541:0.231547 542:-1 543:-0.666667 544:-1 545:-1 546:-1 547:-0.935884 548:-0.00604961 549:-0.951502 550:-0.964476 551:-0.592411 552:-1 553:-0.444651 554:-0.795863 555:-0.845938 556:-0.696802 557:-0.930953 558:-1 559:-1 560:-1 561:-0.541574 562:-0.332927 563:-1 564:-1 565:-1 566:-0.898893 567:-0.44497 568:-1 569:-0.932849 570:-0.9589 571:-0.903003 572:-1 573:-1 574:0.281981 575:-1 576:-1 577:-0.269615 578:-0.96549 579:-0.917825 580:-1 581:-0.786343 582:-0.830673 583:-0.332927 584:-1 585:-1 586:-0.898893 587:-0.948235 588:-0.672836 589:-1 590:-1 591:-1 592:-1 593:-0.668114 594:-0.560454 595:-1 596:-1 597:-0.749333 598:-1 599:-1 600:-1 601:-0.819272 602:-0.758342 603:-0.786415 604:-1 605:-0.437756 606:-0.858368 607:-1 608:-0.833333 609:-0.69089 610:0.111863 611:-1 612:-1 613:-1 614:-1 615:-0.431928 616:-1 617:-1 618:-0.956455 619:-1 620:-1 621:-1 622:-0.480897 623:-1 624:-0.927115 625:-0.493686 626:-1 627:-0.978148 628:0.898129 629:-1 630:-0.903003 631:-0.746843 632:-1 633:-0.979052 634:-0.965476 635:-0.830183 636:-1 637:0.117307 638:-0.840528 639:-0.845938 640:-0.972737 641:-1 642:-1 643:-0.956087 644:-1 645:-1 646:-0.884095 647:-0.824096 648:-0.376589 649:-1 650:-0.787707 651:-0.937566 652:-0.988496 653:-0.722156 654:-1 655:-1 656:-0.769425 657:-1 658:-1 659:-1 660:-0.649493 661:-1 662:-0.847112 663:-0.672836 664:0.111036 665:2.89986 666:-1 667:-0.96549 668:-0.797786 669:-0.96685 670:-0.778048 671:-1 672:-0.776418 673:-1 674:-1 675:-0.969064 676:-0.532556 677:-0.851852 678:-0.699452 679:-0.736369 680:-1 681:-1 682:-0.743205 683:-0.709127 684:-0.722672 685:-1 686:-0.566262 687:-1 688:-0.447795 689:-1 690:-1 691:-0.7609 692:-0.903003 693:-1 694:-0.786415 695:-1 696:-1 697:-0.861991 698:-1 699:-0.286751 700:-1 701:-0.770647 702:-0.666261 703:-0.722156 704:-0.797786 705:-0.832313 706:-1 707:-0.770647 708:-1 709:-1 710:-0.511005 711:-1 712:-1 713:-0.436314 714:-1 715:-1 716:-1 717:-0.98521 718:-0.936912 719:-1 720:-1 721:-0.620236 722:-1 723:-0.59256 724:-1 725:-0.722156 726:-1 727:-1 728:1.10484 729:-0.898893 730:-0.909506 731:-0.896428 732:-0.893143 733:-1 734:-0.797786 735:-0.542009 736:-0.722156 737:-1 738:-0.889031 739:-1 740:-0.983266 741:-1 742:-1 743:-0.903393 744:0.709382 745:-1 746:-0.681249 747:-0.254986 748:-0.311544 749:-0.212208 750:-0.595818 751:-1 752:-0.901419 753:-0.963527 754:-0.782999 755:-0.596909 756:0.0841306 757:-1 758:-1 759:-1 760:-1 761:-1 762:-0.758471 763:0.0844773 764:-0.825843 765:-1 766:-0.751135 767:-1 768:-0.789474 769:-0.810118 770:-1 771:-0.692019 772:-0.541061 773:-1 774:-0.852099 775:-1 776:-0.332927 777:-1 778:-0.19139 779:-0.722156 780:-0.903062 781:-1 782:-1 783:-0.948451 784:-1 785:-0.99178 786:-0.967372 787:0.22247 788:-0.672836 789:-1 790:-1 791:-1 792:-0.871846 793:-0.378832 794:-0.590637 795:-0.666261 796:-1 797:-1 798:-0.781354 799:-0.312221 800:-0.068903 801:-0.915332 802:-0.562974 803:-1 804:-1 805:-0.916191 806:-0.972052 807:-0.935291 808:-0.772803 809:-0.903003 810:0.100067 811:-1 812:-0.903062 813:-0.888243 814:-1 815:-1 816:-0.572701 817:-0.903003 818:-1 819:-1 820:-0.828195 821:-1 822:-0.666261 823:-1 824:-0.964265 825:0.492131 826:-0.715577 827:-1 828:-0.832313 829:-1 830:-1 831:-0.088893 832:-1 833:-1 834:-0.571986 835:-0.983971 836:-0.770647 837:-1 838:-1 839:-0.621024 840:0.522609 841:-0.861907 842:-1 843:-0.757379 844:-1 845:-0.873053 846:0.030303 847:1.57474 848:-0.871846 
0 0 27.48504383118543 17.5897129035417 0:-1 1:-1 2:-1 3:-1 4:-1 5:-1 6:-1 7:-1 8:-0.646722 9:-1 10:-1 11:0.83708 12:-1 13:-1 14:-1 15:-1 16:-1 17:-1 18:-1 19:-1 20:-1 21:-1 22:-1 23:-1 24:-1 25:-1 26:-1 27:-1 28:-1 29:-1 30:-1 31:-1 32:-1 33:-0.274414 34:-1 35:-1 36:-1 37:-1 38:-1 39:-1 40:-1 41:-1 42:-1 43:-1 44:-1 45:0.848011 46:2.33845 47:-1 48:-1 49:-1 50:-1 51:-1 52:-1 53:-1 54:-1 55:-1 56:-1 57:1.46374 58:-1 59:-1 60:-1 61:-1 62:-1 63:-1 64:-1 65:-1 66:-1 67:-1 68:-1 69:2.19565 70:-0.697189 71:-1 72:-1 73:-1 74:-0.346873 75:-1 76:-1 77:-1 78:-1 79:-1 80:-1 81:-1 82:-1 83:-1 84:-1 85:-1 86:-1 87:-1 88:-1 89:-1 90:-1 91:-1 92:0.231868 93:-1 94:-1 95:-1 96:0.532713 97:-1 98:-1 99:-1 100:-1 101:-1 102:-1 103:-1 104:-1 105:-0.695638 106:-1 107:-1 108:-1 109:-1 110:0.152215 111:-0.358664 112:-1 113:0.469316 114:-1 115:-1 116:-1 117:-1 118:-1 119:0.548654 120:-1 121:-1 122:-1 123:-1 124:-1 125:-1 126:-1 127:-1 128:-1 129:-1 130:-0.928666 131:-1 132:-1 133:-1 134:0.0978689 135:-1 136:3.02593 137:-1 138:-1 139:-1 140:-0.927533 141:-0.946188 142:-1 143:-1 144:-1 145:-1 146:-1 147:-1 148:-1 149:-1 150:-1 151:-1 152:-1 153:-1 154:-1 155:-1 156:-1 157:1.27739 158:-1 159:-1 160:-1 161:-1 162:-1 163:-1 164:1.20666 165:-1 166:-1 167:-1 168:-1 169:-1 170:-1 171:-1 172:-1 173:-1 174:-1 175:-1 176:-0.576096 177:-1 178:-1 179:-0.0643023 180:-1 181:-1 182:-1 183:-1 184:-1 185:-1 186:-1 187:-1 188:-1 189:-1 190:-1 191:-1 192:-0.57607 193:-1 194:-1 195:-1 196:-1 197:-1 198:-0.152172 199:-0.543469 200:-1 201:-1 202:-0.760862 203:-1 204:-1 205:-1 206:-1 207:1.174 208:-1 209:-1 210:-0.358664 211:-1 212:-1 213:-1 214:-1 215:0.716406 216:-1 217:-1 218:-1 219:-1 220:-1 221:-1 222:2.00442 223:-1 224:0.451075 225:-0.94565 226:-1 227:-1 228:-1 229:-1 230:-1 231:-1 232:-1 233:-1 234:-1 235:-1 236:-1 237:-0.429336 238:-1 239:-1 240:-1 241:-0.358664 242:-1 243:-1 244:-1 245:-1 246:-1 247:0.0054574 248:2.69602 249:-1 250:-1 251:-0.927284 252:0.197928 253:-1 254:-1 255:-1 256:-1 257:-1 258:-1 259:-1 260:-1 261:-1 262:1.10884 263:-1 264:-1 265:-1 266:-1 267:-1 268:-1 269:-1 270:-1 271:-1 272:-1 273:-1 274:-1 275:-1 276:-1 277:-1 278:-1 279:-1 280:-1 281:-1 282:-0.93478 283:-1 284:-1 285:-1 286:-1 287:-1 288:-1 289:-1 290:-1 291:-1 292:-1 293:0.527329 294:1.00887 295:-1 296:-1 297:-1 298:-1 299:-1 300:-1 301:-1 302:-1 303:-0.693466 304:-1 305:-1 306:0.83708 307:-1 308:-0.315189 309:0.337023 310:-1 311:-0.49264 312:-1 313:1.11973 314:-1 315:-1 316:-1 317:-1 318:-1 319:2.30144 320:-1 321:-1 322:-1 323:2.40646 324:-1 325:-1 326:-0.92391 327:-1 328:0.10389 329:-1 330:-1 331:-1 332:-1 333:-1 334:-1 335:-1 336:-1 337:-1 338:-1 339:-1 340:-1 341:-1 342:-1 343:-1 344:-1 345:-1 346:-1 347:-1 348:-1 349:-1 350:-0.412305 351:-1 352:-0.428556 353:-1 354:2.14397 355:-1 356:-1 357:-1 358:-1 359:-1 360:0.328526 361:-1 362:-0.0542892 363:-1 364:-1 365:-0.358664 366:0.0649554 367:-1 368:-0.877677 369:-1 370:-1 371:-1 372:-0.543469 373:-1 374:-1 375:-1 376:2.03292 377:-0.799993 378:-1 379:-1 380:-1 381:-1 382:-1 383:-1 384:-1 385:-0.57607 386:-1 387:-1 388:2.63181 389:-1 390:-1 391:1.19197 392:-1 393:-0.619544 394:-1 395:2.58746 396:-1 397:-1 398:-1 399:-0.815211 400:-1 401:2.05662 402:-1 403:-1 404:-1 405:0.987203 406:-1 407:-1 408:-1 409:-0.760862 410:-0.854737 411:-1 412:-1 413:-1 414:-1 415:0.179215 416:-1 417:-1 418:2.05423 419:-1 420:-1 421:-1 422:-1 423:-0.612298 424:-1 425:-1 426:-1 427:3.14727 428:0.83708 429:-1 430:-1 431:-0.358664 432:0.347799 433:0.160953 434:-1 435:0.369621 436:-1 437:-1 438:-1 439:-1 440:-1 441:0.478912 442:-1 443:-1 444:-1 445:-1 446:-1 447:-1 448:-1 449:-1 450:-1 451:-1 452:-1 453:-1 454:-0.780426 455:-1 456:1.70667 457:-1 458:0.0108807 459:-1 460:-0.92391 461:-1 462:-1 463:-1 464:-1 465:-0.852254 466:-1 467:-1 468:-1 469:-1 470:-0.760862 471:1.00887 472:-1 473:-1 474:-1 475:-1 476:-1 477:-1 478:-1 479:-1 480:2.43879 481:-1 482:-1 483:-1 484:-1 485:-1 486:-1 487:-1 488:-1 489:-1 490:-1 491:-1 492:-1 493:-1 494:-1 495:-1 496:-1 497:-1 498:-1 499:-0.401036 500:-1 501:-1 502:-1 503:-0.275043 504:0.83708 505:-1 506:-1 507:-0.543469 508:-1 509:-1 510:-1 511:-1 512:-1 513:-1 514:-1 515:-1 516:-1 517:-1 518:-1 519:-1 520:-1 521:-1 522:-1 523:0.527329 524:-1 525:-1 526:-1 527:-1 528:-1 529:-1 530:-1 531:-1 532:-1 533:-1 534:-1 535:-1 536:-1 537:-0.201029 538:-1 539:-1 540:-1 541:-1 542:-1 543:-1 544:-1 545:-1 546:-1 547:-1 548:-1 549:-1 550:-1 551:-1 552:-1 553:-1 554:-1 555:-1 556:-0.331488 557:-1 558:-1 559:-1 560:0.434794 561:0.516462 562:-1 563:-1 564:-1 565:-1 566:-1 567:-1 568:-1 569:-1 570:-0.72825 571:-1 572:-1 573:-1 574:1.11973 575:-1 576:-1 577:-1 578:-1 579:-1 580:-1 581:-1 582:-1 583:-1 584:-1 585:-1 586:-1 587:-0.885865 588:-1 589:0.337023 590:-0.0594038 591:-1 592:-1 593:-1 594:-1 595:-1 596:0.369535 597:-0.170799 598:-1 599:-1 600:-1 601:-0.402156 602:-1 603:-1 604:-1 605:-1 606:-1 607:-1 608:-1 609:-0.545635 610:-1 611:-1 612:-1 613:-1 614:0.0220008 615:-1 616:-1 617:-1 618:-1 619:-1 620:1.7291 621:-1 622:-1 623:-1 624:-1 625:-1 626:-1 627:-1 628:0.255486 629:-0.760862 630:-1 631:-1 632:-1 633:-1 634:-1 635:-1 636:0.910705 637:-1 638:-1 639:-1 640:-1 641:-1 642:-1 643:-1 644:-0.275043 645:-1 646:-1 647:0.163064 648:-1 649:-1 650:0.403667 651:-0.793472 652:-0.967392 653:-1 654:-1 655:-1 656:-1 657:-1 658:-0.760862 659:-1 660:-1 661:-1 662:-1 663:-1 664:-1 665:1.5795 666:-0.77173 667:-1 668:-1 669:-1 670:0.467531 671:-1 672:-1 673:1.19197 674:-1 675:-1 676:-1 677:-1 678:0.987203 679:-1 680:-1 681:-1 682:-1 683:-1 684:-1 685:-1 686:-1 687:-1 688:-1 689:-1 690:-1 691:-1 692:-0.358664 693:-1 694:-1 695:-1 696:-1 697:-1 698:-1 699:-1 700:-1 701:-1 702:-1 703:-1 704:-1 705:-1 706:-1 707:-1 708:-1 709:-1 710:-1 711:-0.448335 712:-0.315189 713:-1 714:-1 715:-1 716:-1 717:-1 718:-1 719:-1 720:-0.315189 721:-1 722:-1 723:-1 724:3.41332 725:-1 726:-1 727:-1 728:1.98308 729:-1 730:-1 731:-1 732:-1 733:-1 734:-1 735:-1 736:-1 737:-1 738:-1 739:-1 740:-1 741:-1 742:-1 743:-1 744:3.52236 745:-1 746:-1 747:-1 748:1.27739 749:-1 750:-1 751:-1 752:-1 753:-1 754:-1 755:1.66683 756:2.58628 757:-1 758:4.19102 759:-1 760:-1 761:-1 762:-1 763:-1 764:-1 765:-1 766:-1 767:-1 768:0.391984 769:-1 770:-1 771:1.03634 772:-1 773:-0.170799 774:-0.673897 775:-1 776:-1 777:-1 778:0.337023 779:0.83708 780:-1 781:-1 782:-1 783:-1 784:-1 785:-1 786:-1 787:-1 788:1.16318 789:-1 790:-0.777641 791:-1 792:-1 793:-1 794:1.70667 795:-1 796:-1 797:-1 798:-1 799:-1 800:-1 801:-1 802:-1 803:-1 804:-1 805:-1 806:-1 807:-0.572148 808:-1 809:-1 810:-1 811:-1 812:-1 813:-1 814:-1 815:-1 816:-1 817:-1 818:-1 819:-1 820:-1 821:-1 822:1.20666 823:-1 824:-1 825:-1 826:-1 827:0.328526 828:-1 829:-1 830:-1 831:-1 832:-1 833:-1 834:-1 835:-1 836:-1 837:-1 838:-1 839:-1 840:-1 841:-1 842:-1 843:-1 844:-1 845:-1 846:-1 847:-1 848:-1 
0 0 33.66645783608312 42.2360801968268 0:-1 1:-1 2:-1 3:-1 4:-1 5:0.482917 6:-1 7:-1 8:-1 9:-1 10:-1 11:-0.372993 12:-1 13:-1 14:-1 15:-0.873827 16:-1 17:-1 18:-1 19:-1 20:-1 21:-1 22:-1 23:-1 24:-1 25:-0.0341057 26:-0.438899 27:-1 28:-1 29:-1 30:-1 31:-1 32:-0.175372 33:-0.504572 34:-1 35:-1 36:-1 37:-1 38:-1 39:-1 40:-1 41:-0.628475 42:-1 43:-0.766207 44:-1 45:-0.369262 46:-1 47:-1 48:-1 49:-1 50:-1 51:-1 52:-1 53:-1 54:-0.873827 55:-1 56:-1 57:-1 58:-1 59:-1 60:-0.852128 61:-0.399773 62:-1 63:-1 64:-1 65:-1 66:-0.0650202 67:-1 68:-1 69:-1 70:-0.793242 71:-1 72:-1 73:-0.418769 74:-0.777083 75:-0.246853 76:-1 77:-1 78:-0.482422 79:-1 80:-1 81:-1 82:-1 83:-1 84:-0.806155 85:-1 86:-1 87:-1 88:-1 89:-1 90:-1 91:-1 92:-0.579556 93:-1 94:-1 95:-1 96:-1 97:-1 98:-1 99:-1 100:-1 101:-0.653899 102:-1 103:-1 104:-1 105:-0.376603 106:-1 107:-1 108:-1 109:-0.603039 110:-0.606636 111:-1 112:-1 113:-1 114:-1 115:-1 116:-1 117:-1 118:-1 119:-1 120:-1 121:-1 122:-0.603039 123:-0.317203 124:-1 125:-1 126:0.0314151 127:-1 128:-0.901685 129:-1 130:-1 131:-1 132:0.18752 133:-1 134:-1 135:-1 136:0.374444 137:-0.530677 138:-1 139:-1 140:-1 141:-1 142:-1 143:-0.936931 144:-1 145:-0.844183 146:-0.272834 147:-1 148:-1 149:-1 150:-1 151:-1 152:-1 153:-1 154:-1 155:-1 156:-1 157:-1 158:-0.821849 159:-0.64012 160:-1 161:-1 162:-1 163:-1 164:0.506699 165:-0.900392 166:-1 167:-0.958167 168:2.49567 169:-1 170:-1 171:-1 172:-1 173:-1 174:-1 175:-1 176:-1 177:0.0314151 178:-1 179:-1 180:-1 181:-1 182:-1 183:-1 184:-1 185:-1 186:-0.617799 187:-0.805137 188:-1 189:-1 190:-0.432375 191:-1 192:-0.710542 193:-1 194:-1 195:-1 196:-0.760475 197:-1 198:-1 199:0.0908862 200:-1 201:-0.844138 202:-1 203:-1 204:-1 205:-1 206:-1 207:-1 208:-1 209:-1 210:-1 211:-1 212:-1 213:-1 214:-0.31436 215:-1 216:-1 217:-1 218:-1 219:0.0365922 220:-1 221:-1 222:0.0254284 223:-1 224:-0.504739 225:-1 226:-1 227:-1 228:-1 229:-1 230:-0.809068 231:-0.222711 232:-1 233:-1 234:-1 235:1.28549 236:-1 237:-1 238:-0.744508 239:-0.251865 240:-1 241:-1 242:-1 243:-1 244:-1 245:-0.874539 246:-1 247:-1 248:-1 249:-1 250:-1 251:-1 252:-0.182059 253:-1 254:-1 255:-1 256:-0.897179 257:-1 258:-1 259:-0.00536193 260:-1 261:-1 262:-1 263:-1 264:-1 265:-0.442835 266:-1 267:-1 268:-1 269:-0.886102 270:-1 271:-1 272:-1 273:-1 274:-0.85531 275:-1 276:-0.543665 277:-1 278:-1 279:-1 280:-1 281:-1 282:-0.97774 283:-1 284:-1 285:-1 286:-1 287:-1 288:-1 289:-1 290:-1 291:-1 292:-0.688282 293:-1 294:-1 295:-0.903523 296:-0.688897 297:-1 298:0.606146 299:-1 300:-1 301:-1 302:-0.246853 303:-1 304:-0.844183 305:-0.623427 306:-1 307:-1 308:-0.298683 309:-1 310:-1 311:3.09911 312:-1 313:-0.276521 314:-1 315:-0.84956 316:-1 317:-1 318:-1 319:-0.436598 320:-1 321:0.0934276 322:-1 323:-1 324:-1 325:-1 326:-1 327:-1 328:3.14502 329:-1 330:-1 331:-1 332:-0.514035 333:-1 334:-1 335:-1 336:-0.806439 337:-1 338:-0.799606 339:-1 340:-0.92145 341:-1 342:-1 343:-1 344:-1 345:-1 346:-1 347:-1 348:-1 349:-1 350:-1 351:-1 352:-0.414783 353:-1 354:-1 355:-1 356:-1 357:-1 358:-1 359:-1 360:-1 361:-1 362:-1 363:-1 364:-1 365:-1 366:-1 367:-1 368:-0.874729 369:0.0464045 370:-1 371:-0.259726 372:-0.532465 373:-1 374:-0.97403 375:-0.623885 376:-1 377:-1 378:-1 379:-1 380:-1 381:-1 382:-0.123967 383:-1 384:-1 385:-1 386:-1 387:-1 388:-1 389:-1 390:-0.438899 391:0.496673 392:-0.922076 393:-1 394:-1 395:-1 396:-1 397:-1 398:-1 399:-1 400:-1 401:4.21729 402:-1 403:-1 404:-0.251865 405:1.71335 406:-0.844183 407:-1 408:-0.929511 409:-1 410:-1 411:-1 412:-1 413:-1 414:-1 415:-1 416:-1 417:-1 418:-1 419:-1 420:-1 421:-1 422:-0.710631 423:-0.867675 424:-1 425:-0.420494 426:-0.964749 427:1.83174 428:-1 429:-1 430:-1 431:-1 432:-1 433:-1 434:-1 435:-1 436:-1 437:-0.76627 438:-0.844152 439:-1 440:-1 441:-0.495238 442:-1 443:-0.603759 444:-1 445:-1 446:-1 447:-1 448:-0.655856 449:-0.97403 450:-1 451:0.309104 452:-1 453:-1 454:-1 455:-1 456:0.848108 457:-1 458:-1 459:-1 460:-0.922076 461:-1 462:-1 463:-1 464:-1 465:-0.949573 466:-1 467:-1 468:-1 469:-1 470:-1 471:-1 472:-0.914485 473:-1 474:-1 475:-1 476:-1 477:-1 478:-1 479:-1 480:0.173679 481:-1 482:-1 483:-1 484:-0.98145 485:-0.510164 486:-1 487:-1 488:-1 489:-1 490:-1 491:-1 492:-0.619253 493:-1 494:-1 495:-1 496:-1 497:-1 498:-1 499:-0.386599 500:-1 501:-0.844138 502:-1 503:-1 504:-0.372993 505:-1 506:-1 507:-0.688282 508:-0.543665 509:-1 510:-1 511:-1 512:-1 513:-1 514:-0.866441 515:-1 516:-1 517:-1 518:-1 519:-0.936931 520:-1 521:-0.95958 522:-1 523:-1 524:-1 525:-1 526:-0.906483 527:-1 528:-0.532465 529:-1 530:-1 531:-1 532:-1 533:-1 534:-1 535:-1 536:-1 537:-0.727306 538:-1 539:-1 540:-1 541:0.390408 542:-1 543:-1 544:-0.251865 545:-1 546:-0.630846 547:-1 548:-1 549:-1 550:-1 551:-1 552:-0.986149 553:-1 554:-0.53892 555:-0.652329 556:-1 557:-1 558:-1 559:-0.321634 560:-0.510296 561:2.10603 562:-1 563:-1 564:-1 565:-1 566:-1 567:-1 568:-1 569:-0.978344 570:-0.35065 571:-1 572:-1 573:-1 574:-1 575:-0.971557 576:-1 577:-1 578:-1 579:-1 580:-0.8145 581:-1 582:-1 583:-0.246853 584:-1 585:-1 586:-1 587:-1 588:-1 589:-1 590:-0.839484 591:-1 592:-1 593:-1 594:0.191098 595:-1 596:-0.064886 597:-0.150812 598:-1 599:-1 600:-1 601:-1 602:-0.454652 603:-1 604:-1 605:0.26881 606:-0.760169 607:-1 608:-1 609:-0.767342 610:-1 611:-1 612:-1 613:-1 614:-1 615:-1 616:-1 617:-0.906268 618:-0.901732 619:-1 620:-0.0685413 621:-1 622:-1 623:-1 624:-1 625:-1 626:-1 627:-1 628:-1 629:-0.836718 630:-1 631:-1 632:-1 633:-1 634:-0.92209 635:-1 636:-1 637:-1 638:-1 639:1.0864 640:-1 641:-1 642:-1 643:-1 644:-1 645:-1 646:-1 647:-1 648:-1 649:-1 650:-0.520919 651:0.128021 652:-1 653:-0.372993 654:-1 655:-1 656:-1 657:0.281963 658:-1 659:-1 660:-1 661:-1 662:-1 663:-1 664:-0.372993 665:0.761272 666:-1 667:-0.97403 668:-1 669:-0.85027 670:-1 671:-1 672:-1 673:-1 674:-1 675:-1 676:-1 677:-1 678:-1 679:-1 680:-1 681:-0.781108 682:-1 683:-1 684:-1 685:-0.62529 686:-1 687:-0.781108 688:-0.688282 689:-1 690:-1 691:-1 692:-1 693:-1 694:-1 695:-1 696:-1 697:-1 698:-1 699:-0.309815 700:-1 701:-1 702:-1 703:-1 704:-0.543665 705:-1 706:-1 707:-1 708:-1 709:-1 710:-1 711:-1 712:-1 713:-1 714:-0.0341057 715:-0.276521 716:-0.585849 717:-1 718:-0.857631 719:-1 720:-1 721:-1 722:-1 723:-0.539988 724:-1 725:-1 726:-1 727:-0.752353 728:-0.660598 729:-1 730:-1 731:-1 732:-1 733:-1 734:-1 735:0.0339975 736:-1 737:-1 738:-1 739:-1 740:-0.990556 741:-1 742:-1 743:-1 744:-0.614104 745:-1 746:-1 747:-0.579556 748:0.554997 749:-1 750:-1 751:-1 752:-0.888699 753:-1 754:-1 755:-0.544897 756:-1 757:-1 758:-0.114136 759:-0.903986 760:-1 761:-1 762:-0.727306 763:-1 764:-1 765:-1 766:-0.438389 767:-1 768:-1 769:-1 770:-1 771:-1 772:-1 773:-1 774:-0.888699 775:-0.845925 776:0.506699 777:-0.532414 778:-1 779:-1 780:-1 781:-1 782:-1 783:-1 784:-1 785:-1 786:-1 787:-1 788:-1 789:-1 790:-0.468671 791:-1 792:-1 793:-0.376648 794:-0.0761952 795:-1 796:-0.930503 797:-1 798:-1 799:-1 800:-1 801:-1 802:-1 803:-1 804:-1 805:-1 806:-0.936931 807:-1 808:-1 809:-1 810:-0.0686078 811:-1 812:-0.890554 813:-0.936931 814:-1 815:-1 816:-1 817:-1 818:-1 819:-1 820:-1 821:-1 822:-1 823:-1 824:-1 825:-1 826:-0.117053 827:-1 828:-1 829:-0.0521206 830:0.240495 831:-1 832:-1 833:-1 834:-1 835:-1 836:-1 837:-1 838:-1 839:-1 840:-1 841:-1 842:-0.973018 843:-1 844:-0.504739 845:-1 846:-1 847:-1 848:-0.85531 
0 0 114.0512417113033 128 0:-1 1:-1 2:-1 3:-1 4:-1 5:-1 6:-1 7:-1 8:-1 9:-1 10:-1 11:-1 12:-1 13:-1 14:-1 15:-1 16:-1 17:-1 18:-1 19:-1 20:-1 21:-1 22:-1 23:-1 24:-1 25:-1 26:-1 27:-1 28:-1 29:-1 30:-1 31:-1 32:-1 33:-1 34:-1 35:-0.660271 36:-1 37:-1 38:-1 39:-1 40:-1 41:-1 42:-1 43:-1 44:-1 45:-1 46:-1 47:-1 48:-1 49:-1 50:-1 51:-1 52:-1 53:-1 54:-1 55:-1 56:-1 57:-1 58:-0.583347 59:-1 60:-0.602628 61:-1 62:-1 63:-1 64:-1 65:-1 66:-1 67:-1 68:-1 69:-1 70:-1 71:-1 72:-1 73:-1 74:-1 75:-1 76:-1 77:-1 78:-1 79:-1 80:-1 81:-1 82:-1 83:-1 84:-1 85:-1 86:-1 87:-1 88:-1 89:-1 90:-1 91:-1 92:-1 93:-1 94:-1 95:0.205114 96:-1 97:-1 98:-1 99:-1 100:-1 101:-1 102:-1 103:-1 104:-1 105:-1 106:-0.261265 107:-1 108:-1 109:-1 110:-1 111:-1 112:-1 113:-1 114:-1 115:-1 116:-1 117:-1 118:-1 119:-1 120:-1 121:-1 122:-1 123:-1 124:0.576876 125:-1 126:-1 127:-0.371815 128:-1 129:-1 130:-0.957934 131:-1 132:-1 133:-1 134:-1 135:-1 136:-1 137:-1 138:-1 139:-1 140:-1 141:-1 142:-1 143:-1 144:-1 145:-1 146:-1 147:-1 148:-1 149:-1 150:-1 151:-1 152:-1 153:-1 154:-1 155:-1 156:-1 157:-1 158:-1 159:-1 160:-1 161:-1 162:-1 163:-1 164:-1 165:-0.426421 166:-1 167:-1 168:-1 169:-1 170:-1 171:-1 172:-1 173:-0.387013 174:-1 175:-1 176:-0.83334 177:-1 178:-1 179:-1 180:-1 181:-1 182:-1 183:-1 184:-1 185:-1 186:1.20085 187:-1 188:-1 189:-1 190:-1 191:-1 192:-1 193:-1 194:-1 195:-1 196:-1 197:-1 198:-1 199:-1 200:-1 201:-1 202:-1 203:-1 204:-1 205:-1 206:-1 207:-1 208:-1 209:-1 210:-1 211:-1 212:-1 213:-1 214:-1 215:-1 216:-1 217:-1 218:-1 219:-1 220:-1 221:-1 222:-1 223:-1 224:-1 225:-1 226:-1 227:-1 228:-1 229:-1 230:0.979414 231:-1 232:1 233:-1 234:-0.92308 235:-1 236:-1 237:-1 238:-1 239:-1 240:-1 241:-1 242:-1 243:-1 244:-1 245:-1 246:-1 247:-1 248:-1 249:-1 250:-1 251:-1 252:-1 253:-1 254:-1 255:-1 256:-1 257:-1 258:-1 259:-1 260:-1 261:-1 262:-1 263:-1 264:-1 265:-1 266:-1 267:-1 268:-1 269:-1 270:-1 271:-1 272:-1 273:-1 274:-1 275:-1 276:-1 277:-1 278:-1 279:-1 280:-1 281:-1 282:-0.92308 283:-0.29487 284:-1 285:-1 286:-1 287:-1 288:-1 289:-1 290:-1 291:-1 292:-1 293:-1 294:-1 295:-0.333328 296:-0.570003 297:-1 298:-1 299:-1 300:-1 301:-1 302:-1 303:-1 304:-1 305:-1 306:-1 307:-1 308:-1 309:-1 310:-1 311:-1 312:-1 313:-1 314:-1 315:-1 316:-1 317:-1 318:-1 319:-1 320:-1 321:-1 322:-1 323:-1 324:-1 325:-1 326:-1 327:-1 328:-1 329:-1 330:-1 331:-1 332:-1 333:-1 334:-1 335:-1 336:-1 337:-0.320543 338:-1 339:-1 340:-1 341:-1 342:-1 343:-1 344:-1 345:-1 346:-1 347:-0.13672 348:-1 349:-1 350:-1 351:-1 352:0.348018 353:-1 354:-1 355:-1 356:-1 357:-1 358:-1 359:-1 360:-1 361:-1 362:-1 363:-1 364:-1 365:-1 366:-1 367:-1 368:-1 369:-1 370:-1 371:-1 372:-1 373:-1 374:-1 375:-1 376:-1 377:-1 378:-1 379:-1 380:-1 381:-1 382:-1 383:-1 384:-1 385:3.9e-05 386:-1 387:-1 388:-1 389:-1 390:-1 391:-1 392:-1 393:-1 394:-1 395:-1 396:-1 397:-1 398:-1 399:-1 400:-1 401:-1 402:-1 403:-1 404:-1 405:-1 406:-1 407:-1 408:-0.512806 409:0.128193 410:-1 411:-1 412:-1 413:-1 414:-1 415:-1 416:-1 417:-1 418:-1 419:-1 420:-1 421:-1 422:-1 423:-1 424:-1 425:-1 426:-1 427:-1 428:-1 429:-1 430:-1 431:-1 432:-1 433:-1 434:-1 435:-1 436:-1 437:-1 438:-1 439:-1 440:-1 441:-1 442:-1 443:-1 444:-1 445:-1 446:-1 447:-1 448:0.263357 449:-0.820506 450:-1 451:-1 452:-1 453:-1 454:-1 455:-1 456:-1 457:-1 458:-1 459:-1 460:-1 461:3.84603 462:-1 463:-1 464:-1 465:-1 466:-1 467:-1 468:-1 469:-1 470:-1 471:-1 472:-1 473:-1 474:-1 475:-1 476:-1 477:-1 478:-1 479:-1 480:-1 481:-1 482:-1 483:-1 484:-0.74359 485:-1 486:-1 487:-1 488:-1 489:-1 490:-1 491:-1 492:-1 493:-1 494:-1 495:-1 496:-1 497:-1 498:-1 499:-1 500:-1 501:-1 502:0.301259 503:-1 504:-1 505:-1 506:0.108038 507:-1 508:-1 509:-1 510:-1 511:-1 512:-1 513:-1 514:-1 515:-1 516:-1 517:-1 518:-1 519:-1 520:-1 521:-1 522:-1 523:-1 524:-1 525:-1 526:-1 527:-1 528:-1 529:-1 530:-1 531:-1 532:-1 533:-1 534:-1 535:-0.633232 536:-1 537:-1 538:-0.915571 539:-1 540:-1 541:-1 542:-1 543:1.59935 544:-1 545:-1 546:-1 547:-1 548:-1 549:-1 550:-1 551:-1 552:-0.856408 553:-1 554:-0.203578 555:-1 556:-1 557:-1 558:-1 559:-1 560:-1 561:-1 562:-1 563:-1 564:-1 565:-1 566:-1 567:-1 568:-1 569:-0.925167 570:-0.35895 571:-1 572:-1 573:-1 574:-1 575:-1 576:-1 577:-1 578:-1 579:-1 580:-0.359 581:-0.583347 582:-1 583:-1 584:-1 585:-1 586:-1 587:-0.730759 588:-1 589:-1 590:-1 591:-1 592:-1 593:-1 594:-1 595:-1 596:-1 597:-1 598:-1 599:-1 600:-1 601:-1 602:-1 603:-1 604:-1 605:-1 606:-1 607:-1 608:-1 609:-1 610:-1 611:-1 612:-1 613:-0.564089 614:0.205434 615:-1 616:-1 617:0.619514 618:-1 619:-1 620:-1 621:-1 622:-1 623:-1 624:-1 625:-1 626:-1 627:-0.829481 628:-1 629:-1 630:-1 631:-1 632:-1 633:-1 634:-1 635:-1 636:-1 637:-1 638:-1 639:-1 640:-1 641:-1 642:-1 643:-1 644:-1 645:-1 646:-0.0961647 647:-1 648:-1 649:-0.535726 650:-1 651:-1 652:-1 653:-1 654:-1 655:-1 656:-1 657:-1 658:-1 659:-1 660:-1 661:-1 662:-1 663:-1 664:-1 665:-1 666:-1 667:-1 668:-1 669:-1 670:-1 671:-1 672:-1 673:-1 674:-1 675:-1 676:-1 677:-1 678:-1 679:-1 680:-1 681:-1 682:-1 683:-1 684:-1 685:0.294819 686:-1 687:-1 688:-1 689:-1 690:-1 691:-1 692:-1 693:-1 694:-1 695:-1 696:-1 697:-0.461571 698:-1 699:-1 700:-1 701:-1 702:-1 703:-1 704:-1 705:-1 706:-1 707:-1 708:-1 709:-1 710:-1 711:-1 712:-1 713:-1 714:-1 715:-1 716:-1 717:-0.923074 718:-1 719:-1 720:-1 721:-1 722:-1 723:-1 724:-1 725:-1 726:-1 727:-1 728:-1 729:-1 730:-1 731:-1 732:-1 733:-1 734:-1 735:-1 736:-1 737:-1 738:-1 739:-1 740:-1 741:-1 742:-1 743:-1 744:-1 745:-1 746:-1 747:-1 748:-1 749:-1 750:-1 751:-1 752:-0.615396 753:-1 754:-1 755:-1 756:-1 757:-1 758:-1 759:-1 760:-1 761:-1 762:-1 763:-1 764:-1 765:-1 766:-1 767:-1 768:-1 769:-1 770:-1 771:-1 772:-1 773:-1 774:0.923079 775:-0.866916 776:-1 777:-0.192339 778:-1 779:-1 780:-1 781:-1 782:-1 783:-1 784:-1 785:-1 786:-1 787:-1 788:-1 789:-1 790:0.0490334 791:-1 792:-1 793:-0.461571 794:-1 795:-1 796:-1 797:-1 798:0.705014 799:-1 800:-1 801:-1 802:-1 803:-1 804:-1 805:-1 806:-1 807:-1 808:-1 809:-1 810:1.14541 811:-1 812:-1 813:-0.564089 814:-1 815:-1 816:-1 817:-1 818:-1 819:-1 820:-1 821:-1 822:-1 823:-1 824:-0.860582 825:-1 826:-1 827:-1 828:-1 829:-1 830:-0.61037 831:-1 832:-1 833:-1 834:-1 835:-0.375005 836:-1 837:-1 838:-1 839:-1 840:-1 841:-1 842:-0.906764 843:-1 844:-1 845:-1 846:-1 847:-1 848:-1 
0 0 23.89822880664506 67.10776874086058 0:0.312713 1:-1 2:-1 3:-1 4:-0.970856 5:0.22957 6:-1 7:-1 8:-1 9:-1 10:-1 11:-1 12:-1 13:-1 14:-0.892305 15:2.6615 16:-1 17:-1 18:-1 19:0.93097 20:-1 21:-1 22:-1 23:-1 24:-1 25:0.602187 26:0.861464 27:-1 28:-1 29:-1 30:-1 31:-1 32:-1 33:-1 34:-1 35:-1 36:-1 37:-1 38:-1 39:-0.90769 40:-1 41:-1 42:-1 43:-1 44:-1 45:0.0462428 46:-1 47:-1 48:-0.422105 49:-1 50:-1 51:-1 52:-1 53:-1 54:-0.790766 55:-1 56:-1 57:-1 58:-1 59:-1 60:-0.836507 61:-0.00436823 62:-1 63:-1 64:-1 65:-1 66:-1 67:-1 68:-1 69:-1 70:-1 71:-1 72:-0.0383624 73:-1 74:-0.630235 75:-1 76:-1 77:-0.23695 78:-1 79:-1 80:-1 81:-1 82:-0.378447 83:-0.241838 84:-1 85:-1 86:-1 87:-1 88:-1 89:-0.224595 90:-1 91:-1 92:-1 93:-1 94:-1 95:-0.421508 96:-1 97:-1 98:-1 99:-0.66016 100:-1 101:-1 102:-1 103:-1 104:-1 105:-0.655373 106:-1 107:-1 108:-1 109:-1 110:-1 111:-1 112:-1 113:-0.168154 114:-1 115:-1 116:-1 117:-1 118:-1 119:-1 120:-1 121:-1 122:-0.341536 123:-1 124:-1 125:-1 126:-1 127:-1 128:-1 129:-0.069268 130:-0.979807 131:-1 132:-0.01536 133:-1 134:-1 135:0.266255 136:-1 137:-1 138:-1 139:1.7941 140:-0.958973 141:-1 142:-1 143:-1 144:-1 145:-1 146:-1 147:-1 148:-1 149:-1 150:-1 151:-1 152:-1 153:-1 154:-0.646037 155:-1 156:-1 157:-1 158:-1 159:-1 160:-1 161:-1 162:-1 163:-1 164:-1 165:-0.669608 166:-1 167:-1 168:-0.613491 169:-1 170:-1 171:-1 172:-1 173:-1 174:-1 175:-1 176:-0.919998 177:-1 178:-1 179:-1 180:-1 181:-1 182:-1 183:-1 184:-1 185:-0.547666 186:-0.154844 187:-1 188:-0.141462 189:-1 190:-1 191:0.661447 192:-1 193:-1 194:-1 195:-1 196:-1 197:-1 198:-0.520006 199:-0.741537 200:-1 201:-1 202:-1 203:-1 204:-0.23695 205:-0.845365 206:-1 207:-1 208:-1 209:-1 210:-1 211:-0.613078 212:-1 213:-1 214:-1 215:-1 216:-1 217:-1 218:-1 219:-1 220:-0.403046 221:-1 222:-1 223:-1 224:-1 225:-1 226:-1 227:-1 228:-0.673839 229:-1 230:-1 231:-1 232:-1 233:-1 234:-1 235:0.895288 236:-1 237:-1 238:-1 239:-1 240:-1 241:-1 242:-1 243:-1 244:-1 245:-0.167563 246:-1 247:-1 248:-1 249:-0.48921 250:-1 251:-1 252:-0.321799 253:-1 254:-1 255:-1 256:-1 257:-1 258:-1 259:-1 260:-1 261:-0.24305 262:-1 263:-1 264:-1 265:-1 266:-1 267:-1 268:-1 269:-1 270:-1 271:-1 272:-1 273:-1 274:-0.759994 275:-1 276:-1 277:-1 278:-1 279:-0.50768 280:-1 281:-1 282:-1 283:-1 284:-1 285:-1 286:-1 287:-1 288:-1 289:-1 290:0.192174 291:-1 292:-0.741537 293:-1 294:-1 295:-1 296:-1 297:-1 298:-1 299:-1 300:-1 301:-1 302:-1 303:-1 304:-0.741537 305:-1 306:-1 307:-1 308:-1 309:-1 310:-1 311:0.819262 312:-1 313:0.200078 314:-1 315:-1 316:-1 317:-1 318:-1 319:0.869096 320:-1 321:-1 322:-1 323:-1 324:-1 325:-1 326:-1 327:-1 328:-0.375038 329:-1 330:-1 331:-0.571269 332:-1 333:1.95392 334:-1 335:-0.688073 336:-1 337:-1 338:-1 339:-0.0282646 340:-1 341:-1 342:-1 343:-1 344:-1 345:-1 346:-1 347:-1 348:-1 349:-1 350:-1 351:-1 352:-0.67648 353:-1 354:-0.109986 355:-1 356:-1 357:-1 358:-1 359:-1 360:-1 361:-0.636911 362:-1 363:-1 364:-1 365:-1 366:-1 367:-1 368:-1 369:-1 370:-1 371:-1 372:-0.741537 373:-0.6 374:-0.913844 375:-1 376:-1 377:-1 378:-1 379:-1 380:-1 381:-1 382:-1 383:-1 384:-1 385:-1 386:-1 387:-0.612298 388:-1 389:-1 390:-1 391:-1 392:-1 393:-1 394:-1 395:-1 396:0.289336 397:-1 398:-0.636911 399:-1 400:-1 401:-1 402:-1 403:-1 404:0.240976 405:-1 406:-1 407:-1 408:-0.883075 409:-0.864613 410:-1 411:-1 412:-1 413:-1 414:-1 415:-1 416:-1 417:-1 418:-1 419:-1 420:-1 421:-1 422:-1 423:-1 424:-1 425:-0.0387379 426:-1 427:1.34796 428:-1 429:-1 430:-1 431:-1 432:-1 433:-0.342732 434:-1 435:-1 436:-1 437:-1 438:-0.956922 439:-1 440:-0.741537 441:-1 442:-1 443:-1 444:-1 445:-1 446:-1 447:-1 448:-0.964328 449:-1 450:-1 451:-1 452:-1 453:-1 454:-1 455:-0.341536 456:0.532371 457:-1 458:-0.427695 459:-1 460:-1 461:0.809156 462:-1 463:-1 464:-1 465:-0.916354 466:-1 467:-1 468:-1 469:-1 470:-1 471:-1 472:-1 473:-1 474:-1 475:-1 476:-1 477:-1 478:-1 479:-1 480:-1 481:-1 482:-1 483:-1 484:-1 485:-1 486:-1 487:-1 488:-1 489:-1 490:-1 491:-1 492:-1 493:-1 494:-1 495:-1 496:-1 497:-1 498:-1 499:-1 500:-1 501:-1 502:-1 503:-1 504:-1 505:-1 506:-1 507:-1 508:-1 509:-1 510:-1 511:-1 512:-1 513:-1 514:-0.778458 515:-1 516:-1 517:-1 518:-1 519:-1 520:-1 521:-1 522:-0.833842 523:-1 524:-1 525:-1 526:-0.612298 527:-1 528:-1 529:-1 530:-1 531:-1 532:-0.341536 533:-1 534:-1 535:-1 536:-1 537:-1 538:-1 539:-1 540:-1 541:-1 542:-1 543:-1 544:-1 545:-1 546:-1 547:-0.759994 548:-1 549:-1 550:-1 551:-1 552:-0.724308 553:-1 554:-0.617693 555:-1 556:-1 557:-1 558:-1 559:-1 560:-1 561:-1 562:0.249289 563:-1 564:-1 565:-1 566:-1 567:-1 568:-1 569:-0.604868 570:-0.3846 571:-1 572:-1 573:-1 574:-1 575:-1 576:-1 577:-1 578:-0.956922 579:-1 580:-0.6923 581:-1 582:0.26769 583:-1 584:-1 585:-1 586:-1 587:-1 588:-1 589:-1 590:-1 591:-1 592:0.120743 593:-1 594:-0.670768 595:-1 596:-1 597:-1 598:-1 599:-1 600:-1 601:-1 602:-1 603:-1 604:-1 605:-1 606:-0.602249 607:-1 608:-1 609:-0.742763 610:-1 611:-1 612:-0.141462 613:-1 614:-1 615:-1 616:-1 617:-0.844521 618:-1 619:-1 620:-1 621:-1 622:-1 623:-1 624:-1 625:-1 626:-1 627:-1 628:-0.289212 629:-1 630:-1 631:-1 632:2.64002 633:-1 634:-0.870766 635:-1 636:-1 637:3.18497 638:-1 639:-1 640:-1 641:-1 642:-1 643:-1 644:-1 645:-1 646:-1 647:-0.341536 648:-1 649:-1 650:-0.20532 651:-0.883075 652:-1 653:0.0400541 654:-1 655:-1 656:-1 657:-1 658:-1 659:-1 660:-1 661:-1 662:-1 663:-1 664:-1 665:-1 666:-1 667:-1 668:-1 669:-1 670:-1 671:-1 672:-1 673:-1 674:0.249289 675:-0.691083 676:-1 677:-1 678:-1 679:-1 680:-1 681:-1 682:-1 683:-1 684:-1 685:-1 686:-0.187698 687:-1 688:0.809156 689:-1 690:-1 691:-1 692:-1 693:-1 694:-0.6 695:-1 696:-1 697:-1 698:-1 699:-1 700:0.643258 701:-1 702:-1 703:-1 704:-0.24305 705:-1 706:-1 707:-1 708:-1 709:-1 710:-1 711:-1 712:-1 713:-1 714:-1 715:-1 716:-1 717:-1 718:-1 719:-1 720:-1 721:-1 722:-1 723:-1 724:-1 725:-1 726:-1 727:-1 728:-0.437014 729:-1 730:-0.661254 731:-0.224595 732:-1 733:-1 734:-1 735:-1 736:-1 737:-1 738:-1 739:0.684182 740:-0.968671 741:-1 742:-1 743:-1 744:-1 745:-1 746:0.193908 747:-1 748:-1 749:-1 750:-1 751:-1 752:-1 753:-1 754:-1 755:-1 756:-1 757:-1 758:-1 759:-1 760:-1 761:-1 762:-1 763:-1 764:-1 765:-1 766:-1 767:-1 768:-1 769:-1 770:-1 771:-1 772:-0.140503 773:-1 774:-0.0768908 775:-0.808346 776:-1 777:-1 778:-1 779:-1 780:-1 781:-1 782:-1 783:-1 784:-1 785:-1 786:-1 787:-1 788:-1 789:-1 790:-0.874113 791:-0.634864 792:-0.519988 793:-0.483074 794:0.532371 795:-1 796:-1 797:-1 798:2.27384 799:-0.141462 800:-1 801:-1 802:-0.18154 803:-1 804:-1 805:-0.895383 806:-0.790766 807:-0.757774 808:3.25235 809:-1 810:-0.485107 811:-1 812:-1 813:-0.372297 814:-1 815:-1 816:-1 817:-1 818:-1 819:-1 820:-1 821:-1 822:-1 823:-1 824:-0.933075 825:-1 826:-0.201246 827:-0.247861 828:-1 829:0.572305 830:-1 831:-1 832:-1 833:-1 834:-1 835:-1 836:-1 837:-1 838:-1 839:-1 840:-1 841:-1 842:-1 843:-1 844:-1 845:0.109206 846:-1 847:-1 848:-1 
0 0 10.63900940376156 64.79377009602483 0:-1 1:1.59542 2:-1 3:-1 4:-1 5:4.57562 6:-1 7:-1 8:-1 9:0.367338 10:-1 11:-1 12:-1 13:-1 14:-1 15:-0.209302 16:-1 17:-1 18:-1 19:-1 20:-1 21:-1 22:-1 23:-1 24:-1 25:-1 26:-1 27:0.654277 28:-1 29:-1 30:-1 31:0.0388073 32:-1 33:-0.37908 34:-1 35:-1 36:-1 37:-1 38:-1 39:-1 40:-1 41:-1 42:-1 43:-1 44:-1 45:-1 46:0.42844 47:-1 48:-1 49:-1 50:-1 51:-1 52:-1 53:-1 54:-0.367435 55:-1 56:-1 57:-1 58:-1 59:-1 60:-0.958812 61:-1 62:-1 63:-1 64:-1 65:-1 66:-1 67:-1 68:-1 69:-1 70:-1 71:-1 72:-1 73:-1 74:0.117827 75:-1 76:-0.0047079 77:0.153379 78:-1 79:-1 80:-1 81:-1 82:-1 83:-0.427005 84:-1 85:-1 86:-1 87:-1 88:-1 89:-1 90:-1 91:-1 92:0.0541704 93:-1 94:-1 95:-0.125588 96:0.311619 97:-1 98:-1 99:-0.743159 100:-1 101:-1 102:-1 103:-1 104:-1 105:0.562805 106:-1 107:-1 108:-1 109:-0.0047079 110:-1 111:-1 112:-1 113:-1 114:-1 115:-1 116:-1 117:-1 118:-1 119:-1 120:-1 121:-1 122:-1 123:-1 124:-1 125:-1 126:-1 127:-1 128:-0.506996 129:-1 130:-1 131:-1 132:-1 133:-1 134:-1 135:-1 136:0.722593 137:-1 138:-1 139:-1 140:-1 141:-1 142:-1 143:-1 144:-1 145:-0.609324 146:-1 147:-1 148:-1 149:-1 150:-1 151:-1 152:-1 153:-1 154:-1 155:-1 156:-1 157:0.948879 158:-1 159:-1 160:-0.512295 161:-1 162:0.943992 163:-1 164:-1 165:-1 166:-1 167:-1 168:-0.415777 169:-1 170:-1 171:-1 172:-1 173:-1 174:-1 175:-1 176:-1 177:-1 178:-1 179:-1 180:-1 181:-1 182:-1 183:-1 184:-1 185:-1 186:-0.680629 187:-1 188:-1 189:-1 190:-1 191:-1 192:-1 193:-1 194:-1 195:0.0720295 196:-1 197:-1 198:-0.274472 199:0.172029 200:-1 201:-1 202:-1 203:-1 204:-1 205:-1 206:-1 207:-1 208:-1 209:-1 210:-0.451177 211:-1 212:-1 213:-1 214:-1 215:-1 216:-1 217:-1 218:-1 219:0.299162 220:-1 221:-1 222:-1 223:-1 224:0.241757 225:-1 226:-1 227:-1 228:-1 229:-1 230:-1 231:-1 232:-1 233:-1 234:-1 235:-1 236:-1 237:-1 238:-1 239:-1 240:-1 241:-1 242:1.34425 243:-1 244:-1 245:-0.0563052 246:-1 247:-1 248:-1 249:-1 250:-1 251:-1 252:0.0251267 253:-1 254:-0.502354 255:-1 256:-1 257:-1 258:-1 259:-1 260:1.61366 261:-1 262:-1 263:-1 264:-1 265:-1 266:-1 267:-1 268:-1 269:-1 270:-1 271:-1 272:-1 273:-1 274:-1 275:-1 276:-1 277:-1 278:-1 279:-1 280:-1 281:-1 282:-1 283:-1 284:-1 285:-1 286:-1 287:-1 288:-1 289:-1 290:-1 291:-1 292:-0.609324 293:-1 294:-1 295:-0.919383 296:-0.532038 297:0.297712 298:-1 299:-1 300:-1 301:-1 302:-1 303:-1 304:-1 305:-1 306:-1 307:-1 308:0.75808 309:-1 310:-1 311:-0.710534 312:0.0557258 313:-1 314:-0.523064 315:-1 316:-1 317:-1 318:-1 319:0.412604 320:-1 321:-1 322:-1 323:-1 324:-0.21396 325:-1 326:-0.934886 327:-1 328:0.889306 329:-1 330:-1 331:-1 332:-0.187847 333:-1 334:-1 335:-1 336:-0.919129 337:-1 338:-1 339:-1 340:-1 341:-1 342:-1 343:-1 344:-1 345:-1 346:-0.61086 347:-1 348:-1 349:-1 350:-1 351:-1 352:0.467038 353:-1 354:-0.327356 355:-1 356:-1 357:-0.548863 358:-1 359:-1 360:-1 361:-0.451177 362:-1 363:-1 364:-1 365:-1 366:-1 367:-1 368:-0.895322 369:-0.708538 370:-1 371:-1 372:-0.609324 373:-1 374:-0.869772 375:-1 376:-1 377:-1 378:-1 379:-1 380:-1 381:-1 382:-1 383:-1 384:-1 385:-1 386:-0.00778667 387:-0.413973 388:-1 389:-1 390:-1 391:0.875781 392:-0.934886 393:-1 394:-1 395:-1 396:-1 397:-1 398:-1 399:-1 400:-1 401:-1 402:-1 403:-1 404:-1 405:2.4011 406:-1 407:-1 408:-0.823263 409:-1 410:-1 411:-1 412:-1 413:-1 414:-1 415:-1 416:-1 417:-1 418:-1 419:-1 420:-1 421:-1 422:-1 423:-1 424:-1 425:-1 426:-0.970544 427:-1 428:-1 429:-1 430:-1 431:-1 432:-1 433:-1 434:-1 435:-1 436:-1 437:-1 438:-0.804658 439:-1 440:-1 441:-1 442:-1 443:-0.00651501 444:0.57208 445:-1 446:-1 447:-1 448:-0.94608 449:-1 450:1.51473 451:-1 452:-1 453:-1 454:-1 455:-1 456:-1 457:-1 458:-1 459:0.407688 460:-1 461:2.51617 462:-1 463:-1 464:2.70229 465:-1 466:-1 467:-1 468:-1 469:-1 470:-1 471:0.719091 472:-1 473:-1 474:-1 475:-1 476:-1 477:-1 478:-1 479:-1 480:-1 481:-0.902329 482:-1 483:-1 484:-1 485:-1 486:-1 487:-1 488:-1 489:-1 490:-1 491:-1 492:-1 493:-1 494:-1 495:-1 496:-1 497:-1 498:-1 499:-1 500:-1 501:-0.609316 502:-1 503:-0.379619 504:0.57208 505:-1 506:-1 507:-0.609324 508:-1 509:-1 510:-1 511:-1 512:-1 513:-1 514:-1 515:-1 516:-1 517:-1 518:-1 519:-1 520:-1 521:-0.898657 522:-1 523:0.307011 524:0.416908 525:-1 526:-1 527:-1 528:-1 529:-1 530:-1 531:-1 532:-1 533:-1 534:-1 535:0.064542 536:-1 537:-1 538:-1 539:-1 540:-1 541:-1 542:-1 543:-1 544:-1 545:-1 546:-1 547:-1 548:-1 549:-1 550:-1 551:-1 552:-1 553:-1 554:-0.422128 555:-1 556:-1 557:-1 558:-1 559:-1 560:-1 561:-1 562:-1 563:-0.528511 564:-1 565:-1 566:-1 567:-1 568:-1 569:-0.945702 570:-0.5349 571:-1 572:-1 573:-1 574:-1 575:-1 576:-1 577:1.06757 578:-0.869772 579:-1 580:-0.5349 581:-1 582:-1 583:-1 584:-1 585:-1 586:-1 587:-1 588:2.70229 589:-1 590:-1 591:-1 592:-1 593:-1 594:-1 595:-1 596:-1 597:-1 598:-1 599:-1 600:-1 601:-0.488395 602:0.367338 603:-0.395385 604:-1 605:-1 606:-1 607:-1 608:-1 609:-0.222313 610:-1 611:-1 612:-1 613:-1 614:-1 615:-1 616:-1 617:0.175109 618:-1 619:-1 620:-1 621:-1 622:-1 623:-1 624:-1 625:-1 626:-1 627:-1 628:-1 629:-1 630:-1 631:-1 632:0.57208 633:-1 634:-1 635:-1 636:-1 637:-1 638:-1 639:-0.128292 640:-1 641:-1 642:-1 643:-1 644:-1 645:-1 646:-1 647:-0.0047079 648:-1 649:-1 650:-1 651:-0.646527 652:-1 653:-1 654:-1 655:-1 656:0.304628 657:-1 658:-1 659:-1 660:-1 661:-1 662:-1 663:-1 664:-1 665:1.2074 666:-1 667:-1 668:-1 669:-1 670:-1 671:-1 672:-1 673:-1 674:-1 675:-0.88326 676:-1 677:-1 678:0.700548 679:-1 680:-1 681:-1 682:-1 683:-1 684:-1 685:-1 686:-1 687:-1 688:-0.218648 689:-1 690:-1 691:-0.548863 692:-1 693:-1 694:-1 695:-1 696:-1 697:-1 698:-1 699:-0.423275 700:-1 701:-1 702:-1 703:-1 704:-1 705:-1 706:-1 707:-1 708:-1 709:-1 710:-1 711:-1 712:-1 713:-1 714:-1 715:-1 716:-1 717:-1 718:-1 719:-1 720:-0.413973 721:-1 722:-1 723:-1 724:-1 725:-1 726:-1 727:-1 728:-1 729:-1 730:-0.487973 731:0.172053 732:-0.395385 733:-1 734:-1 735:-1 736:-1 737:-1 738:-1 739:-1 740:-1 741:-1 742:-1 743:-1 744:-1 745:-1 746:-1 747:-1 748:0.948879 749:0.486417 750:-1 751:-1 752:-1 753:-1 754:-1 755:0.14107 756:2.06895 757:-1 758:-1 759:-1 760:-1 761:-1 762:-1 763:-1 764:-1 765:0.719091 766:-1 767:-1 768:1.38238 769:-1 770:-1 771:-1 772:-1 773:-1 774:-0.441874 775:-0.613724 776:-1 777:0.172053 778:-1 779:-1 780:-1 781:-1 782:-1 783:-0.854075 784:-1 785:-1 786:-1 787:-1 788:-1 789:-1 790:-0.809717 791:-1 792:-1 793:-0.218648 794:1.31624 795:-1 796:-1 797:-1 798:2.7114 799:0.297712 800:-1 801:-1 802:-1 803:-1 804:-1 805:-1 806:-1 807:-1 808:-1 809:-1 810:-1 811:-1 812:-1 813:-1 814:-1 815:-1 816:-1 817:-1 818:-1 819:-1 820:0.944195 821:-1 822:-1 823:-1 824:-1 825:-1 826:-0.798776 827:-1 828:-1 829:-1 830:-0.43458 831:-1 832:-1 833:-1 834:-1 835:-1 836:-1 837:-1 838:-1 839:-1 840:-1 841:-1 842:-0.932349 843:-1 844:-1 845:-0.0418437 846:-1 847:-1 848:-1 
