svm_type c_svc
kernel_type rbf
gamma 0.0078125
nr_class 4
total_sv 234
rho -0.921875 -0.988239 nan -0.988952 nan nan
label 0 1 2 3
nr_sv 100 99 35 0
SV
0.03125 0.01171875 0 0:-1 1:-1 2:3.09863 4:1.34325 5:-1 6:-1 7:-1 8:-1 9:-1 10:-1 11:-1 12:-1 13:-0.899768 14:9.63046 15:-1 16:-1 17:-1 18:-0.0261322 19:2.41441 20:7.59065 21:-1 22:-1 23:-1 24:-1 25:-1 26:-1 27:-1 28:-1 29:-1 30:-1 31:-1 32:15.5174 34:-1 35:-1 36:-1 37:-1 38:-1 39:-1 40:-1 41:-1 42:-1 43:-1 44:-1 45:-1 46:2.31918 47:-1 48:-1 49:-0.919715 50:-1 51:-1 52:-1 53:-1 54:-1 55:-1 56:-1 57:-1 58:-1 59:-1 60:-1 61:-1 62:-1 63:-1 64:-1 65:-1 66:-1 67:-1 68:-1 69:-1 70:-1 71:-1 72:1.86433 73:-1 74:-1 75:-1 76:-1 77:8.01981 78:-1 79:0.298407 80:-0.298358 81:-1 82:-1 83:24.7931 84:-1 85:-1 86:-1 87:-1 88:-1 89:-1 90:-1 91:4.50868 92:-1 93:-1 94:-1 95:0.371758 96:-1 98:-0.02618 99:-1 100:-1 101:-1 102:-1 103:-1 104:-1 105:-1 106:-1 108:-1 109:-1 111:5.82817 112:-1 113:-1 114:-1 115:-0.759143 116:-1 117:0.836227 118:-1 119:-1 120:-1 121:-1 122:-1 123:-1 124:-1 125:-1 126:0.137843 127:2.41441 128:-1 129:-1 130:9.97589 131:-1 132:-1 133:2.79041 134:-1 135:-1 136:-1 137:-1 138:-1 139:-1 140:25.5761 141:-1 143:-1 144:-1 145:-0.513101 146:-1 147:-1 148:4.48847 149:-1 150:5.44034 151:-1 152:-1 153:-1 154:-1 155:-1 156:-1 157:-1 158:-1 159:-1 160:269.81 161:-1 162:-1 163:-1 164:-1 165:-1 166:-1 167:-1 168:-1 169:-1 170:-1 171:-1 172:-1 173:-1 174:-1 175:-1 176:12.2893 177:-1 178:-1 179:-1 180:-1 181:-1 182:-1 183:-1 184:-1 185:-1 186:-1 187:4.15559 188:-1 189:-1 190:-1 191:-1 192:-1 193:3.50796 194:-1 195:-1 196:-1 197:-1 198:-1 199:-1 200:-1 201:-1 202:-1 203:-1 204:-1 205:-1 206:-1 207:-1 208:24.7906 209:-1 210:-1 211:-1 212:-1 213:-1 214:0.138013 215:-1 216:-1 217:6.5122 218:-1 219:-1 220:-1 221:-1 222:0.0262642 223:-1 224:-1 225:-1 226:-1 227:-1 228:-1 229:-1 230:-1 232:-1 233:-1 234:-1 235:-0.844098 236:-1 237:-1 238:-1 239:-1 240:-1 241:-1 242:0.0262642 243:-1 244:-1 245:-1 246:-1 247:-1 248:0.895385 249:-1 250:-0.146536 251:-1 252:-1 253:-1 254:-1 255:-1 256:-1 257:-0.0261322 258:-1 259:-1 260:-1 261:-1 262:-1 263:-1 264:-1 265:-1 266:1.49452 267:18.321 268:-1 269:-1 270:-1 271:-1 272:-1 273:-1 274:-1 275:-1 276:-1 277:-1 278:-1 279:-1 280:-1 281:4.48847 282:-1 283:-1 284:-1 285:-1 286:-1 287:24.7931 288:-1 289:-1 290:-1 291:-1 292:-1 293:-1 294:-1 295:-1 296:-1 297:-1 298:-1 299:-1 300:-1 301:-1 302:-1 303:-1 304:-1 305:-1 306:-1 307:-1 309:-1 310:-1 311:-1 312:-1 313:-1 314:-1 315:-1 316:-1 317:-1 318:-1 319:-1 320:-1 321:-1 322:0.659851 323:-1 324:-1 325:-1 326:-1 327:-1 328:-1 329:-1 330:-1 331:-1 332:-1 333:-1 334:3.29356 335:0.706927 336:-1 337:-1 338:-1 339:-1 340:-1 341:-1 342:-1 343:2.41441 344:-1 345:-1 346:-1 347:-1 348:-1 349:-1 350:-1 351:-1 352:-1 353:-1 354:-1 355:-1 356:-1 357:-1 358:-1 359:-1 360:-1 362:-1 363:10.0464 364:-1 365:-1 366:-1 367:-1 368:-1 369:-1 370:9.31118 371:-1 372:-1 373:1.10472 374:5.44431 375:-1 376:-1 377:-1 378:-1 379:-1 380:-1 381:-1 382:-1 383:-1 384:-1 385:-1 386:1.49452 387:-1 388:-1 389:-1 390:-1 391:-1 392:-1 393:76.5704 394:-1 397:-1 398:-1 399:0.0262642 400:17.0241 401:5.63772 402:-1 403:-1 404:-1 405:-1 406:-1 407:-1 408:-1 409:-1 410:-0.0261322 411:4.48847 412:-1 413:-1 414:-1 415:-1 417:-1 418:-1 419:-0.368205 420:-1 421:0.895385 422:-1 423:-1 424:-1 425:-1 426:-1 427:4.52321 428:-1 429:-1 430:-1 431:-1 432:-1 433:-1 434:-1 435:-1 436:-1 437:0.138013 438:-1 441:-1 442:-1 443:-1 444:-1 445:-1 446:-1 447:-1 448:-1 449:-1 450:-1 451:32.0315 452:-1 453:-1 454:-1 455:-1 457:2.31918 458:-1 459:-1 460:-1 461:-1 462:-1 463:-1 464:-1 465:-1 466:-1 467:-1 468:-1 469:-1 470:9.31118 471:76.5704 472:-1 473:-1 474:-1 475:-1 476:-1 477:-1 478:-1 479:-1 480:-1 481:-1 482:-1 483:-1 484:0.895385 485:-1 486:89.2759 487:4.95 488:-1 489:-1 490:-1 491:0.403149 492:-1 493:-1 494:-1 495:-1 496:-1 497:-1 498:-1 499:-1 500:-1 501:-1 502:-1 503:-1 504:-1 505:-1 506:-1 507:-1 508:-1 509:2.30451 510:-1 511:9.97302 512:-1 513:-1 514:-1 515:-1 516:-1 517:-1 518:-1 519:4.52321 520:-1 521:-1 522:-1 523:11.8966 524:-1 525:-1 526:-0.0261322 527:-1 528:-0.759143 529:-1 530:76.3744 531:-1 532:-1 533:-1 534:-1 535:-1 536:-1 537:-1 538:-1 539:-1 540:-1 541:-1 542:-1 543:1.74352 544:-1 545:-1 546:-1 547:-1 548:-1 549:-1 551:-0.766125 552:-1 553:-1 554:-1 555:-1 556:52.1574 557:-1 558:-1 559:17.0241 560:-1 561:11.8966 562:-1 563:-1 564:29.092 565:-1 566:-1 567:-1 568:-1 569:-1 570:-1 571:-1 572:-1 573:-1 574:-1 575:-1 576:-1 577:0.659851 578:-1 579:-1 580:18.321 581:-1 582:-1 583:-1 584:-1 585:-0.805219 586:1.86433 587:-1 588:-1 589:-1 590:-1 591:-1 592:-1 593:-1 594:2.30451 595:-1 596:-0.57629 597:-1 598:-1 599:-1 600:-1 601:-1 602:-1 603:-1 604:-1 605:-1 606:-1 607:-1 608:-1 609:-1 610:-1 611:-1 612:-1 613:-1 614:-1 615:6.58081 616:89.2759 617:2.31939 618:-1 619:-1 620:-1 621:-1 622:-1 623:-1 624:-1 625:5.63772 626:-1 627:-1 628:-1 629:-1 630:-0.486868 631:-1 632:-1 633:-1 634:-1 635:-1 636:-1 637:-1 638:-1 639:-1 640:-1 641:-1 642:-1 643:-1 644:-1 645:-1 646:-1 647:-1 648:-1 649:-1 650:-1 652:-1 653:-1 654:-1 655:-1 656:-1 657:-1 658:14.0244 659:-1 660:-1 661:-1 662:-1 663:-0.759143 664:-1 665:-1 666:-1 667:0.602203 668:-1 669:-1 670:-1 671:-1 672:1.95235 673:-1 674:-1 675:-1 676:-1 677:-1 678:-1 679:-1 680:-1 681:-1 682:-1 683:-1 684:-0.766125 685:-1 686:-1 687:-1 688:-1 689:-1 690:-1 691:-1 692:-1 693:-1 694:-1 695:-0.824593 696:-1 697:-1 698:-1 699:-1 700:-1 701:44.1379 702:-1 703:-1 704:-1 705:-1 706:0.895204 707:-1 708:-1 709:-1 710:-1 711:-1 712:-1 713:8.01981 714:4.52321 715:-1 716:-1 717:2.30451 718:-1 719:-0.766125 720:-1 721:-1 722:-1 723:-1 724:-1 725:-1 726:-1 727:0.895385 728:-1 729:-0.298358 730:-1 731:-1 732:7.19405 733:-1 734:-1 735:-1 736:-1 737:-1 738:4.63617 739:-1 740:-1 741:-0.519324 742:-1 743:-0.0854148 744:29.092 745:-1 746:-1 747:-1 748:-0.946149 749:1.10479 750:-1 751:-1 752:-1 753:-1 754:-1 755:89.2672 756:-1 757:-1 758:-1 759:-0.0261322 760:-1 761:-1 762:-1 763:-1 764:-1 765:44.1379 766:-1 767:-1 768:-1 769:-1 770:-1 771:-1 772:-1 773:-1 774:-1 775:-1 776:-1 777:154.126 778:-1 779:-1 780:-1 781:-1 782:-1 783:-1 784:-1 785:-1 786:-1 787:-1 788:-1 789:-1 790:-1 791:-0.649191 792:-1 793:-1 794:3.42561 795:-0.146536 796:-1 797:-1 798:-1 799:-1 800:-1 801:13.055 802:-1 803:-1 804:-1 805:0.895385 806:-1 807:-1 808:-1 809:-1 810:-1 811:-1 812:-1 813:-1 814:-1 815:-1 816:-1 817:-1 818:-1 819:-1 820:-1 821:4.15608 822:-1 823:-1 824:-1 825:-1 826:-1 827:-1 828:-1 829:-1 830:-1 831:-1 832:1.0598 833:-1 834:-1 835:2.31918 836:-1 837:-1 838:-1 839:-1 840:52.1574 841:-1 842:-1 843:-1 844:-1 845:-1 846:-1 847:-1 848:-1 849:-1 
0.03125 0.01171875 0 0:-1 1:-1 2:-0.49589 4:-0.855896 5:0.225357 6:-1 7:-0.489301 8:-0.936887 9:-1 10:-1 11:-0.749709 12:-1 13:-1 14:2.92487 15:-0.790057 16:-1 17:-1 18:-1 19:-1 20:4.2863 21:-1 22:-1 23:-1 24:-1 25:-1 26:-1 27:-0.702815 28:-0.242258 29:-1 30:-0.784121 31:-1 32:1.03155 34:-1 35:-1 36:-0.673179 37:-1 38:-1 39:-1 40:2.73176 41:-1 42:-0.346193 43:-1 44:-0.883439 45:-1 46:-1 47:21.2241 48:-1 49:-0.995063 50:-1 51:0.384946 52:4.55172 53:-1 54:-1 55:-1 56:1.77538 57:-1 58:-1 59:-0.867897 60:-1 61:-1 62:-0.533394 63:-1 64:-1 65:-1 66:-1 67:-1 68:-0.740972 69:-1 70:-1 71:1.77503 72:-1 73:-1 74:-1 75:-1 76:-0.79588 77:-1 78:-1 79:-0.940108 80:-0.740972 81:-1 82:-0.491913 83:33.9163 84:-1 85:-1 86:-0.817097 87:-1 88:-1 89:-0.693771 90:-1 91:-1 92:2.9631 93:-1 94:-1 95:1.86979 96:-0.790057 98:-0.880121 99:-1 100:-1 101:-1 102:-1 103:-0.78382 104:-1 105:-1 106:-1 108:0.0204987 109:-1 111:0.68047 112:-0.790023 113:-0.883439 114:-0.53802 115:-0.985188 116:-1 117:-0.0962651 118:-1 119:-1 120:-0.948962 121:-1 122:-1 123:-1 124:-1 125:-1 126:-1 127:-1 128:-1 129:-0.207872 130:35.8092 131:44.1734 132:-1 133:-0.766878 134:-1 135:-1 136:-1 137:-1 138:-0.647702 139:-1 140:200.15 141:-1 143:-1 144:-1 145:-1 146:-1 147:-1 148:-1 149:-1 150:0.188192 151:-1 152:-0.889504 153:-1 154:-1 155:20.3407 156:-1 157:-1 158:-1 159:48.9828 160:10.1034 161:3.77037 162:-1 163:-1 164:-1 165:-0.79588 166:-1 167:-1 168:-0.300271 169:1.7112 170:-1 171:0.260515 172:-1 173:-1 174:-1 175:-1 176:3.90609 177:-1 178:-1 179:-1 180:-1 181:-1 182:-1 183:-1 184:22.7786 185:-1 186:-1 187:-1 188:-1 189:-1 190:-0.655437 191:-0.936887 192:-1 193:-1 194:-1 195:-1 196:-1 197:5.09779 198:-1 199:-1 200:-0.872978 201:-1 202:-1 203:-0.956754 204:-1 205:-1 206:-1 207:-1 208:-1 209:-1 210:-1 211:-1 212:-1 213:-1 214:-1 215:-1 216:-0.660338 217:-1 218:-1 219:-0.56764 220:-1 221:1.45159 222:-1 223:-1 224:-0.883439 225:-0.431791 226:-0.913702 227:-1 228:-1 229:-1 230:-1 232:-1 233:-1 234:-0.242258 235:-0.851304 236:-1 237:1.07966 238:-1 239:4.71049 240:-0.936887 241:9.69742 242:-1 243:-1 244:-1 245:-0.883439 246:-1 247:0.0157729 248:-1 249:-0.26062 250:-0.527465 251:-1 252:-1 253:-1 254:176.741 255:-1 256:-1 257:-0.820329 258:-0.897924 259:-1 260:-1 261:2.39873 262:-1 263:-1 264:-0.936887 265:-1 266:-0.846594 267:-1 268:-1 269:-1 270:-0.545813 271:-1 272:-1 273:-1 274:-1 275:-1 276:9.16404 277:-1 278:2.92487 279:-1 280:4.04206 281:0.351153 282:-1 283:-1 284:-1 285:-1 286:-0.883439 287:-1 288:-1 289:-0.883439 290:-1 291:-1 292:-0.790057 293:-1 294:-1 295:-1 296:-0.580046 297:-0.883439 298:-1 299:-0.766777 300:-1 301:-0.720243 302:-1 303:16.4581 304:-0.191072 305:-1 306:-1 307:-1 309:-1 310:-0.747945 311:40.6552 312:-0.693771 313:-1 314:-1 315:-1 316:-1 317:-0.78382 318:-1 319:-1 320:0.225357 321:-1 322:-1 323:-0.951793 324:-0.770425 325:-1 326:-1 327:-0.936887 328:46.7333 329:-1 330:-1 331:-1 332:-1 333:21.2155 334:-0.735957 335:-1 336:22.8667 337:-1 338:-1 339:-1 340:1.77586 341:-1 342:-1 343:-1 344:-1 345:-1 346:-1 347:-1 348:-1 349:-1 350:-1 351:-1 352:175.593 353:-1 354:0.188192 355:-1 356:-1 357:-0.57351 358:-1 359:-1 360:-1 362:-0.895029 363:-1 364:-1 365:-0.580046 366:-0.735957 367:-1 368:-1 369:-1 370:-1 371:-1 372:-1 373:-0.913638 374:-0.603692 375:-1 376:-1 377:-1 378:-1 379:-0.953632 380:-1 381:8.75769 382:-1 383:-1 384:-1 385:-1 386:-1 387:-1 388:22.4859 389:-1 390:-1 391:8.52217 392:-0.496088 393:3.77037 394:-0.989481 397:-0.79588 398:-0.895029 399:-0.116033 400:4.54561 401:-1 402:-1 403:-1 404:-1 405:-1 406:13.2657 407:-1 408:-1 409:-1 410:-0.760253 411:-0.662474 412:2.26904 413:-1 414:-1 415:-0.859929 417:-1 418:-1 419:-1 420:-1 421:0.866063 422:-1 423:-0.766878 424:-1 425:-1 426:-1 427:-0.660338 428:0.694897 429:-0.880219 430:-1 431:-1 432:-1 433:-1 434:-1 435:-1 436:-1 437:-0.930015 438:0.0163072 441:-1 442:-0.533394 443:-1 444:-1 445:21.4511 446:-1 447:2.39873 448:-1 449:-1 450:-1 451:1.03155 452:4.54409 453:-1 454:-1 455:-0.207872 457:0.0212361 458:-0.182741 459:-0.322462 460:-1 461:1.13377 462:-0.661231 463:-0.883439 464:-0.922293 465:-1 466:-1 467:-1 468:-0.346193 469:-1 470:-0.524372 471:166.052 472:4.19726 473:-1 474:-1 475:-1 476:-1 477:-1 478:-0.790023 479:-1 480:-1 481:-0.883439 482:-0.580046 483:-0.692013 484:-1 485:-1 486:221.19 487:-1 488:-0.460684 489:-0.482501 490:-1 491:0.295142 492:-0.490372 493:211.599 494:-1 495:-1 496:-1 497:-1 498:-0.722772 499:-1 500:-1 501:-1 502:3.06625 503:-0.796781 504:-1 505:-0.440487 506:-0.745957 507:-1 508:-1 509:-1 510:-1 511:5.58318 512:-1 513:-1 514:-0.955081 515:-1 516:-1 517:-1 518:-1 519:0.0189873 520:-0.0760402 521:-1 522:-1 523:0.586207 524:-0.922293 525:0.586207 526:-1 527:-1 528:-0.925894 529:-1 530:10.1084 531:-1 532:-1 533:-0.823851 534:-0.883439 535:-0.883439 536:56.2741 537:-0.941719 538:49.8139 539:-1 540:-0.846885 541:0.586462 542:-0.78382 543:-0.831281 544:-0.94011 545:-1 546:-1 547:-1 548:0.527999 549:-1 551:-0.237315 552:3.75738 553:-1 554:0.0494118 555:-1 556:139.64 557:34.6605 558:-1 559:1.21687 560:-1 561:6.93596 562:-1 563:-1 564:2.70115 565:-1 566:-1 567:-1 568:-1 569:-0.941719 570:-0.831281 571:-1 572:-0.981438 573:-1 574:-1 575:-1 576:-1 577:-1 578:-1 579:-1 580:1.37638 581:-1 582:-1 583:-0.69194 584:-1 585:-0.988022 586:-0.823851 587:-1 588:-0.94011 589:7.17336 590:-1 591:-1 592:-1 593:-0.682915 594:-1 595:5.05369 596:-0.608982 597:84.9111 598:-1 599:-1 600:-1 601:-0.491913 602:0.84792 603:-0.697822 604:-0.895029 605:-0.661231 606:-1 607:-1 608:-1 609:-1 610:-0.870553 611:-1 612:-1 613:-1 614:-1 615:-1 616:176.741 617:-1 618:-1 619:-1 620:3.05241 621:-1 622:-1 623:-0.78382 624:-1 625:-1 626:-1 627:-1 628:-1 629:-1 630:-0.0843787 631:-1 632:-1 633:-1 634:-0.793192 635:-1 636:-0.936887 637:-1 638:-1 639:-1 640:-1 641:-1 642:-1 643:-1 644:-1 645:-1 646:-1 647:-1 648:-1 649:-1 650:-1 652:-1 653:-0.749709 654:-1 655:-1 656:-1 657:-1 658:-1 659:-1 660:-1 661:-1 662:-0.987511 663:-0.985188 664:-1 665:-1 666:-1 667:-0.507038 668:-1 669:-0.766878 670:-1 671:-1 672:0.453059 673:-1 674:-1 675:-1 676:-1 677:-1 678:-1 679:-1 680:-1 681:-1 682:-0.897924 683:-1 684:-0.266125 685:-1 686:-1 687:-1 688:-1 689:-0.895029 690:-1 691:-1 692:-1 693:-1 694:-1 695:-0.946031 696:-1 697:-1 698:-0.94011 699:-0.206897 700:-1 701:46.2155 702:-1 703:-1 704:-1 705:-1 706:-0.941719 707:-0.929577 708:-1 709:3.75277 710:-0.978426 711:-1 712:-1 713:2.32989 714:-1 715:-0.94011 716:-1 717:-0.186494 718:-0.53791 719:-0.769743 720:-0.0760402 721:-1 722:-1 723:2.04732 724:-0.961146 725:-1 726:6.13284 727:-0.766878 728:-1 729:-1 730:-0.580046 731:-0.79588 732:-1 733:-1 734:-1 735:-1 736:-1 737:-1 738:-0.653391 739:-1 740:0.784033 741:-0.911319 742:9.1693 743:-1 744:74.9138 745:-1 746:-1 747:-1 748:-0.965209 749:-0.784121 750:-1 751:-1 752:-0.883439 753:-0.285148 754:-1 755:68.431 756:-0.650317 757:-1 758:-1 759:-0.94011 760:-1 761:-0.416833 762:-1 763:-1 764:-1 765:18.4397 766:-0.387639 767:-1 768:-1 769:-1 770:-1 771:-1 772:-1 773:-1 774:-1 775:-1 776:-1 777:3.77037 778:-0.36225 779:-1 780:-1 781:-1 782:-1 783:-0.831281 784:1.27323 785:-0.810564 786:-1 787:-0.766878 788:-0.983348 789:-1 790:0.890447 791:-1 792:-1 793:-0.70594 794:11.5953 795:-1 796:-0.491913 797:-1 798:-1 799:-1 800:-1 801:-0.13557 802:-1 803:-1 804:-1 805:0.0494118 806:-0.660338 807:-1 808:-1 809:-0.955081 810:-1 811:-1 812:-1 813:-1 814:-1 815:-1 816:-1 817:-1 818:-1 819:-1 820:-1 821:-1 822:-0.825158 823:-1 824:-1 825:-1 826:-1 827:-0.985188 828:3.3621 829:-1 830:-1 831:-1 832:-0.746508 833:-1 834:-1 835:-1 836:-0.766878 837:-1 838:-0.580046 839:-1 840:-1 841:-0.662474 842:-1 843:-1 844:-1 845:-1 846:0.634518 847:-1 848:-0.825158 849:-1 
0.03125 0.01171860737077762 0 0:-1 1:-0.713665 2:1.78513 4:-0.233386 5:0.169572 6:-0.570264 7:-0.289903 8:-0.896707 9:-0.828199 10:-0.742419 11:-0.180723 12:1.26956 13:-0.962155 14:-0.196954 15:-0.613366 16:0.517241 17:0.16839 18:-0.43625 19:0.289208 20:1.16243 21:0.754675 22:-0.926669 23:-0.956968 24:0.671953 25:-1 26:-0.312469 27:0.216428 28:-0.586633 29:-0.767542 30:-0.788141 31:2.63307 32:-1 34:-0.148906 35:-0.349754 36:0.203755 37:0.00253807 38:-0.95971 39:-1 40:-0.665882 41:-0.705943 42:0.472081 43:2.33544 44:-0.284344 45:-0.825038 46:-0.665927 47:-1 48:-0.18914 49:-0.967662 50:-0.699104 51:0.135484 52:1.27586 53:-0.995512 54:-0.0910881 55:-0.180723 56:1.10831 57:0.513876 58:0.987083 59:-0.0810256 60:-1 61:-0.140528 62:-0.522896 63:0.514356 64:0.20313 65:1.78059 66:2.00888 67:0.890961 68:-0.735075 69:0.0678825 70:0.483122 71:0.987083 72:-0.206783 73:-0.484187 74:1.24217 75:0.693437 76:-0.248177 77:1.49785 78:-0.312683 79:-0.991816 80:-0.770452 81:-0.498811 82:-0.271795 83:0.300493 84:0.136 85:1.05499 86:-0.550696 87:1.06341 88:-0.135002 89:-0.707402 90:-0.952196 91:1.91215 92:5.80935 93:4.10108 94:-0.243132 95:-0.792769 96:-0.527302 98:-0.914159 99:0.378665 100:-0.0808241 101:-0.983632 102:-0.656398 103:-0.026519 104:-0.987424 105:-0.920539 106:-0.652334 108:-0.940359 109:-0.0658789 111:-0.570264 112:0.375285 113:-0.427692 114:-0.0545194 115:-0.939372 116:-0.770634 117:-0.63037 118:0.503645 119:-0.922579 120:-0.853701 121:-0.815895 122:-0.484187 123:-0.226606 124:-0.656342 125:-1 126:-0.871122 127:0.460711 128:0.966705 129:5.48462 130:-1 131:-1 132:-0.935417 133:-0.427692 134:-0.240241 135:-0.689955 136:-0.22127 137:-0.840744 138:0.00929978 139:-0.522896 140:-0.329949 141:-0.665882 143:-0.809231 144:0.145091 145:-0.963219 146:1.72331 147:-0.884891 148:0.657233 149:0.289208 150:-0.0270603 151:-0.248177 152:-0.941886 153:-0.785167 154:-0.891692 155:-1 156:-0.913922 157:0.0402526 158:1.59606 159:-1 160:35.3621 161:-1 162:0.297785 163:-0.833386 164:-1 165:0.837718 166:1.26911 167:1.27046 168:-0.618462 169:0.663335 170:-0.723867 171:1.40626 172:-0.952338 173:0.0402526 174:-0.74167 175:-0.904434 176:0.672589 177:0.300493 178:-0.793031 179:-0.767542 180:0.336926 181:-0.312469 182:4.51046 183:0.155781 184:-1 185:-0.675277 186:-0.583333 187:0.102905 188:0.117052 189:-0.799391 190:-0.975495 191:-0.767542 192:-0.861126 193:0.474817 194:0.373588 195:-0.286066 196:-0.953886 197:0.246057 198:-0.993928 199:-0.475717 200:-0.428008 201:2.97201 202:-0.495536 203:-0.946882 204:-0.380047 205:1.50888 206:-0.53215 207:-0.570264 208:0.948276 209:-0.236561 210:-0.976943 211:-0.376118 212:0.0309749 213:-0.398122 214:-0.36992 215:-0.656398 216:1.64135 217:1.08034 218:-0.689955 219:-0.64619 220:-0.767542 221:-0.442706 222:-0.844963 223:-1 224:-0.37991 225:-0.948256 226:-0.788141 227:-1 228:2.24631 229:-0.570679 230:0.503645 232:-0.993664 233:0.362618 234:-0.948256 235:-0.994119 236:-0.991376 237:0.41873 238:0.0309749 239:-0.610044 240:-0.767542 241:0.944649 242:-0.612505 243:-0.597148 244:-0.74223 245:-0.332127 246:-0.976109 247:1.91167 248:-0.522896 249:-0.0918485 250:-0.892584 251:-0.737821 252:0.024485 253:0.805021 254:14.9138 255:-0.682144 256:0.472081 257:-0.53427 258:-0.415121 259:-0.880724 260:-0.877235 261:-0.443038 262:-0.913922 263:-0.584221 264:-0.844963 265:-0.0270603 266:-0.560267 267:1.91882 268:1.10701 269:-0.554311 270:-0.331266 271:-0.785167 272:-0.740522 273:-0.781775 274:-0.37648 275:-0.398109 276:0.662461 277:0.767258 278:0.0700508 279:-0.349754 280:-0.312683 281:-0.585954 282:-0.351204 283:0.167898 284:-0.687701 285:-0.723867 286:-0.522896 287:0.300493 288:-1 289:-0.809231 290:1.91167 291:0.664753 292:-0.0118989 293:-1 294:-1 295:1.54061 296:-0.0544506 297:-0.665882 298:-0.642048 299:-0.904611 300:-0.656342 301:0.0304083 302:-0.221566 303:-0.349754 304:-0.901976 305:0.546788 306:-0.618462 307:-0.809231 309:-0.827845 310:-0.174951 311:0.137931 312:-0.624029 313:0.769128 314:-0.351059 315:0.0816578 316:1.27011 317:0.592481 318:-0.828199 319:-0.880974 320:0.587322 321:0.966705 322:-0.373276 323:-0.881578 324:-0.839043 325:-0.902985 326:-0.883771 327:-0.535084 328:-1 329:-0.819091 330:-0.896707 331:0.987083 332:1.67513 333:5.81897 334:0.0807708 335:-0.913936 336:-1 337:-0.25879 338:0.735562 339:1.26914 340:1.27586 341:-0.665927 342:0.362618 343:0.632866 344:-0.952338 345:-0.610466 346:3.53875 347:2.02584 348:0.168095 349:-0.965504 350:1.52249 351:1.26667 352:0.955556 353:0.570861 354:2.4059 355:0.565321 356:-0.994492 357:1.79338 358:-0.148396 359:-0.402809 360:-0.646006 362:-0.699104 363:-0.721519 364:0.289208 365:0.460711 366:-0.351374 367:-1 368:-0.522896 369:1.17072 370:0.816839 371:-0.318984 372:-0.700436 373:-0.88523 374:0.136 375:-1 376:-0.785167 377:-0.0266721 378:-0.827845 379:-0.905105 380:-0.522896 381:0.814594 382:0.297883 383:-0.613366 384:-0.870835 385:-0.226606 386:-0.12101 387:0.580988 388:-1 389:-0.975758 390:-0.675077 391:-1 392:1.26917 393:-1 394:-0.987097 397:0.419968 398:-0.613366 399:-0.870835 400:-0.545611 401:-0.832647 402:-0.58225 403:-0.221566 404:-1 405:-0.226606 406:-0.0258303 407:-0.945444 408:-1 409:-0.785167 410:-0.926532 411:0.795597 412:8.37056 413:-0.986052 414:-0.888154 415:-0.871122 417:-0.164501 418:0.336926 419:-0.761448 420:-0.618462 421:-0.522896 422:-0.0808241 423:-0.37991 424:-0.441565 425:-0.618462 426:-0.661529 427:-0.444093 428:2.18885 429:-0.975449 430:6.57471 431:-0.0781189 432:-0.713665 433:0.0815098 434:-0.804945 435:-0.0544506 436:0.247764 437:-0.513149 438:-0.584429 441:0.658553 442:-0.809231 443:-1 444:-1 445:-0.861671 446:-0.74167 447:2.33544 448:1.67614 449:-0.665962 450:-0.904434 451:-1 452:1.26667 453:-0.248177 454:-0.809231 455:0.296433 457:0.754675 458:0.672589 459:-0.861126 460:4.3615 461:0.396026 462:-0.861126 463:-0.522896 464:-0.93641 465:-0.599797 466:0.621156 467:-0.498811 468:3.28223 469:0.117052 470:-0.221566 471:-1 472:-0.214449 473:-0.956788 474:-0.872821 475:-1 476:-0.375937 477:0.390295 478:0.20313 479:0.41873 480:-0.37991 481:-0.522896 482:-0.570264 483:3.28599 484:-0.18914 485:0.663773 486:-1 487:0.0488636 488:-0.914159 489:-0.818474 490:-0.594462 491:-0.752764 492:0.251385 493:3.01015 494:-0.996308 495:0.102091 496:-0.527302 497:0.336926 498:0.588463 499:0.390295 500:-0.398109 501:-0.950897 502:-0.583596 503:-0.0022089 504:-0.896851 505:0.0304083 506:-0.480079 507:-0.639497 508:-1 509:-0.251499 510:0.512195 511:-0.585538 512:0.296433 513:-0.546276 514:-0.944851 515:0.134864 516:-0.854769 517:0.289208 518:0.0494118 519:-0.304852 520:3.91535 521:-0.0483333 522:-0.64797 523:0.948276 524:-0.872821 525:0.945813 526:-0.338231 527:0.751846 528:-0.927274 529:-0.436455 530:0.945813 531:-1 532:0.621156 533:-0.567287 534:-0.904434 535:-0.141357 536:2.91111 537:-0.642172 538:0.246057 539:-0.106183 540:-0.812015 541:0.136 542:0.238671 543:-0.102436 544:-0.828327 545:-0.654703 546:0.875143 547:-0.930836 548:-0.838739 549:-0.646767 551:-0.882258 552:0.111814 553:-0.635063 554:-0.904434 555:1.27011 556:-1 557:-0.0258303 558:0.497727 559:20.3219 560:-0.148906 561:1.92118 562:0.432714 563:-0.167192 564:0.517241 565:-0.607737 566:-0.124077 567:1.40731 568:-0.715798 569:-0.880724 570:-0.930836 571:1.88732 572:-1 573:1.11825 574:-0.907773 575:-0.65684 576:-0.642172 577:-0.289903 578:-0.513057 579:1.91513 580:-0.0258303 581:-0.842403 582:-0.974099 583:0.071514 584:-0.349754 585:-0.936276 586:0.0815098 587:-0.258308 588:-0.950897 589:-0.442706 590:-0.0324948 591:-0.793414 592:0.512195 593:0.427868 594:-0.168192 595:1.83087 596:-0.968036 597:0.955556 598:-0.388057 599:-0.586633 600:0.946366 601:-0.791716 602:-0.621234 603:-0.894003 604:-0.441565 605:1.21883 606:-0.975758 607:-0.0545194 608:0.383529 609:-0.74167 610:-0.823384 611:0.117052 612:-0.17086 613:0.0479977 614:0.340102 615:-0.665882 616:3.55172 617:-0.373276 618:-0.976943 619:-0.742135 620:-0.0324948 621:0.946824 622:-0.284344 623:-0.026519 624:-0.861671 625:-0.0808241 626:-0.269764 627:-1 628:-0.189422 629:-0.980645 630:-0.948354 631:-0.724979 632:-0.907773 633:-0.283851 634:1.03147 635:0.0317025 636:-0.612505 637:-0.91627 638:-0.983855 639:-0.355501 640:-0.656342 641:-0.226606 642:-0.665874 643:-0.939372 644:-0.117169 645:0.189988 646:-0.485167 647:-0.993676 648:-0.226606 649:-0.0544506 650:-0.210782 652:-0.767542 653:1.66304 654:-0.799391 655:-0.775632 656:-0.914099 657:-0.312683 658:1.64849 659:0.381551 660:-0.332127 661:-0.788141 662:-0.997081 663:-0.9333 664:-0.0549307 665:0.947257 666:-0.183196 667:-0.717564 668:0.933962 669:-0.618462 670:2.21015 671:-0.666063 672:-0.331266 673:-0.156573 674:0.20313 675:-0.332127 676:0.890447 677:-0.803962 678:-0.323057 679:-0.522896 680:-0.164501 681:-0.618462 682:-0.707402 683:-0.373276 684:-0.994104 685:-0.331854 686:-0.939372 687:-0.791092 688:1.11825 689:-0.441565 690:0.457565 691:-0.952338 692:0.946309 693:-0.0324948 694:0.134385 695:-0.977923 696:-0.463959 697:-0.861126 698:-0.77941 699:-1 700:-0.861126 701:0.137931 702:-0.550696 703:-0.966588 704:0.00861244 705:-0.913936 706:-0.59457 707:-0.971193 708:-0.87743 709:0.948339 710:-0.911695 711:1.01722 712:-0.954006 713:1.04307 714:-0.165612 715:-0.632289 716:-0.416544 717:-0.584096 718:0.00884956 719:-0.976461 720:2.21377 721:0.512195 722:-0.0258303 723:0.246057 724:-0.952338 725:-0.226606 726:-0.512915 727:-0.236561 728:-0.889541 729:-0.876315 730:-0.0544506 731:0.921395 732:0.237872 733:-0.889541 734:-0.809231 735:-0.546407 736:-0.550696 737:-0.484187 738:0.134553 739:-0.871231 740:-0.513613 741:-0.697512 742:5.05165 743:-0.769782 744:0.517241 745:-0.108241 746:0.672589 747:0.117052 748:-0.993222 749:-0.805695 750:-0.722222 751:-0.148131 752:0.287964 753:-0.603107 754:-0.355501 755:3.5431 756:-0.713665 757:1.08037 758:0.0403158 759:-0.681391 760:3.57616 761:-0.904434 762:-0.684851 763:-0.901978 764:-1 765:27.4052 766:0.587322 767:-0.149314 768:-0.570679 769:-0.770452 770:-0.43263 771:-0.612505 772:0.944649 773:-0.870835 774:-0.96592 775:-0.346258 776:1.26928 777:-1 778:-0.923265 779:-0.226606 780:1.83746 781:-0.475113 782:-0.277495 783:-0.102436 784:-0.586633 785:-0.715896 786:-0.427454 787:-0.332127 788:-0.938667 789:1.49566 790:0.117052 791:-0.894074 792:-0.793414 793:-0.879637 794:-0.972105 795:-0.742298 796:-0.480079 797:-0.289903 798:-0.650993 799:-0.92938 800:-0.0265879 801:1.12215 802:-0.761448 803:-0.594711 804:-0.513057 805:-0.857014 806:0.251055 807:-0.923265 808:-0.665882 809:-0.957081 810:-0.0962807 811:-0.723867 812:0.127089 813:0.873096 814:0.405538 815:0.0858954 816:-0.148131 817:-0.554428 818:-1 819:-0.398109 820:-0.699104 821:-0.0910881 822:-0.785339 823:-0.326328 824:-0.756345 825:8.37056 826:-1 827:-0.921202 828:1.23012 829:-0.767542 830:0.815155 831:-0.921202 832:-0.896269 833:-0.226732 834:-0.570334 835:0.754675 836:-0.809231 837:-0.713665 838:0.546788 839:1.91167 840:0.340102 841:-0.17086 842:-0.828199 843:-0.527302 844:-0.414897 845:-0.713665 846:2.56853 847:0.633609 848:-0.642172 849:-1 
0.03125 0.01171874999834734 0 0:-1 1:-0.311493 2:1.77417 4:-0.110316 5:-0.890333 6:-0.267036 7:-0.314947 8:-0.872893 9:-0.718337 10:-0.548745 11:0.141858 12:0.359042 13:-0.965256 14:-0.297462 15:-0.57718 16:3.96552 17:1.93648 18:-0.66242 19:0.0707532 20:1.83675 21:0.205705 22:-0.951917 23:-1 24:1.19302 25:0.911439 26:-0.351915 27:0.515459 28:-0.525676 29:-0.678165 30:-0.710419 31:0.638243 32:0.362776 34:-0.00753498 35:3.68473 36:-0.341791 37:-0.781726 38:-0.973582 39:-1 40:-0.499367 41:-0.742769 42:-0.122843 43:1.73629 44:-0.342986 45:-0.947873 46:-0.397147 47:9.43103 48:-0.624615 49:-0.985418 50:-0.718337 51:1.23226 52:27.3103 53:-0.991194 54:0.106844 55:0.276331 56:1.76554 57:1.4823 58:1.23251 59:0.0994872 60:-1 61:-0.661559 62:-0.749502 63:0.417555 64:0.296381 65:0.276371 66:-0.0494715 67:0.653754 68:-0.953635 69:-0.0364742 70:0.0942335 71:1.23251 72:-0.0541575 73:0.522008 74:0.533032 75:0.665902 76:0.096038 77:0.638243 78:0.0146723 79:-0.978548 80:-0.629347 81:-0.506736 82:-0.863511 83:3.68473 84:0.383385 85:0.347558 86:-0.263277 87:-0.188258 88:-0.148954 89:-0.561579 90:-1 91:0.364545 92:0.0627306 93:3.46022 94:0.0635506 95:-0.637674 96:-0.689976 98:-0.935643 99:0.0137898 100:-0.342631 101:-1 102:-0.915566 103:0.393085 104:-1 105:-0.942112 106:-0.726194 108:-0.960903 109:-0.438109 111:-0.154222 112:0.465276 113:-0.68724 114:-0.25538 115:-0.948296 116:0.126846 117:-0.666491 118:0.589223 119:-0.864367 120:-0.972579 121:-0.72821 122:-0.548745 123:0.0146723 124:-0.492664 125:-0.997866 126:-0.868514 127:0.2403 128:-0.305396 129:3.89053 130:-0.455975 131:2.83026 132:-0.906801 133:-0.812127 134:-0.365994 135:-0.812308 136:-0.0298375 137:-0.811986 138:-0.148796 139:-0.123982 140:-0.121827 141:-0.624615 143:-0.593122 144:-0.0238923 145:-0.991956 146:-0.00803674 147:-0.803668 148:1.2652 149:-0.210955 150:-0.0430504 151:-0.452298 152:-0.949187 153:-0.492747 154:-0.716103 155:1.72555 156:-0.831105 157:-0.180742 158:1.34236 159:15.3966 160:15.3966 161:6.68889 162:1.41017 163:-0.127169 164:-1 165:-0.506815 166:0.860065 167:1.38243 168:-0.155113 169:-0.453972 170:-0.886822 171:0.183567 172:-0.95825 173:1.18311 174:-0.796746 175:-0.718371 176:0.535533 177:3.25616 178:-0.501703 179:-0.661113 180:0.479556 181:-0.57718 182:1.76507 183:0.0773136 184:8.57196 185:2.61378 186:0.368143 187:-0.404234 188:0.127486 189:-0.492719 190:-0.983911 191:-0.661113 192:-0.726986 193:0.264744 194:-0.0990443 195:-0.106352 196:-0.849083 197:3.09148 198:-0.992042 199:-0.214428 200:-0.454438 201:2.16254 202:0.157526 203:-0.982608 204:-0.610349 205:0.864213 206:-0.556607 207:-0.0420606 208:2.4064 209:-0.780995 210:-0.909345 211:-0.454498 212:0.127486 213:-0.561533 214:-0.643121 215:-0.802771 216:1.27954 217:1.85222 218:-0.906063 219:0.683115 220:-0.915327 221:-0.269345 222:-0.847511 223:-1 224:-0.68724 225:-0.779694 226:-0.814673 227:0.361891 228:0.490148 229:-0.530498 230:-0.452298 232:-1 233:0.936262 234:-0.864367 235:-0.997424 236:-0.994381 237:2.90743 238:-0.492664 239:1.04431 240:-0.830655 241:-0.361624 242:-0.745786 243:-0.251846 244:-0.755705 245:-0.655747 246:-0.890498 247:0.362776 248:-0.874751 249:0.290471 250:-0.647759 251:-0.459736 252:0.209483 253:0.916531 254:10.931 255:-0.779966 256:0.75533 257:-0.565889 258:-0.424631 259:-0.827873 260:-0.847057 261:2.2827 262:-0.887186 263:-0.590533 264:-0.610349 265:0.0627306 266:0.400191 267:-0.0442804 268:0.913899 269:-0.598056 270:-0.70764 271:-0.633578 272:-0.106352 273:-0.912507 274:0.636938 275:0.0707532 276:3.36278 277:0.637081 278:0.579695 279:5.38916 280:-0.548745 281:0.449686 282:-0.338074 283:-0.233875 284:-0.590594 285:-0.501703 286:-0.624615 287:12.6256 288:-1 289:-0.561991 290:3.09148 291:0.290471 292:-0.295518 293:-1 294:6.01845 295:0.190454 296:-0.0981415 297:-0.499367 298:0.0965111 299:-0.898276 300:-0.492664 301:0.502172 302:-0.0211718 303:4.53695 304:-0.943734 305:0.578089 306:-0.68724 307:-0.853997 309:-0.0981415 310:-0.255577 311:1.23276 312:-0.561579 313:0.508725 314:0.872969 315:-0.00697579 316:2.97701 317:0.450822 318:-0.408313 319:-0.961226 320:0.0408875 321:0.885189 322:-0.123157 323:-0.857624 324:-0.973632 325:-0.888679 326:-0.949138 327:-0.830655 328:1.56296 329:-0.712074 330:-0.966092 331:1.23251 332:1.19459 333:14.6466 334:0.275933 335:-0.915566 336:4.12593 337:-0.149086 338:-0.211753 339:0.566833 340:2.72414 341:-0.726149 342:-0.105943 343:0.183567 344:-0.906124 345:-0.635366 346:3.89053 347:0.984689 348:-0.132053 349:-0.984891 350:1.1512 351:0.858065 352:22.0519 353:0.945695 354:6.01845 355:0.180523 356:-1 357:0.37351 358:-0.361643 359:0.644767 360:-0.303647 362:-0.549144 363:1.73629 364:0.803717 365:0.747636 366:0.488315 367:2.83704 368:-0.624615 369:0.74766 370:-0.233875 371:-0.479122 372:-0.770877 373:-0.953636 374:2.72308 375:-1 376:-0.873187 377:0.773492 378:-0.323769 379:-0.906617 380:-0.718371 381:-0.127123 382:-0.233875 383:-0.436349 384:-0.915327 385:-0.267036 386:0.111958 387:-0.0429165 388:-0.0687797 389:-0.928424 390:-0.0424615 391:5.81281 392:-0.187793 393:2.83704 394:-0.994349 397:-0.123296 398:-0.689976 399:-0.745786 400:2.27367 401:0.424406 402:-0.28748 403:-0.234121 404:7.19828 405:-0.323769 406:5.37638 407:-0.928424 408:-1 409:-0.887205 410:-1 411:0.993711 412:17.4264 413:-0.835579 414:-0.945953 415:-0.915458 417:-0.123296 418:0.205705 419:-0.760121 420:-0.186606 421:-0.624615 422:-0.726149 423:-0.655747 424:-0.746373 425:-0.812127 426:0.110469 427:-0.179325 428:0.637033 429:-0.967823 430:1.48276 431:-0.126312 432:-0.718371 433:0.276805 434:-0.762468 435:-0.267036 436:0.727512 437:-0.643121 438:-0.453972 441:-0.02666 442:-0.655747 443:-1 444:-1 445:-0.547288 446:-0.847511 447:2.46414 448:-0.474112 449:-0.780973 450:-0.780995 451:0.637224 452:3.09032 453:-0.177813 454:-0.342986 455:0.0627306 457:-0.397147 458:0.755076 459:0.0910047 460:1.02973 461:0.488742 462:-0.635981 463:-0.436742 464:-0.885249 465:1.01418 466:-0.468635 467:-0.424631 468:2.33401 469:-0.37985 470:-0.0635155 471:7.96296 472:-0.787831 473:-1 474:-0.822745 475:-0.545502 476:-0.0453649 477:3.19409 478:-0.210955 479:-0.317546 480:-0.530498 481:-0.217738 482:-0.37985 483:1.72788 484:-0.374118 485:1.04736 486:1.98276 487:0.768182 488:-1 489:-0.781756 490:-0.148923 491:-0.826198 492:-0.179108 493:2.51269 494:-0.996888 495:-0.404674 496:-0.633578 497:-0.670998 498:0.934567 499:-0.209564 500:0.916531 501:-0.758765 502:2 503:0.363837 504:-0.875986 505:0.57689 506:-0.386193 507:-0.338074 508:-1 509:1.07321 510:0.901483 511:-0.728059 512:0.276753 513:0.488592 514:-0.93969 515:0.736011 516:-0.920683 517:-0.323769 518:-0.468235 519:0.368143 520:1.72884 521:-0.231667 522:-0.699786 523:1.9803 524:-0.95825 525:6.23645 526:-0.630243 527:1.29838 528:-0.884677 529:-0.260785 530:4.10837 531:-0.436583 532:0.0635506 533:-0.0071116 534:-0.780995 535:-0.624615 536:11.8 537:-0.671493 538:0.362776 539:0.17245 540:-0.931526 541:0.276308 542:-0.0715005 543:-0.0940529 544:-0.742769 545:-0.818706 546:0.150792 547:-0.818706 548:-0.973531 549:-0.90727 551:-0.911202 552:1.37131 553:-0.641061 554:-0.874751 555:4.46552 556:6.89848 557:7.2952 558:0.375 559:7.62995 560:-0.379978 561:0.704433 562:-0.372904 563:0.362776 564:3.47126 565:-0.678415 566:0.532496 567:0.929635 568:-0.610349 569:-0.687059 570:-0.909353 571:0.0829421 572:-1 573:0.290471 574:-0.939563 575:-0.630243 576:-0.561991 577:-0.863053 578:-0.407017 579:6.65314 580:2.50923 581:-0.900593 582:-0.983017 583:-0.172925 584:2.40887 585:-0.951751 586:0.0875274 587:-0.513628 588:-0.839301 589:-0.561099 590:1.17505 591:-0.644257 592:-0.256815 593:1.72378 594:0.527296 595:1.55302 596:-0.930083 597:5.4 598:-0.27031 599:-0.847511 600:0.545278 601:-0.386193 602:4.70445 603:-0.965293 604:-0.436349 605:-0.0910047 606:-0.990064 607:-0.131994 608:-0.530498 609:-0.847511 610:-0.90727 611:-0.436583 612:0.539832 613:0.129225 614:23.5685 615:-0.248869 616:12.4138 617:-0.753368 618:-0.984978 619:-0.379951 620:-0.184486 621:1.16987 622:-0.718371 623:-0.477677 624:-0.773644 625:0.315372 626:-0.267482 627:-1 628:-0.0430504 629:-0.974569 630:-0.906801 631:-0.740758 632:-1 633:-0.511628 634:0.332691 635:-0.0528376 636:-0.576441 637:-0.67079 638:-0.993655 639:-0.605542 640:-0.436583 641:-0.210955 642:-0.671263 643:-0.940338 644:-0.00813008 645:0.0644235 646:-0.694597 647:-0.990664 648:-0.154222 649:-0.0420606 650:-0.0288282 652:-0.678165 653:0.410805 654:-0.718105 655:-0.55808 656:-0.83097 657:-0.492664 658:3.96126 659:-0.274633 660:-0.655747 661:-0.779966 662:-0.993775 663:-0.904549 664:-0.605542 665:1.91772 666:-0.106749 667:-0.708996 668:0.539832 669:-0.155113 670:0.0538071 671:-1 672:0.218495 673:-0.106352 674:-0.0981415 675:-0.0298643 676:0.522008 677:-0.66242 678:-0.278099 679:-0.248869 680:-0.177813 681:-0.217738 682:-0.534316 683:-0.232842 684:-0.969091 685:-0.123296 686:-0.94434 687:-0.972737 688:1.77842 689:-0.746373 690:0.276753 691:-1 692:0.624161 693:0.631027 694:0.240555 695:-0.979732 696:0.405076 697:0.819043 698:-0.598066 699:0.490148 700:-0.635981 701:7.93966 702:-0.0178926 703:-0.956128 704:1.31579 705:-0.802771 706:-0.640181 707:-0.981116 708:-0.839301 709:6.65314 710:-0.982647 711:0.736011 712:-0.989986 713:2.27649 714:0.368143 715:-0.91965 716:0.276219 717:-0.290628 718:0.0748625 719:-0.996159 720:0.736011 721:0.240555 722:2.82657 723:2 724:-0.874872 725:-0.0981415 726:7.61255 727:-0.749502 728:-0.818906 729:-0.884221 730:-0.605478 731:0.260222 732:0.488263 733:-0.909453 734:-0.937376 735:-0.727155 736:-0.165578 737:-0.37985 738:1.6986 739:-0.718337 740:0.515459 741:-0.650877 742:-0.256815 743:-0.849083 744:1.98276 745:-0.415129 746:4.04569 747:0.183567 748:-0.991108 749:-0.918928 750:-0.0879044 751:0.994462 752:-0.593122 753:-0.767158 754:-0.436349 755:1.98276 756:-0.937376 757:0.736634 758:0.0724556 759:-0.742769 760:4.45856 761:-0.655747 762:-0.586612 763:-0.978548 764:-1 765:1.23276 766:-0.232964 767:-0.535109 768:-0.624615 769:-0.930452 770:0.190702 771:-0.762838 772:0.595326 773:-0.695022 774:-0.991053 775:-0.649234 776:0.547521 777:10.5259 778:-0.979856 779:-0.323769 780:0.0236814 781:-0.248869 782:0.0825832 783:-0.275347 784:-0.898275 785:-0.796648 786:-0.361859 787:-0.374118 788:-1 789:0.501184 790:-0.267036 791:-0.965227 792:-0.813603 793:-0.932321 794:-1 795:-0.873187 796:0.158974 797:-0.561579 798:-0.14106 799:-0.884221 800:-0.265879 801:0.624161 802:-0.624615 803:0.0098401 804:-0.361646 805:-0.812127 806:0.82384 807:-1 808:-0.561991 809:-0.975867 810:0.00342917 811:-0.547288 812:-0.260785 813:0.579695 814:-0.18441 815:-0.397147 816:0.116751 817:-0.609701 818:-0.947062 819:-0.0420606 820:-0.436349 821:0.277203 822:-0.546244 823:-0.263277 824:-0.601292 825:-0.126904 826:2.40887 827:-0.880721 828:4.26565 829:-0.779694 830:0.190586 831:-0.880721 832:-0.829913 833:-0.126324 834:-0.549144 835:-0.177813 836:-0.655747 837:-0.718371 838:0.859798 839:-1 840:3.38579 841:-0.00314465 842:-0.844988 843:-0.605542 844:-0.452298 845:-0.937376 846:0.170897 847:0.309917 848:-0.874751 849:-0.863756 
0.03125 0.01171875 0 0:-1 1:-1 2:-1 4:-1 5:-1 6:-1 7:-1 8:-1 9:-1 10:-1 11:-1 12:-1 13:-1 14:-1 15:-1 16:-1 17:-1 18:-1 19:-1 20:-1 21:-1 22:-1 23:-1 24:-1 25:-1 26:-1 27:-1 28:-1 29:-1 30:-1 31:-1 32:-1 34:-1 35:-1 36:-1 37:-1 38:-1 39:-1 40:-1 41:-1 42:-1 43:-1 44:-1 45:-1 46:-1 47:-1 48:0.915294 49:-1 50:-1 51:-1 52:-1 53:-1 54:-1 55:-1 56:-1 57:-1 58:-1 59:-1 60:-1 61:-1 62:-1 63:-1 64:-1 65:-1 66:-1 67:-1 68:-1 69:-1 70:-1 71:-1 72:-1 73:-1 74:-1 75:-1 76:-1 77:-1 78:-1 79:0.312171 80:-1 81:-1 82:-1 83:-1 84:-1 85:-1 86:-1 87:-1 88:-1 89:-1 90:-1 91:-1 92:-1 93:-1 94:-1 95:-1 96:-1 98:-0.507928 99:-1 100:-1 101:-1 102:-1 103:-1 104:-1 105:-1 106:-1 108:-1 109:-1 111:-1 112:-1 113:4.74588 114:-1 115:-1 116:-1 117:-1 118:-1 119:-1 120:-1 121:-1 122:-1 123:-1 124:-1 125:-1 126:-1 127:-1 128:-1 129:-1 130:-1 131:-1 132:-1 133:0.915294 134:-1 135:-1 136:-1 137:-1 138:-1 139:-1 140:-1 141:-1 143:-1 144:-1 145:-0.0158797 146:-1 147:-1 148:-1 149:-1 150:-1 151:-1 152:-0.222217 153:-1 154:-1 155:-1 156:-1 157:-1 158:-1 159:-1 160:728.793 161:-1 162:-1 163:-1 164:-1 165:2.35404 166:-1 167:-1 168:-1 169:-1 170:-1 171:2.45028 172:-1 173:-1 174:-1 175:-1 176:-1 177:-1 178:-1 179:-1 180:-1 181:-1 182:-1 183:-1 184:-1 185:-1 186:-1 187:-1 188:-1 189:-1 190:1.70633 191:-1 192:-1 193:-1 194:-1 195:-1 196:-1 197:-1 198:-1 199:-1 200:-1 201:-1 202:-1 203:-0.289393 204:-1 205:-1 206:-1 207:-1 208:-1 209:-1 210:-1 211:-1 212:-1 213:-1 214:-1 215:-1 216:-1 217:-1 218:-1 219:-1 220:-1 221:-1 222:-1 223:-1 224:-1 225:-1 226:-1 227:-1 228:-1 229:-1 230:-1 232:-1 233:26.3437 234:-1 235:0.260437 236:-1 237:-1 238:-1 239:-1 240:-1 241:77.0959 242:-1 243:-1 244:-1 245:-1 246:-1 247:15.6909 248:8.57647 249:-1 250:-1 251:-1 252:-1 253:-1 254:-1 255:3.96308 256:-1 257:-1 258:-1 259:-1 260:-1 261:-1 262:-1 263:-1 264:-1 265:-1 266:-1 267:-1 268:-1 269:-1 270:-1 271:-1 272:-1 273:-1 274:-1 275:-1 276:-1 277:-1 278:-1 279:-1 280:5.90055 281:-1 282:-1 283:-1 284:-1 285:-1 286:-1 287:-1 288:-1 289:-1 290:-1 291:-1 292:-1 293:-1 294:-1 295:-1 296:-1 297:-1 298:-1 299:-1 300:-1 301:-1 302:-1 303:-1 304:-0.507928 305:-1 306:-1 307:-1 309:-1 310:-1 311:-1 312:-1 313:-1 314:-1 315:-1 316:-1 317:-1 318:-1 319:-1 320:-1 321:-1 322:-1 323:-1 324:-1 325:-1 326:-1 327:-1 328:-1 329:-1 330:-1 331:-1 332:-1 333:-1 334:-1 335:-1 336:-1 337:-1 338:-1 339:-1 340:-1 341:-1 342:-1 343:-1 344:-1 345:-1 346:-1 347:-1 348:-1 349:-1 350:-1 351:-1 352:-1 353:-1 354:-1 355:-1 356:-1 357:-1 358:-1 359:-1 360:-1 362:-1 363:-1 364:-1 365:-1 366:-1 367:-1 368:-1 369:-1 370:-1 371:-1 372:-1 373:6.79887 374:-1 375:-1 376:-1 377:-1 378:-1 379:-1 380:-1 381:-1 382:-1 383:-1 384:-1 385:-1 386:-1 387:-1 388:-1 389:-1 390:-1 391:-1 392:-1 393:-1 394:-1 397:-1 398:-1 399:-1 400:-1 401:-1 402:-1 403:-1 404:-1 405:-1 406:-1 407:-1 408:-1 409:-1 410:1.95229 411:-1 412:-1 413:-1 414:-1 415:-1 417:-1 418:-1 419:-1 420:-1 421:-1 422:-1 423:-1 424:-1 425:-1 426:-1 427:-1 428:4.56654 429:-1 430:-1 431:-1 432:-1 433:-1 434:-1 435:-1 436:-1 437:-1 438:-1 441:-1 442:-1 443:-1 444:-1 445:1.77233 446:-1 447:-1 448:-1 449:-1 450:-1 451:15.6909 452:-1 453:-1 454:-1 455:-1 457:-1 458:-1 459:-1 460:-1 461:-1 462:-1 463:-1 464:-1 465:-1 466:-1 467:-1 468:-1 469:-1 470:-1 471:-1 472:-1 473:-1 474:-1 475:-1 476:-1 477:-1 478:-1 479:-1 480:-1 481:-1 482:-1 483:-1 484:-1 485:-1 486:-1 487:-1 488:-1 489:-1 490:-1 491:2.54506 492:-1 493:-1 494:-1 495:-1 496:-1 497:-1 498:-1 499:-1 500:-1 501:-1 502:-1 503:-1 504:-1 505:-1 506:-1 507:-1 508:-1 509:-1 510:-1 511:1.77233 512:-1 513:-1 514:-0.50794 515:-1 516:-1 517:-1 518:-1 519:-1 520:-1 521:-1 522:-1 523:-1 524:-1 525:-1 526:-1 527:-1 528:-1 529:-1 530:-1 531:-1 532:-1 533:-1 534:-1 535:-1 536:-1 537:-1 538:-1 539:-1 540:-1 541:-1 542:-1 543:1.77233 544:-1 545:-1 546:-1 547:-1 548:-1 549:-1 551:-0.527336 552:-1 553:-1 554:-1 555:-1 556:-1 557:-1 558:-1 559:-1 560:-1 561:-1 562:-1 563:-1 564:-1 565:-1 566:-1 567:-1 568:-1 569:-1 570:-1 571:-1 572:-1 573:-1 574:-1 575:-1 576:-1 577:-1 578:-1 579:-1 580:-1 581:-1 582:-1 583:-1 584:-1 585:-0.803173 586:-1 587:-1 588:-1 589:-1 590:-1 591:-1 592:44.5466 593:-1 594:-1 595:-1 596:-1 597:-1 598:-1 599:-1 600:-1 601:-1 602:-1 603:-1 604:-1 605:-1 606:-1 607:-1 608:-1 609:-1 610:2.54506 611:-1 612:-1 613:-1 614:-1 615:-1 616:-1 617:-1 618:-1 619:-1 620:-1 621:-1 622:-1 623:-1 624:-1 625:-1 626:-1 627:-1 628:-1 629:-1 630:-1 631:-1 632:-1 633:-1 634:-1 635:-1 636:-1 637:-1 638:-1 639:-1 640:-1 641:-1 642:0.677286 643:-1 644:-1 645:-1 646:-1 647:-1 648:-1 649:-1 650:-1 652:-1 653:-1 654:-1 655:-1 656:-1 657:-1 658:-1 659:-1 660:-1 661:-1 662:-1 663:-0.756613 664:-1 665:-1 666:-1 667:-1 668:-1 669:-1 670:-1 671:-1 672:-1 673:-1 674:-1 675:-1 676:-1 677:-1 678:-1 679:-1 680:-1 681:-1 682:-1 683:-1 684:-0.0546721 685:-1 686:-1 687:-1 688:-1 689:-1 690:-1 691:-1 692:-1 693:-1 694:-1 695:-1 696:-1 697:-1 698:-1 699:-1 700:-1 701:-1 702:-1 703:-1 704:-1 705:-1 706:-1 707:-1 708:-1 709:-1 710:-1 711:-1 712:-1 713:-1 714:-1 715:-1 716:-1 717:-1 718:-1 719:0.890656 720:-1 721:-1 722:-1 723:-1 724:-1 725:-1 726:-1 727:-1 728:-1 729:-1 730:-1 731:-1 732:-1 733:-1 734:-1 735:-1 736:-1 737:-1 738:-1 739:-1 740:-1 741:-1 742:-1 743:-1 744:-1 745:-1 746:-1 747:-1 748:-1 749:0.418023 750:-1 751:-1 752:-1 753:-1 754:-1 755:1367.36 756:-1 757:-1 758:-1 759:-1 760:-1 761:-1 762:-1 763:-1 764:-1 765:-1 766:-1 767:-1 768:-1 769:-1 770:-1 771:-1 772:-1 773:-1 774:-1 775:-1 776:-1 777:-1 778:2.08046 779:-1 780:-1 781:-1 782:-1 783:-1 784:-1 785:-1 786:-1 787:-1 788:-1 789:15.704 790:-1 791:0.417976 792:-1 793:-1 794:-1 795:-1 796:-1 797:-1 798:-1 799:-1 800:-1 801:-1 802:-1 803:-1 804:-1 805:-1 806:-1 807:-1 808:-1 809:-0.26191 810:-1 811:-1 812:-1 813:-1 814:-1 815:-1 816:-1 817:-1 818:-1 819:-1 820:-1 821:-1 822:-1 823:-1 824:-1 825:-1 826:-1 827:-1 828:-1 829:-1 830:-1 831:-1 832:0.387712 833:-1 834:-1 835:-1 836:-1 837:-1 838:-1 839:-1 840:-1 841:-1 842:-1 843:-1 844:-1 845:-1 846:-1 847:-1 848:-1 849:-1 
0.03125 0.01171875 0 0:-1 1:-0.907692 2:-0.600783 4:-0.46789 5:-1 6:-0.612651 7:-0.892217 8:-0.95835 9:-0.91687 10:-0.889142 11:-0.933929 12:-0.936353 13:-1 14:0.0345178 15:-0.695518 16:-0.511494 17:-0.623338 18:-0.968381 19:-1 20:8.6128 21:-0.892235 22:-0.98422 23:-0.97229 24:-0.845945 25:2.76384 26:-0.94458 27:-0.137979 28:-0.95002 29:-0.933359 30:-0.954439 31:-1 32:1.67823 34:-0.817008 35:28.6995 36:-1 37:-0.784264 38:-1 39:-1 40:-0.815385 41:-0.98419 42:-1 43:-0.820675 44:-0.815385 45:-1 46:-1 47:63.4138 48:-0.784977 49:-0.994787 50:-0.91687 51:3.0172 52:217.155 53:-0.99711 54:-1 55:3.55422 56:1.82215 57:1.11292 58:1.19376 59:-0.930256 60:-0.977731 61:-0.944571 62:-0.569593 63:-1 64:-0.722856 65:-1 66:-0.640592 67:-0.918699 68:-1 69:-0.827761 70:-0.820675 71:2.29171 72:-0.907002 73:-0.390936 74:-0.876923 75:-1 76:-0.946117 77:-0.560724 78:-0.944571 79:-0.99473 80:-1 81:-1 82:-1 83:39.5764 84:-0.790769 85:-0.860484 86:-0.758591 87:-1 88:-1 89:0.722935 90:-1 91:-1 92:-1 93:5.93763 94:-1 95:0.312549 96:-1 98:-1 99:-0.919163 100:-0.0846276 101:-0.98946 102:-1 103:-0.828802 104:-0.95141 105:-0.96583 106:-1 108:-0.992307 109:-0.899557 111:2.98696 112:-1 113:-0.938462 114:1.68006 115:-0.554671 116:-0.778454 117:-1 118:-1 119:-0.96668 120:-0.986527 121:-0.910917 122:-0.722856 123:-0.722856 124:-0.557222 125:-1 126:-0.97229 127:-0.889142 128:-1 129:1.08856 130:7.27778 131:94.8893 132:-0.908467 133:-0.631131 134:-0.688761 135:-0.953846 136:-0.949778 137:-0.322861 138:-0.582057 139:-0.969231 140:15.165 141:-1 143:-0.6619 144:-1 145:-1 146:-0.512055 147:-0.836856 148:-1 149:-0.557222 150:-0.372694 151:-0.892235 152:-0.99167 153:-0.91687 154:-1 155:13.735 156:-0.778285 157:-1 158:-0.79064 159:110.276 160:18.0345 161:46.8074 162:3.04102 163:-0.892711 164:-1 165:-1 166:0.278794 167:-0.853575 168:-0.969231 169:-1 170:-0.822112 171:-0.833714 172:-1 173:1.41358 174:-0.0513524 175:-1 176:0.294416 177:8.20197 178:-1 179:-0.95002 180:-0.838352 181:-0.0588427 182:-0.163592 183:-1 184:27.8266 185:0.254613 186:-1 187:-0.874446 188:-0.944571 189:-1 190:-1 191:-0.96668 192:-0.687533 193:-0.049505 194:-0.778454 195:-0.958149 196:-0.910917 197:22.5741 198:-1 199:-0.855155 200:-0.430375 201:-0.634015 202:-0.945791 203:-1 204:-0.567229 205:-0.892132 206:-0.932939 207:-0.722856 208:27.2365 209:-1 210:-0.896245 211:-0.821147 212:-0.778285 213:-0.956864 214:-0.926103 215:-0.97229 216:-0.194093 217:-1 218:-1 219:0.0829137 220:-0.95002 221:0.507822 222:-0.617209 223:-1 224:-0.969231 225:0.914151 226:-0.98861 227:-0.748892 228:0.256158 229:-0.754208 230:-0.0846276 232:-1 233:1.19466 234:0.614465 235:-1 236:-1 237:2.47255 238:-0.833714 239:3.76514 240:-1 241:-0.686347 242:-0.900039 243:-0.87013 244:-0.852423 245:-0.754208 246:-0.969231 247:3.01893 248:-0.969231 249:0.365098 250:-0.986145 251:-0.951711 252:-1 253:-0.335507 254:133.69 255:-0.977219 256:-0.654822 257:-0.98419 258:-0.946109 259:-1 260:-0.928838 261:4.55274 262:-0.944571 263:-1 264:-0.850255 265:-0.581796 266:-0.919009 267:-1 268:1.61132 269:-0.80262 270:-1 271:-0.889161 272:-1 273:-0.98827 274:-1 275:-0.667427 276:0.608833 277:-0.597633 278:2.6203 279:1.0936 280:-0.778285 281:7.10063 282:-0.907002 283:-0.66519 284:-0.799019 285:22.1375 286:-1 287:2.34483 288:-1 289:-0.477285 290:0.608833 291:-1 292:-0.91687 293:-1 294:20.9336 295:-1 296:-0.722856 297:0.0142986 298:-0.614862 299:-1 300:-0.335507 301:-0.852302 302:-1 303:24.0985 304:-0.913136 305:-1 306:-1 307:-0.979487 309:-1 310:-0.933464 311:29.75 312:-0.892217 313:-1 314:-0.497784 315:-1 316:3.3908 317:-0.828802 318:-0.97229 319:-0.923354 320:-1 321:-0.902411 322:-0.865272 323:-0.987274 324:-1 325:-0.960946 326:-0.97501 327:-0.95002 328:6.55556 329:-0.633869 330:-0.98334 331:-0.0850377 332:-0.856176 333:19.5 334:-0.581796 335:-0.94458 336:21.6519 337:-0.940225 338:-0.483283 339:-0.845945 340:27.5517 341:-0.946117 342:1.04823 343:-0.612651 344:-1 345:-0.713442 346:1.08856 347:0.62488 348:-0.899557 349:-0.992577 350:-0.837321 351:3.0172 352:268.23 353:-0.213245 354:-0.0590406 355:-1 356:-0.989359 357:-0.774834 358:-0.725825 359:-0.691889 360:-1 362:-0.97229 363:5.62869 364:-0.944571 365:-0.667427 366:-1 367:7.8 368:-0.938462 369:-0.936353 370:-0.66519 371:-0.415411 372:-0.967809 373:-0.98861 374:0.0449231 375:-1 376:-0.97229 377:-0.930242 378:-0.113792 379:-0.99388 380:-0.0164706 381:-1 382:-0.748892 383:-0.97229 384:-0.916699 385:-0.833714 386:-0.757027 387:-1 388:7.2897 389:-0.960946 390:3.70277 391:65.5123 392:0.0625978 393:92.0963 394:-0.977819 397:-0.946117 398:-0.640098 399:-0.184437 400:7.47849 401:-0.946117 402:-0.784469 403:-1 404:18.0345 405:-0.722856 406:24.6974 407:-0.98436 408:-1 409:-0.889324 410:-0.98419 411:-0.910901 412:9.34518 413:-0.937233 414:-1 415:-0.907742 417:-1 418:-0.0846276 419:-0.938462 420:-0.876923 421:-0.0776471 422:-0.623455 423:-0.938462 424:-0.723227 425:-1 426:-1 427:-0.731013 428:-0.910573 429:-1 430:-1 431:-0.933929 432:-0.907692 433:-0.953501 434:-0.928149 435:-0.833714 436:2.84114 437:-0.833949 438:-0.375066 441:-0.97185 442:-0.938462 443:-1 444:-1 445:2.47079 446:-0.850255 447:0.970464 448:-1 449:-1 450:-0.907692 451:2.21451 452:-1 453:-1 454:-0.6619 455:-0.163592 457:-1 458:-1 459:10.1678 460:-0.86698 461:-1 462:-0.642294 463:-0.907692 464:-0.979487 465:0.806484 466:-0.790898 467:-0.757806 468:-1 469:-0.778285 470:0.0871492 471:178.896 472:-1 473:-1 474:-0.979487 475:0.429774 476:-0.798817 477:-0.462025 478:-0.169221 479:-0.878005 480:-0.969231 481:-0.907692 482:-0.778285 483:-0.918699 484:-0.938462 485:-0.463299 486:208.362 487:-0.903409 488:-1 489:-0.688124 490:-0.634462 491:-1 492:-0.910314 493:99.8629 494:-0.996264 495:-0.790898 496:-0.446455 497:-0.838352 498:-1 499:-1 500:-0.778285 501:-1 502:0.340694 503:-1 504:-0.84495 505:-0.630756 506:-0.196055 507:-0.767505 508:-1 509:-0.839066 510:-1 511:-0.82185 512:-1 513:-0.853638 514:-1 515:2.28981 516:-0.781695 517:-0.557222 518:-0.969231 519:0.523207 520:-1 521:-0.905556 522:-0.931891 523:9.87685 524:-1 525:-0.581281 526:-0.98419 527:0.254062 528:-0.914071 529:-0.966965 530:7.78325 531:-0.335507 532:-0.373514 533:-0.767505 534:-0.754208 535:-0.600362 536:251.874 537:-1 538:36.5047 539:-0.955648 540:-1 541:-0.895385 542:-0.657603 543:-0.910925 544:-0.652562 545:-1 546:-0.960982 547:-0.888656 548:-1 549:-0.965829 551:-1 552:8.67511 553:-0.843137 554:-1 555:1.93103 556:123.142 557:17.8044 558:-0.131818 559:-0.707401 560:-1 561:-0.371921 562:-0.922972 563:5.16088 564:28.7701 565:-0.87371 566:-0.874446 567:-1 568:-0.850255 569:-1 570:-0.910925 571:-0.86698 572:-1 573:-0.707233 574:-1 575:-0.905143 576:-0.984615 577:-0.946109 578:-0.820628 579:14.0406 580:2.44649 581:-0.98827 582:-0.94433 583:-0.91868 584:13.2217 585:-1 586:-0.953501 587:-0.910322 588:-0.826281 589:-0.856237 590:-0.0209644 591:-0.98334 592:-1 593:0.338257 594:-0.839066 595:1.62148 596:-1 597:153.741 598:-0.964127 599:-0.617209 600:-1 601:0.406706 602:0.219512 603:-1 604:-0.91687 605:-0.821147 606:-0.994135 607:-0.756098 608:-0.969231 609:-0.95002 610:-1 611:-0.778285 612:0.33543 613:-0.903437 614:22.2792 615:-0.876923 616:60.5 617:-0.973054 618:-0.985153 619:-0.750937 620:-0.910901 621:-1 622:-0.600362 623:-0.771735 624:-0.955462 625:-0.730586 626:-0.889161 627:-1 628:-0.581796 629:-0.962564 630:-0.592219 631:-0.878203 632:-1 633:-0.907629 634:-1 635:-0.667319 636:-0.900039 637:-1 638:-0.99167 639:-0.97229 640:-0.557222 641:-0.722856 642:-0.973054 643:-0.99218 644:-0.837398 645:-1 646:-0.952571 647:-0.99864 648:-0.667427 649:-0.944571 650:-0.872707 652:-1 653:-1 654:-0.704629 655:-1 656:-0.94458 657:-0.557222 658:4.60402 659:-0.554507 660:-1 661:-0.886231 662:-0.999529 663:-0.99609 664:-0.91687 665:0.432489 666:-0.88292 667:-0.97399 668:-0.821803 669:-0.754208 670:-1 671:-1 672:1.29828 673:-0.916297 674:-0.833714 675:-0.631131 676:-0.889142 677:-0.968381 678:-1 679:-0.631131 680:-0.892235 681:-1 682:0.18434 683:-0.892217 684:-0.969671 685:-1 686:-0.972676 687:-1 688:-0.122847 689:-0.612388 690:-0.372694 691:-0.979487 692:-0.202685 693:-0.643606 694:-0.512195 695:-1 696:1.06904 697:1.76907 698:-0.747233 699:1.09113 700:0.786428 701:22.4224 702:-0.758591 703:-0.886959 704:-0.186603 705:-0.833741 706:-0.953846 707:-0.981422 708:-0.920952 709:-0.372694 710:-1 711:-0.918699 712:-1 713:-0.414298 714:-0.731013 715:-1 716:-1 717:-0.839066 718:-0.91868 719:-1 720:-0.756098 721:-0.512195 722:1.50554 723:-0.731861 724:-0.0573756 725:-0.612651 726:6.83395 727:-0.6619 728:-0.804234 729:-1 730:-0.446365 731:-1 732:-0.0704225 733:-1 734:-0.989744 735:-0.951227 736:-0.951718 737:-0.390936 738:-0.817008 739:-0.91687 740:-0.0595293 741:-0.984394 742:-1 743:-0.940611 744:74.1552 745:-0.895449 746:1.15482 747:-0.889142 748:-0.999126 749:-0.965829 750:-0.940225 751:3.70235 752:-1 753:-1 754:-0.97229 755:2.66379 756:-1 757:-1 758:-0.856217 759:-0.920952 760:0.742699 761:-0.754208 762:-0.889155 763:-0.98946 764:-1 765:6.31897 766:-1 767:-0.954264 768:-0.907692 769:-0.943049 770:-0.926819 771:-0.96668 772:-0.686347 773:-1 774:-1 775:-0.846709 776:-1 777:34.2296 778:-1 779:0.328986 780:-0.817008 781:-0.846154 782:-0.401957 783:1.18025 784:-1 785:-0.98334 786:-0.963076 787:-1 788:-0.991209 789:0.0718232 790:-0.501793 791:-0.994305 792:-0.167777 793:-0.92254 794:-0.371936 795:-0.903178 796:-0.865878 797:-0.946109 798:-0.943709 799:-0.98861 800:-0.968612 801:-0.202685 802:-0.784977 803:-0.947724 804:-0.955157 805:0.106606 806:-0.551688 807:-0.940615 808:-0.969231 809:-1 810:-0.686626 811:-0.866387 812:-0.801788 813:-0.913706 814:-0.965128 815:-0.946117 816:-0.843101 817:-0.712352 818:-1 819:-0.778285 820:-0.640098 821:-0.415066 822:-0.861719 823:-1 824:10.1287 825:6.75635 826:17.4039 827:-1 828:7.62267 829:-0.850255 830:0.365098 831:-0.898431 832:-1 833:-0.833741 834:-0.723227 835:-0.892235 836:-1 837:-1 838:-0.889142 839:-1 840:27.4467 841:2.6499 842:-0.861614 843:-0.97229 844:-0.946117 845:-1 846:-1 847:-0.64876 848:-1 849:-1 
0.03125 0.01171875 0 0:-1 1:-0.777738 2:-0.759687 4:0.5113 5:-1 6:-0.399413 7:-0.416072 8:-1 9:-0.599674 10:-0.199217 11:1.14769 12:-0.0804942 13:-1 14:3.67513 15:-0.29943 16:4.2931 17:3.53471 18:-0.828699 19:1.20215 20:5.54799 21:-0.416165 22:-1 23:-1 24:0.112823 25:8.06273 26:-0.799837 27:-0.433318 28:-0.939828 29:-0.578793 30:-0.876583 31:2.70198 32:-1 34:0.101543 35:-1 36:-0.688404 37:1.33756 38:-1 39:-1 40:-0.11095 41:-0.543197 42:-1 43:0.295359 44:-0.666606 45:-0.888869 46:0.556894 47:-1 48:-0.555475 49:-0.995293 50:-0.899919 51:0.32043 52:20.1724 53:-1 54:-0.395372 55:-0.0454722 56:2.02277 57:-1 58:1.6437 59:-0.496205 60:-1 61:-0.599609 62:-0.666606 63:2.52584 64:0.201174 65:-1 66:-0.740381 67:-0.706361 68:-1 69:0.244174 70:-0.568214 71:-0.339074 72:-0.160284 73:0.000978155 74:-1 75:0.972464 76:2.69826 77:4.8174 78:-0.799804 79:-0.980966 80:-0.876583 81:-0.805357 82:-1 83:2.02463 84:3.912 85:0.763644 86:0.395058 87:1.16282 88:-1 89:-0.610715 90:-1 91:-1 92:-1 93:4.28172 94:0.258713 95:-1 96:-0.699756 98:-1 99:-0.708036 100:0.16767 101:-0.980966 102:-0.799837 103:0.854985 104:-1 105:-0.979431 106:-0.676075 108:-0.916648 109:-0.274446 111:-0.199217 112:-0.199217 113:-1 114:0.321377 115:-1 116:-0.199826 117:-0.784675 118:-0.416165 119:-0.939828 120:-0.951339 121:-0.785502 122:-0.799804 123:-0.199217 124:-0.399413 125:-1 126:-0.899919 127:-0.599609 128:0.409874 129:1.26568 130:0.609015 131:3.53137 132:-0.939828 133:-0.777738 134:-1 135:-0.777738 136:-0.637223 137:-1 138:0.175602 139:-0.222081 140:0.558376 141:-0.11095 143:1.00072 144:0.466985 145:-1 146:-0.647532 147:-0.946376 148:2.21803 149:-0.399413 150:-0.244772 151:-0.805388 152:-1 153:-0.699756 154:-0.370256 155:14.4953 156:-0.399413 157:-1 158:-1 159:20.1724 160:4.2931 161:3.54815 162:2.52584 163:-0.0312401 164:-1 165:-1 166:0.321851 167:1.11542 168:-0.555475 169:-1 170:-0.758711 171:0.000978155 172:-1 173:4.81531 174:-0.75931 175:-0.777738 176:2.89594 177:3.53695 178:-1 179:-0.879655 180:-0.610777 181:-0.29943 182:1.26568 183:-0.149781 184:8.06273 185:4.28659 186:-0.352321 187:0.209257 188:0.000978155 189:-0.666377 190:-0.971449 191:-0.819483 192:-0.838506 193:0.0572536 194:0.0668983 195:-0.0930576 196:-0.892751 197:2.87382 198:-1 199:0.0462937 200:-1 201:2.96555 202:0.370536 203:-0.979384 204:-0.819483 205:0.168782 206:-0.515582 207:-0.199217 208:1.26847 209:-0.555475 210:-1 211:-0.515518 212:0.201174 213:-0.844202 214:-0.733101 215:-0.899919 216:2.2384 217:-1 218:-0.777738 219:0.854985 220:-0.879655 221:1.33658 222:-0.879655 223:-1 224:-0.11095 225:-0.75931 226:-0.958861 227:2.02314 228:0.512315 229:-0.777738 230:-0.0269414 232:-0.985264 233:1.11542 234:-0.51862 235:-1 236:-1 237:2.30463 238:-0.199217 239:5.3486 240:-0.939828 241:-1 242:-0.699138 243:-0.0618793 244:-0.933275 245:-0.666606 246:-0.722172 247:-1 248:-1 249:1.11481 250:-0.799837 251:0.0464423 252:1.86358 253:0.201174 254:14.8793 255:-1 256:-0.37665 257:-0.885799 258:-0.902679 259:-1 260:-0.828428 261:4.18143 262:0.201174 263:-0.273373 264:-0.51862 265:1.6433 266:-0.268699 267:-1 268:1.6433 269:-0.74049 270:-0.913448 271:-0.599674 272:0.360414 273:-0.943512 274:0.938437 275:-0.199217 276:15.4669 277:-0.515582 278:2.7401 279:3.53695 280:-0.799804 281:1.89623 282:-0.496171 283:-0.0930576 284:-0.688378 285:-0.356563 286:-0.777738 287:8.07389 288:-1 289:-0.666606 290:5.77918 291:-0.295063 292:0.200978 293:-0.892337 294:8.06273 295:-0.154658 296:-0.399413 297:-0.888869 298:-0.443589 299:-0.944432 300:-0.799804 301:-0.199826 302:-0.395372 303:3.53695 304:-1 305:-0.599609 306:-0.444344 307:-0.777738 309:-0.599609 310:-0.279061 311:9.58621 312:-0.416072 313:1.47248 314:0.209257 315:-0.496102 316:13.1149 317:1.06109 318:-0.699756 319:-1 320:-0.805388 321:0.762342 322:0.362498 323:-1 324:-1 325:-1 326:-0.939828 327:-0.819483 328:-1 329:-0.578793 330:-1 331:4.94833 332:-1 333:1.64655 334:3.02788 335:-0.699756 336:3.54815 337:-0.352321 338:0.866261 339:-0.721794 340:9.58621 341:-0.805388 342:0.586563 343:-0.599609 344:-0.888869 345:-0.61131 346:2.77614 347:2.52536 348:0.269719 349:-1 350:1.9378 351:1.64086 352:17.1926 353:-1 354:8.06273 355:-0.270784 356:-1 357:0.219868 358:-0.433187 359:1.78206 360:-0.862609 362:-0.799837 363:3.53376 364:-0.199217 365:-0.199217 366:1.26568 367:35.3852 368:-0.777738 369:-0.310371 370:1.1162 371:0.58588 372:-0.883734 373:-1 374:3.912 375:-1 376:-0.699756 377:0.763644 378:-0.399413 379:-0.889481 380:-0.777738 381:-1 382:-0.395372 383:-0.799837 384:-0.939828 385:0.401369 386:-0.85374 387:0.700046 388:-0.221553 389:-0.957634 390:3.15631 391:8.07389 392:-0.519562 393:30.837 394:-1 397:1.14073 398:-0.699756 399:-0.819483 400:5.34079 401:0.946117 402:0.16767 403:0.360414 404:1.64655 405:-0.199217 406:10.3284 407:-1 408:-1 409:-1 410:-0.9429 411:-0.678197 412:23.934 413:-0.643155 414:-1 415:-0.833198 417:-0.0269414 418:0.16767 419:-0.851825 420:-0.888869 421:-0.888869 422:0.16767 423:-0.666606 424:-1 425:-0.666606 426:-0.0141297 427:0.295359 428:-0.354024 429:-0.828699 430:2.52874 431:-0.522736 432:0.333575 433:-0.160284 434:-0.545858 435:-0.599609 436:-0.0310363 437:-0.799826 438:0.291952 441:-0.491638 442:0.111312 443:-1 444:-1 445:-0.839141 446:-0.819483 447:0.943038 448:-0.37665 449:-0.740381 450:-0.222081 451:1.90536 452:16.1656 453:0.16767 454:0.444706 455:0.510455 457:-0.805388 458:1.33756 459:-0.677012 460:1.88263 461:1.43974 462:0.937927 463:-0.444344 464:-0.740694 465:-0.688956 466:0.132841 467:-0.708036 468:4.61015 469:-0.599609 470:1.57016 471:21.7407 472:-1 473:-1 474:-0.851825 475:0.61494 476:-1 477:6.12447 478:-1 479:-0.118766 480:-0.444344 481:-0.888869 482:0.201174 483:-0.412721 484:-0.777738 485:-0.0307814 486:9.58621 487:1.44205 488:-1 489:-1 490:-0.0553846 491:-1 492:-1 493:11.467 494:-0.997544 495:-0.848954 496:-0.29943 497:-0.221553 498:1.64313 499:-0.352321 500:1.00196 501:-0.714498 502:3.84227 503:1.51878 504:-1 505:-0.199826 506:-0.515582 507:1.85558 508:-1 509:-0.806248 510:1.34912 511:-0.839141 512:5.79705 513:-0.735687 514:-1 515:0.321377 516:-0.943634 517:-0.199217 518:-0.666606 519:-0.67616 520:-0.119082 521:0.193889 522:-0.918002 523:1.26847 524:-0.962956 525:20.1724 526:-0.428997 527:0.360414 528:-0.872901 529:-0.522736 530:3.53695 531:-0.599609 532:-0.244772 533:0.343545 534:-0.444344 535:-0.777738 536:3.54815 537:-0.666606 538:6.74763 539:0.121315 540:-0.951339 541:1.64492 542:0.0305472 543:-0.195703 544:-0.714498 545:-0.839141 546:-0.859077 547:-0.91957 548:-1 549:-0.917722 551:-0.986287 552:0.943038 553:-0.575087 554:-0.777738 555:9.58621 556:17.7005 557:1.26568 558:0.395455 559:2.1704 560:-0.118766 561:1.26847 562:-1 563:0.936909 564:7.82184 565:-0.771599 566:-0.546529 567:-0.169147 568:-0.819483 569:-0.388778 570:-0.839141 571:1.40219 572:-1 573:-0.295063 574:-1 575:-0.9429 576:-0.888869 577:-0.610715 578:-0.514112 579:12.5941 580:2.39852 581:-0.971756 582:-0.97987 583:-0.265726 584:8.07389 585:-0.98858 586:0.00765864 587:-0.568138 588:-0.9429 589:-0.221142 590:1.25262 591:0.203646 592:-1 593:1.1162 594:0.93752 595:1.0604 596:-1 597:8.0963 598:-0.352184 599:-0.879655 600:0.909056 601:-1 602:8.6901 603:-1 604:-0.399511 605:-0.0310363 606:-1 607:0.321377 608:-0.444344 609:-0.879655 610:-1 611:-0.399413 612:-0.0345912 613:-0.302471 614:27.0508 615:-0.666606 616:25.4655 617:-0.805357 618:-0.946376 619:-0.899919 620:1.57442 621:1.26736 622:-0.777738 623:-0.175562 624:-0.517422 625:-0.805388 626:-0.899919 627:-1 628:-0.244772 629:-0.984957 630:-0.969914 631:-0.959966 632:-1 633:-0.799826 634:-0.0141297 635:-0.279061 636:-0.578793 637:-0.805265 638:-0.992479 639:-0.499593 640:0.000978155 641:-0.199217 642:-0.513394 643:-0.872901 644:0.174558 645:0.763644 646:-0.828699 647:-0.99386 648:-0.199217 649:0.000978155 650:-0.770124 652:-0.638965 653:1.38632 654:-0.599652 655:-0.302471 656:-0.899919 657:-0.599609 658:1.64275 659:0.287212 660:-0.444344 661:-0.876583 662:-0.984697 663:-1 664:-0.699756 665:6.77215 666:-0.577135 667:-1 668:0.287212 669:0.111312 670:3.9868 671:-0.944434 672:0.73104 673:-0.697686 674:0.000978155 675:1.00072 676:0.201174 677:-1 678:-0.211304 679:-0.666606 680:-0.0269414 681:-0.11095 682:-0.902679 683:-0.805357 684:-0.958862 685:-0.610777 686:-0.915267 687:-0.902679 688:0.0574053 689:-0.29943 690:5.79705 691:-0.888869 692:1.0604 693:2.21803 694:-0.119082 695:-1 696:0.246701 697:1.90689 698:-0.771599 699:2.02463 700:-0.677012 701:14.8793 702:-0.651235 703:-0.824827 704:-0.41244 705:-0.599674 706:-0.777738 707:-1 708:-1 709:8.06273 710:-1 711:0.761836 712:-0.964252 713:1.11542 714:-0.028481 715:-1 716:3.53471 717:-0.806248 718:-0.118871 719:-1 720:-0.559541 721:0.761836 722:10.3284 723:6.74763 724:-0.70365 725:-0.399413 726:11.4613 727:-1 728:-0.935653 729:-0.876583 730:-0.399413 731:-0.805388 732:1.40219 733:-1 734:-0.70365 735:-0.911921 736:-0.128089 737:-0.199217 738:2.96555 739:-0.799837 740:0.133364 741:-1 742:-1 743:-0.678253 744:-1 745:-0.622386 746:4.45431 747:-0.599609 748:-0.977896 749:-0.958861 750:-1 751:0.416705 752:-0.777738 753:-1 754:-0.499593 755:-1 756:-0.888869 757:0.101543 758:-1 759:-0.657398 760:1.90766 761:-0.11095 762:-0.799826 763:-0.980966 764:-1 765:4.2931 766:-1 767:-0.669626 768:-1 769:-0.958861 770:1.64313 771:-0.819483 772:0.888069 773:-0.699138 774:-0.936495 775:-0.307935 776:0.902893 777:26.2889 778:-1 779:-0.399413 780:0.652314 781:-0.777738 782:-0.279061 783:0.286875 784:-1 785:-0.939828 786:-0.733275 787:-0.333213 788:-0.952371 789:0.938437 790:0.000978155 791:-1 792:-0.819483 793:-0.759797 794:-0.870245 795:-0.749796 796:-0.273373 797:-0.22143 798:-0.186755 799:-1 800:-0.433161 801:1.0604 802:-0.11095 803:-0.0559656 804:-0.190187 805:0.000180995 806:-0.028481 807:-0.928505 808:-0.333213 809:-1 810:-0.0282247 811:-0.356563 812:0.19316 813:-0.0649746 814:-0.244308 815:0.362282 816:0.416705 817:0.731528 818:-1 819:0.201174 820:-0.699756 821:-0.0930576 822:-0.277647 823:0.0462937 824:-0.433318 825:-1 826:3.53695 827:-1 828:10.4281 829:-0.458448 830:-0.295063 831:-0.887023 832:-1 833:0.200978 834:-0.699756 835:-0.221553 836:-0.777738 837:-0.777738 838:-0.599609 839:-1 840:5.2335 841:1.25262 842:-0.749796 843:-0.29943 844:0.362282 845:-0.777738 846:-1 847:-0.577135 848:-0.944434 849:-1 
0.03125 0.01171875 0 0:-1 1:-0.723439 2:-0.401957 4:0.0257328 5:-1 6:-1 7:-1 8:-1 9:-0.750937 10:-0.00358657 11:0.187719 12:-1 13:-1 14:2.10254 15:-0.750937 16:3.3908 17:5.77105 18:-0.5737 19:2.48745 20:5.26743 21:-0.515689 22:-0.29082 23:-1 24:-0.307657 25:-1 26:-1 27:1.11537 28:-0.70051 29:-0.70051 30:0.228409 31:1.63221 32:80.9369 34:-1 35:2.76355 36:-1 37:16.4492 38:-1 39:-1 40:-0.723439 41:-0.7158 42:-1 43:3.83544 44:-1 45:-0.907813 46:-0.0313788 47:38.5172 48:-0.170317 49:-1 50:-1 51:5.57204 52:130.707 53:-0.844145 54:-0.247661 55:-1 56:-0.0596923 57:-1 58:-1 59:-0.686564 60:-0.799843 61:-1 62:-0.170317 63:-1 64:0.49462 65:-1 66:-1 67:-0.269249 68:-1 69:-1 70:-0.462729 71:2.28956 72:-0.582057 73:-1 74:-0.446878 75:-1 76:0.452932 77:0.316107 78:-1 79:-1 80:-0.795243 81:-1 82:-1 83:-1 84:0.880615 85:-0.373 86:-1 87:-1 88:-1 89:0.453162 90:-1 91:11.8595 92:-1 93:-1 94:-1 95:-0.399528 96:-1 98:-1 99:-1 100:-1 101:-1 102:-1 103:-0.487076 104:-1 105:-1 106:-1 108:-0.58514 109:-1 111:-0.501793 112:-1 113:-0.723439 114:-1 115:-0.964856 116:-1 117:-0.732071 118:-0.0313788 119:-1 120:0.0897131 121:-0.7331 122:-1 123:-0.501793 124:-1 125:-0.981045 126:-1 127:-0.501793 128:1.63146 129:6.51784 130:3.80503 131:15.9151 132:-1 133:-1 134:-1 135:-0.861719 136:-0.548597 137:-0.81537 138:-1 139:-0.723439 140:6.75635 141:-0.446878 143:-0.170317 144:-0.668115 145:-1 146:-1 147:-0.7331 148:-1 149:-1 150:-1 151:-1 152:-1 153:-1 154:-1 155:1.41009 156:0.49462 157:0.205998 158:0.881773 159:25.3448 160:38.5172 161:89.5481 162:14.0402 163:-1 164:-1 165:0.452932 166:3.93434 167:-1 168:1.21249 169:7.03682 170:-1 171:-1 172:-1 173:3.82399 174:-0.850255 175:-1 176:-1 177:10.2906 178:-1 179:-1 180:-0.515689 181:-1 182:0.879459 183:-0.647357 184:4.63838 185:4.63838 186:-1 187:-0.247661 188:-0.501793 189:-0.501847 190:-1 191:-1 192:1.41136 193:-1 194:-1 195:-0.623831 196:-0.199301 197:6.23028 198:-0.683748 199:-1 200:0.205523 201:-1 202:-0.512755 203:-1 204:-0.850255 205:0.939086 206:-0.698619 207:-1 208:0.881773 209:-1 210:-1 211:-1 212:-0.00358657 213:-0.224562 214:-1 215:-1 216:-1 217:4.48063 218:-0.170317 219:1.0517 220:-1 221:0.292178 222:-1 223:-1 224:-0.446878 225:-1 226:-0.897621 227:-1 228:-1 229:-0.723439 230:-0.515689 232:-1 233:2.94832 234:-0.850255 235:-0.97725 236:-0.850255 237:2.28956 238:-1 239:3.51403 240:-1 241:1.81919 242:-1 243:-1 244:-1 245:-0.723439 246:-0.446878 247:-1 248:-0.723439 249:-0.122847 250:-0.750937 251:-0.782985 252:-1 253:-0.501793 254:-1 255:-1 256:-0.224365 257:-0.8579 258:1.66381 259:-1 260:-1 261:5.44726 262:-0.00358657 263:-0.397239 264:-0.550764 265:-1 266:-1 267:-1 268:-0.0602706 269:-1 270:-0.569213 271:-1 272:-0.623831 273:-0.964856 274:1.412 275:-1 276:1.41009 277:-1 278:3.65381 279:10.2906 280:0.49462 281:1.40252 282:-1 283:-1 284:-0.741499 285:-1 286:-1 287:2.76355 288:-1 289:-0.723439 290:1.41009 291:-1 292:-0.750937 293:-0.464142 294:15.9151 295:-1 296:-1 297:-0.446878 298:-0.307657 299:-0.861713 300:-1 301:0.327541 302:-1 303:-1 304:-0.928947 305:-0.501793 306:-1 307:-1 309:-1 310:-0.401957 311:5.58621 312:-0.757806 313:-1 314:-1 315:-1 316:7.78161 317:-0.487076 318:0.494377 319:-0.655546 320:-0.515689 321:-1 322:-1 323:-0.77124 324:-1 325:-1 326:-0.925127 327:-0.70051 328:123.489 329:-0.70051 330:-1 331:0.644779 332:-1 333:45.1034 334:0.252973 335:-1 336:10.3185 337:-1 338:-1 339:0.384685 340:-1 341:-1 342:-1 343:-1 344:-0.815626 345:-0.0327073 346:-1 347:0.462201 348:-1 349:-0.933278 350:0.462201 351:-1 352:44.2741 353:-1 354:21.5535 355:-1 356:-1 357:-1 358:-1 359:-1 360:-1 362:-1 363:10.2827 364:-1 365:-1 366:-1 367:-1 368:-1 369:-1 370:-1 371:2.28885 372:-1 373:-1 374:-0.0596923 375:-1 376:-1 377:0.254001 378:-1 379:-1 380:-1 381:-1 382:-0.247661 383:-1 384:-1 385:-0.501793 386:-0.636017 387:-0.294878 388:2.87448 389:-1 390:-1 391:32.867 392:-1 393:123.489 394:-1 397:-0.515689 398:-0.750937 399:-0.550764 400:1.62995 401:-1 402:-0.515689 403:-0.435746 404:51.6897 405:-1 406:10.2768 407:-0.929712 408:-1 409:-1 410:-1 411:-0.199161 412:-1 413:-1 414:-0.965875 415:-0.750937 417:-1 418:-0.0313788 419:-0.815626 420:-1 421:-0.723439 422:-1 423:-1 424:-1 425:-1 426:-0.0186256 427:-1 428:1.41136 429:-1 430:3.3908 431:-0.406141 432:-0.446878 433:-1 434:-0.677092 435:-1 436:2.21515 437:-1 438:-0.196213 441:-0.746978 442:-0.170317 443:-1 444:-1 445:-0.599686 446:-1 447:0.611814 448:-1 449:-1 450:-0.446878 451:3.82019 452:-1 453:-1 454:-0.446878 455:2.75892 457:-1 458:-0.0304569 459:12.6633 460:-1 461:-1 462:5.4303 463:-0.723439 464:-0.815626 465:0.548126 466:-1 467:0.210968 468:-1 469:-0.501793 470:-1 471:21.637 472:-0.464142 473:-0.899807 474:-0.815626 475:9.44819 476:-1 477:-1 478:-1 479:-1 480:-1 481:-0.170317 482:-1 483:-1 484:-1 485:-1 486:12.1724 487:-0.131818 488:-0.928947 489:0.402639 490:-1 491:-0.897621 492:-1 493:-1 494:-1 495:-0.248216 496:-1 497:-0.515689 498:-1 499:-1 500:-0.501793 501:-0.8579 502:13.4606 503:-1 504:-1 505:-1 506:-0.397239 507:1.50766 508:-1 509:-0.517829 510:0.461502 511:0.601258 512:0.879459 513:-1 514:-0.964474 515:1.19225 516:-1 517:-0.501793 518:-0.723439 519:-0.194093 520:1.19225 521:1.12222 522:-0.79594 523:15.9335 524:-1 525:6.52709 526:-1 527:-1 528:-0.964856 529:-1 530:10.2906 531:-1 532:-1 533:-0.164114 534:1.76525 535:-0.723439 536:44.2741 537:-0.723439 538:6.23028 539:-1 540:-1 541:0.880615 542:-1 543:-1 544:0.136799 545:-1 546:-1 547:-0.799843 548:-0.883109 549:-0.795243 551:-0.317536 552:3.83544 553:-1 554:2.59493 555:-1 556:30.0254 557:4.63838 558:-1 559:6.88985 560:-1 561:0.881773 562:-1 563:6.23028 564:-1 565:-1 566:-1 567:-1 568:-0.850255 569:-0.861719 570:-0.399528 571:-1 572:-1 573:-0.122847 574:-1 575:-0.8579 576:-1 577:-0.757806 578:-1 579:-1 580:-1 581:-0.964856 582:-0.949903 583:-1 584:2.76355 585:-0.886316 586:-0.164114 587:-1 588:-1 589:4.16871 590:-0.199161 591:-0.70051 592:1.19225 593:0.504677 594:-0.517829 595:0.0255034 596:-0.87635 597:44.2741 598:-1 599:-0.850255 600:-0.406141 601:0.205523 602:9.96126 603:-0.590486 604:-1 605:-1 606:-0.964856 607:-1 608:-1 609:-1 610:-1 611:-1 612:-0.199161 613:-0.132065 614:37.7817 615:-0.723439 616:-1 617:-0.515613 618:-1 619:-1 620:3.80503 621:-1 622:-1 623:-0.487076 624:-0.599686 625:-0.0313788 626:-1 627:-1 628:-1 629:-1 630:-0.775382 631:-1 632:-1 633:-0.833949 634:-1 635:-1 636:-1 637:-1 638:-0.981282 639:-1 640:-1 641:-1 642:1.90601 643:-0.929712 644:-1 645:-1 646:-0.8579 647:-1 648:-0.501793 649:-0.00358657 650:-1 652:-0.70051 653:0.187719 654:-0.833949 655:-1 656:-1 657:-1 658:9.96126 659:-1 660:0.106244 661:-1 662:-0.978843 663:-0.964856 664:-1 665:10.2827 666:-1 667:-0.766218 668:-1 669:-0.446878 670:5.20508 671:-0.446878 672:-0.138427 673:-1 674:0.49462 675:-1 676:-1 677:-1 678:-1 679:-1 680:-0.0313788 681:-0.723439 682:0.210968 683:-0.273419 684:-0.965875 685:-1 686:-0.964856 687:-1 688:-0.122847 689:-1 690:-1 691:-1 692:1.05101 693:-0.199161 694:-1 695:-0.974406 696:0.551269 697:11.8595 698:-1 699:-1 700:3.01894 701:18.7586 702:-1 703:-0.951563 704:-1 705:-0.750937 706:-0.861719 707:-0.899808 708:-1 709:4.63838 710:-0.948812 711:-0.269249 712:-1 713:-1 714:-1 715:-0.8579 716:1.25702 717:-0.517829 718:-0.634537 719:-1 720:2.28838 721:-1 722:-1 723:-1 724:-1 725:-0.501793 726:10.2768 727:0.106244 728:-0.679732 729:-1 730:-1 731:1.90586 732:0.195618 733:-1 734:-1 735:-0.780806 736:-0.566032 737:-0.501793 738:-1 739:-1 740:4.64098 741:-0.929863 742:1.19225 743:-0.599651 744:16.5632 745:-1 746:31.9619 747:-0.00358657 748:-0.992142 749:-0.692864 750:-1 751:-0.294878 752:-0.170317 753:0.0897131 754:-0.750937 755:12.1724 756:-0.723439 757:-1 758:0.723146 759:-0.7158 760:8.64799 761:0.106244 762:-0.833949 763:-1 764:-1 765:-1 766:4.32678 767:-0.588916 768:-1 769:-0.897621 770:-1 771:-0.850255 772:-0.0602706 773:-0.550764 774:-1 775:-0.311091 776:-1 777:10.3185 778:-0.733116 779:-1 780:0.644779 781:-1 782:-1 783:-0.599686 784:-0.850255 785:-0.925127 786:-0.668115 787:-0.446878 788:-1 789:-1 790:-1 791:-0.744062 792:-1 793:-1 794:-0.515638 795:-1 796:-0.397239 797:-0.757806 798:-1 799:-1 800:-1 801:-1 802:-0.170317 803:-1 804:-1 805:-0.446878 806:-0.194093 807:-0.911039 808:-0.446878 809:-0.964474 810:-0.59694 811:0.601258 812:-0.406141 813:-1 814:-0.686564 815:-1 816:-1 817:-1 818:-0.883109 819:-1 820:-0.501874 821:-0.247661 822:-0.861719 823:-0.566032 824:4.64098 825:22.269 826:-1 827:-0.964856 828:6.75635 829:-0.850255 830:-1 831:-0.929712 832:-0.79962 833:-0.750937 834:-1 835:-1 836:-0.723439 837:-1 838:-1 839:1.41009 840:6.75635 841:-1 842:-1 843:-0.501874 844:-1 845:-1 846:-1 847:-1 848:-0.861719 849:-1 
0.03125 0 0 0:-1 1:-1 2:-1 4:0.908257 5:4.40666 6:-1 7:0.35172 8:-0.791062 9:-1 10:-1 11:0.657209 12:-1 13:-0.959188 14:-1 15:-1 16:-1 17:-1 18:-1 19:-1 20:-1 21:-1 22:-1 23:-0.304971 24:2.86407 25:-1 26:-1 27:-1 28:-1 29:-0.582125 30:-1 31:-1 32:-1 34:0.529961 35:-1 36:-1 37:26.0584 38:-1 39:0.682051 40:-1 41:-1 42:-1 43:-1 44:-1 45:2.34468 46:-1 47:-1 48:-1 49:-0.934619 50:-1 51:-1 52:-1 53:-1 54:3.19892 55:-1 56:-1 57:-1 58:-1 59:-0.125333 60:-1 61:-1 62:-1 63:-1 64:-1 65:-1 66:-1 67:1.03922 68:-1 69:-1 70:-1 71:-1 72:-1 73:-1 74:-1 75:-1 76:-1 77:-1 78:-1 79:-0.0746481 80:-1 81:-1 82:-1 83:-1 84:-1 85:-1 86:1.42204 87:-1 88:-1 89:-1 90:-1 91:-1 92:30.4711 93:-1 94:-1 95:-1 96:-0.304971 98:-1 99:-1 100:-1 101:-1 102:-1 103:-1 104:-1 105:-0.857157 106:1.24954 108:-0.80705 109:-1 111:-1 112:-1 113:-1 114:2.05882 115:-1 116:-1 117:-1 118:-1 119:-1 120:-1 121:-0.255197 122:-1 123:-1 124:0.390284 125:-1 126:-1 127:-1 128:-1 129:4.24477 130:-1 131:-1 132:-1 133:-1 134:-1 135:-0.614118 136:-1 137:-0.484775 138:-1 139:-1 140:-1 141:-1 143:-1 144:-1 145:-0.702541 146:1.44776 147:-0.627598 148:-1 149:-1 150:-1 151:0.351506 152:-1 153:-1 154:0.749333 155:-1 156:-1 157:5.73086 158:-1 159:-1 160:-1 161:-1 162:-1 163:-1 164:-1 165:5.75816 166:3.58988 167:-1 168:-1 169:1.24303 170:-1 171:0.390284 172:2.34468 173:-1 174:-1 175:-1 176:-1 177:9.50246 178:0.117108 179:-1 180:0.351506 181:-1 182:-1 183:-1 184:-1 185:-1 186:-1 187:-1 188:0.390284 189:-1 190:-1 191:-1 192:-1 193:-1 194:-1 195:-1 196:-1 197:-1 198:-1 199:-1 200:-1 201:3.58988 202:-1 203:-0.856831 204:-1 205:1.70558 206:-1 207:-1 208:-1 209:-1 210:-1 211:0.121515 212:-1 213:0.0819589 214:-1 215:-1 216:-1 217:-1 218:-1 219:-1 220:-1 221:-1 222:-1 223:-1 224:-1 225:-1 226:-1 227:-1 228:-1 229:-0.228235 230:-1 232:0.0746283 233:-1 234:-1 235:-1 236:-1 237:-1 238:-1 239:-1 240:-1 241:-1 242:-0.582125 243:-1 244:-1 245:-1 246:-1 247:5.72555 248:2.85919 249:-1 250:-1 251:-1 252:2.31442 253:0.390284 254:-1 255:-0.714305 256:-1 257:-1 258:-1 259:1.31548 260:-0.801416 261:-1 262:-1 263:-1 264:-1 265:1.62239 266:-1 267:-1 268:-1 269:-1 270:-1 271:-1 272:0.0497292 273:-1 274:-1 275:-1 276:-1 277:2.3641 278:-1 279:-1 280:-1 281:-1 282:-1 283:-1 284:-0.278633 285:-1 286:-1 287:-1 288:-1 289:-1 290:5.72555 291:3.89552 292:-1 293:-1 294:-1 295:-1 296:-1 297:-1 298:-1 299:-1 300:0.390284 301:2.7046 302:-1 303:-1 304:-1 305:-1 306:-1 307:-1 309:-1 310:-1 311:-1 312:-1 313:-1 314:-1 315:-1 316:-1 317:-1 318:-0.304971 319:-1 320:0.351506 321:-1 322:-1 323:-1 324:-1 325:-0.901927 326:-1 327:-0.582125 328:-1 329:-1 330:-0.582125 331:-1 332:6.21489 333:-1 334:-1 335:-1 336:-1 337:-1 338:1.16008 339:-1 340:-1 341:-1 342:-1 343:-1 344:-0.228115 345:-1 346:-1 347:3.08038 348:-1 349:-1 350:-1 351:-1 352:-1 353:-1 354:-1 355:0.266033 356:-1 357:-1 358:-1 359:-1 360:-1 362:-1 363:-1 364:0.390284 365:-1 366:-1 367:-1 368:0.543529 369:3.78997 370:-1 371:-1 372:-0.192577 373:0.428562 374:-1 375:-1 376:-0.652486 377:-1 378:0.390284 379:-1 380:-1 381:-1 382:1.09946 383:-1 384:-1 385:-1 386:-1 387:0.967697 388:-1 389:-0.901927 390:1.624 391:-1 392:-1 393:-1 394:-0.860708 397:1.70301 398:-1 399:-1 400:-1 401:-1 402:-1 403:0.574594 404:-1 405:-1 406:-1 407:-1 408:-1 409:-0.652486 410:-1 411:3.4696 412:-1 413:-1 414:-1 415:-1 417:0.351506 418:-1 419:-1 420:-0.228235 421:-1 422:-1 423:-0.228235 424:-1 425:-0.228235 426:-1 427:-1 428:1.24303 429:-1 430:48.0172 431:-1 432:-1 433:-1 434:-0.0989011 435:-1 436:-1 437:-1 438:-1 441:-0.293923 442:-1 443:-1 444:-1 445:-1 446:-1 447:-1 448:3.32893 449:-1 450:-1 451:-1 452:-1 453:-1 454:-1 455:-1 457:3.05515 458:-1 459:3.48606 460:-1 461:-1 462:-1 463:-1 464:-1 465:-1 466:1.62239 467:-1 468:-1 469:-1 470:1.09946 471:-1 472:-1 473:-1 474:-1 475:-1 476:-1 477:-1 478:-1 479:0.529961 480:-0.228235 481:0.543529 482:-1 483:-1 484:-1 485:-1 486:-1 487:-1 488:1.97447 489:-1 490:0.312 491:-0.714305 492:0.124769 493:-1 494:-0.974412 495:0.0489545 496:-1 497:-1 498:-1 499:-1 500:0.390284 501:-0.603459 502:-1 503:1.69107 504:-0.72198 505:-1 506:-1 507:0.166302 508:-1 509:-1 510:5.1186 511:0.117108 512:-1 513:-1 514:-0.900863 515:-1 516:-1 517:-1 518:-0.228235 519:-1 520:17.3558 521:-1 522:-1 523:-1 524:-1 525:-1 526:-1 527:-1 528:-1 529:-1 530:-1 531:0.390284 532:-1 533:-1 534:-1 535:-1 536:-1 537:-1 538:-1 539:-1 540:-1 541:-1 542:1.86271 543:-1 544:-1 545:-1 546:-1 547:-1 548:-1 549:-0.142781 551:-1 552:-1 553:-1 554:-1 555:11.2529 556:-1 557:-1 558:1.42273 559:13.6781 560:-1 561:-1 562:-1 563:-1 564:11.2529 565:-1 566:-1 567:-1 568:-0.582125 569:-1 570:-1 571:-1 572:-0.539445 573:-1 574:-1 575:-0.206919 576:-1 577:-0.32414 578:-1 579:-1 580:-1 581:-0.803855 582:-1 583:1.0397 584:-1 585:-0.920689 586:-1 587:-0.25022 588:-1 589:-1 590:-1 591:-1 592:-1 593:1.09946 594:-1 595:-1 596:-1 597:-1 598:0.799536 599:-1 600:-1 601:-1 602:-1 603:-1 604:0.390057 605:-1 606:-1 607:2.05882 608:-1 609:-0.164249 610:-1 611:-1 612:5.70545 613:0.21102 614:-1 615:-0.228235 616:-1 617:-1 618:-1 619:-0.304971 620:-1 621:-1 622:-1 623:-1 624:-1 625:-1 626:-0.304971 627:-1 628:-1 629:-1 630:-1 631:-0.443959 632:-1 633:-1 634:-1 635:-1 636:-0.164249 637:-1 638:-0.947766 639:-0.304971 640:-1 641:0.390284 642:-1 643:-1 644:-1 645:2.49938 646:-0.603459 647:-0.991472 648:-1 649:-1 650:0.596406 652:-1 653:0.657209 654:-1 655:-1 656:-1 657:0.390284 658:-1 659:-1 660:3.63095 661:-1 662:-1 663:-1 664:-1 665:-1 666:-1 667:-1 668:-1 669:-1 670:-1 671:-1 672:-1 673:-1 674:0.390284 675:-0.228235 676:1.78057 677:-1 678:0.3693 679:-1 680:-1 681:-1 682:-1 683:-0.32414 684:-1 685:-1 686:-1 687:14.5464 688:-1 689:-1 690:-1 691:-0.48549 692:-1 693:-1 694:-1 695:-0.857155 696:3.32893 697:-1 698:-1 699:-1 700:-1 701:-1 702:-1 703:-0.729665 704:-1 705:-1 706:-0.614118 707:-1 708:-1 709:-1 710:-3.34997e-05 711:-1 712:-1 713:-1 714:-1 715:-1 716:-1 717:-1 718:-1 719:-1 720:2.05882 721:-1 722:-1 723:-1 724:-1 725:0.390284 726:-1 727:-1 728:-1 729:-1 730:-1 731:-1 732:-1 733:-1 734:0.286395 735:-0.388323 736:-1 737:-1 738:-1 739:-0.304971 740:0.967697 741:-1 742:54.0646 743:-1 744:-1 745:-1 746:4.41117 747:-1 748:-1 749:-0.714305 750:-1 751:-1 752:-1 753:-0.66207 754:-0.304971 755:17.3793 756:-1 757:0.529961 758:-1 759:-1 760:2.36543 761:-1 762:-0.0732449 763:-0.867816 764:-1 765:72.5259 766:-1 767:-1 768:-1 769:-1 770:-1 771:-1 772:-1 773:-1 774:-0.00760201 775:-0.0387737 776:0.46832 777:-1 778:-1 779:-1 780:-1 781:-0.228235 782:-1 783:-1 784:-1 785:-1 786:-1 787:-1 788:1.31556 789:-1 790:-1 791:-0.714314 792:-1 793:-0.72198 794:-1 795:-1 796:-1 797:-1 798:-1 799:-0.714305 800:-1 801:-1 802:-0.228235 803:-1 804:-1 805:-1 806:-1 807:-1 808:-1 809:-0.801725 810:-1 811:-1 812:-1 813:-1 814:-1 815:-1 816:-1 817:-1 818:-1 819:1.78057 820:-1 821:-1 822:-1 823:-1 824:-1 825:-1 826:-1 827:-1 828:-1 829:-1 830:-1 831:-1 832:-0.440824 833:-1 834:-1 835:-1 836:-1 837:-1 838:-1 839:5.72555 840:-1 841:-1 842:-1 843:-0.304971 844:-1 845:2.08742 846:13.4315 847:0.46832 848:-0.228235 849:-1 
0.03125 0.01171875 0 0:-0.967077 1:-1 2:2.32603 4:-1 5:-0.21458 6:-0.653733 7:-0.775559 8:-0.878577 9:-0.769193 10:-1 11:-0.724835 12:-0.867465 13:-0.877984 14:-1 15:-1 16:-1 17:-1 18:-0.967079 19:-0.884578 20:-0.709598 21:3.60158 22:-0.178316 23:0.442869 24:-0.0376076 25:-1 26:-1 27:-0.673281 28:-0.652881 29:-1 30:-1 31:-0.390181 32:-1 34:-1 35:-0.128079 36:5.55925 37:-1 38:-0.0608935 39:27.6359 40:-0.74371 41:-0.967079 42:16.0761 43:0.120253 44:-1 45:-0.978643 46:-1 47:2.05172 48:-0.679638 49:-0.937563 50:-1 51:-0.23871 52:-1 53:-0.963892 54:-0.651403 55:-0.862417 56:-0.564308 57:-1 58:-1 59:-1 60:-0.907257 61:-1 62:-1 63:-1 64:-1 65:33.7384 66:3.79154 67:-0.661406 68:-0.644087 69:-0.820669 70:-0.751055 71:-1 72:-0.32221 73:-1 74:0.602172 75:-0.51262 76:-1 77:-0.390181 78:-1 79:4.11544 80:-1 81:-0.719448 82:27.217 83:-1 84:-1 85:-0.709479 86:-0.89946 87:-0.861448 88:-1 89:-1 90:3.23196 91:1.6081 92:-0.564576 93:-1 94:-0.854859 95:-0.953629 96:-0.769193 98:-0.374285 99:-0.551117 100:-0.775594 101:-0.934156 102:-0.19185 103:-0.762336 104:-0.966273 105:-0.964423 106:-1 108:-0.951944 109:-0.686263 111:-0.884578 112:-1 113:-0.487421 114:0.777618 115:-0.95929 116:-1 117:-0.378923 118:-0.551189 119:-1 120:-0.971945 121:-0.876332 122:0.0388001 123:-1 124:-0.884578 125:-0.969259 126:-0.980766 127:-0.769156 128:-1 129:-0.564576 130:-1 131:-1 132:-0.947962 133:-0.358914 134:-0.907257 135:-0.967964 136:-1 137:-0.828903 138:-1 139:-1 140:-1 141:-1 143:-1 144:-0.846221 145:-0.818884 146:0.625718 147:-1 148:-1 149:-0.884578 150:0.0885609 151:-1 152:-0.965308 153:-1 154:-1 155:-1 156:-1 157:0.117601 158:-1 159:-1 160:395.845 161:-1 162:-1 163:-0.776586 164:-0.942369 165:1.02029 166:0.143165 167:-1 168:-1 169:0.86323 170:-0.768143 171:1.07825 172:-1 173:-0.7206 174:-1 175:-1 176:-1 177:-1 178:-0.350799 179:-0.930615 180:-0.663391 181:-0.942298 182:-0.564576 183:-0.836603 184:-1 185:-1 186:-0.626582 187:-0.912851 188:0.270297 189:-1 190:-0.769454 191:-0.895923 192:-0.441347 193:-1 194:-0.846221 195:-0.912851 196:-0.938166 197:-0.44164 198:-0.568333 199:-0.597842 200:-0.581065 201:-0.618945 202:-1 203:-0.774099 204:0.631125 205:-1 206:-0.930178 207:-1 208:-0.564039 209:-1 210:-1 211:-0.0683851 212:-1 213:-0.371226 214:-0.88459 215:-0.596088 216:1.80169 217:2.81062 218:-1 219:-1 220:-1 221:-1 222:-0.895923 223:-1 224:-1 225:-1 226:-0.0984255 227:-1 228:-0.564039 229:-0.038552 230:1.6935 232:-1 233:-0.390181 234:-0.861231 235:-0.968361 236:-1 237:-1 238:-0.884578 239:-1 240:-0.201882 241:5.53506 242:-0.895923 243:-0.909855 244:-0.692241 245:-1 246:-1 247:1.23344 248:3.87095 249:-1 250:-0.798044 251:-1 252:-0.862417 253:-0.884578 254:-1 255:0.0201675 256:0.0781726 257:0.0538454 258:-0.270249 259:-0.967964 260:-0.95054 261:-1 262:-0.769156 263:-0.860355 264:-0.965308 265:-0.564576 266:-1 267:1.61255 268:-0.564576 269:-0.812975 270:-0.400902 271:-0.942298 272:0.394879 273:-0.983716 274:-1 275:-0.884578 276:-1 277:-0.860355 278:-1 279:-1 280:0.96283 281:-1 282:-0.903173 283:-1 284:-0.820335 285:-0.814514 286:-1 287:-1 288:-1 289:-1 290:-1 291:-0.796785 292:-0.942298 293:0.241803 294:-1 295:-1 296:-1 297:-0.935928 298:0.122791 299:-1 300:-0.884578 301:-0.846221 302:-1 303:-1 304:-0.934155 305:-0.653733 306:-1 307:-1 309:-1 310:-1 311:-1 312:-0.94389 313:-1 314:-0.825702 315:-1 316:-1 317:-1 318:-0.65379 319:-0.920198 320:-0.438986 321:-1 322:0.122523 323:-0.841006 324:-0.549402 325:-0.975574 326:-0.965308 327:-0.791846 328:-1 329:-1 330:0.631125 331:-1 332:0.19797 333:2.05172 334:-1 335:-0.249552 336:-1 337:-1 338:-0.820669 339:-1 340:-1 341:-1 342:-0.390181 343:-1 344:-1 345:-1 346:0.306273 347:-0.661244 348:-0.581684 349:-0.969084 350:-0.661244 351:2.80645 352:1.62222 353:-0.531126 354:-1 355:-1 356:-0.985228 357:-0.765563 358:-0.836603 359:-1 360:-1 362:-1 363:-0.626582 364:-0.769156 365:-0.884578 366:-1 367:-1 368:-0.423348 369:-1 370:-1 371:-1 372:-0.865934 373:1.19457 374:-1 375:-0.11747 376:-0.624776 377:-1 378:-0.769156 379:-1 380:-1 381:0.787976 382:-1 383:-0.942298 384:0.49216 385:-0.884578 386:-0.409719 387:-0.346562 388:-1 389:-0.991858 390:-1 391:-1 392:-1 393:-1 394:-0.791781 397:-1 398:-0.884597 399:-0.930615 400:-1 401:-1 402:-1 403:-1 404:0.525862 405:-1 406:-1 407:-0.967432 408:-0.992074 409:-0.624776 410:0.350135 411:-0.257862 412:-1 413:-1 414:-0.920895 415:-0.961532 417:-1 418:-0.887797 419:-0.978643 420:-0.74371 421:-1 422:-0.775594 423:-0.679638 424:-0.942298 425:-1 426:-1 427:-0.813291 428:1.04945 429:-0.769553 430:-1 431:-1 432:-1 433:-1 434:-1 435:-1 436:-0.627564 437:-0.615084 438:-0.627564 441:-0.941381 442:-1 443:-0.934264 444:-0.966136 445:-1 446:-0.965308 447:-1 448:-0.640609 449:-1 450:-1 451:0.675079 452:-1 453:-1 454:-1 455:-1 457:-0.326783 458:0.123096 459:-1 460:-0.446009 461:-1 462:-1 463:-1 464:-1 465:-0.462006 466:-1 467:-1 468:-0.640609 469:-0.884578 470:-0.912851 471:-1 472:-0.813782 473:-0.895544 474:-0.978643 475:-1 476:-0.16213 477:-1 478:-0.422889 479:-1 480:-0.935928 481:-0.935928 482:-1 483:1.87901 484:-0.807783 485:-0.4412 486:-1 487:-1 488:-0.851848 489:-1 490:-0.891077 491:-0.335611 492:0.868109 493:-1 494:-0.995044 495:-1 496:-0.942298 497:-1 498:-1 499:-1 500:-1 501:-1 502:-1 503:-1 504:-0.584404 505:-1 506:0.11716 507:-1 508:-0.984525 509:0.676239 510:-1 511:-0.443542 512:-1 513:-1 514:-0.794192 515:-1 516:-0.83751 517:-0.538311 518:-0.871855 519:-1 520:-0.492109 521:-1 522:-1 523:-1 524:-1 525:-1 526:-0.868316 527:-1 528:-0.983716 529:-0.518461 530:-1 531:0.154874 532:-0.709717 533:-1 534:-1 535:-1 536:-1 537:-0.967964 538:-1 539:-1 540:-0.579014 541:0.524923 542:-1 543:-0.536285 544:-0.934158 545:0.577155 546:1.60087 547:-0.953629 548:3.95731 549:1.18278 551:-0.912989 552:-0.626582 553:-0.265052 554:-1 555:-1 556:-1 557:-1 558:-0.396591 559:8.75215 560:-1 561:-0.128079 562:-1 563:-1 564:-1 565:-1 566:-0.738552 567:-1 568:-0.965308 569:-1 570:-1 571:-1 572:-1 573:-1 574:-0.69083 575:-1 576:-0.935928 577:0.515296 578:-1 579:0.306273 580:-1 581:-0.902249 582:-0.930363 583:-1 584:-1 585:-0.76947 586:-0.806346 587:-1 588:-0.967079 589:-1 590:-0.814465 591:-0.965308 592:3.06313 593:-0.825702 594:-0.776586 595:0.187919 596:-0.942707 597:-1 598:-1 599:-1 600:-1 601:-1 602:-1 603:-0.952563 604:-0.942298 605:-0.441347 606:-0.947054 607:-1 608:-1 609:0.284006 610:-0.288174 611:-0.884578 612:0.113208 613:-1 614:-1 615:-0.807783 616:-1 617:4.10762 618:-0.53607 619:-0.711491 620:-1 621:-1 622:0.5381 623:-1 624:-1 625:-0.551189 626:-0.884597 627:-0.920816 628:-1 629:-0.80047 630:-0.947962 631:-0.815349 632:-0.257642 633:-0.92306 634:-1 635:-1 636:-1 637:-0.550904 638:-0.978318 639:-0.65379 640:-1 641:-0.884578 642:-0.43858 643:-1 644:-0.830703 645:-1 646:-0.209709 647:-0.995752 648:-1 649:0.270297 650:-1 652:-0.965308 653:-0.587252 654:-0.96153 655:-0.89946 656:-0.538223 657:-1 658:-0.492109 659:-0.443396 660:-0.935928 661:0.281206 662:-1 663:-0.739362 664:-1 665:-1 666:-0.878099 667:-0.512546 668:0.484277 669:-1 670:-0.281218 671:-1 672:-0.800395 673:-0.825702 674:-1 675:-1 676:-0.769156 677:-0.736632 678:-0.65896 679:-0.807783 680:-0.663391 681:-1 682:-1 683:-0.831669 684:-0.984188 685:-0.887797 686:-1 687:-1 688:0.625718 689:-0.826895 690:-0.346863 691:-1 692:-1 693:-1 694:-0.492109 695:-0.827976 696:-1 697:-1 698:-0.967079 699:-1 700:-0.813782 701:-1 702:-0.89946 703:-1 704:-1 705:-0.942298 706:-0.967964 707:-0.992263 708:-0.769553 709:-1 710:-0.940706 711:-0.322812 712:-0.608291 713:-1 714:-0.813291 715:-0.473077 716:-1 717:-0.553171 718:-0.915331 719:-0.968376 720:14.7489 721:-1 722:-1 723:0.116719 724:-1 725:-0.884578 726:-1 727:-0.679638 728:-0.962901 729:-0.905126 730:-1 731:0.571474 732:-1 733:-0.5917 734:-1 735:-1 736:2.01732 737:-0.884578 738:-1 739:-1 740:-1 741:-0.561186 742:5.09756 743:-0.938166 744:-1 745:-1 746:-1 747:-0.884578 748:-0.99909 749:0.138894 750:-0.751055 751:-1 752:2.84543 753:-0.410683 754:-1 755:34.1034 756:-0.871855 757:-0.872982 758:-0.401184 759:-1 760:0.117601 761:-1 762:-0.96153 763:-0.791432 764:-0.993316 765:148.578 766:1.24469 767:-1 768:-0.166697 769:-0.644087 770:-0.847611 771:-1 772:-1 773:-0.791846 774:-1 775:0.516682 776:-1 777:-1 778:-0.95878 779:-1 780:-1 781:-0.74371 782:-0.861448 783:-0.814514 784:0.249314 785:-0.843885 786:-1 787:-1 788:-0.990847 789:-0.4412 790:-1 791:-0.869485 792:-0.965308 793:-0.953837 794:-1 795:-1 796:-0.16213 797:-0.94389 798:-1 799:-0.83397 800:-0.673191 801:-0.524832 802:-0.935928 803:-1 804:-1 805:-1 806:-0.813291 807:-0.97939 808:-1 809:-0.892958 810:-0.906621 811:-1 812:-1 813:-0.820305 814:-1 815:-1 816:-1 817:-0.600677 818:-0.701958 819:-1 820:-1 821:-1 822:-1 823:-1 824:-1 825:2.59391 826:-0.128079 827:-0.95929 828:-1 829:-1 830:-0.796785 831:-0.983716 832:0.184185 833:-1 834:-0.942298 835:-0.887797 836:-1 837:-1 838:-0.884578 839:-1 840:-1 841:-0.814465 842:-1 843:-0.826895 844:-1 845:-0.935928 846:1.39594 847:1.68251 848:-1 849:-1 
0.03125 0.01171875 0 0:-1 1:-1 2:0.0136986 4:-1 5:-1 6:-1 7:-0.315581 8:-0.957664 9:-0.859169 10:-0.718291 11:-1 12:-1 13:-1 14:2.5066 15:-0.859169 16:28.7759 17:0.276219 18:-1 19:-0.718291 20:3.25103 21:-0.726149 22:-1 23:-1 24:-1 25:5.37638 26:-0.859169 27:-1 28:-1 29:-1 30:-0.652797 31:-1 32:28.9653 34:-1 35:-1 36:-0.780766 37:34.0685 38:-1 39:-0.318343 40:-0.531222 41:-0.91965 42:-1 43:-0.0886076 44:-0.84362 45:-0.947873 46:1.73724 47:-1 48:-1 49:-0.966895 50:-1 51:-1 52:103.224 53:-1 54:-1 55:-1 56:-0.468308 57:-0.173206 58:-1 59:-0.822769 60:-0.434373 61:-0.718291 62:-0.68724 63:2.54225 64:-0.436583 65:-1 66:-0.634672 67:-1 68:-1 69:-1 70:-0.696203 71:-0.0699677 72:-1 73:-1 74:-1 75:-0.206976 76:0.368621 77:-1 78:-1 79:-1 80:-0.363484 81:-0.863053 82:-1 83:5.37931 84:0.593846 85:-1 86:-1 87:-1 88:-1 89:0.779363 90:-0.765505 91:-1 92:-1 93:-1 94:-1 95:-1 96:-1 98:-1 99:-1 100:-0.726149 101:-1 102:-1 103:-1 104:-1 105:-1 106:-1 108:0.914747 109:-1 111:-1 112:-1 113:-1 114:-1 115:-1 116:-1 117:-1 118:-0.726149 119:-0.830655 120:-1 121:-0.698166 122:-1 123:-0.436583 124:-1 125:-1 126:-1 127:-0.718291 128:-1 129:-1 130:2.62055 131:34.0554 132:-1 133:-0.84362 134:-1 135:-1 136:-0.744756 137:-1 138:-1 139:-0.84362 140:20.9188 141:-0.84362 143:0.406697 144:-1 145:-1 146:-1 147:-1 148:-0.0943396 149:-0.436583 150:-0.468635 151:-1 152:-1 153:-1 154:-1 155:0.362776 156:6.0388 157:-1 158:-1 159:170.224 160:-1 161:146.126 162:1.83347 163:-0.727359 164:-1 165:-1 166:-1 167:-1 168:-0.68724 169:-1 170:-1 171:-1 172:1.70926 173:0.363852 174:-1 175:-0.0620814 176:-1 177:11.7635 178:-0.321457 179:-1 180:-1 181:-0.577832 182:-1 183:-1 184:-1 185:-1 186:-0.544304 187:-0.787297 188:-0.718291 189:-0.812215 190:-1 191:-0.915327 192:-1 193:-0.628067 194:-0.624674 195:-0.787297 196:-1 197:-1 198:-0.880813 199:-1 200:-1 201:3.64801 202:-0.72449 203:-1 204:-1 205:-1 206:-0.829586 207:-1 208:0.0640394 209:-0.84362 210:-1 211:-0.545502 212:-1 213:-0.561533 214:-1 215:-1 216:-0.0886076 217:-1 218:-0.92181 219:-1 220:-0.915327 221:-1 222:-1 223:-1 224:0.719457 225:-0.915327 226:-0.826466 227:0.70064 228:-1 229:-0.84362 230:-0.452298 232:-0.575126 233:-0.255814 234:-1 235:-1 236:-1 237:-1 238:-1 239:-1 240:-1 241:-1 242:-0.746178 243:-1 244:-1 245:-1 246:2.90751 247:-1 248:-1 249:-0.504018 250:-0.7185 251:-0.87729 252:-0.664205 253:-0.718291 254:-1 255:-1 256:-0.561421 257:-0.91965 258:-0.863053 259:-0.765611 260:-0.919523 261:-1 262:5.47604 263:-0.659172 264:-1 265:-1 266:-1 267:-1 268:-0.468635 269:-0.908707 270:-1 271:-1 272:-0.787297 273:-0.980128 274:-1 275:-1 276:0.362776 277:-1 278:-1 279:3.25616 280:-1 281:-1 282:-0.763676 283:-0.574594 284:-0.561834 285:-0.773644 286:1.65701 287:7.50739 288:5.4 289:-1 290:0.362776 291:-1 292:-0.718337 293:0.211292 294:27.679 295:0.585131 296:-1 297:-1 298:-0.608518 299:2.2434 300:-0.718291 301:-0.624674 302:-0.574594 303:-1 304:-1 305:-1 306:-1 307:-0.374842 309:-1 310:-1 311:6.44828 312:-0.315581 313:-1 314:-1 315:-1 316:1.48276 317:-1 318:-1 319:-1 320:-0.179081 321:-1 322:-0.863053 323:-1 324:-1 325:-1 326:-1 327:-1 328:478.748 329:-0.576833 330:-1 331:0.860065 332:-1 333:2.72414 334:-0.645756 335:-1 336:-1 337:-1 338:-1 339:-1 340:2.72414 341:-1 342:-1 343:-1 344:-0.114329 345:-0.817683 346:1.12546 347:-1 348:-0.744756 349:-1 350:-1 351:-1 352:56.5704 353:-1 354:0.594096 355:-0.743468 356:-1 357:-1 358:-0.8006 359:-1 360:-0.806668 362:-1 363:5.37553 364:-0.718291 365:-1 366:-1 367:5.4 368:-0.84362 369:-1 370:-1 371:-0.628067 372:-1 373:-1 374:-1 375:-0.925754 376:-1 377:-1 378:-1 379:-0.906761 380:-1 381:-1 382:-1 383:-1 384:-1 385:-1 386:-1 387:-0.601292 388:0.368621 389:-0.94043 390:-1 391:1.12808 392:-0.323944 393:82.1556 394:-0.971776 397:-0.726149 398:-0.859169 399:-1 400:-1 401:-1 402:-0.179081 403:-0.680945 404:36.2241 405:-1 406:5.37638 407:-1 408:-1 409:-0.929584 410:-1 411:-0.54717 412:12.1472 413:-0.817509 414:-0.980704 415:-1 417:-1 418:-0.452298 419:-1 420:-1 421:-0.84362 422:-1 423:-1 424:-0.859169 425:1.96977 426:-1 427:-1 428:-0.545502 429:-1 430:3.96552 431:-1 432:-0.84362 433:-1 434:-0.270076 435:-1 436:-1 437:-1 438:-1 441:-1 442:-1 443:-1 444:-1 445:-0.773644 446:-0.915327 447:-1 448:1.62944 449:-1 450:-0.68724 451:-1 452:36.1441 453:0.642472 454:1.50063 455:-1 457:0.0947702 458:1.19162 459:0.362441 460:-0.323944 461:6.43444 462:-1 463:-1 464:-0.0100754 465:-1 466:-0.468635 467:-0.726106 468:2.5066 469:-0.718291 470:-0.787297 471:69.3704 472:-1 473:-1 474:-0.895747 475:-0.0910047 476:-0.659172 477:1.73207 478:-0.718291 479:-0.689989 480:-1 481:-0.84362 482:-1 483:-1 484:-0.84362 485:-1 486:80.8966 487:-0.509091 488:-1 489:-1 490:-0.734154 491:-1 492:-0.772092 493:25.3046 494:-0.998272 495:-0.787454 496:-1 497:-1 498:6.06328 499:-1 500:-0.718291 501:-1 502:24.8801 503:-0.727359 504:-0.943666 505:-1 506:-1 507:-1 508:-1 509:-1 510:-1 511:-0.547288 512:6.43419 513:-1 514:-1 515:-1 516:-0.920683 517:-0.718291 518:-1 519:-1 520:6.43472 521:0.439444 522:-0.884615 523:3.25369 524:1.29237 525:1.12808 526:-1 527:-0.361891 528:-0.980128 529:-1 530:-1 531:-1 532:-0.645756 533:-1 534:2.75131 535:-0.84362 536:30.9852 537:-1 538:16.7066 539:-1 540:-1 541:2.18892 542:-0.70997 543:-0.773644 544:-0.91965 545:-1 546:-1 547:-0.886822 548:-1 549:-1 551:-1 552:-0.0886076 553:-0.800692 554:-0.531222 555:-1 556:73.5178 557:2.18819 558:-1 559:0.487091 560:-1 561:-1 562:-1 563:-1 564:-1 565:-0.839301 566:-1 567:-0.707713 568:-0.915327 569:0.641086 570:-1 571:-1 572:-0.66425 573:-1 574:-1 575:-1 576:-0.92181 577:-1 578:-1 579:5.37638 580:-1 581:-0.980128 582:-1 583:-0.173882 584:7.50739 585:-1 586:-1 587:-1 588:-1 589:0.825793 590:-0.54717 591:-0.407683 592:-1 593:-1 594:-0.727359 595:-1 596:-1 597:62.9704 598:-1 599:-0.915327 600:-1 601:-1 602:3.95552 603:-1 604:-0.859169 605:-0.545502 606:-0.990064 607:-0.380201 608:0.0939367 609:-1 610:-1 611:-1 612:-1 613:-1 614:7.77157 615:-1 616:6.44828 617:-0.863053 618:-1 619:-0.859169 620:0.357442 621:-1 622:-1 623:-1 624:-0.0951009 625:-1 626:-0.859169 627:-1 628:-1 629:-1 630:-1 631:-0.774793 632:-1 633:-0.906107 634:-1 635:-0.66184 636:-0.830655 637:-1 638:-1 639:-1 640:-1 641:-0.718291 642:-0.726106 643:-0.920558 644:-1 645:-0.645466 646:-1 647:-0.998272 648:-0.718291 649:-1 650:-1 652:-1 653:-1 654:-0.530754 655:-1 656:-1 657:-1 658:3.95552 659:-1 660:0.250317 661:-1 662:-0.935433 663:-0.980128 664:-1 665:1.73207 666:-1 667:-0.867809 668:-1 669:-1 670:26.1777 671:-0.687421 672:-1 673:-1 674:-1 675:-1 676:-1 677:-0.91965 678:-1 679:-1 680:-1 681:0.875475 682:-1 683:-0.726106 684:-1 685:-1 686:-0.960256 687:3.65367 688:-1 689:-0.859169 690:-1 691:-0.947873 692:-1 693:-1 694:-1 695:-1 696:-0.122843 697:1.72593 698:-1 699:-1 700:-1 701:36.2241 702:-1 703:-0.2335 704:-1 705:-0.859169 706:-1 707:-1 708:-1 709:8.5572 710:-1 711:-0.586801 712:-0.899395 713:-1 714:-0.544304 715:-1 716:-1 717:-1 718:-0.793351 719:-1 720:-1 721:-1 722:0.594096 723:-1 724:-0.947873 725:-0.718291 726:51.5793 727:-1 728:-1 729:-1 730:-1 731:-0.452298 732:0.352113 733:-1 734:0.250437 735:-1 736:-1 737:-1 738:-0.534984 739:-1 740:-0.601292 741:-0.920683 742:-1 743:-1 744:18.8506 745:-0.734317 746:1.19289 747:-1 748:-0.975571 749:-1 750:-1 751:-1 752:-1 753:-1 754:-0.718337 755:-1 756:-1 757:-0.689989 758:-0.756414 759:-0.91965 760:0.363852 761:-1 762:-0.906107 763:-1 764:-1 765:-1 766:-1 767:-1 768:-0.84362 769:-1 770:-1 771:-1 772:-1 773:-0.830655 774:0.540725 775:-0.80523 776:-1 777:-1 778:-1 779:-0.718291 780:-0.534984 781:-1 782:-1 783:-0.773644 784:-1 785:-1 786:-1 787:0.0939367 788:-0.352433 789:-0.318074 790:-0.718291 791:-1 792:-0.915327 793:-0.60592 794:-0.0874894 795:-0.859169 796:0.0216963 797:-1 798:-1 799:-1 800:-0.840473 801:-1 802:-0.84362 803:-1 804:-1 805:-0.531222 806:-1 807:-1 808:-0.531222 809:-1 810:-0.772092 811:-0.547288 812:-1 813:0.314721 814:-1 815:-1 816:-1 817:-0.51269 818:-1 819:-0.718291 820:-0.437001 821:-1 822:-0.84362 823:-1 824:-1 825:-1 826:1.12808 827:-1 828:0.461929 829:-0.915327 830:-1 831:-0.980128 832:-1 833:-1 834:-1 835:-1 836:-0.0620814 837:-0.374842 838:-1 839:-1 840:7.77157 841:-1 842:-0.859169 843:-1 844:-0.726149 845:2.28217 846:-1 847:-1 848:-0.92181 849:-1 
