svm_type c_svc
kernel_type rbf
gamma 0.00012207
nr_class 4
total_sv 116
rho -0.294908 -0.63605 nan -0.474857 nan nan
label 0 1 2 3
nr_sv 33 42 41 0
SV
0.4974087958417809 0.2111070612051881 0 0:-1 1:-1 3:-1 4:-1 5:-1 6:-1 7:-1 8:-1 9:-0.811908 10:-1 11:-0.284765 12:-1 13:-1 14:-1 15:-1 16:-1 17:-1 18:-1 20:-1 21:-1 22:-1 23:-1 24:-1 25:-1 26:-1 27:-1 28:-1 29:-1 30:-1 31:-1 32:-1 33:-1 34:95.2783 35:-1 37:-1 38:-1 39:-1 40:-1 41:-1 42:-1 43:-1 44:-1 45:-1 46:-1 47:3.31888 48:-1 49:-1 50:-1 51:-1 52:-1 53:-1 54:-1 55:-1 56:-1 57:-1 58:-1 59:-1 60:-1 61:-1 63:-1 64:-1 65:-1 66:-1 67:-1 68:-1 69:-1 71:-1 72:-1 73:-1 74:-1 75:-1 76:-1 77:-1 78:-1 79:-1 80:18.8889 81:-1 82:-1 84:-1 85:-1 86:-1 87:-1 88:-1 89:-1 90:-1 91:-1 92:-1 93:-1 94:10.254 95:-1 96:-1 97:-1 98:-1 99:-1 100:-1 101:-1 102:-1 103:-1 104:-1 105:-1 106:-1 107:-1 108:-1 109:-1 110:-1 111:-1 112:-1 113:-1 114:-1 115:-1 116:-1 117:-1 119:-1 120:-1 121:-1 122:-1 123:-1 124:-1 125:-1 126:-1 127:-1 128:-1 129:-1 130:-1 131:-1 132:-1 134:-1 135:-1 136:-1 137:-1 138:-1 139:-1 140:-1 141:-1 142:-1 143:-1 145:-1 146:-1 147:-1 148:-1 149:-1 152:-1 153:-1 154:-1 155:-1 156:-1 157:-1 158:-1 159:-1 160:-1 161:-1 162:-1 163:-1 164:-1 165:-1 166:-1 167:-1 168:-1 169:-1 170:-1 171:-1 172:-1 173:-1 174:0.880724 175:-1 176:-1 177:8.20881 178:-1 179:-1 180:-1 181:-1 182:-1 183:0.410629 184:-1 185:-1 186:-1 187:-1 188:-1 189:-1 190:-1 191:-1 192:-1 193:-1 194:-1 195:-1 196:-1 197:-1 198:-1 199:-1 200:-1 201:-1 202:0.735132 203:-1 204:-1 205:-0.529767 206:-1 207:-1 209:-1 210:-1 211:-1 212:1.82116 213:-1 214:-1 215:-1 216:-1 217:-1 218:-1 219:-1 220:-1 221:-1 222:-1 223:-1 224:-1 225:-1 226:-1 228:-1 229:-1 230:-1 231:-1 232:-1 234:-1 235:-1 236:-1 237:-1 238:-1 239:-1 240:-1 241:117.669 242:-1 243:-1 244:-1 245:-1 246:-1 247:-1 248:-1 249:-1 250:-1 251:-1 253:-1 254:-1 255:-1 256:-0.835372 257:1.09954 258:2.69587 259:-1 260:-1 261:0.231842 262:-0.284758 263:-1 264:-1 266:0.43947 267:-1 268:-1 269:-1 270:-1 271:-1 272:-1 273:-1 274:-1 275:-1 276:-1 277:-1 278:-1 279:-1 280:-1 281:-1 282:-1 283:-0.112496 284:-1 285:-1 286:-1 287:-1 288:-1 289:-1 290:-1 291:15.8739 292:-1 293:-1 295:-1 296:-1 297:-1 299:-1 300:-1 301:32.7908 302:-1 303:-1 304:-1 305:-1 306:-1 307:-1 308:-1 309:-1 310:1.45069 311:84.9452 312:-1 313:3.31888 314:-1 315:0.847935 316:-0.423811 317:-1 318:12.7549 319:-1 320:-1 321:-1 322:-1 323:-1 324:-1 325:-1 326:-1 327:-0.0727985 328:-1 331:-1 332:-1 333:-1 334:-1 335:-1 336:-1 337:-1 338:-1 339:18.1038 340:-1 342:-1 344:-0.529767 345:-1 346:-1 347:-1 348:3.06693 349:-1 350:-1 351:-1 352:-1 353:-1 354:-1 355:-1 356:-1 357:7.3962 358:-1 359:13.7824 360:-1 361:-1 362:-1 363:-1 364:-1 365:-1 366:-1 367:-1 368:-1 369:-1 370:-1 371:-1 372:-1 373:-1 374:-1 375:-1 376:-1 377:-1 378:-1 379:-1 380:-1 381:3.70188 382:-1 383:-1 384:-1 385:-1 386:-1 387:-1 388:-1 389:-1 390:-1 391:-0.69534 393:-1 394:-1 395:-1 396:3.70198 397:-1 398:-1 399:1.15909 400:-1 401:-1 402:-1 403:-1 404:-1 405:-1 406:-1 407:-1 408:-1 409:-1 410:-1 411:-1 413:-1 414:-1 415:-1 416:-1 417:-1 418:-1 419:38.7748 422:-1 423:-1 424:-1 425:-1 426:-1 427:-1 428:-1 429:-1 430:-1 431:-1 432:-1 433:-1 434:-0.112496 435:-1 436:-1 437:-1 438:-1 439:-1 440:-1 441:-1 442:-1 443:-1 444:-0.314389 445:-1 446:-1 447:-0.897822 448:-1 449:-1 450:-1 451:-1 452:-1 453:-1 454:-1 455:-1 456:-1 457:7.18519 458:-1 459:-1 460:-1 461:-1 462:-1 463:-1 464:-1 465:-1 466:-1 467:-1 468:-1 469:-1 470:-1 471:-1 472:-1 473:-1 474:-1 475:-1 476:-1 477:-1 478:2.3765 479:-1 480:-0.0595669 481:-1 482:-1 483:-1 484:-1 485:-1 486:-1 487:-1 488:-1 489:-1 490:-1 491:-1 492:-1 493:-1 494:-1 497:-1 498:-1 499:-1 501:-1 502:-1 503:-1 504:-1 505:-1 506:-1 507:-1 508:-0.0595669 509:-1 510:-1 511:-1 512:-1 513:-1 514:-1 515:-1 516:-1 518:18.708 520:-1 521:-1 522:-1 523:-1 524:-1 525:-1 526:-1 527:-1 528:-1 529:-1 530:-1 531:-1 532:-1 533:-1 534:-1 535:-1 536:-1 537:-1 538:-1 539:-1 540:-1 541:-1 542:-1 543:-1 544:-1 545:-1 
0.5 0.5 0 0:-1 1:2.76916 3:-1 4:-0.179169 5:-0.0578647 6:-1 7:-1 8:-1 9:-1 10:-1 11:-0.722549 12:-1 13:-1 14:-1 15:-1 16:-1 17:-1 18:-1 20:-1 21:-1 22:-1 23:-1 24:-1 25:-1 26:-1 27:3.20976 28:-1 29:-1 30:-1 31:-1 32:-1 33:-1 34:11.0042 35:-1 37:-1 38:-1 39:-1 40:-0.112706 41:-1 42:-1 43:-1 44:-1 45:-1 46:-1 47:10.3081 48:-1 49:-1 50:-1 51:-1 52:-1 53:8.82158 54:-1 55:6.32953 56:-1 57:-1 58:-1 59:-1 60:-1 61:-1 63:-1 64:-0.595394 65:1.10488 66:-1 67:-1 68:-1 69:-1 71:-1 72:-1 73:-1 74:-1 75:-1 76:-1 77:-1 78:-1 79:-1 80:-1 81:-1 82:-1 84:-1 85:-1 86:-1 87:-1 88:-1 89:-1 90:-1 91:-1 92:-1 93:19.0474 94:18.6449 95:-1 96:-1 97:-1 98:-1 99:-1 100:-1 101:-1 102:-1 103:-1 104:-1 105:-1 106:-1 107:-1 108:-1 109:-1 110:-1 111:-1 112:-1 113:-1 114:-1 115:-1 116:-1 117:-1 119:-1 120:-1 121:-1 122:-1 123:-1 124:-1 125:-1 126:-1 127:-1 128:-1 129:-1 130:-1 131:-1 132:0.550845 134:-1 135:-1 136:-1 137:-1 138:-1 139:-1 140:-1 141:-1 142:-1 143:-1 145:-1 146:0.612723 147:5.0587 148:-1 149:-1 152:-1 153:0.884271 154:-1 155:-1 156:-1 157:-1 158:-1 159:-1 160:-1 161:2.34104 162:-1 163:-1 164:-1 165:-1 166:-1 167:-1 168:-1 169:-1 170:0.00574213 171:-1 172:-1 173:-1 174:0.641605 175:-1 176:0.641605 177:-1 178:-1 179:-1 180:-0.306414 181:-1 182:-1 183:0.641592 184:-1 185:-1 186:-1 187:-1 188:-1 189:-1 190:-1 191:-1 192:-1 193:-0.190816 194:-1 195:-1 196:-1 197:-0.190816 198:-1 199:-1 200:-1 201:-1 202:-1 203:-1 204:2.34133 205:-0.58962 206:-1 207:-1 209:-1 210:15.6811 211:0.884271 212:-0.179269 213:-1 214:-1 215:-1 216:-1 217:-1 218:-1 219:-1 220:-1 221:-1 222:-1 223:-1 224:-1 225:-1 226:-1 228:-1 229:-1 230:-1 231:-1 232:-1 234:-1 235:10.999 236:-1 237:-1 238:-1 239:-1 240:-1 241:12.3647 242:19.7914 243:-0.190816 244:-1 245:-1 246:-1 247:0.403083 248:1.46234 249:-1 250:-1 251:-1 253:-1 254:0.63693 255:-1 256:-1 257:0.832303 258:-1 259:-1 260:-1 261:-1 262:-0.791922 263:-1 264:-1 266:1.51271 267:-1 268:-1 269:-1 270:-1 271:0.0750488 272:-1 273:-1 274:-1 275:-1 276:-1 277:11.0042 278:-1 279:7.00069 280:-0.575343 281:-1 282:-1 283:-1 284:-1 285:-1 286:-1 287:-1 288:-1 289:-1 290:-1 291:-1 292:-1 293:-1 295:-1 296:-1 297:-1 299:-1 300:-1 301:-1 302:-1 303:-0.910818 304:-1 305:-1 306:-1 307:-1 308:0.33318 309:-1 310:3.27789 311:-1 312:-1 313:-1 314:0.612723 315:-1 316:-1 317:-1 318:-1 319:-1 320:-1 321:-1 322:5.48385 323:-1 324:-1 325:-1 326:-1 327:-1 328:-1 331:-1 332:-1 333:-1 334:-1 335:-1 336:-1 337:-1 338:-1 339:4.55769 340:-1 342:-1 344:-1 345:-1 346:0.67052 347:2.66403 348:-1 349:-1 350:-1 351:-1 352:-1 353:-1 354:33.7177 355:-1 356:-1 357:6.32868 358:-1 359:-1 360:-1 361:15.6811 362:-0.867061 363:-1 364:-1 365:-1 366:-1 367:-1 368:-1 369:-1 370:2.22545 371:-1 372:-1 373:-1 374:-1 375:3.20976 376:-1 377:-1 378:-1 379:-1 380:-1 381:3.92467 382:-1 383:-1 384:-1 385:-1 386:-1 387:-1 388:-1 389:-1 390:-0.179269 391:-1 393:-1 394:-1 395:-1 396:1.05204 397:-1 398:-1 399:-1 400:-1 401:-1 402:-1 403:-1 404:-1 405:-1 406:-1 407:-1 408:-1 409:-1 410:-1 411:-1 413:19.7914 414:-1 415:-1 416:-1 417:-1 418:-1 419:16.3574 422:-1 423:-1 424:-1 425:-1 426:-1 427:-1 428:-1 429:-1 430:-1 431:-1 432:-1 433:-0.306414 434:-0.225461 435:1.39983 436:-1 437:0.884271 438:-1 439:-1 440:0.615182 441:-1 442:-1 443:4.89195 444:-1 445:-1 446:-1 447:-0.970274 448:0.00574213 449:-1 450:-1 451:-0.179269 452:1.39983 453:-1 454:-1 455:-1 456:-1 457:-1 458:-1 459:-1 460:-1 461:4.99896 462:-1 463:-1 464:-1 465:-1 466:-1 467:-1 468:-1 469:-1 470:-1 471:-1 472:-1 473:2.22545 474:0.832303 475:-1 476:-1 477:-1 478:-1 479:-1 480:-0.179269 481:-1 482:-1 483:-1 484:-1 485:-1 486:-1 487:-1 488:-1 489:-0.595394 490:-1 491:-1 492:-1 493:-1 494:0.211486 497:-1 498:-1 499:-1 501:-0.468191 502:-1 503:-1 504:-1 505:-1 506:-1 507:-1 508:-1 509:-1 510:-1 511:-1 512:-1 513:-1 514:-1 515:7.33453 516:-1 518:3.30038 520:-1 521:-1 522:-1 523:-1 524:-1 525:0.832303 526:-1 527:-1 528:-1 529:-1 530:-1 531:-1 532:-1 533:-1 534:0.641605 535:-1 536:-1 537:-1 538:-1 539:-1 540:-1 541:0.0750488 542:-1 543:-1 544:-1 545:-1 
0.4888974873474897 0.5 0 0:-1 1:-1 3:0.474682 4:0.20338 5:-1 6:-1 7:4.86505 8:-1 9:-1 10:-1 11:0.169494 12:-1 13:-1 14:-1 15:-1 16:-1 17:-1 18:-1 20:-1 21:-1 22:0.343161 23:4.52657 24:-1 25:1.6859 26:-1 27:-1 28:-1 29:-1 30:-1 31:0.759186 32:-1 33:-1 34:104.601 35:-1 37:-1 38:-1 39:-1 40:-1 41:-0.810747 42:-1 43:-1 44:-1 45:-1 46:-1 47:4.52657 48:-1 49:-1 50:-1 51:7.79723 52:-1 53:-1 54:-1 55:-1 56:-1 57:-1 58:-1 59:-1 60:-1 61:-1 63:-1 64:-0.703406 65:-1 66:-1 67:-1 68:-1 69:-1 71:-1 72:1.93218 73:20.4884 74:-1 75:-1 76:-1 77:-1 78:-1 79:-1 80:11.7237 81:-1 82:1.6859 84:-1 85:-1 86:-1 87:-1 88:-1 89:6.20051 90:-1 91:-1 92:-1 93:1.44913 94:-1 95:-1 96:-1 97:-1 98:-1 99:-1 100:-1 101:-1 102:-1 103:-1 104:-1 105:-1 106:-0.805097 107:-1 108:-1 109:-1 110:-1 111:-1 112:-1 113:-1 114:-1 115:-1 116:-1 117:1.76296 119:-1 120:-1 121:-1 122:-0.406832 123:-1 124:4.52657 125:-1 126:-0.262746 127:-1 128:-1 129:-1 130:-1 131:-0.283928 132:-1 134:-1 135:-1 136:-0.805097 137:-1 138:-1 139:-0.432228 140:-1 141:-1 142:-1 143:-1 145:-1 146:0.182199 147:-1 148:-1 149:-1 152:-1 153:-1 154:-1 155:-1 156:-1 157:-1 158:-1 159:-1 160:-1 161:-1 162:-1 163:-1 164:-1 165:-1 166:-1 167:-1 168:-1 169:-1 170:-1 171:-1 172:-1 173:0.173359 174:0.203408 175:-0.703406 176:-1 177:-1 178:-1 179:-1 180:-1 181:-1 182:0.805041 183:3.81359 184:-0.444947 185:-1 186:-1 187:-1 188:-0.715828 189:-1 190:-1 191:-1 192:-1 193:0.779644 194:-0.610148 195:-1 196:-1 197:-1 198:7.79958 199:-1 200:-1 201:-1 202:-1 203:-1 204:-1 205:-1 206:-1 207:-1 209:-1 210:-1 211:-1 212:1.40667 213:-1 214:-1 215:-1 216:0.480175 217:-1 218:-1 219:-1 220:-1 221:-1 222:-1 223:-1 224:-1 225:-1 226:-1 228:-1 229:-1 230:-1 231:-1 232:-0.309372 234:-1 235:29.7846 236:-1 237:-1 238:-1 239:-1 240:-1 241:-1 242:-1 243:-0.406832 244:-1 245:-1 246:-1 247:-1 248:-0.398367 249:-1 250:-1 251:-1 253:-1 254:-1 255:-1 256:-1 257:-1 258:-1 259:-1 260:-1 261:-1 262:0.372885 263:-1 264:-1 266:-1 267:-1 268:-1 269:-1 270:-1 271:-0.211941 272:-1 273:-1 274:-1 275:-1 276:-1 277:-1 278:-1 279:-1 280:-1 281:-1 282:-0.406832 283:-0.432228 284:-1 285:-1 286:-1 287:-1 288:-1 289:1.19875 290:-1 291:-1 292:-1 293:-1 295:-1 296:-1 297:-1 299:-1 300:-1 301:-1 302:-1 303:-0.97821 304:0.474682 305:-1 306:-1 307:-1 308:-1 309:-1 310:-1 311:-1 312:-1 313:1.76296 314:-1 315:-1 316:-0.631389 317:-1 318:-1 319:20.6173 320:-1 321:-1 322:-0.586676 323:-1 324:-1 325:-1 326:-1 327:-1 328:-1 331:-0.898304 332:-1 333:-1 334:-1 335:-1 336:-1 337:-1 338:-1 339:-1 340:-1 342:-0.406832 344:-0.699173 345:-1 346:-1 347:1.6859 348:1.60178 349:-1 350:-1 351:-1 352:-1 353:-1 354:-1 355:-1 356:-1 357:4.37242 358:-1 359:-1 360:-1 361:11.228 362:-0.90255 363:-0.318043 364:-1 365:-1 366:-1 367:-1 368:-1 369:-1 370:1.3644 371:-1 372:-1 373:-1 374:3.39751 375:-1 376:-1 377:-1 378:-1 379:-1 380:-1 381:0.805041 382:-1 383:-1 384:-1 385:-1 386:-1 387:0.759186 388:-1 389:-1 390:-0.398367 391:-1 393:-1 394:-1 395:-1 396:0.504207 397:-1 398:3.18056 399:-1 400:-1 401:-1 402:-1 403:-1 404:-1 405:-1 406:-1 407:-1 408:-1 409:-1 410:-1 411:-1 413:-1 414:1.70045 415:-1 416:25.4008 417:-1 418:-1 419:11.7237 422:-1 423:16.6012 424:-1 425:-1 426:-1 427:-1 428:-1 429:-1 430:-1 431:-1 432:-0.610148 433:-1 434:-1 435:-1 436:1.76284 437:-1 438:-1 439:-1 440:0.973361 441:-1 442:-1 443:-1 444:-1 445:-1 446:1.3644 447:-0.97821 448:1.94919 449:-1 450:-1 451:-1 452:-1 453:-1 454:-1 455:-1 456:-1 457:-1 458:-1 459:-1 460:2.59983 461:20.9886 462:-1 463:-1 464:-1 465:1.60178 466:-1 467:-1 468:-1 469:-1 470:-1 471:-1 472:-1 473:-1 474:0.343161 475:-1 476:-1 477:-1 478:-1 479:-1 480:0.805041 481:-1 482:-1 483:-1 484:-1 485:-1 486:0.135678 487:-1 488:-1 489:-1 490:-1 491:-1 492:0.0995199 493:4.22595 494:-1 497:-1 498:-1 499:-1 501:-1 502:-1 503:-1 504:-1 505:-1 506:-1 507:13.696 508:-1 509:-1 510:-1 511:-1 512:-1 513:-1 514:1.39989 515:-1 516:-1 518:-1 520:-1 521:-1 522:-1 523:-1 524:-1 525:-1 526:-1 527:-0.805097 528:-1 529:-1 530:-1 531:-1 532:-0.745777 533:-1 534:-1 535:-1 536:-1 537:-1 538:-0.398275 539:-1 540:-1 541:-1 542:-1 543:-1 544:-1 545:-1 
0.5 0.5 0 0:-0.745725 1:3.14477 3:-0.262746 4:-1 5:-0.309372 6:7.79606 7:1.93218 8:1.93218 9:-1 10:6.19966 11:-0.974572 12:-1 13:-1 14:-0.716047 15:-1 16:-1 17:-1 18:1.70045 20:-1 21:0.381806 22:-1 23:-1 24:-1 25:-1 26:-1 27:2.08594 28:-0.769736 29:-1 30:0.350542 31:-1 32:-1 33:-1 34:56.2004 35:-1 37:-1 38:1.70108 39:-1 40:-1 41:-1 42:-1 43:-1 44:-0.605877 45:-1 46:-1 47:4.52657 48:0.0169797 49:4.39873 50:-1 51:-1 52:-1 53:6.19966 54:-1 55:1.68664 56:-1 57:-1 58:-1 59:-1 60:-1 61:-1 63:-1 64:-0.703406 65:2.08631 66:0.381806 67:-1 68:-0.364522 69:-1 71:-0.0791132 72:-1 73:-1 74:3.40083 75:-1 76:-0.539448 77:2.60011 78:-1 79:-0.120199 80:5.36336 81:1.19927 82:0.343265 84:1.19927 85:-1 86:-1 87:-1 88:-1 89:0.80034 90:-1 91:-1 92:-0.279864 93:1.44913 94:6.19966 95:-0.309209 96:-1 97:0.907291 98:-0.598855 99:-1 100:-1 101:-1 102:-0.805097 103:-1 104:-1 105:-0.0178447 106:-0.902525 107:-1 108:-0.0791132 109:-1 110:-1 111:-1 112:-1 113:-1 114:-0.539448 115:-0.699113 116:-0.398367 117:1.76296 119:-1 120:-1 121:-0.37159 122:-0.703346 123:-1 124:-1 125:-0.485617 126:-0.631286 127:0.799915 128:-1 129:-1 130:2.54688 131:-1 132:0.705393 134:-0.408761 135:-1 136:-0.902525 137:1.93218 138:-1 139:-1 140:-1 141:-1 142:-1 143:-1 145:-1 146:0.773438 147:1.22117 148:-0.309209 149:-1 152:-0.309209 153:0.381255 154:-0.605877 155:-1 156:-1 157:-1 158:-1 159:0.381806 160:0.0185052 161:0.224855 162:-0.8884 163:-1 164:-1 165:-1 166:-0.406832 167:-1 168:-1 169:-1 170:-1 171:0.542972 172:-1 173:-1 174:-0.398367 175:-0.851668 176:0.203408 177:0.963847 178:-1 179:-1 180:-1 181:0.381806 182:-0.699113 183:-1 184:-0.722408 185:-0.851668 186:-1 187:-1 188:-1 189:-1 190:-1 191:-0.872859 192:-1 193:-0.703346 194:-1 195:-0.408761 196:-1 197:-0.406832 198:-1 199:0.182478 200:0.0996367 201:-1 202:-0.444852 203:0.182478 204:1.44942 205:-1 206:-1 207:-1 209:-1 210:-1 211:-1 212:1.10593 213:-0.49157 214:-1 215:-1 216:-1 217:-1 218:-1 219:-0.211941 220:-1 221:1.40017 222:-0.699113 223:-1 224:-1 225:-0.555073 226:-0.49157 228:-1 229:1.76284 230:5.4791 231:-1 232:-0.654605 234:-1 235:1.19927 236:-1 237:9.99429 238:-1 239:0.222382 240:-1 241:5.12312 242:14.241 243:-1 244:6.19966 245:-1 246:-0.899917 247:0.0285229 248:-1 249:-1 250:-1 251:0.466436 253:-1 254:0.800057 255:0.944929 256:-1 257:1.0149 258:-1 259:-1 260:-1 261:-0.605877 262:-1 263:-0.704401 264:-1 266:-0.0791132 267:-1 268:-1 269:-1 270:-1 271:-0.605877 272:3.14477 273:-1 274:-1 275:3.39862 276:0.136839 277:3.40083 278:-1 279:6.3308 280:-0.844317 281:-0.324837 282:-0.703346 283:-0.716047 284:-1 285:-1 286:-0.925835 287:-1 288:-1 289:-1 290:-1 291:-1 292:-1 293:-1 295:-1 296:-0.631286 297:0.200227 299:6.19966 300:-1 301:20.6173 302:-1 303:-0.989102 304:-1 305:-1 306:-1 307:-1 308:-0.0227194 309:-1 310:0.567808 311:8.1651 312:-1 313:-1 314:3.13811 315:-1 316:-0.44704 317:-1 318:12.2004 319:-1 320:-1 321:-1 322:-0.793362 323:9.81122 324:-1 325:-1 326:-1 327:-1 328:-1 331:-1 332:-1 333:-1 334:-1 335:-1 336:-0.703346 337:-1 338:-1 339:3.07404 340:-0.364522 342:-1 344:0.805105 345:0.466436 346:0.224566 347:0.343265 348:1.60178 349:-1 350:0.343265 351:-1 352:-0.408761 353:4.40017 354:5.36336 355:-1 356:-1 357:-1 358:-1 359:2.54688 360:-1 361:23.4589 362:-1 363:-1 364:-0.539448 365:-1 366:-0.880174 367:0.343265 368:4.49715 369:-1 370:-1 371:0.474682 372:-1 373:-1 374:7.79606 375:-1 376:-1 377:-1 378:-1 379:1.76284 380:-1 381:-0.0974796 382:1.70108 383:-1 384:-1 385:-1 386:-1 387:-1 388:9.81122 389:-0.237295 390:0.203408 391:-0.805097 393:-1 394:-0.120199 395:-0.279864 396:-0.849551 397:-0.827302 398:-1 399:-1 400:-1 401:-1 402:-1 403:-1 404:-1 405:0.944929 406:1.07205 407:-1 408:-1 409:-1 410:-1 411:-1 413:6.6223 414:0.350542 415:-1 416:7.79958 417:-0.408761 418:-1 419:5.36336 422:-1 423:7.79958 424:-0.398367 425:-0.309209 426:-1 427:1.93218 428:-1 429:-0.398367 430:-1 431:-1 432:-1 433:-0.237295 434:-1 435:3.39817 436:0.381255 437:0.381255 438:-0.872859 439:-1 440:-1 441:-1 442:-0.309209 443:-1 444:-0.780642 445:4.39873 446:-1 447:-0.97821 448:-1 449:-0.566312 450:-1 451:-0.398367 452:-0.120199 453:-1 454:-1 455:0.182478 456:-1 457:-0.563498 458:-1 459:-1 460:-1 461:-1 462:-1 463:-1 464:-1 465:-1 466:-0.851668 467:20.6173 468:-1 469:-0.37159 470:-1 471:-1 472:-1 473:2.54688 474:0.343161 475:-1 476:-1 477:-1 478:2.24038 479:-1 480:-0.0974796 481:-1 482:-1 483:-0.605877 484:-1 485:-1 486:-1 487:-1 488:-1 489:-1 490:-1 491:-1 492:0.0995199 493:-0.477306 494:-0.555858 497:-1 498:-0.2106 499:0.381806 501:-1 502:1.39989 503:1.76284 504:-0.0178447 505:-0.631286 506:0.381255 507:2.67399 508:-1 509:-1 510:0.80034 511:3.40083 512:1.19875 513:-1 514:1.39989 515:2.05552 516:-1 518:0.182182 520:-1 521:1.3644 522:-0.631355 523:2.90298 524:-0.902525 525:-1 526:-1 527:-1 528:1.03384 529:-1 530:-0.631286 531:-1 532:-1 533:-1 534:-0.699113 535:-0.745725 536:-0.983052 537:-1 538:-1 539:-1 540:-1 541:-0.211941 542:2.81458 543:0.270655 544:0.224855 545:-0.104607 
0.5 0.3277434396041211 0 0:-1 1:-1 3:-1 4:-1 5:-1 6:-1 7:-1 8:-1 9:-0.827869 10:-1 11:-0.927268 12:-1 13:-1 14:-1 15:-1 16:-1 17:-1 18:-1 20:-1 21:-1 22:-1 23:-1 24:-1 25:-1 26:-1 27:-1 28:-1 29:-1 30:2.86297 31:-1 32:-1 33:-1 34:24.1734 35:-1 37:-1 38:-1 39:-1 40:-1 41:-1 42:-1 43:-1 44:-1 45:-1 46:-1 47:-1 48:-0.272695 49:-1 50:-1 51:-1 52:-1 53:-1 54:-1 55:-1 56:-1 57:-1 58:-1 59:-1 60:-1 61:-1 63:-1 64:-1 65:-1 66:-1 67:-1 68:-1 69:-1 71:-1 72:-1 73:10.5258 74:-1 75:-1 76:-1 77:-1 78:-1 79:-1 80:-1 81:-1 82:-1 84:-1 85:-1 86:-1 87:-1 88:-1 89:-1 90:-1 91:-1 92:-1 93:-1 94:-1 95:-1 96:-1 97:-1 98:-1 99:-1 100:-1 101:-1 102:-1 103:-1 104:29.9235 105:-1 106:-1 107:-1 108:-1 109:-1 110:-1 111:-1 112:-1 113:-1 114:-1 115:-1 116:-0.139368 117:-1 119:-1 120:-1 121:-1 122:-1 123:-1 124:-1 125:-1 126:-1 127:-1 128:-1 129:-1 130:2.38225 131:-1 132:-1 134:-1 135:-1 136:-1 137:-1 138:-1 139:-1 140:-1 141:-1 142:-1 143:-1 145:-1 146:-1 147:-1 148:-1 149:-1 152:-1 153:-1 154:-1 155:-1 156:-1 157:-1 158:-1 159:-1 160:-1 161:-1 162:-1 163:-1 164:-1 165:-1 166:-1 167:-1 168:-1 169:-1 170:-1 171:-1 172:-1 173:-1 174:-0.139368 175:-1 176:-1 177:-1 178:-1 179:-1 180:-1 181:-1 182:-1 183:2.8727 184:-1 185:-1 186:-1 187:-1 188:-1 189:-1 190:-1 191:-1 192:-1 193:-1 194:-1 195:-1 196:-1 197:-1 198:-1 199:-1 200:-1 201:-1 202:-1 203:2.38225 204:-1 205:-1 206:-1 207:-1 209:0.691127 210:-1 211:-1 212:9.32687 213:-1 214:-1 215:-1 216:-1 217:-1 218:-1 219:-1 220:-1 221:-1 222:-1 223:-1 224:20.8022 225:-1 226:-0.272695 228:-1 229:-1 230:-1 231:-1 232:-1 234:-1 235:5.29061 236:-1 237:-1 238:-1 239:-1 240:-1 241:293.272 242:-1 243:-1 244:-1 245:-1 246:-1 247:-1 248:-1 249:-1 250:-1 251:-1 253:-1 254:-1 255:-1 256:-1 257:-1 258:-1 259:-1 260:-1 261:0.127313 262:-0.781806 263:-1 264:-1 266:-1 267:-1 268:3.41442 269:-1 270:-1 271:-1 272:-1 273:-1 274:-1 275:-1 276:-1 277:-1 278:-1 279:-1 280:-1 281:-1 282:-1 283:-1 284:-1 285:-1 286:-1 287:-1 288:-1 289:-1 290:-1 291:-1 292:-1 293:-1 295:-1 296:-1 297:-1 299:-1 300:-1 301:29.9235 302:-1 303:-1 304:-1 305:-1 306:-1 307:-1 308:-1 309:-1 310:-1 311:-1 312:-1 313:-1 314:-1 315:-1 316:-1 317:-1 318:-1 319:-1 320:-1 321:-1 322:-1 323:-1 324:-1 325:-1 326:-1 327:-1 328:-1 331:-1 332:-1 333:-1 334:2.17579 335:-1 336:-1 337:-1 338:-1 339:-1 340:0.817664 342:-1 344:0.721183 345:-1 346:-1 347:2.84216 348:-1 349:-1 350:-1 351:-1 352:-1 353:4.14953 354:-1 355:-1 356:-1 357:-1 358:-1 359:2.38225 360:-1 361:-1 362:-1 363:-1 364:-1 365:-1 366:-1 367:-1 368:-1 369:-1 370:-1 371:-1 372:-1 373:-1 374:-1 375:-1 376:-1 377:-1 378:-1 379:-1 380:-1 381:2.44224 382:-1 383:-1 384:-1 385:-1 386:-1 387:-1 388:-1 389:-1 390:-1 391:-1 393:-1 394:-1 395:-1 396:-0.139409 397:-1 398:-1 399:-1 400:-1 401:-1 402:-1 403:-1 404:-1 405:-1 406:-1 407:-1 408:-1 409:-1 410:-1 411:-1 413:-1 414:-1 415:-1 416:-1 417:-1 418:-1 419:17.2012 422:-1 423:-1 424:-1 425:-1 426:-1 427:-1 428:-1 429:-1 430:-1 431:-1 432:-1 433:-1 434:-0.187806 435:-1 436:-1 437:-1 438:-1 439:-1 440:-1 441:-1 442:-1 443:-1 444:-1 445:-1 446:-1 447:-0.937663 448:-1 449:-1 450:-1 451:-1 452:-1 453:2.50347 454:-1 455:-1 456:-1 457:-1 458:-1 459:-1 460:-1 461:24.1604 462:-1 463:-1 464:-1 465:-1 466:-1 467:29.9235 468:-1 469:-1 470:-1 471:-1 472:-1 473:2.38225 474:-1 475:-1 476:-1 477:-1 478:-1 479:-1 480:-0.139368 481:-1 482:-1 483:-1 484:-1 485:-1 486:-1 487:-1 488:-1 489:-1 490:-1 491:-1 492:-1 493:-1 494:-1 497:-1 498:-1 499:-1 501:-1 502:-1 503:-1 504:-1 505:-1 506:-1 507:-1 508:-1 509:-1 510:-1 511:-1 512:-1 513:-1 514:-1 515:-1 516:2.1453 518:1.25444 520:2.84216 521:-1 522:-1 523:-1 524:-1 525:-1 526:-1 527:-0.721192 528:-1 529:-1 530:-1 531:-1 532:-1 533:-1 534:-1 535:-1 536:-1 537:-1 538:-1 539:-1 540:-1 541:-1 542:-1 543:0.817664 544:-1 545:0.280854 
0.5 0.5 0 0:-1 1:-1 3:-1 4:-1 5:3.72469 6:-1 7:-1 8:-1 9:-1 10:-1 11:-1 12:-1 13:-1 14:-1 15:-1 16:-1 17:-1 18:-1 20:-1 21:-1 22:-1 23:8.45093 24:4.01488 25:-1 26:-1 27:-1 28:-1 29:-1 30:-1 31:-1 32:-1 33:-1 34:-1 35:-1 37:-1 38:-1 39:-1 40:-1 41:-1 42:-1 43:-1 44:-1 45:-1 46:-1 47:8.45093 48:-1 49:-1 50:-1 51:-1 52:-1 53:23.627 54:-1 55:-1 56:-1 57:-1 58:-1 59:-1 60:-1 61:-1 63:-1 64:-1 65:-1 66:-1 67:-1 68:-1 69:-1 71:-1 72:-1 73:8.18732 74:-1 75:-1 76:-1 77:-1 78:-1 79:5.01744 80:-1 81:-1 82:-1 84:-1 85:-1 86:-1 87:0.400493 88:-1 89:-1 90:-1 91:-1 92:-1 93:-1 94:-1 95:-1 96:-1 97:-1 98:-1 99:-1 100:-1 101:-1 102:-1 103:-1 104:-1 105:-1 106:-1 107:-1 108:-1 109:-1 110:-1 111:-1 112:-1 113:-1 114:-1 115:-1 116:-1 117:-1 119:-1 120:-1 121:-1 122:-1 123:-1 124:-1 125:-1 126:-1 127:5.15675 128:-1 129:-1 130:-1 131:-1 132:2.88865 134:-1 135:-1 136:-1 137:9.02976 138:-1 139:-1 140:-1 141:-1 142:-1 143:-1 145:-1 146:-1 147:-1 148:-1 149:-1 152:-1 153:-1 154:-1 155:-1 156:-1 157:-1 158:-1 159:-1 160:-1 161:-1 162:-1 163:-1 164:-1 165:-1 166:-1 167:-1 168:-1 169:-1 170:-1 171:-1 172:-1 173:-1 174:-1 175:-1 176:-1 177:5.7175 178:-1 179:-1 180:-1 181:-1 182:-1 183:-1 184:-1 185:-1 186:-1 187:-1 188:-1 189:-1 190:-1 191:-1 192:-1 193:-1 194:0.333364 195:-1 196:-1 197:-1 198:-1 199:-1 200:-1 201:-1 202:-1 203:-1 204:3.18873 205:-1 206:-1 207:-1 209:-1 210:-1 211:8.44939 212:1.05793 213:-1 214:-1 215:-1 216:-1 217:-1 218:-1 219:-1 220:-1 221:-1 222:1.05793 223:1.02898 224:-1 225:-1 226:-1 228:-1 229:-1 230:13.7737 231:-1 232:-1 234:-1 235:-1 236:-1 237:-1 238:-1 239:-1 240:-1 241:15.7549 242:-1 243:5.0868 244:-1 245:-1 246:-0.31548 247:-1 248:-1 249:-1 250:-1 251:-1 253:-1 254:-1 255:-1 256:-1 257:8.18878 258:-1 259:-1 260:-1 261:1.69562 262:-1 263:-1 264:-1 266:-1 267:-1 268:-1 269:-1 270:-1 271:-1 272:-1 273:-1 274:-1 275:-1 276:-1 277:29.0997 278:-1 279:-1 280:-1 281:-1 282:-1 283:-1 284:-1 285:-1 286:-1 287:-1 288:-1 289:6.52102 290:-1 291:-1 292:-1 293:-1 295:-1 296:-1 297:-1 299:-1 300:-1 301:-1 302:-1 303:-0.850929 304:-1 305:-1 306:-1 307:-1 308:-1 309:-1 310:-1 311:19.8983 312:-1 313:-1 314:-1 315:-1 316:-1 317:-1 318:-1 319:-1 320:-1 321:-1 322:-0.29318 323:-1 324:-1 325:-1 326:-1 327:-1 328:-1 331:-1 332:-1 333:-1 334:-1 335:-1 336:-1 337:-1 338:-1 339:-1 340:-1 342:-1 344:-1 345:-1 346:7.37746 347:-1 348:-1 349:-1 350:-1 351:-1 352:-1 353:11.3135 354:-1 355:-1 356:-1 357:-1 358:0.260891 359:-1 360:-0.130411 361:-1 362:-1 363:-1 364:-1 365:-1 366:-1 367:-1 368:-1 369:-1 370:-1 371:1.52184 372:-0.369554 373:-1 374:14.042 375:-1 376:-1 377:-1 378:-1 379:-1 380:6.38873 381:1.05793 382:-1 383:-1 384:-1 385:-1 386:-1 387:-1 388:-1 389:-1 390:-1 391:-1 393:-1 394:-1 395:3.9254 396:-1 397:-1 398:-1 399:-1 400:-1 401:-1 402:-1 403:8.18732 404:-1 405:-1 406:-1 407:-1 408:-1 409:-1 410:-1 411:-1 413:-1 414:-1 415:-1 416:-1 417:3.04381 418:-1 419:-1 422:-1 423:-1 424:-1 425:-1 426:-1 427:-1 428:-1 429:-1 430:1.02176 431:-1 432:-1 433:-1 434:-1 435:-1 436:-1 437:-1 438:-1 439:-1 440:-1 441:-0.333318 442:-1 443:-1 444:-1 445:-1 446:-1 447:-0.925465 448:-1 449:-1 450:-1 451:3.11587 452:-1 453:-1 454:-1 455:-1 456:-1 457:-1 458:-1 459:-1 460:-1 461:-1 462:-1 463:-1 464:-1 465:-1 466:-1 467:-1 468:-1 469:-1 470:-1 471:-0.777774 472:-1 473:-1 474:-1 475:-1 476:-1 477:-1 478:-1 479:-0.507242 480:-1 481:-1 482:-1 483:-1 484:-1 485:-1 486:-1 487:-1 488:-1 489:-1 490:-1 491:-1 492:-1 493:-1 494:-1 497:-1 498:-1 499:-1 501:-1 502:-1 503:-1 504:5.7175 505:-1 506:-1 507:-1 508:-1 509:-1 510:11.3135 511:-1 512:6.52102 513:-1 514:-1 515:-1 516:-1 518:1.69562 520:-1 521:-1 522:-1 523:-1 524:0.333364 525:-1 526:-1 527:-1 528:-1 529:-1 530:1.52184 531:-1 532:-1 533:-1 534:-1 535:-1 536:-1 537:-1 538:-1 539:-1 540:-1 541:-1 542:-1 543:-1 544:-1 545:2.06276 
0.3022857551166084 0.3620551158011626 0 0:-1 1:-1 3:1.21194 4:-0.699173 5:-0.309372 6:-1 7:-1 8:4.86505 9:-0.87967 10:-1 11:-0.8983 12:-1 13:-1 14:-1 15:-1 16:-1 17:-1 18:1.70045 20:0.661569 21:-1 22:0.343161 23:4.52657 24:-1 25:-1 26:-1 27:-1 28:-1 29:-1 30:7.10198 31:-1 32:-1 33:-1 34:60.6012 35:-1 37:0.474682 38:4.40089 39:20.6173 40:-1 41:-1 42:0.186476 43:-1 44:-1 45:-1 46:-1 47:-1 48:-1 49:-1 50:-1 51:-1 52:-1 53:-1 54:-1 55:-1 56:-1 57:-1 58:-1 59:-1 60:-1 61:-1 63:1.36468 64:-0.406741 65:3.62928 66:-1 67:-1 68:0.270655 69:-1 71:-1 72:1.93218 73:-1 74:-1 75:-1 76:-1 77:1.39989 78:-1 79:-1 80:11.7237 81:-1 82:-1 84:12.1936 85:-1 86:-1 87:-1 88:-1 89:2.59983 90:-1 91:-1 92:-1 93:-1 94:6.19966 95:-1 96:-1 97:-1 98:-1 99:-1 100:-1 101:-1 102:-1 103:-0.943445 104:42.2398 105:0.963847 106:-1 107:-1 108:-1 109:-1 110:-1 111:4.37242 112:-1 113:-1 114:-1 115:-1 116:-1 117:-1 119:-1 120:-1 121:1.51335 122:-1 123:-1 124:-1 125:-1 126:-1 127:-1 128:-1 129:-1 130:-1 131:-1 132:0.136839 134:-1 135:-1 136:-0.805097 137:-1 138:-1 139:-1 140:-1 141:-1 142:-1 143:-1 145:-1 146:-1 147:-1 148:0.381255 149:-1 152:-1 153:-1 154:-1 155:-1 156:-1 157:-1 158:-1 159:-1 160:-1 161:-1 162:-0.776853 163:-1 164:-1 165:-0.406832 166:0.779644 167:-1 168:-1 169:-1 170:0.474682 171:-1 172:-1 173:-1 174:0.203408 175:-0.703406 176:-1 177:-1 178:-1 179:-1 180:-1 181:-1 182:1.40667 183:0.20338 184:-1 185:-0.703406 186:-1 187:-1 188:-1 189:-1 190:-1 191:-1 192:-1 193:-1 194:-0.610148 195:-1 196:-1 197:-1 198:-1 199:-1 200:1.19875 201:-1 202:-1 203:-1 204:0.224566 205:-1 206:-1 207:-1 209:-1 210:23.4589 211:-1 212:9.8301 213:-1 214:-1 215:-1 216:-1 217:-1 218:-1 219:-1 220:-1 221:-1 222:-1 223:-1 224:29.4856 225:-1 226:-0.49157 228:-1 229:-1 230:-1 231:-1 232:-1 234:-1 235:12.1936 236:-1 237:-1 238:-1 239:-1 240:-1 241:1.44913 242:-1 243:-1 244:-1 245:-1 246:-1 247:-1 248:-1 249:-1 250:0.343161 251:1.93218 253:-1 254:-1 255:-1 256:-1 257:0.343161 258:-1 259:-1 260:-1 261:-1 262:-0.389841 263:-1 264:-1 266:-0.0791132 267:-1 268:-1 269:-1 270:-1 271:0.576304 272:1.76296 273:-1 274:-1 275:-1 276:-1 277:-1 278:-1 279:-1 280:-1 281:-1 282:-1 283:-1 284:0.224566 285:-0.406832 286:-0.851705 287:-1 288:-0.802273 289:1.19875 290:-1 291:9.7949 292:-1 293:-1 295:-1 296:-1 297:-1 299:-1 300:-1 301:-1 302:-1 303:-1 304:-1 305:6.19966 306:-1 307:-1 308:-0.0227194 309:-1 310:-1 311:5.10959 312:-1 313:-1 314:0.182199 315:-1 316:-1 317:-1 318:16.6012 319:20.6173 320:-1 321:-1 322:-1 323:-1 324:-0.699173 325:-0.878451 326:-1 327:-1 328:-1 331:-0.983052 332:-1 333:-1 334:-1 335:-1 336:-1 337:-1 338:7.79958 339:-1 340:-1 342:-0.406832 344:-0.0974475 345:-1 346:-1 347:4.37242 348:-1 349:-1 350:-1 351:-1 352:0.182199 353:2.59983 354:-1 355:-1 356:-1 357:4.37242 358:-1 359:-1 360:-1 361:35.6869 362:-1 363:-1 364:-1 365:-1 366:-1 367:4.37242 368:-1 369:-1 370:-1 371:-0.262746 372:-1 373:-1 374:7.79606 375:8.25856 376:-1 377:0.381255 378:-1 379:4.52535 380:1.16008 381:3.81335 382:-1 383:-1 384:-1 385:-1 386:-1 387:-1 388:-1 389:-1 390:-1 391:-1 393:-1 394:-1 395:1.8802 396:1.40676 397:-1 398:-1 399:-1 400:-1 401:-1 402:-1 403:-1 404:-1 405:-1 406:-1 407:-1 408:-1 409:-1 410:-1 411:-1 413:-1 414:-1 415:-1 416:-1 417:-1 418:-1 419:-1 422:-1 423:-1 424:-1 425:-1 426:-1 427:1.93218 428:-1 429:-1 430:-1 431:-1 432:-1 433:-1 434:-1 435:-1 436:-1 437:0.381255 438:-1 439:-1 440:-1 441:-1 442:-1 443:3.31906 444:-1 445:-1 446:-1 447:-0.934624 448:-1 449:-1 450:-1 451:-1 452:-1 453:-1 454:-1 455:-1 456:-1 457:-0.127202 458:-1 459:-0.886449 460:-1 461:16.5911 462:-1 463:-1 464:-1 465:-1 466:-1 467:63.8571 468:-1 469:-1 470:-1 471:-1 472:-1 473:1.3644 474:1.68664 475:-1 476:1.76296 477:-1 478:-1 479:-1 480:1.40667 481:-1 482:-1 483:-1 484:-1 485:-1 486:-0.432228 487:-1 488:-1 489:-1 490:-1 491:-1 492:-1 493:0.0451406 494:-1 497:1.19875 498:-1 499:-1 501:-1 502:1.39989 503:-1 504:-1 505:-0.262746 506:0.381255 507:-1 508:-1 509:3.39751 510:-1 511:-1 512:-1 513:-1 514:1.39989 515:-1 516:1.19875 518:-1 520:-1 521:6.09375 522:-0.508453 523:-1 524:-1 525:-1 526:-1 527:-1 528:0.525409 529:-1 530:-1 531:-1 532:-1 533:-1 534:-0.398367 535:-1 536:-0.9661 537:-1 538:-1 539:-1 540:-1 541:1.36436 542:-1 543:-1 544:-1 545:0.790997 
0.5 0.5 0 0:-0.744645 1:-1 3:-0.259614 4:-0.697895 5:-0.653138 6:1.20861 7:-1 8:1.94464 9:-0.939565 10:-1 11:-1 12:1.69731 13:-0.276805 14:-1 15:-1 16:-1 17:-1 18:1.71192 20:-0.16549 21:0.387675 22:-1 23:-1 24:-0.263668 25:-1 26:-1 27:0.549891 28:-1 29:-1 30:1.71192 31:-1 32:-1 33:-1 34:25.513 35:-1 37:0.110666 38:9.84895 39:9.85714 40:-0.836678 41:-1 42:-1 43:-0.714917 44:-0.604203 45:-1 46:-1 47:-1 48:-0.744645 49:-1 50:-1 51:-1 52:-1 53:-1 54:-1 55:1.69805 56:-0.753212 57:-1 58:-1 59:-1 60:-1 61:0.387675 63:-0.40625 64:-1 65:2.09942 66:-1 67:-0.48941 68:0.276053 69:-1 71:-1 72:1.94464 73:1.69731 74:7.83697 75:-1 76:-1 77:-1 78:-0.921819 79:-0.116463 80:-1 81:1.20861 82:-1 84:5.62481 85:-1 86:-1 87:-1 88:-1 89:-1 90:-1 91:0.387675 92:-0.276805 93:0.230058 94:9.84622 95:-1 96:-1 97:0.915392 98:-0.798599 99:17.4214 100:-1 101:-0.321969 102:-0.902111 103:-0.971596 104:42.4235 105:-1 106:-1 107:-1 108:-0.075201 109:-1 110:-1 111:1.69731 112:-1 113:-0.823131 114:-0.537492 115:-1 116:-0.697835 117:0.387675 119:-0.947113 120:-1 121:2.78588 122:-1 123:-1 124:-1 125:0.0328923 126:-1 127:-0.0960068 128:-1 129:-1 130:1.37444 131:-1 132:0.712638 134:-1 135:-1 136:-1 137:3.4173 138:0.230058 139:-0.714841 140:-0.395811 141:-1 142:-1 143:-1 145:-1 146:-1 147:-1 148:-0.306275 149:-1 152:0.387123 153:-1 154:-0.604203 155:-1 156:-0.370135 157:-1 158:-1 159:0.387675 160:2.06801 161:-1 162:-0.887926 163:-1 164:-1 165:-1 166:-0.702086 167:-1 168:-1 169:3.16237 170:-1 171:-0.225055 172:0.34897 173:-1 174:-1 175:-1 176:-1 177:-1 178:-1 179:-1 180:-1 181:-1 182:-0.697835 183:-0.697895 184:-0.442589 185:-1 186:-1 187:-1 188:-1 189:-1 190:-1 191:-1 192:-1 193:-1 194:-0.902111 195:-0.40625 196:1.6502 197:-0.404312 198:-1 199:0.1875 200:-1 201:-0.537492 202:-1 203:-1 204:0.229769 205:-1 206:-0.442494 207:-1 209:-1 210:-1 211:0.387123 212:1.71906 213:-1 214:-1 215:-1 216:-1 217:-1 218:-1 219:-1 220:-1 221:-0.397338 222:-0.0936457 223:-0.404312 224:14.3058 225:-1 226:-1 228:0.486485 229:1.77457 230:1.16922 231:-1 232:-1 234:-1 235:7.83342 236:-1 237:1.20861 238:-1 239:-1 240:-1 241:5.14913 242:14.3058 243:-1 244:6.23025 245:-1 246:-0.899492 247:-0.483432 248:-0.697835 249:5.62481 250:-0.325408 251:0.472664 253:-1 254:-1 255:-1 256:-1 257:-1 258:-1 259:-1 260:-0.733656 261:-0.604203 262:-1 263:0.187278 264:-1 266:2.23712 267:-1 268:-1 269:-1 270:-1 271:0.187204 272:1.7747 273:-0.306275 274:-1 275:3.4173 276:-1 277:-1 278:-1 279:0.472664 280:-1 281:-1 282:-0.702086 283:-1 284:-0.384971 285:-0.702086 286:-1 287:-1 288:-0.900693 289:-1 290:-1 291:-1 292:-1 293:3.51912 295:-0.325408 296:-0.62972 297:1.41008 299:-1 300:-1 301:42.4235 302:-0.893704 303:-0.989056 304:-1 305:2.61597 306:-1 307:-1 308:-0.509168 309:0.1875 310:-0.212581 311:11.2725 312:-1 313:0.387675 314:0.187221 315:-1 316:-0.814868 317:6.36194 318:12.2565 319:-1 320:-1 321:-1 322:-0.792485 323:-1 324:-1 325:-1 326:-1 327:-0.702086 328:-1 331:-1 332:-1 333:-1 334:-1 335:-1 336:-0.702086 337:-0.290327 338:3.41952 339:-1 340:0.276053 342:-1 344:0.35958 345:0.472664 346:2.6896 347:3.04628 348:-1 349:-1 350:0.34897 351:-1 352:-1 353:-1 354:5.39039 355:-0.0936457 356:-1 357:3.04628 358:-1 359:0.1875 360:-0.744697 361:35.8427 362:-1 363:-1 364:-1 365:-0.306275 366:-0.398439 367:0.34897 368:2.3124 369:-1 370:-1 371:-0.62972 372:-1 373:-1 374:3.41619 375:-1 376:-1 377:-0.306275 378:-1 379:-1 380:5.50828 381:-1 382:-1 383:-0.744645 384:-1 385:-1 386:-1 387:-1 388:-1 389:-1 390:-0.395811 391:-1 393:-1 394:-0.116463 395:3.33849 396:-0.848912 397:-0.826569 398:13.6956 399:-0.306275 400:-1 401:-1 402:-1 403:0.34897 404:-0.225055 405:-1 406:-1 407:-1 408:-1 409:-1 410:-1 411:-1 413:-1 414:-1 415:0.1875 416:16.676 417:-1 418:3.60202 419:-1 422:-1 423:7.83697 424:-0.0936457 425:-1 426:-1 427:0.472664 428:-0.702086 429:-1 430:-1 431:-1 432:-1 433:-1 434:-1 435:0.76666 436:0.387123 437:0.387123 438:-1 439:-1 440:-1 441:-1 442:-1 443:-1 444:-1 445:-1 446:-1 447:-0.956229 448:-0.62972 449:-1 450:-1 451:-0.0936457 452:-0.116463 453:-1 454:-1 455:-1 456:-1 457:-1 458:1.09965 459:-1 460:-1 461:1.20861 462:-1 463:-1 464:23.5628 465:-1 466:-1 467:31.5663 468:-1 469:-1 470:-1 471:-1 472:-1 473:1.37444 474:-0.325408 475:-1 476:1.7747 477:-1 478:0.084884 479:-1 480:0.20852 481:-1 482:-1 483:-0.604203 484:-1 485:-0.429031 486:-1 487:-1 488:-1 489:-1 490:-1 491:0.387675 492:0.104191 493:-1 494:-1 497:1.2081 498:-1 499:-1 501:-1 502:-1 503:1.08085 504:5.90336 505:-1 506:1.77457 507:1.45954 508:-1 509:3.41619 510:2.61512 511:-1 512:0.104307 513:-1 514:0.205324 515:-1 516:-1 518:-0.604203 520:-1 521:0.1875 522:-0.876577 523:4.22628 524:-0.902111 525:-1 526:-0.594607 527:-1 528:-0.48941 529:-1 530:-0.62972 531:-1 532:-1 533:-1 534:-0.697835 535:-0.744645 536:-0.98298 537:-1 538:-1 539:0.104307 540:-1 541:-0.604203 542:-1 543:-1 544:-1 545:-1 
0.5 0.2249014609270673 0 0:-1 1:8.28269 3:-1 4:-0.494693 5:-0.419886 6:2.69382 7:-1 8:3.92526 9:-0.797879 10:5.04758 11:-0.871888 12:5.76767 13:1.41869 14:-1 15:-1 16:-0.50175 17:-1 18:3.53601 20:-1 21:-1 22:-1 23:-1 24:-1 25:-1 26:-1 27:-1 28:-0.226623 29:-1 30:5.80433 31:-1 32:-1 33:-1 34:72.9086 35:-1 37:-1 38:-1 39:17.1582 40:-1 41:-1 42:-1 43:-1 44:-0.338045 45:-1 46:-1 47:5.96185 48:0.281094 49:-1 50:-1 51:-1 52:-1 53:5.04758 54:-1 55:1.25614 56:-1 57:-1 58:-1 59:-1 60:-1 61:1.32083 63:-1 64:-1 65:4.1839 66:-1 67:-1 68:0.0673264 69:1.05723 71:-1 72:-1 73:1.2561 74:-1 75:-1 76:-1 77:1.01586 78:-1 79:-1 80:41.7477 81:-1 82:1.2561 84:6.38661 85:-1 86:-1 87:-1 88:-1 89:-1 90:-1 91:-1 92:-1 93:13.3994 94:-1 95:-1 96:-1 97:-1 98:-0.663132 99:-1 100:-1 101:-1 102:-0.836285 103:-1 104:17.1582 105:-1 106:-1 107:-1 108:-1 109:-1 110:-1 111:-1 112:-0.572929 113:-1 114:-1 115:0.515939 116:-1 117:-1 119:-1 120:-1 121:0.0554567 122:-1 123:-1 124:-1 125:-1 126:-0.38072 127:2.02336 128:-1 129:-1 130:0.986049 131:-1 132:-0.0450765 134:-1 135:-1 136:-1 137:-1 138:-1 139:-1 140:-0.49464 141:-1 142:-1 143:17.1582 145:-1 146:-1 147:-1 148:1.32013 149:-1 152:-1 153:-1 154:-1 155:-1 156:-1 157:-1 158:-1 159:1.32083 160:-1 161:-1 162:-1 163:-1 164:-1 165:-1 166:-0.50175 167:-0.956645 168:-1 169:-1 170:-1 171:-1 172:-1 173:0.970922 174:-0.49464 175:-1 176:-1 177:2.29873 178:-1 179:-1 180:-0.572929 181:-1 182:-1 183:-1 184:-1 185:-1 186:-0.836285 187:-1 188:-1 189:-1 190:-1 191:-1 192:-1 193:-1 194:-0.836285 195:-1 196:1.95495 197:-0.50175 198:-1 199:-1 200:-1 201:-1 202:-0.0675924 203:-1 204:3.11416 205:-1 206:-1 207:-1 209:-1 210:-1 211:0.160228 212:1.0213 213:-1 214:-1 215:-0.38072 216:2.72961 217:-1 218:-1 219:-1 220:-1 221:0.00792976 222:0.0105786 223:-1 224:-1 225:-1 226:-1 228:-1 229:-1 230:2.62793 231:-1 232:-1 234:-1 235:10.0804 236:-1 237:2.69382 238:-1 239:-1 240:-1 241:5.1711 242:63.0072 243:-1 244:-1 245:-1 246:-1 247:-1 248:0.0105786 249:2.69382 250:-1 251:-1 253:-1 254:-1 255:-1 256:-1 257:0.12823 258:-1 259:-1 260:-1 261:-1 262:-1 263:-1 264:-1 266:-1 267:-1 268:-1 269:-1 270:-1 271:-1 272:-1 273:-1 274:-1 275:6.38824 276:-1 277:-1 278:-1 279:1.46298 280:-1 281:1.26764 282:-1 283:-1 284:0.0286127 285:-1 286:-1 287:-1 288:-1 289:-1 290:1.05723 291:8.06752 292:-1 293:-1 295:-1 296:-1 297:1.01586 299:-1 300:-1 301:89.7857 302:-1 303:-1 304:-1 305:-1 306:-1 307:17.1582 308:-1 309:-1 310:-1 311:29.7888 312:-1 313:-1 314:-0.00697545 315:-1 316:-1 317:1.46298 318:35.9553 319:-1 320:-1 321:-1 322:-1 323:-1 324:-1 325:-1 326:-1 327:-1 328:-1 331:-1 332:-1 333:-1 334:-1 335:-1 336:-0.50175 337:-1 338:-1 339:5.84327 340:-1 342:-1 344:0.0106855 345:-1 346:1.05694 347:-1 348:-1 349:-1 350:-1 351:-1 352:-0.00697545 353:2.02379 354:-1 355:-1 356:5.04758 357:-1 358:-0.845183 359:4.95759 360:-1 361:40.0823 362:-1 363:-1 364:-1 365:-1 366:-1 367:-1 368:0.846912 369:-1 370:-1 371:-0.38072 372:-1 373:-1 374:6.38661 375:1.59213 376:-1 377:-1 378:-1 379:-1 380:2.62835 381:0.515939 382:3.53665 383:-0.572929 384:-1 385:-1 386:-1 387:-1 388:-1 389:-1 390:2.03188 391:-1 393:-1 394:-1 395:1.41869 396:0.263375 397:-1 398:-1 399:0.160228 400:17.1325 401:-1 402:-1 403:-1 404:-1 405:-1 406:-1 407:-1 408:-1 409:-1 410:-1 411:-1 413:11.8022 414:-1 415:-1 416:6.39148 417:-1 418:-1 419:-1 422:-1 423:-1 424:0.0105786 425:-1 426:-1 427:1.46298 428:-1 429:-1 430:-1 431:-1 432:-1 433:-1 434:-1 435:0.477683 436:0.160228 437:-1 438:-1 439:-1 440:-1 441:-0.836285 442:0.160228 443:-1 444:-1 445:8.06752 446:-1 447:-1 448:-1 449:-1 450:0.281094 451:-0.49464 452:1.95495 453:-1 454:-1 455:-1 456:-1 457:-1 458:-1 459:-1 460:-1 461:10.0804 462:-1 463:-1 464:-1 465:3.37028 466:-0.750866 467:126.097 468:-1 469:-1 470:-1 471:-1 472:-1 473:2.97154 474:0.12823 475:-1 476:-1 477:-1 478:0.814428 479:-1 480:2.53724 481:-1 482:-1 483:-1 484:-1 485:-1 486:-1 487:-1 488:-1 489:-1 490:-1 491:-1 492:0.846892 493:-1 494:-1 497:-1 498:-1 499:1.32083 501:-1 502:-1 503:-1 504:-1 505:-0.38072 506:-1 507:-1 508:-1 509:-1 510:2.02379 511:-1 512:-1 513:-1 514:-1 515:-1 516:-1 518:-0.338045 520:-1 521:-1 522:-0.587217 523:3.37028 524:-1 525:-1 526:-1 527:-1 528:0.281094 529:-1 530:-1 531:0.477683 532:-1 533:-1 534:-1 535:-0.572929 536:-0.985764 537:-1 538:-1 539:-1 540:-1 541:0.323724 542:5.40684 543:-1 544:-1 545:-1 
0.462955609675048 0.2374224496355294 0 0:-1 1:-1 3:-1 4:0.12102 5:-1 6:-1 7:-1 8:-1 9:0.943144 10:-1 11:-0.968416 12:-1 13:-1 14:-0.647303 15:-1 16:-1 17:-1 18:0.677502 20:-1 21:-1 22:-0.165636 23:-1 24:-0.0892734 25:-1 26:-1 27:-1 28:-1 29:-1 30:0.677502 31:-1 32:-1 33:-1 34:-1 35:-1 37:-0.542022 38:-1 39:-1 40:-1 41:-0.764919 42:-1 43:-0.823657 44:-1 45:-1 46:-1 47:14.4444 48:-0.368453 49:-1 50:-1 51:-1 52:-1 53:-1 54:-1 55:-1 56:-1 57:-1 58:-1 59:-1 60:25.852 61:-1 63:-1 64:-1 65:2.83321 66:-1 67:-1 68:1.36767 69:-1 71:-1 72:-1 73:5.67258 74:-1 75:-1 76:-1 77:-1 78:-1 79:-1 80:-1 81:1.73171 82:-1 84:1.73171 85:-1 86:-1 87:-1 88:0.668463 89:-1 90:-1 91:-1 92:-1 93:21.8173 94:-1 95:-1 96:-0.293802 97:1.36904 98:-1 99:6.59596 100:-1 101:-1 102:-1 103:-1 104:39.2806 105:-1 106:-1 107:-1 108:-1 109:-0.882437 110:-1 111:-1 112:-1 113:-1 114:-1 115:-0.626269 116:-1 117:-1 119:-1 120:-1 121:-0.219454 122:-1 123:-1 124:-1 125:-1 126:-1 127:1.23577 128:-1 129:-1 130:-1 131:-1 132:-1 134:-0.265625 135:-1 136:-1 137:-1 138:-1 139:-1 140:-1 141:-1 142:-1 143:-1 145:-1 146:-1 147:7.27568 148:-1 149:-1 152:-1 153:-0.141972 154:-0.0211104 155:-1 156:-1 157:-1 158:-1 159:-1 160:-1 161:-1 162:-1 163:-1 164:-1 165:-1 166:-1 167:-1 168:-1 169:-1 170:-1 171:0.916606 172:-1 173:-0.271116 174:-0.25268 175:-0.815757 176:-1 177:0.21993 178:-1 179:-1 180:-1 181:-1 182:-0.626269 183:-0.252654 184:-1 185:-1 186:-1 187:-1 188:-1 189:-1 190:-0.605959 191:-1 192:-1 193:-1 194:-0.757901 195:-1 196:0.0927963 197:-0.263195 198:4.46625 199:-1 200:-1 201:-0.42795 202:-1 203:-1 204:-1 205:-1 206:-1 207:-1 209:-1 210:-1 211:-1 212:2.73674 213:-1 214:-1 215:-1 216:-1 217:-1 218:-1 219:-1 220:-1 221:-1 222:-1 223:-1 224:-1 225:-1 226:-1 228:-1 229:-1 230:-1 231:-1 232:-1 234:-1 235:1.73171 236:-1 237:-1 238:6.59596 239:-1 240:-1 241:30.9439 242:8.46763 243:-1 244:16.8862 245:-1 246:-1 247:-1 248:-1 249:4.46238 250:-1 251:4.46367 253:-1 254:-1 255:-1 256:-1 257:-1 258:-1 259:14.8048 260:-1 261:-1 262:-0.905249 263:-1 264:-1 266:-0.42795 267:-1 268:-1 269:-1 270:-1 271:-1 272:-1 273:-1 274:-1 275:-1 276:-0.293802 277:-1 278:-1 279:-1 280:-1 281:-1 282:-1 283:-1 284:-1 285:-1 286:-1 287:-1 288:-1 289:-1 290:-1 291:5.70573 292:-1 293:2.35387 295:-0.165636 296:-1 297:-1 299:-1 300:-1 301:-1 302:-1 303:-0.972933 304:-0.542022 305:-1 306:-0.654978 307:-1 308:-1 309:-1 310:23.3438 311:14.1781 312:-1 313:-1 314:-1 315:-0.265625 316:-1 317:0.821453 318:9.93043 319:-1 320:-1 321:-1 322:-1 323:-1 324:-1 325:-0.924495 326:-0.75522 327:-1 328:-0.962342 331:-1 332:14.189 333:-0.959599 334:-1 335:-1 336:-0.631527 337:-0.824416 338:-1 339:4.06058 340:1.36767 342:-1 344:-1 345:-1 346:9.64798 347:-1 348:-1 349:-1 350:-1 351:-1 352:-1 353:-1 354:-1 355:-1 356:-1 357:4.00475 358:-1 359:1.93694 360:-1 361:-1 362:-1 363:-1 364:-1 365:-1 366:-0.851165 367:-1 368:-1 369:-1 370:-1 371:-1 372:-1 373:-1 374:-1 375:-1 376:-1 377:-1 378:-1 379:-1 380:-1 381:-0.25268 382:-1 383:-1 384:-1 385:-1 386:-1 387:-1 388:-1 389:-1 390:-0.626269 391:-1 393:-1 394:1.18518 395:5.26032 396:-1 397:-1 398:-1 399:-0.141972 400:-1 401:-1 402:-1 403:-1 404:0.916606 405:-1 406:-1 407:-1 408:-1 409:-1 410:-1 411:-1 413:-1 414:-1 415:-1 416:26.3271 417:-1 418:-1 419:54.3183 422:-1 423:4.46625 424:-1 425:0.715729 426:-1 427:-1 428:-1 429:-1 430:-1 431:-1 432:-1 433:0.263095 434:-1 435:-1 436:-1 437:-1 438:-1 439:-1 440:-1 441:-1 442:-1 443:-1 444:-1 445:-1 446:-1 447:-0.959397 448:-1 449:-1 450:-1 451:-0.626269 452:-1 453:-1 454:-1 455:-1 456:-1 457:4.42095 458:-1 459:-1 460:-1 461:4.46238 462:-1 463:-1 464:-1 465:-1 466:-1 467:227.25 468:-1 469:0.560795 470:-0.877613 471:-1 472:-1 473:-1 474:0.66841 475:-1 476:-1 477:-1 478:-1 479:-1 480:-0.25268 481:-1 482:-1 483:-1 484:-1 485:-1 486:-1 487:-1 488:-1 489:-1 490:-1 491:-1 492:-1 493:-1 494:0.654789 497:-1 498:-1 499:-1 501:-1 502:-1 503:-1 504:0.21993 505:-0.542022 506:-1 507:-1 508:-1 509:-1 510:1.23619 511:-1 512:-1 513:-1 514:-1 515:2.79524 516:-1 518:15.6417 520:-1 521:-1 522:-1 523:-1 524:-1 525:-1 526:-1 527:-1 528:-1 529:-1 530:-1 531:-1 532:-1 533:-1 534:-0.25268 535:-1 536:-1 537:-1 538:-0.0657815 539:-1 540:-1 541:-1 542:-1 543:-1 544:-1 545:-1 
0.5 0.5 0 0:-1 1:0.884578 3:-1 4:-0.79481 5:-1 6:1.99948 7:-1 8:1 9:-0.835849 10:-1 11:-0.445085 12:0.832013 13:0.964316 14:-1 15:-1 16:-1 17:-1 18:-1 20:0.133333 21:-1 22:0.832303 23:-1 24:-1 25:-1 26:-1 27:1.10488 28:-1 29:-1 30:0.841938 31:-1 32:-1 33:-1 34:17.0083 35:-1 37:-1 38:2.68388 39:43.2398 40:-0.778196 41:-0.741826 42:-1 43:-0.806372 44:0.0750488 45:-1 46:-1 47:0.884578 48:-0.653207 49:-1 50:-1 51:-1 52:-1 53:-1 54:13.7449 55:-1 56:-1 57:-1 58:-1 59:-1 60:-1 61:0.884578 63:-1 64:-0.797697 65:0.0524399 66:2.76916 67:-0.653207 68:-0.133303 69:-1 71:-1 72:3 73:-1 74:-1 75:-1 76:0.256249 77:-1 78:-1 79:-1 80:-1 81:4.99896 82:-1 84:-1 85:-1 86:-1 87:-1 88:-1 89:-1 90:-1 91:-1 92:-1 93:4.01214 94:-1 95:-0.0578647 96:-1 97:-1 98:-0.863208 99:7.34055 100:-1 101:-1 102:-1 103:-0.922849 104:-1 105:-1 106:-0.734118 107:0.884578 108:-1 109:-0.870913 110:-1 111:0.832013 112:-1 113:-1 114:-1 115:-1 116:-1 117:-1 119:-1 120:-0.653207 121:-1 122:-1 123:-1 124:-1 125:-1 126:-1 127:0.227698 128:-1 129:-1 130:5.45145 131:-1 132:0.550845 134:-1 135:-1 136:-0.734118 137:3 138:0.67052 139:-1 140:-0.589634 141:-1 142:-1 143:-1 145:-0.797697 146:-1 147:2.02935 148:-1 149:-1 152:-0.0578647 153:-1 154:1.15028 155:-0.497129 156:-1 157:-1 158:7.34055 159:-1 160:-1 161:-1 162:-1 163:0.884578 164:-0.881703 165:-0.190816 166:-1 167:-1 168:-1 169:-1 170:-1 171:-1 172:0.832013 173:-1 174:-0.589634 175:-1 176:-1 177:0.339513 178:-1 179:-1 180:-0.653207 181:-1 182:-0.589634 183:3.30928 184:-1 185:-1 186:-1 187:-1 188:-1 189:-1 190:-1 191:-0.826598 192:-1 193:-1 194:-1 195:-1 196:1.39983 197:-1 198:5.00208 199:-1 200:0.499741 201:-1 202:-1 203:-1 204:-0.16474 205:-0.58962 206:-0.242861 207:-1 209:-1 210:-1 211:1.82673 212:3.51431 213:-0.653207 214:-1 215:-1 216:-1 217:-1 218:-1 219:-0.462476 220:-1 221:0.63693 222:-0.589634 223:-0.595408 224:-1 225:-1 226:-1 228:-1 229:-0.0578647 230:1.94597 231:-1 232:-1 234:-1 235:1.99948 236:-0.250032 237:-1 238:-1 239:0.667147 240:-1 241:14.0358 242:-1 243:-1 244:-1 245:-1 246:-1 247:-1 248:-0.589634 249:-1 250:-1 251:-1 253:-0.224577 254:0.63693 255:1.65259 256:-1 257:-1 258:-1 259:-1 260:-1 261:-0.462476 262:-0.479768 263:-1 264:-1 266:1.51271 267:-1 268:-1 269:-1 270:-1 271:-1 272:-1 273:-1 274:-1 275:3 276:-0.224577 277:5.00208 278:0.00574213 279:1 280:-0.575343 281:-1 282:-1 283:-1 284:-0.16474 285:-1 286:-0.89885 287:-1 288:-0.865133 289:0.499741 290:-1 291:21.0917 292:-1 293:-1 295:-0.0838485 296:0.00574213 297:-1 299:-1 300:-1 301:28.4898 302:-1 303:-1 304:-1 305:3.91079 306:-1 307:-1 308:-0.33341 309:-1 310:2.20851 311:24.005 312:0.841938 313:0.884578 314:-0.193638 315:-0.193638 316:-0.748575 317:-1 318:-1 319:-1 320:-0.803482 321:-0.589634 322:-0.859055 323:-1 324:-1 325:-1 326:-0.731225 327:-0.595408 328:-1 331:-1 332:-1 333:-0.911277 334:-1 335:-1 336:-1 337:-1 338:-1 339:12.8952 340:-1 342:-1 344:-0.384359 345:-1 346:-0.16474 347:0.832013 348:0.774639 349:-1 350:-1 351:0.612723 352:-1 353:-1 354:-1 355:-1 356:-1 357:4.49667 358:-0.74857 359:3.83873 360:-0.826598 361:15.6811 362:-1 363:-1 364:-1 365:-0.0578647 366:-1 367:0.832013 368:-1 369:-1 370:0.612723 371:-0.497129 372:-1 373:-1 374:4.99896 375:-1 376:13.7449 377:-1 378:-1 379:-1 380:1.94672 381:-0.589634 382:-1 383:-1 384:-1 385:-0.54766 386:-1 387:0.199917 388:-1 389:-0.653207 390:-0.589634 391:-0.867059 393:-1 394:-1 395:0.964316 396:0.0260215 397:-1 398:-1 399:-1 400:-1 401:-1 402:-1 403:-1 404:-1 405:-1 406:-1 407:-1 408:-1 409:-1 410:-1 411:-1 413:-1 414:0.841938 415:-1 416:5.00208 417:-1 418:-1 419:-1 422:-1 423:5.00208 424:-0.589634 425:-1 426:-1 427:-1 428:-1 429:-0.589634 430:-1 431:-1 432:-1 433:-1 434:-1 435:-1 436:-1 437:-1 438:-1 439:-1 440:-1 441:-0.734118 442:-1 443:1.94597 444:-1 445:-1 446:-1 447:-0.985137 448:-1 449:-0.408514 450:-0.653207 451:-0.589634 452:0.199917 453:0.67052 454:-1 455:-1 456:-1 457:0.190648 458:-1 459:-1 460:-1 461:-1 462:-1 463:-1 464:-1 465:4.32453 466:-1 467:-1 468:-1 469:-0.142942 470:-1 471:-1 472:-1 473:-1 474:0.832303 475:-1 476:0.884578 477:1.60126 478:-1 479:-1 480:-0.179269 481:-1 482:-1 483:-1 484:-1 485:-1 486:-1 487:-1 488:-1 489:-1 490:-1 491:0.884578 492:-1 493:-1 494:-0.394257 497:-1 498:-1 499:-1 501:-1 502:0.63693 503:-1 504:-1 505:-1 506:-0.0578647 507:-1 508:-1 509:7.99948 510:-1 511:-1 512:-1 513:28.3401 514:0.63693 515:3.16727 516:-1 518:4.37562 520:-1 521:0.612723 522:-0.497086 523:-1 524:-0.734118 525:-1 526:-1 527:-1 528:-0.306414 529:-1 530:-1 531:-1 532:-1 533:-1 534:-0.589634 535:-1 536:-0.953756 537:-0.589634 538:-1 539:-1 540:-1 541:-1 542:-1 543:-0.133303 544:-1 545:-1 
0.3170758074355391 0.1272042199344931 0 0:-1 1:-1 3:0.414651 4:-0.711385 5:-1 6:3.21899 7:-1 8:4.6263 9:-1 10:5.90739 11:-0.95122 12:1.57686 13:-1 14:-1 15:-1 16:-1 17:-1 18:-1 20:-1 21:-1 22:0.288635 23:-1 24:-1 25:1.57686 26:-1 27:-1 28:-0.558272 29:-0.715446 30:17.1358 31:-1 32:-1 33:-1 34:117.195 35:-1 37:0.414651 38:-1 39:-1 40:-1 41:-1 42:-1 43:-1 44:0.512136 45:-1 46:-1 47:4.3016 48:-0.0244195 49:-1 50:-1 51:-1 52:10.7316 53:-1 54:-1 55:0.288635 56:-1 57:-1 58:-1 59:-1 60:19.7398 61:-1 63:1.26842 64:-0.715446 65:1.96067 66:-1 67:-1 68:0.219073 69:1.34971 71:-1 72:-1 73:1.57686 74:-1 75:-1 76:-1 77:3.60493 78:-1 79:-1 80:72.2432 81:-1 82:-1 84:7.43799 85:-1 86:-1 87:-1 88:1.57686 89:-1 90:-1 91:-1 92:-1 93:8.39884 94:-1 95:-1 96:-1 97:-1 98:-1 99:-1 100:-1 101:-1 102:-1 103:-1 104:-1 105:2.76825 106:-1 107:-1 108:-1 109:-1 110:-0.430911 111:-1 112:-1 113:-1 114:-1 115:-0.42279 116:-1 117:-1 119:-1 120:-1 121:1.41103 122:-1 123:-1 124:-1 125:-1 126:-0.292674 127:0.726848 128:-1 129:-1 130:-1 131:-1 132:1.18138 134:1.26842 135:-1 136:-1 137:1.81315 138:-1 139:-1 140:-1 141:-1 142:-1 143:-1 145:-1 146:0.134208 147:-1 148:0.325183 149:-1 152:-1 153:-1 154:-0.243932 155:-1 156:-1 157:-1 158:-1 159:-1 160:-1 161:-1 162:-1 163:-1 164:-0.833606 165:-1 166:-1 167:-0.950481 168:-1 169:-1 170:-1 171:0.480335 172:-1 173:0.125727 174:-0.42279 175:-1 176:-1 177:2.76825 178:1.57686 179:-1 180:-1 181:-1 182:0.15442 183:-0.711385 184:-1 185:-0.715446 186:-1 187:-1 188:-1 189:-1 190:-1 191:-1 192:-1 193:-1 194:-0.813009 195:-1 196:2.37554 197:-1 198:-1 199:-1 200:-1 201:-1 202:-1 203:1.26842 204:0.174855 205:-1 206:-1 207:-1 209:-1 210:-1 211:-1 212:3.04047 213:-1 214:-1 215:-1 216:1.84017 217:-1 218:-1 219:-1 220:-1 221:0.151232 222:-1 223:-0.430911 224:-1 225:-1 226:-1 228:-1 229:0.325183 230:3.14373 231:-1 232:-1 234:-1 235:-1 236:-1 237:-1 238:-1 239:-1 240:-1 241:-1 242:-1 243:-1 244:-1 245:-1 246:-1 247:-1 248:0.731629 249:3.21899 250:-1 251:-1 253:-1 254:-1 255:-1 256:-1 257:-1 258:-1 259:-1 260:-1 261:-1 262:-0.707322 263:-0.432936 264:-1 266:0.767007 267:-1 268:-1 269:-0.863821 270:1.6508 271:0.512136 272:-1 273:-1 274:-1 275:4.6263 276:-1 277:-1 278:-1 279:4.6263 280:-1 281:-1 282:-1 283:-1 284:-1 285:-0.430911 286:-1 287:-1 288:-1 289:-1 290:-1 291:30.0701 292:-1 293:0.726848 295:-1 296:-1 297:-1 299:5.90739 300:-1 301:40.4796 302:-1 303:-0.979094 304:-1 305:-1 306:-1 307:19.7398 308:-1 309:-1 310:-1 311:34.1694 312:-1 313:-1 314:1.26842 315:-1 316:-0.646353 317:-1 318:7.44237 319:-1 320:-1 321:-1 322:-1 323:-1 324:-1 325:-1 326:-1 327:-0.430911 328:-1 331:-1 332:-1 333:-1 334:-1 335:-1 336:0.138177 337:-1 338:-1 339:6.81731 340:0.219073 342:-1 344:0.154461 345:-1 346:1.34971 347:1.57686 348:-1 349:-1 350:-1 351:-1 352:0.134208 353:-1 354:-1 355:-1 356:-1 357:-1 358:-1 359:5.80525 360:-1 361:22.4632 362:-1 363:-1 364:-1 365:-1 366:-1 367:1.57686 368:-1 369:-1 370:-1 371:-1 372:-1 373:-1 374:3.21899 375:-1 376:-1 377:0.325183 378:-1 379:1.65037 380:-1 381:0.731629 382:4.18164 383:-0.51221 384:-1 385:-1 386:-1 387:-1 388:-1 389:-1 390:-1 391:-1 393:-1 394:-1 395:3.14444 396:0.443076 397:-1 398:-1 399:0.325183 400:19.7134 401:7.44237 402:-1 403:-1 404:-1 405:-1 406:1.65037 407:-1 408:-1 409:-1 410:-1 411:-1 413:-1 414:-1 415:1.26842 416:-1 417:-1 418:-1 419:11.2072 422:-1 423:-1 424:-0.42279 425:-1 426:-1 427:4.6263 428:-1 429:-1 430:-1 431:-1 432:-0.813009 433:-0.51221 434:-1 435:0.687772 436:-1 437:-1 438:-1 439:-1 440:-1 441:-1 442:0.325183 443:-1 444:-1 445:-1 446:-1 447:-0.958189 448:-1 449:-0.168031 450:-1 451:-0.42279 452:2.37554 453:-1 454:-1 455:-1 456:-1 457:-1 458:-1 459:-1 460:-1 461:7.43799 462:-1 463:-1 464:-1 465:3.99232 466:-1 467:61.2194 468:-1 469:0.205516 470:-1 471:-1 472:-0.756098 473:-1 474:-1 475:-1 476:1.6508 477:-1 478:1.07239 479:-1 480:1.88605 481:-1 482:-1 483:-1 484:-1 485:-1 486:-1 487:-1 488:-1 489:-1 490:-1 491:4.3016 492:0.0548852 493:-1 494:-0.147977 497:-1 498:-1 499:-1 501:-1 502:-1 503:-1 504:0.884125 505:-1 506:-1 507:-1 508:-1 509:-1 510:9.36109 511:-1 512:-1 513:-1 514:-1 515:-1 516:-1 518:-0.243932 520:-1 521:-1 522:-0.528463 523:-1 524:-1 525:-1 526:-1 527:-1 528:-0.51221 529:-1 530:-1 531:-1 532:-1 533:-1 534:-1 535:-0.51221 536:-0.96748 537:-1 538:-1 539:-1 540:-1 541:-0.243932 542:-1 543:-1 544:-1 545:-1 
0.3859440324118862 0.3548067108378997 0 0:-0.676606 1:2.51549 3:-0.53106 4:-0.234478 5:-1 6:-1 7:0.865052 8:0.865052 9:-1 10:3.57944 11:-0.96766 12:-1 13:-1 14:-0.277588 15:-1 16:-1 17:0.757418 18:4.1536 20:0.0568627 21:0.757418 22:-1 23:-1 24:0.865398 25:-1 26:-1 27:0.962855 28:-1 29:-1 30:0.717655 31:-1 32:-1 33:-1 34:-1 35:-1 37:0.406995 38:-1 39:-1 40:-1 41:-1 42:-1 43:-1 44:-1 45:-1 46:-0.313026 47:4.27291 48:-0.353093 49:-1 50:-1 51:4.59585 52:6.77778 53:3.57944 54:-1 55:-1 56:-1 57:-1 58:-1 59:-1 60:26.5051 61:-1 63:-1 64:-0.433972 65:1.94465 66:2.51549 67:-1 68:1.42495 69:-1 71:-1 72:-1 73:-1 74:-1 75:-1 76:-1 77:-1 78:-1 79:-1 80:23.2823 81:-1 82:-1 84:4.59523 85:-0.145665 86:-1 87:-1 88:0.708399 89:1.28972 90:12.735 91:-1 92:-1 93:8.34855 94:-1 95:-1 96:-1 97:-1 98:-0.617267 99:6.77778 100:-1 101:-0.14131 102:-1 103:-1 104:-1 105:1.49873 106:-1 107:-1 108:-0.414258 109:-0.879623 110:-1 111:-1 112:-1 113:-1 114:-1 115:-1 116:-0.617323 117:-1 119:-1 120:-1 121:-1 122:-1 123:-1 124:-1 125:-1 126:-0.53106 127:2.435 128:-0.83291 129:-1 130:0.503906 131:-1 132:-1 134:-0.248047 135:-1 136:-1 137:0.865052 138:-1 139:-1 140:-1 141:-1 142:-1 143:-1 145:-1 146:-0.248047 147:1.82495 148:-1 149:-1 152:-0.121434 153:-0.121434 154:-1 155:-1 156:-1 157:-1 158:-1 159:-1 160:-1 161:-1 162:-1 163:0.757418 164:-1 165:-1 166:-1 167:-1 168:-0.676606 169:-1 170:-0.0619454 171:-0.0185725 172:-1 173:-1 174:-0.617323 175:-0.622624 176:0.148172 177:2.74786 178:0.708399 179:-1 180:-0.676606 181:0.757418 182:-1 183:-1 184:-1 185:-1 186:-1 187:-1 188:-1 189:-1 190:-1 191:-1 192:-1 193:-0.245275 194:-1 195:-1 196:-1 197:-0.622708 198:-1 199:0.503906 200:0.398547 201:-1 202:-1 203:3.51228 204:0.558092 205:-1 206:-1 207:-1 209:-0.248047 210:22.3362 211:-0.121434 212:0.53099 213:-0.676606 214:-1 215:-1 216:-1 217:-1 218:1.82495 219:-1 220:-1 221:-1 222:-1 223:0.886742 224:-1 225:-1 226:-1 228:-1 229:1.63602 230:1.7472 231:-1 232:-1 234:-0.749361 235:10.1905 236:-0.300636 237:-1 238:-1 239:-1 240:-1 241:25.4867 242:8.69424 243:-0.622708 244:-1 245:-1 246:-1 247:-1 248:0.53099 249:4.59523 250:-1 251:0.865052 253:-1 254:0.526763 255:-1 256:-1 257:-0.145665 258:-1 259:-1 260:-1 261:-0.498745 262:-1 263:-1 264:-1 266:0.757444 267:-1 268:-1 269:-1 270:-1 271:0.503952 272:-1 273:-0.121434 274:-1 275:2.7308 276:1.16957 277:-1 278:-1 279:4.59585 280:-1 281:0.7177 282:-0.622708 283:-0.638861 284:-1 285:-1 286:-1 287:-1 288:-1 289:-1 290:-1 291:26.4701 292:-1 293:0.14486 295:-1 296:-1 297:3.58001 299:3.57944 300:-1 301:-1 302:-1 303:-1 304:-1 305:-1 306:-1 307:12.75 308:-1 309:-1 310:2.98964 311:33.9805 312:-1 313:0.757418 314:0.504185 315:-1 316:-1 317:-1 318:4.59709 319:-1 320:-1 321:-0.617323 322:-1 323:-1 324:-0.808655 325:-1 326:-1 327:-1 328:-1 331:-1 332:-1 333:-1 334:1.82473 335:-1 336:-0.245275 337:-0.64036 338:-1 339:4.18365 340:-1 342:0.132017 344:-1 345:0.865052 346:2.11618 347:2.41743 348:7.27571 349:-1 350:0.708399 351:2.00837 352:-1 353:1.28972 354:15.1892 355:-1 356:-1 357:4.12583 358:-1 359:11.0329 360:-1 361:6.77778 362:-1 363:-1 364:-1 365:-1 366:-0.695148 367:-1 368:0.398547 369:-1 370:-1 371:-0.0619454 372:-0.941384 373:-0.8922 374:1.79709 375:0.962855 376:26.5051 377:-0.121434 378:-1 379:-0.121434 380:0.373949 381:-0.617323 382:2.43531 383:-1 384:-1 385:-1 386:-1 387:-1 388:12.75 389:-1 390:-1 391:-0.876029 393:0.503906 394:1.23832 395:0.832116 396:-0.425894 397:-0.780359 398:-1 399:-1 400:-1 401:-1 402:-1 403:-1 404:-1 405:1.47361 406:-1 407:5.87189 408:0.962855 409:-1 410:-1 411:-1 413:8.69424 414:-1 415:0.503906 416:-1 417:-1 418:-1 419:31.3784 422:-1 423:-1 424:-1 425:-0.121434 426:-1 427:-1 428:-1 429:-0.617323 430:-1 431:-1 432:-1 433:-0.0296994 434:-1 435:1.23832 436:0.757457 437:-1 438:-1 439:-1 440:-1 441:-1 442:-1 443:1.7472 444:-1 445:5.86624 446:0.503906 447:-1 448:-1 449:-1 450:-0.676606 451:-0.617323 452:-1 453:-1 454:-1 455:-1 456:-1 457:1.22103 458:1.6591 459:-1 460:1.28972 461:-1 462:-1 463:-1 464:-1 465:2.31041 466:-0.811347 467:81.5153 468:12.75 469:-0.200771 470:-1 471:-1 472:-1 473:0.503906 474:0.708987 475:-1 476:-1 477:-1 478:-1 479:-1 480:-1 481:-1 482:-1 483:-1 484:-1 485:-0.276898 486:-1 487:-1 488:-0.838298 489:-1 490:-1 491:2.51549 492:-0.300636 493:-1 494:-1 497:-1 498:-0.748975 499:-1 501:-1 502:-1 503:-1 504:2.74786 505:-0.53106 506:-1 507:-1 508:-1 509:-1 510:-1 511:4.59709 512:-1 513:26.3604 514:0.52648 515:-1 516:-1 518:1.50665 520:-1 521:-1 522:-1 523:0.654897 524:-0.876029 525:-1 526:-1 527:-1 528:-1 529:-1 530:-1 531:0.118954 532:-1 533:-1 534:-1 535:-0.676606 536:-1 537:-1 538:-1 539:-1 540:-1 541:0.00269692 542:-1 543:-1 544:-1 545:-1 
0.2846971360366661 0.1427754187638944 0 0:-0.704206 1:0.0714053 3:-0.714112 4:-0.358231 5:-0.866015 6:1.55838 7:0.705882 8:2.41176 9:-0.90665 10:1.79184 11:-1 12:0.0415214 13:-1 14:-0.889849 15:-0.916157 16:-0.884922 17:-0.463971 18:-0.476099 20:0.61098 21:-0.463971 22:-1 23:-1 24:0.13737 25:1.60412 26:-1 27:0.19665 28:-1 29:-1 30:8.95029 31:-1 32:-1 33:-1 34:0.707165 35:-0.769985 37:-0.142161 38:9.47419 39:-1 40:-1 41:-0.963284 42:-0.539829 43:-0.88992 44:-1 45:-0.478922 46:-0.581188 47:1.67884 48:-0.704206 49:-1 50:0.0714053 51:0.137024 52:-1 53:-1 54:-1 55:-0.73942 56:-1 57:-1 58:4.11942 59:-0.138365 60:-1 61:1.14346 63:-0.541574 64:-0.827447 65:5.28405 66:-1 67:-1 68:2.20348 69:0.424855 71:-1 72:2.41176 73:-1 74:0.707165 75:-1 76:-0.28559 77:-0.0693854 78:-1 79:0.36475 80:11.3363 81:0.705241 82:2.1252 84:1.55838 85:-0.479157 86:-1 87:-0.960284 88:1.60412 89:1.79269 90:-1 91:1.14346 92:-0.720646 93:2.8 94:5.98046 95:-0.464385 96:-0.779447 97:-0.260126 98:-0.961092 99:13.228 100:-0.479157 101:-0.738091 102:-0.924422 103:-0.97807 104:11.5765 105:1.28505 106:-0.962188 107:-0.463971 108:-0.821343 109:-0.963284 110:-1 111:2.1252 112:-1 113:-1 114:-0.464247 115:-0.299965 116:-0.533262 117:-0.463971 119:-1 120:-1 121:0.705813 122:-1 123:-0.779832 124:-1 125:-0.800461 126:-0.856969 127:0.396347 128:-0.796206 129:-0.0828683 130:0.834263 131:-1 132:0.32278 134:-0.770647 135:-0.650807 136:-0.962188 137:3.54948 138:-1 139:-1 140:-0.88328 141:-1 142:-1 143:3.19388 145:-1 146:0.146205 147:0.722222 148:0.339201 149:-0.463971 152:-0.732029 153:-0.732029 154:-0.847112 155:-0.856969 156:-1 157:-1 158:3.7417 159:-1 160:-1 161:0.424855 162:-1 163:-1 164:-0.932747 165:-0.539829 166:-1 167:-0.979985 168:-0.802844 169:0.607434 170:-0.428049 171:-0.401675 172:-1 173:-0.545001 174:-0.649982 175:-0.769907 176:-0.766702 177:1.66605 178:0.0415214 179:-1 180:-0.901362 181:-0.463971 182:-0.766702 183:-1 184:-0.892317 185:-1 186:-1 187:-0.769985 188:-1 189:1.37229 190:-0.876937 191:-1 192:-1 193:-0.654907 194:-0.962188 195:-1 196:0.0234586 197:-0.424892 198:-1 199:2.20982 200:0.27919 201:-0.464247 202:-0.569557 203:0.375558 204:-0.05 205:-1 206:-0.784648 207:-1 209:-1 210:20.342 211:-0.464385 212:-0.533262 213:-1 214:-0.847112 215:-1 216:-0.712838 217:-1 218:-0.138365 219:-1 220:-0.73942 221:-1 222:-0.416684 223:-1 224:10.8237 225:-0.884988 226:-1 228:-1 229:0.0715566 230:1.51274 231:-0.770647 232:-1 234:-0.923553 235:-1 236:-0.147009 237:0.705241 238:10.8557 239:-0.525815 240:-1 241:8.02428 242:1.95683 243:-1 244:19.9431 245:-0.802844 246:-0.922399 247:-0.401626 248:-0.299965 249:3.26362 250:-0.218577 251:6.96125 253:-0.779447 254:-0.767205 255:-1 256:-1 257:-0.218577 258:-1 259:-1 260:-1 261:-0.541523 262:-1 263:-0.426937 264:11.5765 266:0.785916 267:-1 268:-0.401311 269:-1 270:-1 271:-0.694411 272:0.607434 273:0.339201 274:-1 275:0.137024 276:-0.33861 277:2.41225 278:-0.856969 279:-1 280:-0.758504 281:0.308906 282:-0.654907 283:-1 284:-0.762428 285:-0.769985 286:-0.913725 287:-1 288:-0.923326 289:-0.57343 290:-1 291:-1 292:-0.943305 293:2.49065 295:-0.73942 296:-0.714112 297:5.05041 299:0.396771 300:-0.784648 301:19.9592 302:-1 303:-0.978873 304:-0.714112 305:5.98046 306:-1 307:15.7704 308:-0.621036 309:-1 310:-0.392044 311:17.9575 312:0.0471638 313:0.607434 314:-0.0828683 315:-1 316:-0.928488 317:0.705882 318:4.11942 319:3.19388 320:-0.944138 321:-0.88328 322:-1 323:-1 324:-1 325:-0.976419 326:-0.923553 327:-0.884922 328:-0.988239 331:-1 332:-1 333:-0.949544 334:-1 335:-0.88328 336:-0.654907 337:-0.78072 338:4.11942 339:1.37019 340:-0.260759 342:-0.769985 344:-0.883347 345:-0.431142 346:8.97428 347:-1 348:1.52257 349:-1 350:-0.478922 351:-0.0831473 352:-1 353:3.18862 354:1.46847 355:-1 356:-1 357:-1 358:-1 359:1.75112 360:-0.95068 361:1.37229 362:-1 363:-0.867697 364:-0.821343 365:-1 366:-0.814126 367:2.1252 368:-0.57343 369:-0.0831473 370:-1 371:-0.714112 372:-0.946386 373:-1 374:0.705241 375:0.795339 376:-1 377:-0.732029 378:-0.923553 379:-0.464385 380:-1 381:-0.766702 382:-1 383:-0.408412 384:-1 385:-1 386:-1 387:-0.317833 388:3.19388 389:-0.50705 390:-0.766702 391:-0.924422 393:-1 394:0.705626 395:7.65658 396:-1 397:-1 398:-1 399:-0.464385 400:-1 401:-1 402:-1 403:2.1252 404:0.197014 405:-0.245525 406:-0.732029 407:1.09433 408:-1 409:-0.476099 410:-1 411:-1 413:-1 414:-0.476099 415:-0.541295 416:9.23884 417:-0.770647 418:-1 419:-1 422:-0.889849 423:5.82658 424:-0.649982 425:-1 426:-1 427:1.84291 428:-1 429:-1 430:-1 431:-0.0831473 432:-0.962188 433:-0.802844 434:-0.889849 435:0.36475 436:-0.464385 437:0.339201 438:-1 439:-1 440:-1 441:-1 442:0.0715566 443:3.18756 444:-1 445:-1 446:-0.541295 447:-0.978873 448:-0.714112 449:-1 450:-1 451:-0.766702 452:0.705626 453:-0.524855 454:-1 455:0.375558 456:-1 457:-0.492224 458:-0.188949 459:-1 460:-0.301614 461:-0.14686 462:-1 463:-0.901362 464:1.37229 465:2.02733 466:-0.827447 467:212.806 468:-1 469:-0.512752 470:-0.923601 471:-0.987396 472:-0.901419 473:-0.0831473 474:-0.479157 475:-0.196414 476:1.14346 477:-0.260126 478:-1 479:-1 480:-1 481:-0.866015 482:-1 483:-0.847112 484:-1 485:-0.779447 486:-0.889849 487:-1 488:-1 489:-1 490:-0.604903 491:0.607434 492:-1 493:-1 494:-1 497:-0.57343 498:-0.923435 499:-1 501:-0.886609 502:1.79241 503:-0.464385 504:0.904056 505:-0.285192 506:-0.196414 507:-1 508:-0.766702 509:4.9699 510:0.395922 511:2.41225 512:-0.147379 513:7.34518 514:0.861796 515:-1 516:-1 518:2.05664 520:-1 521:-1 522:-0.618711 523:0.0089039 524:-0.848797 525:-0.73942 526:-1 527:-0.962188 528:-0.605568 529:-1 530:-0.571081 531:-0.317833 532:-1 533:-1 534:-1 535:-0.901362 536:-0.986852 537:-1 538:-1 539:-0.147379 540:-0.0831473 541:0.069841 542:1.9577 543:-0.753486 544:-1 545:-0.826289 
0.421122789130407 0.1440736436394572 0 0:-1 1:-1 3:-0.406125 4:-1 5:-1 6:-1 7:1.36194 8:-1 9:-0.612286 10:-1 11:-0.836176 12:1.16355 13:-1 14:-1 15:-1 16:-1 17:1.22563 18:-1 20:-1 21:-1 22:0.0819464 23:-1 24:-1 25:1.16355 26:-1 27:-1 28:-1 29:-1 30:-1 31:-1 32:-1 33:-1 34:76.9709 35:-1 37:-1 38:-1 39:-1 40:-1 41:-0.847552 42:-1 43:-1 44:-1 45:-1 46:-1 47:3.45126 48:3.91462 49:-1 50:-1 51:-1 52:-1 53:-1 54:-1 55:-1 56:-1 57:-1 58:-1 59:-1 60:-1 61:-1 63:-1 64:-1 65:-1 66:-1 67:-0.590448 68:-1 69:-1 71:-1 72:-1 73:1.16355 74:-1 75:-1 76:-1 77:-1 78:-1 79:-1 80:-1 81:-1 82:-1 84:-1 85:-1 86:-1 87:-0.835097 88:-1 89:-1 90:-1 91:-1 92:-1 93:4.9185 94:-1 95:-1 96:-1 97:-1 98:-0.838453 99:-1 100:-1 101:-1 102:-1 103:-1 104:33.8265 105:-1 106:-1 107:-1 108:-1 109:-0.695105 110:-1 111:-1 112:-1 113:-1 114:-1 115:-0.515371 116:-0.0307419 117:-1 119:-1 120:-1 121:-1 122:-1 123:-1 124:-1 125:-0.171501 126:-1 127:0.449873 128:-1 129:-1 130:-1 131:-1 132:0.8315 134:-1 135:0.449873 136:-1 137:-1 138:-1 139:-0.542647 140:-1 141:-1 142:-1 143:-1 145:-1 146:-1 147:-1 148:-1 149:-1 152:0.112632 153:0.112632 154:-1 155:-1 156:-1 157:-1 158:-1 159:-1 160:-1 161:-1 162:-1 163:-1 164:-1 165:-1 166:-1 167:-1 168:-1 169:-1 170:-1 171:0.242899 172:7.6542 173:-1 174:0.453887 175:-1 176:-0.515371 177:0.581924 178:-1 179:-1 180:-1 181:-1 182:-0.515371 183:1.18091 184:-1 185:-1 186:-1 187:-1 188:-1 189:-1 190:-1 191:-1 192:-1 193:-1 194:-0.843001 195:-1 196:-1 197:-1 198:-1 199:-1 200:-1 201:-1 202:-1 203:-1 204:-1 205:-1 206:-1 207:1.22563 209:-1 210:-1 211:-1 212:9.17707 213:-1 214:-1 215:-1 216:-1 217:-1 218:-1 219:-1 220:-1 221:-1 222:-1 223:-0.52219 224:84.9388 225:-0.522173 226:-1 228:-1 229:0.112632 230:-1 231:-1 232:-1 234:-1 235:20.2538 236:-1 237:-1 238:-1 239:-1 240:-1 241:48.3202 242:11.277 243:-1 244:-1 245:-1 246:-0.8388 247:-1 248:-1 249:-1 250:-1 251:-1 253:-1 254:-1 255:-1 256:-1 257:1.16389 258:-1 259:-1 260:-1 261:-1 262:-0.508532 263:-1 264:-1 266:-1 267:-1 268:-1 269:-1 270:-1 271:-1 272:-1 273:-1 274:-1 275:-1 276:0.8315 277:6.08827 278:-1 279:-1 280:-1 281:0.0874622 282:-1 283:-0.542647 284:-1 285:-1 286:-1 287:-0.283259 288:-1 289:-1 290:-1 291:-1 292:-1 293:1.89975 295:-1 296:-1 297:-1 299:-1 300:-1 301:-1 302:-1 303:-1 304:-0.406125 305:-1 306:-1 307:-1 308:0.574444 309:-1 310:6.57743 311:8.84283 312:-1 313:1.22563 314:-1 315:-1 316:-0.703075 317:-1 318:55.7061 319:-1 320:-1 321:-0.515371 322:-1 323:-1 324:-0.515354 325:-1 326:-1 327:-1 328:-1 331:-0.972696 332:-1 333:-1 334:-1 335:-1 336:-1 337:-1 338:-1 339:-1 340:-1 342:-0.52219 344:0.211616 345:-1 346:0.972832 347:-1 348:1.09579 349:-1 350:-1 351:2.80915 352:-1 353:-1 354:9.24925 355:-1 356:-1 357:16.3084 358:-0.703069 359:-1 360:-1 361:8.84993 362:-0.921501 363:-1 364:-1 365:0.112632 366:-1 367:-1 368:-1 369:-1 370:-1 371:-1 372:-0.925767 373:-1 374:-1 375:-1 376:33.8265 377:-1 378:-1 379:0.112632 380:-1 381:2.87703 382:-1 383:-1 384:-1 385:-1 386:-1 387:0.417065 388:16.4133 389:-1 390:-0.515371 391:-1 393:-1 394:0.417065 395:-1 396:-1 397:-1 398:-1 399:-1 400:-1 401:-1 402:-1 403:-1 404:-1 405:-1 406:0.112632 407:-1 408:-1 409:-1 410:-1 411:-1 413:-1 414:-1 415:-1 416:-1 417:-1 418:-1 419:-1 422:-1 423:-1 424:-1 425:0.112632 426:-1 427:-1 428:-1 429:-0.515371 430:-1 431:-1 432:-0.843001 433:-1 434:-1 435:-1 436:-1 437:0.112632 438:-1 439:-1 440:-1 441:-1 442:-1 443:-1 444:-1 445:-1 446:-1 447:-1 448:0.18775 449:-1 450:-1 451:-0.515371 452:-1 453:-1 454:-1 455:-1 456:-1 457:1.81224 458:-1 459:-1 460:-1 461:2.54229 462:-1 463:-1 464:-1 465:1.09579 466:-1 467:51.2398 468:-1 469:2.03648 470:-1 471:-1 472:-1 473:-1 474:2.24584 475:-1 476:-1 477:-1 478:0.739995 479:-1 480:0.453887 481:-1 482:-1 483:-1 484:-1 485:-1 486:-1 487:-1 488:-0.795218 489:-1 490:-1 491:-1 492:-1 493:-1 494:-1 497:-1 498:-1 499:-1 501:-1 502:-1 503:-1 504:-1 505:-1 506:-1 507:-1 508:-1 509:-1 510:-1 511:6.08827 512:-1 513:-1 514:0.933163 515:18.6857 516:-1 518:7.25239 520:3.3271 521:-1 522:-1 523:-1 524:-1 525:-1 526:-1 527:-1 528:-0.590448 529:-1 530:-1 531:-1 532:-1 533:-1 534:-1 535:-1 536:-1 537:-0.515371 538:-0.757677 539:-1 540:-1 541:-1 542:5.14401 543:-1 544:-1 545:-1 
0.2790226342487557 0.1385265941952784 0 0:-1 1:2.54418 3:-1 4:-0.614115 5:0.771801 6:-1 7:-1 8:2.76125 9:-1 10:8.23534 11:-1 12:-1 13:0.847069 14:-1 15:-1 16:-1 17:2.54418 18:-1 20:3.26275 21:-1 22:-1 23:-1 24:-1 25:2.44532 26:-1 27:-1 28:-1 29:-1 30:12.8553 31:-1 32:-1 33:-1 34:10.2876 35:-1 37:0.891422 38:-1 39:-1 40:-1 41:-1 42:-0.239115 43:-1 44:-1 45:-1 46:-1 47:6.08836 48:-1 49:-1 50:-1 51:2.76125 52:-1 53:-1 54:-1 55:-1 56:-1 57:-1 58:-1 59:-1 60:-1 61:-1 63:0.516462 64:-1 65:6.91661 66:-1 67:-1 68:0.62993 69:2.14162 71:-1 72:-1 73:12.7807 74:-1 75:-1 76:0.181265 77:-1 78:-1 79:-1 80:-1 81:-1 82:2.44532 84:10.2818 85:-1 86:-1 87:-0.737402 88:-1 89:-1 90:-1 91:2.54418 92:-1 93:2.14162 94:-1 95:-1 96:-1 97:-1 98:-0.742746 99:-1 100:-1 101:-1 102:-1 103:-1 104:-1 105:1.51912 106:-1 107:-1 108:-1 109:-1 110:-0.239115 111:5.89065 112:-1 113:-1 114:-1 115:-1 116:-1 117:2.54418 119:-1 120:-1 121:5.44692 122:0.52177 123:-1 124:-1 125:-1 126:-1 127:1.30884 128:-1 129:0.516462 130:2.03292 131:-1 132:-1 134:-1 135:-1 136:-0.250012 137:-1 138:-1 139:-1 140:-1 141:-1 142:-1 143:-1 145:-1 146:-1 147:4.69706 148:-1 149:6.08836 152:0.771801 153:-1 154:-1 155:-1 156:-1 157:-1 158:-1 159:-1 160:-1 161:-1 162:-1 163:2.54418 164:-1 165:0.52177 166:-0.239115 167:-1 168:-1 169:-1 170:-1 171:-1 172:-1 173:-1 174:-1 175:-1 176:-1 177:6.55689 178:-1 179:-1 180:-0.347813 181:-1 182:-1 183:-1 184:-0.288007 185:-0.619544 186:-1 187:-1 188:-1 189:-1 190:-1 191:-1 192:-1 193:-1 194:-1 195:0.516462 196:-1 197:-1 198:-1 199:2.03292 200:1.82045 201:-1 202:-1 203:-1 204:-1 205:-1 206:-1 207:-1 209:-1 210:-1 211:-1 212:-1 213:-1 214:-1 215:-1 216:-1 217:-1 218:-1 219:-1 220:-1 221:-1 222:-1 223:-1 224:-1 225:-1 226:-0.347813 228:-1 229:-1 230:-1 231:-1 232:0.771801 234:-1 235:-1 236:1.82081 237:-1 238:-1 239:-1 240:-1 241:2.14162 242:-1 243:-0.239115 244:-1 245:-1 246:-1 247:-1 248:-1 249:4.64089 250:-1 251:-1 253:0.458277 254:-1 255:-1 256:-1 257:-1 258:-1 259:-1 260:-1 261:0.0108807 262:-1 263:-1 264:-1 266:2.54358 267:-1 268:-1 269:-1 270:-1 271:-1 272:2.54418 273:-1 274:-1 275:-1 276:-1 277:10.2876 278:-1 279:-1 280:-1 281:-1 282:0.52177 283:-1 284:-1 285:-1 286:-0.809775 287:-0.239089 288:-0.746366 289:1.82045 290:-1 291:-1 292:-1 293:-1 295:-1 296:-1 297:2.07845 299:8.23534 300:-1 301:-1 302:-1 303:-0.972049 304:-0.0542892 305:-1 306:-1 307:-1 308:-1 309:-1 310:1.0111 311:14.6741 312:2.46399 313:-1 314:0.516462 315:-1 316:-0.527165 317:-1 318:-1 319:-1 320:-1 321:-1 322:-0.469872 323:-1 324:-1 325:-1 326:-1 327:-0.239115 328:-1 331:-1 332:-1 333:-0.749733 334:-1 335:-1 336:-0.239115 337:-1 338:-1 339:4.22596 340:-1 342:-1 344:-1 345:2.76125 346:0.570809 347:-1 348:-1 349:-1 350:-1 351:-1 352:-1 353:8.23534 354:15.3213 355:-0.228257 356:-1 357:2.44532 358:-1 359:-1 360:-1 361:-1 362:-1 363:-1 364:0.181265 365:0.771801 366:-1 367:-1 368:-1 369:2.03292 370:2.03292 371:-0.0542892 372:-1 373:-1 374:-1 375:2.95849 376:-1 377:-1 378:-1 379:-1 380:7.31201 381:-1 382:-1 383:-1 384:-1 385:-1 386:-1 387:-1 388:-1 389:-1 390:-1 391:-1 393:-1 394:-1 395:11.9288 396:-1 397:-1 398:-1 399:0.771801 400:-1 401:-1 402:-1 403:-1 404:0.979243 405:3.98853 406:-1 407:-1 408:-1 409:-1 410:-1 411:-1 413:-1 414:-1 415:-1 416:-1 417:-1 418:-1 419:-1 422:-1 423:-1 424:-1 425:-1 426:-1 427:2.76125 428:-0.239115 429:-1 430:-1 431:-1 432:-1 433:-1 434:-0.271692 435:-1 436:0.771801 437:-1 438:-1 439:-1 440:-1 441:-1 442:-1 443:-1 444:-1 445:-1 446:-1 447:-1 448:-1 449:-1 450:-1 451:-1 452:1.25659 453:2.14162 454:-1 455:-1 456:-1 457:0.11958 458:-1 459:-1 460:3.61767 461:10.2818 462:-1 463:-1 464:-1 465:2.33743 466:-1 467:193.097 468:-1 469:0.611803 470:-1 471:-0.833327 472:-1 473:2.03292 474:-1 475:-1 476:-1 477:-1 478:-1 479:-1 480:-1 481:-1 482:-1 483:-1 484:-1 485:-1 486:-1 487:-1 488:-1 489:-0.619544 490:-1 491:-1 492:-1 493:-1 494:-1 497:-1 498:-1 499:-1 501:-0.749988 502:2.07845 503:0.771801 504:-1 505:-0.0542892 506:0.771801 507:-1 508:-0.228257 509:-1 510:-1 511:-1 512:-1 513:-1 514:-1 515:-1 516:-1 518:2.03246 520:-1 521:-1 522:-1 523:-1 524:-0.749988 525:-1 526:-1 527:-0.749988 528:-1 529:-1 530:0.891422 531:-1 532:-1 533:-1 534:-0.228257 535:-1 536:-1 537:-1 538:-0.22823 539:-1 540:-1 541:1.02176 542:-1 543:-1 544:-1 545:-1 
0.4966360027077155 0.4584184025086488 0 0:-1 1:2.62961 3:-0.354272 4:-0.736519 5:-0.697637 6:-1 7:-1 8:2.8519 9:-1 10:8.45794 11:-0.710573 12:-1 13:0.261172 14:-1 15:-1 16:-1 17:0.209651 18:1.3652 20:-0.272549 21:-1 22:-1 23:-1 24:-1 25:-1 26:-1 27:-1 28:-1 29:-1 30:3.72976 31:-1 32:-1 33:-1 34:10.5597 35:-1 37:-0.354272 38:-1 39:17.9337 40:-0.857631 41:-1 42:-1 43:-1 44:-0.309774 45:-1 46:-0.527148 47:0.209651 48:-0.777404 49:-1 50:1.41995 51:-1 52:20.417 53:-1 54:-1 55:-0.411951 56:-1 57:-1 58:-1 59:-1 60:8.46429 61:1.41995 63:-0.482422 64:-0.870148 65:-1 66:0.209651 67:-1 68:-1 69:-1 71:-1 72:0.283737 73:-1 74:2.85254 75:-1 76:-1 77:2.15265 78:-1 79:-1 80:-1 81:-1 82:0.175911 84:-1 85:-0.411951 86:-1 87:-1 88:1.35246 89:3.72897 90:-1 91:-1 92:-0.369584 93:-1 94:-1 95:-0.395273 96:-1 97:-1 98:-0.912198 99:-1 100:-1 101:-1 102:-1 103:-1 104:-1 105:-0.140209 106:-0.914669 107:0.209651 108:-1 109:-1 110:-0.740305 111:-1 112:-1 113:-1 114:-1 115:-1 116:-1 117:-1 119:-1 120:-1 121:-1 122:-1 123:-1 124:0.209651 125:-1 126:-0.677223 127:-0.21198 128:-1 129:-0.482422 130:0.0351562 131:-1 132:-0.502281 134:0.0354353 135:-1 136:-1 137:-1 138:-1 139:-1 140:-1 141:-1 142:-0.62874 143:-1 145:-1 146:-1 147:0.944444 148:0.20978 149:-1 152:-1 153:-1 154:-1 155:-1 156:-1 157:-1 158:4.35354 159:-1 160:-1 161:-1 162:-1 163:-1 164:-1 165:-1 166:-0.740305 167:-1 168:-1 169:-1 170:-1 171:-0.324472 172:-1 173:-1 174:-1 175:-0.870148 176:-0.736599 177:2.43963 178:-1 179:-1 180:-0.777404 181:-1 182:-1 183:-0.209628 184:-0.513853 185:-0.870148 186:-1 187:-0.740305 188:-1 189:-1 190:-1 191:-1 192:-1 193:-0.740305 194:-1 195:-0.482422 196:-0.229811 197:-1 198:-1 199:-1 200:-1 201:-1 202:-1 203:-1 204:-0.463873 205:-1 206:-1 207:-1 209:-1 210:-1 211:-0.395273 212:-0.473056 213:-1 214:-1 215:-0.677223 216:-1 217:-1 218:4.83438 219:-1 220:-1 221:0.576324 222:-1 223:-1 224:12.3489 225:-0.610374 226:-1 228:-1 229:0.20978 230:2.78287 231:-1 232:-1 234:-0.827482 235:10.5537 236:-0.518619 237:0.925272 238:-1 239:-1 240:-1 241:63.3451 242:5.67266 243:-1 244:-1 245:-1 246:-1 247:-1 248:-0.736599 249:10.5537 250:-1 251:-1 253:-0.502281 254:-0.474653 255:0.702616 256:-1 257:-1 258:4.17634 259:4.57057 260:-0.961298 261:1.07049 262:-0.866405 263:-1 264:-1 266:2.62921 267:-1 268:-1 269:-1 270:0.209651 271:-1 272:0.209651 273:-1 274:-1 275:4.13564 276:-0.004293 277:10.5597 278:-0.677223 279:7.98754 280:-1 281:-0.408953 282:-1 283:0.740302 284:-1 285:-1 286:-1 287:-1 288:-1 289:-1 290:-1 291:22.6331 292:-0.871983 293:0.576466 295:-0.411951 296:-1 297:-1 299:8.45794 300:-1 301:27.398 302:-1 303:-1 304:-1 305:2.15208 306:-1 307:8.46429 308:-0.572137 309:-1 310:1.05957 311:39.1283 312:-1 313:-1 314:0.0354353 315:1.07059 316:-1 317:0.283737 318:6.70717 319:-1 320:-1 321:-0.473056 322:-0.638079 323:27.398 324:-0.868295 325:-1 326:-1 327:-1 328:-1 331:-0.99258 332:4.35354 333:-1 334:-1 335:-0.473056 336:-0.740305 337:-1 338:-1 339:0.783654 340:-0.443695 342:-1 344:-1 345:1.56817 346:2.21734 347:0.175911 348:0.139085 349:-1 350:0.175911 351:-1 352:-1 353:-1 354:-1 355:-0.736599 356:-1 357:7.23265 358:-1 359:6.24721 360:-1 361:-1 362:-1 363:-0.701432 364:-1 365:-1 366:-1 367:-1 368:-0.0373638 369:-1 370:-1 371:-0.677223 372:-1 373:-1 374:4.77686 375:4.40495 376:17.9337 377:-1 378:-1 379:0.20978 380:-0.0542952 381:0.317146 382:-1 383:-1 384:-1 385:-1 386:-1 387:-1 388:8.46429 389:-0.777404 390:-1 391:-1 393:-1 394:0.540793 395:0.261172 396:1.37105 397:-0.848818 398:0.830291 399:-1 400:-1 401:2.85254 402:-1 403:-1 404:-1 405:0.702616 406:-1 407:-1 408:-1 409:-1 410:-1 411:-1 413:5.67266 414:-1 415:0.0351562 416:2.85254 417:-0.482422 418:0.337419 419:10.1441 422:-1 423:-1 424:-0.736599 425:-1 426:-1 427:0.283737 428:-1 429:-1 430:-1 431:-1 432:-1 433:0.113098 434:-1 435:1.31098 436:-1 437:-0.395273 438:-0.888699 439:-1 440:-0.481569 441:-1 442:-1 443:-1 444:-1 445:3.72611 446:-1 447:-0.99046 448:-1 449:-1 450:-1 451:-0.736599 452:-0.229811 453:-1 454:-1 455:-1 456:-1 457:2.82181 458:0.830291 459:-1 460:-1 461:-1 462:-1 463:-1 464:4.35354 465:-1 466:-0.870148 467:-1 468:-1 469:0.650652 470:-1 471:-1 472:-1 473:-1 474:3.70502 475:-1 476:0.209651 477:-1 478:-0.0542952 479:-1 480:-1 481:-1 482:-0.807971 483:-1 484:-1 485:-1 486:-0.502714 487:-1 488:-1 489:-0.870148 490:-1 491:0.209651 492:-1 493:0.372965 494:-1 497:-1 498:-1 499:-1 501:-0.914669 502:-1 503:-0.395273 504:0.720046 505:-0.677223 506:-1 507:-1 508:-1 509:0.925272 510:8.45794 511:-1 512:-0.0373638 513:-1 514:0.0506939 515:1.67484 516:-1 518:9.35227 520:-1 521:-1 522:-1 523:-1 524:-1 525:-1 526:-1 527:-1 528:-1 529:-1 530:-1 531:-0.229811 532:-1 533:-1 534:-0.209656 535:-0.777404 536:-0.99258 537:-1 538:-1 539:-1 540:-1 541:-0.65498 542:-1 543:-0.443695 544:-1 545:-1 
0.5 0.5 0 0:-0.230815 1:-1 3:-1 4:-1 5:-1 6:-1 7:-1 8:-1 9:-0.817957 10:-1 11:0.230766 12:-1 13:-1 14:-1 15:-1 16:0.794904 17:-1 18:-1 20:-1 21:-1 22:-1 23:-1 24:-1 25:-1 26:-0.688161 27:-1 28:-1 29:-0.551293 30:-1 31:-1 32:-1 33:-1 34:38.9398 35:-1 37:-1 38:-1 39:-1 40:-1 41:-1 42:-1 43:-1 44:-1 45:-1 46:-1 47:7.36061 48:-0.230815 49:-1 50:7.36061 51:-1 52:-1 53:-1 54:-1 55:-1 56:-1 57:-1 58:-1 59:-1 60:-1 61:3.17998 63:-1 64:-1 65:-1 66:-1 67:-0.230815 68:-1 69:-1 71:-1 72:-1 73:43.6992 74:-1 75:-1 76:-1 77:-1 78:-1 79:-1 80:-1 81:-1 82:-1 84:-1 85:-1 86:-1 87:-1 88:-1 89:-1 90:-1 91:-1 92:-1 93:-1 94:9.8921 95:-1 96:-1 97:-1 98:-1 99:-1 100:-1 101:-1 102:-1 103:-1 104:-1 105:-1 106:-1 107:-1 108:-1 109:-1 110:-1 111:-1 112:-0.230815 113:-1 114:-1 115:-1 116:-1 117:-1 119:-1 120:-1 121:-1 122:-1 123:-1 124:-1 125:-1 126:-1 127:-1 128:-1 129:-1 130:-1 131:-1 132:-1 134:-1 135:-1 136:-1 137:-1 138:2.7052 139:-1 140:-1 141:-1 142:-1 143:-1 145:-1 146:-1 147:-1 148:-1 149:-1 152:-1 153:-1 154:-1 155:-1 156:-1 157:-1 158:-1 159:-1 160:-1 161:-1 162:-1 163:-1 164:-0.475194 165:-1 166:-1 167:-1 168:-1 169:-1 170:-1 171:-1 172:-1 173:-1 174:-1 175:-1 176:-1 177:-1 178:-1 179:-1 180:-1 181:-1 182:-1 183:2.64102 184:-1 185:-1 186:-1 187:-1 188:-1 189:-1 190:-1 191:-1 192:-1 193:-1 194:2.83334 195:-1 196:-1 197:-1 198:-1 199:-1 200:-1 201:-1 202:-1 203:-1 204:0.852601 205:-1 206:-1 207:-1 209:-1 210:-1 211:1.08965 212:4.46141 213:-1 214:-1 215:-1 216:-1 217:-1 218:-1 219:-1 220:-1 221:-1 222:-0.0898119 223:-1 224:22.0576 225:-1 226:-1 228:-1 229:-1 230:-1 231:-1 232:-1 234:-1 235:12.3067 236:-1 237:-1 238:17.4993 239:-1 240:-1 241:-1 242:22.0576 243:-1 244:-1 245:-1 246:-0.0916991 247:-1 248:-1 249:-1 250:-1 251:-1 253:-1 254:-1 255:-1 256:-1 257:-1 258:-1 259:-1 260:-1 261:-1 262:-0.769242 263:-1 264:-1 266:-1 267:-1 268:-1 269:-1 270:-1 271:-1 272:-1 273:1.08965 274:-0.54489 275:-1 276:-1 277:-1 278:-1 279:-1 280:-1 281:-1 282:-1 283:-0.141039 284:-1 285:-0.102618 286:-1 287:-1 288:-0.700866 289:-1 290:-1 291:-1 292:-1 293:-1 295:-1 296:0.115365 297:-1 299:-1 300:-1 301:31.7041 302:-1 303:-1 304:0.115365 305:-1 306:-1 307:-1 308:-1 309:-1 310:-1 311:-1 312:-1 313:-1 314:-1 315:-1 316:-1 317:3.43599 318:12.3126 319:-1 320:-1 321:-1 322:-0.687386 323:-1 324:-1 325:-1 326:-0.40386 327:-0.102618 328:-1 331:-1 332:-1 333:-0.704804 334:-1 335:-1 336:-1 337:-1 338:-1 339:-1 340:-1 342:-1 344:-1 345:-1 346:-1 347:3.06339 348:2.93614 349:-1 350:-1 351:-1 352:-1 353:-1 354:-1 355:-1 356:-1 357:11.1908 358:-1 359:-1 360:-1 361:17.4993 362:-1 363:-1 364:-1 365:-1 366:-1 367:-1 368:-1 369:-1 370:-1 371:-1 372:-1 373:-1 374:-1 375:-1 376:-1 377:-1 378:-1 379:-1 380:-1 381:0.820518 382:-1 383:-1 384:-1 385:-1 386:-1 387:-1 388:-1 389:-1 390:-1 391:-1 393:-1 394:-1 395:-1 396:9.92307 397:-1 398:-1 399:3.17963 400:-1 401:-1 402:-1 403:-1 404:-1 405:-1 406:-1 407:-1 408:-1 409:-1 410:-1 411:-1 413:-1 414:-1 415:-1 416:12.3126 417:-1 418:-1 419:-1 422:-1 423:-1 424:-1 425:-1 426:-1 427:-1 428:-1 429:-1 430:-1 431:-1 432:-1 433:-1 434:-1 435:-1 436:-1 437:-1 438:-1 439:-1 440:-1 441:-1 442:-1 443:-1 444:-1 445:-1 446:-1 447:-0.901098 448:-1 449:-1 450:-1 451:-1 452:-1 453:-1 454:-1 455:-1 456:-1 457:-1 458:-1 459:-1 460:-1 461:25.6124 462:-1 463:-1 464:-1 465:-1 466:-1 467:-1 468:-1 469:-1 470:-1 471:-1 472:-1 473:-1 474:-1 475:-1 476:3.17998 477:-1 478:-1 479:-1 480:-0.0898119 481:-1 482:-1 483:-1 484:-1 485:-1 486:-1 487:-1 488:-1 489:-1 490:-1 491:-1 492:-1 493:-1 494:-1 497:-1 498:-1 499:-1 501:-1 502:-1 503:-1 504:-1 505:-1 506:-1 507:-1 508:-1 509:-1 510:-1 511:-1 512:-1 513:-1 514:-1 515:8.24297 516:-1 518:-1 520:-1 521:-1 522:-1 523:-1 524:-1 525:-1 526:-1 527:-1 528:-1 529:-1 530:-1 531:-1 532:-1 533:-1 534:-1 535:-1 536:-1 537:-1 538:-1 539:-1 540:-1 541:1.38464 542:-1 543:-1 544:-1 545:1.70943 
0.5 0.2933837361525475 0 0:-1 1:-1 3:-1 4:-1 5:-1 6:-1 7:-1 8:-1 9:-1 10:-1 11:-0.626165 12:6.89921 13:-1 14:-1 15:-1 16:-1 17:-1 18:-1 20:-1 21:-1 22:-0.0125218 23:-1 24:-1 25:-1 26:-1 27:-1 28:-1 29:-1 30:4.95666 31:-1 32:-1 33:-1 34:31.3489 35:-1 37:-1 38:-1 39:-1 40:-1 41:-1 42:-1 43:-1 44:-1 45:-1 46:-1 47:11.1891 48:0.49529 49:-1 50:-1 51:-1 52:-1 53:-1 54:-1 55:-1 56:-1 57:-1 58:-1 59:-1 60:-1 61:-1 63:-1 64:-1 65:-1 66:-1 67:-1 68:-1 69:-1 71:-1 72:-1 73:2.94992 74:-1 75:-1 76:-1 77:-1 78:-1 79:-1 80:17.7117 81:-1 82:-1 84:-1 85:-1 86:-1 87:-1 88:-1 89:-1 90:-1 91:-1 92:-1 93:11.6052 94:-1 95:-1 96:-1 97:-1 98:-0.705069 99:-1 100:-1 101:-1 102:-1 103:-1 104:46.6837 105:-1 106:-1 107:-1 108:-1 109:-1 110:-1 111:-1 112:-0.626207 113:-1 114:-1 115:0.7694 116:-1 117:-1 119:-1 120:-1 121:-1 122:-1 123:-1 124:-1 125:-1 126:-1 127:-1 128:-1 129:-1 130:-1 131:-1 132:-1 134:-1 135:-1 136:-1 137:-1 138:-1 139:-1 140:-1 141:-1 142:-1 143:-1 145:-1 146:-1 147:-1 148:-1 149:-1 152:-1 153:-1 154:-1 155:-1 156:-0.0779932 157:-1 158:-1 159:-1 160:-1 161:-1 162:-1 163:-1 164:-0.872493 165:-1 166:-1 167:-1 168:-1 169:-1 170:-1 171:2.4035 172:-1 173:-1 174:-0.557685 175:-1 176:-0.557685 177:-1 178:-1 179:-1 180:-1 181:-1 182:-1 183:1.87536 184:-1 185:-1 186:-1 187:-1 188:-1 189:-1 190:-1 191:-1 192:-1 193:-1 194:-1 195:-1 196:-1 197:-1 198:-1 199:-1 200:-1 201:-1 202:-1 203:-1 204:-1 205:-1 206:-1 207:-1 209:-1 210:-1 211:-1 212:6.96237 213:-1 214:-1 215:-1 216:-1 217:-1 218:-1 219:-1 220:-0.0125218 221:-1 222:-1 223:-1 224:10.205 225:-0.781947 226:-1 228:-1 229:-1 230:-1 231:-1 232:-1 234:-1 235:5.46705 236:-1 237:-1 238:-1 239:-1 240:-1 241:128.653 242:-1 243:-1 244:-1 245:-1 246:-0.705703 247:-1 248:-0.557685 249:8.70005 250:-1 251:-1 253:-1 254:-1 255:-1 256:-0.767686 257:2.95023 258:-1 259:-1 260:-1 261:-1 262:0.345777 263:-1 264:-1 266:-1 267:-1 268:-1 269:-1 270:-1 271:-1 272:-1 273:-1 274:-1 275:-1 276:-1 277:-1 278:-1 279:-1 280:-1 281:-1 282:-1 283:-1 284:-1 285:-1 286:-1 287:-1 288:-0.854633 289:2.23352 290:-1 291:30.7478 292:-1 293:0.32328 295:-1 296:-1 297:-1 299:4.29312 300:-1 301:14.8929 302:-1 303:-1 304:-1 305:-1 306:-1 307:-1 308:-1 309:-1 310:4.76355 311:39.4283 312:-1 313:1.0313 314:-1 315:-1 316:-1 317:-1 318:11.9408 319:-1 320:-0.894091 321:-1 322:-1 323:-1 324:-1 325:-1 326:-1 327:-1 328:-1 331:-1 332:-1 333:-1 334:-1 335:-1 336:-1 337:-1 338:-1 339:10.9817 340:-1 342:-1 344:-0.778835 345:-1 346:4.40231 347:0.974643 348:-1 349:-1 350:-1 351:-1 352:-1 353:-1 354:-1 355:-1 356:-1 357:2.94992 358:-1 359:7.69196 360:-1 361:-1 362:-1 363:-1 364:-1 365:-1 366:-1 367:-1 368:-1 369:-1 370:-1 371:-1 372:-0.932249 373:-1 374:-1 375:-1 376:-1 377:-1 378:-1 379:-1 380:-1 381:1.65417 382:-1 383:-1 384:-1 385:-1 386:-1 387:1.58709 388:-1 389:-1 390:-1 391:-1 393:-1 394:1.58709 395:3.23483 396:-0.557599 397:-1 398:-1 399:-1 400:-1 401:-1 402:-1 403:-1 404:-1 405:4.71914 406:-1 407:-1 408:-1 409:-1 410:-1 411:-1 413:-1 414:-1 415:-1 416:5.46937 417:-1 418:-1 419:27.0661 422:-1 423:-1 424:-1 425:0.0154849 426:-1 427:-1 428:-1 429:-1 430:-1 431:-1 432:-1 433:-0.626207 434:-1 435:-1 436:-1 437:-1 438:-1 439:-1 440:-1 441:-1 442:-1 443:-1 444:-1 445:-1 446:-1 447:-1 448:-1 449:-1 450:-0.626207 451:-1 452:-1 453:-1 454:-1 455:-1 456:-1 457:0.925224 458:-1 459:-0.916518 460:-1 461:11.9331 462:-1 463:-1 464:-1 465:0.912803 466:-1 467:205.622 468:-1 469:0.847865 470:-0.855153 471:-0.952237 472:-1 473:-1 474:-0.0125218 475:-1 476:-1 477:-1 478:0.58807 479:-1 480:-0.115229 481:-1 482:-1 483:-1 484:-1 485:-1 486:-1 487:-1 488:-1 489:-1 490:-1 491:-1 492:-1 493:-1 494:-0.347097 497:-1 498:-1 499:-1 501:-1 502:-1 503:-1 504:-1 505:-1 506:-1 507:-1 508:-1 509:-1 510:-1 511:-1 512:-1 513:-1 514:-1 515:7.98486 516:-1 518:7.11197 520:-1 521:-1 522:-1 523:-1 524:-1 525:-1 526:-1 527:-1 528:-1 529:-1 530:-1 531:-1 532:-1 533:-1 534:-1 535:-1 536:-1 537:-1 538:-1 539:-1 540:-1 541:0.158932 542:-1 543:-1 544:-1 545:-1 
0.5 0.3588634922897154 0 0:-1 1:-1 3:-0.46459 4:2.27694 5:-0.498452 6:2.19357 7:3.25882 8:-1 9:-1 10:-1 11:-0.81538 12:-1 13:-1 14:-1 15:-1 16:-1 17:-1 18:-1 20:0.206667 21:1.00652 22:-1 23:-1 24:-1 25:-1 26:-1 27:-1 28:-1 29:-1 30:2.92224 31:-1 32:-1 33:-1 34:24.5618 35:-1 37:0.0708196 38:-1 39:-1 40:-1 41:-1 42:-1 43:-1 44:-1 45:-1 46:-1 47:1.00652 48:-0.261535 49:-1 50:-1 51:3.25882 52:-1 53:-1 54:-1 55:-1 56:-1 57:-1 58:-1 59:-1 60:-1 61:3.01304 63:-0.141462 64:-0.784607 65:0.120539 66:-1 67:-1 68:-0.077223 69:-1 71:-1 72:-1 73:-1 74:-1 75:-1 76:-1 77:0.742849 78:-1 79:-1 80:-1 81:2.19357 82:0.950555 84:-1 85:-1 86:-1 87:-1 88:0.950555 89:-1 90:-1 91:-1 92:-1 93:0.778613 94:-1 95:-1 96:-1 97:-1 98:-0.708714 99:16.7605 100:-1 101:-1 102:-1 103:-1 104:14.699 105:-1 106:-0.858457 107:-1 108:-1 109:-1 110:0.292314 111:-1 112:-1 113:-1 114:-1 115:-0.563081 116:-1 117:-1 119:-1 120:-1 121:-1 122:-1 123:-1 124:-1 125:-1 126:-1 127:1.61427 128:-1 129:-1 130:0.717076 131:-1 132:0.651194 134:-0.141462 135:-1 136:-0.858457 137:-1 138:-1 139:-1 140:-1 141:-1 142:-1 143:-1 145:-1 146:-1 147:-1 148:-1 149:-1 152:0.00309698 153:-1 154:-1 155:-1 156:-1 157:-1 158:-1 159:1.00652 160:-1 161:-1 162:-1 163:-1 164:-1 165:-1 166:-1 167:-1 168:-1 169:1.00652 170:-1 171:-1 172:-1 173:-0.147881 174:-1 175:-0.784607 176:-1 177:-1 178:-1 179:-1 180:-1 181:-1 182:-0.126163 183:-0.344599 184:-0.193817 185:-1 186:-1 187:-1 188:-1 189:-1 190:-1 191:-1 192:-1 193:-0.569229 194:-1 195:1.57561 196:-1 197:-1 198:-1 199:0.717076 200:0.596783 201:-1 202:-1 203:-1 204:-0.110694 205:-1 206:-1 207:-1 209:-1 210:-1 211:-1 212:8.61193 213:-1 214:-1 215:-1 216:-1 217:-1 218:2.22537 219:-1 220:-1 221:-1 222:-0.563081 223:-0.569229 224:176.09 225:-1 226:-1 228:-1 229:1.00619 230:2.1366 231:-1 232:-1 234:-1 235:5.38713 236:-1 237:2.19357 238:-1 239:-1 240:-1 241:23.9 242:10.0683 243:-1 244:9.45709 245:-1 246:-1 247:-1 248:0.310756 249:-1 250:-1 251:1.12941 253:-1 254:-1 255:-1 256:-1 257:-1 258:-1 259:-1 260:-1 261:-0.427695 262:-0.556916 263:-1 264:-1 266:1.0063 267:-1 268:-1 269:-1 270:1.00652 271:-1 272:-1 273:-1 274:-1 275:1.12941 276:-1 277:-1 278:-1 279:1.12941 280:-1 281:-0.0195953 282:-1 283:-1 284:-1 285:-1 286:-0.892305 287:-1 288:-1 289:-1 290:-1 291:-1 292:-0.929229 293:2.92141 295:-1 296:-1 297:0.742849 299:-1 300:-1 301:30.398 302:-1 303:-0.889233 304:-1 305:-1 306:-1 307:-1 308:-1 309:-1 310:-1 311:16.7477 312:-1 313:-1 314:-0.141462 315:-1 316:-1 317:1.12941 318:-1 319:-1 320:-1 321:-1 322:-1 323:-1 324:-1 325:-1 326:-1 327:-1 328:-1 331:-1 332:-1 333:-1 334:-1 335:-1 336:-1 337:-0.79473 338:5.39045 339:7.87596 340:-0.077223 342:-1 344:-1 345:-1 346:7.89277 347:2.90111 348:-1 349:-1 350:-1 351:-1 352:-1 353:-1 354:-1 355:-1 356:-1 357:0.950555 358:-1 359:2.43415 360:-1 361:16.7605 362:-1 363:-1 364:-0.331232 365:-1 366:-1 367:-1 368:-1 369:-1 370:-1 371:-0.46459 372:-1 373:-1 374:5.38713 375:3.48216 376:-1 377:1.00619 378:-1 379:-1 380:2.13739 381:0.310756 382:-1 383:-1 384:-1 385:-1 386:-1 387:-1 388:-1 389:-1 390:-1 391:-1 393:-1 394:1.55512 395:0.0457094 396:0.310803 397:-1 398:-1 399:-1 400:-1 401:-1 402:-1 403:-1 404:1.24108 405:1.82423 406:-1 407:-1 408:-1 409:-1 410:-1 411:-1 413:-1 414:-1 415:-1 416:94.8546 417:-1 418:-1 419:-1 422:-0.587672 423:-1 424:-0.563081 425:-1 426:-1 427:-1 428:-1 429:-1 430:-1 431:-1 432:-1 433:-1 434:-1 435:-1 436:0.00309698 437:-1 438:-1 439:-1 440:-1 441:-1 442:-1 443:-1 444:-0.68147 445:-1 446:-1 447:-0.873409 448:-1 449:-1 450:-1 451:2.05829 452:-1 453:-1 454:-1 455:-1 456:-1 457:-1 458:-1 459:-1 460:-1 461:2.19357 462:-1 463:-1 464:-1 465:0.889469 466:-1 467:61.7959 468:-1 469:-1 470:-1 471:-1 472:-1 473:0.717076 474:2.90173 475:-1 476:1.00652 477:-1 478:-1 479:-1 480:-0.563081 481:-0.498452 482:-1 483:-1 484:-1 485:-1 486:-1 487:-1 488:-1 489:-1 490:-1 491:3.01304 492:-1 493:-0.240997 494:-1 497:-1 498:-1 499:-1 501:-1 502:-1 503:0.00309698 504:3.27856 505:-0.46459 506:1.00619 507:-1 508:-1 509:-1 510:4.22855 511:-1 512:-1 513:-1 514:-1 515:-1 516:-1 518:1.28922 520:-1 521:-1 522:-0.64307 523:-1 524:-0.858457 525:-1 526:-1 527:-0.858457 528:-1 529:-1 530:-0.46459 531:-1 532:-1 533:-1 534:-1 535:-1 536:-0.987692 537:-1 538:-0.563066 539:3.79035 540:0.717076 541:0.144611 542:-1 543:-1 544:-1 545:-1 
0.4911440212855139 0.3458680842576184 0 0:-1 1:2.03293 3:-1 4:-0.0093365 5:-1 6:-1 7:11.8754 8:2.21869 9:-1 10:6.90314 11:-0.77674 12:1.94834 13:-1 14:-1 15:-1 16:-1 17:-1 18:1.96431 20:0.823922 21:2.03293 22:-1 23:-1 24:-1 25:-1 26:-1 27:-1 28:-1 29:-1 30:1.96431 31:-1 32:-1 33:-1 34:66.6179 35:-1 37:-1 38:-1 39:-1 40:-1 41:-1 42:-1 43:-1 44:-1 45:-1 46:-1 47:-1 48:0.116218 49:-1 50:2.03293 51:-1 52:-1 53:-1 54:-1 55:-1 56:-1 57:-1 58:8.6594 59:3.87526 60:46.4592 61:2.03293 63:-1 64:-0.674425 65:-1 66:-1 67:-1 68:-1 69:-1 71:-1 72:-1 73:-1 74:-1 75:-1 76:-1 77:6.90314 78:-1 79:-1 80:68.8378 81:-1 82:-1 84:3.82719 85:-1 86:-1 87:-1 88:1.94834 89:2.95157 90:-1 91:-1 92:-1 93:1.68844 94:-1 95:-1 96:-1 97:-1 98:-0.779855 99:25.8456 100:-1 101:-1 102:-1 103:-1 104:22.7296 105:-1 106:-1 107:2.03293 108:0.0108672 109:-1 110:-1 111:1.94834 112:-1 113:-1 114:-1 115:-0.339581 116:-0.339581 117:-1 119:-1 120:-1 121:0.3793 122:-1 123:-1 124:-1 125:-1 126:-0.190708 127:0.975786 128:-1 129:-1 130:1.59542 131:-1 132:-1 134:-1 135:-1 136:-1 137:2.21869 138:-1 139:-1 140:-1 141:-1 142:-1 143:-1 145:-1 146:-1 147:3.87526 148:0.516218 149:-1 152:2.03244 153:-1 154:-1 155:-1 156:0.376646 157:-1 158:-1 159:-1 160:-1 161:-1 162:-1 163:-1 164:-1 165:-1 166:-1 167:-1 168:-0.441891 169:-1 170:-1 171:-1 172:-1 173:-1 174:-1 175:-1 176:-0.339581 177:1.15574 178:-1 179:-1 180:-1 181:-1 182:-1 183:-0.0093365 184:-1 185:-1 186:-1 187:-1 188:-1 189:-1 190:-1 191:-1 192:-1 193:-0.348873 194:-1 195:-1 196:2.86215 197:-1 198:-1 199:1.59542 200:-1 201:-1 202:-1 203:-1 204:-1 205:-1 206:-1 207:-1 209:-1 210:-1 211:2.03244 212:3.62307 213:-0.441891 214:-1 215:-1 216:-1 217:-1 218:-1 219:-0.134939 220:-1 221:-1 222:-0.339581 223:0.302254 224:32.4604 225:-1 226:-0.441891 228:-1 229:-1 230:-1 231:-1 232:-1 234:-1 235:13.4816 236:-1 237:-1 238:-1 239:-1 240:-1 241:1.68844 242:-1 243:-1 244:-1 245:-1 246:-1 247:-1 248:0.981257 249:-1 250:-1 251:-1 253:-1 254:-1 255:-1 256:-1 257:0.474402 258:-1 259:-1 260:-1 261:-0.134939 262:-0.832565 263:-1 264:-1 266:0.0108672 267:-1 268:2.38747 269:-1 270:-1 271:0.730122 272:-1 273:-1 274:-1 275:2.21869 276:-1 277:-1 278:-1 279:2.21869 280:-1 281:-1 282:0.302254 283:-1 284:0.34422 285:-1 286:-1 287:-1 288:-1 289:-1 290:-1 291:22.6994 292:-1 293:-1 295:-1 296:-1 297:1.63438 299:-1 300:-1 301:22.7296 302:-1 303:-0.952161 304:-1 305:6.90314 306:-1 307:-1 308:-1 309:-1 310:-1 311:5.70656 312:-1 313:-1 314:-1 315:-1 316:-0.595372 317:2.21869 318:18.3188 319:-1 320:-1 321:0.981257 322:-1 323:22.7296 324:-1 325:-1 326:-1 327:-1 328:-1 331:-1 332:-1 333:-0.928607 334:1.43699 335:0.320838 336:-1 337:-1 338:-1 339:-1 340:-1 342:-1 344:-0.339558 345:2.21869 346:1.68844 347:4.89667 348:-1 349:-1 350:-1 351:-1 352:-1 353:-1 354:-1 355:-1 356:-1 357:4.89667 358:-1 359:4.19085 360:-1 361:12.4228 362:-0.893028 363:-1 364:-1 365:-1 366:-1 367:1.94834 368:-1 369:-1 370:-1 371:-1 372:-1 373:-1 374:13.4816 375:-1 376:46.4592 377:0.516218 378:-1 379:-1 380:1.37114 381:0.320838 382:-1 383:-1 384:-1 385:-1 386:-1 387:0.931077 388:46.4592 389:-1 390:-0.339581 391:-0.786053 393:-1 394:-1 395:-1 396:-0.0093365 397:-1 398:-1 399:-1 400:-1 401:-1 402:-1 403:-1 404:-1 405:3.26893 406:-1 407:4.92862 408:-1 409:-1 410:-1 411:-1 413:-1 414:-1 415:6.78627 416:18.3188 417:-1 418:-1 419:12.967 422:-1 423:8.6594 424:-1 425:-1 426:-1 427:-1 428:-1 429:-0.339581 430:-1 431:-1 432:-1 433:-1 434:-1 435:2.86215 436:-1 437:-1 438:-1 439:-1 440:-1 441:-1 442:0.516218 443:3.74108 444:-1 445:-1 446:-1 447:-0.952161 448:-1 449:-1 450:-1 451:-1 452:0.931077 453:-1 454:-1 455:-1 456:-1 457:-1 458:-1 459:-1 460:-1 461:-1 462:-1 463:-1 464:-1 465:-1 466:-1 467:46.4592 468:-1 469:1.7586 470:-0.78373 471:-1 472:-1 473:1.59542 474:0.474402 475:-1 476:-1 477:-1 478:-1 479:-1 480:-0.339581 481:-1 482:-1 483:-1 484:-1 485:-1 486:-1 487:-1 488:-1 489:-1 490:3.47104 491:11.1324 492:-1 493:-1 494:-1 497:-1 498:-1 499:-1 501:-1 502:-1 503:-1 504:1.15574 505:-1 506:0.516218 507:-1 508:-1 509:-1 510:-1 511:18.3188 512:-1 513:-1 514:4.26876 515:-1 516:-1 518:-0.134939 520:-1 521:-1 522:-0.730244 523:1.856 524:-1 525:-1 526:-1 527:-1 528:-1 529:-1 530:-1 531:-1 532:-1 533:-1 534:-0.339581 535:-1 536:-0.962792 537:-1 538:-1 539:-1 540:-1 541:-0.134939 542:-1 543:-1 544:-1 545:-0.0171175 
0 0.2547536128643871 0 0:-0.664847 1:2.6433 3:-0.756917 4:-0.801697 5:-0.317033 6:1.89881 7:-1 8:-0.033218 9:-0.84133 10:-1 11:-0.832408 12:0.770523 13:-1 14:-0.625729 15:-1 16:-1 17:-1 18:-0.109624 20:-1 21:0.821324 22:-1 23:-1 24:-0.033564 25:-0.114422 26:-1 27:-1 28:-1 29:-0.902209 30:2.56087 31:-0.419971 32:-1 33:-1 34:62.8131 35:-1 37:-0.0278406 38:2.56023 39:6.12755 40:-1 41:-0.875246 42:-0.804424 43:-0.906402 44:-0.740166 45:-1 46:-1 47:1.73231 48:-0.329573 49:-1 50:-0.0890121 51:-0.033218 52:3.03175 53:-1 54:-1 55:-0.114598 56:-1 57:-1 58:-1 59:-1 60:-1 61:-1 63:-0.610212 64:-0.706696 65:1.54297 66:-0.0890121 67:-1 68:1.09417 69:-1 71:-1 72:-1 73:-0.114422 74:-1 75:-0.919792 76:0.821343 77:-0.208723 78:-1 79:-0.419971 80:7.38739 81:0.449922 82:1.6561 84:1.89881 85:-1 86:-1 87:-1 88:-1 89:0.186916 90:-1 91:2.6433 92:-0.525234 93:-0.192486 94:1.37383 95:-0.54458 96:-1 97:-1 98:-0.669475 99:-1 100:-0.114598 101:-1 102:-1 103:-0.981353 104:13.25 105:0.294554 106:-0.871521 107:-1 108:0.214301 109:-1 110:-0.413412 111:-0.114422 112:-0.832363 113:-1 114:-1 115:-0.801633 116:-1 117:-0.0890121 119:-1 120:-1 121:1.07088 122:-1 123:-0.812797 124:-1 125:-1 126:-0.756917 127:-1 128:-1 129:-0.610212 130:-0.220424 131:-1 132:-0.250604 134:-1 135:-1 136:-0.935738 137:2.86644 138:-1 139:-0.812797 140:-0.801633 141:-0.755983 142:-1 143:13.25 145:-1 146:1.72796 147:-1 148:-0.54458 149:-0.0890121 152:-1 153:-1 154:-0.740166 155:-1 156:2.30709 157:-1 158:-1 159:0.821324 160:-1 161:-1 162:-1 163:0.821324 164:-1 165:-1 166:-0.608988 167:-1 168:-0.832363 169:-0.0890121 170:-1 171:-1 172:-1 173:-0.613127 174:-0.0084487 175:-0.804487 176:-1 177:-1 178:-1 179:-1 180:-1 181:-0.0890121 182:0.388285 183:-0.206717 184:-0.451104 185:-0.804487 186:-1 187:-1 188:-0.906304 189:3.03175 190:-0.790853 191:-0.916179 192:-1 193:-1 194:-0.871521 195:-0.610212 196:0.739672 197:-0.608988 198:-1 199:-0.220424 200:-1 201:0.214301 202:-1 203:-1 204:-1 205:-1 206:0.0977207 207:-1 209:-1 210:-1 211:2.64238 212:3.56131 213:-1 214:-1 215:-0.756917 216:-1 217:-1 218:-1 219:-0.480517 220:-0.114598 221:-1 222:-0.801633 223:-0.804424 224:4.02518 225:-0.706696 226:-1 228:-1 229:-0.54458 230:-1 231:-0.610212 232:-0.544743 234:-0.740246 235:3.34873 236:-0.275204 237:0.449922 238:3.03175 239:-1 240:-1 241:12.7243 242:14.0719 243:-1 244:1.37383 245:-1 246:-1 247:-0.660881 248:-0.405041 249:3.34873 250:-0.114598 251:0.932872 253:-1 254:-1 255:-1 256:-1 257:-0.114598 258:-1 259:-1 260:-1 261:0.0391519 262:-0.748614 263:-0.415498 264:-1 266:0.214301 267:-1 268:-1 269:-1 270:-1 271:-0.480517 272:-0.0890121 273:-0.0894866 274:-1 275:-0.033218 276:-0.250604 277:-1 278:-0.756917 279:1.89965 280:-1 281:-0.110084 282:-0.804424 283:-0.812797 284:-1 285:-0.804424 286:-1 287:-1 288:-1 289:-0.275039 290:-1 291:2.55924 292:-0.967869 293:1.37341 295:-0.557141 296:-1 297:-0.208723 299:-1 300:-1 301:13.25 302:-1 303:-0.971267 304:-1 305:1.37383 306:-1 307:6.12755 308:-1 309:-0.220424 310:-0.483071 311:29.2091 312:-1 313:1.73231 314:0.558873 315:-1 316:-1 317:-0.033218 318:22.2046 319:6.12755 320:-0.952502 321:-1 322:-0.931869 323:6.12755 324:-1 325:-1 326:-1 327:-1 328:-0.960039 331:-0.994412 332:-1 333:-1 334:-1 335:-1 336:-0.413412 337:-0.906805 338:1.90135 339:5.71442 340:-0.162393 342:-1 344:-0.603323 345:-0.033218 346:4.2474 347:-1 348:-0.142155 349:-1 350:-1 351:-0.220424 352:-1 353:0.186916 354:-1 355:-1 356:-1 357:3.42662 358:-1 359:2.89676 360:-1 361:11.0924 362:-1 363:-1 364:-1 365:-1 366:-1 367:2.54168 368:-1 369:0.558594 370:0.558594 371:-0.514007 372:-1 373:-1 374:4.79865 375:2.05171 376:6.12755 377:-1 378:-0.870077 379:-0.54458 380:1.13612 381:1.37984 382:0.780752 383:-0.832363 384:-1 385:-1 386:-1 387:0.739672 388:-1 389:-1 390:-0.603408 391:-0.871521 393:-1 394:-0.419971 395:-0.525234 396:-0.10753 397:-0.772372 398:-1 399:-0.0894866 400:-1 401:-1 402:-1 403:-1 404:0.525856 405:1.56356 406:-0.0894866 407:-1 408:-1 409:-0.109624 410:-0.951981 411:-1 413:-1 414:-1 415:1.33817 416:1.90135 417:-1 418:-1 419:-1 422:-1 423:4.80062 424:-1 425:-0.54458 426:-1 427:-0.033218 428:-0.804424 429:-1 430:-1 431:-1 432:-0.935738 433:-1 434:-1 435:1.3197 436:-0.54458 437:-0.0894866 438:-1 439:0.449922 440:-1 441:-1 442:-0.54458 443:1.84709 444:-1 445:-1 446:-1 447:-0.985636 448:-0.514007 449:-0.714081 450:-0.664847 451:-0.801633 452:-0.419971 453:-0.192486 454:-1 455:-0.220424 456:-1 457:-1 458:-1 459:-1 460:-1 461:1.89881 462:-1 463:-1 464:7.06061 465:-0.142155 466:-1 467:41.7551 468:-1 469:-0.171708 470:-0.545372 471:-1 472:-1 473:0.558594 474:-1 475:-1 476:-0.0890121 477:-1 478:-1 479:-1 480:0.189918 481:-0.77229 482:-1 483:0.0391519 484:-0.220424 485:-0.625168 486:-1 487:-1 488:-1 489:-0.804487 490:-0.328527 491:-0.0890121 492:0.0873232 493:-1 494:-1 497:1.17436 498:-0.609724 499:-1 501:-0.935738 502:-0.208723 503:0.365933 504:2.23662 505:-0.514007 506:-0.0894866 507:0.614451 508:-0.801633 509:-1 510:7.30671 511:-1 512:-1 513:-1 514:-0.208723 515:1.01442 516:-1 518:0.818469 520:-0.114422 521:-1 522:-1 523:2.43076 524:-0.935738 525:-1 526:-1 527:-0.871521 528:-0.664847 529:-1 530:-1 531:-0.419971 532:-1 533:-1 534:-1 535:-1 536:-0.98324 537:-1 538:-0.900813 539:-0.275039 540:-1 541:0.558635 542:1.51485 543:-0.581047 544:-1 545:-0.114539 
