svm_type c_svc
kernel_type rbf
gamma 0.0078125
nr_class 4
total_sv 234
rho 0.988239 0.988952 nan -0.921875 nan nan
label 0 1 2 3
nr_sv 35 100 99 0
SV
0.03125 0.03125 0 0:-1 1:-1 2:-1 3:-1 4:-1 5:-1 6:-1 7:-1 8:-1 9:-1 10:-1 11:-1 12:-1 13:-1 14:-1 15:-1 16:-1 17:-1 18:-1 19:-1 20:-1 21:-1 22:-1 23:-1 24:-1 25:-1 26:-1 27:-1 28:-1 29:-1 30:-1 31:-1 32:-1 33:-1 34:-1 35:-1 36:-1 37:-1 38:8.54251 39:-1 40:-1 42:-1 43:-1 45:-1 46:-1 47:-1 48:-1 49:-1 50:-1 51:-1 52:-1 53:-1 54:1.39729 55:-1 56:-1 57:-1 58:-1 59:-1 60:-1 61:-1 62:-1 63:-1 64:-1 65:-1 66:-1 67:-1 68:-1 69:-1 70:-1 72:-1 73:-1 74:-1 75:-1 76:-1 77:-1 78:-1 79:-1 80:18.5657 81:-1 82:3.31888 83:-1 84:-1 85:-1 86:-1 87:-1 88:-1 89:-1 90:-1 91:-1 92:-1 93:-1 94:-1 95:-1 96:-1 97:1.689 98:-1 99:-1 100:-1 101:-1 102:-1 103:-1 104:-1 105:-1 106:-1 107:-1 108:-1 109:-1 110:-1 111:-1 112:-1 113:-1 114:-1 115:-1 116:-1 117:-1 119:-1 120:-1 121:-1 122:32.6193 123:-1 124:-1 125:-1 126:-1 127:-1 128:-1 129:-1 130:-1 131:-1 132:-1 133:-1 134:-1 135:-1 136:-1 137:-1 138:-1 140:-1 141:-1 142:-1 143:-1 144:-1 145:-1 146:-1 147:-1 148:-1 149:-1 150:-1 151:-1 152:-1 153:-1 154:-1 155:-1 156:-1 157:-1 158:-1 159:-1 160:-1 161:-1 162:-1 163:-1 164:-1 165:-1 166:-1 167:4.14808 168:-1 169:-1 170:-1 171:-1 172:-1 173:-1 174:-1 175:-1 176:-1 177:-1 178:-1 179:-1 180:-1 181:-1 182:11.6203 183:-1 184:-1 185:-1 186:-1 187:-1 188:-1 189:-1 190:18.708 191:-1 192:-1 193:-1 194:-1 195:-1 196:-1 197:-1 198:-1 199:-1 200:-1 201:-1 202:-1 203:-1 204:-1 205:-1 206:-1 207:1.39747 208:-1 209:-1 210:-1 211:-1 212:-1 213:-1 214:-1 215:-1 216:-1 217:-1 218:-1 219:-1 220:-1 221:-1 222:-1 223:-1 224:-1 225:-1 226:-1 227:-1 228:-1 229:-1 230:-1 231:-1 232:-1 233:-1 235:-1 236:-1 237:-1 238:-1 239:-1 240:-1 241:-1 242:-1 243:-1 244:-1 245:-1 246:-1 247:-1 248:-1 249:-1 250:-1 251:-1 252:-1 253:15.3128 254:-1 255:-1 256:-1 257:-1 258:-1 259:-1 260:-1 261:-1 262:-1 263:-1 264:-1 265:-1 266:-1 267:-1 268:-1 269:-1 270:-1 271:-1 272:-1 274:-1 275:-1 276:-1 277:-1 278:-1 279:-1 280:-1 281:-1 282:-1 283:-1 284:-1 285:-1 286:-1 287:-1 288:-1 289:-1 290:-1 291:-1 292:-1 293:19.5934 294:-1 295:3.48106 296:-1 297:-1 298:-1 299:-1 300:-1 301:-1 302:-1 303:-1 304:-1 305:-1 306:-1 307:-1 308:-1 309:-1 310:-1 311:-1 312:-1 313:-1 314:-1 315:-1 316:-1 317:-1 318:-1 319:-1 320:-1 321:-1 322:-1 323:-1 324:-1 325:-1 326:-1 327:-1 328:-1 329:-1 330:-1 331:-1 332:-1 333:-1 334:-1 335:-1 336:-1 337:-1 338:-1 339:-1 340:-1 341:-1 342:-1 343:-1 344:-1 345:-1 346:-1 347:-1 348:-1 349:-1 350:-1 351:-1 352:-1 353:-1 354:-1 355:11.7855 356:-1 357:-1 358:-1 359:36.2574 360:-1 361:-1 362:-1 363:-1 364:-1 366:-1 367:23.4542 368:-1 369:-1 370:-1 371:-1 372:-1 373:-1 374:-1 375:-1 376:-1 377:-1 378:-1 379:-1 380:-1 381:-1 382:-1 383:-1 384:-1 385:-1 386:-1 387:-1 388:-1 389:-1 390:-1 391:-1 392:-1 393:-1 394:-1 395:-1 396:-1 397:-1 398:-1 399:-1 400:-1 401:-1 402:-1 403:-1 404:-1 405:-1 406:-1 407:-1 408:-1 409:-1 410:-1 411:-1 412:-1 413:-1 414:-1 415:-1 416:-1 417:-1 418:-1 419:-1 420:-1 421:-1 422:-1 423:-1 424:-1 425:0.59819 426:-1 427:-1 428:-0.200881 429:-1 430:-1 431:-1 432:-1 433:-1 434:-1 435:-1 436:-1 437:-1 438:-1 439:-1 440:-1 441:0.198733 442:-1 443:-1 444:-1 445:-1 447:-1 448:-1 449:-1 450:-1 451:3.19876 452:-1 453:22.4771 454:-1 455:-1 456:-1 457:-1 458:-1 459:-1 460:-1 461:0.774874 462:-1 463:-1 464:-1 465:-1 466:-1 467:-1 468:3.79457 469:-1 470:-1 471:-1 472:-1 473:-1 474:-1 475:-1 476:293.341 477:-1 478:-1 479:-1 480:-1 481:-1 482:-1 483:-1 484:-1 486:-1 487:-1 488:-1 489:-1 490:-1 491:-1 492:-1 493:-1 494:-1 495:-1 496:-1 497:-1 498:-1 499:-1 500:-1 501:-1 502:-1 503:-1 504:-1 505:-1 506:-1 507:-1 508:-1 509:1.92406 510:-1 511:-1 512:-1 513:-1 514:-1 515:64.2195 516:-1 517:2.62309 518:-1 519:-1 520:-1 522:-1 523:-1 524:-1 525:-1 526:-1 527:-1 528:-1 529:-1 530:-1 531:-1 532:-1 533:-1 534:-1 535:-1 536:-1 537:-1 538:-1 539:-1 540:-1 541:-1 542:-1 543:-1 544:-1 545:-1 546:-1 547:-1 548:-1 549:-1 550:-1 551:-1 552:-1 554:-1 555:-1 556:-1 557:-1 558:-1 559:-1 560:-1 561:-1 562:-1 563:-1 564:-1 565:-1 566:-1 567:-1 569:-1 570:-1 571:-1 572:-1 573:-1 574:-1 575:-1 576:-1 577:-1 578:-1 579:-1 580:-1 581:1.39747 582:-1 583:-1 584:-1 585:-1 586:-1 587:-1 588:-1 589:-1 590:-1 591:-1 592:-1 593:7.6357 594:-1 595:-1 596:-1 597:-1 598:-1 599:-1 600:-1 602:-1 603:-1 604:-1 605:-1 606:-1 607:-1 608:-1 609:-1 610:1.31371 611:-1 612:-1 613:-1 614:-1 615:-1 616:-1 617:-1 618:-1 619:-1 620:-1 621:-1 622:-1 623:-1 624:-1 625:-1 626:-1 627:-1 628:4.17018 629:-1 630:-1 631:64.2463 632:-1 633:-1 634:-1 635:-1 636:-1 637:-1 638:-1 639:-1 640:-1 641:-1 642:-1 643:-1 644:-1 645:-1 646:-1 647:-1 648:-1 649:-1 651:-1 652:-1 653:-1 654:-1 655:-1 656:-1 657:-1 658:2.47026 659:-1 660:-1 661:-1 662:5.96791 663:-1 664:-1 665:-1 666:-1 667:-1 668:-1 669:1.15909 670:-1 671:-1 672:-1 673:-1 674:-1 675:-1 676:-1 677:-1 678:-1 679:-1 680:-1 681:-1 682:-1 683:-1 684:-1 685:-1 686:-1 687:-1 688:-1 689:-1 690:-1 691:4.43537 692:-1 693:-1 694:-1 695:-1 696:-1 697:-1 698:-1 699:-1 700:-1 701:-1 702:-1 703:-1 704:-1 705:-1 706:-1 707:-1 708:-1 709:-1 710:-1 711:-1 712:-1 713:19.8927 714:-1 715:-1 716:-1 717:-1 718:-1 719:-1 720:-1 721:-0.200845 722:-1 723:-1 724:-1 725:-1 727:-1 728:-1 729:-1 730:-1 731:-1 732:-1 733:-1 734:-1 735:-1 736:-1 737:-1 738:-1 739:-0.112496 740:-1 741:-1 742:-1 743:-1 744:-1 745:-1 746:-1 747:-1 748:-1 749:-1 750:-1 751:2.91315 752:-1 753:-1 754:-1 755:-1 756:-1 757:-1 758:3.927 759:-1 760:-1 761:0.198733 762:-1 763:-1 765:-1 766:-0.69534 767:-0.284769 768:-1 769:-1 770:-1 771:-1 772:-1 773:-1 774:-1 775:-1 776:-1 777:-1 778:-1 779:-1 780:-1 781:-1 782:-1 783:-1 784:-1 785:-1 786:-1 787:-1 788:-1 789:-1 790:-1 791:-1 792:-1 793:-1 794:-1 795:-1 796:-1 797:-1 798:-1 799:-1 800:-1 801:-1 802:-1 803:-1 804:-1 805:-1 806:-1 807:-1 808:-1 809:-1 810:-1 811:-1 812:-1 813:-1 814:-0.112496 815:-1 816:-1 817:-1 818:-1 819:-1 820:-1 821:-1 822:-1 823:-1 824:-1 825:-1 826:-1 827:-1 828:-1 829:-1 830:-1 831:-1 832:-1 833:-1 834:-1 835:-1 836:-1 837:-1 838:-1 839:-1 841:-1 842:-1 843:-1 844:-1 845:-1 846:-1 847:-1 848:2.057 849:-1 850:-1 
0.03125 0.03125 0 0:7.36959 1:-1 2:-1 3:-1 4:-1 5:-1 6:-1 7:-1 8:-1 9:-1 10:-1 11:84.6296 12:0.394992 13:-1 14:-1 15:-1 16:-1 17:-1 18:-1 19:-1 20:-1 21:-1 22:-1 23:-1 24:-1 25:-1 26:2.11003 27:-1 28:-1 29:-1 30:-1 31:-1 32:-1 33:-1 34:-1 35:-1 36:5.0587 37:-0.741826 38:1.08213 39:-1 40:-1 42:-1 43:-1 45:-1 46:-1 47:-1 48:-1 49:-1 50:-1 51:-1 52:-1 53:4.33456 54:0.0461538 55:-1 56:-1 57:-1 58:-1 59:-1 60:-1 61:-1 62:-1 63:-1 64:-1 65:2.66403 66:-1 67:-1 68:-1 69:6.53741 70:-1 72:-1 73:2.76916 74:-1 75:-1 76:-1 77:-1 78:-1 79:-1 80:-1 81:-1 82:-1 83:-1 84:-1 85:-1 86:-1 87:-1 88:-1 89:-1 90:-1 91:-1 92:-1 93:-1 94:-1 95:-1 96:7.53767 97:-1 98:-1 99:-1 100:-1 101:-1 102:-1 103:-1 104:-1 105:-1 106:-1 107:-1 108:-1 109:0.0461538 110:-1 111:-1 112:-1 113:-1 114:-1 115:-1 116:-1 117:-1 119:-1 120:-1 121:-1 122:28.3401 123:-1 124:-1 125:-1 126:-1 127:-1 128:-1 129:-1 130:-1 131:-1 132:-1 133:-1 134:-1 135:-0.970274 136:-1 137:-1 138:-1 140:-1 141:-1 142:-1 143:-1 144:-1 145:-1 146:-1 147:8.04538 148:-1 149:-1 150:-1 151:-1 152:28.3401 153:-1 154:4.21235 155:-1 156:-1 157:-1 158:-1 159:-1 160:6.11385 161:-1 162:-1 163:-1 164:-1 165:-1 166:-1 167:3.49281 168:-1 169:-1 170:-1 171:-1 172:-1 173:-1 174:-1 175:-1 176:-1 177:-1 178:-1 179:-1 180:-1 181:-1 182:1.75369 183:-1 184:2.76916 185:-1 186:-1 187:-1 188:-1 189:-1 190:3.30038 191:-1 192:-1 193:-1 194:-1 195:-1 196:-1 197:-1 198:-1 199:-1 200:-1 201:-1 202:-1 203:-1 204:-1 205:-1 206:-1 207:-1 208:-1 209:-1 210:-1 211:-1 212:-1 213:-1 214:-1 215:-1 216:-1 217:-1 218:-1 219:-1 220:0.0750488 221:-1 222:-1 223:-1 224:-1 225:-1 226:-1 227:-1 228:-1 229:-1 230:-1 231:-1 232:-1 233:0.0461538 235:5.0587 236:-1 237:-1 238:-1 239:-1 240:-1 241:-1 242:-1 243:-1 244:-1 245:4.38096 246:-1 247:-1 248:-1 249:-1 250:-1 251:-1 252:-1 253:-1 254:-1 255:5.09705 256:-1 257:-1 258:-1 259:-1 260:-1 261:-1 262:-1 263:-1 264:-1 265:-1 266:5.63605 267:-1 268:-1 269:-1 270:-1 271:11.4435 272:-1 274:1.09249 275:-1 276:-1 277:-1 278:-1 279:-1 280:-1 281:7.60135 282:-1 283:-1 284:-1 285:-1 286:-1 287:-1 288:-1 289:-1 290:-0.838152 291:-1 292:-1 293:-1 294:-1 295:-1 296:-1 297:-1 298:-1 299:-1 300:-1 301:-1 302:-1 303:-1 304:-1 305:-1 306:1.61953 307:-1 308:-1 309:-1 310:-1 311:-1 312:-1 313:2.66403 314:5.27729 315:-1 316:-1 317:-1 318:-1 319:-1 320:-1 321:0.127145 322:-1 323:-1 324:-1 325:-1 326:-1 327:-1 328:-1 329:-1 330:-1 331:3.32797 332:4.02172 333:-1 334:-1 335:-1 336:-1 337:-1 338:-1 339:-1 340:2.88083 341:-1 342:-1 343:-1 344:-1 345:-1 346:-1 347:6.75839 348:-1 349:-1 350:-1 351:-1 352:-1 353:-1 354:-1 355:0.394992 356:-1 357:-1 358:-1 359:-1 360:9.67405 361:-1 362:-1 363:-1 364:-1 366:-1 367:17.6762 368:-1 369:-1 370:-1 371:-0.433555 372:-1 373:-1 374:-1 375:-1 376:-1 377:-1 378:-1 379:-1 380:-1 381:48.7247 382:-1 383:-0.433555 384:1.75369 385:-1 386:-1 387:-1 388:-1 389:-1 390:-1 391:-1 392:-1 393:-1 394:-1 395:-1 396:-1 397:-1 398:-1 399:-1 400:7.9864 401:-1 402:-1 403:-1 404:-1 405:-1 406:-1 407:-1 408:3.74354 409:-1 410:1.84589 411:-1 412:-1 413:-1 414:-1 415:-1 416:-1 417:-1 418:-1 419:-1 420:-1 421:-1 422:-1 423:-1 424:-1 425:-0.302564 426:-1 427:-1 428:-0.651272 429:-1 430:-1 431:-1 432:-1 433:-1 434:-1 435:-1 436:-1 437:-1 438:-1 439:4.30519 440:-1 441:3.1848 442:-1 443:-1 444:-1 445:-1 447:-1 448:-1 449:-1 450:-1 451:0.832303 452:-1 453:2.41507 454:-1 455:1.58671 456:-1 457:-1 458:1.60595 459:-1 460:-1 461:-1 462:-1 463:-1 464:-1 465:-1 466:-1 467:-1 468:5.27729 469:-1 470:-1 471:-1 472:-1 473:-1 474:-1 475:-1 476:84.6296 477:-1 478:-1 479:-1 480:-1 481:1.6177 482:-1 483:-1 484:-1 486:-1 487:-1 488:-1 489:-1 490:-1 491:-1 492:-1 493:-1 494:-1 495:-1 496:-1 497:-1 498:-1 499:-1 500:-1 501:-1 502:-1 503:-1 504:-1 505:-1 506:-1 507:-1 508:-1 509:-1 510:-1 511:-1 512:-1 513:-1 514:-1 515:8.48789 516:-1 517:-1 518:-1 519:-1 520:-1 522:-1 523:-1 524:-1 525:-1 526:-1 527:-1 528:-1 529:-1 530:-1 531:3.52446 532:-1 533:-1 534:-1 535:-1 536:5.22174 537:1.09231 538:-1 539:-1 540:-1 541:-1 542:-1 543:-1 544:-1 545:-1 546:-1 547:-1 548:-1 549:-1 550:-1 551:-1 552:-1 554:-1 555:-1 556:5.63605 557:-1 558:-1 559:1.6679 560:-1 561:-1 562:-1 563:-1 564:-1 565:-1 566:-1 567:-1 569:-1 570:-1 571:-1 572:-1 573:-1 574:-1 575:-1 576:-1 577:-1 578:-1 579:-1 580:-1 581:-1 582:-1 583:-1 584:3.74354 585:-1 586:-1 587:-1 588:-1 589:-1 590:-1 591:-1 592:-1 593:-1 594:-1 595:0.256249 596:-1 597:-1 598:-1 599:-1 600:-1 602:-1 603:-1 604:-1 605:-1 606:-1 607:-1 608:7.5384 609:-1 610:-1 611:-1 612:-1 613:-1 614:-1 615:1.84589 616:2.66403 617:-1 618:-1 619:-1 620:-1 621:-1 622:-1 623:-1 624:-1 625:-1 626:-1 627:-1 628:-1 629:-1 630:-1 631:-1 632:-1 633:-1 634:-1 635:-1 636:-1 637:-1 638:-1 639:-1 640:-1 641:-1 642:-1 643:-1 644:-1 645:-1 646:-1 647:6.96212 648:13.6713 649:-1 651:-1 652:6.32868 653:-1 654:-1 655:-1 656:-1 657:-1 658:-1 659:0.0461538 660:-1 661:-1 662:-1 663:-1 664:-1 665:-1 666:-1 667:-1 668:-1 669:-1 670:-1 671:-1 672:-1 673:-1 674:-1 675:8.04538 676:-1 677:-1 678:-1 679:-1 680:-1 681:2.66403 682:-1 683:-1 684:-1 685:-1 686:-1 687:-1 688:-1 689:2.66403 690:8.48318 691:3.74354 692:-1 693:-1 694:-1 695:-1 696:-1 697:-1 698:-1 699:-1 700:-1 701:0.0750488 702:-0.410445 703:-1 704:-1 705:-1 706:2.66403 707:-1 708:-1 709:-1 710:-1 711:-1 712:-1 713:-1 714:-1 715:-1 716:-1 717:-1 718:0.0461538 719:-1 720:-1 721:1.09243 722:-1 723:-1 724:-1 725:-1 727:-1 728:-1 729:-1 730:-1 731:-1 732:-1 733:-1 734:-1 735:-1 736:-1 737:-1 738:-1 739:-1 740:-1 741:-1 742:-1 743:-1 744:-1 745:-0.302564 746:-1 747:-1 748:-1 749:-1 750:-1 751:-1 752:-1 753:-1 754:-1 755:-1 756:-1 757:-1 758:-1 759:-1 760:-1 761:2.13864 762:-1 763:-1 765:-1 766:-0.734118 767:-0.791911 768:-1 769:5.27729 770:-1 771:-1 772:-1 773:0.514278 774:-1 775:-1 776:-1 777:-1 778:-1 779:-1 780:-1 781:-1 782:-1 783:-1 784:-1 785:-1 786:-1 787:-1 788:-1 789:-1 790:-1 791:-1 792:-1 793:-1 794:-1 795:-1 796:-1 797:-1 798:-1 799:-1 800:-1 801:-1 802:-1 803:-1 804:-1 805:-1 806:-1 807:-1 808:-1 809:1.09231 810:-1 811:-1 812:-1 813:-1 814:-1 815:-1 816:-1 817:-1 818:5.63605 819:-1 820:-1 821:-1 822:-1 823:-1 824:-1 825:-1 826:3.97632 827:-1 828:-1 829:-1 830:-1 831:-1 832:-1 833:-1 834:-1 835:1.58671 836:-1 837:-1 838:-1 839:-1 841:-1 842:-1 843:-1 844:0.0461538 845:-1 846:-1 847:-1 848:1.6679 849:-1 850:-1 
0.03125 0.03125 0 0:0.533756 1:-1 2:-1 3:-1 4:-1 5:-1 6:-1 7:-1 8:-1 9:-1 10:-1 11:-1 12:0.533876 13:0.381255 14:-1 15:1.22007 16:-1 17:-1 18:-1 19:-1 20:-1 21:-1 22:-1 23:-1 24:-1 25:-1 26:-1 27:-1 28:-1 29:-1 30:-0.415244 31:3.56082 32:-1 33:-1 34:-1 35:-1 36:-1 37:-0.432196 38:-1 39:-1 40:-1 42:19.8719 43:-1 45:-1 46:-1 47:-1 48:-1 49:-1 50:-1 51:-1 52:-1 53:-1 54:3.60163 55:-1 56:-1 57:-1 58:-1 59:-0.233122 60:-1 61:-1 62:-1 63:-1 64:-1 65:-1 66:-1 67:-1 68:-1 69:-1 70:-1 72:-1 73:-1 74:-1 75:-1 76:-1 77:0.343161 78:-1 79:-1 80:-1 81:-1 82:-1 83:0.381255 84:2.32203 85:-1 86:-1 87:-1 88:-1 89:-1 90:-1 91:-0.211941 92:-1 93:-1 94:-1 95:-1 96:-1 97:-1 98:-1 99:-1 100:-1 101:-1 102:-1 103:-1 104:-1 105:-1 106:-1 107:-1 108:-1 109:-0.233122 110:-1 111:4.52657 112:-1 113:-1 114:-1 115:-1 116:-1 117:-1 119:-1 120:-1 121:-1 122:-1 123:-1 124:-1 125:-1 126:-1 127:-0.0791132 128:-1 129:-1 130:0.533756 131:-1 132:-1 133:-1 134:-1 135:-1 136:-1 137:-1 138:-1 140:-1 141:-1 142:-1 143:-1 144:-1 145:-1 146:-1 147:5.63067 148:-1 149:-1 150:-1 151:-1 152:-1 153:-1 154:-1 155:-1 156:-1 157:-1 158:-1 159:-1 160:-1 161:-1 162:-1 163:-1 164:-1 165:-1 166:-1 167:-1 168:-1 169:-1 170:-1 171:-1 172:-1 173:-1 174:-1 175:-1 176:-1 177:-1 178:-1 179:-1 180:-1 181:1.76296 182:-1 183:-1 184:1.76296 185:-1 186:-1 187:-1 188:-1 189:-1 190:-1 191:-1 192:-1 193:-1 194:-1 195:-1 196:-1 197:-1 198:4.37242 199:-1 200:-1 201:-1 202:-1 203:-1 204:-1 205:-1 206:-1 207:-1 208:-1 209:-1 210:-1 211:-1 212:-0.233122 213:-1 214:-1 215:-1 216:-1 217:-1 218:-1 219:-1 220:-0.211941 221:-0.169541 222:-1 223:-1 224:-1 225:-1 226:-1 227:-1 228:-1 229:-1 230:-1 231:-1 232:-1 233:-1 235:-1 236:-1 237:-1 238:-1 239:-1 240:-1 241:-1 242:23.3506 243:-1 244:-1 245:4.91669 246:-1 247:-1 248:-1 249:-1 250:-1 251:-1 252:-1 253:9.43596 254:-1 255:3.46941 256:-1 257:-1 258:-1 259:-1 260:0.381255 261:-1 262:-1 263:-1 264:-1 265:-1 266:-1 267:-1 268:-1 269:-1 270:-1 271:-1 272:-1 274:-0.233122 275:-1 276:-1 277:-1 278:-1 279:-1 280:-1 281:0.576285 282:1.76296 283:-1 284:-1 285:-1 286:-1 287:-1 288:-1 289:-1 290:-0.983052 291:-1 292:-1 293:-1 294:-1 295:-1 296:-1 297:-1 298:-1 299:-1 300:2.31663 301:-1 302:-1 303:-1 304:-1 305:-1 306:-1 307:-1 308:-1 309:-1 310:2.8396 311:-1 312:-1 313:-1 314:-1 315:-1 316:-1 317:-1 318:-1 319:-1 320:-1 321:-1 322:-1 323:-1 324:-1 325:-1 326:-1 327:-1 328:-1 329:-1 330:-1 331:-1 332:-1 333:-1 334:-1 335:-1 336:-1 337:-1 338:-1 339:-1 340:-1 341:-1 342:-1 343:1.6859 344:-1 345:-1 346:-1 347:4.68725 348:-1 349:-1 350:-1 351:-1 352:-1 353:-1 354:-1 355:1.55638 356:-1 357:-1 358:-1 359:-1 360:-1 361:1.76288 362:-1 363:-1 364:-1 366:-1 367:-1 368:-1 369:-1 370:-1 371:-1 372:-1 373:-1 374:-1 375:-1 376:-1 377:-1 378:-1 379:-1 380:-1 381:-1 382:-1 383:-1 384:-1 385:-1 386:-1 387:-1 388:-1 389:-1 390:-1 391:-1 392:-1 393:-1 394:-1 395:-1 396:-1 397:-1 398:-1 399:-1 400:-1 401:-1 402:-1 403:-1 404:-1 405:-1 406:-1 407:-1 408:2.47723 409:-1 410:-1 411:0.381255 412:-1 413:-1 414:-1 415:-1 416:-1 417:-1 418:-1 419:-1 420:-1 421:-1 422:-1 423:-1 424:-1 425:-0.488748 426:-1 427:-1 428:-1 429:5.07891 430:-1 431:2.30861 432:-1 433:-1 434:-1 435:6.68011 436:-1 437:2.17259 438:-1 439:-1 440:-1 441:-0.233122 442:-1 443:-1 444:-1 445:-1 447:-1 448:-1 449:-1 450:-1 451:4.37296 452:-1 453:4.00739 454:-1 455:-1 456:3.45765 457:-1 458:0.91028 459:0.576304 460:-1 461:-1 462:-1 463:-1 464:-1 465:-1 466:-1 467:-1 468:14.3386 469:-1 470:-1 471:-1 472:-1 473:-1 474:-1 475:-1 476:501.193 477:-1 478:-1 479:-1 480:0.533756 481:-1 482:-1 483:-1 484:-0.169541 486:-1 487:1.6859 488:1.76296 489:-1 490:-1 491:-1 492:-1 493:-1 494:-1 495:-1 496:-1 497:1.76284 498:-1 499:-1 500:-1 501:-1 502:-1 503:-1 504:-1 505:-1 506:-1 507:-1 508:-1 509:-1 510:-1 511:-1 512:-1 513:-1 514:-1 515:-1 516:-1 517:-1 518:-1 519:-1 520:-1 522:-1 523:-1 524:-1 525:-1 526:-1 527:-1 528:-1 529:-1 530:-1 531:-1 532:-1 533:-1 534:-1 535:-1 536:-1 537:-1 538:-1 539:-1 540:0.110034 541:0.381255 542:-1 543:-1 544:-1 545:-1 546:-1 547:-1 548:-1 549:-1 550:-1 551:-1 552:-1 554:-1 555:-1 556:-1 557:2.17259 558:-1 559:0.955689 560:-1 561:-1 562:-1 563:-1 564:-1 565:-1 566:-1 567:-1 569:-1 570:-1 571:-1 572:-1 573:-1 574:-1 575:-1 576:-1 577:-1 578:-1 579:-1 580:1.6859 581:-1 582:-1 583:4.52657 584:-1 585:-1 586:-1 587:-1 588:-1 589:-1 590:-1 591:-1 592:-1 593:-1 594:-1 595:-1 596:5.68639 597:-1 598:-1 599:-1 600:-1 602:-1 603:-1 604:-1 605:-1 606:-1 607:-1 608:-1 609:-1 610:-1 611:-1 612:-1 613:-1 614:-1 615:-1 616:-1 617:-1 618:-1 619:-1 620:-1 621:-1 622:-1 623:1.76296 624:-1 625:-1 626:-1 627:-1 628:-1 629:-1 630:-1 631:-1 632:3.46941 633:-1 634:-1 635:5.07891 636:-1 637:-1 638:-1 639:-1 640:-1 641:-1 642:-1 643:-1 644:-1 645:-1 646:-1 647:1.91804 648:-1 649:-1 651:5.66073 652:4.37242 653:-1 654:-1 655:-1 656:-1 657:-1 658:-1 659:-1 660:-1 661:-1 662:-1 663:-1 664:-1 665:-1 666:-1 667:-1 668:-1 669:-1 670:-1 671:-1 672:-1 673:-1 674:-1 675:-1 676:-1 677:-1 678:-1 679:-1 680:-1 681:9.74422 682:-1 683:-1 684:-1 685:-1 686:-1 687:-1 688:-1 689:-1 690:12.9048 691:-1 692:-1 693:-1 694:-1 695:-1 696:-1 697:-1 698:-1 699:-1 700:-1 701:-1 702:-1 703:-1 704:-1 705:-1 706:1.6859 707:-1 708:-1 709:-1 710:-1 711:-1 712:-1 713:-1 714:-1 715:-1 716:-1 717:-1 718:-1 719:-1 720:4.52657 721:0.533876 722:-1 723:-1 724:-1 725:-1 727:-1 728:-1 729:-1 730:-1 731:-1 732:-1 733:-1 734:-1 735:-1 736:-1 737:-1 738:-1 739:-1 740:-1 741:-1 742:-1 743:-1 744:-1 745:2.579 746:-1 747:-1 748:-1 749:-1 750:-1 751:-1 752:-1 753:-1 754:5.07891 755:1.60578 756:-1 757:-1 758:-1 759:-1 760:-1 761:-1 762:-1 763:-1 765:-1 766:-0.220341 767:0.372879 768:-1 769:0.533756 770:9.43596 771:-1 772:-1 773:-1 774:-1 775:-1 776:-1 777:35.4961 778:-1 779:-1 780:4.37242 781:-1 782:-1 783:-1 784:-1 785:1.6859 786:0.559317 787:23.3506 788:-1 789:17.2237 790:-1 791:-1 792:-1 793:-1 794:-1 795:-1 796:-1 797:-1 798:-1 799:-1 800:4.51679 801:-1 802:-1 803:-1 804:-1 805:-1 806:-1 807:-0.97821 808:-1 809:3.60163 810:-1 811:-1 812:-1 813:1.97961 814:-1 815:0.661113 816:-1 817:-1 818:-1 819:-1 820:-1 821:-1 822:-1 823:-1 824:-1 825:0.661113 826:-1 827:-1 828:-1 829:-1 830:-1 831:-1 832:-1 833:-1 834:-1 835:-1 836:-1 837:-1 838:-1 839:-1 841:-1 842:-1 843:-1 844:-1 845:-1 846:-1 847:-1 848:-1 849:-1 850:-1 
0.03125 0.03125 0 0:-1 1:-1 2:-1 3:-1 4:-1 5:-1 6:-1 7:-1 8:-0.0273124 9:-1 10:12.3659 11:93.163 12:-0.744314 13:-1 14:-1 15:-1 16:-1 17:11.1646 18:-1 19:-0.434028 20:-1 21:-1 22:0.564993 23:1.02678 24:0.87064 25:-1 26:0.140167 27:0.381806 28:-1 29:-1 30:-0.610148 31:-1 32:-1 33:0.360951 34:1.76296 35:-1 36:1.22117 37:-1 38:1.28963 39:-1 40:-1 42:-1 43:3.56082 45:-1 46:-0.902525 47:-1 48:-1 49:-1 50:-1 51:-1 52:-1 53:-1 54:0.917285 55:1.80596 56:-1 57:-1 58:-1 59:-0.616471 60:-1 61:-1 62:0.647105 63:-1 64:-1 65:-1 66:1.76296 67:0.824365 68:-1 69:-0.309209 70:-1 72:-1 73:3.14477 74:-0.232941 75:-1 76:-1 77:-1 78:-1 79:-1 80:-1 81:-1 82:1.76296 83:0.381255 84:-1 85:-1 86:-1 87:-1 88:2.74007 89:-1 90:4.03266 91:-1 92:0.227049 93:1.22117 94:-1 95:-1 96:5.25849 97:-0.139667 98:-1 99:-1 100:-1 101:-1 102:-1 103:5.08034 104:-1 105:-1 106:1.30081 107:0.533756 108:-1 109:-0.616471 110:1.68664 111:-1 112:-0.232941 113:5.25997 114:0.738256 115:-1 116:-1 117:0.0791953 119:-1 120:-1 121:1.76296 122:31.264 123:-1 124:-1 125:1.43284 126:-1 127:-0.539448 128:-1 129:-1 130:-0.232941 131:-1 132:-1 133:0.658708 134:-1 135:-1 136:2.23708 137:-1 138:-1 140:-1 141:-0.539448 142:-1 143:-1 144:-1 145:-1 146:-1 147:-1 148:0.60462 149:-1 150:-1 151:1.80662 152:9.75635 153:-1 154:-0.0446348 155:-1 156:-1 157:-0.0516894 158:-1 159:-1 160:-1 161:-1 162:-1 163:-1 164:-1 165:-0.309209 166:-1 167:0.647105 168:4.21921 169:-1 170:2.29343 171:1.08666 172:-1 173:-1 174:-1 175:-1 176:-1 177:-1 178:-1 179:1.5034 180:-1 181:-1 182:1.01858 183:-1 184:-1 185:-1 186:-1 187:1.40795 188:0.533756 189:-1 190:0.182182 191:-1 192:-1 193:-1 194:-1 195:-0.654605 196:0.841008 197:-1 198:-1 199:-1 200:-1 201:-1 202:3.14477 203:-1 204:-1 205:-1 206:-1 207:-0.232941 208:-1 209:4.47223 210:-1 211:-1 212:-1 213:-1 214:-1 215:-1 216:-1 217:-1 218:-1 219:6.29432 220:-0.211941 221:1.07624 222:4.21279 223:-1 224:-1 225:-1 226:-1 227:-1 228:-1 229:-1 230:1.80596 231:-1 232:-1 233:-1 235:3.4413 236:-1 237:-1 238:-1 239:0.114676 240:0.15919 241:-1 242:-1 243:5.08034 244:-1 245:0.972074 246:-1 247:1.15788 248:-1 249:-1 250:3.14477 251:-1 252:-1 253:4.21921 254:2.34491 255:-1 256:-1 257:-1 258:0.381806 259:-0.792336 260:1.07205 261:-1 262:-1 263:-1 264:-1 265:-0.539448 266:1.43284 267:0.381806 268:-1 269:-1 270:2.04017 271:8.12164 272:1.22117 274:-0.233122 275:7.60305 276:1.23523 277:-1 278:-1 279:-1 280:-1 281:-1 282:-1 283:3.4413 284:-1 285:-1 286:-0.232941 287:-0.309209 288:-1 289:-1 290:-1 291:-1 292:-1 293:1.74501 294:0.00952835 295:0.433694 296:-0.105719 297:-1 298:-1 299:-1 300:0.658708 301:-1 302:-1 303:0.381255 304:-0.539448 305:-0.682761 306:1.88058 307:-1 308:-1 309:-1 310:-1 311:-1 312:8.94679 313:-1 314:-1 315:0.381806 316:-1 317:11.517 318:-1 319:-1 320:-1 321:-1 322:-1 323:3.0298 324:-1 325:-1 326:-1 327:-1 328:-1 329:-1 330:-1 331:0.586672 332:2.68115 333:-0.792336 334:-1 335:-1 336:-1 337:-1 338:-1 339:-1 340:0.422289 341:3.05261 342:-1 343:0.343265 344:-1 345:-0.169541 346:-1 347:-1 348:-1 349:-0.584673 350:-0.539448 351:-1 352:-1 353:1.76296 354:0.304 355:-0.744314 356:-1 357:0.824365 358:1.76296 359:1.97961 360:-1 361:-1 362:-1 363:-1 364:-1 366:-1 367:1.93376 368:-0.232941 369:-1 370:-1 371:-1 372:-1 373:-1 374:1.43284 375:-0.0446348 376:-1 377:-1 378:0.140167 379:-1 380:-1 381:-1 382:-1 383:-1 384:0.00952835 385:1.51603 386:0.381806 387:-1 388:1.72126 389:-1 390:-1 391:-1 392:-1 393:-1 394:8.12271 395:-1 396:3.56189 397:-1 398:-1 399:-1 400:-1 401:-1 402:-1 403:-1 404:-1 405:-0.605877 406:-1 407:-1 408:-1 409:0.533756 410:0.0433284 411:-1 412:-1 413:-1 414:-1 415:-1 416:-1 417:-1 418:-1 419:-1 420:-1 421:-1 422:-0.808227 423:-1 424:-1 425:-0.744314 426:3.46941 427:-1 428:-1 429:5.07891 430:-1 431:-1 432:-1 433:-1 434:-0.808227 435:2.8396 436:-0.654605 437:-1 438:-1 439:0.944929 440:-1 441:-1 442:-1 443:-1 444:-1 445:-1 447:-1 448:0.0791953 449:-1 450:-1 451:1.0149 452:-1 453:2.75539 454:-1 455:-0.0516894 456:-1 457:-1 458:-1 459:-1 460:-1 461:-1 462:14.6384 463:-1 464:0.533756 465:-1 466:0.203635 467:-0.629869 468:-1 469:0.194813 470:2.64787 471:-1 472:-1 473:-1 474:-1 475:-1 476:312.867 477:-1 478:-0.539448 479:-0.232941 480:-1 481:-1 482:-1 483:-0.232941 484:-0.169541 486:-1 487:0.343265 488:0.381806 489:-1 490:-1 491:2.75539 492:2.04017 493:-1 494:-1 495:-1 496:-1 497:-1 498:-1 499:-0.319634 500:-1 501:20.5127 502:-0.328261 503:-1 504:-1 505:-1 506:-1 507:-1 508:-1 509:-1 510:0.140167 511:-1 512:-1 513:-1 514:-1 515:2.47723 516:-1 517:1.31783 518:1.76296 519:-1 520:1.22117 522:-1 523:-1 524:-1 525:-1 526:-1 527:0.381255 528:-1 529:-1 530:-1 531:-1 532:0.422625 533:-1 534:1.608 535:-1 536:-1 537:2.06787 538:-1 539:-0.309209 540:-0.444852 541:-1 542:-1 543:-0.232941 544:0.344117 545:-1 546:-1 547:-1 548:-1 549:-1 550:-1 551:-1 552:-1 554:-0.309372 555:-1 556:-1 557:0.586672 558:-1 559:-0.0219248 560:-1 561:17.2672 562:0.422625 563:1.80662 564:-1 565:-0.232941 566:1.84458 567:-1 569:0.15919 570:-1 571:-1 572:-1 573:19.0505 574:0.381806 575:-1 576:0.739023 577:2.6503 578:-1 579:1.84458 580:1.6859 581:-0.232941 582:0.533756 583:3.14477 584:-1 585:0.647105 586:-1 587:-1 588:-1 589:-1 590:-1 591:-1 592:-0.232941 593:0.381255 594:-0.769736 595:-0.539448 596:-1 597:-1 598:-1 599:5.08034 600:-1 602:-1 603:-1 604:-1 605:5.68454 606:-1 607:-1 608:0.564993 609:-1 610:-1 611:-1 612:-1 613:-1 614:0.117911 615:0.0433284 616:-1 617:-1 618:-1 619:-1 620:-1 621:-1 622:-1 623:-1 624:-1 625:-0.0794961 626:-1 627:0.381806 628:-1 629:3.94054 630:-1 631:9.43842 632:1.23523 633:0.381806 634:-1 635:2.04017 636:3.0555 637:-1 638:-1 639:-1 640:-1 641:-1 642:5.25997 643:-1 644:-1 645:2.91048 646:-1 647:-1 648:-1 649:-0.584673 651:-1 652:0.343265 653:1.14691 654:1.15022 655:-1 656:1.15127 657:-1 658:-1 659:-0.616471 660:-1 661:0.647105 662:-1 663:-1 664:-1 665:11.1782 666:-1 667:-1 668:-0.348201 669:-0.309209 670:-0.328261 671:-1 672:-0.664131 673:-1 674:-1 675:8.94679 676:-1 677:-1 678:-1 679:-1 680:-0.539448 681:-1 682:-1 683:-1 684:-1 685:-1 686:-1 687:-1 688:0.647105 689:-1 690:23.3331 691:0.739023 692:-1 693:-1 694:0.381255 695:-1 696:-1 697:-1 698:-1 699:-1 700:0.381806 701:-1 702:-1 703:-1 704:-1 705:2.91048 706:-1 707:-1 708:-1 709:0.381806 710:-1 711:-1 712:-1 713:-1 714:1.22117 715:1.07205 716:-1 717:-1 718:1.30081 719:0.343265 720:-1 721:-0.744314 722:-1 723:-1 724:-1 725:-1 727:-1 728:-1 729:-1 730:-1 731:0.381255 732:-1 733:-1 734:-1 735:-1 736:-1 737:-1 738:-1 739:-1 740:-1 741:-1 742:-1 743:-1 744:2.6503 745:-1 746:-1 747:-1 748:3.47046 749:0.824365 750:-1 751:1.5034 752:-1 753:-1 754:-1 755:-1 756:-1 757:-1 758:0.182182 759:-1 760:-1 761:0.150407 762:1.5034 763:0.841008 765:-1 766:-1 767:-0.942796 768:1.40795 769:-1 770:-1 771:-0.539448 772:-1 773:-1 774:-1 775:-1 776:-1 777:9.94918 778:-1 779:-1 780:-1 781:3.56189 782:-1 783:-0.539448 784:-1 785:-1 786:-0.805097 787:-1 788:-1 789:-1 790:-1 791:-1 792:1.23523 793:-0.064872 794:1.08666 795:-1 796:-1 797:-1 798:-1 799:0.533756 800:-1 801:-0.211941 802:-1 803:-1 804:-1 805:-0.616471 806:-1 807:-1 808:-1 809:-0.232941 810:1.53733 811:0.381806 812:0.533756 813:-1 814:-1 815:0.245786 816:1.14691 817:-1 818:3.86452 819:-1 820:-1 821:-1 822:-0.420405 823:-0.402594 824:-0.232941 825:-0.584673 826:-1 827:-0.983052 828:-1 829:2.31612 830:-1 831:-1 832:-1 833:-1 834:-1 835:-1 836:-1 837:-1 838:-1 839:3.30152 841:-1 842:-1 843:-1 844:-1 845:-1 846:-1 847:-1 848:0.955689 849:-1 850:-1 
0.03125 0.03125 0 0:-1 1:-1 2:-1 3:-1 4:-1 5:-1 6:-1 7:-1 8:-1 9:-1 10:-1 11:-1 12:-1 13:-1 14:-1 15:-1 16:-1 17:10.6 18:-1 19:-1 20:-1 21:-1 22:-1 23:-1 24:-1 25:-1 26:-1 27:-1 28:-1 29:-1 30:-1 31:-1 32:-1 33:-1 34:-1 35:-1 36:-1 37:-1 38:3.36635 39:-1 40:-1 42:-1 43:-1 45:-1 46:-0.721192 47:-1 48:-1 49:-1 50:-1 51:-1 52:-1 53:-1 54:1.19385 55:-1 56:-1 57:-1 58:-1 59:-1 60:-1 61:-1 62:-1 63:-1 64:-1 65:-1 66:-1 67:-1 68:-1 69:-1 70:-1 72:1.2954 73:-1 74:-1 75:-1 76:-1 77:-1 78:-1 79:-1 80:-1 81:-1 82:-1 83:-1 84:-1 85:-1 86:-1 87:-1 88:-1 89:-1 90:-1 91:-1 92:0.755285 93:-1 94:-1 95:-1 96:-1 97:-1 98:-1 99:-1 100:-1 101:-1 102:-1 103:-1 104:-1 105:-1 106:-1 107:-1 108:-1 109:-1 110:-1 111:-1 112:-1 113:-1 114:-1 115:-1 116:-1 117:-1 119:-1 120:-1 121:-1 122:-1 123:-1 124:-1 125:-1 126:-1 127:-1 128:-1 129:-1 130:-1 131:-1 132:-1 133:-1 134:-1 135:-1 136:-1 137:40.0186 138:-1 140:-1 141:-1 142:-1 143:-1 144:-1 145:-1 146:-1 147:-1 148:-1 149:-1 150:-1 151:-1 152:-1 153:-1 154:-1 155:-1 156:-1 157:-1 158:-1 159:-1 160:21.3778 161:-1 162:-1 163:-1 164:-1 165:-1 166:-1 167:-1 168:-1 169:-1 170:-1 171:-1 172:-1 173:-1 174:-1 175:-1 176:-1 177:-1 178:-1 179:-1 180:-1 181:-1 182:-1 183:-1 184:-1 185:-1 186:-1 187:-1 188:-1 189:-1 190:-1 191:-1 192:-1 193:-1 194:-1 195:-1 196:-1 197:-1 198:-1 199:-1 200:-1 201:19.864 202:-1 203:-1 204:-1 205:-1 206:-1 207:-1 208:-1 209:-1 210:-1 211:-1 212:-1 213:-1 214:-1 215:-1 216:-1 217:-1 218:-1 219:-1 220:-1 221:0.187966 222:-1 223:-1 224:-1 225:-1 226:-1 227:-1 228:-1 229:-1 230:-1 231:-1 232:-1 233:-1 235:-1 236:-1 237:-1 238:-1 239:-1 240:-1 241:-1 242:-1 243:-1 244:-1 245:7.46265 246:-1 247:-1 248:-1 249:-1 250:-1 251:-1 252:-1 253:28.8547 254:-1 255:-1 256:-1 257:-1 258:-1 259:-1 260:-1 261:-1 262:-1 263:-1 264:-1 265:-1 266:-1 267:-1 268:-1 269:-1 270:-1 271:-1 272:-1 274:-1 275:-1 276:-1 277:-1 278:-1 279:-1 280:-1 281:-1 282:-1 283:-1 284:-1 285:-1 286:-1 287:-1 288:-1 289:-1 290:-1 291:-1 292:-1 293:129.352 294:-1 295:-1 296:-1 297:-1 298:-1 299:-1 300:-1 301:-1 302:-1 303:-1 304:-1 305:-1 306:1.74688 307:-1 308:-1 309:-1 310:-1 311:-1 312:-1 313:-1 314:-1 315:-1 316:-1 317:-1 318:-1 319:-1 320:-1 321:-1 322:-1 323:6.68489 324:-1 325:-1 326:-1 327:-1 328:-1 329:-1 330:-1 331:-1 332:4.26586 333:-1 334:-1 335:-1 336:-1 337:-1 338:-1 339:-1 340:-1 341:-1 342:-1 343:-1 344:-1 345:-1 346:-1 347:-1 348:-1 349:-1 350:-1 351:-1 352:-1 353:-1 354:-1 355:0.462564 356:-1 357:-1 358:-1 359:-1 360:-1 361:-1 362:-1 363:-1 364:-1 366:-1 367:-1 368:-1 369:-1 370:-1 371:-1 372:-1 373:-1 374:-1 375:1.73264 376:-1 377:-1 378:-1 379:-1 380:-1 381:-1 382:-1 383:-1 384:-1 385:-1 386:-1 387:-1 388:-1 389:-1 390:-1 391:-1 392:-1 393:-1 394:-1 395:-1 396:-1 397:-1 398:-1 399:-1 400:-1 401:0.317322 402:-1 403:-1 404:-1 405:-1 406:-1 407:3.97415 408:-1 409:-1 410:-1 411:-1 412:-1 413:-1 414:-1 415:-1 416:-1 417:-1 418:-1 419:-1 420:-1 421:-1 422:-1 423:-1 424:-1 425:1.19391 426:-1 427:-1 428:0.462608 429:-1 430:-1 431:-1 432:-1 433:-1 434:-1 435:-1 436:-1 437:-1 438:-1 439:4.5631 440:-1 441:1.19385 442:-1 443:-1 444:-1 445:-1 447:-1 448:-1 449:-1 450:-1 451:12.4487 452:-1 453:-1 454:-1 455:-1 456:-1 457:-1 458:-1 459:-1 460:-1 461:-1 462:-1 463:-1 464:-1 465:-1 466:-1 467:-1 468:9.96941 469:-1 470:-1 471:-1 472:-1 473:-1 474:-1 475:-1 476:-1 477:-1 478:-1 479:1.19403 480:-1 481:-1 482:-1 483:1.19403 484:-1 486:-1 487:-1 488:-1 489:-1 490:-1 491:-1 492:-1 493:-1 494:-1 495:-1 496:-1 497:-1 498:-1 499:-1 500:-1 501:-1 502:-1 503:-1 504:-1 505:-1 506:-1 507:-1 508:-1 509:-1 510:-1 511:-1 512:-1 513:-1 514:8.56748 515:8.94748 516:-1 517:-1 518:-1 519:18.1199 520:-1 522:-1 523:-1 524:-1 525:-1 526:-1 527:-1 528:-1 529:-1 530:3.34948 531:-1 532:-1 533:-1 534:-1 535:-1 536:-1 537:3.38769 538:-1 539:-1 540:-1 541:-1 542:-1 543:-1 544:2.84459 545:-1 546:-1 547:-1 548:-1 549:-1 550:-1 551:-1 552:-1 554:-1 555:-1 556:-1 557:-1 558:-1 559:-1 560:-1 561:-1 562:-1 563:-1 564:-1 565:-1 566:-1 567:-1 569:-1 570:-1 571:-1 572:-1 573:-1 574:-1 575:-1 576:-1 577:-1 578:-1 579:-1 580:-1 581:-1 582:-1 583:-1 584:-1 585:-1 586:-1 587:-1 588:-1 589:-1 590:-1 591:-1 592:-1 593:-1 594:-1 595:-1 596:-1 597:-1 598:-1 599:-1 600:-1 602:-1 603:-1 604:-1 605:-1 606:-1 607:-1 608:-1 609:-1 610:-1 611:-1 612:-1 613:-1 614:-1 615:-1 616:6.68368 617:-1 618:-1 619:2.9524 620:-1 621:-1 622:-1 623:-1 624:2.84216 625:-1 626:-1 627:-1 628:-1 629:-1 630:-1 631:-1 632:-1 633:-1 634:-1 635:-1 636:-1 637:-1 638:-1 639:-1 640:-1 641:-1 642:-1 643:-1 644:-1 645:-1 646:-1 647:-1 648:-1 649:-1 651:2.17579 652:-1 653:-1 654:-1 655:-1 656:-1 657:-1 658:-1 659:-1 660:-1 661:-1 662:-1 663:-1 664:-1 665:-1 666:-1 667:-1 668:-1 669:-1 670:-1 671:-1 672:-1 673:-1 674:-1 675:-1 676:-1 677:-1 678:-1 679:-1 680:-1 681:-1 682:-1 683:-1 684:-1 685:-1 686:-1 687:-1 688:-1 689:-1 690:-1 691:-1 692:-1 693:-1 694:-1 695:-1 696:-1 697:-1 698:-1 699:-1 700:-1 701:-1 702:-1 703:-1 704:-1 705:-1 706:-1 707:-1 708:-1 709:-1 710:-1 711:-1 712:-1 713:-1 714:-1 715:-1 716:-1 717:-1 718:-1 719:-1 720:-1 721:-1 722:-1 723:-1 724:-1 725:-1 727:-1 728:-1 729:-1 730:-1 731:-1 732:-1 733:-1 734:-1 735:-1 736:-1 737:-1 738:-1 739:-1 740:-1 741:-1 742:-1 743:-1 744:-1 745:-1 746:-1 747:-1 748:-1 749:-1 750:-1 751:-1 752:-1 753:-1 754:-1 755:-1 756:-1 757:-1 758:-1 759:-1 760:-1 761:-1 762:-1 763:-1 765:-1 766:-1 767:-0.890911 768:-1 769:-1 770:-1 771:-1 772:-1 773:-1 774:-1 775:-1 776:-1 777:-1 778:-1 779:-1 780:-1 781:-1 782:-1 783:-1 784:-1 785:-1 786:-1 787:-1 788:-1 789:-1 790:-1 791:-1 792:-1 793:-1 794:-1 795:-1 796:-1 797:-1 798:-1 799:-1 800:0.127313 801:-1 802:-1 803:-1 804:-1 805:0.0970136 806:-1 807:-1 808:-1 809:1.19403 810:-1 811:-1 812:1.19403 813:-1 814:-1 815:-1 816:-1 817:-1 818:-1 819:-1 820:-1 821:-1 822:-1 823:-1 824:-1 825:-1 826:4.21825 827:-1 828:-1 829:-1 830:-1 831:-1 832:-1 833:-1 834:-1 835:-1 836:-1 837:-1 838:-1 839:-1 841:-1 842:-1 843:-1 844:-1 845:-1 846:-1 847:-1 848:-1 849:-1 850:-1 
0.03125 0.03125 0 0:-1 1:-1 2:-1 3:-1 4:-1 5:-1 6:-1 7:-1 8:-1 9:-1 10:-1 11:-1 12:-1 13:-1 14:-1 15:-1 16:-1 17:-1 18:-1 19:-1 20:-0.333318 21:-1 22:-1 23:-1 24:-1 25:16.8375 26:-1 27:-1 28:-1 29:-1 30:-1 31:-1 32:-1 33:-1 34:-1 35:-1 36:-1 37:-1 38:-1 39:-1 40:-1 42:-1 43:-1 45:-1 46:-1 47:-1 48:-1 49:-1 50:-1 51:-1 52:-1 53:-1 54:-1 55:-1 56:-1 57:-1 58:-1 59:1.62317 60:-1 61:-1 62:-1 63:-1 64:-1 65:-1 66:-1 67:-1 68:-1 69:3.72469 70:-1 72:-1 73:-1 74:-1 75:-1 76:-1 77:-1 78:-1 79:-1 80:-1 81:-1 82:-1 83:-1 84:-1 85:-1 86:-1 87:-1 88:-1 89:-1 90:-1 91:-1 92:-1 93:14.1918 94:-1 95:-1 96:-1 97:-1 98:-1 99:-1 100:-1 101:-1 102:-1 103:40.5868 104:-1 105:-1 106:-1 107:-1 108:-1 109:-1 110:-1 111:-1 112:-1 113:-1 114:4.94585 115:-1 116:-1 117:-1 119:-1 120:-1 121:-1 122:-1 123:-1 124:2.32599 125:-1 126:-1 127:-1 128:-1 129:-1 130:-1 131:-1 132:-1 133:10.3448 134:-1 135:-0.925465 136:-1 137:23.5228 138:-1 140:-1 141:-1 142:-1 143:-1 144:-1 145:-1 146:-1 147:-1 148:-1 149:-1 150:-1 151:-1 152:-1 153:-1 154:-1 155:-1 156:-1 157:-1 158:-1 159:-1 160:-1 161:-1 162:-1 163:-1 164:-1 165:-1 166:-1 167:-1 168:-1 169:-1 170:-1 171:-1 172:-1 173:-1 174:-1 175:-0.333318 176:-1 177:-1 178:-1 179:-1 180:-1 181:-1 182:-1 183:-1 184:-1 185:-1 186:-1 187:-1 188:-1 189:-1 190:1.69562 191:-1 192:-1 193:-1 194:-1 195:-1 196:-1 197:-1 198:-1 199:-1 200:-1 201:-1 202:-1 203:-1 204:-1 205:-1 206:-1 207:-1 208:-1 209:-1 210:-1 211:-1 212:1.62317 213:-1 214:-1 215:-1 216:-1 217:-1 218:-1 219:-1 220:-1 221:-1 222:-1 223:-1 224:-1 225:-1 226:-1 227:-1 228:-1 229:-1 230:-1 231:-1 232:-1 233:-1 235:-1 236:-1 237:-1 238:-1 239:-1 240:-1 241:-1 242:-1 243:-1 244:-1 245:-1 246:-1 247:-1 248:-1 249:-1 250:-1 251:-1 252:-1 253:-1 254:-1 255:-1 256:-1 257:-1 258:-1 259:0.420325 260:-1 261:-1 262:-1 263:-0.299762 264:-1 265:-1 266:-1 267:-1 268:-1 269:-1 270:-1 271:-1 272:-1 274:-1 275:-1 276:-1 277:-1 278:-1 279:-1 280:-1 281:-1 282:-1 283:-1 284:-1 285:-1 286:-1 287:-1 288:-1 289:-1 290:-0.942028 291:-1 292:-1 293:6.51127 294:-1 295:-1 296:-1 297:-1 298:-1 299:-1 300:10.3448 301:-1 302:-1 303:-1 304:-1 305:-1 306:5.56832 307:-1 308:-1 309:-1 310:-1 311:-1 312:-1 313:-1 314:-1 315:-1 316:-1 317:-1 318:-1 319:-1 320:-1 321:-1 322:-1 323:3.59439 324:-1 325:-1 326:-1 327:-1 328:-1 329:-1 330:-1 331:-1 332:-1 333:-1 334:3.72469 335:-1 336:-1 337:-1 338:-1 339:-1 340:8.73011 341:-1 342:-1 343:-1 344:-1 345:-1 346:-1 347:-1 348:-1 349:-1 350:-1 351:-1 352:-1 353:-1 354:-1 355:-1 356:-1 357:-1 358:-1 359:9.19198 360:-1 361:-1 362:-1 363:-1 364:-1 366:-1 367:5.68959 368:4.24633 369:-1 370:-1 371:-1 372:-1 373:-1 374:-1 375:-1 376:-1 377:-1 378:-1 379:-1 380:-1 381:-1 382:-1 383:-1 384:-1 385:-1 386:-1 387:-1 388:-1 389:-1 390:-1 391:-1 392:-1 393:-0.51448 394:-1 395:-1 396:-1 397:-1 398:-1 399:-1 400:-1 401:-1 402:-1 403:-1 404:-1 405:-1 406:-1 407:-1 408:-1 409:4.24633 410:13.2718 411:-1 412:-1 413:-1 414:-1 415:-1 416:-1 417:-1 418:-1 419:-0.0289773 420:-1 421:-1 422:-1 423:-1 424:8.45093 425:-1 426:-1 427:-1 428:-1 429:-1 430:-1 431:-1 432:-1 433:-1 434:-1 435:-1 436:-1 437:-1 438:-1 439:-1 440:-1 441:-1 442:-1 443:-1 444:-1 445:-1 447:-1 448:-1 449:-1 450:-1 451:-1 452:-1 453:-1 454:-1 455:-1 456:-1 457:10.3448 458:-1 459:-1 460:-1 461:-1 462:-1 463:-1 464:-1 465:-1 466:-1 467:-1 468:-1 469:-1 470:-1 471:-1 472:-1 473:-1 474:-1 475:-1 476:-1 477:-1 478:-1 479:-1 480:-1 481:-1 482:-1 483:-1 484:1.84065 486:-1 487:-1 488:-1 489:-1 490:-1 491:-1 492:19.7934 493:-1 494:-1 495:-1 496:-1 497:-1 498:-1 499:-1 500:-1 501:-1 502:-1 503:-1 504:-1 505:15.4693 506:-1 507:-1 508:-1 509:-1 510:-1 511:-1 512:-1 513:-1 514:-1 515:34.6816 516:-1 517:-1 518:-1 519:-1 520:-1 522:-1 523:-1 524:-1 525:-1 526:1.69575 527:-1 528:-1 529:-1 530:-1 531:-1 532:-1 533:-1 534:-1 535:-1 536:-1 537:-1 538:-1 539:-1 540:-1 541:-1 542:-1 543:-1 544:-1 545:-1 546:-1 547:-1 548:-1 549:-1 550:-1 551:-1 552:-1 554:-1 555:-1 556:-1 557:-1 558:-1 559:-1 560:-1 561:-1 562:-1 563:-1 564:-1 565:-1 566:-1 567:-1 569:-1 570:-1 571:-1 572:-1 573:-1 574:-1 575:-1 576:-1 577:-1 578:1.84065 579:-1 580:8.18732 581:-1 582:-1 583:-1 584:-1 585:-1 586:-1 587:-1 588:-1 589:-1 590:-1 591:-1 592:-1 593:8.44939 594:-1 595:-1 596:-1 597:-1 598:-1 599:-1 600:-1 602:-1 603:-0.333318 604:-1 605:-1 606:-1 607:-1 608:9.70384 609:-1 610:-1 611:-1 612:-1 613:-1 614:-1 615:-1 616:-1 617:-1 618:-1 619:-1 620:-1 621:-1 622:-1 623:-1 624:-1 625:-1 626:-1 627:-1 628:-1 629:-1 630:-1 631:-1 632:14.288 633:-1 634:-1 635:-1 636:-1 637:2.79696 638:-1 639:-1 640:-1 641:-1 642:-1 643:-1 644:-1 645:-1 646:-1 647:-1 648:-1 649:-1 651:6.59392 652:-1 653:-1 654:-1 655:-1 656:-1 657:-1 658:-1 659:-1 660:-1 661:-1 662:-1 663:-1 664:-1 665:-1 666:-1 667:-1 668:-1 669:-1 670:-1 671:-1 672:1.29719 673:-1 674:-1 675:-1 676:-1 677:-1 678:-1 679:-1 680:-1 681:-1 682:-1 683:-1 684:-1 685:-1 686:-1 687:-1 688:-1 689:-1 690:-1 691:-1 692:-1 693:-1 694:-1 695:-1 696:-1 697:-1 698:-1 699:-1 700:-1 701:-1 702:-1 703:-1 704:-1 705:-1 706:8.18732 707:-1 708:6.92834 709:-1 710:-1 711:-1 712:-1 713:-1 714:-1 715:-1 716:-1 717:-1 718:-1 719:-1 720:-1 721:-1 722:-1 723:-1 724:-1 725:-1 727:-1 728:-1 729:-1 730:-1 731:-1 732:-1 733:-1 734:-1 735:-1 736:-1 737:-1 738:-1 739:-1 740:-1 741:-1 742:-1 743:-0.352644 744:-1 745:0.748778 746:-1 747:-1 748:-1 749:-1 750:-1 751:7.56307 752:-1 753:-1 754:-1 755:-1 756:-1 757:-1 758:-1 759:-1 760:-1 761:-1 762:-1 763:-1 765:-1 766:-0.333318 767:-1 768:-1 769:-1 770:-1 771:-1 772:-1 773:-1 774:-1 775:-1 776:-1 777:-1 778:-1 779:-1 780:-1 781:-1 782:-0.333318 783:-1 784:-1 785:-1 786:-1 787:-1 788:-1 789:-1 790:-1 791:-1 792:-1 793:-1 794:-1 795:-1 796:-1 797:-1 798:-1 799:-1 800:1.69562 801:-1 802:-1 803:20.0196 804:25.7645 805:-1 806:0.347873 807:-1 808:-1 809:9.49267 810:-1 811:-1 812:-1 813:-1 814:-1 815:-1 816:-1 817:-1 818:-1 819:-1 820:-1 821:-1 822:-1 823:-1 824:-1 825:-1 826:-1 827:-1 828:-1 829:21.6808 830:-1 831:-1 832:-1 833:-1 834:-1 835:-1 836:-1 837:-1 838:-1 839:-1 841:-1 842:-1 843:-1 844:-1 845:-1 846:-1 847:-1 848:-1 849:-1 850:-1 
0.03125 0.03125 0 0:-1 1:-1 2:-0.233122 3:-1 4:-1 5:-1 6:-1 7:-1 8:-1 9:-1 10:-1 11:-1 12:-1 13:-1 14:-1 15:-1 16:-1 17:7.10909 18:-1 19:-1 20:-1 21:-1 22:-1 23:3.05261 24:-1 25:1.60738 26:1.2798 27:1.76296 28:1.76296 29:-1 30:-1 31:-1 32:-1 33:-1 34:-1 35:-1 36:-1 37:-1 38:0.526297 39:-1 40:-1 42:19.8719 43:-1 45:-1 46:-0.805097 47:2.91048 48:1.5034 49:-1 50:-1 51:-1 52:-1 53:-1 54:0.533937 55:-1 56:-1 57:-1 58:-1 59:-0.233122 60:9.42312 61:-1 62:-1 63:-1 64:-1 65:-1 66:1.76296 67:2.64787 68:-1 69:-1 70:-1 72:-1 73:-1 74:-1 75:-1 76:-1 77:-1 78:1.6859 79:-1 80:-1 81:4.61258 82:-1 83:-1 84:-0.169541 85:-1 86:-1 87:-1 88:-1 89:-1 90:-1 91:-1 92:1.45439 93:-1 94:8.95068 95:-1 96:-1 97:-1 98:-1 99:-1 100:-1 101:-1 102:-1 103:-1 104:-1 105:-1 106:0.533756 107:-1 108:-1 109:-0.233122 110:0.343161 111:-1 112:-1 113:-1 114:-1 115:-1 116:-1 117:-1 119:-1 120:-1 121:10.0525 122:-1 123:-1 124:-1 125:-1 126:-1 127:-1 128:-1 129:-1 130:-1 131:-1 132:-1 133:2.31663 134:3.56082 135:-1 136:1.15788 137:6.1692 138:-0.32842 140:4.00739 141:-1 142:7.10909 143:-1 144:-1 145:-1 146:-1 147:5.63067 148:0.60462 149:-1 150:-1 151:-1 152:-1 153:-1 154:0.91028 155:-1 156:0.533756 157:-1 158:-1 159:-1 160:4.21477 161:-1 162:-1 163:-1 164:-1 165:-1 166:-1 167:-1 168:-1 169:0.533756 170:-1 171:-1 172:-1 173:-1 174:-1 175:-1 176:-1 177:-1 178:-1 179:-1 180:-1 181:1.76296 182:-1 183:-1 184:-1 185:-1 186:-1 187:8.63068 188:0.533756 189:-1 190:-1 191:-1 192:-1 193:-1 194:-1 195:-1 196:-1 197:-1 198:-1 199:-1 200:-1 201:-1 202:-1 203:-1 204:-1 205:-1 206:-1 207:-1 208:-1 209:-1 210:-1 211:-1 212:-1 213:-1 214:1.76296 215:-1 216:-1 217:-1 218:-1 219:-1 220:-1 221:0.661113 222:-1 223:3.17233 224:-1 225:-1 226:-1 227:3.81477 228:-1 229:-1 230:-1 231:-1 232:-1 233:-0.233122 235:-1 236:-1 237:1.76296 238:-1 239:-1 240:3.63621 241:-1 242:-1 243:-1 244:-1 245:4.91669 246:-1 247:-1 248:-1 249:-1 250:-1 251:-1 252:-1 253:9.43596 254:-1 255:-1 256:-1 257:-1 258:-1 259:-1 260:-1 261:-1 262:-1 263:-1 264:-1 265:-1 266:13.5947 267:1.76296 268:-1 269:-1 270:-1 271:-1 272:-1 274:-1 275:-1 276:-1 277:-1 278:-1 279:-1 280:-1 281:-1 282:-1 283:-1 284:-1 285:-1 286:-1 287:-1 288:-1 289:-1 290:-1 291:0.381255 292:-1 293:1.19616 294:1.01858 295:7.60081 296:-1 297:-1 298:-0.432228 299:-1 300:-1 301:-1 302:-1 303:-1 304:-1 305:-1 306:-1 307:-1 308:-1 309:-1 310:-1 311:-1 312:-1 313:-1 314:-1 315:-1 316:-1 317:-1 318:-1 319:-1 320:-1 321:-1 322:-1 323:4.37296 324:-1 325:-1 326:4.68725 327:-1 328:-1 329:-1 330:-1 331:-1 332:-1 333:-1 334:-1 335:-1 336:-1 337:-1 338:-1 339:-1 340:-1 341:3.05261 342:-1 343:-1 344:-1 345:-1 346:0.110034 347:-1 348:-1 349:-1 350:-1 351:-1 352:-1 353:-1 354:-1 355:4.62413 356:-1 357:-1 358:-1 359:-1 360:-1 361:-1 362:-1 363:-1 364:-1 366:-1 367:-1 368:-1 369:5.07891 370:-1 371:-1 372:-1 373:-1 374:-1 375:-1 376:3.17233 377:-1 378:1.2798 379:-1 380:0.381255 381:-1 382:-1 383:-1 384:1.01858 385:-1 386:-1 387:-1 388:-1 389:-1 390:-1 391:-1 392:-1 393:-1 394:-1 395:-1 396:-1 397:-1 398:-1 399:-1 400:-1 401:-1 402:-1 403:-1 404:-1 405:-1 406:-1 407:-1 408:2.47723 409:-1 410:-1 411:0.381255 412:-1 413:-1 414:-1 415:1.15022 416:-1 417:-1 418:-1 419:-1 420:-1 421:-0.488748 422:-1 423:-1 424:-1 425:0.533876 426:7.93987 427:-1 428:-0.233039 429:-1 430:-1 431:-1 432:-1 433:-1 434:-1 435:-1 436:-1 437:-1 438:-1 439:2.88894 440:-1 441:-1 442:-1 443:-1 444:-1 445:-1 447:-1 448:3.31627 449:-1 450:-1 451:21.8353 452:-1 453:-1 454:-1 455:0.896174 456:-1 457:-1 458:-1 459:-1 460:-1 461:-1 462:-1 463:-1 464:0.533756 465:-1 466:1.4067 467:-1 468:5.13538 469:-1 470:-1 471:2.47723 472:-1 473:-1 474:-0.616544 475:-1 476:312.867 477:-1 478:-1 479:-1 480:-1 481:-1 482:-1 483:-1 484:1.49157 486:-1 487:-1 488:-1 489:-1 490:-1 491:-1 492:-1 493:-1 494:-1 495:-1 496:-1 497:-1 498:-1 499:1.72114 500:-1 501:-1 502:0.343161 503:2.58309 504:-1 505:-1 506:-1 507:-0.169541 508:-1 509:0.87064 510:-1 511:-1 512:-1 513:-1 514:-1 515:2.47723 516:-1 517:1.31783 518:-1 519:-1 520:-1 522:-1 523:-1 524:-1 525:-1 526:-1 527:-1 528:0.343161 529:-1 530:-1 531:-1 532:-1 533:-1 534:-1 535:-1 536:-1 537:3.60163 538:-1 539:-1 540:-1 541:-1 542:-1 543:-1 544:-1 545:-1 546:-1 547:-1 548:-1 549:0.381255 550:-1 551:-1 552:-1 554:-1 555:-1 556:3.86452 557:-1 558:-1 559:-1 560:-1 561:-1 562:-1 563:-1 564:-1 565:0.533756 566:-1 567:-1 569:-1 570:-1 571:-0.72318 572:-1 573:-1 574:-1 575:-1 576:-1 577:-1 578:-0.169541 579:-1 580:1.6859 581:-1 582:0.533756 583:-1 584:2.47723 585:-1 586:-1 587:-1 588:-1 589:-1 590:20.5076 591:-1 592:0.533756 593:-1 594:-0.539582 595:-1 596:-1 597:-1 598:-1 599:-1 600:1.6859 602:-0.309372 603:-1 604:-1 605:-1 606:-1 607:-1 608:14.647 609:-1 610:-1 611:0.6714 612:-1 613:-1 614:-1 615:-1 616:-1 617:-1 618:-1 619:-1 620:1.60738 621:-1 622:-1 623:-1 624:1.6859 625:-1 626:-1 627:-1 628:-1 629:-1 630:-1 631:-1 632:3.46941 633:-1 634:-1 635:5.07891 636:7.10909 637:0.110034 638:-1 639:-1 640:-1 641:-1 642:-1 643:0.533756 644:1.76296 645:-1 646:-1 647:-1 648:-1 649:-1 651:1.22007 652:-1 653:-1 654:-1 655:-1 656:-1 657:-1 658:-1 659:-1 660:-1 661:-1 662:-1 663:-1 664:-1 665:-1 666:-1 667:-1 668:-1 669:-1 670:-1 671:-1 672:-1 673:-1 674:-1 675:5.63067 676:-1 677:-1 678:-1 679:-1 680:-1 681:-1 682:-1 683:-1 684:-1 685:-1 686:-1 687:-1 688:-1 689:-1 690:-1 691:5.95527 692:-1 693:-1 694:-1 695:-1 696:-1 697:-1 698:-1 699:-1 700:-1 701:-1 702:-1 703:-1 704:-1 705:-1 706:-1 707:1.43226 708:-1 709:-1 710:-1 711:-1 712:-1 713:12.3659 714:-1 715:-1 716:-1 717:2.64787 718:1.30081 719:4.37242 720:-1 721:0.0226244 722:-1 723:-1 724:-1 725:-1 727:-1 728:-1 729:-1 730:-1 731:0.381255 732:-1 733:19.8719 734:-1 735:-1 736:-1 737:-1 738:-1 739:-1 740:-1 741:-1 742:-1 743:-1 744:-1 745:-1 746:-1 747:-1 748:-1 749:2.64787 750:-1 751:-1 752:-1 753:-1 754:-1 755:-1 756:-1 757:-1 758:-1 759:-1 760:-1 761:-0.233122 762:-1 763:2.68115 765:-1 766:-0.805097 767:-0.809326 768:-1 769:-1 770:-1 771:-1 772:-1 773:-1 774:-1 775:-1 776:-1 777:13.5995 778:-1 779:-1 780:-1 781:-1 782:-1 783:-0.0791132 784:-1 785:-1 786:-1 787:72.0575 788:-1 789:-1 790:-1 791:17.2237 792:-1 793:-1 794:-1 795:-1 796:1.86671 797:-1 798:-1 799:-1 800:0.576304 801:-1 802:-1 803:-1 804:-1 805:0.533937 806:-1 807:-1 808:-1 809:-1 810:-1 811:-1 812:0.533756 813:-1 814:-1 815:-1 816:3.29281 817:-1 818:-1 819:-1 820:-1 821:-1 822:-1 823:-1 824:-1 825:-1 826:-1 827:-0.983052 828:-1 829:5.63067 830:-1 831:11.1578 832:-1 833:-1 834:-1 835:-1 836:-1 837:-1 838:-1 839:-1 841:-1 842:-1 843:-1 844:-1 845:-1 846:-1 847:-1 848:2.91184 849:-1 850:-1 
0.03125 0.03125 0 0:0.540271 1:0.387675 2:-1 3:-1 4:-1 5:-1 6:-0.582909 7:-1 8:-1 9:-1 10:-1 11:-1 12:-0.229804 13:-1 14:-1 15:-1 16:-1 17:15.289 18:-1 19:-1 20:-0.902111 21:9.4803 22:-1 23:1.03539 24:-0.0604857 25:-1 26:0.145009 27:1.7747 28:-1 29:-1 30:-1 31:-1 32:2.49139 33:1.73282 34:-1 35:-1 36:-1 37:-1 38:0.532781 39:-1 40:-1 42:-1 43:-1 45:-1 46:-1 47:0.964006 48:-1 49:3.99648 50:-1 51:-1 52:-1 53:2.92709 54:-0.614842 55:3.22715 56:-1 57:-1 58:0.540271 59:-0.229864 60:-1 61:-1 62:-1 63:0.34897 64:-1 65:0.34897 66:0.387675 67:2.66337 68:-1 69:-1 70:-1 72:-0.194092 73:3.16237 74:-0.229683 75:-1 76:-1 77:-1 78:-1 79:-0.755867 80:5.28656 81:0.409272 82:-1 83:-1 84:-0.582909 85:-1 86:-0.163817 87:-1 88:-1 89:-1 90:0.263658 91:-1 92:0.232262 93:-1 94:-1 95:-1 96:-1 97:-1 98:-1 99:-1 100:-1 101:35.6897 102:-1 103:5.10617 104:-1 105:-1 106:0.540271 107:-1 108:-1 109:-0.229864 110:-0.325408 111:0.387675 112:0.540271 113:-1 114:2.49169 115:-1 116:-1 117:-1 119:-1 120:-1 121:3.16237 122:-1 123:-1 124:-1 125:3.88519 126:-1 127:-1 128:-1 129:-1 130:-1 131:-1 132:-1 133:2.33072 134:1.29064 135:-0.989056 136:3.33461 137:2.60068 138:-1 140:0.257312 141:-0.537492 142:-1 143:-1 144:-1 145:-1 146:-1 147:5.65884 148:-1 149:-1 150:-1 151:-1 152:-1 153:-1 154:-1 155:-1 156:-1 157:0.904229 158:-1 159:-1 160:9.47508 161:-1 162:-1 163:-1 164:-1 165:-1 166:-1 167:0.6541 168:-1 169:-1 170:-1 171:1.09552 172:-1 173:-1 174:-1 175:-1 176:-1 177:-1 178:-0.882625 179:4.02866 180:-1 181:-1 182:-1 183:-1 184:0.387675 185:-1 186:-1 187:1.41818 188:0.540271 189:-0.537492 190:-0.604203 191:-1 192:-1 193:0.387675 194:-1 195:-1 196:-1 197:-1 198:1.69731 199:-1 200:-1 201:-1 202:-1 203:-1 204:-1 205:-0.374461 206:-1 207:-1 208:-1 209:-1 210:-0.89443 211:-1 212:-0.614842 213:-1 214:-1 215:-1 216:-1 217:-1 218:-1 219:-1 220:-1 221:0.251078 222:4.23493 223:-1 224:-1 225:-1 226:-1 227:-1 228:-1 229:-1 230:0.409272 231:-1 232:-1 233:-0.614842 235:1.23061 236:-1 237:-1 238:-1 239:0.119411 240:0.164114 241:-0.229683 242:11.2299 243:-1 244:-1 245:-0.00954154 246:-1 247:-1 248:-1 249:0.34897 250:-1 251:-1 252:7.63083 253:9.4803 254:2.35912 255:-1 256:-1 257:1.09552 258:-1 259:-1 260:-1 261:-1 262:-1 263:-0.897209 264:-1 265:0.849815 266:-1 267:-1 268:-1 269:0.34897 270:5.10473 271:8.16039 272:1.23061 274:-0.614842 275:-1 276:-1 277:-1 278:-1 279:-1 280:-1 281:-1 282:0.387675 283:-1 284:-0.721229 285:-1 286:-0.229683 287:-1 288:1.41818 289:-1 290:-1 291:-1 292:-0.902111 293:5.06478 294:-1 295:0.439783 296:-1 297:-1 298:-1 299:12.4349 300:-1 301:-1 302:-1 303:-1 304:-0.537492 305:-1 306:0.928393 307:-1 308:0.57164 309:-1 310:0.92841 311:-1 312:-1 313:0.34897 314:-0.229683 315:-1 316:-1 317:-1 318:-1 319:-1 320:-1 321:-1 322:-1 323:3.04692 324:-1 325:-1 326:-1 327:-1 328:-1 329:-1 330:32.5584 331:0.593411 332:-1 333:-1 334:0.387123 335:-1 336:-0.348925 337:-1 338:-1 339:-1 340:2.571 341:1.03539 342:-1 343:-1 344:-1 345:-1 346:-1 347:-1 348:-1 349:-1 350:-1 351:-0.144657 352:-1 353:0.387675 354:-1 355:-1 356:1.15603 357:0.832114 358:0.387675 359:-1 360:-1 361:-1 362:-1 363:-1 364:-1 366:-1 367:-0.0177706 368:1.31059 369:-1 370:-1 371:-1 372:1.23061 373:-0.604203 374:-1 375:-1 376:1.09552 377:-1 378:9.30347 379:-1 380:1.08085 381:-1 382:-1 383:-1 384:-1 385:0.263658 386:0.387675 387:20.9725 388:1.73282 389:-1 390:-1 391:-1 392:-1 393:-1 394:1.29064 395:-1 396:-1 397:-1 398:-1 399:-1 400:3.96152 401:-0.075201 402:-1 403:-1 404:-1 405:-1 406:-1 407:-1 408:-1 409:-0.229683 410:0.0477597 411:-0.306275 412:-1 413:-1 414:-1 415:1.15935 416:-1 417:-0.614842 418:-1 419:-1 420:-0.0604857 421:-1 422:-1 423:-1 424:-1 425:-0.229804 426:1.24473 427:-1 428:-0.87161 429:2.05308 430:0.978611 431:-1 432:3.83523 433:-1 434:-0.614915 435:-1 436:-1 437:-1 438:-1 439:0.95319 440:-1 441:0.155294 442:1.41818 443:-1 444:4.63576 445:-1 447:0.540271 448:-1 449:-1 450:-1 451:3.04692 452:-1 453:-1 454:3.32081 455:1.85657 456:-1 457:-1 458:-1 459:-1 460:-0.951056 461:-1 462:-1 463:-1 464:1.31059 465:-1 466:0.208748 467:-1 468:-0.229864 469:-1 470:0.832114 471:-1 472:-1 473:-1 474:-1 475:-1 476:93.563 477:-1 478:-1 479:-1 480:-1 481:-1 482:-1 483:-1 484:-0.582909 486:-1 487:0.34897 488:-1 489:-1 490:-1 491:2.77134 492:2.05308 493:5.71293 494:-1 495:-1 496:-1 497:0.387123 498:-1 499:-1 500:0.308733 501:-1 502:-0.325408 503:-1 504:-1 505:-1 506:-1 507:-1 508:-1 509:0.878587 510:-1 511:-1 512:-1 513:-1 514:-1 515:9.47682 516:-1 517:0.164114 518:1.7747 519:-1 520:7.92138 522:-1 523:5.65884 524:-1 525:-1 526:-1 527:-1 528:0.348867 529:5.74358 530:5.10764 531:-1 532:0.428667 533:-1 534:-1 535:-1 536:-1 537:-0.229683 538:-1 539:1.77457 540:0.11475 541:-0.306275 542:-1 543:-1 544:-1 545:-1 546:-1 547:-1 548:-1 549:-1 550:-1 551:-1 552:0.92841 554:-1 555:-1 556:-1 557:-1 558:0.34897 559:-1 560:1.2383 561:-1 562:1.85666 563:1.81854 564:-1 565:0.540271 566:-1 567:-1 569:-1 570:-1 571:-1 572:-0.791454 573:-1 574:-1 575:-1 576:-1 577:-1 578:-1 579:1.85666 580:0.34897 581:-1 582:0.540271 583:-1 584:-1 585:-1 586:-1 587:-1 588:-1 589:-1 590:20.599 591:-1 592:-1 593:0.387123 594:-1 595:-0.075201 596:-1 597:0.387675 598:-1 599:-1 600:-1 602:-1 603:-0.902111 604:-1 605:-1 606:-1 607:-1 608:-1 609:-1 610:-1 611:-1 612:12.4349 613:2.69679 614:0.122659 615:0.0477597 616:0.34897 617:-0.537492 618:-1 619:0.387675 620:-1 621:-0.229683 622:-1 623:-1 624:-1 625:3.6212 626:-1 627:-1 628:-1 629:2.30742 630:0.52709 631:9.48276 632:1.24473 633:0.387675 634:-1 635:2.05308 636:-1 637:-1 638:-0.537492 639:-0.604203 640:9.80203 641:-1 642:-1 643:-1 644:-1 645:-1 646:-1 647:-1 648:-1 649:-1 651:-1 652:-1 653:-1 654:-1 655:-1 656:-1 657:-1 658:-1 659:-1 660:-1 661:-1 662:-1 663:-1 664:-1 665:-1 666:0.496484 667:-1 668:-0.345432 669:-1 670:-1 671:-0.791454 672:-0.662704 673:-1 674:-1 675:15.6479 676:-1 677:-1 678:-1 679:-1 680:-1 681:0.34897 682:-1 683:-1 684:-1 685:-1 686:-1 687:-1 688:-1 689:0.34897 690:9.47252 691:2.492 692:-1 693:-1 694:-1 695:-1 696:-0.60929 697:-1 698:-1 699:-1 700:0.387675 701:-1 702:-1 703:-1 704:-1 705:0.964006 706:0.34897 707:0.221584 708:0.164114 709:-1 710:-1 711:0.848827 712:-1 713:-1 714:1.23061 715:-1 716:-1 717:-1 718:0.155294 719:1.69731 720:-1 721:-0.743228 722:-1 723:-1 724:-1 725:-1 727:-1 728:-1 729:-1 730:-1 731:-1 732:-1 733:-1 734:-1 735:-1 736:-0.968361 737:-1 738:-1 739:-1 740:-1 741:-1 742:-1 743:-1 744:-1 745:-1 746:-1 747:0.6541 748:-1 749:2.66337 750:-1 751:1.51403 752:-1 753:-1 754:-1 755:0.308733 756:-1 757:-1 758:-1 759:-1 760:-1 761:-0.614842 762:-1 763:6.39444 765:-1 766:-1 767:-0.980848 768:1.41818 769:-0.229683 770:-1 771:-1 772:-1 773:-1 774:-1 775:0.492197 776:-1 777:9.99569 778:-1 779:-0.714841 780:-1 781:-1 782:-1 783:-1 784:-1 785:-1 786:-1 787:-1 788:-1 789:-1 790:-1 791:-1 792:1.24473 793:-0.0609003 794:-1 795:-0.537492 796:-1 797:-0.633924 798:-1 799:-1 800:-1 801:-1 802:-1 803:-1 804:10.7876 805:-0.614842 806:-1 807:-1 808:-1 809:0.540271 810:1.5481 811:-1 812:1.31059 813:1.99226 814:-1 815:-1 816:-1 817:-0.229683 818:-1 819:-1 820:-1 821:-1 822:-1 823:-0.400056 824:-1 825:-0.582909 826:-1 827:-1 828:-1 829:-1 830:-1 831:-1 832:-1 833:-0.604203 834:-1 835:-1 836:-1 837:-1 838:-1 839:-1 841:-1 842:-1 843:-1 844:-1 845:0.083779 846:-1 847:-1 848:-0.0177706 849:-1 850:-1 
0.03125 0.03125 0 0:-1 1:-1 2:-1 3:1.32013 4:-1 5:-1 6:-1 7:-1 8:-1 9:-1 10:-1 11:-1 12:-0.141237 13:0.160228 14:-1 15:-1 16:-1 17:26.244 18:-1 19:-1 20:-1 21:-1 22:-1 23:9.21138 24:-1 25:-1 26:-1 27:-1 28:3.64102 29:-1 30:-1 31:-1 32:-1 33:3.57097 34:1.32083 35:-1 36:-1 37:-1 38:5.40994 39:-1 40:-1 42:-1 43:-1 45:-1 46:-0.836285 47:-1 48:-1 49:-1 50:51.7259 51:-1 52:-1 53:-1 54:1.57647 55:-1 56:-1 57:-1 58:-1 59:-1 60:-1 61:-1 62:-1 63:-1 64:-1 65:1.2561 66:1.32083 67:2.06414 68:-1 69:-1 70:-1 72:1.69532 73:3.64102 74:-1 75:25.2657 76:-1 77:-1 78:-1 79:-1 80:-1 81:3.71325 82:-1 83:0.160228 84:-1 85:-1 86:-1 87:-1 88:-1 89:-1 90:-1 91:-1 92:3.1225 93:-1 94:-1 95:-1 96:-1 97:1.88957 98:-1 99:-1 100:-1 101:-1 102:-1 103:-1 104:-1 105:-1 106:-1 107:0.288326 108:-1 109:-1 110:-1 111:1.32083 112:-1 113:20.0251 114:0.460103 115:-1 116:-1 117:-1 119:-1 120:-1 121:-1 122:71.2589 123:-1 124:-0.183247 125:-1 126:-1 127:-1 128:-1 129:-1 130:-1 131:-1 132:-1 133:4.57104 134:-1 135:-0.981697 136:-1 137:-1 138:-1 140:-1 141:-1 142:-1 143:-1 144:-1 145:-1 146:-1 147:4.56964 148:-1 149:-1 150:-1 151:-1 152:17.066 153:-1 154:-1 155:-1 156:-1 157:0.59275 158:-1 159:-1 160:-1 161:-1 162:-1 163:-1 164:-1 165:-1 166:-1 167:-1 168:-1 169:-1 170:-1 171:-1 172:-1 173:-1 174:-1 175:-1 176:-1 177:-1 178:-1 179:3.20502 180:39.9023 181:-1 182:-1 183:-1 184:1.32083 185:-1 186:-1 187:3.04432 188:0.288326 189:-0.226473 190:-0.338045 191:-1 192:-1 193:-1 194:-1 195:-1 196:-1 197:-1 198:-1 199:-1 200:-1 201:-1 202:-1 203:-1 204:-1 205:-1 206:-1 207:-1 208:-1 209:-1 210:-1 211:-1 212:-1 213:-1 214:-1 215:-1 216:-1 217:-1 218:-1 219:-1 220:-1 221:-0.30243 222:-1 223:-1 224:-1 225:-1 226:-1 227:-1 228:-1 229:-1 230:1.35695 231:-1 232:-1 233:-0.355837 235:-1 236:-1 237:-1 238:0.288326 239:-1 240:0.946937 241:-1 242:-1 243:-1 244:-1 245:2.31254 246:-1 247:-1 248:-1 249:1.2561 250:-1 251:-1 252:-1 253:-1 254:-1 255:-1 256:-1 257:-1 258:3.64102 259:-1 260:0.160228 261:-1 262:-1 263:-1 264:-1 265:-0.226473 266:3.08611 267:8.28269 268:-1 269:3.51157 270:-1 271:14.3219 272:-1 274:0.288145 275:-1 276:6.50738 277:-1 278:-1 279:-1 280:3.01466 281:-1 282:-1 283:-1 284:-1 285:-1 286:-1 287:-1 288:-1 289:-1 290:-1 291:-1 292:-1 293:-1 294:-1 295:-1 296:0.502005 297:-1 298:-1 299:-1 300:-1 301:-1 302:7.75523 303:-1 304:-1 305:-1 306:3.83843 307:-1 308:-1 309:-1 310:-1 311:-1 312:-1 313:1.2561 314:0.288326 315:-1 316:-1 317:9.51403 318:-1 319:-1 320:-1 321:-1 322:-1 323:-1 324:-1 325:-1 326:-1 327:-1 328:10.2271 329:-1 330:-1 331:4.32909 332:2.09209 333:-1 334:-1 335:-1 336:-1 337:-1 338:-1 339:-1 340:1.38906 341:-1 342:-1 343:-1 344:4.56964 345:-1 346:-1 347:13.3302 348:-1 349:-1 350:-1 351:-1 352:-1 353:3.64102 354:-1 355:2.43529 356:-1 357:-1 358:-1 359:-1 360:-1 361:-1 362:-1 363:-1 364:-1 366:-1 367:-1 368:-1 369:-1 370:-1 371:-1 372:-1 373:-1 374:-1 375:-1 376:-1 377:-1 378:0.914985 379:-1 380:0.160228 381:-1 382:-1 383:-1 384:0.695569 385:1.11342 386:-1 387:-1 388:-1 389:-1 390:-1 391:-1 392:0.81258 393:-1 394:2.831 395:-1 396:-1 397:4.25628 398:-1 399:-1 400:-1 401:-1 402:-1 403:-1 404:-1 405:-1 406:-1 407:-1 408:-1 409:-1 410:0.752339 411:-1 412:-1 413:-1 414:-1 415:4.41791 416:-0.254035 417:-1 418:-1 419:-0.761549 420:-1 421:-1 422:-1 423:-1 424:-1 425:-0.141237 426:2.75422 427:-1 428:-0.785273 429:-1 430:-1 431:-1 432:-1 433:-1 434:-1 435:-1 436:-1 437:-1 438:-1 439:2.26664 440:-1 441:1.57647 442:-1 443:-1 444:-1 445:-1 447:-1 448:-1 449:-1 450:-1 451:5.76874 452:-1 453:1.10281 454:-1 455:-1 456:-1 457:-1 458:-1 459:-1 460:-1 461:-1 462:-1 463:-1 464:1.57629 465:-1 466:3.0426 467:-1 468:0.288145 469:-1 470:2.06414 471:-1 472:-1 473:-1 474:-0.677904 475:-1 476:104.437 477:-1 478:-1 479:-1 480:-1 481:-1 482:-1 483:-1 484:-0.30243 486:-1 487:-1 488:-1 489:-1 490:-1 491:-1 492:-1 493:-1 494:-1 495:-1 496:-1 497:-1 498:-1 499:0.14272 500:1.18881 501:-1 502:-1 503:-1 504:-1 505:-1 506:0.288326 507:-1 508:-1 509:-1 510:-1 511:-1 512:-1 513:-1 514:-1 515:7.76159 516:-1 517:0.946937 518:-1 519:-1 520:2.73061 522:-1 523:-1 524:-1 525:-1 526:-1 527:1.32013 528:-1 529:-1 530:-1 531:-1 532:-1 533:-1 534:-1 535:-1 536:-1 537:9.30588 538:-1 539:-1 540:-1 541:-1 542:-1 543:-1 544:-1 545:4.25702 546:-1 547:-1 548:-0.834507 549:-1 550:-1 551:-1 552:-1 554:0.160065 555:-1 556:3.08611 557:-1 558:1.2561 559:-1 560:-1 561:-1 562:6.16751 563:3.71391 564:1.48629 565:-1 566:1.38939 567:-1 569:0.946937 570:-1 571:-1 572:-1 573:-1 574:-1 575:-1 576:-1 577:-1 578:-1 579:-1 580:-1 581:-1 582:0.288326 583:-1 584:-1 585:4.53206 586:-1 587:-1 588:-1 589:-1 590:-1 591:-1 592:-1 593:-1 594:-1 595:-1 596:-1 597:-1 598:-1 599:-1 600:-1 602:-1 603:-1 604:-1 605:-1 606:-1 607:5.30783 608:4.25628 609:-1 610:-1 611:-1 612:-1 613:-1 614:0.877605 615:-1 616:5.76767 617:-1 618:-1 619:-1 620:-1 621:0.288326 622:-1 623:-1 624:-1 625:-1 626:-1 627:-1 628:-1 629:-1 630:-1 631:-1 632:-1 633:-1 634:-1 635:-1 636:-1 637:-1 638:-1 639:-1 640:17.066 641:0.288326 642:9.51403 643:-1 644:-1 645:-1 646:-1 647:-1 648:-1 649:-1 651:0.864815 652:-1 653:-1 654:0.806141 655:-1 656:-1 657:-1 658:-1 659:-1 660:-1 661:-1 662:-1 663:-1 664:-1 665:-1 666:1.50281 667:-1 668:-1 669:-1 670:-1 671:-1 672:-1 673:-1 674:-1 675:4.56964 676:-1 677:-1 678:-1 679:-1 680:-1 681:-1 682:-1 683:-1 684:-1 685:-1 686:-1 687:-1 688:-1 689:-1 690:16.516 691:-1 692:-1 693:-1 694:-1 695:-1 696:-1 697:-1 698:-1 699:1.00677 700:-1 701:-1 702:-1 703:-1 704:-1 705:2.28473 706:1.2561 707:-1 708:-1 709:-1 710:-1 711:5.18332 712:-1 713:-1 714:2.73061 715:2.48036 716:-1 717:-1 718:2.22063 719:1.2561 720:-1 721:-1 722:-1 723:-1 724:-1 725:-1 727:-1 728:-1 729:-1 730:1.2561 731:-1 732:-1 733:-1 734:-1 735:-1 736:-1 737:-1 738:-1 739:-1 740:-1 741:-1 742:-1 743:-1 744:-1 745:-1 746:-1 747:1.76642 748:-1 749:-1 750:6.662 751:-1 752:-1 753:-1 754:-1 755:-1 756:-1 757:-1 758:-1 759:-1 760:5.96185 761:-0.355837 762:3.20502 763:2.09209 765:-1 766:-0.836285 767:-0.679717 768:-1 769:4.15294 770:-1 771:-1 772:-1 773:-1 774:-1 775:-1 776:-1 777:17.391 778:-1 779:-1 780:-1 781:-1 782:-1 783:0.546838 784:-1 785:-1 786:-1 787:-1 788:-1 789:-1 790:-1 791:-1 792:-1 793:-1 794:-1 795:-1 796:-1 797:-1 798:-1 799:-1 800:-0.338045 801:-1 802:-1 803:-1 804:-1 805:-1 806:-1 807:-1 808:-1 809:-1 810:3.26188 811:-1 812:-1 813:-1 814:-1 815:-1 816:-1 817:-1 818:-1 819:-1 820:-1 821:-1 822:1.92013 823:0.00338314 824:-1 825:-1 826:-1 827:-0.971532 828:-1 829:-1 830:-1 831:-1 832:-1 833:-1 834:-1 835:0.59275 836:-1 837:-1 838:-1 839:-1 841:-1 842:-1 843:-1 844:-1 845:-1 846:-1 847:-1 848:5.57051 849:-1 850:-1 
0.03125 0.03125 0 0:-0.238009 1:-1 2:-1 3:-1 4:0.33439 5:-1 6:-1 7:0.0682568 8:-1 9:-1 10:-1 11:-1 12:-1 13:-1 14:0.554653 15:-1 16:-1 17:7.05933 18:-1 19:0.686966 20:-1 21:-1 22:-1 23:3.02774 24:1.78852 25:-1 26:0.132634 27:0.372677 28:-1 29:-1 30:-0.903169 31:-1 32:2.45365 33:0.351959 34:-1 35:-1 36:-1 37:-1 38:2.79179 39:-1 40:-1 42:-1 43:-1 45:-1 46:-1 47:-1 48:-1 49:0.64775 50:30.1852 51:-1 52:3.78523 53:-1 54:0.524163 55:-1 56:-1 57:-1 58:-1 59:-0.619005 60:-1 61:-1 62:0.636222 63:0.33439 64:-1 65:-1 66:-1 67:0.812312 68:-1 69:-1 70:-1 72:0.594774 73:3.11868 74:-0.238009 75:-1 76:-1 77:-1 78:-1 79:-1 80:-1 81:-1 82:-1 83:1.74523 84:-0.587417 85:-1 86:-1 87:-1 88:-1 89:-1 90:-1 91:-0.608481 92:3.26788 93:-1 94:-1 95:-1 96:2.10931 97:0.709704 98:-1 99:-1 100:-1 101:-1 102:-1 103:-1 104:-1 105:20.3706 106:-1 107:-1 108:-1 109:-0.619005 110:-0.332699 111:-1 112:-0.238009 113:5.21861 114:3.31836 115:-0.746003 116:-1 117:1.14464 119:-1 120:-1 121:-1 122:52.4315 123:-1 124:-1 125:1.41676 126:-1 127:-1 128:-1 129:-1 130:-1 131:-1 132:-1 133:7.23953 134:1.26588 135:-0.989174 136:2.2167 137:-1 138:-1 140:5.2192 141:-1 142:-1 143:-1 144:-1 145:-1 146:-1 147:-1 148:2.18917 149:-1 150:-1 151:-1 152:-1 153:-1 154:-1 155:-1 156:-1 157:-0.0579548 158:-1 159:-1 160:-1 161:-1 162:-1 163:-1 164:-1 165:-1 166:-1 167:0.636222 168:4.18473 169:-1 170:-1 171:-1 172:-1 173:-1 174:-1 175:-0.903169 176:-1 177:-1 178:-1 179:-1 180:-1 181:-1 182:2.00905 183:-1 184:-1 185:-1 186:-1 187:8.56932 188:0.524344 189:-1 190:1.741 191:-1 192:-1 193:-1 194:-1 195:-1 196:-1 197:-1 198:-1 199:-1 200:-1 201:6.24613 202:-1 203:-1 204:-1 205:-1 206:-1 207:-1 208:-1 209:0.812312 210:-1 211:-1 212:-1 213:-1 214:-1 215:-1 216:-1 217:-1 218:-1 219:-1 220:-1 221:-0.587417 222:-1 223:3.14673 224:-1 225:-1 226:-1 227:1.39205 228:-1 229:-1 230:-1 231:-1 232:-1 233:-1 235:-1 236:-1 237:0.372677 238:-1 239:-1 240:-1 241:-1 242:-1 243:-1 244:-1 245:-1 246:-1 247:-1 248:-1 249:-1 250:-1 251:-1 252:-1 253:4.18473 254:-1 255:-1 256:-1 257:-1 258:0.372677 259:-1 260:-1 261:-1 262:-1 263:-1 264:-1 265:-0.0847642 266:1.41676 267:0.372677 268:-1 269:0.33439 270:-1 271:-1 272:-1 274:-1 275:-1 276:-1 277:-1 278:-1 279:-1 280:-1 281:-1 282:-1 283:-1 284:-1 285:-1 286:-1 287:-1 288:1.39205 289:-1 290:-0.99158 291:-1 292:-1 293:5.54651 294:2.00905 295:-1 296:-1 297:-1 298:-1 299:-1 300:-1 301:-1 302:4.17835 303:-1 304:-1 305:-1 306:0.908452 307:-1 308:0.554653 309:-1 310:-1 311:-1 312:2.29421 313:8.342 314:2.04833 315:-1 316:-1 317:-1 318:-1 319:-0.555156 320:-1 321:-1 322:-1 323:2.33682 324:-1 325:-1 326:1.8255 327:-1 328:-1 329:-1 330:-1 331:2.15313 332:-1 333:-1 334:1.74523 335:-1 336:-1 337:-1 338:-1 339:-1 340:6.06714 341:-1 342:-1 343:-1 344:-1 345:-0.587417 346:-1 347:-1 348:-1 349:-1 350:-1 351:-1 352:-1 353:-1 354:-1 355:0.270106 356:-1 357:0.812312 358:1.74601 359:0.480309 360:-1 361:-1 362:-1 363:-1 364:-1 366:-1 367:-1 368:0.524344 369:-1 370:-1 371:-1 372:-1 373:-1 374:-1 375:-0.0509468 376:-1 377:-1 378:4.66371 379:-1 380:0.372779 381:8.05376 382:-1 383:-1 384:-1 385:1.50059 386:5.86404 387:-1 388:0.351959 389:-1 390:-1 391:-1 392:-1 393:-1 394:10.3305 395:-1 396:-1 397:-1 398:-1 399:-1 400:-1 401:-0.0847642 402:-1 403:-1 404:-1 405:-1 406:3.44093 407:-1 408:-1 409:-1 410:0.0364353 411:-1 412:-1 413:-1 414:-1 415:0.0682568 416:-1 417:-1 418:-1 419:-1 420:1.78852 421:-0.746003 422:-1 423:-1 424:-1 425:0.524223 426:3.44198 427:-1 428:-0.618933 429:-1 430:-1 431:-1 432:3.78523 433:1.78874 434:-1 435:-1 436:-1 437:-1 438:-1 439:-1 440:-1 441:-1 442:1.39205 443:6.76876 444:-1 445:-1 447:-0.238009 448:0.0720652 449:1.07287 450:-1 451:7.00856 452:0.33439 453:2.73176 454:-1 455:0.884538 456:-1 457:-1 458:-1 459:-1 460:-1 461:-1 462:-1 463:0.0720652 464:2.04833 465:-1 466:1.39193 467:-1 468:1.66733 469:-1 470:0.812312 471:0.727534 472:-0.619005 473:-1 474:-1 475:-1 476:186.141 477:-1 478:-1 479:-1 480:-1 481:-1 482:-1 483:0.524344 484:-0.174637 486:-1 487:0.33439 488:-1 489:-1 490:-1 491:-1 492:-1 493:-1 494:0.107312 495:-1 496:0.636222 497:-0.313773 498:-1 499:1.02793 500:0.294588 501:-1 502:-1 503:-1 504:-1 505:-1 506:-1 507:-1 508:-1 509:-1 510:-1 511:-1 512:0.294588 513:-1 514:-1 515:18.0053 516:-1 517:1.30361 518:0.372677 519:-1 520:3.41405 522:0.33439 523:2.29421 524:-1 525:-1 526:-1 527:-0.313773 528:-1 529:-1 530:0.510585 531:-1 532:-1 533:-1 534:-1 535:-1 536:-1 537:0.524344 538:-1 539:8.60848 540:-0.44852 541:-1 542:-1 543:-1 544:-1 545:2.10931 546:-1 547:-1 548:-1 549:-1 550:-1 551:-1 552:-1 554:-0.656887 555:-1 556:-1 557:-1 558:-1 559:-0.0283868 560:-1 561:-1 562:1.82712 563:-1 564:-1 565:-1 566:-1 567:-1 569:-1 570:-1 571:-1 572:-1 573:-1 574:0.372677 575:-1 576:0.727534 577:-1 578:-1 579:6.0668 580:3.0038 581:-1 582:1.28633 583:0.372677 584:-1 585:2.27322 586:-1 587:-1 588:-1 589:-0.717923 590:-1 591:-1 592:-0.238009 593:3.80424 594:-1 595:-1 596:-1 597:-1 598:-1 599:-1 600:-1 602:-1 603:-1 604:-1 605:-1 606:-1 607:0.243722 608:2.11004 609:-1 610:-1 611:-0.169625 612:-1 613:2.65856 614:-1 615:2.1098 616:-1 617:-1 618:-1 619:0.372677 620:-1 621:-1 622:-1 623:0.372677 624:-1 625:-0.0855778 626:-1 627:0.372677 628:-1 629:10.4551 630:-1 631:-1 632:-1 633:-1 634:-1 635:-1 636:-1 637:-1 638:-1 639:-1 640:-1 641:-0.238009 642:-1 643:-1 644:-1 645:-1 646:-1 647:-1 648:-1 649:-1 651:-1 652:-1 653:-1 654:-1 655:-1 656:-1 657:-1 658:-1 659:-1 660:-1 661:-1 662:-1 663:-1 664:-1 665:-1 666:-1 667:-1 668:-1 669:-1 670:-1 671:-1 672:-1 673:-1 674:-1 675:2.29421 676:-1 677:-1 678:-1 679:-1 680:-1 681:-1 682:-1 683:-1 684:-1 685:0.0364353 686:-1 687:-1 688:0.636222 689:-1 690:-1 691:0.727534 692:-1 693:-1 694:-1 695:-1 696:-1 697:-1 698:-1 699:-1 700:1.74601 701:-0.608481 702:-1 703:-1 704:-1 705:-1 706:0.33439 707:0.208381 708:0.151532 709:1.74601 710:-1 711:0.828844 712:-1 713:-1 714:1.2065 715:-1 716:-1 717:-1 718:3.19149 719:0.33439 720:-1 721:-0.746003 722:-1 723:-0.313773 724:-1 725:-1 727:-1 728:-1 729:-1 730:0.33439 731:-1 732:-1 733:-1 734:-1 735:-1 736:-1 737:-1 738:-1 739:-1 740:2.45365 741:-1 742:-1 743:-1 744:-1 745:-1 746:-1 747:5.54567 748:3.44093 749:-1 750:8.06566 751:0.243722 752:-1 753:-1 754:-1 755:0.294588 756:-1 757:-1 758:-0.608481 759:-1 760:0.372677 761:-1 762:1.48804 763:-1 765:-1 766:-0.806293 767:-0.924211 768:-1 769:0.524344 770:-1 771:-1 772:-1 773:-1 774:-1 775:-1 776:-1 777:6.25409 778:-1 779:-1 780:-1 781:-1 782:-1 783:-0.542491 784:-1 785:-1 786:-1 787:11.0977 788:-1 789:-1 790:-1 791:8.05376 792:1.22046 793:0.858341 794:1.07287 795:-0.542491 796:-1 797:-1 798:-1 799:-1 800:0.174742 801:-0.608481 802:-1 803:-1 804:10.6639 805:-1 806:-1 807:-1 808:-1 809:-0.238009 810:4.04271 811:0.372677 812:-1 813:-1 814:-1 815:-0.587417 816:1.13273 817:-1 818:-1 819:-1 820:-1 821:-1 822:-0.424234 823:-1 824:-1 825:-1 826:-1 827:-1 828:-1 829:-1 830:-1 831:-1 832:-1 833:-1 834:-1 835:-1 836:-1 837:-1 838:-1 839:-1 841:-1 842:-1 843:-1 844:-1 845:1.14464 846:-1 847:-1 848:-0.0283868 849:-1 850:-1 
0.03125 0.03125 0 0:-0.0472398 1:-1 2:-1 3:-1 4:-1 5:-1 6:-1 7:-1 8:-1 9:-1 10:-1 11:-1 12:0.587692 13:-1 14:-1 15:-1 16:-1 17:4.03732 18:-1 19:-1 20:-1 21:-1 22:-1 23:1.51746 24:0.162031 25:-1 26:-1 27:0.716335 28:-1 29:-1 30:-1 31:-1 32:-1 33:-1 34:-1 35:-1 36:-1 37:-1 38:-0.0518732 39:-1 40:-1 42:-1 43:-1 45:-1 46:-0.878927 47:-1 48:-1 49:-1 50:-1 51:-1 52:-1 53:-1 54:-1 55:-1 56:-1 57:-1 58:0.905158 59:-0.52362 60:-1 61:-1 62:-1 63:-1 64:-0.828041 65:-1 66:-1 67:-1 68:-1 69:-1 70:-1 72:-1 73:-1 74:-1 75:-1 76:-1 77:-1 78:-1 79:-1 80:6.77548 81:-1 82:0.716335 83:-1 84:-1 85:-1 86:-0.655204 87:-1 88:-1 89:-1 90:-1 91:-1 92:5.09702 93:-1 94:-1 95:-1 96:-1 97:-1 98:-1 99:0.716335 100:-1 101:-1 102:-1 103:-1 104:-1 105:-1 106:-0.0472398 107:-1 108:-1 109:-0.0474208 110:-1 111:-1 112:-1 113:-1 114:0.0797949 115:-1 116:-1 117:-1 119:-1 120:-1 121:4.14835 122:12.3604 123:-1 124:-1 125:-1 126:-1 127:-1 128:-1 129:-1 130:-1 131:-1 132:-1 133:-1 134:-1 135:-0.972933 136:0.340463 137:7.90525 138:0.251387 140:-1 141:-1 142:-1 143:-1 144:-1 145:-1 146:-1 147:-1 148:-1 149:-1 150:-1 151:-1 152:-1 153:-1 154:-1 155:-1 156:-1 157:1.35534 158:-1 159:-1 160:-1 161:-1 162:-1 163:-1 164:-1 165:-1 166:-1 167:-1 168:-1 169:-1 170:-1 171:-1 172:-1 173:-1 174:-1 175:-1 176:-1 177:-1 178:-1 179:-1 180:-1 181:-1 182:27.8356 183:-1 184:-1 185:25.7208 186:-1 187:19.933 188:-1 189:-1 190:5.36306 191:-1 192:-1 193:-1 194:-1 195:-1 196:-1 197:-1 198:-1 199:-1 200:-1 201:-1 202:-1 203:-1 204:-1 205:-1 206:-1 207:-1 208:-1 209:-1 210:-1 211:-1 212:-1 213:-1 214:-1 215:-1 216:-1 217:-1 218:-1 219:-1 220:-0.510462 221:-1 222:-1 223:1.59183 224:-1 225:-1 226:-1 227:-1 228:-1 229:-1 230:-1 231:-0.823657 232:-1 233:-1 235:-1 236:-1 237:-1 238:-1 239:-1 240:-1 241:-1 242:-1 243:6.55237 244:-1 245:1.44962 246:-1 247:-1 248:-1 249:0.668463 250:-1 251:-1 252:-1 253:-1 254:-1 255:-1 256:-1 257:-1 258:-1 259:-1 260:-1 261:-1 262:-1 263:-1 264:-1 265:-1 266:-1 267:-1 268:-1 269:-1 270:-1 271:4.66631 272:-1 274:1.85774 275:-1 276:4.55169 277:-1 278:-1 279:-1 280:-1 281:-1 282:-1 283:-1 284:-1 285:-1 286:-1 287:-1 288:-1 289:-1 290:-1 291:-1 292:-1 293:0.363825 294:-1 295:-1 296:-1 297:-1 298:-1 299:-1 300:-1 301:-1 302:-1 303:-1 304:-1 305:-1 306:0.192839 307:-0.647382 308:-1 309:0.716335 310:-1 311:-1 312:-1 313:0.668463 314:-1 315:-1 316:-1 317:-1 318:-1 319:-1 320:-1 321:-1 322:-1 323:-0.165636 324:-1 325:-1 326:-1 327:-1 328:-1 329:-0.52362 330:-1 331:0.970797 332:5.85925 333:-1 334:-1 335:-1 336:-1 337:0.715729 338:-1 339:-1 340:-1 341:-1 342:-1 343:-1 344:-1 345:-0.484124 346:-1 347:2.53289 348:-1 349:-1 350:-1 351:-1 352:-1 353:-1 354:-1 355:-1 356:-1 357:-1 358:-1 359:2.70113 360:-1 361:-1 362:-1 363:-0.858952 364:-1 366:-1 367:50.0159 368:-1 369:-1 370:-1 371:-1 372:-1 373:-1 374:-1 375:1.37286 376:-1 377:4.03732 378:0.416196 379:-1 380:-1 381:-1 382:-1 383:-0.742062 384:-1 385:-1 386:0.716335 387:-1 388:0.69043 389:-1 390:-1 391:-1 392:-1 393:-1 394:-1 395:-1 396:-1 397:-1 398:-1 399:-1 400:-1 401:-1 402:-1 403:-1 404:-1 405:-1 406:-1 407:1.16003 408:-1 409:-1 410:-1 411:-1 412:-1 413:-1 414:-1 415:-1 416:-1 417:-0.0474208 418:-1 419:-1 420:-1 421:-1 422:0.190823 423:-1 424:-1 425:-1 426:-1 427:-0.165107 428:-0.20613 429:-1 430:-1 431:-1 432:-1 433:-1 434:-0.761799 435:-1 436:-1 437:-1 438:-1 439:-1 440:-1 441:-0.0474208 442:-1 443:-1 444:-1 445:1.28671 447:-1 448:-1 449:-1 450:-1 451:6.508 452:-1 453:3.6647 454:-1 455:0.177892 456:-1 457:-1 458:-1 459:-0.0211104 460:-1 461:-1 462:-1 463:-1 464:-0.0472398 465:-1 466:3.48452 467:-1 468:1.38154 469:0.484071 470:-1 471:-1 472:-1 473:-1 474:2.57247 475:-0.742062 476:-1 477:-1 478:-1 479:-1 480:-1 481:-1 482:-1 483:5.66824 484:-1 486:-1 487:-1 488:-1 489:-1 490:-1 491:-1 492:-1 493:-1 494:-1 495:-1 496:-1 497:-1 498:-1 499:-1 500:-1 501:-1 502:1.50277 503:-1 504:-1 505:-1 506:-1 507:-1 508:-1 509:-1 510:0.416196 511:-1 512:-1 513:-1 514:-1 515:14.1178 516:-1 517:0.439825 518:-1 519:-1 520:4.51677 522:-1 523:-1 524:-1 525:-0.307824 526:-1 527:-1 528:-1 529:-1 530:-1 531:-1 532:-1 533:-1 534:-1 535:-1 536:-1 537:-1 538:-1 539:8.43667 540:-1 541:-1 542:-1 543:-1 544:-1 545:-1 546:-1 547:-1 548:-1 549:-1 550:-1 551:-1 552:-1 554:-1 555:-1 556:-1 557:-1 558:-1 559:-1 560:1.76854 561:-1 562:2.5334 563:-1 564:-1 565:-1 566:-1 567:-1 569:-1 570:-1 571:-0.828041 572:-1 573:-1 574:-1 575:-1 576:-1 577:-1 578:-1 579:2.5334 580:-1 581:-1 582:-1 583:-1 584:-1 585:-1 586:-1 587:-1 588:-1 589:-0.647303 590:-1 591:-1 592:-1 593:11.8685 594:-1 595:-1 596:-1 597:-1 598:-1 599:-1 600:-1 602:-1 603:-1 604:-1 605:-1 606:-0.682464 607:-1 608:6.774 609:-1 610:-1 611:-1 612:7.30781 613:5.85925 614:-1 615:-1 616:-1 617:-1 618:-1 619:-1 620:-1 621:-1 622:-1 623:-1 624:-1 625:-1 626:-1 627:-1 628:1.05464 629:1.04586 630:-1 631:24.9261 632:1.77637 633:-1 634:-1 635:-1 636:-1 637:-1 638:-1 639:-1 640:-1 641:0.905158 642:-1 643:-1 644:-1 645:-1 646:-1 647:-1 648:-1 649:-1 651:-1 652:5.67258 653:-1 654:-1 655:-1 656:-1 657:-1 658:-1 659:-1 660:-1 661:-1 662:-1 663:-1 664:-1 665:-1 666:-1 667:-1 668:-1 669:-1 670:-1 671:-1 672:-1 673:-1 674:-1 675:-1 676:-1 677:-1 678:-1 679:-1 680:-0.42795 681:-1 682:-1 683:5.66824 684:-1 685:-1 686:-1 687:-1 688:-1 689:-1 690:11.9532 691:-1 692:-1 693:-1 694:-1 695:-1 696:-1 697:-1 698:-1 699:-1 700:-1 701:-1 702:-1 703:-1 704:-1 705:-1 706:-1 707:-1 708:-1 709:7.58037 710:-1 711:5.85925 712:-1 713:7.30284 714:-1 715:-1 716:-1 717:-1 718:-1 719:2.33629 720:-1 721:-0.364947 722:-1 723:-1 724:-1 725:-1 727:-1 728:-1 729:-1 730:-1 731:-1 732:-1 733:-1 734:-1 735:-1 736:-1 737:-1 738:-1 739:-1 740:-1 741:-1 742:-0.0105263 743:-1 744:-1 745:0.270106 746:0.716335 747:1.04586 748:-1 749:-1 750:-1 751:-1 752:-1 753:-1 754:-1 755:-1 756:-1 757:-1 758:-0.510462 759:-1 760:4.14835 761:-1 762:-1 763:-1 765:-1 766:-0.636828 767:-0.905266 768:1.99091 769:3.76308 770:-1 771:-1 772:-1 773:-0.310453 774:-1 775:-1 776:-1 777:3.53402 778:-1 779:-1 780:-1 781:-1 782:-1 783:-1 784:25.7208 785:0.668463 786:-1 787:-1 788:-1 789:-1 790:-1 791:-1 792:-1 793:0.161518 794:-1 795:-1 796:-1 797:-1 798:-1 799:-1 800:1.44732 801:-1 802:-1 803:-1 804:-1 805:-0.52362 806:-1 807:-1 808:-1 809:0.905158 810:2.1517 811:-1 812:-1 813:-1 814:-1 815:-1 816:-1 817:-1 818:-1 819:-1 820:-1 821:-1 822:-1 823:-1 824:-1 825:-1 826:-1 827:-1 828:-1 829:-1 830:-1 831:-1 832:-1 833:-1 834:-1 835:1.35534 836:-1 837:-1 838:-1 839:1.67208 841:-1 842:-1 843:-1 844:-1 845:-1 846:-1 847:-1 848:-1 849:-1 850:-1 
0.03125 0.03125 0 0:0.0461538 1:0.884578 2:-1 3:-1 4:-1 5:-1 6:-1 7:-1 8:1.6532 9:-0.867059 10:-1 11:-1 12:-0.651282 13:-1 14:-1 15:-1 16:-1 17:-1 18:-1 19:-0.228098 20:-0.867059 21:-1 22:-1 23:1.76423 24:0.275938 25:0.778462 26:-1 27:-1 28:-1 29:-1 30:-1 31:2.11087 32:-1 33:-1 34:-1 35:-1 36:-1 37:-0.870913 38:4.20569 39:-1 40:-1 42:27.4729 43:-1 45:-1 46:-1 47:-1 48:-1 49:1.26223 50:-1 51:-1 52:-1 53:-1 54:1.09249 55:4.74238 56:-1 57:-1 58:-1 59:-1 60:13.2189 61:-1 62:-1 63:-1 64:-0.811185 65:0.832013 66:-1 67:-1 68:-1 69:-1 70:-1 72:0.0944897 73:-1 74:-1 75:-1 76:-1 77:-0.0838485 78:-1 79:-1 80:7.53767 81:-1 82:-1 83:-0.0578647 84:-1 85:-1 86:-1 87:-1 88:0.275375 89:-1 90:0.716152 91:-1 92:-0.163047 93:2.02935 94:1.26223 95:-1 96:-1 97:-1 98:-1 99:-1 100:0.832013 101:-1 102:-1 103:-1 104:-1 105:-1 106:-1 107:-1 108:4.86802 109:0.0461538 110:0.832303 111:-1 112:-1 113:16.0753 114:0.185641 115:-1 116:-0.433555 117:-1 119:-1 120:-0.867059 121:-1 122:-1 123:-1 124:-1 125:-1 126:-1 127:-1 128:-1 129:-1 130:-1 131:-1 132:-1 133:-1 134:-1 135:-0.970274 136:1.94372 137:-1 138:-1 140:-1 141:-1 142:-1 143:-1 144:-1 145:-1 146:-0.886711 147:-1 148:-1 149:-1 150:-1 151:2.82781 152:-1 153:-1 154:-1 155:-1 156:-1 157:-1 158:-1 159:-1 160:2.55692 161:-1 162:-1 163:-1 164:-1 165:-1 166:-1 167:-1 168:-1 169:-1 170:-1 171:-1 172:-1 173:-1 174:-1 175:-1 176:-1 177:-1 178:-1 179:-1 180:-1 181:-1 182:3.13101 183:-1 184:-1 185:-1 186:-1 187:5.56818 188:-1 189:-1 190:4.37562 191:-1 192:-1 193:-1 194:-1 195:-1 196:-1 197:-1 198:-1 199:-1 200:-1 201:-1 202:-1 203:-1 204:-1 205:-1 206:-1 207:0.0461538 208:-1 209:-1 210:-1 211:-1 212:-1 213:-1 214:-1 215:-1 216:-1 217:-1 218:-1 219:-1 220:-1 221:-1 222:-1 223:1.84589 224:-1 225:-1 226:0.543803 227:-1 228:-1 229:-1 230:0.913907 231:-0.806372 232:-1 233:0.0461538 235:-1 236:-1 237:-1 238:0.0461538 239:0.520252 240:3.74344 241:-1 242:-1 243:-1 244:-1 245:-1 246:-1 247:-1 248:-0.462476 249:-1 250:-1 251:-1 252:-1 253:-1 254:-1 255:-1 256:-1 257:-1 258:0.884578 259:-1 260:-1 261:-1 262:-1 263:-1 264:-1 265:-1 266:2.31803 267:-1 268:-1 269:-1 270:-1 271:-1 272:2.02935 274:-0.476923 275:-1 276:2.04852 277:-1 278:-1 279:-1 280:-1 281:-1 282:-1 283:2.02935 284:-1 285:-1 286:-1 287:-1 288:-1 289:-0.0838485 290:-1 291:-1 292:-1 293:0.497797 294:-1 295:2.91069 296:0.219667 297:-1 298:-1 299:-1 300:-1 301:-1 302:-1 303:-1 304:-1 305:-1 306:-1 307:-1 308:1.13442 309:-1 310:-1 311:-1 312:-1 313:-1 314:0.0461538 315:-1 316:-1 317:7.53767 318:-1 319:0.832418 320:-1 321:-0.436427 322:-1 323:-0.0838485 324:-1 325:-1 326:-1 327:-1 328:-1 329:-1 330:-1 331:3.32797 332:1.51086 333:-1 334:-1 335:-1 336:-1 337:-1 338:-1 339:-1 340:-1 341:-1 342:-1 343:-1 344:-1 345:-1 346:-1 347:-1 348:-1 349:-1 350:-0.371876 351:-1 352:-1 353:-1 354:0.778462 355:0.74371 356:1.92806 357:-1 358:0.884578 359:-1 360:-1 361:-1 362:-1 363:-0.845096 364:-1 366:-1 367:7.00415 368:-1 369:-1 370:-1 371:-0.716778 372:-1 373:-1 374:-1 375:-1 376:-1 377:-1 378:-1 379:-1 380:-1 381:-1 382:-1 383:-0.716778 384:-1 385:-1 386:0.884578 387:-1 388:-1 389:-1 390:-1 391:-1 392:0.471861 393:-1 394:2.11087 395:-1 396:-1 397:-1 398:-1 399:-1 400:1.2464 401:-1 402:-1 403:-1 404:-1 405:-1 406:-1 407:6.11613 408:-1 409:-1 410:-1 411:-1 412:-1 413:-1 414:-1 415:-1 416:-1 417:-1 418:-1 419:-0.612743 420:-1 421:-0.651282 422:-1 423:-1 424:-1 425:-1 426:-1 427:-1 428:-1 429:7.29268 430:-1 431:-1 432:2.28409 433:-1 434:-1 435:-1 436:-1 437:-1 438:-1 439:1.65259 440:-0.867059 441:-0.476923 442:-1 443:-1 444:-1 445:-1 447:1.09231 448:-1 449:-1 450:-1 451:5.41338 452:-1 453:-1 454:4.86802 455:1.58671 456:-1 457:1.26223 458:0.302976 459:-0.462476 460:-1 461:-0.225461 462:41.6568 463:-1 464:1.09231 465:-1 466:2.28316 467:0.00960699 468:8.939 469:-1 470:-1 471:-1 472:-1 473:-1 474:-0.215259 475:-1 476:41.8148 477:-1 478:-1 479:-1 480:-1 481:-0.476497 482:-1 483:-1 484:-0.433555 486:-1 487:-1 488:-1 489:-1 490:-1 491:-1 492:-1 493:-1 494:-1 495:-1 496:-1 497:-1 498:-1 499:-0.0720822 500:2.55474 501:-1 502:-1 503:1.44397 504:-1 505:-1 506:-1 507:-1 508:-1 509:-1 510:-1 511:-1 512:2.55474 513:-1 514:-1 515:13.2314 516:-1 517:10.0673 518:0.884578 519:-1 520:-1 522:-1 523:-1 524:-1 525:-1 526:-0.193583 527:-1 528:-1 529:-1 530:-1 531:-1 532:-1 533:-1 534:9.672 535:-1 536:-1 537:-1 538:-1 539:-0.0578647 540:-1 541:-1 542:-1 543:0.0461538 544:-1 545:-1 546:-1 547:-1 548:-0.865616 549:-1 550:-1 551:-1 552:-1 554:-1 555:-1 556:-1 557:-1 558:0.832013 559:0.333949 560:-1 561:23.9138 562:0.940248 563:2.82781 564:1.01921 565:0.0461538 566:-1 567:-1 569:-1 570:-1 571:-1 572:-1 573:-1 574:-1 575:20.3284 576:1.37177 577:-1 578:-1 579:-1 580:0.832013 581:-1 582:0.0461538 583:-1 584:-1 585:1.2464 586:-1 587:-0.61273 588:3.0647 589:-1 590:-1 591:-1 592:-1 593:0.884271 594:-1 595:-0.371876 596:-1 597:-1 598:-1 599:-1 600:-1 602:-1 603:-1 604:-1 605:-1 606:-1 607:-1 608:1.13442 609:-1 610:-1 611:0.140039 612:3.56196 613:-1 614:2.04933 615:-1 616:0.832013 617:-1 618:-1 619:-1 620:-1 621:-1 622:-1 623:-1 624:-1 625:-1 626:-1 627:-1 628:3.5121 629:-1 630:-1 631:-1 632:-1 633:-1 634:-1 635:3.14634 636:-1 637:-1 638:-0.371876 639:-0.462476 640:-1 641:0.0461538 642:-1 643:-1 644:2.76916 645:-1 646:0.832013 647:-1 648:-1 649:-0.433555 651:-1 652:-1 653:-1 654:-1 655:-1 656:1.93401 657:-1 658:-1 659:-1 660:-1 661:-1 662:-1 663:-1 664:0.832013 665:-1 666:-1 667:-1 668:-1 669:-1 670:-1 671:-1 672:-1 673:-1 674:-1 675:3.52269 676:-1 677:-1 678:15.6092 679:-0.0578647 680:-1 681:-1 682:-1 683:-1 684:-1 685:-1 686:-0.621008 687:-1 688:-1 689:-1 690:8.48318 691:-1 692:-1 693:-1 694:-1 695:-1 696:-1 697:-1 698:-1 699:0.629546 700:-1 701:-1 702:-0.705222 703:-1 704:-1 705:1.66728 706:-1 707:-1 708:-1 709:4.65439 710:23.9138 711:-1 712:-1 713:-1 714:2.02935 715:-0.0578647 716:-1 717:-1 718:1.09249 719:0.832013 720:-1 721:-0.302564 722:-1 723:-1 724:-1 725:-1 727:-1 728:-1 729:-1 730:-1 731:-1 732:-1 733:-1 734:-1 735:6.10947 736:-1 737:-1 738:-1 739:-1 740:-1 741:-1 742:-1 743:-1 744:-1 745:-0.651282 746:-1 747:1.2464 748:-1 749:-1 750:-1 751:-1 752:-1 753:-1 754:-1 755:0.777368 756:-1 757:-1 758:0.0750488 759:-1 760:-1 761:-0.476923 762:-1 763:-1 765:-1 766:-1 767:-0.375723 768:-1 769:0.0461538 770:6.11823 771:-1 772:-1 773:-1 774:-0.476923 775:-1 776:0.0461538 777:-1 778:-1 779:-1 780:-1 781:-1 782:-0.867059 783:0.256249 784:28.3401 785:-1 786:-1 787:-1 788:-1 789:-1 790:-1 791:-1 792:-1 793:-1 794:-1 795:-1 796:0.955345 797:-1 798:-1 799:-1 800:-1 801:-1 802:8.11672 803:-1 804:4.33703 805:-1 806:-1 807:-1 808:-1 809:0.0461538 810:2.46148 811:0.884578 812:-1 813:-1 814:-1 815:-0.433555 816:-1 817:-1 818:-1 819:-1 820:-1 821:0.832013 822:-1 823:-1 824:-1 825:-1 826:-1 827:-1 828:-0.469384 829:-1 830:-1 831:7.29268 832:-1 833:-1 834:-1 835:1.58671 836:-1 837:-1 838:-1 839:1.93401 841:-1 842:-1 843:-1 844:-1 845:0.471861 846:-1 847:-1 848:4.33626 849:6.65563 850:-1 
0.03125 0.03125 0 0:-1 1:-1 2:-1 3:0.325183 4:-1 5:-1 6:-1 7:-1 8:-1 9:-1 10:-1 11:-1 12:-1 13:-1 14:-1 15:-1 16:-1 17:6.7799 18:-1 19:-1 20:-0.813009 21:-1 22:-1 23:2.88809 24:-1 25:-1 26:-1 27:-1 28:-1 29:-1 30:-1 31:-1 32:-1 33:1.61079 34:-1 35:-1 36:-1 37:-1 38:13.6434 39:-1 40:-1 42:-1 43:-1 45:-1 46:-0.813009 47:2.75173 48:-1 49:2.182 50:-1 51:-1 52:-1 53:-1 54:2.67873 55:-1 56:-1 57:-1 58:-1 59:-0.264253 60:9 61:-1 62:-1 63:-1 64:-1 65:-1 66:-1 67:2.49978 68:-1 69:-1 70:-1 72:-1 73:1.6508 74:-1 75:-1 76:-1 77:-1 78:-1 79:-1 80:-1 81:-1 82:-1 83:-1 84:-1 85:-1 86:-1 87:-1 88:-1 89:-1 90:3.82779 91:-1 92:2.53171 93:-1 94:2.182 95:-1 96:-1 97:0.650426 98:-1 99:-1 100:-1 101:-1 102:-1 103:-1 104:-1 105:-1 106:-1 107:-1 108:-1 109:-1 110:-1 111:4.3016 112:-1 113:-1 114:0.667692 115:-0.509502 116:-1 117:-1 119:-1 120:-1 121:4.3016 122:19.6345 123:-1 124:-0.0671256 125:-1 126:-1 127:-0.116496 128:-1 129:-1 130:-1 131:-1 132:-1 133:5.36399 134:-1 135:-0.958189 136:3.14057 137:-1 138:-1 140:-1 141:-1 142:-1 143:-1 144:-1 145:-1 146:-1 147:-1 148:-1 149:-1 150:-1 151:-1 152:-1 153:-1 154:-1 155:-1 156:-1 157:0.819199 158:-1 159:-1 160:-1 161:-1 162:-1 163:-1 164:-1 165:-1 166:-1 167:-1 168:-1 169:-1 170:-1 171:3.00295 172:-1 173:-1 174:-1 175:-1 176:-1 177:-1 178:-1 179:3.80355 180:22.3621 181:-1 182:0.936636 183:-1 184:-1 185:-1 186:-1 187:8.23864 188:-1 189:-1 190:1.2682 191:-1 192:-1 193:-1 194:-1 195:-1 196:-1 197:-1 198:-1 199:-1 200:-1 201:-1 202:-1 203:-1 204:-1 205:-1 206:-1 207:-1 208:-1 209:-1 210:-1 211:-1 212:-1 213:-1 214:-1 215:-1 216:-1 217:-1 218:-1 219:-1 220:-1 221:0.593493 222:9 223:-1 224:-1 225:-1 226:-1 227:-1 228:-1 229:-1 230:-1 231:-1 232:-1 233:-1 235:-1 236:-1 237:-1 238:-1 239:-1 240:-1 241:-1 242:-1 243:-1 244:-1 245:0.892018 246:-1 247:-1 248:-1 249:1.57686 250:-1 251:-1 252:-1 253:9.01232 254:-1 255:-1 256:-1 257:-1 258:-1 259:-1 260:0.325183 261:-1 262:-1 263:-1 264:-1 265:-1 266:-1 267:1.6508 268:-1 269:-1 270:-1 271:-1 272:-1 274:-1 275:-1 276:3.28797 277:-1 278:-1 279:-1 280:-1 281:-1 282:-1 283:-1 284:-1 285:-1 286:0.471493 287:-1 288:-1 289:-1 290:-1 291:-1 292:-1 293:1.10676 294:0.936636 295:-1 296:0.715552 297:-1 298:-1 299:-1 300:-1 301:-1 302:9 303:-1 304:-1 305:-1 306:4.52685 307:-0.727647 308:-1 309:-1 310:2.68373 311:-1 312:-1 313:-1 314:0.471493 315:-1 316:-1 317:23.0177 318:-1 319:-1 320:-1 321:-1 322:-1 323:1.57727 324:-1 325:-1 326:-1 327:-1 328:11.8233 329:-1 330:-1 331:2.0438 332:-1 333:-1 334:-1 335:-1 336:-1 337:-1 338:-1 339:-1 340:0.364552 341:-1 342:-1 343:-1 344:-1 345:-1 346:-1 347:9.91275 348:-1 349:-1 350:-1 351:-1 352:-1 353:4.3016 354:4.00308 355:1.94299 356:3.11854 357:-1 358:-1 359:-1 360:-1 361:-1 362:-1 363:-1 364:-1 366:-1 367:2.7526 368:-1 369:-1 370:5.3615 371:-1 372:-1 373:-1 374:-1 375:-1 376:-1 377:-1 378:-1 379:-1 380:-1 381:-1 382:-1 383:-1 384:2.87327 385:-1 386:-1 387:-1 388:-1 389:-1 390:-1 391:-1 392:-1 393:-1 394:-1 395:-1 396:16.5027 397:5.00443 398:-1 399:-1 400:-1 401:-0.116496 402:-1 403:-1 404:-1 405:-1 406:-1 407:-1 408:-1 409:0.471493 410:3.00295 411:0.325183 412:-1 413:-1 414:-1 415:1.06293 416:-1 417:-1 418:-1 419:-1 420:-1 421:-1 422:-1 423:-1 424:-1 425:1.45249 426:-1 427:-1 428:-0.754744 429:-1 430:-1 431:-1 432:-1 433:-1 434:-1 435:-1 436:-1 437:-1 438:-1 439:-1 440:-1 441:1.20724 442:-1 443:-1 444:-1 445:-1 447:-1 448:1.07028 449:-1 450:-1 451:4.15454 452:1.57686 453:6.20532 454:-1 455:0.819199 456:-1 457:-1 458:-1 459:-1 460:-0.906506 461:-1 462:-1 463:-1 464:1.94299 465:-1 466:10.545 467:-1 468:0.471493 469:-1 470:2.49978 471:-1 472:-1 473:-1 474:-1 475:-1 476:420.556 477:-1 478:-1 479:-1 480:-1 481:-1 482:-1 483:-1 484:-0.203254 486:-1 487:1.57686 488:-1 489:-1 490:-1 491:-1 492:-1 493:-1 494:1.13835 495:-1 496:-1 497:-1 498:-1 499:-1 500:-1 501:-1 502:-1 503:-1 504:-1 505:-1 506:3.41448 507:-1 508:-1 509:-1 510:-1 511:-1 512:-1 513:-1 514:-1 515:-1 516:-1 517:-1 518:-1 519:-1 520:3.26101 522:-1 523:-1 524:-1 525:-1 526:-1 527:1.65037 528:-1 529:-1 530:-1 531:-1 532:-1 533:-1 534:-1 535:-1 536:-1 537:3.41448 538:-1 539:1.65037 540:0.0649725 541:0.325183 542:-1 543:-1 544:-1 545:5.00443 546:-1 547:-1 548:-0.810979 549:-1 550:-1 551:-1 552:-1 554:-1 555:-1 556:-1 557:2.0438 558:-1 559:-1 560:-1 561:-1 562:7.18731 563:-1 564:-1 565:-1 566:4.45821 567:-1 569:-1 570:1.6508 571:-1 572:-1 573:-1 574:-1 575:-1 576:-1 577:6.00258 578:-1 579:-1 580:1.57686 581:-1 582:-1 583:-1 584:-1 585:2.15974 586:-1 587:-1 588:-1 589:-1 590:-1 591:-1 592:-1 593:0.325183 594:-1 595:-1 596:-1 597:-1 598:-1 599:-1 600:-1 602:-1 603:-1 604:-1 605:-1 606:-0.754744 607:3.80355 608:8.00665 609:-1 610:-1 611:-1 612:-1 613:-1 614:-1 615:-1 616:1.57686 617:-1 618:-1 619:-1 620:-1 621:-1 622:-1 623:-1 624:-1 625:0.765856 626:-1 627:-1 628:-1 629:5.31947 630:-1 631:-1 632:-1 633:-1 634:-1 635:-1 636:-1 637:-1 638:-1 639:-1 640:-1 641:-1 642:-1 643:-1 644:-1 645:-1 646:-1 647:1.79959 648:-1 649:-1 651:1.12994 652:-1 653:-1 654:5.18878 655:-1 656:-1 657:-1 658:-1 659:-1 660:-1 661:2.15974 662:3.2767 663:-1 664:-1 665:-1 666:-1 667:-1 668:1.50077 669:-1 670:-1 671:-1 672:-1 673:-1 674:-1 675:-1 676:-1 677:-1 678:-1 679:-1 680:-1 681:1.57686 682:-1 683:-1 684:-1 685:-1 686:-0.46692 687:-1 688:-1 689:-1 690:-1 691:-1 692:-1 693:-1 694:-1 695:-1 696:-1 697:-1 698:-1 699:1.29208 700:-1 701:-1 702:-1 703:-1 704:-1 705:-1 706:1.57686 707:-1 708:-1 709:-1 710:-1 711:6.06342 712:-1 713:11.8233 714:3.26101 715:1.65037 716:-1 717:-1 718:-1 719:1.57686 720:-1 721:-0.509502 722:-1 723:-1 724:-1 725:-1 727:-1 728:-1 729:-1 730:-1 731:-1 732:-1 733:-1 734:-1 735:-1 736:-1 737:-1 738:-1 739:-1 740:-1 741:-1 742:-1 743:-1 744:-1 745:-1 746:-1 747:5.31947 748:-1 749:-1 750:-1 751:-1 752:-1 753:-1 754:-1 755:-1 756:-1 757:-1 758:-1 759:-1 760:1.6508 761:-1 762:-1 763:-1 765:-1 766:-0.813009 767:-0.743905 768:-1 769:1.94299 770:-1 771:-1 772:-1 773:-1 774:-1 775:-1 776:-1 777:20.0078 778:-1 779:-1 780:-1 781:-1 782:-1 783:-0.116496 784:-1 785:-1 786:-1 787:-1 788:-1 789:-1 790:-1 791:-1 792:-1 793:-1 794:-1 795:-1 796:-1 797:-1 798:-1 799:-1 800:-0.243932 801:-1 802:-1 803:-1 804:6.50693 805:0.471493 806:-1 807:-0.979094 808:-1 809:0.471493 810:2.24551 811:-1 812:-1 813:-1 814:-1 815:-1 816:-1 817:-1 818:-1 819:-1 820:-1 821:-1 822:1.22374 823:-1 824:-1 825:-1 826:-1 827:-0.96748 828:-1 829:-1 830:-1 831:-1 832:-1 833:-1 834:-1 835:-1 836:-1 837:-1 838:-1 839:-1 841:-1 842:-1 843:-1 844:-1 845:-1 846:-1 847:-1 848:0.876298 849:-1 850:-1 
0.03125 0.03125 0 0:0.951493 1:-1 2:-1 3:-1 4:-1 5:-1 6:-1 7:-1 8:0.23709 9:-1 10:-1 11:-1 12:-0.349502 13:-1 14:0.990399 15:1.82473 16:-1 17:4.15789 18:-1 19:-1 20:-1 21:-1 22:-1 23:-1 24:0.189845 25:-1 26:0.450094 27:-1 28:-1 29:-1 30:-1 31:-1 32:7.84495 33:-1 34:-1 35:-1 36:1.82495 37:-1 38:2.88401 39:-1 40:-1 42:-1 43:1.90097 45:-1 46:-1 47:-1 48:-1 49:-1 50:-1 51:-1 52:2.0625 53:-1 54:-1 55:-1 56:-1 57:-1 58:-0.0244344 59:0.463529 60:-1 61:-1 62:-1 63:-1 64:-1 65:0.708399 66:0.757418 67:1.32028 68:-1 69:-1 70:-1 72:2.0623 73:4.27291 74:-1 75:-1 76:-1 77:-1 78:-1 79:-1 80:-1 81:0.784768 82:0.757418 83:-1 84:-1 85:-1 86:-0.646951 87:-1 88:2.5684 89:-1 90:0.600356 91:-1 92:2.1225 93:-1 94:-1 95:-0.471776 96:-1 97:-1 98:-1 99:-1 100:-1 101:-1 102:-1 103:-1 104:-1 105:-1 106:1.92706 107:-0.0244344 108:-1 109:-0.512217 110:-1 111:-1 112:-1 113:6.9616 114:1.21169 115:-1 116:-1 117:-1 119:-1 120:-1 121:-1 122:12.6802 123:-1 124:-1 125:-1 126:-1 127:-1 128:-1 129:-1 130:-1 131:-1 132:-1 133:1.10959 134:4.80301 135:-1 136:0.372549 137:-1 138:-1 140:2.18523 141:-1 142:-1 143:-1 144:-1 145:-1 146:-1 147:3.21753 148:0.02064 149:-1 150:-1 151:-1 152:26.3655 153:-1 154:-1 155:-1 156:-1 157:1.41262 158:-1 159:-1 160:-1 161:78.8667 162:-1 163:-1 164:-1 165:-1 166:-1 167:-1 168:-1 169:-1 170:1.09483 171:4.30871 172:-1 173:-1 174:-1 175:-1 176:-1 177:-1 178:-1 179:-1 180:-1 181:-1 182:-1 183:1.65387 184:-1 185:53.731 186:-1 187:20.4409 188:-0.0244344 189:-1 190:2.50935 191:-1 192:-1 193:-1 194:-1 195:-1 196:-1 197:-1 198:-1 199:-1 200:-1 201:-1 202:0.757418 203:-1 204:-1 205:-1 206:-1 207:-1 208:-1 209:-1 210:-1 211:-1 212:-1 213:-1 214:-1 215:-1 216:-1 217:-1 218:7.50158 219:-1 220:-1 221:-1 222:5.62977 223:1.65387 224:-1 225:-1 226:-1 227:-1 228:-0.471776 229:-1 230:0.784768 231:-1 232:-1 233:-0.0242534 235:-1 236:10.5914 237:-1 238:-1 239:-1 240:-1 241:-1 242:-1 243:-1 244:-1 245:-1 246:-1 247:0.372549 248:-1 249:-1 250:-1 251:-1 252:-1 253:-1 254:-1 255:7.52954 256:-1 257:-1 258:-1 259:-1 260:-0.121434 261:-1 262:-1 263:-1 264:-1 265:-1 266:2.09414 267:-1 268:-1 269:0.708399 270:2.86657 271:4.80194 272:-1 274:1.43928 275:-1 276:10.3734 277:-1 278:-1 279:-1 280:5.08122 281:-1 282:-1 283:-1 284:-1 285:-1 286:-0.0244344 287:-1 288:2.0625 289:-1 290:-1 291:-1 292:-1 293:7.38171 294:-1 295:-1 296:-1 297:-1 298:-0.277588 299:-1 300:-1 301:-1 302:-1 303:-1 304:-0.414258 305:-0.192904 306:0.221391 307:-1 308:0.990399 309:-1 310:-1 311:-1 312:-1 313:0.708399 314:3.87855 315:-1 316:-1 317:6.9616 318:-1 319:-1 320:-1 321:-1 322:-1 323:1.56332 324:-1 325:-1 326:-1 327:-1 328:-1 329:-1 330:-1 331:1.01797 332:-1 333:-1 334:-1 335:-1 336:-1 337:-1 338:-1 339:-1 340:4.429 341:1.57771 342:-1 343:-1 344:-1 345:-1 346:-1 347:9.85369 348:-1 349:-1 350:-0.414258 351:-1 352:-1 353:-1 354:-1 355:-0.674811 356:-1 357:1.32028 358:2.51549 359:6.58228 360:-1 361:-1 362:-1 363:-1 364:-1 366:4.80194 367:5.22063 368:-1 369:-1 370:3.21753 371:-1 372:-1 373:-1 374:-1 375:0.215059 376:-1 377:-1 378:-1 379:-1 380:-1 381:10.5914 382:3.25414 383:-0.735888 384:0.283945 385:2.20131 386:-1 387:-1 388:-1 389:-1 390:-1 391:-1 392:-1 393:-1 394:1.90097 395:-1 396:-1 397:2.98154 398:-1 399:-1 400:-1 401:-0.414258 402:-1 403:-1 404:-1 405:-1 406:-1 407:-1 408:-1 409:-1 410:0.326933 411:0.757457 412:-1 413:-1 414:-1 415:-1 416:-1 417:-1 418:-1 419:-1 420:-1 421:-1 422:-1 423:-1 424:-1 425:-0.674811 426:-1 427:-0.145123 428:-0.837401 429:-1 430:-1 431:1.10463 432:2.0625 433:2.5702 434:-1 435:1.44223 436:-1 437:-1 438:-1 439:3.94814 440:-1 441:-0.0242534 442:-1 443:-1 444:-1 445:1.34144 447:-1 448:-1 449:1.65387 450:-1 451:1.56332 452:0.708399 453:8.55569 454:-1 455:0.206086 456:-1 457:-1 458:0.215059 459:-1 460:-1 461:-1 462:-1 463:-1 464:1.92706 465:-1 466:0.530815 467:-1 468:-0.512217 469:-1 470:-1 471:-1 472:-1 473:26.3604 474:-1 475:-1 476:38.9259 477:-1 478:-0.414258 479:-0.0244344 480:-1 481:-1 482:-1 483:-0.0244344 484:-1 486:-1 487:0.708399 488:-1 489:-1 490:-1 491:-1 492:2.86657 493:-1 494:-1 495:-1 496:-1 497:-1 498:-1 499:-0.134693 500:0.657442 501:-1 502:-1 503:-1 504:-1 505:2.0625 506:-0.0244344 507:-1 508:-1 509:-1 510:0.450094 511:-1 512:-1 513:-1 514:-1 515:5.63603 516:-1 517:1.94912 518:0.757418 519:-1 520:-1 522:-1 523:-1 524:26.3604 525:-0.291256 526:-1 527:-1 528:-1 529:-1 530:-1 531:-1 532:0.809332 533:38.9259 534:-1 535:-1 536:-1 537:-1 538:-1 539:0.757457 540:-1 541:-1 542:-1 543:-1 544:-1 545:-1 546:-1 547:-1 548:-1 549:-1 550:-1 551:-1 552:3.88536 554:-1 555:-1 556:-1 557:-1 558:0.708399 559:3.97669 560:-1 561:-1 562:-1 563:2.56954 564:-1 565:-1 566:4.42867 567:-1 569:1.94912 570:-1 571:-1 572:-1 573:-1 574:-1 575:18.8893 576:-1 577:-1 578:0.0566445 579:0.809332 580:4.12583 581:-0.0244344 582:-1 583:-1 584:1.21174 585:1.09483 586:-1 587:-1 588:0.895218 589:-1 590:-1 591:-1 592:-0.0244344 593:2.51491 594:-1 595:-1 596:-1 597:-1 598:-1 599:-1 600:-1 602:-1 603:-1 604:-0.498745 605:-1 606:-1 607:-1 608:2.98154 609:-1 610:-1 611:-1 612:-1 613:-1 614:-1 615:-1 616:7.54326 617:-1 618:-1 619:-1 620:-1 621:-1 622:-1 623:2.51549 624:-1 625:0.170721 626:-1 627:9.54646 628:-1 629:-1 630:-1 631:-1 632:-1 633:-1 634:-1 635:-1 636:-1 637:-1 638:-0.414258 639:-1 640:-1 641:0.951493 642:14.9261 643:-1 644:-1 645:1.48731 646:-1 647:0.856061 648:2.42005 649:-1 651:0.412104 652:2.41743 653:-1 654:3.10353 655:-1 656:-1 657:-1 658:-1 659:-1 660:-1 661:3.19044 662:-1 663:-1 664:-1 665:-1 666:-1 667:-1 668:-0.171024 669:-1 670:-1 671:-1 672:-1 673:-1 674:-1 675:-1 676:-1 677:-1 678:-1 679:-1 680:-1 681:-1 682:-1 683:-1 684:-1 685:-1 686:-1 687:-1 688:-1 689:0.708399 690:3.42166 691:1.21174 692:-1 693:-1 694:-1 695:-1 696:-1 697:-1 698:-1 699:-1 700:-1 701:-1 702:-1 703:-1 704:-1 705:-1 706:-1 707:0.547072 708:-1 709:0.757418 710:-1 711:-1 712:-1 713:7.50158 714:4.65094 715:-0.121434 716:-1 717:-1 718:-0.0242534 719:-1 720:-1 721:0.626184 722:-1 723:-1 724:-1 725:-1 727:-1 728:-1 729:-1 730:-1 731:-1 732:-1 733:-1 734:-1 735:-1 736:-1 737:-1 738:-1 739:-1 740:-1 741:-1 742:-1 743:-1 744:-1 745:-1 746:2.51549 747:1.09483 748:-1 749:1.32028 750:-1 751:2.18523 752:-1 753:-1 754:-1 755:-1 756:-1 757:-0.658277 758:0.00269692 759:38.9259 760:-1 761:-0.0242534 762:0.592319 763:8.36751 765:-1 766:-1 767:-0.975745 768:-1 769:3.87855 770:-1 771:-0.414258 772:-1 773:-1 774:-1 775:-1 776:-1 777:-1 778:-1 779:-1 780:-1 781:-1 782:-1 783:-1 784:-1 785:-1 786:-1 787:-1 788:-1 789:-1 790:-1 791:-1 792:-1 793:-1 794:1.65387 795:-1 796:-1 797:-0.536384 798:-1 799:-1 800:-1 801:-1 802:-1 803:-1 804:-1 805:0.463529 806:-1 807:-1 808:-1 809:-1 810:0.0758483 811:0.757418 812:-1 813:-1 814:-1 815:-1 816:-1 817:-1 818:-1 819:-1 820:-1 821:-1 822:-1 823:0.519876 824:-1 825:-1 826:-1 827:-1 828:-1 829:-1 830:-0.647785 831:-1 832:-1 833:-1 834:-1 835:1.41262 836:-1 837:26.3604 838:1.73604 839:1.73604 841:-1 842:-1 843:-1 844:-1 845:-1 846:-1 847:-1 848:1.48835 849:-1 850:-1 
