svm_type c_svc
kernel_type rbf
gamma 3.05176e-05
nr_class 4
total_sv 110
rho -0.836309 nan -3.21708 nan -0.88959 -2.39332
label 0 1 2 3
nr_sv 20 25 16 49
SV
15.73717859702001 0 9.32440728051397 0:2.99723 1:1.67036 2:2.18457 3:-1 4:-0.0520705 5:-1 6:-1 7:-1 8:-0.280378 9:-1 10:-1 11:-1 12:-1 13:-1 14:1.29997 15:-1 16:-1 17:-1 18:-1 19:-1 20:-1 21:-1 22:-1 23:-1 24:-0.8844 25:-1 26:-1 27:-1 28:-1 29:-1 30:-1 31:-1 32:-1 33:-1 34:-1 35:1.84403 36:-1 37:-1 38:-1 39:-1 40:-1 41:-1 42:-1 43:-1 44:-1 45:-1 46:-1 47:-1 48:-1 49:-1 50:-1 51:-0.716778 52:-1 53:-1 54:-1 55:-1 56:-0.184997 57:-1 58:-1 59:-1 60:-1 61:-1 62:1.52017 63:-1 64:-1 65:-1 66:0.592287 67:1.19272 68:-1 69:-1 70:-1 71:-1 72:-1 73:-1 74:-1 75:-1 76:-1 77:-1 78:-1 79:-1 80:-1 81:-1 82:-1 83:-1 84:-1 85:-1 86:-1 87:-1 88:-1 89:-1 90:-1 91:-1 92:-1 93:-1 94:3.36886 95:-1 96:-1 97:-1 98:-1 99:-1 100:-1 101:-1 102:-1 103:-1 104:-1 105:-1 106:-1 107:-1 108:-1 109:1.12305 110:-1 111:3.76349 112:-1 113:-1 114:-1 115:-1 116:-1 117:-1 118:-1 119:-1 120:-1 121:-1 122:-1 123:-0.329505 124:-0.179269 125:2.59118 126:-1 127:-1 128:-1 129:2.59118 130:-1 131:-1 132:-1 133:-1 134:-1 135:-1 136:-1 137:0.335181 138:-1 139:-1 140:-1 141:-1 142:-1 143:-1 144:-1 145:1.52017 146:-1 147:-1 148:-1 149:-1 150:-1 151:-1 152:-1 153:-1 154:-1 155:-1 156:-0.45669 157:-1 158:-1 159:-1 160:-0.213858 161:-1 162:-1 163:1.67036 164:1.5547 165:-1 166:-1 167:-1 168:-1 169:-1 170:-1 171:-1 172:-1 173:-1 174:-1 175:-1 176:-1 177:-1 178:-1 179:-1 180:-1 181:-1 182:-0.213858 183:-1 184:-0.497151 185:-1 186:-1 187:-1 188:2.18457 189:-1 190:-1 191:-1 192:-1 193:-1 194:-1 195:-1 196:-1 197:-1 198:-1 199:-1 200:-1 201:-1 202:-1 203:-1 204:-1 205:-1 206:-1 207:-1 208:-1 209:-1 210:-1 211:-1 212:-1 213:0.630147 214:-1 215:-1 216:-1 217:-1 218:4.54617 219:-0.45669 220:-1 221:-1 222:-1 223:1.1211 224:-1 225:-1 226:-1 227:-1 228:-0.734118 229:-0.0144928 230:-1 231:-1 232:-1 233:-1 234:-1 235:-1 236:-1 237:-1 238:-1 239:-1 240:-1 241:0.304593 242:-1 243:-1 244:-1 245:-1 246:-1 247:-1 248:-1 249:-1 250:-1 251:8.62214 252:-1 253:0.630006 254:-1 255:-1 256:-1 257:-1 258:1.14431 259:-1 260:-1 261:-1 262:-1 263:-1 264:-1 265:-1 266:-0.184997 267:-1 268:-1 269:2.20693 270:-1 271:-0.606963 272:-1 273:0.628654 274:-1 275:-1 276:-1 277:-1 278:-1 279:-1 280:-1 281:-1 282:-1 283:-1 284:-1 285:-1 286:-1 287:-1 288:-1 289:-1 290:-1 291:-1 292:-1 293:-1 294:-1 295:-1 296:0.213776 297:-1 298:-1 299:-1 300:-1 301:-1 302:-1 303:-1 304:-1 305:-1 306:7.17321 307:-1 308:-1 309:-1 310:-1 311:-1 312:-1 313:-1 314:-1 315:-0.433555 316:5.5794 317:-1 318:-1 319:-1 320:-1 321:-1 322:-1 323:-1 324:-1 325:-1 326:-1 327:-1 328:-1 329:-0.375776 330:-1 331:-1 332:-1 333:-1 334:-1 335:-1 336:-1 337:-1 338:-1 339:-1 340:-1 341:-1 342:-1 343:-0.702289 344:-1 345:-1 346:-0.692197 347:-1 348:-1 349:-1 350:0.0924211 351:-1 352:-1 353:0.260083 354:-1 355:-1 356:-1 357:-1 358:-1 359:-1 360:-1 361:-1 362:-1 363:-1 364:-1 365:6.28307 366:-1 367:-1 368:-1 369:-1 370:-1 371:-0.947903 372:-1 373:-1 374:-1 375:-1 376:-1 377:-1 378:-1 379:-1 380:2.58338 381:-1 382:-1 383:-1 384:-1 385:-1 386:-1 387:-1 388:-1 389:-1 390:-1 391:-1 392:-1 393:-1 394:-1 395:-1 396:-1 397:-1 398:-1 399:-1 400:-1 401:-1 402:-1 403:-1 404:-1 405:-1 406:-1 407:-1 408:-1 409:-1 410:-1 411:-1 412:-1 413:10.8808 414:-1 415:-1 416:-1 417:1.01148 418:-1 419:-1 420:-1 421:-1 422:-1 423:-1 424:-1 425:-1 426:1.135 427:0.0216527 428:-1 429:-1 430:-1 431:-1 432:-1 433:-1 434:-1 435:-0.445111 436:-1 437:-1 438:-1 439:-1 440:-1 441:-1 442:-1 443:-1 444:-1 445:-1 446:-0.179269 447:-1 448:-1 449:-1 450:-1 451:-1 452:-1 453:-1 454:-1 455:-1 456:-1 457:0.630147 458:-0.67138 459:-1 460:-1 461:-1 462:-1 463:-1 464:2.79188 465:-1 466:-1 467:-1 468:-1 469:-1 470:-1 471:-1 472:-1 473:-1 474:-1 475:-1 476:-1 477:-1 478:-1 479:-1 480:-1 481:-1 482:-1 483:1.72184 484:-1 485:-1 486:3.3426 487:-1 488:-1 489:-1 490:-1 491:-1 492:-1 493:0.630147 494:-1 495:-1 496:-1 497:-1 498:-1 499:-1 500:-1 501:-1 502:-1 503:-1 504:-1 505:-1 506:-1 507:-1 508:-1 509:-1 510:-1 511:-1 512:-1 513:-1 514:-1 515:-1 516:-1 517:-1 518:-1 519:0.641605 520:-1 521:-1 522:-1 523:-1 524:-1 525:-1 526:-1 527:-1 528:-1 529:-1 530:-1 531:-1 532:-1 533:-1 534:-1 535:-1 536:-1 537:-1 538:-1 539:-1 540:1.42755 541:-1 542:7.12724 543:-1 544:-1 545:-1 546:-1 547:-1 548:-1 549:-1 550:-1 552:-1 553:-1 554:-1 555:1.4775 556:-1 557:-1 558:-1 559:-1 560:-1 561:-1 562:-1 563:-1 564:-1 565:-1 566:-1 567:1.38154 568:-1 569:-1 570:-1 571:-0.90174 572:-1 573:-1 574:-1 575:-1 576:-1 577:-1 578:-1 579:-1 580:-1 581:-0.0752 582:-1 583:-1 584:-1 585:-1 586:-1 587:-1 588:-1 589:-1 590:-1 591:-0.179269 592:-1 593:-1 594:-1 595:-1 596:-1 597:-1 598:-1 599:-0.606963 600:0.179179 601:-1 602:-1 603:-1 604:-1 605:-1 606:-1 607:-1 608:-1 609:-1 610:-1 611:-1 612:-1 613:-1 614:6.8834 615:-1 616:-1 617:-1 618:-1 619:-1 620:-1 621:-1 622:-1 623:-1 624:-1 625:-1 626:-1 627:-1 628:-1 629:-1 630:-1 631:-0.179269 632:-1 633:-1 634:-1 635:-1 636:-1 637:-1 638:-1 639:-1 640:-1 641:-1 642:-1 643:-0.803482 644:1.03868 645:0.641605 646:-1 647:-1 648:-1 649:-1 650:-1 651:-1 652:-1 653:-1 654:-1 655:2.48298 656:-1 657:-1 658:-1 659:-1 660:-1 661:-1 662:-1 663:-1 664:-1 665:-1 666:-1 667:0.313935 668:-1 669:-1 670:-1 671:-1 672:-1 673:-1 674:-1 675:-1 676:-1 677:-1 678:-1 679:1.01957 680:-1 681:-1 682:-1 683:-1 684:-1 685:-1 686:-1 687:-1 688:-1 689:-1 690:-1 691:-1 692:-1 693:-1 694:-1 695:-1 696:-1 697:-1 698:-1 699:-1 700:1.1211 701:-1 702:-1 703:-1 704:-1 705:-1 706:0.630006 707:-1 708:-1 709:-1 710:-1 711:-1 712:-1 713:-1 714:1.4245 715:-1 716:-1 717:-1 718:-1 719:-1 720:1.67059 721:-0.190816 722:-1 723:-1 724:-1 725:-1 726:-1 727:-1 728:-1 729:-1 730:-1 731:1.72449 732:-1 733:3.70342 734:-1 735:-1 736:-1 737:-1 738:-1 739:-1 740:-1 741:-1 742:-1 743:-1 744:-1 745:-1 746:-1 747:-1 748:-1 749:-1 750:-1 751:-0.179269 752:-1 753:1.30463 754:-1 755:-1 756:-1 757:-1 758:-1 759:-1 760:-1 761:-0.184997 762:-1 763:-1 764:-1 765:-1 766:-1 767:-1 768:-1 769:-1 770:2.20222 771:-1 772:-1 773:-0.335258 774:-1 775:-1 776:-1 777:-1 778:-1 779:0.491314 780:-1 781:-1 782:-1 783:-1 784:-1 785:-1 786:-1 787:-1 788:-1 789:-1 790:-1 791:0.0721573 792:-1 793:-0.213858 794:-1 
23.42049332995503 0 13.88716767567035 0:22.4426 1:-1 2:-1 3:-1 4:-1 5:-1 6:-1 7:-1 8:-1 9:-1 10:-1 11:-1 12:2.49197 13:-1 14:-0.831392 15:-1 16:-1 17:-1 18:-0.203365 19:-1 20:-1 21:-1 22:-1 23:-1 24:-1 25:-1 26:-1 27:-1 28:-1 29:-1 30:-1 31:-1 32:-1 33:-1 34:-1 35:0.0423124 36:-1 37:-1 38:-1 39:-1 40:-1 41:-1 42:-1 43:-1 44:-1 45:-1 46:-1 47:-1 48:-1 49:-1 50:-1 51:-1 52:-1 53:-1 54:-1 55:-1 56:-1 57:-1 58:-1 59:-1 60:-1 61:-1 62:0.847395 63:-1 64:-1 65:-1 66:-1 67:-1 68:-1 69:-1 70:-1 71:-1 72:-1 73:-1 74:0.779504 75:-1 76:-1 77:-1 78:-1 79:-1 80:0.957496 81:-1 82:-1 83:-1 84:-1 85:-1 86:-1 87:-1 88:-1 89:-1 90:-1 91:-1 92:-1 93:-1 94:-1 95:2.38976 96:-1 97:-1 98:-1 99:-1 100:-1 101:-1 102:-1 103:-1 104:-1 105:-1 106:-1 107:0.779504 108:1.34542 109:-1 110:-1 111:-1 112:-1 113:-1 114:-1 115:-1 116:-1 117:-1 118:-1 119:-0.0763026 120:-1 121:-1 122:-1 123:-1 124:8.62684 125:-1 126:-1 127:-1 128:-1 129:-1 130:-1 131:-1 132:-1 133:-1 134:-1 135:-1 136:-1 137:-1 138:-1 139:-1 140:-1 141:-1 142:-1 143:-1 144:-1 145:-1 146:-1 147:-1 148:-1 149:-1 150:-1 151:-1 152:-0.398367 153:-1 154:-1 155:-1 156:-1 157:-1 158:-1 159:-1 160:-1 161:-1 162:-1 163:-1 164:-1 165:-1 166:-1 167:-1 168:1.34737 169:-1 170:-1 171:-1 172:-1 173:-1 174:-1 175:-1 176:-1 177:-1 178:-1 179:-1 180:-1 181:-1 182:-1 183:-1 184:-1 185:-1 186:1.1908 187:-1 188:-1 189:-1 190:-1 191:-1 192:-1 193:-1 194:-1 195:-1 196:-1 197:-1 198:-1 199:-1 200:-1 201:-1 202:-1 203:-1 204:-1 205:0.745777 206:-1 207:-1 208:-1 209:-1 210:-1 211:-1 212:-1 213:0.792442 214:-1 215:-1 216:-1 217:-1 218:-1 219:-1 220:-0.745403 221:-1 222:3.80514 223:-1 224:-1 225:-1 226:-1 227:-1 228:-1 229:4.05729 230:-1 231:-1 232:-1 233:-1 234:-1 235:-1 236:-1 237:-1 238:-1 239:0.601696 240:-1 241:-1 242:2.48479 243:-1 244:-1 245:0.601714 246:-1 247:-1 248:-1 249:-1 250:-1 251:2.52643 252:-1 253:-1 254:0.867974 255:-1 256:-1 257:-1 258:-1 259:-0.771202 260:-1 261:-1 262:-1 263:-1 264:-1 265:-1 266:0.195008 267:0.0423124 268:-0.305125 269:14.2802 270:-1 271:-1 272:-1 273:-1 274:-1 275:-1 276:-1 277:-0.423705 278:-1 279:-1 280:-1 281:-1 282:-1 283:-1 284:-1 285:-1 286:-1 287:-1 288:-1 289:-1 290:-1 291:-1 292:-1 293:-1 294:-1 295:-1 296:0.779714 297:-1 298:-1 299:1.84745 300:-1 301:0.779504 302:-1 303:9.48707 304:-1 305:-1 306:1.9954 307:-1 308:-1 309:-1 310:-1 311:-1 312:-1 313:-1 314:-1 315:-1 316:-1 317:-1 318:-1 319:-1 320:-1 321:-1 322:-1 323:-1 324:-1 325:-0.80086 326:0.423723 327:-1 328:-1 329:-1 330:-1 331:-1 332:-1 333:-0.203365 334:-1 335:-1 336:-1 337:-1 338:-1 339:-1 340:-1 341:-1 342:-1 343:-0.890874 344:-1 345:-1 346:-0.924787 347:-1 348:-1 349:-1 350:2.20336 351:-1 352:-1 353:-1 354:-1 355:-1 356:-1 357:-1 358:-1 359:-1 360:-1 361:-1 362:-1 363:-1 364:-1 365:3.44897 366:-1 367:-1 368:-1 369:-1 370:-1 371:-0.885422 372:-1 373:-1 374:-1 375:-1 376:0.194867 377:-1 378:-1 379:-1 380:-1 381:-1 382:-0.542372 383:-1 384:-1 385:-1 386:-1 387:-1 388:-1 389:-1 390:-1 391:-1 392:-1 393:-1 394:-0.652522 395:-1 396:-1 397:3.65531 398:-1 399:-1 400:-1 401:-1 402:-0.40075 403:-1 404:-1 405:-1 406:-1 407:-1 408:1.55318 409:-1 410:-1 411:-1 412:-1 413:-1 414:-1 415:-1 416:-1 417:0.474508 418:-1 419:-1 420:-1 421:0.444842 422:-1 423:-0.711886 424:-1 425:-1 426:-1 427:-1 428:-1 429:-1 430:-1 431:-1 432:-1 433:-1 434:-1 435:-1 436:-1 437:-1 438:-1 439:-1 440:-1 441:-1 442:-1 443:-1 444:-1 445:-1 446:0.203408 447:-1 448:-1 449:-1 450:-1 451:-1 452:-1 453:-0.021252 454:-1 455:-1 456:-1 457:-0.402566 458:-1 459:-1 460:-1 461:-1 462:-1 463:-1 464:-1 465:-0.398367 466:1.62678 467:-1 468:-1 469:-1 470:-1 471:-1 472:-1 473:-1 474:0.0897634 475:-1 476:-1 477:-1 478:-1 479:-1 480:-1 481:-1 482:-1 483:1.99282 484:-1 485:1.08462 486:-1 487:-1 488:-1 489:-1 490:-1 491:-1 492:-1 493:-0.402566 494:-1 495:-0.0368266 496:-1 497:-1 498:-1 499:-1 500:-1 501:-1 502:-1 503:-1 504:-1 505:-1 506:-1 507:-1 508:-1 509:-1 510:-1 511:-1 512:-1 513:-1 514:-1 515:-1 516:-1 517:0.779504 518:-1 519:3.21171 520:-1 521:-1 522:-1 523:-0.217544 524:-1 525:-1 526:-1 527:-1 528:-1 529:-1 530:-1 531:-1 532:-1 533:-1 534:0.847395 535:-1 536:-1 537:-1 538:-1 539:-1 540:-1 541:-1 542:-1 543:-1 544:-1 545:-1 546:-1 547:-1 548:-1 549:-1 550:-1 552:-1 553:-1 554:-1 555:-1 556:-1 557:-1 558:-1 559:-1 560:-1 561:1.09752 562:-1 563:-1 564:-1 565:-1 566:-1 567:-1 568:-1 569:-1 570:-1 571:-1 572:-1 573:-1 574:-0.359389 575:-1 576:-1 577:0.366995 578:-0.423705 579:1.33444 580:-1 581:-1 582:-1 583:-1 584:-1 585:-1 586:-1 587:-1 588:-1 589:-1 590:-1 591:-1 592:-1 593:0.537931 594:-1 595:-1 596:-1 597:-1 598:-1 599:0.152523 600:-1 601:-1 602:-1 603:-1 604:1.34737 605:-1 606:-1 607:-1 608:-1 609:-1 610:-1 611:-1 612:-1 613:-1 614:-1 615:-1 616:-1 617:-1 618:-1 619:-1 620:-1 621:-1 622:-1 623:-1 624:-1 625:-1 626:-1 627:-1 628:-1 629:-1 630:-1 631:-1 632:-1 633:-1 634:-1 635:-1 636:-1 637:-1 638:-1 639:-1 640:-1 641:-1 642:-1 643:-1 644:3.23431 645:-1 646:-1 647:-1 648:-1 649:-1 650:2.26955 651:-1 652:-1 653:-1 654:-1 655:-1 656:-0.413158 657:-1 658:-1 659:-1 660:-1 661:-1 662:-1 663:-1 664:-1 665:-1 666:-0.711886 667:-1 668:-1 669:-1 670:-1 671:-1 672:-1 673:-1 674:-1 675:-1 676:-1 677:-1 678:-1 679:1.96122 680:-1 681:-1 682:-1 683:-1 684:-1 685:-1 686:-1 687:-1 688:-1 689:-1 690:-1 691:-1 692:3.68214 693:-1 694:-1 695:-1 696:-1 697:-1 698:-1 699:-1 700:-1 701:-0.868047 702:-1 703:-1 704:-1 705:-1 706:0.194867 707:-1 708:-1 709:-1 710:-1 711:-1 712:-1 713:-1 714:-1 715:-1 716:-1 717:8.36354 718:-1 719:-1 720:1.93647 721:-0.406832 722:-1 723:-1 724:-1 725:0.0307748 726:-1 727:-1 728:-1 729:-1 730:-1 731:-1 732:-1 733:0.723759 734:-1 735:0.34794 736:2.38976 737:0.243981 738:-1 739:-1 740:-1 741:-1 742:-1 743:-1 744:-1 745:-1 746:-1 747:-1 748:-1 749:-1 750:-1 751:-1 752:-1 753:-1 754:-1 755:-1 756:-1 757:-1 758:-1 759:-1 760:-1 761:0.195008 762:-1 763:-1 764:-1 765:-1 766:-1 767:-1 768:-0.60173 769:-1 770:-1 771:-1 772:-1 773:-1 774:-1 775:-1 776:-1 777:-1 778:-1 779:-1 780:-1 781:-1 782:-1 783:-1 784:-1 785:-1 786:-1 787:-1 788:-1 789:-1 790:-1 791:2.14394 792:-1 793:-1 794:-0.650104 
7.441039434123126 0 5.640852502202308 0:15.1169 1:-1 2:0.167493 3:-1 4:-0.652481 5:-0.222385 6:-1 7:-1 8:-0.472485 9:-1 10:-1 11:-0.222385 12:0.745777 13:-1 14:-0.915706 15:-1 16:-1 17:-1 18:-0.800818 19:-1 20:-1 21:-1 22:-1 23:-0.991526 24:-1 25:-1 26:-0.66096 27:-1 28:-0.792336 29:1.33499 30:0.690405 31:-1 32:-1 33:-1 34:-1 35:-0.478721 36:-1 37:-1 38:-1 39:-1 40:0.876024 41:1.44971 42:-1 43:-1 44:-1 45:-1 46:-0.402547 47:1.66947 48:-0.402425 49:-0.927955 50:-1 51:-1 52:-0.771154 53:-1 54:-1 55:-1 56:-1 57:-1 58:-1 59:-1 60:-1 61:-0.860146 62:-0.0760846 63:-1 64:-1 65:1.87937 66:-0.416253 67:3.01859 68:-0.472485 69:-1 70:-1 71:0.444937 72:2.85841 73:-0.1875 74:1.66947 75:-1 76:-1 77:-1 78:-1 79:2.51841 80:-1 81:-0.130488 82:-1 83:-1 84:2.94967 85:-1 86:-0.855909 87:1.39002 88:-0.103779 89:-1 90:-1 91:-1 92:2.94967 93:-1 94:-1 95:-1 96:-1 97:-1 98:-1 99:-1 100:-1 101:-1 102:-1 103:-1 104:-0.66096 105:-1 106:-1 107:-0.110038 108:-1 109:-1 110:-0.38553 111:-0.126906 112:0.194139 113:-1 114:-0.0762299 115:-1 116:-1 117:-1 118:-1 119:-1 120:-1 121:-1 122:-1 123:-1 124:-1 125:1.63249 126:-0.0368266 127:-1 128:-1 129:0.316558 130:-1 131:-1 132:-1 133:-1 134:-1 135:-1 136:-1 137:-0.021252 138:-1 139:-1 140:-1 141:-1 142:0.194867 143:-1 144:-1 145:-1 146:-0.13616 147:-1 148:-0.021252 149:-1 150:-1 151:-1 152:-1 153:-1 154:-0.0782949 155:1.89003 156:-0.800818 157:-0.28797 158:-0.32208 159:-1 160:-1 161:-1 162:-0.466045 163:0.957496 164:0.872707 165:-0.398367 166:5.75917 167:-0.199017 168:-1 169:-1 170:-0.66096 171:-1 172:-1 173:-1 174:-1 175:-1 176:-1 177:-1 178:-0.66096 179:-0.384202 180:-1 181:-1 182:-0.711886 183:-1 184:-1 185:-1 186:-1 187:-1 188:-1 189:-0.601617 190:-0.652481 191:-0.203982 192:-0.555019 193:0.799533 194:-1 195:-1 196:-1 197:-0.155104 198:0.313391 199:-0.91526 200:-0.83048 201:-1 202:-1 203:-1 204:-1 205:-0.126906 206:-1 207:-0.525367 208:-1 209:-1 210:-1 211:-0.783898 212:-0.82624 213:-0.402566 214:-1 215:-1 216:-1 217:2.94967 218:3.06572 219:-1 220:-1 221:-1 222:-1 223:-1 224:-0.715207 225:-1 226:-0.902525 227:-1 228:-1 229:0.083717 230:-1 231:-1 232:-1 233:-1 234:-0.218081 235:-1 236:-1 237:-1 238:-1 239:-0.885574 240:-1 241:-1 242:-1 243:-1 244:-1 245:-0.733006 246:-1 247:-0.5183 248:-1 249:-1 250:0.792442 251:-1 252:-1 253:-1 254:-1 255:-1 256:-0.711886 257:-1 258:-1 259:-0.885574 260:-1 261:-1 262:0.847395 263:-1 264:-1 265:0.787431 266:-0.701213 267:0.0423124 268:-1 269:-0.412205 270:-0.00935235 271:-1 272:-1 273:0.193914 274:-1 275:-1 276:-1 277:-1 278:-1 279:0.184678 280:-1 281:-1 282:0.173961 283:-0.0368266 284:-1 285:1.34737 286:-1 287:-0.348755 288:0.170718 289:-0.927955 290:-1 291:-1 292:-1 293:-1 294:-0.783898 295:-1 296:-1 297:-1 298:-1 299:-1 300:-0.885574 301:0.779504 302:-0.555019 303:-1 304:-1 305:-1 306:-1 307:-1 308:0.0550299 309:-1 310:-0.28797 311:-1 312:-0.332966 313:-1 314:-1 315:-0.584771 316:1.41207 317:0.0452695 318:1.38761 319:7.94093 320:-1 321:-1 322:-1 323:-1 324:-1 325:-1 326:0.423723 327:-1 328:-1 329:-1 330:-1 331:-1 332:-1 333:-1 334:-0.711886 335:-0.110038 336:0.474508 337:-1 338:-1 339:-1 340:-1 341:-0.67307 342:7.13436 343:-1 344:-1 345:-1 346:-1 347:0.173684 348:-1 349:0.191507 350:-0.199206 351:-1 352:0.787431 353:-0.538042 354:0.229118 355:-1 356:-1 357:-1 358:0.0423124 359:-0.478721 360:-1 361:-1 362:-1 363:-1 364:-1 365:-1 366:-1 367:-1 368:-1 369:-0.66096 370:0.194867 371:-1 372:-1 373:-1 374:-1 375:-0.927955 376:-0.402425 377:-1 378:-0.203982 379:-1 380:-1 381:-1 382:-1 383:-1 384:-1 385:0.847395 386:-1 387:-1 388:0.173961 389:-1 390:-1 391:-0.774514 392:0.779504 393:-1 394:-1 395:4.18093 396:-0.123656 397:1.32738 398:-1 399:-1 400:0.163966 401:-1 402:-0.700304 403:0.866941 404:-0.489151 405:-1 406:1.17785 407:-1 408:-1 409:-0.855943 410:-1 411:-1 412:-1 413:3.3556 414:-0.45499 415:-1 416:-1 417:-1 418:-0.316341 419:-1 420:-1 421:-1 422:-1 423:-0.855909 424:-1 425:-1 426:0.173777 427:-1 428:-1 429:-1 430:-0.0261949 431:-1 432:-1 433:-0.478721 434:-1 435:-0.796573 436:-1 437:-1 438:-1 439:0.498056 440:-1 441:-0.545815 442:-1 443:1.72476 444:-1 445:-1 446:-1 447:-1 448:-1 449:-1 450:-1 451:-1 452:-1 453:-1 454:-1 455:-1 456:0.444937 457:-0.701213 458:-0.578431 459:-0.0763026 460:1.89003 461:-1 462:0.117321 463:-1 464:0.389914 465:-0.699113 466:1.62678 467:-1 468:0.774707 469:-1 470:-1 471:-0.155777 472:-1 473:-1 474:-0.45499 475:0.173961 476:-1 477:-1 478:-1 479:-1 480:-1 481:-0.927955 482:-1 483:-0.501118 484:-1 485:-1 486:10.1427 487:-0.0125815 488:-1 489:-1 490:0.489631 491:-1 492:-1 493:0.493655 494:-1 495:-0.5183 496:-1 497:-1 498:0.223493 499:-1 500:-1 501:-1 502:-1 503:-0.192146 504:-1 505:-1 506:-1 507:1.26752 508:-1 509:-1 510:-1 511:-0.951263 512:-1 513:0.745803 514:-0.478721 515:-1 516:0.75124 517:0.779504 518:-1 519:-0.398367 520:-1 521:-1 522:-1 523:-1 524:-1 525:-1 526:-1 527:-1 528:-1 529:-1 530:-1 531:-1 532:-1 533:-0.0079588 534:-1 535:0.173961 536:-1 537:-0.95762 538:-1 539:-1 540:-0.110038 541:-1 542:-1 543:-1 544:-1 545:-0.402425 546:-1 547:0.777685 548:-1 549:-1 550:-0.0917274 552:-1 553:-1 554:-1 555:-1 556:-0.402425 557:-0.868557 558:-1 559:-1 560:-1 561:-0.300883 562:-1 563:-1 564:-1 565:-1 566:-1 567:-0.126906 568:-1 569:-1 570:-1 571:-1 572:-1 573:-0.771154 574:-1 575:-1 576:-1 577:-0.316341 578:-1 579:1.33444 580:-1 581:-0.32208 582:-1 583:-1 584:-1 585:-1 586:-1 587:-1 588:-1 589:-1 590:-1 591:-1 592:-1 593:-1 594:-1 595:-1 596:0.779504 597:-1 598:-1 599:-1 600:-1 601:-1 602:-1 603:-0.375847 604:1.34737 605:-1 606:-0.692112 607:-1 608:-1 609:-1 610:-0.0760846 611:-1 612:-0.478721 613:-0.525367 614:-1 615:-1 616:-0.262746 617:-1 618:-1 619:-1 620:-0.855943 621:-1 622:-1 623:-1 624:-1 625:-0.300775 626:-1 627:-1 628:-1 629:-1 630:-0.567795 631:-1 632:1.0133 633:-1 634:-1 635:-1 636:-1 637:-0.66096 638:8.91111 639:-1 640:-1 641:-1 642:-0.699113 643:-0.927955 644:-0.750941 645:-1 646:-1 647:-1 648:-0.0760846 649:3.69529 650:-0.45499 651:-1 652:0.847395 653:0.01696 654:-1 655:0.276891 656:-1 657:-1 658:-1 659:-1 660:-1 661:-1 662:0.373299 663:-1 664:-1 665:0.957496 666:-1 667:-0.0368266 668:-1 669:-1 670:-1 671:-0.66096 672:-0.525367 673:-1 674:1.55318 675:-0.430549 676:-1 677:0.373299 678:-1 679:4.18204 680:-1 681:-1 682:-1 683:-0.110248 684:-1 685:-1 686:-1 687:-0.110038 688:-0.855909 689:-1 690:0.444842 691:-1 692:-0.219521 693:-1 694:-0.825396 695:-1 696:-1 697:0.372934 698:-1 699:-1 700:-0.222385 701:-1 702:-0.316341 703:-1 704:0.173684 705:-1 706:-0.402425 707:-1 708:-0.66096 709:-0.269688 710:-0.277408 711:1.23412 712:-0.021021 713:-1 714:-1 715:-0.144127 716:-1 717:-1 718:-1 719:-1 720:-0.510511 721:-0.703346 722:-1 723:-1 724:-1 725:-0.484491 726:-1 727:-0.771154 728:-1 729:-1 730:-1 731:-1 732:-1 733:-1 734:-0.423705 735:-1 736:-0.66096 737:-1 738:-1 739:-0.902525 740:-1 741:-0.487173 742:-1 743:-1 744:-1 745:-1 746:-1 747:0.194867 748:-0.66096 749:-1 750:1.64482 751:-0.398367 752:0.173961 753:-0.155104 754:1.27849 755:-1 756:-1 757:-0.219521 758:-1 759:-1 760:-1 761:-0.701213 762:-1 763:-1 764:-1 765:-1 766:2.61034 767:-1 768:-0.800818 769:-1 770:6.04266 771:-1 772:-1 773:-0.853813 774:-1 775:-1 776:-1 777:-1 778:-1 779:-1 780:-0.213875 781:-0.855909 782:-1 783:-1 784:-1 785:-1 786:-1 787:-1 788:-1 789:2.55943 790:-1 791:-0.606937 792:-1 793:-1 794:-1 
3.252820948909168 0 3.801922140876706 0:-1 1:-1 2:-1 3:1.04357 4:1.37688 5:-1 6:-1 7:-1 8:-1 9:-1 10:-1 11:-1 12:-1 13:-1 14:-1 15:-1 16:0.362316 17:-1 18:-1 19:-1 20:-1 21:-1 22:-1 23:-1 24:-1 25:-1 26:-1 27:-1 28:0.420325 29:-1 30:4.78217 31:-1 32:-1 33:-1 34:-1 35:-1 36:-1 37:-1 38:-1 39:-1 40:-1 41:-1 42:-1 43:-1 44:-1 45:-1 46:-1 47:-1 48:-1 49:-1 50:-1 51:-1 52:-1 53:-1 54:-1 55:-1 56:1.04357 57:-1 58:-1 59:-1 60:-1 61:-1 62:-1 63:-1 64:-1 65:-1 66:-1 67:-1 68:-1 69:-1 70:-1 71:-1 72:-1 73:-1 74:5.08694 75:-1 76:-1 77:-1 78:-1 79:-1 80:-1 81:-1 82:-1 83:-1 84:-1 85:-1 86:-1 87:-1 88:1.04357 89:-1 90:-1 91:5.69577 92:-1 93:-1 94:9.95465 95:-1 96:-1 97:-1 98:10.5574 99:-1 100:-1 101:-1 102:-1 103:-1 104:-1 105:-1 106:-1 107:-1 108:-1 109:4.32342 110:-1 111:-1 112:15.3347 113:-1 114:-1 115:-1 116:-1 117:-1 118:-1 119:2.15958 120:-1 121:-1 122:-1 123:0.681225 124:-1 125:-1 126:2.29461 127:-1 128:-1 129:-1 130:-1 131:-1 132:-1 133:-1 134:-1 135:-1 136:-1 137:-1 138:-1 139:-1 140:-1 141:-1 142:-1 143:-1 144:1.05793 145:-1 146:-1 147:-1 148:-1 149:-1 150:-1 151:-1 152:-1 153:-1 154:-1 155:-1 156:-1 157:3.86996 158:-1 159:-1 160:-1 161:-1 162:-1 163:-1 164:-1 165:-1 166:-1 167:-1 168:-1 169:-1 170:-1 171:-1 172:-1 173:-1 174:-1 175:-1 176:-1 177:-1 178:-1 179:-1 180:5.21217 181:-1 182:-1 183:-1 184:-1 185:3.01468 186:-1 187:-1 188:-1 189:-1 190:-1 191:-1 192:-1 193:-1 194:-1 195:-1 196:-1 197:-1 198:-1 199:-1 200:-1 201:-1 202:-1 203:-1 204:-1 205:-1 206:-1 207:-1 208:-1 209:-1 210:-1 211:-1 212:0.188438 213:-1 214:-1 215:-1 216:-1 217:-1 218:-1 219:-1 220:-1 221:-1 222:-1 223:-1 224:-1 225:-1 226:-1 227:-1 228:-1 229:-1 230:-1 231:-1 232:-1 233:1.51287 234:-1 235:-1 236:-1 237:-1 238:0.188438 239:-0.217377 240:-1 241:-1 242:-1 243:-1 244:-1 245:-1 246:-1 247:-1 248:-1 249:-1 250:-1 251:-1 252:-1 253:-1 254:-1 255:-1 256:-1 257:-1 258:-1 259:-0.217377 260:-1 261:-1 262:-1 263:-1 264:-1 265:-1 266:-1 267:-1 268:-1 269:-1 270:-1 271:-1 272:-1 273:3.0834 274:-1 275:-1 276:-1 277:-1 278:-1 279:-1 280:-1 281:-1 282:-1 283:-1 284:-1 285:-1 286:-1 287:-1 288:-1 289:-1 290:-1 291:-1 292:-1 293:-1 294:-1 295:-1 296:-1 297:-1 298:-1 299:-1 300:-1 301:-1 302:-1 303:2.58693 304:-1 305:-1 306:-1 307:-1 308:-1 309:-1 310:-1 311:-1 312:-1 313:-1 314:-1 315:-1 316:-1 317:-1 318:-1 319:-1 320:-1 321:-1 322:-1 323:-1 324:-1 325:-1 326:-1 327:-1 328:-1 329:-1 330:-1 331:-1 332:-1 333:-1 334:-0.0144839 335:-1 336:-1 337:-1 338:-1 339:-1 340:-1 341:-1 342:-1 343:-1 344:-1 345:-1 346:-0.91425 347:-1 348:-1 349:-1 350:-1 351:-1 352:-1 353:2.15958 354:7.40661 355:-1 356:-1 357:-1 358:-1 359:-1 360:-1 361:-1 362:-1 363:-1 364:-1 365:-1 366:-1 367:-1 368:-1 369:-1 370:-1 371:-1 372:-1 373:-1 374:-1 375:-1 376:-1 377:-1 378:4.4444 379:-1 380:-1 381:-1 382:-0.478256 383:-1 384:-1 385:-1 386:-1 387:-1 388:-1 389:-1 390:-1 391:-1 392:-1 393:-1 394:-1 395:-1 396:-1 397:-1 398:-1 399:-1 400:-1 401:-1 402:1.04978 403:-1 404:9.48168 405:-1 406:-1 407:-1 408:-1 409:-1 410:-1 411:-1 412:-1 413:-1 414:-1 415:-1 416:-1 417:-1 418:-1 419:-1 420:-1 421:-1 422:-1 423:-1 424:-1 425:-1 426:9.70563 427:-1 428:-1 429:-1 430:-1 431:-1 432:-1 433:-1 434:-1 435:0.39135 436:-1 437:-1 438:-1 439:-1 440:-1 441:-1 442:-1 443:-1 444:-1 445:-1 446:-1 447:-1 448:-1 449:-1 450:-1 451:-1 452:-1 453:-1 454:-1 455:-1 456:-1 457:-1 458:-1 459:-1 460:-1 461:-1 462:-1 463:-1 464:1.37688 465:-1 466:-1 467:-1 468:-1 469:-1 470:-1 471:-1 472:-1 473:-1 474:-1 475:-1 476:-1 477:-1 478:-1 479:-1 480:-1 481:-1 482:-1 483:2.41212 484:7.39444 485:6.13063 486:-1 487:-1 488:-1 489:-1 490:-1 491:0.0884308 492:-1 493:-1 494:0.565203 495:2.29461 496:-1 497:-1 498:-1 499:-1 500:-1 501:-1 502:-1 503:-1 504:5.66039 505:-1 506:-1 507:-1 508:1.31888 509:-1 510:-1 511:-1 512:-1 513:-1 514:-1 515:-1 516:-1 517:-1 518:-1 519:-1 520:-1 521:-1 522:3.70247 523:-1 524:-1 525:-1 526:-1 527:-1 528:-1 529:-1 530:-1 531:-1 532:-1 533:-1 534:-1 535:-1 536:-1 537:-1 538:-1 539:-1 540:-1 541:-1 542:-1 543:-0.739126 544:-1 545:-1 546:-1 547:-1 548:-1 549:-1 550:5.21217 552:-1 553:-1 554:-1 555:-1 556:-1 557:-1 558:-1 559:-1 560:-1 561:-1 562:-1 563:-1 564:-1 565:-1 566:-1 567:-1 568:-1 569:-1 570:-1 571:-1 572:-1 573:-1 574:-1 575:-1 576:-1 577:-1 578:-1 579:-1 580:-1 581:-1 582:-1 583:-1 584:-1 585:-1 586:-1 587:-1 588:-1 589:-1 590:-1 591:-1 592:-1 593:-1 594:-1 595:-1 596:-1 597:-1 598:-1 599:-1 600:-1 601:-1 602:-1 603:-1 604:-1 605:-1 606:-1 607:-1 608:-1 609:-1 610:-1 611:-1 612:-1 613:-1 614:-1 615:-1 616:-1 617:-1 618:-1 619:-1 620:-1 621:-1 622:-1 623:-1 624:-1 625:-1 626:-1 627:-1 628:-1 629:-1 630:-1 631:-1 632:-1 633:-0.043461 634:-1 635:-1 636:-1 637:-1 638:-1 639:-1 640:-1 641:0.14737 642:1.05793 643:-1 644:-1 645:-1 646:-1 647:-1 648:-1 649:-1 650:-1 651:-1 652:-1 653:-1 654:-1 655:-1 656:-1 657:-1 658:-1 659:-1 660:-1 661:-1 662:-1 663:-1 664:-1 665:-1 666:-1 667:2.29461 668:-1 669:-1 670:-1 671:-1 672:-1 673:-1 674:-1 675:-1 676:-1 677:-1 678:-1 679:-1 680:-1 681:-1 682:-1 683:-1 684:-1 685:-1 686:-1 687:-1 688:-1 689:-1 690:-1 691:-1 692:-1 693:-1 694:-1 695:-1 696:-1 697:-1 698:-1 699:-1 700:-1 701:-1 702:-1 703:-1 704:-1 705:-1 706:-1 707:-1 708:-1 709:-1 710:-1 711:-1 712:-1 713:-1 714:-1 715:-1 716:-1 717:-1 718:-1 719:-1 720:-1 721:-1 722:-1 723:-1 724:-1 725:-1 726:-1 727:-1 728:-1 729:-1 730:-1 731:-1 732:-1 733:4.89626 734:-1 735:-1 736:-1 737:-1 738:-1 739:-1 740:-1 741:-1 742:-1 743:-1 744:-1 745:-1 746:-1 747:-1 748:-1 749:-1 750:-1 751:1.05793 752:-1 753:4.77871 754:-1 755:-1 756:-1 757:-1 758:-1 759:-1 760:-1 761:-1 762:-1 763:-1 764:-1 765:-1 766:3.11616 767:-1 768:-1 769:-1 770:-1 771:-1 772:-1 773:-0.666663 774:-1 775:-1 776:-1 777:-1 778:-1 779:-1 780:-1 781:-1 782:-1 783:-1 784:-0.9221 785:-1 786:-1 787:-1 788:-1 789:-1 790:-1 791:-1 792:20.2819 793:-1 794:-1 
28.95666973059739 0 11.70794566198246 0:1.9426 1:-1 2:-1 3:-1 4:-1 5:-0.219083 6:-1 7:-1 8:-1 9:-0.807316 10:-1 11:-1 12:-1 13:-1 14:-1 15:-1 16:-1 17:-1 18:-1 19:0.753193 20:-1 21:-1 22:0.982914 23:-0.99149 24:-1 25:-1 26:-0.65952 27:-1 28:-0.791454 29:-1 30:2.39557 31:-1 32:0.178947 33:-1 34:-1 35:-0.476507 36:-1 37:-1 38:-1 39:1.35734 40:-1 41:1.46012 42:-1 43:-1 44:-1 45:-1 46:-1 47:-1 48:0.199944 49:-1 50:-1 51:-1 52:-1 53:-1 54:-1 55:-1 56:-1 57:-1 58:-1 59:-0.65952 60:-1 61:-1 62:-0.0721605 63:-1 64:-1 65:0.446143 66:-1 67:1.42147 68:-1 69:-1 70:-1 71:-1 72:0.937173 73:0.631518 74:1.68081 75:-1 76:-1 77:-1 78:-1 79:-1 80:-1 81:0.745999 82:-1 83:-1 84:-1 85:-1 86:-1 87:-1 88:1.70008 89:-1 90:-0.0721605 91:-0.016863 92:-1 93:-1 94:-1 95:-1 96:-1 97:-1 98:4.09011 99:-1 100:-1 101:0.0497101 102:-1 103:-0.866646 104:-0.65952 105:-1 106:-1 107:-1 108:2.53335 109:1.34454 110:-1 111:-1 112:1.39786 113:-1 114:-0.69072 115:-1 116:-1 117:-0.896324 118:-0.816993 119:-0.53608 120:-1 121:-1 122:-1 123:-0.753147 124:0.20852 125:0.32215 126:-0.0327347 127:-1 128:-1 129:-1 130:-1 131:-0.016863 132:-1 133:-1 134:-1 135:0.567587 136:-1 137:-1 138:-1 139:-1 140:-1 141:-1 142:-0.399887 143:0.608466 144:-1 145:-1 146:-1 147:-1 148:-1 149:-0.476507 150:-1 151:-1 152:-0.697835 153:0.430108 154:-1 155:0.45098 156:-1 157:-0.284946 158:-0.3192 159:-1 160:-0.855297 161:-0.88 162:-1 163:0.965812 164:-0.0594475 165:-0.395811 166:-1 167:-1 168:-1 169:-1 170:-0.3192 171:-1 172:-1 173:5.35757 174:-1 175:-0.908497 176:-1 177:-1 178:-1 179:-1 180:-1 181:-1 182:-1 183:-1 184:-1 185:-1 186:3.40072 187:-1 188:-1 189:-1 190:-0.651005 191:-0.200601 192:-0.553129 193:1.71098 194:-1 195:-1 196:-1 197:-1 198:-1 199:-0.95744 200:-1 201:-1 202:-1 203:-0.952128 204:-1 205:-0.123197 206:-1 207:-0.523351 208:-1 209:-0.106258 210:-1 211:-1 212:-1 213:-0.699944 214:-1 215:-1 216:-1 217:-1 218:1.04126 219:-1 220:-1 221:-0.219083 222:-1 223:-1 224:-1 225:-0.26898 226:-1 227:-1 228:-1 229:-1 230:2.57455 231:0.994375 232:-1 233:-1 234:0.570111 235:-1 236:-0.016863 237:-1 238:-1 239:-1 240:0.368489 241:-1 242:-1 243:-1 244:0.955423 245:-0.731872 246:-1 247:-1 248:-1 249:-0.199981 250:-0.399887 251:-1 252:-1 253:-1 254:-1 255:-1 256:-1 257:-1 258:-1 259:-0.885088 260:-1 261:-1 262:-1 263:-1 264:1.42105 265:0.795023 266:-0.699944 267:-1 268:0.0468225 269:-1 270:-1 271:-0.855297 272:-0.410526 273:1.99739 274:1.39786 275:-1 276:-0.553129 277:-0.855297 278:-1 279:-0.405005 280:-1 281:-1 282:1.35734 283:-1 284:-1 285:1.35734 286:-0.289245 287:-0.0189056 288:-1 289:-0.855331 290:2.71828 291:-1 292:-1 293:0.480773 294:-1 295:0.735018 296:-1 297:-0.476507 298:-0.881843 299:-1 300:-1 301:-1 302:-1 303:-1 304:-1 305:-0.956376 306:0.504419 307:-1 308:-1 309:-1 310:-1 311:-1 312:-1 313:-1 314:-1 315:-1 316:-1 317:0.574689 318:-1 319:-1 320:-1 321:-1 322:-1 323:-0.0083877 324:-0.106468 325:-1 326:-1 327:-1 328:-1 329:-1 330:-1 331:-0.512709 332:1.3547 333:-1 334:-1 335:-0.106258 336:-0.25944 337:-1 338:-1 339:-1 340:-1 341:-0.343516 342:-1 343:-1 344:-1 345:-1 346:-1 347:-1 348:-0.859552 349:-1 350:-0.195804 351:-1 352:-1 353:-1 354:1.4681 355:-1 356:-0.284946 357:-1 358:-1 359:-1 360:-1 361:-1 362:-0.753147 363:-1 364:-1 365:-0.106468 366:-1 367:-0.119934 368:-1 369:-1 370:0.800056 371:-1 372:-1 373:-1 374:-1 375:-1 376:-0.399887 377:-1 378:-0.200601 379:-1 380:-1 381:-0.902111 382:-0.770214 383:1.79816 384:-1 385:0.855243 386:-0.362493 387:-1 388:-1 389:0.0469865 390:-1 391:-1 392:1.68081 393:-0.951056 394:-1 395:4.20293 396:-1 397:-1 398:-0.697835 399:0.45098 400:-1 401:-1 402:-1 403:0.249816 404:1.56461 405:-1 406:2.2809 407:-1 408:-1 409:-1 410:-1 411:-1 412:-1 413:-1 414:-1 415:-1 416:-1 417:-1 418:1.05936 419:-1 420:-1 421:-1 422:-1 423:-0.276622 424:-1 425:-1 426:0.178763 427:-1 428:-0.274339 429:0.16891 430:-0.0220588 431:-0.210536 432:-1 433:0.570234 434:-1 435:-1 436:-1 437:-1 438:-1 439:0.504419 440:-1 441:-1 442:-1 443:-1 444:-0.738253 445:-1 446:-0.697835 447:-1 448:-1 449:-1 450:-1 451:-1 452:-1 453:-0.508432 454:-0.53608 455:-1 456:-1 457:0.200085 458:-0.939512 459:-1 460:-0.274339 461:4.595 462:0.122067 463:-1 464:0.395818 465:-1 466:4.2765 467:-1 468:-1 469:-1 470:-1 471:-1 472:-0.82979 473:-1 474:0.641718 475:-1 476:-1 477:-1 478:0.178947 479:-0.855297 480:-1 481:-0.855331 482:-0.738253 483:-0.498999 484:-1 485:1.09348 486:8.59128 487:-1 488:-1 489:-1 490:0.495958 491:-0.840186 492:0.197299 493:-0.699944 494:-1 495:-0.516254 496:-1 497:-1 498:-0.754216 499:-0.540472 500:-1 501:-1 502:-1 503:0.622188 504:-1 505:-1 506:-1 507:1.27715 508:-1 509:-1 510:-1 511:-1 512:-1 513:-0.561644 514:-0.476507 515:-1 516:0.758678 517:0.787064 518:-0.553129 519:-0.0936457 520:-0.405005 521:-1 522:-1 523:-1 524:-1 525:-1 526:-1 527:0.199944 528:-1 529:-1 530:-1 531:-1 532:-0.0721605 533:-0.00374532 534:-1 535:-1 536:-1 537:-1 538:-1 539:-1 540:-1 541:-0.912751 542:-1 543:-1 544:-1 545:0.800056 546:0.631518 547:-1 548:-1 549:-1 550:0.823832 552:-1 553:-1 554:-1 555:1.73596 556:0.800056 557:-1 558:-1 559:-1 560:-1 561:0.0532134 562:-0.74651 563:-1 564:-1 565:-1 566:-1 567:-1 568:-0.195615 569:-1 570:-0.399887 571:-1 572:-1 573:-1 574:-1 575:-1 576:-1 577:-1 578:-1 579:0.172452 580:-1 581:-1 582:-1 583:-1 584:-1 585:-1 586:-1 587:-1 588:-1 589:-1 590:-0.65952 591:-1 592:-1 593:-0.227586 594:-0.399887 595:-1 596:-0.106258 597:-1 598:-1 599:-1 600:-0.855297 601:-0.106258 602:-1 603:-1 604:-1 605:-1 606:-0.690804 607:-0.82976 608:-1 609:-1 610:-1 611:-1 612:-1 613:-0.523351 614:-1 615:-1 616:-1 617:-1 618:-0.476507 619:-1 620:-1 621:-0.99149 622:-1 623:-1 624:-1 625:-1 626:-1 627:-1 628:-1 629:-1 630:-1 631:-1 632:-1 633:-1 634:-1 635:-1 636:-1 637:-1 638:-1 639:-1 640:-1 641:-0.747338 642:-1 643:-1 644:-0.749882 645:-0.697835 646:-1 647:-1 648:-0.0721605 649:-1 650:-1 651:-1 652:1.78308 653:-0.3192 654:-1 655:0.282314 656:-1 657:-1 658:-1 659:-1 660:-1 661:-1 662:0.379132 663:1.3449 664:-1 665:-0.016863 666:-1 667:-1 668:-1 669:-1 670:-0.689053 671:-1 672:-1 673:-1 674:0.282314 675:-1 676:-1 677:0.379132 678:-1 679:2.71698 680:-1 681:0.172452 682:-0.3192 683:-0.553129 684:-1 685:0.570234 686:-1 687:-1 688:-1 689:-1 690:-1 691:-1 692:-1 693:-1 694:-1 695:-1 696:-1 697:-1 698:-1 699:-1 700:-0.219083 701:-1 702:-1 703:-1 704:-0.410526 705:-1 706:0.199944 707:-1 708:-1 709:-0.266586 710:-1 711:0.122067 712:-0.016863 713:0.982759 714:-1 715:-1 716:-1 717:-1 718:-1 719:-0.697835 720:-0.017094 721:-1 722:-1 723:-1 724:-1 725:0.0351539 726:-1 727:-0.770182 728:-1 729:-1 730:-1 731:-1 732:-1 733:-1 734:-0.710662 735:-1 736:-1 737:-1 738:-0.65952 739:-1 740:-1 741:-1 742:-0.553129 743:-1 744:-1 745:-1 746:-0.410526 747:-0.399887 748:-0.65952 749:-1 750:-1 751:-0.395811 752:-1 753:-1 754:-1 755:-1 756:1.68081 757:0.567219 758:-1 759:0.243717 760:0.210811 761:-0.400028 762:-1 763:-0.811141 764:-0.848912 765:-0.859585 766:2.0213 767:-1 768:-0.600038 769:-0.274339 770:3.71524 771:-1 772:-1 773:-0.951056 774:-1 775:-1 776:-1 777:-1 778:-1 779:-0.816993 780:-1 781:-1 782:0.189711 783:-1 784:-0.988562 785:-1 786:-1 787:-1 788:0.787064 789:-0.106258 790:-1 791:-1 792:-1 793:-0.855297 794:-1 
18.53836223656392 0 14.0946938726568 0:2.99723 1:-1 2:-1 3:-1 4:-1 5:-1 6:-1 7:-1 8:-0.280378 9:-1 10:-1 11:-1 12:-1 13:-0.289053 14:-1 15:-1 16:-1 17:-1 18:-1 19:-1 20:-1 21:-1 22:-1 23:-1 24:-1 25:-1 26:-1 27:0.875406 28:-1 29:-1 30:-1 31:-0.0144928 32:-1 33:-1 34:-1 35:-1 36:-1 37:-1 38:-1 39:-1 40:-1 41:-1 42:-1 43:-1 44:-1 45:-1 46:-0.728345 47:0.213776 48:-1 49:-0.901741 50:-1 51:-1 52:-1 53:-1 54:-1 55:-1 56:-1 57:-0.858389 58:-1 59:-0.5376 60:0.967325 61:-0.80926 62:0.260083 63:-1 64:-1 65:-1 66:-1 67:-1 68:-1 69:-1 70:-1 71:-1 72:0.31573 73:-1 74:-1 75:-1 76:-1 77:-1 78:-1 79:-1 80:-1 81:-1 82:-1 83:-1 84:-1 85:-1 86:-0.606963 87:-0.184997 88:-0.592499 89:-1 90:0.260083 91:0.335181 92:9.77353 93:-1 94:-1 95:-1 96:2.71704 97:-0.834306 98:-1 99:-0.522748 100:-1 101:-1 102:-1 103:-1 104:-0.5376 105:-1 106:-0.840089 107:-1 108:-1 109:-1 110:-1 111:-1 112:-1 113:-1 114:-1 115:-1 116:-1 117:-1 118:-0.751462 119:-1 120:-1 121:-1 122:-1 123:-1 124:9.25971 125:0.795589 126:-0.343033 127:-0.728345 128:-1 129:-1 130:-1 131:0.335181 132:-1 133:-1 134:-1 135:-1 136:-0.64086 137:1.003 138:-1 139:-1 140:-0.975146 141:-1 142:-0.184997 143:-1 144:-1 145:-1 146:2.53486 147:-1 148:-1 149:-1 150:-1 151:-1 152:-1 153:-1 154:-1 155:3.92788 156:-0.728345 157:-1 158:-1 159:-1 160:-1 161:-1 162:-1 163:-1 164:-1 165:-1 166:-1 167:-1 168:0.601108 169:-1 170:-0.0752 171:-0.803482 172:-1 173:-1 174:-1 175:-1 176:-1 177:-1 178:-1 179:-1 180:0.238748 181:-1 182:-1 183:-0.857811 184:-1 185:-0.199446 186:-1 187:-1 188:0.592287 189:-0.456665 190:-1 191:-1 192:-0.393112 193:-1 194:-1 195:0.644381 196:-1 197:0.152313 198:-1 199:-1 200:-1 201:-1 202:-1 203:-1 204:-1 205:-1 206:-1 207:-1 208:-1 209:0.213776 210:0.421894 211:-1 212:-1 213:-0.184997 214:-1 215:-0.690487 216:-1 217:-1 218:-1 219:-0.728345 220:-0.826343 221:-1 222:-1 223:-1 224:-0.611585 225:-1 226:-0.867059 227:-1 228:-1 229:-1 230:0.213776 231:4.4188 232:-1 233:-1 234:0.0664207 235:-1 236:-1 237:-1 238:-1 239:-1 240:0.858521 241:-1 242:-1 243:-1 244:-1 245:-1 246:-1 247:-1 248:-1 249:-1 250:-1 251:-1 252:-1 253:-1 254:-1 255:-0.184997 256:-1 257:-1 258:-1 259:-1 260:-1 261:-1 262:-1 263:-1 264:-1 265:-1 266:-1 267:-1 268:-1 269:1.40527 270:-0.324293 271:-1 272:-1 273:-0.185743 274:-1 275:-1 276:-1 277:-0.803482 278:-1 279:-1 280:2.20222 281:-1 282:-1 283:-0.343033 284:-1 285:-1 286:-1 287:-0.555795 288:-1 289:-1 290:-1 291:-1 292:-1 293:1.01148 294:-1 295:1.3563 296:-1 297:-0.289053 298:-1 299:-1 300:-1 301:-1 302:-1 303:-1 304:-1 305:-0.940755 306:3.08625 307:-1 308:-1 309:-1 310:-1 311:-1 312:-0.545025 313:-1 314:8.36791 315:-1 316:-1 317:-1 318:-1 319:-1 320:-1 321:-1 322:-1 323:0.346692 324:-1 325:-1 326:-1 327:-1 328:-1 329:-1 330:-1 331:-1 332:-1 333:-1 334:-1 335:2.64175 336:-1 337:-1 338:-1 339:-1 340:-1 341:-1 342:-1 343:-0.925575 344:-1 345:-1 346:-1 347:-1 348:-1 349:-0.187289 350:-1 351:0.970678 352:-1 353:-1 354:2.35267 355:-1 356:-1 357:-1 358:-1 359:-0.289053 360:-1 361:-1 362:-1 363:-1 364:-1 365:0.820874 366:-1 367:0.195203 368:-1 369:-1 370:3.0753 371:-1 372:-1 373:-1 374:-1 375:-1 376:-1 377:-1 378:0.0856499 379:-1 380:0.791692 381:-0.867059 382:-1 383:-1 384:-1 385:-1 386:-1 387:-1 388:0.601108 389:-1 390:-1 391:-1 392:-1 393:-1 394:-1 395:-1 396:0.195203 397:-1 398:-1 399:-1 400:-1 401:-1 402:-1 403:-1 404:0.393443 405:-1 406:-1 407:-1 408:0.741488 409:-0.901741 410:-1 411:-1 412:-0.832381 413:-1 414:-1 415:-0.803482 416:0.257068 417:-1 418:-1 419:-1 420:-1 421:-0.0144928 422:-1 423:-1 424:0.19077 425:14.7065 426:-0.466297 427:-1 428:-1 429:-1 430:-1 431:-1 432:-1 433:-1 434:-1 435:-1 436:-1 437:-1 438:-1 439:-1 440:0.421894 441:-1 442:-0.939136 443:-1 444:-1 445:-1 446:-1 447:-1 448:-1 449:-1 450:-1 451:-1 452:-0.5376 453:-0.332409 454:-1 455:-1 456:-1 457:-0.592499 458:-0.67138 459:-1 460:-1 461:-1 462:-1 463:-1 464:1.36999 465:-1 466:0.791692 467:-1 468:-1 469:-1 470:-1 471:-1 472:-1 473:-1 474:-0.256687 475:-1 476:-1 477:-1 478:-1 479:-1 480:-1 481:-0.901741 482:-1 483:-1 484:-1 485:-1 486:-1 487:-1 488:-1 489:-1 490:9.15888 491:-1 492:-1 493:-0.184997 494:-1 495:-1 496:-1 497:-0.0443122 498:0.0015015 499:-1 500:-1 501:-1 502:-1 503:-1 504:-1 505:-1 506:-1 507:5.18513 508:-0.5376 509:-1 510:-1 511:-1 512:-1 513:-1 514:-0.289053 515:-1 516:-1 517:-1 518:-1 519:1.8727 520:-1 521:-1 522:-1 523:-1 524:-1 525:2.37814 526:-1 527:-1 528:-1 529:-1 530:-1 531:-1 532:0.260083 533:-1 534:-1 535:2.20222 536:-1 537:-0.9422 538:-1 539:-0.289053 540:-1 541:-0.763018 542:-1 543:-1 544:0.337653 545:-1 546:1.21626 547:-1 548:-1 549:-0.526035 550:-1 552:-0.0144928 553:-1 554:-1 555:-1 556:-0.184997 557:-1 558:-1 559:-1 560:-1 561:-1 562:-1 563:-1 564:-1 565:-1 566:-1 567:-1 568:2.27764 569:-1 570:-0.184997 571:-0.95087 572:-1 573:-1 574:-1 575:-1 576:-1 577:0.864817 578:-1 579:-1 580:-1 581:-0.0752 582:-1 583:-0.803482 584:0.260083 585:-1 586:-1 587:-1 588:-1 589:-1 590:-1 591:-0.179269 592:-1 593:0.0490018 594:-1 595:-1 596:-1 597:-0.757245 598:-1 599:-0.410377 600:-1 601:-1 602:-1 603:-1 604:-1 605:-0.763018 606:-1 607:-1 608:-1 609:-1 610:-1 611:-0.184997 612:-1 613:-1 614:-1 615:0.41424 616:-1 617:-1 618:-1 619:-1 620:-1 621:-1 622:-1 623:-1 624:0.00574213 625:-1 626:-1 627:-0.228613 628:-1 629:-1 630:-1 631:-1 632:-1 633:-0.80926 634:-1 635:-1 636:0.346692 637:-1 638:-1 639:-0.84394 640:-1 641:-1 642:0.641605 643:-1 644:2.39778 645:-1 646:-1 647:-0.936208 648:0.260083 649:0.601108 650:-1 651:-1 652:-1 653:-1 654:-1 655:-1 656:-1 657:-1 658:5.38674 659:-0.9133 660:-1 661:-1 662:-1 663:-1 664:-1 665:3.00601 666:-1 667:0.313935 668:-1 669:-1 670:-1 671:-1 672:-1 673:0.767044 674:-1 675:-0.611585 676:-1 677:-1 678:-1 679:2.0297 680:-1 681:-1 682:-1 683:-1 684:-0.332409 685:0.421894 686:-0.862197 687:0.213776 688:-1 689:-1 690:-1 691:1.42776 692:-1 693:-1 694:-1 695:-1 696:-1 697:0.872988 698:-1 699:-1 700:-1 701:-1 702:-1 703:-1 704:-1 705:0.795589 706:1.44529 707:-1 708:-0.5376 709:-1 710:-0.0144928 711:-1 712:-1 713:-1 714:0.212248 715:-0.416221 716:-0.88064 717:-1 718:-1 719:-1 720:-0.332409 721:-0.595408 722:-1 723:-1 724:-1 725:-1 726:-1 727:-1 728:-0.5376 729:-1 730:-1 731:-1 732:-1 733:0.175753 734:-0.803482 735:-0.540321 736:-1 737:-1 738:-1 739:-1 740:-1 741:-1 742:-0.393112 743:-1 744:-1 745:-1 746:-1 747:-1 748:-1 749:-1 750:-1 751:3.10394 752:-1 753:0.152313 754:-1 755:-1 756:-1 757:-1 758:-1 759:-1 760:-1 761:-1 762:-1 763:-1 764:-0.79481 765:-1 766:3.92502 767:-0.605811 768:-1 769:-1 770:-1 771:-1 772:0.211994 773:-0.46822 774:-1 775:-1 776:-1 777:-0.230462 778:-1 779:-1 780:-1 781:-1 782:-1 783:-1 784:-1 785:-1 786:-1 787:-1 788:-1 789:-1 790:-1 791:-1 792:7.48752 793:-0.606963 794:-1 
14.35720337317903 0 0 0:-1 1:-1 2:-1 3:-0.884095 4:-0.730545 5:-1 6:1.18335 7:0.120355 8:-0.693103 9:-0.92557 10:-1 11:0.507523 12:-0.66131 13:-1 14:-1 15:-1 16:-0.845561 17:-1 18:-0.845561 19:-1 20:-1 21:-0.447917 22:-0.744641 23:-0.998356 24:-0.96714 25:-0.0469838 26:-0.86848 27:-1 28:-0.758428 29:-1 30:-0.344504 31:0.120887 32:-0.544598 33:-1 34:-1 35:-0.393604 36:-0.945748 37:-1 38:-1 39:-1 40:-0.636042 41:-1 42:-1 43:-0.797786 44:-1 45:-1 46:-0.922733 47:-0.654767 48:-0.304851 49:-1 50:-0.970819 51:-1 52:-0.911226 53:-1 54:-1 55:-1 56:-0.420756 57:-1 58:-1 59:-1 60:0.118448 61:-1 62:0.791149 63:-0.701633 64:-0.910182 65:0.116548 66:-0.773554 67:-0.064871 68:-1 69:-1 70:-1 71:-0.439482 72:-0.251992 73:-0.370015 74:1.41579 75:0.365651 76:-0.536661 77:-0.41033 78:-1 79:1.27401 80:0.518596 81:-0.32581 82:-1 83:-1 84:-1 85:-1 86:-0.888277 87:-1 88:4.44557 89:-1 90:0.0747765 91:0.518596 92:-1 93:-1 94:-1 95:-1 96:0.0572347 97:-0.929336 98:-1 99:-1 100:-0.654977 101:1.22992 102:-1 103:-1 104:-0.86848 105:-1 106:-1 107:-0.654767 108:0.364517 109:-0.0945822 110:-1 111:0.354347 112:7.79797 113:-1 114:-0.761209 115:-1 116:-1 117:-1 118:-1 119:-0.462612 120:-1 121:-0.647664 122:-1 123:-1 124:-0.649982 125:0.531532 126:-1 127:-1 128:-1 129:-1 130:-0.69121 131:-0.240933 132:-1 133:-1 134:-1 135:-1 136:-1 137:-0.430584 138:-1 139:-1 140:-0.992931 141:-0.98356 142:2.24422 143:0.241875 144:-1 145:-1 146:-1 147:-1 148:0.328713 149:-0.797786 150:-1 151:-1 152:-0.88328 153:-1 154:-0.285341 155:0.681159 156:-1 157:-0.171707 158:-0.6056 159:-0.827383 160:-1 161:-1 162:-0.58599 163:1.65743 164:-0.636685 165:-0.0665247 166:-1 167:-0.378945 168:-1 169:-0.73712 170:-0.34272 171:-1 172:-1 173:3.09163 174:-1 175:-1 176:-1 177:-1 178:-1 179:-0.880532 180:-0.295757 181:-0.428223 182:-1 183:-1 184:-1 185:-0.772299 186:-0.150465 187:-1 188:-0.547107 189:-1 190:-0.865191 191:-1 192:-0.827383 193:-0.302187 194:0.0156572 195:-1 196:-1 197:0.310606 198:-0.490701 199:-1 200:-0.86856 201:-1 202:-1 203:-0.987678 204:-1 205:-1 206:-1 207:-1 208:-1 209:0.725325 210:-0.797786 211:-1 212:-0.932595 213:-0.420756 214:-1 215:-1 216:0.0747765 217:0.532153 218:0.182538 219:-1 220:-1 221:-1 222:-0.0682291 223:-0.698349 224:-0.889524 225:-1 226:-0.962188 227:-1 228:-1 229:-0.859847 230:2.10584 231:2.46614 232:-1 233:-0.715128 234:-1 235:-1 236:-0.620236 237:-0.309954 238:-1 239:-0.955612 240:-1 241:-1 242:-0.324424 243:-0.393604 244:1.64338 245:-0.585838 246:-1 247:-0.813139 248:-0.0894737 249:-0.922733 250:-0.76819 251:1.73575 252:-1 253:-0.536661 254:-1 255:-0.536661 256:-0.944104 257:-0.9507 258:-0.695047 259:-0.955612 260:-0.654767 261:-0.447581 262:0.433181 263:-1 264:-0.53229 265:-0.306622 266:-0.652425 267:-1 268:-1 269:-0.771983 270:-1 271:-1 272:-0.772299 273:-0.305487 274:0.389124 275:-1 276:-1 277:-1 278:-1 279:1.75689 280:0.821053 281:-0.304851 282:1.7313 283:-0.813139 284:-0.046832 285:-1 286:-0.725451 287:-1 288:0.361878 289:-1 290:1.58476 291:-1 292:-0.977806 293:-0.142161 294:-1 295:0.339584 296:-1 297:-0.797786 298:-1 299:-1 300:-0.955612 301:-1 302:-0.654977 303:-1 304:-1 305:-0.949468 306:-0.418876 307:-1 308:-1 309:-0.07304 310:-0.72379 311:-1 312:-0.741341 313:-0.595572 314:-1 315:-0.838985 316:-1 317:-0.391884 318:-1 319:-1 320:-1 321:-1 322:-1 323:-0.616962 324:-1 325:-1 326:-0.447917 327:-1 328:1.66235 329:-1 330:-1 331:-1 332:-1 333:-1 334:-0.944104 335:-0.654767 336:-1 337:-1 338:-0.98767 339:-0.595818 340:-1 341:-1 342:-1 343:-1 344:-0.944104 345:-1 346:-1 347:-0.772299 348:-1 349:-0.306805 350:-0.689473 351:-1 352:-1 353:-0.641814 354:-0.523202 355:-0.986437 356:0.380376 357:-0.941107 358:-1 359:-0.797786 360:-1 361:-1 362:-0.904646 363:-0.577418 364:-1 365:-0.827383 366:0.899422 367:-1 368:-0.982528 369:-1 370:8.96418 371:-1 372:-0.595818 373:-1 374:0.936366 375:-1 376:0.622109 377:-0.797786 378:-0.0740045 379:-1 380:0.528208 381:-1 382:-0.940852 383:-1 384:-1 385:-1 386:0.723188 387:-0.76819 388:-1 389:-1 390:-0.536661 391:-0.91253 392:1.76102 393:-0.981094 394:-1 395:1.00978 396:0.0194376 397:-1 398:-0.766702 399:-0.439727 400:-1 401:-1 402:-1 403:-0.517403 404:-0.405738 405:-0.865191 406:1.53405 407:0.0648088 408:-0.00994275 409:-0.972052 410:-1 411:-0.911226 412:-0.904707 413:-1 414:-0.78858 415:-0.888277 416:-1 417:-0.713938 418:-1 419:-1 420:-1 421:-1 422:-1 423:-0.329525 424:-1 425:-1 426:-0.848199 427:-0.564295 428:-0.15942 429:-0.548476 430:-1 431:-1 432:-0.97534 433:-1 434:-0.822561 435:-1 436:-0.654767 437:-1 438:-0.838985 439:-1 440:-1 441:-0.823813 442:-0.965387 443:0.0565916 444:-0.898893 445:-0.903735 446:-0.88328 447:0.241875 448:-0.439482 449:-1 450:-1 451:-0.749695 452:-1 453:-1 454:-1 455:-1 456:-1 457:-0.188945 458:-1 459:-0.462612 460:-0.719693 461:1.16042 462:0.299763 463:-1 464:-0.326281 465:-0.766702 466:-0.490391 467:-1 468:0.376047 469:-0.677495 470:-1 471:-0.67251 472:-1 473:-1 474:-0.365998 475:-0.0897507 476:-1 477:-1 478:-0.544598 479:-1 480:-0.675099 481:-0.972052 482:-0.797909 483:-0.0328428 484:-0.0483637 485:-0.191636 486:0.851991 487:1.2973 488:-1 489:-1 490:-1 491:-1 492:-1 493:-0.53652 494:-1 495:-0.626506 496:-1 497:-1 498:-0.810233 499:-0.911226 500:-1 501:-1 502:-1 503:-1 504:0.132812 505:-1 506:-1 507:-0.120385 508:-0.86848 509:-0.494711 510:0.0572347 511:-1 512:-0.273812 513:-0.492224 514:-0.393604 515:-1 516:-0.320661 517:0.380512 518:-0.654977 519:-1 520:0.148609 521:-1 522:-1 523:-0.848199 524:-1 525:-1 526:-1 527:-1 528:5.3071 529:-1 530:-1 531:-1 532:-1 533:0.538858 534:-0.641596 535:0.821053 536:-0.852172 537:-1 538:-0.713938 539:-0.19139 540:-1 541:-0.932636 542:0.732865 543:-0.985204 544:-1 545:-0.76819 546:-0.370015 547:1.06795 548:-1 549:-1 550:-1 552:-1 553:-0.93424 554:-1 555:-0.647664 556:0.158488 557:-1 558:-1 559:-1 560:2.44595 561:-0.864368 562:-0.836858 563:-0.911226 564:-0.151343 565:-0.641596 566:-0.915332 567:-0.66131 568:0.552826 569:-1 570:0.158488 571:-0.930164 572:-1 573:-0.911226 574:-1 575:-1 576:-0.536771 577:-0.734796 578:-0.832381 579:-0.547107 580:-1 581:-1 582:-0.773554 583:-1 584:0.0747765 585:-0.304851 586:-1 587:-0.73712 588:-0.422144 589:-1 590:-1 591:-0.88328 592:-0.902532 593:-1 594:0.158488 595:-0.592262 596:-0.309954 597:-1 598:-1 599:-1 600:-0.888277 601:-0.654767 602:-0.773491 603:-0.516053 604:0.365651 605:-1 606:-1 607:-1 608:-1 609:-0.772299 610:-0.641596 611:-1 612:-0.393604 613:-0.631986 614:-0.439482 615:-1 616:-1 617:-1 618:-1 619:-1 620:-1 621:-1 622:-1 623:-1 624:-1 625:-0.728758 626:-1 627:-0.561457 628:-0.689284 629:-0.993803 630:-0.832381 631:-0.88328 632:-1 633:-1 634:-0.649982 635:-1 636:-0.23439 637:-0.73712 638:-1 639:-0.955612 640:0.0208139 641:-0.967462 642:-1 643:-0.972052 644:-0.951681 645:-1 646:-0.76819 647:-1 648:-1 649:-0.0897507 650:-0.78858 651:-1 652:0.433181 653:-0.73712 654:3.01711 655:1.47544 656:-0.88615 657:0.400341 658:0.816575 659:-1 660:2.41079 661:-1 662:-1 663:-1 664:-1 665:1.27766 666:-0.944104 667:1.24142 668:-1 669:-1 670:-1 671:-1 672:-0.815881 673:-0.497401 674:0.485387 675:-0.779182 676:-0.544598 677:-1 678:-0.544598 679:0.43536 680:-1 681:0.358127 682:-0.86848 683:-0.654977 684:-1 685:-0.19139 686:-1 687:-0.654767 688:-0.888277 689:-0.956142 690:-0.15942 691:-0.654977 692:-0.697238 693:-0.462612 694:-0.932268 695:-1 696:-1 697:-1 698:0.132812 699:-1 700:-0.397064 701:-0.9744 702:-0.469915 703:-1 704:-0.544875 705:-0.489282 706:-0.76819 707:-1 708:-0.73712 709:-0.433741 710:-0.15942 711:10.265 712:4.69416 713:1.68034 714:-0.310822 715:-1 716:-1 717:-1 718:-1 719:-1 720:-1 721:-0.884922 722:-1 723:-0.726183 724:-0.693569 725:-0.400316 726:-1 727:-0.733787 728:-0.6056 729:-0.973148 730:-0.911226 731:-0.612538 732:-0.283628 733:-1 734:-0.944104 735:-1 736:-0.6056 737:-1 738:-0.34272 739:-1 740:-0.720658 741:-0.801065 742:-1 743:-1 744:-1 745:-1 746:-0.772299 747:-0.76819 748:-0.6056 749:-0.76819 750:0.025593 751:1.10011 752:-0.0897507 753:-1 754:-1 755:-1 756:-0.654767 757:-1 758:-0.797786 759:-0.519579 760:-0.0651494 761:-0.304851 762:-1 763:-1 764:-1 765:-0.972874 766:1.10026 767:-0.775899 768:-0.768294 769:0.961466 770:-1 771:-1 772:0.378486 773:-0.81101 774:-1 775:-1 776:-0.976267 777:-0.781121 778:-1 779:-1 780:-0.390466 781:-0.888277 782:0.148609 783:-0.95616 784:-1 785:-1 786:-1 787:-1 788:-0.654767 789:1.07056 790:-1 791:-0.847524 792:-1 793:-0.832381 794:-0.966063 
11.65057386520896 0 10.57663534297641 0:-1 1:-1 2:-1 3:-1 4:-1 5:-1 6:-1 7:-1 8:-1 9:-1 10:-1 11:-1 12:-1 13:-1 14:-1 15:-1 16:-1 17:-1 18:-1 19:-1 20:-1 21:-1 22:-1 23:-1 24:-1 25:-1 26:-1 27:-1 28:-1 29:-1 30:-1 31:0.853367 32:-1 33:-1 34:-1 35:-1 36:-1 37:-1 38:-1 39:8.03269 40:1.40646 41:-1 42:-1 43:-1 44:0.7392 45:-1 46:-1 47:1.28265 48:0.532713 49:-1 50:-0.807057 51:-1 52:-0.413035 53:-1 54:-1 55:-1 56:-0.233644 57:-1 58:-1 59:-0.1304 60:-1 61:-1 62:-1 63:-1 64:-0.702884 65:2.69351 66:-1 67:-1 68:-1 69:-1 70:-1 71:2.7061 72:-1 73:5.25153 74:1.28265 75:-1 76:0.532713 77:-1 78:-1 79:-1 80:-1 81:1.2302 82:-1 83:-1 84:-1 85:-1 86:-1 87:0.532713 88:-0.233644 89:-1 90:1.36974 91:-1 92:-1 93:-1 94:-1 95:-1 96:-1 97:-0.688391 98:-1 99:-1 100:-1 101:0.340817 102:-1 103:-1 104:-1 105:-1 106:-1 107:-1 108:2.00858 109:-1 110:-1 111:1.23939 112:11.2508 113:-1 114:-0.210086 115:-1 116:-1 117:-1 118:-1 119:-1 120:-1 121:-1 122:-1 123:-1 124:-1 125:2.37683 126:0.235508 127:-1 128:-1 129:-1 130:-1 131:-1 132:-1 133:-1 134:-1 135:-1 136:-1 137:-1 138:-1 139:-1 140:-1 141:-1 142:-1 143:-1 144:-0.228257 145:3.73948 146:-1 147:-1 148:1.51097 149:-1 150:-1 151:-1 152:-1 153:6.30511 154:1.36407 155:0.853367 156:-1 157:-1 158:-0.1304 159:-1 160:-1 161:-1 162:-1 163:-1 164:1.40221 165:0.543486 166:-1 167:-1 168:2.01108 169:-1 170:-0.1304 171:-0.630423 172:-1 173:-1 174:-1 175:-1 176:0.826277 177:-1 178:-1 179:-1 180:-1 181:-1 182:-1 183:-1 184:-1 185:-1 186:-1 187:-1 188:-1 189:-1 190:-1 191:-1 192:-1 193:1.30835 194:-1 195:-1 196:-1 197:-1 198:-1 199:-1 200:-1 201:-1 202:-1 203:-1 204:-1 205:-1 206:-1 207:-1 208:-1 209:-1 210:-1 211:-1 212:-1 213:0.532713 214:-1 215:-1 216:-1 217:-1 218:-1 219:-1 220:-1 221:-1 222:-1 223:0.994495 224:-1 225:-1 226:-1 227:-1 228:-1 229:-1 230:-1 231:4.09491 232:-1 233:-1 234:-1 235:-1 236:1.51097 237:-1 238:-1 239:-0.413019 240:-1 241:-1 242:-1 243:-1 244:-1 245:-1 246:-1 247:0.235508 248:0.50554 249:-1 250:-1 251:-1 252:-1 253:-1 254:-1 255:0.532713 256:-1 257:-1 258:-1 259:-1 260:1.28265 261:-1 262:-1 263:-1 264:-1 265:-1 266:-1 267:0.337023 268:-1 269:-1 270:-1 271:-1 272:0.50554 273:0.531309 274:-1 275:-1 276:-1 277:-1 278:-1 279:-1 280:-1 281:-1 282:-1 283:-1 284:-1 285:-1 286:0.815297 287:-1 288:-1 289:-1 290:2.79937 291:-1 292:-1 293:-1 294:-1 295:-1 296:2.42377 297:0.337023 298:-1 299:-1 300:-1 301:3.56531 302:-1 303:1.69026 304:-1 305:-1 306:2.84235 307:-1 308:-1 309:-1 310:-1 311:-1 312:-1 313:-1 314:-1 315:-1 316:-1 317:-1 318:-1 319:-1 320:-1 321:-1 322:-1 323:-1 324:0.141327 325:-1 326:-1 327:-1 328:-1 329:-1 330:-1 331:-1 332:-1 333:-1 334:-1 335:-1 336:-1 337:-1 338:-1 339:-1 340:-1 341:-1 342:-1 343:-1 344:-0.260846 345:-1 346:-1 347:2.01108 348:-1 349:0.528403 350:-1 351:-1 352:-1 353:0.18487 354:2.15255 355:-1 356:-1 357:-1 358:1.67405 359:-1 360:-1 361:-1 362:-1 363:-1 364:-1 365:0.141327 366:-1 367:-1 368:-1 369:-1 370:3.59786 371:-0.951012 372:-1 373:-1 374:-1 375:-1 376:-1 377:-1 378:-1 379:-1 380:2.3695 381:-1 382:-0.804342 383:-1 384:-1 385:-1 386:-1 387:-1 388:-1 389:-1 390:-1 391:-1 392:-1 393:-1 394:-1 395:-1 396:-1 397:-1 398:-1 399:-1 400:1.98544 401:-1 402:-0.231313 403:-1 404:0.31027 405:-1 406:-1 407:2.52236 408:-1 409:-1 410:-1 411:0.173929 412:-1 413:-1 414:-1 415:-1 416:-1 417:-1 418:-1 419:-1 420:-1 421:-1 422:-1 423:-0.630423 424:-1 425:-1 426:-1 427:-1 428:-1 429:-1 430:-1 431:-1 432:-1 433:-1 434:-1 435:-1 436:-1 437:-1 438:-1 439:-1 440:-1 441:-1 442:-1 443:-1 444:-1 445:-1 446:-0.228257 447:-1 448:2.7061 449:-1 450:-1 451:-1 452:-1 453:-1 454:-1 455:-1 456:-1 457:-1 458:-1 459:-1 460:-1 461:6.14661 462:4.73161 463:-1 464:-0.108651 465:-1 466:-1 467:-1 468:-1 469:-1 470:-1 471:-1 472:-1 473:-1 474:-1 475:-1 476:-1 477:-1 478:-1 479:-1 480:-1 481:-0.815211 482:-1 483:0.279576 484:-1 485:-1 486:-1 487:-1 488:-1 489:-1 490:-1 491:-1 492:-1 493:-0.233644 494:-1 495:-1 496:-1 497:-1 498:-1 499:-0.413035 500:-1 501:-1 502:-1 503:-1 504:1.4977 505:-1 506:-1 507:-1 508:-0.1304 509:-1 510:-1 511:-1 512:1.40221 513:-1 514:-1 515:-1 516:-1 517:-1 518:-1 519:-1 520:2.03928 521:-1 522:-1 523:-1 524:-1 525:-1 526:-1 527:-1 528:-1 529:-1 530:-1 531:-1 532:-1 533:-1 534:-1 535:-1 536:-1 537:-1 538:-1 539:-1 540:-1 541:-1 542:-1 543:-0.80434 544:1.51562 545:-1 546:1.08397 547:-1 548:-1 549:-1 550:-1 552:-1 553:-1 554:-1 555:-1 556:-1 557:-1 558:-0.702884 559:-1 560:-1 561:-1 562:-1 563:-0.413035 564:-1 565:-1 566:-1 567:1.23939 568:-1 569:-1 570:-1 571:-0.907605 572:-1 573:-1 574:-1 575:-1 576:-1 577:-1 578:-1 579:-1 580:-1 581:-1 582:-1 583:-1 584:-1 585:-1 586:-1 587:-1 588:-1 589:-1 590:-1 591:-1 592:-1 593:-1 594:0.532713 595:1.69593 596:1.28265 597:-1 598:-1 599:-1 600:-1 601:-1 602:-1 603:-1 604:2.01108 605:-1 606:-1 607:-1 608:2.7061 609:-1 610:1.36974 611:-1 612:-1 613:0.217382 614:-1 615:1.65965 616:-1 617:-1 618:-1 619:-1 620:-1 621:-1 622:4.7301 623:-0.64129 624:-1 625:-1 626:-1 627:-1 628:1.05443 629:-1 630:-1 631:-1 632:-1 633:-1 634:-1 635:-1 636:1.53262 637:-1 638:-1 639:-1 640:-1 641:-1 642:-1 643:-0.815211 644:-1 645:-1 646:-1 647:-1 648:-1 649:-1 650:-1 651:-1 652:-1 653:-1 654:-1 655:-1 656:-1 657:-1 658:-1 659:-1 660:-1 661:-1 662:-1 663:-1 664:-1 665:1.51097 666:-1 667:0.235508 668:-1 669:-1 670:-1 671:-1 672:-1 673:-1 674:-1 675:-1 676:-1 677:-1 678:2.01108 679:0.899022 680:-1 681:-1 682:-0.1304 683:0.141327 684:-1 685:-1 686:-1 687:-1 688:-1 689:-1 690:-1 691:-1 692:-1 693:0.18487 694:-1 695:-1 696:-1 697:-1 698:1.4977 699:-1 700:-1 701:-1 702:0.753509 703:-1 704:-1 705:2.37683 706:-1 707:-1 708:-0.1304 709:0.873169 710:-1 711:13.3285 712:4.02195 713:4.06524 714:-1 715:-1 716:-1 717:-1 718:-1 719:-1 720:0.255486 721:-1 722:-1 723:-1 724:-1 725:0.322224 726:0.532713 727:-0.413035 728:-1 729:-1 730:-1 731:-1 732:-1 733:1.21115 734:-1 735:-1 736:-1 737:-1 738:-1 739:-1 740:-0.630423 741:-1 742:-1 743:4.39187 744:-1 745:-1 746:-1 747:-1 748:-0.1304 749:-1 750:2.39263 751:0.543486 752:-1 753:-1 754:-1 755:-1 756:-1 757:-1 758:-1 759:-1 760:-1 761:-1 762:-1 763:-1 764:-0.614115 765:-1 766:2.08719 767:-0.258678 768:-1 769:-1 770:-1 771:-1 772:3.55861 773:-0.749991 774:-1 775:-1 776:-1 777:-1 778:-1 779:-1 780:-1 781:-1 782:-1 783:-1 784:-1 785:-1 786:-1 787:-1 788:-1 789:-1 790:-1 791:-1 792:-1 793:-0.630423 794:-1 
2.069811309529057 0 2.442954975743296 0:-1 1:-0.142989 2:-1 3:-1 4:-1 5:-0.319266 6:-1 7:-1 8:-0.769049 9:-1 10:-1 11:1.7233 12:-1 13:-1 14:-0.704722 15:-1 16:-1 17:-1 18:-0.476806 19:-1 20:-1 21:-1 22:-1 23:-1 24:-0.92578 25:-1 26:-1 27:-0.398118 28:-1 29:1.04408 30:1.9607 31:-1 32:0.0277008 33:-1 34:-1 35:-1 36:-1 37:-1 38:-0.220916 39:1.05596 40:-1 41:-1 42:-1 43:-0.543665 44:-1 45:-1 46:-1 47:-1 48:-1 49:-1 50:-1 51:-1 52:-0.799665 53:-1 54:-1 55:-1 56:-1 57:-1 58:-1 59:-1 60:1.52621 61:-1 62:-0.191193 63:1.02033 64:-1 65:-1 66:-1 67:-0.296282 68:-1 69:-1 70:-0.766725 71:0.264916 72:0.689506 73:-1 74:0.558589 75:-1 76:-1 77:-1 78:-1 79:-1 80:-1 81:-1 82:-1 83:-1 84:-1 85:-1 86:-1 87:-1 88:1.09278 89:5.32198 90:-0.191193 91:-1 92:5.91705 93:-0.135601 94:-1 95:-1 96:-1 97:-1 98:0.479266 99:-1 100:-1 101:-0.542371 102:-1 103:-1 104:-1 105:-1 106:-1 107:-0.220916 108:-1 109:-1 110:-1 111:-1 112:1.09129 113:-1 114:-1 115:-1 116:-1 117:-1 118:-0.840471 119:-1 120:-1 121:-1 122:-0.957323 123:-1 124:-0.209656 125:-1 126:-1 127:-1 128:-1 129:-1 130:-1 131:-0.142989 132:-1 133:-1 134:-1 135:0.366483 136:-1 137:1.14276 138:-1 139:-1 140:-1 141:-1 142:-1 143:-1 144:-1 145:-1 146:0.512841 147:-1 148:-0.142758 149:-0.543665 150:-1 151:-1 152:-1 153:-1 154:-1 155:-1 156:-0.476806 157:-0.37668 158:-1 159:-1 160:-1 161:-1 162:-1 163:-1 164:-1 165:-1 166:-1 167:-1 168:2.08366 169:-1 170:-1 171:-1 172:-1 173:-1 174:-1 175:-1 176:-1 177:7.21927 178:-1 179:-1 180:-1 181:-1 182:-1 183:-1 184:-1 185:-1 186:-1 187:-1 188:-1 189:-1 190:-0.695777 191:-1 192:-1 193:-0.212147 194:-1 195:0.0554765 196:6.827 197:-0.260367 198:-0.424985 199:-1 200:-1 201:-0.969702 202:-1 203:-1 204:-1 205:-1 206:-1 207:-0.168776 208:-1 209:0.558589 210:-0.543665 211:-1 212:-1 213:-0.476734 214:-1 215:-1 216:-1 217:5.91705 218:-1 219:-1 220:-1 221:-1 222:-1 223:0.361835 224:-1 225:-1 226:-1 227:-0.936931 228:-0.829293 229:-0.367263 230:-1 231:2.47832 232:-1 233:-1 234:-1 235:-1 236:-1 237:-1 238:-1 239:-1 240:0.192926 241:-0.581311 242:-0.237253 243:-0.0870849 244:-1 245:-1 246:-1 247:-1 248:-1 249:-1 250:0.0465313 251:-1 252:-0.936931 253:-1 254:1.04452 255:-0.476875 256:-1 257:-0.9629 258:-1 259:-0.89983 260:-1 261:2.74059 262:-1 263:-1 264:-1 265:-1 266:-0.738438 267:-0.543665 268:-1 269:6.20499 270:-0.566285 271:-1 272:-1 273:5.27273 274:-1 275:-1 276:-1 277:-1 278:-1 279:-0.481337 280:-1 281:-1 282:-1 283:-1 284:-1 285:-1 286:0.859051 287:-0.714879 288:-1 289:-1 290:-1 291:-1 292:-1 293:-1 294:-1 295:-1 296:-1 297:-1 298:-1 299:-1 300:-1 301:-1 302:-1 303:-1 304:-1 305:-1 306:-1 307:-1 308:-1 309:-1 310:-1 311:-1 312:-1 313:-1 314:5.01297 315:-0.818209 316:-1 317:-1 318:-1 319:-1 320:-1 321:1.11155 322:-1 323:-1 324:-1 325:-1 326:-1 327:-1 328:2.60726 329:-1 330:4.18658 331:-1 332:-0.315503 333:-0.128073 334:-1 335:-1 336:-1 337:13.7222 338:-1 339:-1 340:-1 341:-1 342:-1 343:-0.641667 344:-0.116891 345:-1 346:-0.967068 347:0.541828 348:-1 349:0.0435883 350:-0.649405 351:-1 352:0.564741 353:-1 354:0.0759861 355:-1 356:-1 357:-1 358:-1 359:-0.543665 360:-1 361:-0.75818 362:-1 363:-1 364:-1 365:0.558379 366:-1 367:-1 368:-1 369:-1 370:-0.476875 371:-1 372:-1 373:-0.220916 374:-1 375:-1 376:-1 377:-1 378:-1 379:-1 380:1.30068 381:-1 382:-1 383:-1 384:-1 385:-0.191193 386:-0.444278 387:-1 388:-1 389:-1 390:-0.476875 391:-1 392:-1 393:-1 394:-1 395:-1 396:0.534739 397:-1 398:-1 399:0.265473 400:-1 401:-1 402:-1 403:-1 404:3.02555 405:-1 406:-1 407:0.202203 408:-1 409:-1 410:-1 411:-1 412:-0.892411 413:-1 414:-1 415:-1 416:-1 417:-0.354446 418:-0.401516 419:-1 420:-1 421:-1 422:-1 423:-0.747654 424:-1 425:-1 426:-1 427:-1 428:-1 429:-1 430:-0.147518 431:-1 432:-1 433:-1 434:-1 435:-1 436:-1 437:-1 438:-1 439:-1 440:-1 441:-0.602401 442:-1 443:0.192926 444:-1 445:-1 446:-0.736599 447:-1 448:-1 449:-1 450:-0.235682 451:-1 452:-0.7032 453:0.714253 454:-1 455:-1 456:0.264916 457:-1 458:-1 459:-0.190974 460:-1 461:1.43918 462:-1 463:-0.895263 464:8.43239 465:-1 466:-1 467:-1 468:0.553601 469:-1 470:-1 471:0.478486 472:-1 473:-0.38789 474:-1 475:-1 476:-1 477:-1 478:-1 479:-0.747654 480:-1 481:-0.936931 482:-1 483:-0.563273 484:-1 485:-1 486:1.78813 487:-0.135601 488:-1 489:6.15884 490:-1 491:-1 492:-1 493:0.569656 494:-1 495:-1 496:-1 497:0.840608 498:-1 499:-0.799665 500:-1 501:-1 502:-1 503:-0.292795 504:1.5579 505:-1 506:-1 507:-1 508:-1 509:-1 510:-1 511:-1 512:-1 513:-1 514:-0.543665 515:-1 516:-1 517:-0.220916 518:-1 519:-0.473056 520:-1 521:-0.5845 522:-1 523:-1 524:-1 525:-1 526:-1 527:-1 528:-1 529:-1 530:-1 531:-1 532:-0.191193 533:-1 534:-1 535:0.0277008 536:-1 537:-1 538:-1 539:-1 540:-1 541:-1 542:5.52091 543:-1 544:0.717658 545:-1 546:0.422929 547:-1 548:-1 549:-1 550:-0.204886 552:-1 553:-1 554:-1 555:-1 556:-1 557:-1 558:-1 559:-1 560:-1 561:-0.69392 562:-1 563:-1 564:-0.0418388 565:-1 566:-1 567:-1 568:-1 569:-1 570:-0.476875 571:-0.968465 572:-1 573:-1 574:-1 575:-1 576:-1 577:-1 578:-1 579:-1 580:-1 581:-1 582:-1 583:-1 584:-1 585:-1 586:-1 587:-1 588:0.304042 589:-1 590:-1 591:-1 592:-1 593:-1 594:-1 595:-1 596:-1 597:-1 598:-1 599:-1 600:-0.747654 601:-1 602:-1 603:-1 604:-1 605:-1 606:-1 607:-1 608:-1 609:-1 610:0.618051 611:-1 612:-1 613:0.662224 614:0.264916 615:-0.0922437 616:-0.677223 617:-1 618:-1 619:-1 620:-0.936931 621:-1 622:0.95572 623:-1 624:-1 625:-1 626:-1 627:-0.504871 628:-1 629:-1 630:-0.873861 631:-1 632:-1 633:-1 634:-1 635:-0.354446 636:2.45806 637:-1 638:-1 639:-1 640:1.30568 641:-1 642:-1 643:-0.936931 644:0.308664 645:-0.736599 646:-1 647:-1 648:-1 649:-1 650:-1 651:-0.543665 652:-0.191193 653:-1 654:-1 655:-1 656:-1 657:-1 658:3.09945 659:-1 660:14.3983 661:-1 662:-1 663:-1 664:-1 665:-0.142989 666:-1 667:8.70039 668:-1 669:-1 670:-1 671:-0.7032 672:-1 673:0.13421 674:4.58964 675:-1 676:-1 677:-1 678:1.05596 679:-0.351852 680:-1 681:-1 682:-1 683:-1 684:-1 685:-1 686:-1 687:-1 688:-1 689:-1 690:-1 691:-1 692:-1 693:-1 694:-1 695:-1 696:-1 697:-1 698:-1 699:-1 700:-0.319266 701:-1 702:-1 703:-1 704:-1 705:2.45822 706:1.09278 707:-1 708:-0.40624 709:-1 710:-1 711:3.89112 712:-1 713:-0.135601 714:-1 715:-1 716:-1 717:7.2011 718:-1 719:-1 720:-0.142758 721:-0.740305 722:-1 723:-1 724:-1 725:-0.548717 726:-1 727:-1 728:-1 729:-1 730:-0.799665 731:-1 732:-1 733:-1 734:-1 735:-1 736:-1 737:-1 738:-0.7032 739:-1 740:-1 741:-1 742:-1 743:-1 744:-0.235682 745:-1 746:-1 747:1.61591 748:-1 749:-1 750:-1 751:4.00532 752:1.05596 753:0.479665 754:0.994624 755:0.311417 756:-1 757:-1 758:-0.543665 759:2.25307 760:-1 761:-0.738438 762:-1 763:-1 764:-0.868295 765:-1 766:3.7424 767:-1 768:-1 769:-1 770:-1 771:-1 772:-1 773:-0.359937 774:-0.37668 775:-1 776:-1 777:-1 778:-1 779:-0.840471 780:1.06492 781:-1 782:-1 783:-0.901067 784:-1 785:-1 786:-1 787:1.11155 788:-1 789:-1 790:-1 791:0.0324615 792:4.44934 793:-0.495376 794:-0.770204 
6.682823263067159 0 2.633197216991611 0:7.86653 1:-1 2:-1 3:-1 4:-1 5:-1 6:-1 7:-1 8:-1 9:-1 10:-1 11:-1 12:-1 13:-1 14:-0.872475 15:0.807671 16:-1 17:-1 18:-1 19:-1 20:-1 21:-1 22:-1 23:-1 24:-1 25:-1 26:-1 27:-1 28:-1 29:-1 30:-1 31:1.18585 32:-1 33:-0.8718 34:-1 35:-1 36:-1 37:-1 38:1.69215 39:-1 40:-1 41:-1 42:-1 43:-1 44:-1 45:-1 46:-1 47:-1 48:-1 49:-1 50:-0.544854 51:-1 52:-1 53:-1 54:-1 55:-1 56:-1 57:-1 58:-1 59:-1 60:-1 61:-1 62:-1 63:-1 64:-1 65:-1 66:-1 67:-1 68:-1 69:-1 70:-1 71:-1 72:1.91828 73:-1 74:-1 75:-1 76:-1 77:-1 78:-1 79:-1 80:-1 81:-1 82:-1 83:-1 84:-1 85:-1 86:-1 87:-1 88:-1 89:-1 90:-1 91:-1 92:-1 93:-1 94:-1 95:-1 96:-1 97:-1 98:-1 99:-1 100:-1 101:-1 102:-1 103:-1 104:1.05136 105:-1 106:-1 107:-1 108:-1 109:1.35445 110:-1 111:1.64112 112:-1 113:-1 114:-1 115:-1 116:-1 117:-1 118:-1 119:-1 120:-1 121:-1 122:-1 123:-1 124:8.10231 125:-1 126:-1 127:-1 128:2.61229 129:2.9826 130:-1 131:1.96142 132:-1 133:-1 134:-1 135:-1 136:-1 137:-1 138:-1 139:-1 140:-1 141:-1 142:-1 143:-1 144:-1 145:-1 146:-1 147:-1 148:-1 149:-1 150:-1 151:-1 152:-1 153:-1 154:-1 155:-1 156:-1 157:-1 158:-1 159:-1 160:-1 161:-1 162:-1 163:-1 164:-1 165:-1 166:-1 167:-1 168:-1 169:-1 170:-1 171:-1 172:-1 173:-1 174:-1 175:-1 176:-1 177:-1 178:-1 179:-1 180:1.74754 181:-1 182:-1 183:-1 184:-1 185:-1 186:-1 187:-1 188:-1 189:-1 190:-1 191:-1 192:-1 193:-1 194:-1 195:-1 196:-1 197:4.11204 198:-1 199:-1 200:-1 201:-1 202:-1 203:-1 204:-1 205:-1 206:-1 207:-1 208:-1 209:-1 210:-1 211:-1 212:-1 213:-1 214:-1 215:-1 216:-1 217:-1 218:-1 219:-1 220:-1 221:-1 222:8.69231 223:-1 224:-1 225:-1 226:-1 227:-1 228:-1 229:-1 230:-1 231:-1 232:-1 233:-1 234:-1 235:-1 236:-1 237:-1 238:-1 239:1.42309 240:-1 241:-1 242:-1 243:-1 244:-1 245:-1 246:-1 247:-1 248:-1 249:-1 250:-1 251:-1 252:-1 253:-1 254:-1 255:-1 256:-1 257:-1 258:-1 259:-0.65386 260:-1 261:-1 262:-1 263:-1 264:-1 265:-1 266:0.807812 267:-1 268:-1 269:15.0033 270:-1 271:-1 272:-1 273:-1 274:-1 275:-1 276:-1 277:-0.564123 278:-1 279:-1 280:-1 281:-1 282:-1 283:-1 284:-1 285:-1 286:-1 287:-1 288:-1 289:-1 290:-1 291:-1 292:-1 293:-1 294:-1 295:-1 296:0.346073 297:-1 298:-0.644087 299:-1 300:-0.65386 301:-1 302:-1 303:18.038 304:-1 305:-1 306:3.53164 307:-1 308:-1 309:-1 310:-1 311:-1 312:-1 313:-1 314:-1 315:-1 316:-1 317:-1 318:-1 319:-1 320:-1 321:-1 322:-1 323:-1 324:-1 325:-1 326:-1 327:-1 328:-1 329:-1 330:-1 331:-1 332:-1 333:-1 334:-1 335:-1 336:-1 337:-1 338:-1 339:-1 340:-1 341:-1 342:-1 343:0.650797 344:-1 345:-1 346:-1 347:-1 348:-1 349:-1 350:-1 351:-1 352:-1 353:-1 354:-1 355:-1 356:-1 357:-1 358:-1 359:2.154 360:-1 361:-1 362:-1 363:-1 364:-0.339754 365:0.346073 366:-1 367:-1 368:-1 369:-1 370:-1 371:-0.942224 372:-1 373:-1 374:-1 375:-1 376:0.807671 377:-1 378:-1 379:-1 380:-1 381:-1 382:0.384621 383:-1 384:-1 385:-1 386:-1 387:-1 388:-1 389:-1 390:-1 391:-1 392:-1 393:-1 394:-1 395:-1 396:-1 397:-1 398:-1 399:-1 400:-1 401:-1 402:-1 403:-1 404:-1 405:-1 406:-1 407:-1 408:6.72582 409:-1 410:-1 411:-1 412:-1 413:-1 414:-1 415:-1 416:-1 417:-1 418:-1 419:-1 420:-1 421:-1 422:-1 423:-1 424:-1 425:-1 426:0.183749 427:0.133009 428:-1 429:-1 430:-1 431:1.37804 432:-1 433:-1 434:-1 435:-1 436:-1 437:-1 438:-1 439:-1 440:-1 441:0.373915 442:-0.864993 443:-1 444:-1 445:-1 446:-1 447:-1 448:-1 449:-0.153813 450:-1 451:-1 452:-1 453:-1 454:-1 455:-1 456:-1 457:-1 458:-0.635565 459:-1 460:-1 461:-1 462:-1 463:-1 464:-1 465:-1 466:-1 467:-1 468:-1 469:-1 470:-1 471:-1 472:-1 473:-1 474:-1 475:-1 476:-1 477:-1 478:-1 479:-1 480:-1 481:-0.782062 482:-0.211562 483:0.509123 484:-1 485:5.308 486:8.63261 487:-1 488:-1 489:-1 490:-1 491:-1 492:-1 493:-1 494:-1 495:0.457149 496:-1 497:-1 498:-1 499:-1 500:-1 501:-1 502:-1 503:-1 504:-1 505:-1 506:-1 507:-1 508:-1 509:-1 510:-1 511:-1 512:-1 513:-1 514:-1 515:-1 516:-1 517:-1 518:-1 519:-0.0898119 520:-1 521:-1 522:-1 523:-1 524:-1 525:-1 526:-1 527:-1 528:-1 529:-1 530:-1 531:1.64112 532:-1 533:-1 534:-1 535:6.10305 536:-1 537:-1 538:-1 539:-1 540:-1 541:-1 542:3.50615 543:-1 544:-1 545:-1 546:-1 547:-1 548:-1 549:-1 550:-1 552:-1 553:-1 554:-1 555:-1 556:-1 557:-1 558:-1 559:-1 560:-1 561:1.1155 562:-1 563:-1 564:-1 565:-1 566:-1 567:-1 568:-1 569:-1 570:-1 571:-1 572:-1 573:-1 574:-1 575:-1 576:-1 577:-1 578:-1 579:-1 580:-1 581:-1 582:-1 583:-1 584:-1 585:-1 586:-1 587:0.0256 588:-1 589:-1 590:-1 591:-1 592:-1 593:-1 594:-1 595:-1 596:-1 597:-1 598:-1 599:-1 600:-0.564123 601:-1 602:-1 603:-1 604:-1 605:-1 606:-1 607:-1 608:-1 609:-1 610:-1 611:-1 612:-1 613:-1 614:-1 615:-1 616:-1 617:-1 618:-1 619:-1 620:-1 621:-1 622:-1 623:0.269247 624:-1 625:-1 626:-1 627:-1 628:1.42298 629:-1 630:-1 631:-1 632:-1 633:-1 634:-1 635:-1 636:-1 637:-1 638:-1 639:-1 640:-1 641:-1 642:-1 643:-1 644:2.01446 645:-1 646:-1 647:-1 648:-1 649:-1 650:-1 651:-1 652:-1 653:-1 654:-1 655:-1 656:-1 657:-1 658:-1 659:-1 660:-1 661:-1 662:-1 663:-1 664:-1 665:-1 666:-1 667:-1 668:-1 669:-1 670:-1 671:-1 672:-1 673:-1 674:-1 675:-1 676:-1 677:-1 678:-1 679:-1 680:-1 681:-1 682:-1 683:-1 684:-1 685:-1 686:-1 687:-1 688:-1 689:-1 690:-1 691:-1 692:-1 693:-1 694:-1 695:-1 696:-1 697:-1 698:-1 699:-1 700:-1 701:-1 702:-1 703:-1 704:-1 705:-1 706:0.807671 707:-1 708:-1 709:-1 710:-1 711:-1 712:-1 713:-1 714:-1 715:-1 716:-1 717:-1 718:-1 719:-1 720:1.96165 721:-1 722:-0.90385 723:-1 724:-1 725:-1 726:-1 727:-1 728:-1 729:-1 730:-1 731:-1 732:-1 733:-1 734:-0.564123 735:-0.490218 736:-1 737:-1 738:-1 739:-1 740:-1 741:-1 742:-1 743:-1 744:-1 745:-1 746:-1 747:-1 748:-1 749:-1 750:-1 751:-1 752:-1 753:1.55582 754:-1 755:-1 756:-1 757:3.72228 758:-1 759:-1 760:-1 761:-1 762:-1 763:-1 764:-1 765:-1 766:-1 767:-1 768:-1 769:-1 770:2.55125 771:-1 772:-1 773:-1 774:-1 775:-1 776:-1 777:-1 778:-1 779:-1 780:-1 781:-1 782:-1 783:-0.658133 784:-1 785:-1 786:-1 787:-1 788:-1 789:-1 790:-1 791:-1 792:-1 793:-1 794:-0.470677 
0.8666071607593385 0 0 0:7.18396 1:-1 2:-1 3:-1 4:-1 5:-1 6:-1 7:-1 8:-0.754482 9:-1 10:33 11:1.89541 12:-1 13:-1 14:-0.882283 15:-1 16:-0.814636 17:-1 18:-1 19:-1 20:-1 21:-1 22:-1 23:-1 24:-1 25:-1 26:-0.3688 27:-0.360156 28:-0.806742 29:-1 30:-1 31:-1 32:0.0925208 33:-1 34:-1 35:-1 36:-1 37:-1 38:-1 39:-1 40:-1 41:-1 42:-1 43:-1 44:-1 45:-1 46:-1 47:-1 48:0.112521 49:-1 50:-1 51:-1 52:-0.78703 53:-1 54:-1 55:-1 56:-1 57:-1 58:-1 59:-1 60:1.6855 61:-1 62:1.5799 63:0.431942 64:-1 65:3.02107 66:-1 67:0.496586 68:-1 69:-1 70:-1 71:0.344698 72:2.59208 73:2.02531 74:-0.171777 75:-1 76:-1 77:0.414634 78:-1 79:1.18378 80:-1 81:-1 82:-1 83:-1 84:-1 85:-1 86:-0.463484 87:-1 88:0.390581 89:-1 90:-0.140179 91:-1 92:2.67568 93:-1 94:-1 95:-1 96:1.53633 97:-0.943469 98:5.29187 99:-1 100:-1 101:1.43296 102:-0.96056 103:-1 104:-0.05328 105:-1 106:-1 107:-0.171777 108:-1 109:-0.275666 110:-1 111:-0.187474 112:4.55762 113:-1 114:-1 115:-0.967462 116:-1 117:-1 118:-1 119:-0.570089 120:-1 121:-1 122:-1 123:-1 124:0.400355 125:-1 126:-0.551716 127:-1 128:-1 129:0.225225 130:-1 131:-0.0889351 132:-1 133:-1 134:-1 135:-1 136:-0.75494 137:-0.0887041 138:-1 139:-1 140:-1 141:-1 142:0.112521 143:-1 144:-0.719986 145:-1 146:-1 147:-1 148:1.27812 149:0.940959 150:-1 151:-1 152:-0.719986 153:-1 154:-1 155:1.01773 156:-0.814636 157:-1 158:-0.05328 159:-1 160:-1 161:-1 162:-1 163:-0.0889351 164:-1 165:-0.719986 166:-1 167:-0.254583 168:-1 169:-1 170:-1 171:-1 172:-1 173:0.964143 174:-1 175:-1 176:-1 177:-1 178:-1 179:-0.713393 180:-1 181:-1 182:-0.865905 183:-1 184:-1 185:-1 186:-1 187:-1 188:0.0865014 189:-1 190:-1 191:-1 192:-1 193:0.675515 194:-0.187474 195:0.122048 196:-1 197:-0.213716 198:-1 199:-1 200:-1 201:-1 202:-1 203:-1 204:-1 205:-1 206:-1 207:-0.116362 208:-1 209:1.48509 210:-1 211:-0.932953 212:-1 213:-0.16568 214:-1 215:-1 216:-0.140179 217:-1 218:2.78508 219:-1 220:-1 221:-1 222:-0.254583 223:-1 224:-1 225:-0.32257 226:-1 227:-1 228:-1 229:-1 230:-0.171777 231:0.849074 232:-1 233:-1 234:-1 235:-1 236:-1 237:-0.171777 238:-1 239:-0.893512 240:-1 241:-1 242:-1 243:-1 244:-1 245:-1 246:-1 247:-1 248:-0.45374 249:-1 250:-1 251:5.56679 252:-1 253:-1 254:-1 255:-1 256:-0.865905 257:-1 258:-1 259:-1 260:-0.171777 261:-1 262:0.720078 263:-1 264:-1 265:-1 266:-0.72194 267:-1 268:-1 269:-1 270:-1 271:-1 272:0.0927978 273:0.111502 274:-1 275:-1 276:-1 277:-0.597647 278:-1 279:-0.448623 280:-1 281:-1 282:0.0925208 283:-1 284:-1 285:-1 286:-1 287:-0.696895 288:-1 289:-0.932953 290:1.06816 291:-1 292:-1 293:0.37289 294:-1 295:-1 296:-0.585888 297:-1 298:-1 299:0.325269 300:-0.893512 301:-1 302:-1 303:-0.0236357 304:-1 305:-1 306:-1 307:-1 308:-1 309:-1 310:-1 311:-1 312:-1 313:-1 314:5.39222 315:-1 316:1.24474 317:-1 318:1.22197 319:-1 320:-1 321:-1 322:-1 323:-1 324:-1 325:-1 326:-1 327:-1 328:2.83474 329:-1 330:-1 331:-1 332:-1 333:-1 334:-1 335:-1 336:-0.313729 337:-1 338:-1 339:-1 340:-1 341:-0.391345 342:-1 343:-0.898407 344:-0.597647 345:-1 346:-1 347:0.0927978 348:-1 349:1.21879 350:1.60953 351:-1 352:0.663433 353:-1 354:0.143852 355:-1 356:-1 357:-1 358:-0.514883 359:0.455597 360:-1 361:-1 362:-0.771243 363:-0.492798 364:-1 365:-1 366:-1 367:-1 368:-1 369:-1 370:3.4498 371:-1 372:-1 373:-1 374:0.859533 375:-1 376:-1 377:-1 378:-1 379:-1 380:-1 381:-0.909287 382:-0.929009 383:-1 384:-1 385:-1 386:-1 387:-0.44388 388:-1 389:-1 390:-1 391:-1 392:-0.171777 393:-1 394:-1 395:-1 396:0.631514 397:1.16699 398:-1 399:1.69054 400:0.0832189 401:-1 402:-1 403:-0.420767 404:-0.0489392 405:-1 406:-1 407:-1 408:-1 409:-1 410:-1 411:-1 412:-1 413:-1 414:-1 415:-1 416:-1 417:-1 418:-1 419:-1 420:-1 421:-1 422:-1 423:-0.731742 424:-1 425:-1 426:-0.635826 427:-1 428:-0.327536 429:-1 430:-0.09375 431:-1 432:-1 433:-0.0295203 434:-1 435:-0.810685 436:-1 437:-1 438:-1 439:-1 440:-1 441:-1 442:-0.958459 443:-1 444:-1 445:-1 446:-1 447:-1 448:-1 449:-1 450:1.43799 451:-1 452:-0.3688 453:-1 454:-1 455:-1 456:-1 457:0.390581 458:-1 459:-1 460:0.345269 461:-1 462:2.11996 463:-1 464:0.617384 465:-1 466:0.222567 467:-1 468:-1 469:-1 470:-0.676589 471:-1 472:-1 473:-1 474:-0.492798 475:-1 476:-1 477:-1 478:-1 479:-0.865905 480:-1 481:-0.932953 482:-1 483:0.393055 484:0.142195 485:-1 486:28.6379 487:-1 488:-1 489:-1 490:3.15958 491:-1 492:-1 493:-0.443739 494:-1 495:-0.551716 496:-1 497:-0.347884 498:-0.772234 499:-1 500:0.956349 501:-1 502:-1 503:1.25581 504:-1 505:-1 506:-1 507:-1 508:-1 509:-1 510:1.53633 511:-1 512:-1 513:0.218869 514:-0.514883 515:-1 516:-1 517:-1 518:-0.585888 519:-0.159815 520:0.103034 521:-1 522:-1 523:-1 524:-1 525:-1 526:-1 527:-1 528:-1 529:-1 530:-1 531:-1 532:-1 533:-1 534:-1 535:1.1856 536:-1 537:-1 538:-1 539:-1 540:1.48509 541:-1 542:5.93286 543:-1 544:-0.0872483 545:-1 546:0.512653 547:0.654362 548:-0.68448 549:-1 550:-1 552:-1 553:-1 554:-1 555:-1 556:0.112521 557:-1 558:-1 559:-1 560:0.838304 561:0.627258 562:-1 563:-1 564:-1 565:-0.140179 566:-1 567:-1 568:-0.254583 569:-1 570:0.112521 571:-0.966476 572:-1 573:-1 574:-0.701845 575:7.32068 576:-1 577:-1 578:-1 579:-1 580:-1 581:-1 582:-1 583:-1 584:-1 585:-1 586:-1 587:-1 588:-1 589:-1 590:-1 591:-1 592:-1 593:-1 594:0.112521 595:-1 596:-1 597:-0.834355 598:-1 599:-0.731742 600:-1 601:-0.171777 602:-1 603:-1 604:-1 605:-1 606:-0.856702 607:-1 608:0.344698 609:-1 610:1.5799 611:-1 612:-1 613:-0.116362 614:-1 615:-1 616:-1 617:-1 618:-1 619:-1 620:-0.932953 621:-1 622:1.07907 623:-1 624:-1 625:-1 626:-1 627:-1 628:-1 629:-1 630:-0.597647 631:-1 632:0.873634 633:-1 634:-1 635:-0.313729 636:-1 637:-0.3688 638:3.61287 639:-1 640:0.225225 641:-1 642:-1 643:-0.932953 644:-0.304373 645:-0.43983 646:-1 647:-1 648:-1 649:2.27812 650:-1 651:-1 652:-0.140179 653:-0.68448 654:-1 655:3.75444 656:-1 657:-1 658:-1 659:-1 660:-1 661:-1 662:0.27803 663:-1 664:-1 665:3.55625 666:-1 667:-0.551716 668:-1 669:10.6686 670:-1 671:-1 672:-1 673:0.205747 674:1.37722 675:-1 676:-1 677:-1 678:-1 679:8.64815 680:-1 681:-1 682:-1 683:-0.585888 684:-1 685:-1 686:-1 687:-0.171777 688:-1 689:-1 690:-1 691:-1 692:-1 693:-1 694:-1 695:-1 696:1.24474 697:-1 698:-1 699:-1 700:-1 701:-0.938586 702:-0.363768 703:-1 704:0.639058 705:1.45107 706:1.78116 707:-1 708:-1 709:0.359642 710:-1 711:7.32006 712:1.73366 713:0.838304 714:-1 715:-1 716:-1 717:7.71823 718:-1 719:-1 720:-1 721:-1 722:-1 723:-1 724:-1 725:-0.520253 726:-1 727:-0.78703 728:-1 729:-1 730:-0.78703 731:-1 732:-1 733:-1 734:-1 735:-1 736:-0.68448 737:-1 738:-1 739:-1 740:-1 741:-1 742:-0.585888 743:-1 744:-1 745:0.490552 746:0.639058 747:-1 748:-0.3688 749:-0.44388 750:-1 751:-0.43983 752:-1 753:-0.213716 754:-1 755:3.1831 756:-1 757:-1 758:-0.514883 759:-1 760:-1 761:-1 762:-1 763:-1 764:-1 765:-1 766:1.80091 767:-1 768:-0.814636 769:-0.327536 770:7.74183 771:-1 772:-0.172992 773:-0.818531 774:0.988239 775:-1 776:-1 777:-1 778:-1 779:-1 780:-0.26841 781:-1 782:0.103034 783:-0.894827 784:-1 785:-1 786:-1 787:-1 788:-1 789:-1 790:-0.19935 791:-0.634205 792:-1 793:-0.865905 794:-0.918585 
6.010468189243418 0 0 0:24.7324 1:-1 2:-1 3:-1 4:-1 5:-1 6:-1 7:-1 8:-1 9:-1 10:79.1897 11:2.41358 12:-1 13:-1 14:-1 15:-1 16:-1 17:-1 18:-1 19:-1 20:-1 21:-1 22:-1 23:-1 24:-1 25:-1 26:-1 27:-1 28:-1 29:4.12507 30:0.855576 31:-1 32:-1 33:-1 34:-1 35:-1 36:-1 37:-1 38:-1 39:-1 40:1.05933 41:-1 42:-1 43:-1 44:-1 45:-1 46:-1 47:0.953381 48:4.24676 49:-1 50:-1 51:-1 52:-1 53:-1 54:-1 55:-1 56:-1 57:-1 58:-1 59:-1 60:2.1661 61:-0.693034 62:1.0279 63:-1 64:-1 65:2.16072 66:-1 67:2.52883 68:-1 69:-1 70:-1 71:-1 72:5.35238 73:-1 74:2.90676 75:-1 76:0.311619 77:-1 78:-1 79:1.57459 80:-1 81:-1 82:-1 83:-1 84:-1 85:-0.893028 86:-0.683735 87:0.311619 88:0.311619 89:-1 90:-1 91:-1 92:-1 93:-1 94:6.03099 95:-0.25584 96:-1 97:-1 98:2.70893 99:-1 100:-1 101:-1 102:-1 103:-0.708538 104:-0.25584 105:-1 106:-1 107:0.953381 108:-1 109:0.708356 110:0.348702 111:2.83272 112:-1 113:-1 114:-1 115:-1 116:-1 117:-1 118:-1 119:1.0279 120:-1 121:-1 122:-0.946513 123:-0.460472 124:2.30224 125:1.88972 126:-1 127:-1 128:-1 129:4.77943 130:-1 131:-1 132:-1 133:-1 134:-1 135:-1 136:-1 137:-1 138:-1 139:-1 140:-1 141:-1 142:-1 143:-1 144:-1 145:-1 146:-1 147:-1 148:-1 149:-1 150:-1 151:-1 152:-1 153:-1 154:-1 155:-1 156:-1 157:-1 158:-1 159:-1 160:-1 161:-1 162:-1 163:-1 164:-1 165:-1 166:-1 167:-1 168:-1 169:-1 170:-0.25584 171:-1 172:-1 173:-1 174:-1 175:-1 176:-1 177:-1 178:-1 179:-1 180:-1 181:-1 182:-1 183:-1 184:-1 185:-1 186:-1 187:-1 188:-1 189:-1 190:-1 191:-1 192:-1 193:-1 194:-1 195:-1 196:-1 197:2.70893 198:-1 199:-1 200:-1 201:-1 202:-1 203:-1 204:-1 205:-1 206:-1 207:-1 208:-1 209:-1 210:-1 211:-1 212:-1 213:-0.344191 214:-1 215:-0.750944 216:1.0279 217:7.66915 218:1.23123 219:-1 220:-1 221:-1 222:-1 223:-1 224:-1 225:-1 226:-1 227:-1 228:-1 229:-1 230:2.90676 231:-1 232:-1 233:-1 234:-1 235:-1 236:-1 237:2.90676 238:-1 239:-1 240:-1 241:0.0497686 242:-1 243:0.144157 244:-1 245:-1 246:-1 247:0.0572857 248:0.288366 249:-1 250:-1 251:2.87099 252:-1 253:-1 254:-1 255:-1 256:-1 257:-1 258:-1 259:-1 260:-1 261:-1 262:3.05581 263:-1 264:-1 265:2.92324 266:-0.344191 267:-1 268:-1 269:-1 270:-1 271:-1 272:0.288366 273:-1 274:-1 275:-1 276:-1 277:-1 278:-1 279:-1 280:-1 281:-1 282:1.57673 283:-1 284:-1 285:-1 286:-1 287:-1 288:-1 289:-1 290:0.625655 291:-1 292:-1 293:0.618584 294:-1 295:2.79209 296:-1 297:-1 298:-1 299:-1 300:-1 301:-1 302:-1 303:-1 304:-1 305:-1 306:5.57618 307:-1 308:-1 309:-1 310:-1 311:-1 312:-1 313:-1 314:-1 315:-0.544198 316:-1 317:-1 318:-1 319:-1 320:-1 321:4.29425 322:-1 323:-1 324:-0.0233095 325:-1 326:-1 327:-1 328:-1 329:-1 330:-1 331:-1 332:-1 333:-1 334:-0.683735 335:-1 336:-1 337:-1 338:-1 339:-1 340:-1 341:-1 342:-1 343:-0.880225 344:-1 345:-1 346:-1 347:-1 348:-1 349:1.61586 350:0.75808 351:-1 352:-1 353:1.0279 354:-1 355:-1 356:-1 357:-1 358:-1 359:-1 360:-1 361:-1 362:-1 363:0.196245 364:-1 365:-0.0233095 366:-1 367:-1 368:-1 369:0.48832 370:-1 371:-1 372:-1 373:-1 374:-1 375:-0.841867 376:-1 377:-1 378:-1 379:-0.890701 380:-1 381:-1 382:-0.832565 383:-1 384:0.288366 385:-1 386:-1 387:-1 388:1.57673 389:-1 390:0.311619 391:-1 392:-1 393:-1 394:-1 395:-1 396:-1 397:-1 398:-1 399:-1 400:-1 401:-1 402:-1 403:-1 404:-1 405:-1 406:3.78129 407:2.01426 408:1.80265 409:-1 410:-1 411:-1 412:-1 413:-1 414:-1 415:-1 416:-1 417:-1 418:-1 419:-1 420:-1 421:-1 422:-1 423:-0.367469 424:-1 425:-1 426:0.717821 427:-1 428:0.586019 429:-1 430:-1 431:-1 432:-1 433:0.144157 434:-1 435:-1 436:0.953381 437:-1 438:-1 439:-1 440:-1 441:-1 442:-1 443:-1 444:-1 445:-1 446:-1 447:-1 448:-1 449:-1 450:-1 451:-1 452:-1 453:-1 454:-1 455:-0.427921 456:-1 457:-1 458:-0.735592 459:-1 460:-1 461:-1 462:-1 463:-1 464:0.525543 465:-1 466:-1 467:-1 468:2.89531 469:-1 470:-1 471:-1 472:-1 473:-1 474:1.39249 475:-1 476:-1 477:-1 478:-1 479:-0.683735 480:-1 481:-1 482:-1 483:-1 484:-1 485:1.28831 486:23.4613 487:-1 488:-1 489:10.964 490:-1 491:-1 492:-1 493:0.311619 494:-1 495:-1 496:-1 497:-1 498:-1 499:-1 500:3.61409 501:-1 502:-1 503:-1 504:1.13741 505:-1 506:-1 507:-1 508:-1 509:-1 510:4.98199 511:-1 512:-1 513:-1 514:-1 515:-1 516:-1 517:-1 518:-0.0233095 519:0.320838 520:-1 521:-1 522:-1 523:-1 524:-1 525:4.43659 526:-1 527:-1 528:-1 529:-1 530:-1 531:-1 532:1.0279 533:-1 534:-1 535:-1 536:-1 537:-1 538:-1 539:-1 540:-1 541:-1 542:2.2696 543:-1 544:-1 545:-1 546:2.56672 547:-1 548:-1 549:-1 550:-1 552:-1 553:-1 554:-1 555:-1 556:-1 557:-1 558:-1 559:-1 560:-1 561:-1 562:-1 563:-1 564:-1 565:-1 566:-1 567:-1 568:-1 569:-1 570:2.93486 571:-0.920933 572:-1 573:-1 574:-1 575:-1 576:-1 577:-1 578:-0.683735 579:-1 580:-1 581:-1 582:-1 583:-1 584:1.0279 585:-1 586:-1 587:-1 588:-1 589:-1 590:-1 591:-1 592:-1 593:-1 594:0.311619 595:-1 596:-1 597:-1 598:-1 599:-0.683735 600:-1 601:-1 602:-1 603:-1 604:-1 605:-1 606:-1 607:-1 608:-1 609:-1 610:1.0279 611:-1 612:-1 613:1.08355 614:-1 615:-1 616:-1 617:-0.680629 618:-1 619:-1 620:-0.841867 621:-1 622:3.90353 623:-1 624:-1 625:-1 626:1.28831 627:-1 628:-1 629:-1 630:-0.367469 631:-1 632:-1 633:-1 634:-1 635:-1 636:1.16729 637:-1 638:-1 639:-1 640:-1 641:-1 642:-1 643:-1 644:0.64043 645:-1 646:-1 647:-1 648:-1 649:-1 650:-1 651:-1 652:-1 653:-1 654:-1 655:1.80265 656:-1 657:-1 658:-1 659:-1 660:18.2988 661:-1 662:-1 663:-1 664:-1 665:-1 666:-1 667:0.0572857 668:-1 669:-1 670:-1 671:-1 672:0.041774 673:-1 674:1.80265 675:-0.374908 676:1.57673 677:-1 678:-1 679:0.625087 680:-1 681:1.56253 682:-1 683:-0.0233095 684:-1 685:-1 686:-1 687:-1 688:-1 689:-1 690:-1 691:-1 692:-1 693:-1 694:-1 695:-1 696:-1 697:-1 698:-1 699:-1 700:-1 701:-1 702:-1 703:-1 704:0.288366 705:1.88972 706:4.24676 707:-1 708:-1 709:-1 710:2.17204 711:-1 712:-1 713:1.16729 714:-1 715:-1 716:-1 717:-1 718:-1 719:-1 720:1.14876 721:-1 722:-1 723:-1 724:-1 725:0.131493 726:0.311619 727:-1 728:-1 729:-1 730:-1 731:-1 732:-1 733:-1 734:-1 735:-1 736:-1 737:-1 738:-1 739:-1 740:-1 741:-1 742:-1 743:-1 744:-1 745:-1 746:-1 747:-1 748:-1 749:-1 750:-1 751:0.320838 752:-1 753:0.854466 754:-1 755:-1 756:-1 757:-1 758:-1 759:-1 760:-1 761:1.62338 762:-1 763:-1 764:-1 765:-1 766:-1 767:-1 768:-1 769:-1 770:6.73019 771:-1 772:-1 773:-1 774:-1 775:-1 776:-1 777:-1 778:-1 779:-1 780:0.725468 781:-1 782:-1 783:-1 784:-1 785:-1 786:-1 787:-1 788:-1 789:0.953381 790:-1 791:-1 792:5.82966 793:-0.683735 794:-1 
19.2687163933257 0 0 0:12.5221 1:-1 2:-0.230303 3:-1 4:-1 5:-1 6:-1 7:0.904535 8:-1 9:-1 10:23.0862 11:2.58789 12:-0.424392 13:-0.656335 14:-1 15:-1 16:-1 17:-1 18:-1 19:-0.424392 20:-1 21:-1 22:-0.566014 23:-1 24:-1 25:-0.189675 26:-1 27:-1 28:-0.726284 29:-1 30:2.34331 31:-0.523615 32:0.547368 33:-1 34:-1 35:0.717835 36:-1 37:-1 38:-1 39:-1 40:-1 41:-1 42:-1 43:-1 44:-0.55312 45:-1 46:-0.737463 47:-0.413272 48:-1 49:-1 50:-0.950406 51:-1 52:-1 53:-1 54:-0.722707 55:-0.471933 56:-0.409193 57:-1 58:-1 59:-1 60:-1 61:-1 62:-1 63:-1 64:-1 65:-1 66:-1 67:0.58953 68:-1 69:-1 70:-0.824321 71:-1 72:2.17915 73:0.606595 74:1.34649 75:-1 76:-1 77:-1 78:-0.77089 79:-1 80:-0.354585 81:-1 82:-1 83:-1 84:-1 85:-1 86:-0.620087 87:-0.212352 88:2.34786 89:1.3799 90:0.826902 91:0.290367 92:-1 93:-1 94:-1 95:-1 96:-1 97:-1 98:0.114035 99:-1 100:-1 101:0.722709 102:-1 103:-1 104:-0.55312 105:-1 106:-0.9227 107:-1 108:-1 109:-0.486869 110:-1 111:-0.424392 112:2.93519 113:-1 114:-1 115:-1 116:-1 117:-1 118:-1 119:-1 120:-1 121:-1 122:-1 123:-0.513949 124:1.37984 125:0.735322 126:-0.365083 127:-1 128:-1 129:-1 130:-1 131:1.5812 132:0.702177 133:-1 134:-1 135:0.0290976 136:-0.826395 137:-0.354816 138:-1 139:-1 140:-1 141:-1 142:-0.212352 143:0.0559335 144:-0.801633 145:-1 146:-0.430493 147:-1 148:-0.354816 149:-0.656335 150:-1 151:-1 152:-0.801633 153:-1 154:1.43019 155:3.28645 156:-1 157:-0.530578 158:-1 159:-1 160:-1 161:-1 162:0.759607 163:-0.354585 164:-1 165:-1 166:-1 167:-1 168:-1 169:-1 170:-0.77648 171:-1 172:-1 173:0.391434 174:-1 175:-0.939929 176:-1 177:2.09413 178:-1 179:-0.59407 180:-0.4012 181:-1 182:-1 183:-1 184:-1 185:-0.613019 186:-0.277663 187:-1 188:-1 189:-1 190:-1 191:-1 192:-1 193:-0.406668 194:-0.424392 195:-0.205121 196:4.89451 197:0.670654 198:-1 199:-0.97206 200:-0.88824 201:-1 202:-0.828208 203:-1 204:-1 205:-0.424392 206:-1 207:-1 208:-1 209:1.34649 210:-1 211:-1 212:-1 213:-0.803017 214:-1 215:-1 216:-1 217:-1 218:1.01007 219:-1 220:-1 221:-1 222:-1 223:0.0249541 224:-1 225:-1 226:-1 227:-1 228:-1 229:-0.761807 230:1.34649 231:1.6187 232:-1 233:-1 234:0.0306273 235:-1 236:0.290367 237:0.173037 238:-1 239:-0.849178 240:-1 241:-1 242:-1 243:-0.656335 244:0.925551 245:-0.648082 246:-1 247:-1 248:-0.226316 249:-1 250:-0.606035 251:-1 252:-1 253:-0.606035 254:-1 255:-1 256:-0.905005 257:-1 258:-1 259:-1 260:0.173037 261:-1 262:-0.390887 263:-1 264:-0.205121 265:2.53437 266:-1 267:0.0307503 268:-0.77089 269:0.937032 270:-1 271:-0.905005 272:-0.613019 273:-0.016271 274:-1 275:-1 276:-1 277:-0.810078 278:0.197171 279:-0.609395 280:2.8687 281:-1 282:-0.226039 283:-1 284:-0.190083 285:-0.226039 286:-1 287:-0.785275 288:-0.228177 289:-1 290:-0.511709 291:-0.849128 292:-1 293:-0.0280146 294:-1 295:0.139013 296:-0.706636 297:0.717835 298:-1 299:-0.0611559 300:-0.77374 301:0.173037 302:-0.706636 303:-0.654251 304:-1 305:-1 306:-0.0123719 307:-1 308:-1 309:-1 310:-0.530578 311:0.154371 312:-1 313:-1 314:-1 315:-0.863093 316:-1 317:-0.310966 318:-1 319:-1 320:-1 321:-1 322:-1 323:0.95247 324:-0.706636 325:-1 326:-1 327:-1 328:-0.0946209 329:-0.698364 330:-1 331:-0.680101 332:-1 333:-1 334:-0.905005 335:-1 336:-1 337:-1 338:-1 339:-1 340:-1 341:-0.784463 342:-1 343:-0.910085 344:-0.905005 345:-1 346:-0.991734 347:-1 348:-1 349:0.571147 350:0.583822 351:-1 352:-1 353:-0.695444 354:-1 355:-1 356:-1 357:-1 358:-1 359:-0.656335 360:-1 361:-1 362:-1 363:-1 364:-1 365:1.34628 366:-1 367:-1 368:-0.970306 369:-0.77648 370:1.36323 371:-1 372:-1 373:-1 374:0.316521 375:-1 376:-0.212352 377:0.374416 378:-1 379:-0.96717 380:-0.133912 381:-0.67878 382:-0.949708 383:-1 384:-1 385:-0.390887 386:-1 387:-1 388:-1 389:-1 390:-0.606035 391:-1 392:0.173037 393:-1 394:-0.885486 395:-1 396:-1 397:2.83576 398:-0.801633 399:0.428815 400:-1 401:-1 402:-1 403:-1 404:0.0101254 405:-1 406:-1 407:-1 408:-1 409:-0.905039 410:-0.914116 411:-1 412:-1 413:-1 414:-0.640689 415:-0.905005 416:-1 417:-0.513833 418:0.351831 419:-1 420:-1 421:-1 422:-1 423:-0.52516 424:-1 425:-1 426:-0.226223 427:-0.753071 428:-0.523615 429:1.30157 430:-0.357996 431:-1 432:-1 433:-0.312915 434:-0.849128 435:-1 436:-0.413272 437:-1 438:-1 439:-1 440:-1 441:-1 442:-1 443:-1 444:-1 445:-1 446:-1 447:-1 448:-0.0473917 449:-1 450:-1 451:-1 452:-0.77648 453:-0.354816 454:-1 455:-1 456:-0.0473917 457:-0.212211 458:-0.84119 459:-0.391105 460:-1 461:0.836949 462:1.20933 463:-1 464:1.29045 465:-1 466:0.731556 467:1.87153 468:-1 469:-0.725783 470:-1 471:-1 472:-1 473:-1 474:-0.640689 475:-1 476:-1 477:-1 478:-0.226039 479:-1 480:-1 481:-1 482:-1 483:0.315362 484:-1 485:1.0615 486:19.9865 487:-0.349021 488:-1 489:-1 490:-1 491:-1 492:-1 493:-0.212211 494:-0.849128 495:0.270061 496:-1 497:-0.538029 498:-0.838646 499:-0.849128 500:-1 501:-1 502:-1 503:-0.467404 504:-1 505:-1 506:-1 507:-1 508:-1 509:-0.828167 510:0.796785 511:-1 512:-1 513:-0.712226 514:-1 515:-1 516:0.154545 517:-1 518:-0.706636 519:-0.0084487 520:-0.609395 521:-1 522:-1 523:-1 524:-1 525:-1 526:-1 527:-1 528:-1 529:-1 530:-1 531:-1 532:0.826902 533:-0.345974 534:-1 535:-0.226039 536:-1 537:-1 538:-1 539:-1 540:-1 541:-0.828208 542:-1 543:-1 544:-1 545:0.969261 546:-1 547:1.34312 548:-1 549:-1 550:0.197171 552:-0.523615 553:-1 554:-1 555:0.197171 556:-0.606035 557:-1 558:-1 559:-0.934365 560:-1 561:1.76545 562:-1 563:-0.547492 564:-1 565:-0.390887 566:-1 567:-1 568:-0.471933 569:-1 570:-0.212352 571:-1 572:-1 573:-1 574:-0.366495 575:-1 576:-1 577:-0.549282 578:-1 579:0.538843 580:-1 581:-0.55312 582:-1 583:-1 584:-1 585:-1 586:-1 587:-0.55312 588:-1 589:-1 590:-1 591:-1 592:-1 593:-1 594:-1 595:-1 596:-1 597:-1 598:-1 599:-0.240242 600:-0.715082 601:-1 602:-1 603:-0.588513 604:-0.226039 605:-1 606:-0.898485 607:-1 608:-1 609:-1 610:-1 611:-0.606035 612:-0.656335 613:-1 614:0.904535 615:-1 616:-1 617:-1 618:-0.656335 619:-1 620:-1 621:-1 622:-1 623:-1 624:-1 625:-1 626:-1 627:-1 628:-1 629:-1 630:-1 631:-1 632:1.65368 633:-1 634:-1 635:-1 636:-1 637:-0.3296 638:-1 639:-1 640:-0.132029 641:-1 642:-0.801633 643:-1 644:-0.26111 645:-0.801633 646:-1 647:-1 648:-1 649:-1 650:-0.640689 651:-0.656335 652:3.87159 653:-0.77648 654:-1 655:-0.15818 656:-1 657:-1 658:2.08729 659:-1 660:-1 661:-1 662:-1 663:-1 664:-1 665:-1 666:-1 667:0.587406 668:-1 669:7.26627 670:-1 671:-1 672:-1 673:-0.145827 674:-0.15818 675:-0.812244 676:-1 677:-0.0946209 678:0.547368 679:0.952131 680:-1 681:-1 682:-0.55312 683:-1 684:-1 685:-0.656335 686:-1 687:-0.413272 688:-1 689:-1 690:-1 691:-0.706636 692:-1 693:-0.391105 694:-1 695:-1 696:-1 697:-0.69824 698:-1 699:-1 700:0.0249541 701:-0.956493 702:-0.549282 703:-1 704:-1 705:-1 706:0.181613 707:-1 708:-1 709:-1 710:-1 711:1.94595 712:-0.354585 713:0.301491 714:-1 715:-1 716:-1 717:-1 718:-1 719:-1 720:-0.032109 721:-0.608988 722:-1 723:-1 724:-0.479217 725:-1 726:-0.606035 727:-1 728:-1 729:-1 730:-1 731:-1 732:-0.390887 733:-1 734:-0.905005 735:-0.444648 736:-1 737:-1 738:-1 739:-0.871521 740:-0.905005 741:-1 742:-0.706636 743:-1 744:-1 745:0.0559335 746:-0.226316 747:0.575578 748:-1 749:0.181613 750:0.743446 751:0.189918 752:-1 753:1.22767 754:-1 755:-1 756:-1 757:-0.485451 758:-1 759:-0.183518 760:-1 761:-0.803017 762:-1 763:-1 764:-0.900813 765:-1 766:1.77677 767:-0.619041 768:-0.737463 769:-1 770:0.547368 771:-1 772:-1 773:-0.8715 774:-1 775:-1 776:-1 777:-1 778:-1 779:-1 780:-0.481729 781:-1 782:-1 783:-0.925493 784:-1 785:-1 786:-0.98324 787:-1 788:0.173037 789:-0.413272 790:-1 791:-0.740864 792:1.0514 793:-0.905005 794:-1 
6.260174276190835 0 0 0:2.02006 1:-1 2:-1 3:-1 4:-1 5:-1 6:-1 7:-1 8:-1 9:-1 10:-1 11:-1 12:-1 13:-1 14:-0.91312 15:-1 16:-1 17:-1 18:-1 19:-1 20:-1 21:-1 22:-1 23:-0.982532 24:-1 25:-1 26:-1 27:-1 28:-1 29:-1 30:0.74227 31:-1 32:-1 33:-1 34:-1 35:-1 36:-1 37:-1 38:-1 39:-1 40:4.80031 41:-1 42:-1 43:-1 44:-1 45:-1 46:-1 47:4.50189 48:-1 49:-1 50:-1 51:-1 52:-1 53:-1 54:-1 55:-1 56:-0.384236 57:-1 58:-1 59:-0.30128 60:-1 61:-1 62:0.904077 63:-1 64:-1 65:-1 66:0.20303 67:-1 68:-1 69:-1 70:-1 71:-1 72:4.96403 73:0.674463 74:-1 75:-1 76:-1 77:-1 78:-1 79:-1 80:1.01756 81:-1 82:-1 83:-1 84:-1 85:-1 86:-1 87:-1 88:2.07868 89:-1 90:-1 91:-1 92:-1 93:-1 94:2.30083 95:-1 96:-1 97:-1 98:12.929 99:-1 100:-1 101:0.0773406 102:-1 103:-1 104:-1 105:-1 106:-1 107:0.834103 108:-1 109:-1 110:-1 111:-1 112:1.46097 113:-1 114:-1 115:-1 116:-1 117:-1 118:-1 119:-0.0479616 120:-1 121:0.871839 122:-1 123:-1 124:0.240185 125:-1 126:-1 127:-1 128:-1 129:4.42653 130:-1 131:-1 132:-1 133:-1 134:-1 135:-1 136:-1 137:0.00877801 138:0.60404 139:-1 140:-1 141:-1 142:-1 143:-1 144:-1 145:-1 146:-1 147:-1 148:0.00877801 149:-1 150:-1 151:-1 152:-0.379908 153:-1 154:-1 155:0.489173 156:-1 157:-1 158:-1 159:-1 160:-1 161:-1 162:-1 163:3.03511 164:-1 165:-1 166:-1 167:-1 168:1.41939 169:-1 170:-1 171:-1 172:-1 173:-1 174:-1 175:-1 176:-1 177:-1 178:-1 179:-1 180:-1 181:-1 182:-0.703046 183:-1 184:-1 185:0.209695 186:1.25801 187:-1 188:1.40606 189:-1 190:-1 191:-1 192:-1 193:0.854746 194:-1 195:-1 196:17.4262 197:2.48246 198:-1 199:-1 200:-1 201:-1 202:-1 203:-1 204:-1 205:-1 206:-1 207:-0.021839 208:-1 209:2.66821 210:-1 211:-0.851523 212:-1 213:-1 214:-1 215:-1 216:2.80815 217:-1 218:5.28448 219:-1 220:-1 221:0.602569 222:-1 223:-1 224:-1 225:-1 226:-1 227:-1 228:-1 229:-1 230:-1 231:3.09374 232:-1 233:-1 234:0.611439 235:-1 236:-1 237:-1 238:-1 239:-0.764182 240:-1 241:-1 242:-1 243:-1 244:-1 245:0.650602 246:-1 247:-1 248:-1 249:-1 250:-1 251:2.63462 252:-1 253:-1 254:-1 255:-1 256:-1 257:-1 258:0.620108 259:-1 260:-1 261:-1 262:-1 263:-1 264:-1 265:-1 266:-1 267:-1 268:0.43239 269:0.211373 270:1.04209 271:-1 272:-1 273:2.07586 274:-1 275:-1 276:-1 277:-1 278:-1 279:0.221026 280:-1 281:0.231528 282:-1 283:-1 284:-1 285:3.83878 286:-1 287:-1 288:-1 289:-0.851523 290:0.526389 291:-1 292:-1 293:0.519749 294:-1 295:6.12108 296:-1 297:0.0742927 298:-1 299:-1 300:-1 301:-1 302:-1 303:1.16161 304:-0.851523 305:-1 306:-1 307:-1 308:-1 309:-1 310:-1 311:-1 312:-1 313:-1 314:-1 315:-0.572031 316:-1 317:0.0773406 318:-1 319:-1 320:-1 321:3.97097 322:-1 323:1.03495 324:-1 325:-1 326:-1 327:-1 328:-1 329:-1 330:-1 331:-1 332:-1 333:-1 334:-1 335:-1 336:0.519749 337:-1 338:-1 339:-1 340:1.14859 341:-0.326236 342:15.7639 343:-1 344:-0.703046 345:-1 346:-1 347:-1 348:-1 349:-1 350:-0.174636 351:-1 352:-1 353:-1 354:-1 355:-1 356:-1 357:-1 358:-1 359:-1 360:-1 361:-1 362:-1 363:-1 364:-1 365:-1 366:9.09711 367:-1 368:-1 369:-1 370:-1 371:-1 372:-1 373:-1 374:-1 375:-1 376:0.231528 377:-1 378:-1 379:-1 380:-1 381:-1 382:-1 383:-1 384:-1 385:4.71179 386:-1 387:0.231528 388:-1 389:-1 390:-1 391:-1 392:-1 393:-1 394:-1 395:-1 396:-1 397:-1 398:-0.379908 399:-1 400:-1 401:-1 402:-1 403:-1 404:-1 405:-1 406:-1 407:-1 408:1.63152 409:-1 410:-1 411:-1 412:-1 413:-1 414:-1 415:-1 416:-1 417:-1 418:1.81787 419:-1 420:-1 421:-1 422:-1 423:-1 424:-1 425:22.7337 426:-1 427:-1 428:-1 429:-1 430:-1 431:-1 432:-1 433:0.0742927 434:-1 435:-0.161523 436:-1 437:-1 438:-0.572031 439:-1 440:-1 441:-1 442:-1 443:-1 444:-1 445:-1 446:-1 447:-1 448:-1 449:-1 450:2.59868 451:-1 452:-1 453:-1 454:-1 455:-1 456:-1 457:-0.384236 458:-0.627635 459:-1 460:-1 461:-1 462:1.30266 463:-1 464:2.58081 465:-1 466:1.70738 467:-1 468:2.65745 469:-1 470:-1 471:-1 472:-1 473:-1 474:1.2464 475:-1 476:-1 477:-1 478:-1 479:-0.703046 480:-1 481:-1 482:-1 483:0.0281342 484:-1 485:3.29717 486:8.84222 487:-1 488:-1 489:-1 490:-1 491:-1 492:-1 493:-1 494:-0.528376 495:-0.00727438 496:-1 497:-1 498:-0.495611 499:-1 500:-1 501:-1 502:-1 503:-1 504:-1 505:-1 506:-1 507:-1 508:-1 509:-1 510:4.61672 511:-1 512:-1 513:-1 514:-1 515:-1 516:-1 517:-1 518:-0.0829483 519:-1 520:0.221026 521:-1 522:0.416937 523:-1 524:-1 525:-1 526:-1 527:-1 528:-1 529:-1 530:-1 531:-1 532:0.904077 533:-1 534:-1 535:-1 536:-1 537:-1 538:-1 539:0.0742927 540:-1 541:-1 542:5.13989 543:-1 544:1.02129 545:-1 546:-1 547:2.66359 548:-0.30128 549:-1 550:-1 552:-1 553:-0.65064 554:-1 555:-1 556:-1 557:-1 558:-1 559:-1 560:1.03495 561:-0.279432 562:-1 563:-1 564:-1 565:2.80815 566:-1 567:0.799341 568:-1 569:-1 570:-1 571:-0.925761 572:-1 573:-1 574:1.64091 575:-1 576:1.46097 577:0.408937 578:-1 579:3.81212 580:-1 581:-0.30128 582:-1 583:-1 584:-1 585:-1 586:-1 587:-1 588:-1 589:-1 590:-1 591:-1 592:-1 593:-1 594:0.231528 595:-1 596:-1 597:-1 598:-1 599:-1 600:-1 601:-1 602:-1 603:-1 604:-1 605:-1 606:-1 607:-1 608:-1 609:-1 610:0.904077 611:-1 612:-1 613:-0.021839 614:-1 615:-1 616:-1 617:-1 618:-1 619:-1 620:-1 621:-1 622:3.60411 623:-1 624:-1 625:-1 626:-1 627:-1 628:-1 629:-1 630:-1 631:-1 632:-1 633:-1 634:-1 635:-1 636:1.03495 637:0.39744 638:-1 639:-1 640:-1 641:-1 642:-1 643:-1 644:-1 645:-1 646:-1 647:-1 648:-1 649:3.83878 650:-1 651:-1 652:-1 653:-1 654:-1 655:1.63152 656:-1 657:6.43952 658:-1 659:-1 660:-1 661:-1 662:-1 663:-1 664:-1 665:1.01756 666:-1 667:-0.00727438 668:-1 669:-1 670:-1 671:-1 672:-1 673:1.67013 674:-1 675:-1 676:-1 677:-1 678:-1 679:3.57722 680:-1 681:-1 682:-1 683:0.834103 684:-1 685:-1 686:-1 687:-1 688:-0.703046 689:-1 690:-1 691:-1 692:-1 693:-1 694:-1 695:-1 696:-1 697:-0.0567016 698:-1 699:-1 700:0.602569 701:-1 702:-1 703:-1 704:-1 705:-1 706:-1 707:-1 708:-0.30128 709:0.505084 710:0.489173 711:1.30266 712:-1 713:-1 714:-1 715:-1 716:-1 717:-1 718:-1 719:-1 720:1.01756 721:-1 722:-1 723:-1 724:-1 725:-1 726:-1 727:-1 728:-1 729:-1 730:-1 731:-1 732:-1 733:-1 734:-1 735:-1 736:-1 737:-1 738:0.39744 739:-1 740:-1 741:-1 742:-0.0829483 743:-1 744:-1 745:-1 746:3.8385 747:-1 748:-1 749:-1 750:1.72597 751:-1 752:-1 753:0.741228 754:13.086 755:2.08731 756:0.834103 757:-1 758:-1 759:-1 760:-1 761:-0.384236 762:-1 763:-1 764:-1 765:-1 766:0.240273 767:-1 768:-0.58951 769:-1 770:8.67701 771:-1 772:-1 773:-0.89956 774:-1 775:-1 776:-1 777:-1 778:-1 779:-0.624441 780:-1 781:-1 782:0.221026 783:-1 784:-1 785:-1 786:-1 787:-1 788:-1 789:-1 790:-1 791:-1 792:-1 793:-1 794:-0.819706 
