svm_type c_svc
kernel_type rbf
gamma 0.000488281
nr_class 6
total_sv 204
rho -0.267932 nan nan -2.9798 -2.82028 nan nan -0.600207 -0.677113 nan -1.42354 -2.52659 0.511343 -1.18481 -3.5767
label 0 1 2 3 4 5
nr_sv 29 36 23 15 32 69
SV
2.116933243820903 0 0 0.7856468056271524 1.693777568861805 0:-1 1:-1 2:-1 3:-1 4:-1 5:-1 6:-1 7:-1 8:-1 9:-1 10:0.296836 11:-1 12:-1 13:0.601108 14:-1 15:-1 16:-1 17:-1 18:-1 19:-1 20:-1 21:-1 22:-1 23:-1 24:-1 25:-1 26:-1 27:-1 28:-1 29:-1 30:-0.366992 31:-1 32:-1 33:0.981828 34:-1 35:-1 36:-1 37:-1 38:-1 39:-1 40:-1 41:-1 42:-1 43:-1 44:-1 45:-1 46:3.26568 47:-1 48:-1 49:-1 50:-1 51:-1 52:-1 53:-1 54:-1 55:-1 56:-1 57:-1 58:-1 59:-1 60:-1 61:-1 62:-1 63:-1 64:-1 65:-1 66:-1 67:-1 68:-1 69:-1 70:-1 71:-1 72:-1 73:-1 74:-1 75:-1 76:-1 77:2.76764 78:-1 79:-1 80:1.34673 81:-1 82:-1 83:-0.847099 84:-1 85:-1 86:-0.943167 87:-1 88:-1 89:1.52017 90:-1 91:-1 92:-1 93:-1 94:-1 95:-0.44222 96:-1 97:-1 98:-1 99:-1 100:-1 101:-1 102:-1 103:1.46219 104:-1 105:-1 106:-1 107:-1 108:-1 109:-1 110:-1 111:-1 112:-1 113:-1 114:-1 115:-1 116:-1 117:-1 118:-1 119:-1 120:-1 121:-1 122:-1 123:-1 124:-1 125:-1 126:-1 127:-1 128:-1 129:1.60122 130:-1 131:0.260083 132:-1 133:-1 134:-1 135:-1 136:-1 137:-1 138:-1 139:-1 140:-1 141:-1 142:-1 143:-1 144:-1 145:-1 146:-1 147:-1 148:-1 149:-1 150:-1 151:-1 152:-1 153:-1 154:-1 155:-1 156:-1 157:-1 158:-1 159:-1 160:-1 161:-1 162:-1 163:-0.98844 164:-1 165:-0.58962 166:-1 167:-1 168:-1 169:-1 170:-1 171:-1 172:-1 173:-1 174:-1 175:-0.609855 176:-1 177:-1 178:-1 179:-1 180:-1 181:-1 182:-1 183:-1 184:-1 185:-1 186:-1 187:-1 188:-1 189:-1 190:1.42755 191:-1 192:-1 193:-1 194:-1 195:-1 196:-1 197:-1 198:-1 199:-1 200:-1 201:-1 202:-1 203:-1 204:-1 205:-1 206:-1 207:-1 208:-1 209:-1 210:-1 211:-1 212:-1 213:-1 214:-1 215:-1 216:-1 217:-0.0520705 218:-1 219:-1 220:-1 221:-1 222:-1 223:-1 224:-1 225:-1 226:-1 227:0.630006 228:1.18484 229:1.49306 230:-1 231:-1 232:-1 233:-1 234:-1 235:1.52017 236:-1 237:-1 238:0.916446 239:-1 240:-1 241:-1 242:-1 243:-1 244:-1 245:0.156 246:-1 247:-1 248:-1 249:-1 250:-1 251:-1 252:-1 253:-1 254:-1 255:-1 256:-1 257:-1 258:-1 259:0.630006 260:-1 261:-1 262:-1 263:-1 264:-1 265:-1 266:-1 267:-1 268:-1 269:-1 270:-1 271:-1 272:-1 273:-1 274:-0.285228 275:-1 276:-0.217756 277:-1 278:-1 279:-1 280:-0.233066 281:-1 282:-1 283:-1 284:-1 285:-1 286:-1 287:-1 288:-1 289:-1 290:-1 291:-1 292:-1 293:-1 294:-1 295:-1 296:-1 297:-0.606963 298:-1 299:-1 300:-1 301:-1 302:-1 303:-1 304:-1 305:-1 306:-1 307:-1 308:-1 309:-1 310:-1 311:-1 312:-1 313:-1 314:-1 315:-1 316:-1 317:-1 318:-1 319:-1 320:-0.747211 321:-1 322:-1 323:-1 324:-1 325:-1 326:-1 327:-1 328:-1 329:2.56021 330:-1 331:-1 332:-1 333:-1 334:-1 335:-1 336:-1 337:-1 338:0.260083 339:-1 340:-1 341:-1 342:6.8834 343:-1 344:-1 345:-1 346:-1 347:-1 348:-1 349:-1 350:-1 351:-1 352:-1 353:-1 354:-1 355:-1 356:-1 357:-1 358:-1 359:-1 360:0.0619144 361:-1 362:-1 363:-1 364:-1 365:-1 366:-1 367:-1 368:-0.8844 369:-1 370:-1 371:-1 372:-1 373:-1 374:-0.163228 375:-1 376:-1 377:-1 378:-0.734118 379:-1 380:-1 381:-1 382:-1 383:-1 384:-1 385:-1 386:-1 387:-1 388:-1 389:-1 390:-1 391:2.18457 392:-1 393:-1 394:-1 395:-1 396:-1 397:-1 398:-1 399:-1 400:-1 401:-1 402:-1 403:-1 404:-1 405:-1 406:-1 407:-1 408:1.01148 409:-1 410:-1 411:-1 412:-1 413:-1 414:-1 415:-1 416:-1 417:1.42755 418:-1 420:-1 421:-1 422:-1 423:-1 424:-1 425:-1 426:-1 427:-1 428:-1 429:-1 430:-1 431:-1 432:-1 433:-1 434:-1 435:-1 436:-1 437:-0.428169 438:-1 439:-1 440:-1 441:-1 442:-1 443:-1 444:0.560686 445:-1 446:-1 447:-1 448:-1 449:-1 450:-1 451:-1 452:-1 453:-1 454:-1 455:-1 456:-1 457:-1 458:-1 459:-1 460:-1 461:2.46835 462:-1 463:-1 464:-1 465:-1 466:-1 467:-1 468:-1 469:-1 470:-1 471:-1 472:-1 473:-1 474:-1 475:-1 476:-1 477:-1 478:-1 479:-1 480:-1 481:-1 482:-1 483:-1 484:-1 485:-1 486:-1 487:-1 488:-1 489:-1 490:-1 491:-1 492:-0.502924 493:-1 494:-1 495:-1 496:-1 497:-1 498:-0.213858 499:-1 500:-1 501:-1 502:0.572215 503:-1 504:-1 505:-0.213858 506:-1 507:-1 508:-1 509:-1 510:-1 511:-1 512:-1 513:-1 514:-0.179269 515:-1 516:-1 517:-1 518:-1 519:-1 520:-1 521:-1 522:-1 523:-1 524:-1 525:-1 526:-1 527:-1 528:-1 529:-1 530:-1 531:-1 532:-1 533:-1 534:-1 535:-1 536:-0.0752 537:-1 538:-1 539:-1 540:-1 541:-1 542:-1 543:-1 544:-1 545:-1 546:-1 547:-1 548:-0.323106 549:-0.179269 550:-1 551:-0.369993 552:-1 553:0.630006 554:-1 555:-1 556:-1 557:5.04313 558:-1 559:-1 560:-1 561:-1 562:-1 563:-1 564:-1 565:-1 566:-1 567:-1 568:-1 569:0.971014 570:-1 571:-1 572:-1 573:-0.018759 574:-1 575:-1 576:-1 577:-1 578:2.13279 579:-1 580:-1 581:-1 582:-1 583:-1 584:-1 585:-1 586:-1 587:-1 588:-1 589:-1 590:-1 591:-1 592:-1 593:-1 594:-1 595:-1 596:-1 597:-1 598:-1 599:0.630006 600:1.0633 601:-1 602:-1 603:-1 604:-1 605:-1 606:-1 607:-1 608:1.34195 609:-1 610:-1 611:-1 612:0.20354 613:2.56052 614:-1 615:-1 616:-1 617:0.601108 618:-1 619:-1 620:-1 621:-1 622:-1 623:-1 624:-0.452392 625:-0.179202 626:-1 627:1.57576 628:-1 629:-1 630:-1 631:-1 632:-1 633:-1 634:2.28876 635:-1 636:-1 637:-1 638:-1 639:-1 640:-1 641:-1 642:-1 643:-1 644:-1 645:-1 646:-1 647:1.52017 648:-1 649:-1 650:-1 651:-1 652:-1 653:-1 654:-0.0752 655:-1 656:0.601108 657:-1 658:-1 659:-1 660:-1 661:-1 662:-1 663:-1 664:-1 665:0.335181 666:-1 667:1.20779 668:-1 669:-1 670:-1 671:-1 672:-1 673:-1 674:-1 675:-0.286772 676:-1 677:-1 678:-1 679:-1 680:-1 681:-1 682:-1 683:-1 684:-1 685:-1 686:0.919628 687:-1 688:1.46242 689:-1 690:-1 691:-1 692:-1 693:2.26951 694:-1 695:-1 696:-1 697:-1 698:-1 699:-1 700:-1 701:-1 702:-1 703:-1 704:-1 705:-1 706:-1 707:-1 708:-1 709:-1 710:-1 711:-1 712:-1 713:-1 714:-1 715:-1 716:-1 717:-1 718:-1 719:-1 720:-1 721:-1 722:-1 723:-1 724:-1 725:-1 726:-1 727:-1 728:0.824783 729:-1 730:1.22137 731:-1 732:-1 733:-1 734:-1 735:-1 736:-1 737:-1 738:-1 739:-1 740:-1 741:-1 742:-1 743:-1 744:-1 745:-1 746:-1 747:-1 748:-1 749:-1 750:-1 751:-1 752:-1 753:1.42755 754:-1 755:-1 756:-1 757:-1 758:-1 759:-1 760:-1 761:-1 762:-1 763:-1 764:-1 765:-1 766:-1 767:-1 768:-1 769:-1 770:-1 771:-1 772:-1 773:-1 774:-1 775:-1 776:-1 777:-1 778:7.00609 779:-1 780:-1 781:-1 782:-1 783:-1 784:-1 785:-1 786:-1 787:-1 788:-1 789:-1 790:-1 791:-1 792:-1 793:-1 794:-1 795:-1 796:-1 797:0.0440732 798:-1 799:-1 800:-1 801:-1 802:-1 803:-1 804:-1 805:-1 806:-1 807:-1 808:-1 809:-1 810:-1 811:-1 812:-1 813:-1 814:-1 815:-1 816:-1 817:-1 818:-1 819:-0.433555 820:-1 821:-1 822:-1 823:-1 824:-1 825:-0.803482 826:-1 827:-1 828:-1 829:-1 830:-1 831:-1 832:-1 833:-1 834:-1 835:-1 836:-1 837:-1 838:-1 839:-1 840:1.23123 841:-1 842:-1 843:-1 844:-1 845:-1 846:-1 847:-1 848:-1 849:-1 850:-1 851:-1 852:-1 853:-1 854:-1 855:0.981828 856:-1 857:-1 858:-1 859:-1 860:-1 861:-1 862:-1 863:-1 864:-1 865:-1 866:-1 867:-1 868:0.421894 869:-1 870:-1 871:-1 872:-1 873:-1 874:-1 875:-1 876:-1 877:-0.508273 878:-1 879:-1 880:-1 881:-1 882:-1 883:-1 884:-0.818878 885:-1 886:-1 887:-1 888:-1 889:-1 890:-1 891:-0.0908376 892:-1 893:-1 894:-1 895:-1 896:-1 897:-1 898:-1 899:-1 900:-1 901:-1 902:-1 903:-1 904:-1 905:-1 906:-1 907:-1 908:-1 909:-1 910:-1 911:-1 912:-1 913:-1 914:-1 915:-1 916:-1 917:-1 918:-1 919:-1 920:-1 921:-1 922:-1 923:-0.639505 924:-0.179269 925:-1 926:-1 927:-1 928:4.65683 929:1.84403 930:-1 931:-1 932:-0.297478 933:-1 934:-1 935:-1 936:-1 937:1.18484 938:3.87558 939:-1 940:-1 941:-1 942:-1 943:-1 944:-1 945:-1 946:-1 947:-1 948:-1 949:-1 950:-1 951:-1 952:-1 953:-1 954:-1 955:-1 956:-1 957:-1 958:-1 959:-1 960:-1 961:-1 962:-1 963:-1 964:-1 965:-1 966:-1 967:-0.45669 968:-1 969:3.26593 970:1.23123 971:-1 972:-1 973:-1 974:-1 975:-0.468191 976:-1 977:-0.414506 978:-1 
5.176404409937569 0 0 3.961578660232766 3.01382836782741 0:-1 1:-1 2:-1 3:-1 4:-1 5:-1 6:-1 7:-1 8:-1 9:-1 10:-1 11:-1 12:-1 13:1.34765 14:-1 15:-1 16:-1 17:-1 18:-1 19:-1 20:-1 21:-1 22:-1 23:-1 24:-1 25:-1 26:-1 27:-1 28:-1 29:-1 30:-1 31:-1 32:0.0903242 33:-1 34:-1 35:-1 36:-1 37:-1 38:-1 39:-1 40:-1 41:-1 42:-1 43:-1 44:-1 45:-1 46:-1 47:-1 48:-1 49:-1 50:-1 51:-1 52:-1 53:-1 54:-1 55:-1 56:-1 57:-1 58:-1 59:-1 60:-1 61:-1 62:-0.542416 63:-1 64:-1 65:-1 66:-1 67:-1 68:-1 69:-1 70:-1 71:-1 72:-1 73:-1 74:-1 75:-1 76:-1 77:-1 78:-1 79:-1 80:-1 81:-1 82:-1 83:-0.618917 84:-1 85:-0.77965 86:-0.958339 87:-1 88:-1 89:-1 90:-1 91:-1 92:-1 93:-1 94:-1 95:-1 96:0.635592 97:-1 98:-1 99:-1 100:-1 101:-1 102:-1 103:-1 104:-1 105:-1 106:-1 107:-1 108:-1 109:-1 110:-1 111:-1 112:-1 113:-1 114:-1 115:-1 116:-1 117:-1 118:-0.0121802 119:-1 120:-0.0368266 121:-1 122:-1 123:-1 124:-0.584771 125:-1 126:-1 127:-1 128:-1 129:-1 130:-1 131:-1 132:-1 133:-1 134:-1 135:-1 136:-1 137:-1 138:-1 139:-1 140:-1 141:-1 142:-1 143:-1 144:-0.719362 145:-1 146:-1 147:-1 148:-1 149:-1 150:-1 151:-1 152:-1 153:-1 154:-1 155:-1 156:-1 157:-1 158:-1 159:-1 160:-1 161:-1 162:-1 163:-0.974576 164:-1 165:-1 166:-1 167:-1 168:0.779504 169:-1 170:-1 171:2.27055 172:-1 173:-1 174:-0.85699 175:-0.714006 176:-1 177:1.34737 178:-1 179:-1 180:-0.398367 181:-1 182:-1 183:-1 184:-1 185:-1 186:-1 187:-1 188:-1 189:-1 190:-1 191:-1 192:-1 193:-1 194:-1 195:-1 196:-1 197:-1 198:-1 199:-1 200:-1 201:-1 202:-1 203:-1 204:-1 205:-1 206:-1 207:-1 208:-1 209:-1 210:1.35417 211:1.35277 212:-1 213:-1 214:-1 215:-1 216:-1 217:-1 218:-1 219:-1 220:-1 221:-1 222:-1 223:-1 224:-1 225:-1 226:-0.1526 227:-1 228:-1 229:-1 230:-1 231:-1 232:0.308577 233:-1 234:-1 235:-1 236:-1 237:-1 238:-1 239:-1 240:-1 241:-1 242:-1 243:-1 244:-1 245:-1 246:-1 247:4.87295 248:-1 249:-1 250:-1 251:-1 252:0.46031 253:-1 254:-1 255:-1 256:-1 257:-1 258:-1 259:-1 260:-1 261:-1 262:-0.692112 263:-1 264:-1 265:-1 266:-1 267:-1 268:-1 269:-1 270:-1 271:-1 272:-1 273:0.497702 274:-1 275:-1 276:-1 277:-1 278:-1 279:-1 280:-1 281:-1 282:-1 283:-1 284:-1 285:-1 286:-1 287:-1 288:-1 289:-1 290:-1 291:-1 292:-1 293:-1 294:-1 295:-1 296:-1 297:-1 298:-1 299:-1 300:-1 301:-1 302:-1 303:-1 304:-1 305:-1 306:-1 307:3.52707 308:-1 309:-0.021252 310:-1 311:-1 312:-1 313:-1 314:-0.599603 315:-1 316:-1 317:-1 318:-1 319:-1 320:-0.90734 321:-1 322:-1 323:-1 324:-1 325:-1 326:-1 327:-1 328:-1 329:-1 330:-1 331:-1 332:-1 333:-1 334:2.61001 335:-1 336:-1 337:-1 338:-1 339:-1 340:-1 341:-1 342:-1 343:-1 344:-1 345:-1 346:-1 347:-1 348:-1 349:-1 350:-1 351:-1 352:-1 353:-1 354:0.348127 355:-1 356:-1 357:-1 358:-1 359:-1 360:0.557046 361:-1 362:-1 363:-1 364:-1 365:-1 366:-1 367:-1 368:-1 369:-1 370:-1 371:-1 372:-1 373:-1 374:-1 375:-1 376:-1 377:-1 378:-1 379:-1 380:-1 381:-1 382:-1 383:-1 384:-0.432801 385:-1 386:-1 387:-1 388:-1 389:-1 390:-1 391:-1 392:-1 393:-1 394:-1 395:-0.402566 396:-1 397:-1 398:-1 399:-1 400:-1 401:-1 402:-1 403:-1 404:-1 405:-1 406:-1 407:-1 408:0.474508 409:-1 410:-1 411:-1 412:-1 413:-1 414:-1 415:-1 416:-1 417:-1 418:-1 420:-1 421:-1 422:-1 423:-1 424:-1 425:-1 426:-0.0847238 427:-1 428:-1 429:-1 430:-1 431:-1 432:-1 433:-1 434:-1 435:0.194867 436:-1 437:-0.371238 438:-0.237332 439:-1 440:-1 441:-1 442:-1 443:-1 444:-1 445:-1 446:-1 447:-1 448:-1 449:-1 450:-1 451:-1 452:-1 453:-1 454:-1 455:-1 456:-1 457:-1 458:-1 459:-1 460:-1 461:-1 462:-1 463:-1 464:-1 465:-1 466:-1 467:-1 468:-1 469:-1 470:-1 471:-1 472:-1 473:-1 474:-1 475:-1 476:-1 477:-1 478:-1 479:-1 480:-0.870337 481:-0.32208 482:-1 483:-1 484:-1 485:-1 486:-1 487:-1 488:-1 489:-1 490:-1 491:-1 492:-1 493:2.44499 494:-1 495:-1 496:-1 497:-1 498:-1 499:-1 500:-1 501:-1 502:-1 503:-1 504:-1 505:-1 506:-1 507:-1 508:-1 509:-1 510:-1 511:-1 512:-1 513:-1 514:1.40667 515:-1 516:-1 517:-1 518:-1 519:-1 520:-1 521:-1 522:-1 523:-1 524:-1 525:-1 526:-1 527:-1 528:-1 529:-1 530:-1 531:-1 532:-1 533:-1 534:-1 535:-1 536:-1 537:-1 538:-1 539:-1 540:-1 541:-1 542:-1 543:-1 544:-1 545:-1 546:-1 547:-1 548:0.488699 549:0.203408 550:-1 551:-1 552:0.076669 553:-1 554:-1 555:-1 556:-1 557:-1 558:-1 559:-1 560:-1 561:-1 562:-1 563:-1 564:0.566938 565:-1 566:-1 567:-1 568:-1 569:-1 570:-1 571:-1 572:2.91545 573:-1 574:-1 575:-1 576:-1 577:-1 578:-1 579:-1 580:-1 581:-1 582:-1 583:-1 584:-1 585:-1 586:-1 587:-1 588:-1 589:-1 590:-1 591:-0.0763026 592:3.68232 593:-1 594:-1 595:-1 596:-1 597:-1 598:-1 599:-1 600:-0.495865 601:-1 602:-1 603:-0.799151 604:-1 605:-1 606:-1 607:-1 608:-0.656673 609:-1 610:-1 611:-1 612:5.17616 613:-1 614:-1 615:-1 616:-1 617:-1 618:-1 619:-1 620:-1 621:-1 622:-1 623:-1 624:-1 625:-1 626:-1 627:2.77674 628:-1 629:-1 630:-1 631:1.99047 632:0.601714 633:-1 634:1.41081 635:-1 636:-1 637:-1 638:-0.778874 639:-1 640:-1 641:-1 642:-0.464552 643:-1 644:-1 645:-1 646:-1 647:-1 648:7.07367 649:-1 650:-1 651:1.34737 652:-1 653:-1 654:-1 655:-1 656:-1 657:-0.45676 658:-1 659:-1 660:-1 661:-1 662:-1 663:-1 664:-1 665:-1 666:-1 667:-1 668:-1 669:-1 670:-1 671:-1 672:-1 673:-1 674:-1 675:-1 676:-1 677:-1 678:-1 679:-1 680:-1 681:-1 682:0.444842 683:-1 684:-1 685:-1 686:0.407174 687:-1 688:-0.699155 689:-1 690:-1 691:-1 692:1.358 693:-1 694:-1 695:0.292556 696:-1 697:-1 698:-1 699:-1 700:-1 701:-1 702:-0.540705 703:-1 704:-1 705:-1 706:-1 707:-1 708:-1 709:-1 710:-1 711:-1 712:-1 713:-1 714:-1 715:-1 716:-1 717:-1 718:-1 719:-1 720:0.0676578 721:0.0169207 722:-1 723:-1 724:-1 725:-1 726:-1 727:-1 728:-1 729:-1 730:-1 731:-1 732:-1 733:-1 734:-1 735:-1 736:-1 737:-1 738:0.100662 739:-1 740:-1 741:-1 742:-1 743:-1 744:-1 745:-1 746:-1 747:-1 748:-1 749:-1 750:-1 751:-1 752:-1 753:-1 754:-1 755:-1 756:0.322203 757:-1 758:-1 759:-1 760:-1 761:-1 762:-1 763:-1 764:-1 765:-0.60173 766:-1 767:-1 768:-1 769:-1 770:-1 771:-1 772:-1 773:-1 774:-1 775:-1 776:0.779504 777:-1 778:1.34765 779:-1 780:-0.542416 781:-1 782:-1 783:-1 784:-1 785:-1 786:-1 787:-1 788:0.251514 789:-1 790:-1 791:-0.7133 792:-1 793:-1 794:-1 795:-1 796:-1 797:4.54893 798:-1 799:-1 800:0.444842 801:-1 802:-1 803:-1 804:-1 805:-1 806:-1 807:-1 808:-0.729516 809:-1 810:-1 811:1.34737 812:-1 813:-1 814:-1 815:-0.252404 816:-1 817:-1 818:-1 819:-1 820:-1 821:-1 822:-1 823:-0.127202 824:-1 825:-1 826:-1 827:-0.0847238 828:-1 829:-1 830:-1 831:-1 832:-1 833:-1 834:-1 835:-1 836:-1 837:-1 838:-1 839:-1 840:-1 841:-1 842:-1 843:-1 844:-1 845:-1 846:-1 847:-1 848:-1 849:-1 850:-1 851:-1 852:-1 853:-1 854:-1 855:-1 856:-1 857:-1 858:-1 859:-1 860:-1 861:-1 862:-1 863:-1 864:-1 865:-1 866:-1 867:-1 868:0.0423124 869:-1 870:-1 871:-1 872:-1 873:-1 874:-0.601673 875:-1 876:-1 877:-1 878:-1 879:-1 880:-1 881:-1 882:-1 883:-1 884:-1 885:-1 886:-1 887:-1 888:-1 889:-1 890:-1 891:-0.333543 892:-1 893:-1 894:-1 895:-1 896:-1 897:-1 898:-1 899:-1 900:-0.282047 901:-1 902:-0.888768 903:-1 904:-1 905:-1 906:-1 907:-1 908:-1 909:-1 910:-1 911:-1 912:-1 913:-1 914:0.0676578 915:-1 916:-1 917:-0.0561768 918:-1 919:2.55943 920:-1 921:-1 922:-1 923:0.321358 924:-1 925:-1 926:-1 927:-1 928:-1 929:-1 930:-1 931:-1 932:0.030082 933:-1 934:-1 935:-1 936:-1 937:-1 938:-1 939:-1 940:0.0652881 941:-1 942:-1 943:-1 944:-1 945:-1 946:-1 947:-1 948:-1 949:-1 950:-1 951:-1 952:-1 953:-1 954:-1 955:-1 956:-1 957:-1 958:-1 959:-1 960:-1 961:-1 962:-1 963:-1 964:-1 965:-1 966:-1 967:-1 968:-1 969:1.08487 970:-1 971:-1 972:-1 973:-1 974:-1 975:-0.610148 976:-1 977:2.43375 978:-1 
2.236507444912764 0 0 1.062245722555428 2.547705885240502 0:0.743289 1:1.29675 2:-1 3:-1 4:-1 5:-1 6:-1 7:-1 8:-1 9:-1 10:-0.524568 11:-0.0135796 12:-1 13:-1 14:-1 15:-1 16:1.17282 17:0.974837 18:-1 19:-1 20:-1 21:-1 22:-1 23:0.957496 24:-1 25:-1 26:-1 27:0.590167 28:-1 29:-1 30:-0.767933 31:-0.510511 32:-1 33:1.90588 34:-0.416253 35:-1 36:-1 37:-1 38:-1 39:-1 40:-0.021252 41:-1 42:-1 43:-0.0974796 44:-0.402425 45:-1 46:0.563838 47:-1 48:-0.265881 49:-0.478721 50:-1 51:-1 52:-1 53:-1 54:-1 55:-1 56:-1 57:0.362487 58:-1 59:-1 60:-1 61:-0.644015 62:-1 63:-1 64:-1 65:-1 66:-0.978302 67:-1 68:2.27055 69:-1 70:-1 71:-1 72:-1 73:-1 74:-1 75:-1 76:-1 77:1.07137 78:-1 79:-1 80:-0.139667 81:-1 82:-0.384202 83:-1 84:-1 85:-0.944906 86:-1 87:-1 88:-1 89:-0.0760846 90:-1 91:-1 92:-1 93:-1 94:-1 95:-0.591122 96:-1 97:-1 98:-1 99:-0.567795 100:-0.855909 101:-1 102:-0.836535 103:-1 104:-1 105:-1 106:-1 107:-1 108:-0.0758831 109:-1 110:-1 111:-1 112:-1 113:-1 114:0.173961 115:-1 116:-1 117:-0.277408 118:-1 119:-1 120:-1 121:-1 122:-1 123:0.635662 124:-0.792336 125:-0.75075 126:-1 127:-1 128:-1 129:-0.364434 130:-1 131:-0.0763026 132:-1 133:-1 134:-1 135:-1 136:-1 137:-1 138:-0.815651 139:-1 140:-1 141:-0.855909 142:-1 143:-0.83048 144:-1 145:-0.855909 146:-1 147:-0.402425 148:-0.768832 149:-1 150:-1 151:-1 152:-1 153:-0.962935 154:-1 155:-1 156:-0.252404 157:-1 158:-1 159:-1 160:-1 161:-1 162:-1 163:-0.944916 164:-1 165:-1 166:-0.199017 167:-1 168:-1 169:-1 170:-0.481717 171:-1 172:0.217879 173:-1 174:-1 175:-1 176:2.03389 177:-1 178:-0.771154 179:-1 180:-0.699113 181:-1 182:-1 183:-1 184:-1 185:-1 186:-1 187:2.54044 188:-1 189:-1 190:-0.110038 191:-0.858194 192:-1 193:-1 194:1.29648 195:-1 196:-1 197:-0.74564 198:-1 199:-1 200:-1 201:-1 202:-1 203:-1 204:-1 205:0.316558 206:-1 207:-1 208:-1 209:-1 210:-1 211:0.56848 212:-0.564887 213:-1 214:-1 215:-1 216:-1 217:0.0423944 218:-1 219:-1 220:0.597662 221:-1 222:-1 223:-1 224:-1 225:-1 226:-0.5762 227:-0.402425 228:-0.199017 229:-0.817217 230:-1 231:-1 232:-0.345789 233:-1 234:-1 235:-1 236:-1 237:-0.234508 238:-1 239:-0.36395 240:-1 241:-1 242:-1 243:-1 244:-0.73936 245:-0.5762 246:-0.95762 247:-0.021021 248:0.304897 249:1.60979 250:-0.896462 251:-0.154767 252:-1 253:-0.771154 254:-1 255:-1 256:-0.848443 257:-1 258:-1 259:-0.402425 260:-1 261:-1 262:-1 263:-1 264:-1 265:-1 266:-1 267:-1 268:-1 269:-0.712873 270:-1 271:-1 272:-1 273:-1 274:-1 275:-0.60868 276:-0.713222 277:-0.111344 278:-1 279:-1 280:-0.718835 281:0.0552789 282:-1 283:-1 284:0.787431 285:-1 286:-1 287:-1 288:-1 289:-1 290:-1 291:-1 292:-1 293:-0.482287 294:-1 295:-1 296:-0.425745 297:-0.855909 298:-0.277408 299:-1 300:-1 301:-0.640115 302:-1 303:-1 304:-1 305:-1 306:-0.693698 307:-0.24537 308:-1 309:-1 310:-1 311:-1 312:-1 313:0.444842 314:-1 315:-0.855943 316:0.786256 317:-1 318:-1 319:-1 320:-0.976832 321:-1 322:-1 323:-0.402425 324:-1 325:-1 326:-1 327:-1 328:-0.836022 329:-1 330:-1 331:-1 332:-1 333:-1 334:-1 335:-1 336:-1 337:-1 338:-0.0763026 339:0.635615 340:-1 341:-1 342:-1 343:-1 344:-1 345:-1 346:-1 347:-1 348:-0.783898 349:-1 350:-1 351:-0.417377 352:-1 353:-1 354:-1 355:-0.851063 356:-1 357:-0.6458 358:0.682017 359:-0.14694 360:-0.610693 361:-0.398367 362:-1 363:-1 364:-1 365:-1 366:-0.947588 367:-1 368:-0.95762 369:-1 370:-1 371:-1 372:-1 373:-1 374:-1 375:-1 376:-1 377:-1 378:-0.805097 379:-1 380:-1 381:-1 382:-1 383:-1 384:-1 385:-1 386:-1 387:0.601663 388:-1 389:-0.707401 390:-1 391:-1 392:-0.478721 393:0.0369464 394:-1 395:-0.701213 396:-1 397:-0.711886 398:0.20569 399:-1 400:-1 401:-1 402:-1 403:-1 404:-1 405:-1 406:-1 407:-0.870433 408:-1 409:-1 410:-1 411:-0.0385662 412:-1 413:0.779504 414:-1 415:-1 416:-0.0486454 417:-1 418:-1 420:-1 421:-1 422:-1 423:-1 424:-1 425:-1 426:-1 427:-1 428:-0.66104 429:-1 430:0.888592 431:-0.855943 432:-1 433:-1 434:-0.430549 435:-0.402425 436:-1 437:-1 438:-1 439:-1 440:-1 441:-0.158793 442:-1 443:-1 444:-0.427839 445:-1 446:-1 447:1.19059 448:-0.0763026 449:0.69488 450:-0.463069 451:-0.140888 452:-1 453:-1 454:-0.611086 455:-1 456:-1 457:-1 458:-1 459:-1 460:-1 461:-1 462:-1 463:-1 464:-0.555019 465:-1 466:-1 467:-1 468:-1 469:-1 470:-1 471:2.44499 472:-0.402425 473:-1 474:-1 475:-1 476:-0.73936 477:-1 478:-1 479:-1 480:-1 481:-0.66096 482:-1 483:-1 484:-1 485:-1 486:-0.699113 487:-1 488:-0.0954211 489:-1 490:-1 491:-1 492:-0.453388 493:-0.425745 494:-1 495:-1 496:-0.0760846 497:0.0423124 498:-0.711886 499:-1 500:-1 501:-1 502:-0.423705 503:-1 504:-1 505:-0.567795 506:-1 507:0.635662 508:-1 509:-0.927955 510:-0.720358 511:-1 512:-1 513:-1 514:-1 515:-1 516:0.0425584 517:-1 518:-1 519:-1 520:-1 521:-1 522:-1 523:-0.600584 524:3.80423 525:-0.7419 526:-0.902525 527:1.29648 528:-1 529:-1 530:-1 531:-1 532:-1 533:-1 534:-1 535:-0.484867 536:-0.32208 537:-1 538:-1 539:-1 540:1.24299 541:-1 542:-1 543:-1 544:-0.972453 545:-1 546:-1 547:-1 548:-0.751844 549:0.203408 550:-1 551:-0.30721 552:-1 553:0.194867 554:-1 555:-1 556:-1 557:-1 558:-1 559:-1 560:-0.182011 561:-1 562:-1 563:-1 564:-1 565:-1 566:-1 567:-1 568:-0.402425 569:-1 570:-1 571:-0.478721 572:-1 573:-0.640268 574:-1 575:-1 576:-1 577:1.53485 578:0.148509 579:0.117321 580:-1 581:-1 582:-0.28797 583:-1 584:-1 585:-1 586:-1 587:-1 588:-1 589:-1 590:-0.886987 591:-1 592:-1 593:-1 594:-0.28797 595:-1 596:0.601663 597:-1 598:-0.850906 599:-0.402425 600:-0.747873 601:-1 602:-1 603:-1 604:-1 605:-1 606:-0.860243 607:-0.402425 608:-1 609:1.34532 610:-1 611:-1 612:1.20573 613:-0.347398 614:-1 615:-1 616:-1 617:-1 618:-0.783898 619:-1 620:-0.021021 621:-1 622:-1 623:-1 624:-0.598579 625:-1 626:-1 627:-1 628:-1 629:-1 630:-1 631:-1 632:-1 633:-1 634:-1 635:-1 636:0.84341 637:-1 638:-1 639:-1 640:-1 641:1.77131 642:-1 643:-0.564887 644:-1 645:-1 646:0.0425584 647:-1 648:-1 649:0.504153 650:-1 651:-1 652:-1 653:-1 654:-0.32208 655:-1 656:-1 657:-1 658:-1 659:0.148509 660:-1 661:-1 662:-1 663:-1 664:-1 665:-1 666:-1 667:-1 668:-1 669:-1 670:-1 671:-1 672:-0.921377 673:-1 674:-1 675:-0.477172 676:-1 677:-1 678:-0.110248 679:0.6952 680:1.88919 681:-1 682:-1 683:-0.66096 684:-1 685:-1 686:-0.296247 687:-1 688:-0.924793 689:-1 690:-0.4838 691:-1 692:-0.606937 693:-0.400735 694:-1 695:-1 696:-0.626202 697:0.635662 698:-1 699:-1 700:-1 701:-1 702:-1 703:-1 704:-1 705:-1 706:-0.239957 707:-1 708:-1 709:-1 710:-1 711:-1 712:-1 713:-1 714:-1 715:0.117321 716:-0.110038 717:-1 718:-1 719:-1 720:-0.466045 721:-0.49142 722:-1 723:-1 724:-1 725:-1 726:-1 727:-1 728:-1 729:-1 730:-1 731:-1 732:-1 733:2.10972 734:-0.855909 735:-0.425745 736:-1 737:-1 738:-1 739:-1 740:-1 741:-1 742:-0.427839 743:-1 744:-1 745:-1 746:-1 747:-0.402425 748:-1 749:-1 750:-0.402425 751:-1 752:1.68073 753:-1 754:-1 755:-1 756:-1 757:-0.525367 758:-0.932888 759:-1 760:-1 761:1.6274 762:1.29648 763:-0.836137 764:-1 765:-1 766:-1 767:-1 768:-1 769:-0.836837 770:-1 771:-1 772:-1 773:-1 774:-1 775:-1 776:-1 777:-1 778:-1 779:-1 780:-1 781:-0.182011 782:-1 783:-1 784:-1 785:-1 786:-0.384202 787:-1 788:-0.374095 789:-1 790:-1 791:-1 792:-0.494332 793:-1 794:-1 795:-1 796:-1 797:-1 798:-1 799:0.121344 800:-0.277408 801:-1 802:-1 803:-0.482287 804:-1 805:-1 806:-1 807:-1 808:-1 809:-1 810:-1 811:-1 812:-0.543467 813:1.45358 814:-1 815:-1 816:-1 817:-0.792336 818:-1 819:-0.792336 820:-1 821:-1 822:-1 823:-1 824:-0.944906 825:-1 826:-1 827:-0.542416 828:-1 829:-1 830:-1 831:-1 832:-1 833:-1 834:-0.863617 835:-1 836:-0.123837 837:-1 838:-1 839:-1 840:0.635592 841:-1 842:-0.525367 843:0.519727 844:-1 845:-1 846:-1 847:1.84778 848:-1 849:-1 850:-0.794461 851:-1 852:-1 853:0.01696 854:-1 855:-0.273444 856:-1 857:-0.427839 858:-1 859:-0.213875 860:-1 861:-1 862:-0.413019 863:-0.731487 864:-1 865:-1 866:-1 867:0.345824 868:-0.478721 869:-0.28797 870:-1 871:-1 872:-1 873:-0.610155 874:-1 875:-1 876:-0.15606 877:-0.459271 878:-1 879:-1 880:-1 881:-1 882:-1 883:-0.709546 884:-1 885:-1 886:-0.66096 887:-1 888:2.36938 889:-1 890:1.34737 891:-0.666693 892:-1 893:-1 894:-1 895:-0.677365 896:-1 897:-0.525367 898:-1 899:-1 900:-1 901:-1 902:-1 903:-1 904:-1 905:-1 906:-0.110038 907:-1 908:-1 909:0.635592 910:-1 911:0.267724 912:0.779504 913:-1 914:-1 915:-1 916:-1 917:-1 918:0.362701 919:-1 920:1.11688 921:-1 922:-1 923:-1 924:-1 925:-1 926:0.876882 927:-1 928:-0.308759 929:2.12718 930:-0.66096 931:-1 932:-0.742449 933:-0.852936 934:-0.0125815 935:-1 936:0.0170386 937:0.601588 938:0.787431 939:-1 940:-1 941:-1 942:-1 943:-1 944:-0.771154 945:-1 946:-1 947:-1 948:-1 949:-1 950:-1 951:-1 952:-1 953:-1 954:-1 955:-1 956:-1 957:-1 958:-1 959:-0.252294 960:0.408441 961:0.521177 962:-1 963:-1 964:-1 965:-1 966:-0.644015 967:-1 968:-1 969:-0.478721 970:-1 971:-1 972:0.902154 973:-0.746667 974:-0.35475 975:-0.805097 976:-1 977:-0.356159 978:-1 
0.3683158767508138 0 0 0 0 0:0.246735 1:-1 2:-1 3:-1 4:-1 5:-1 6:-1 7:-1 8:-1 9:-1 10:-1 11:-1 12:-1 13:-1 14:-1 15:-1 16:-1 17:-1 18:-1 19:-1 20:0.70925 21:-1 22:-1 23:-1 24:-1 25:-1 26:-1 27:-1 28:-1 29:-1 30:-1 31:-1 32:-1 33:-1 34:-1 35:-1 36:-1 37:-1 38:-1 39:-1 40:-1 41:-1 42:-1 43:-1 44:-1 45:-1 46:-1 47:-1 48:-1 49:-1 50:-1 51:-1 52:-1 53:-1 54:-1 55:-1 56:-1 57:-1 58:-1 59:-1 60:-1 61:-1 62:-1 63:-1 64:-1 65:-1 66:-1 67:-1 68:-1 69:-1 70:-1 71:-1 72:-1 73:-1 74:-1 75:-1 76:-1 77:-1 78:-1 79:-1 80:-1 81:-1 82:-1 83:-0.679375 84:-1 85:-1 86:-1 87:-1 88:-1 89:-1 90:-1 91:-1 92:-1 93:-1 94:-1 95:-1 96:-1 97:-1 98:-1 99:-1 100:-1 101:-1 102:-1 103:-1 104:-1 105:-1 106:-1 107:-1 108:-1 109:-1 110:-1 111:-1 112:-1 113:-1 114:-1 115:-1 116:-1 117:-1 118:-1 119:-1 120:-1 121:-1 122:-1 123:-1 124:-1 125:-1 126:-1 127:-1 128:-1 129:75.3656 130:-1 131:-1 132:-1 133:-1 134:-1 135:-1 136:-1 137:-1 138:-1 139:-1 140:-1 141:-1 142:-1 143:-1 144:-1 145:-1 146:-1 147:-1 148:-1 149:-1 150:-1 151:-1 152:-1 153:-1 154:-1 155:-1 156:-1 157:-1 158:-1 159:-1 160:-1 161:-1 162:-1 163:-0.951516 164:-1 165:-1 166:-1 167:-1 168:-1 169:-1 170:-1 171:-1 172:-1 173:-1 174:-1 175:-0.590888 176:-1 177:-1 178:-1 179:-1 180:-1 181:-1 182:0.272785 183:-1 184:-1 185:-1 186:-1 187:1.02574 188:-1 189:-1 190:-1 191:-1 192:-1 193:1.59794 194:-1 195:-1 196:-1 197:-1 198:-1 199:-1 200:-1 201:-1 202:-1 203:-1 204:-1 205:-1 206:-1 207:-1 208:-1 209:-1 210:-1 211:0.682584 212:-1 213:-1 214:-1 215:-1 216:-1 217:-1 218:-1 219:-1 220:-1 221:-1 222:-1 223:-1 224:-1 225:-1 226:-1 227:-1 228:-1 229:-0.477185 230:-1 231:-1 232:-1 233:-1 234:-1 235:-1 236:-1 237:-1 238:-1 239:-1 240:-1 241:-0.793928 242:-1 243:-1 244:-1 245:-1 246:-1 247:-1 248:-1 249:-1 250:-1 251:-1 252:-1 253:-1 254:-1 255:-1 256:-1 257:-1 258:-1 259:4.12747 260:-1 261:-1 262:-1 263:-1 264:-1 265:-1 266:-1 267:-1 268:-1 269:-1 270:-1 271:-1 272:-1 273:-1 274:-1 275:-1 276:-1 277:-1 278:-1 279:-1 280:-1 281:-1 282:-1 283:-1 284:-1 285:-1 286:-1 287:-1 288:-1 289:-1 290:-1 291:-1 292:-1 293:-1 294:-1 295:-1 296:-1 297:-1 298:-1 299:-1 300:-1 301:-1 302:-1 303:-1 304:-1 305:-1 306:-1 307:-1 308:2.83365 309:-1 310:-1 311:-1 312:-1 313:-1 314:-1 315:-1 316:-1 317:-1 318:-1 319:-1 320:-1 321:-1 322:-1 323:-1 324:-1 325:-1 326:-1 327:-1 328:-1 329:-1 330:-1 331:-1 332:-1 333:-1 334:-1 335:-1 336:-1 337:-1 338:-1 339:-1 340:-1 341:-1 342:-1 343:-1 344:-1 345:-1 346:-1 347:-1 348:-1 349:-1 350:1.10014 351:-1 352:-1 353:-1 354:-1 355:-1 356:-1 357:-1 358:-1 359:-1 360:-1 361:-1 362:-1 363:-1 364:-1 365:-1 366:-1 367:-1 368:-1 369:-1 370:-1 371:-1 372:-1 373:0.491021 374:-1 375:-1 376:-1 377:-1 378:-1 379:-1 380:-1 381:-1 382:-1 383:-1 384:-0.837733 385:-1 386:-1 387:-1 388:-1 389:-1 390:-1 391:-1 392:-1 393:-1 394:-1 395:-1 396:-1 397:-1 398:-1 399:-1 400:-1 401:-1 402:-0.0683268 403:-1 404:-1 405:-1 406:-0.531861 407:-1 408:-1 409:-1 410:-1 411:-1 412:-1 413:-1 414:-1 415:-1 416:-1 417:-1 418:-1 420:-0.396975 421:-1 422:-1 423:-1 424:-1 425:-1 426:-1 427:-1 428:-0.51512 429:-1 430:-1 431:-1 432:-1 433:-1 434:-1 435:-1 436:-1 437:-1 438:-1 439:-1 440:-1 441:-1 442:-1 443:-1 444:-1 445:-1 446:-1 447:-1 448:-1 449:-1 450:-1 451:-1 452:-1 453:-1 454:-1 455:-1 456:-1 457:-1 458:-1 459:-1 460:-1 461:-1 462:-1 463:-1 464:-1 465:-1 466:-1 467:-1 468:-1 469:-1 470:-1 471:-1 472:-1 473:-1 474:-1 475:-1 476:-1 477:-1 478:-1 479:-1 480:-1 481:-1 482:-1 483:-1 484:-1 485:-1 486:-1 487:-1 488:-1 489:-1 490:-1 491:-1 492:-0.478758 493:-1 494:-0.721192 495:-1 496:-1 497:-1 498:-1 499:-1 500:-1 501:-1 502:-1 503:-1 504:-0.716451 505:-1 506:-1 507:-1 508:-1 509:-1 510:-1 511:-1 512:-1 513:-1 514:-1 515:-1 516:-1 517:-1 518:-1 519:-1 520:-1 521:-1 522:-1 523:-1 524:-1 525:-1 526:-1 527:-1 528:-1 529:-1 530:-1 531:-1 532:-1 533:-1 534:-1 535:-1 536:-1 537:-1 538:-1 539:-1 540:-1 541:-1 542:-1 543:-1 544:-1 545:-1 546:-1 547:-1 548:0.419487 549:4.16351 550:-1 551:-1 552:-1 553:-1 554:-1 555:-1 556:-1 557:0.584161 558:-1 559:-1 560:-1 561:-1 562:-1 563:-1 564:-1 565:-1 566:-1 567:-1 568:-1 569:-1 570:-1 571:-1 572:-1 573:-1 574:-1 575:-1 576:-1 577:-1 578:-1 579:-1 580:-1 581:-1 582:-1 583:-1 584:-1 585:-1 586:-1 587:-1 588:-1 589:-1 590:-1 591:-1 592:-1 593:-1 594:-1 595:-1 596:-1 597:-1 598:-1 599:-1 600:-0.278839 601:-1 602:-1 603:-1 604:-1 605:-1 606:-1 607:-1 608:0.964346 609:5.70836 610:-1 611:-0.363608 612:-1 613:-1 614:-1 615:-1 616:-1 617:-1 618:-1 619:-1 620:-1 621:-1 622:-1 623:-1 624:-1 625:-1 626:-1 627:-1 628:-1 629:-1 630:-1 631:-1 632:-1 633:-1 634:-1 635:-1 636:-1 637:-1 638:-1 639:-1 640:-1 641:-1 642:-1 643:-1 644:-1 645:-1 646:-1 647:-1 648:-1 649:-1 650:-1 651:-1 652:-1 653:-1 654:-1 655:-1 656:-1 657:-1 658:-1 659:-1 660:-1 661:-1 662:-1 663:-1 664:-1 665:-1 666:-1 667:-1 668:-1 669:-1 670:-1 671:-1 672:-1 673:-1 674:-1 675:-0.252098 676:-1 677:-1 678:-1 679:-1 680:-1 681:-1 682:-1 683:-1 684:-1 685:-1 686:-1 687:-0.0466378 688:-1 689:-1 690:-1 691:-1 692:-1 693:-1 694:-1 695:-1 696:-1 697:-1 698:-1 699:-1 700:-1 701:-1 702:-1 703:-1 704:-1 705:-1 706:-1 707:-1 708:-1 709:-1 710:-1 711:-1 712:-1 713:-1 714:-1 715:-1 716:-1 717:-1 718:-1 719:-1 720:-1 721:-1 722:-1 723:-1 724:-1 725:-1 726:-1 727:1.5819 728:-1 729:-1 730:-1 731:-1 732:-1 733:-1 734:-1 735:-1 736:-0.430277 737:-1 738:-1 739:-1 740:-1 741:-1 742:-1 743:-1 744:-1 745:-1 746:-1 747:-1 748:-1 749:-1 750:-1 751:-1 752:-1 753:-1 754:-1 755:-1 756:-1 757:0.357599 758:-1 759:-1 760:-1 761:-1 762:-1 763:-1 764:-1 765:-1 766:-1 767:-1 768:-1 769:-1 770:-1 771:-1 772:-1 773:-1 774:-1 775:-1 776:-1 777:-1 778:-1 779:-1 780:-1 781:-1 782:-1 783:-1 784:-1 785:-1 786:-0.119105 787:-1 788:-1 789:-1 790:-1 791:-1 792:-1 793:-1 794:-1 795:-1 796:-1 797:-0.178957 798:-1 799:0.604076 800:-1 801:-1 802:-1 803:-1 804:-1 805:-1 806:-1 807:-1 808:-1 809:-1 810:-1 811:-1 812:-1 813:-1 814:-1 815:-1 816:-1 817:-1 818:-1 819:-1 820:-1 821:-1 822:-1 823:-1 824:-1 825:-1 826:-1 827:-1 828:-1 829:-1 830:-1 831:-1 832:-1 833:-1 834:-1 835:-1 836:-1 837:-1 838:-1 839:-1 840:-1 841:-1 842:-1 843:-1 844:-1 845:-1 846:-1 847:-1 848:-1 849:-1 850:-1 851:-1 852:-1 853:-1 854:-1 855:-1 856:-1 857:-1 858:-1 859:-1 860:-1 861:-1 862:-1 863:-1 864:-1 865:-1 866:-1 867:-1 868:-1 869:-1 870:-1 871:-1 872:-1 873:-1 874:-1 875:-1 876:-1 877:-1 878:-1 879:-1 880:-1 881:-1 882:-1 883:-1 884:-1 885:-1 886:-1 887:-1 888:-1 889:-1 890:-1 891:-1 892:-1 893:-1 894:-1 895:-1 896:-1 897:-1 898:-1 899:-1 900:-1 901:-1 902:-1 903:-1 904:-1 905:0.866646 906:-1 907:-1 908:-1 909:-1 910:-1 911:-1 912:-1 913:-1 914:-1 915:-1 916:-1 917:-1 918:-1 919:-1 920:-1 921:-1 922:-1 923:0.134001 924:-1 925:-1 926:-1 927:-1 928:-1 929:0.491021 930:-1 931:-1 932:-0.263324 933:-1 934:-1 935:-1 936:-1 937:3.58174 938:-1 939:-1 940:-0.809525 941:-1 942:-1 943:-1 944:-1 945:-1 946:-1 947:-1 948:-1 949:-1 950:-1 951:-1 952:-1 953:-1 954:-1 955:-1 956:-1 957:-1 958:-1 959:-1 960:-1 961:-1 962:-1 963:-1 964:-1 965:-1 966:-1 967:-1 968:-1 969:-1 970:-1 971:-1 972:-1 973:-1 974:0.845615 975:-1 976:-1 977:2.68355 978:-1 
0.7263645243095223 0 0 0.1201343105877273 0.1530719580411991 0:-1 1:-1 2:-0.904123 3:-1 4:-1 5:-1 6:-1 7:-1 8:-1 9:-1 10:-1 11:1.24924 12:5.31916 13:-1 14:-1 15:-1 16:-1 17:-1 18:-1 19:-1 20:-1 21:-1 22:-1 23:-1 24:-1 25:-1 26:0.600906 27:-1 28:-1 29:-1 30:-1 31:-1 32:-1 33:-1 34:-1 35:-1 36:-1 37:3.13672 38:-1 39:-1 40:-1 41:-1 42:-1 43:-1 44:-1 45:-1 46:-1 47:-1 48:-1 49:-1 50:-1 51:-1 52:-1 53:-1 54:-1 55:-1 56:-1 57:-1 58:-1 59:-1 60:-1 61:-1 62:-1 63:-1 64:-1 65:-1 66:-1 67:-1 68:-1 69:-1 70:-1 71:-1 72:-1 73:-1 74:-1 75:-1 76:-1 77:-1 78:-1 79:-1 80:-1 81:-1 82:-1 83:-1 84:-1 85:-1 86:-1 87:-1 88:-1 89:5.31916 90:-1 91:-1 92:-1 93:-1 94:-1 95:-1 96:-1 97:-1 98:-1 99:-1 100:-1 101:-1 102:-1 103:-1 104:-1 105:-1 106:-1 107:-1 108:-1 109:-1 110:-1 111:-1 112:-1 113:-1 114:-1 115:-1 116:-1 117:-1 118:-1 119:-1 120:-1 121:-1 122:-1 123:-1 124:-1 125:-1 126:-1 127:-1 128:-1 129:-1 130:-1 131:-1 132:-1 133:-1 134:-1 135:-1 136:-1 137:-1 138:-1 139:-1 140:-1 141:-1 142:-1 143:-1 144:-1 145:-1 146:14.1998 147:-1 148:-1 149:-1 150:-1 151:-1 152:-1 153:-1 154:-1 155:-1 156:-1 157:-1 158:-1 159:-1 160:-1 161:-1 162:-1 163:-1 164:-1 165:-1 166:-1 167:-1 168:-1 169:-1 170:-1 171:-1 172:3.16585 173:-1 174:-1 175:-1 176:-1 177:-1 178:-1 179:-1 180:-1 181:-1 182:-1 183:-0.207708 184:-1 185:-1 186:-1 187:-1 188:5.75349 189:-1 190:5.08694 191:-1 192:-1 193:-1 194:-1 195:-1 196:-1 197:-1 198:-1 199:-1 200:-1 201:-1 202:2.29461 203:-1 204:-1 205:-1 206:-1 207:-1 208:4.04367 209:-1 210:-1 211:-1 212:-1 213:-1 214:-1 215:-1 216:-1 217:-1 218:-1 219:-1 220:-1 221:-1 222:-1 223:-1 224:-1 225:-1 226:1.8986 227:-1 228:-1 229:-1 230:-1 231:-1 232:-1 233:-1 234:-1 235:5.31916 236:-1 237:-1 238:-1 239:-1 240:-1 241:-0.507242 242:-1 243:-1 244:-1 245:-1 246:-1 247:-1 248:-1 249:-1 250:-1 251:-1 252:-1 253:-1 254:-1 255:-1 256:-1 257:-1 258:-1 259:-1 260:-1 261:-1 262:-1 263:-1 264:-1 265:-1 266:-1 267:-1 268:-1 269:-1 270:-1 271:-1 272:-1 273:-1 274:-1 275:-1 276:-1 277:-1 278:-1 279:-0.188397 280:-1 281:-1 282:-1 283:-1 284:-1 285:-1 286:-1 287:-1 288:-1 289:-1 290:-1 291:-1 292:-1 293:-1 294:-1 295:-1 296:-1 297:-1 298:-1 299:-1 300:-1 301:-1 302:-1 303:-1 304:-1 305:-1 306:-1 307:-1 308:-1 309:2.34789 310:-1 311:-1 312:-1 313:-1 314:-1 315:-1 316:-1 317:-1 318:-1 319:-1 320:-1 321:-1 322:-1 323:-1 324:-1 325:-1 326:-1 327:-1 328:-1 329:-1 330:-1 331:-1 332:-1 333:-1 334:-1 335:-1 336:-1 337:-1 338:-1 339:2.72954 340:-1 341:-1 342:-1 343:-1 344:-1 345:-1 346:-1 347:-1 348:-1 349:-1 350:-1 351:-1 352:-1 353:-1 354:-1 355:-1 356:-1 357:-1 358:-1 359:-1 360:1.66269 361:-1 362:-1 363:-1 364:-1 365:-1 366:-1 367:-1 368:-0.71014 369:-1 370:-1 371:-0.219506 372:-1 373:-1 374:-1 375:-1 376:-1 377:-1 378:-1 379:-1 380:-1 381:-1 382:-1 383:-1 384:-1 385:-1 386:-1 387:9.95465 388:-1 389:-1 390:-1 391:-1 392:-1 393:-1 394:-0.362307 395:-1 396:-1 397:-1 398:-1 399:-0.405781 400:-1 401:-1 402:-1 403:-1 404:-1 405:2.56531 406:-1 407:-1 408:-1 409:-1 410:-1 411:-1 412:-1 413:-1 414:-1 415:-1 416:-1 417:-1 418:-1 420:-1 421:-1 422:-1 423:-1 424:-1 425:-1 426:-1 427:-1 428:-1 429:-1 430:-1 431:-0.507242 432:-1 433:-1 434:-1 435:-1 436:-1 437:-1 438:-1 439:-1 440:-1 441:-1 442:-1 443:-1 444:-1 445:-1 446:-1 447:-1 448:-1 449:-1 450:-1 451:4.87594 452:-1 453:7.0227 454:-1 455:0.565246 456:-1 457:-1 458:-1 459:-1 460:-1 461:-1 462:-1 463:-1 464:-1 465:-1 466:-1 467:-1 468:-1 469:-1 470:-1 471:-1 472:-1 473:-1 474:-1 475:-1 476:-1 477:-1 478:-1 479:-1 480:-1 481:-1 482:-1 483:-1 484:-1 485:-1 486:-1 487:-1 488:-1 489:-1 490:-1 491:-1 492:-1 493:-1 494:-1 495:-1 496:-1 497:-1 498:-1 499:-1 500:-1 501:-1 502:-1 503:-1 504:-1 505:-1 506:-1 507:-1 508:-1 509:-1 510:-1 511:3.1845 512:-1 513:-1 514:-1 515:-1 516:-1 517:-1 518:-1 519:-1 520:-1 521:-1 522:-0.0144839 523:-1 524:-1 525:-1 526:-1 527:-1 528:-1 529:-1 530:-1 531:-1 532:-1 533:-1 534:-1 535:-1 536:1.31888 537:-1 538:-1 539:-1 540:-1 541:-1 542:-1 543:-1 544:-1 545:-1 546:-1 547:-1 548:-1 549:5.17366 550:-1 551:-1 552:-1 553:3.08714 554:-1 555:-1 556:-1 557:6.57606 558:-1 559:-1 560:-1 561:-1 562:-1 563:-1 564:-1 565:-1 566:-1 567:-1 568:-1 569:-1 570:-1 571:-1 572:-1 573:-1 574:-1 575:-1 576:-1 577:-1 578:-1 579:-1 580:-0.623182 581:-1 582:-1 583:-1 584:-1 585:-1 586:-1 587:-1 588:-1 589:-1 590:-1 591:-1 592:-1 593:-1 594:-1 595:-1 596:-1 597:-1 598:-1 599:-1 600:0.724433 601:-1 602:-1 603:-1 604:-1 605:-1 606:-1 607:-1 608:0.174378 609:-1 610:-1 611:-1 612:-1 613:-1 614:-1 615:-1 616:-1 617:-1 618:-1 619:-1 620:-1 621:-1 622:-1 623:-1 624:0.373093 625:-1 626:-1 627:-1 628:-1 629:0.565203 630:-1 631:-1 632:-1 633:-1 634:-1 635:-1 636:-1 637:-1 638:-1 639:-1 640:6.98512 641:-1 642:-1 643:-1 644:-1 645:-1 646:-1 647:-1 648:-1 649:-1 650:-1 651:-1 652:-1 653:-1 654:-1 655:-1 656:3.01468 657:-1 658:-1 659:-1 660:-1 661:-1 662:-1 663:-1 664:-1 665:2.34789 666:-1 667:-1 668:-1 669:-1 670:-1 671:-1 672:-0.462256 673:-1 674:-1 675:2.57675 676:-1 677:-1 678:-1 679:-1 680:-1 681:-1 682:-1 683:-1 684:-1 685:-1 686:3.81335 687:-1 688:-0.742749 689:-1 690:-1 691:-1 692:-1 693:-1 694:-1 695:-1 696:-1 697:-1 698:-1 699:-1 700:-1 701:-1 702:-1 703:-1 704:-1 705:-1 706:-1 707:-1 708:-1 709:-1 710:-1 711:-1 712:-1 713:-1 714:-1 715:-1 716:-1 717:-1 718:-1 719:-1 720:-1 721:-1 722:-1 723:-1 724:-1 725:-1 726:-1 727:-1 728:-1 729:-1 730:-1 731:-1 732:-1 733:-1 734:-1 735:-1 736:-1 737:-1 738:-1 739:-1 740:-1 741:-1 742:-1 743:-1 744:-1 745:-1 746:-1 747:-1 748:-1 749:-1 750:-1 751:-1 752:-1 753:-1 754:-1 755:-1 756:-1 757:-1 758:-1 759:-1 760:-1 761:-1 762:-1 763:-1 764:-1 765:-1 766:2.13041 767:-1 768:-1 769:-1 770:-1 771:-1 772:-1 773:-1 774:-1 775:-1 776:-1 777:-1 778:-1 779:-1 780:-1 781:-1 782:-1 783:-1 784:-1 785:-1 786:-1 787:-1 788:-1 789:-1 790:-1 791:-1 792:-1 793:-1 794:-1 795:-1 796:-1 797:-1 798:-1 799:-1 800:-1 801:-1 802:-1 803:-1 804:-1 805:-1 806:-1 807:-1 808:-1 809:-1 810:-1 811:-1 812:-1 813:-1 814:-1 815:-1 816:-1 817:-1 818:-1 819:-1 820:-1 821:-1 822:-1 823:-1 824:-0.623182 825:-1 826:-0.623182 827:-1 828:-1 829:-1 830:-1 831:-1 832:1.37688 833:-1 834:-1 835:-1 836:-1 837:-1 838:-1 839:-1 840:-1 841:-1 842:-1 843:-1 844:-1 845:-1 846:-1 847:-1 848:-1 849:-1 850:-1 851:-1 852:-1 853:1.31888 854:-1 855:-1 856:-1 857:-1 858:-1 859:-1 860:-1 861:-1 862:-1 863:-1 864:-1 865:-1 866:-1 867:-1 868:-1 869:-1 870:-1 871:-1 872:-1 873:-1 874:-1 875:-1 876:1.88676 877:-1 878:-1 879:-1 880:-1 881:-1 882:-1 883:-0.00647815 884:-1 885:-1 886:-1 887:-1 888:-1 889:-1 890:-1 891:-1 892:-1 893:-1 894:-1 895:-1 896:-1 897:-1 898:-1 899:-1 900:-1 901:-1 902:-1 903:-1 904:-1 905:-1 906:-1 907:-1 908:-1 909:-1 910:-1 911:-1 912:-1 913:-1 914:-1 915:-1 916:-1 917:-0.354346 918:-1 919:-1 920:-1 921:-1 922:-1 923:-1 924:3.11587 925:-1 926:-1 927:-1 928:-1 929:-1 930:-1 931:-1 932:-1 933:-1 934:-1 935:-1 936:-1 937:-1 938:-1 939:-1 940:-0.544539 941:-1 942:-1 943:-1 944:0.565203 945:-1 946:-1 947:-1 948:-1 949:-1 950:-1 951:-1 952:-1 953:-1 954:-1 955:-1 956:-1 957:-1 958:-1 959:-1 960:-1 961:-1 962:-1 963:-1 964:-0.521731 965:-1 966:-1 967:-1 968:-1 969:-1 970:-1 971:-1 972:-1 973:-1 974:-1 975:-1 976:-1 977:-1 978:-1 
1.560091823951404 0 0 0 0.2194853060933292 0:4.22966 1:0.148238 2:-1 3:-1 4:-1 5:0.148238 6:-1 7:-1 8:-1 9:-1 10:-1 11:-1 12:0.847395 13:-1 14:-1 15:-1 16:-1 17:-1 18:-1 19:-1 20:-1 21:-1 22:-0.711886 23:-1 24:-1 25:-1 26:-1 27:-1 28:-1 29:-1 30:-1 31:-1 32:-1 33:-1 34:1.33471 35:-1 36:-1 37:0.209362 38:-1 39:-1 40:-1 41:-1 42:-0.208407 43:-1 44:0.194867 45:-0.384202 46:2.12694 47:-1 48:-1 49:-1 50:-1 51:-1 52:-1 53:-0.711886 54:-1 55:-1 56:-1 57:-1 58:-1 59:-1 60:-1 61:-1 62:-1 63:-1 64:-1 65:-1 66:-1 67:-1 68:-1 69:-1 70:-1 71:-1 72:-1 73:-1 74:-1 75:-1 76:-1 77:1.76194 78:-1 79:-1 80:0.72026 81:-1 82:-1 83:-0.843084 84:-1 85:-1 86:-1 87:-1 88:-1 89:-1 90:-1 91:0.871053 92:-1 93:-1 94:-1 95:-1 96:-1 97:-1 98:-1 99:-1 100:-1 101:-1 102:-1 103:-1 104:-1 105:-1 106:-1 107:-1 108:0.847798 109:-1 110:4.07121 111:-1 112:-1 113:-1 114:-1 115:-1 116:-1 117:-1 118:-1 119:-0.711886 120:-0.0368266 121:-1 122:-1 123:-1 124:-1 125:-1 126:-1 127:-1 128:-1 129:-1 130:0.847613 131:-0.0763026 132:-1 133:-1 134:-1 135:-1 136:-1 137:-1 138:-1 139:-0.95942 140:0.0169207 141:-1 142:-1 143:-1 144:-1 145:-0.711886 146:-1 147:-1 148:-1 149:-1 150:1.29648 151:-1 152:-1 153:-1 154:-1 155:-1 156:-1 157:-1 158:2.80341 159:-1 160:-1 161:-1 162:-1 163:-0.957628 164:0.0423124 165:-1 166:-1 167:-1 168:0.779504 169:-1 170:-1 171:-1 172:0.217879 173:-1 174:-1 175:-0.427945 176:-1 177:-1 178:-0.542416 179:-1 180:-1 181:-1 182:-1 183:-1 184:-1 185:-1 186:-1 187:-1 188:-1 189:-1 190:-1 191:-1 192:-1 193:-1 194:-1 195:-1 196:-1 197:-0.74564 198:-1 199:-1 200:-1 201:-1 202:-1 203:-1 204:-1 205:1.63249 206:-1 207:-1 208:-1 209:-1 210:-1 211:2.13696 212:-1 213:-1 214:-1 215:-0.422083 216:-1 217:-1 218:-1 219:-1 220:-1 221:-1 222:-1 223:-1 224:-1 225:-1 226:-1 227:-1 228:-1 229:-1 230:-1 231:-1 232:-1 233:-1 234:-1 235:-1 236:-0.13987 237:-1 238:-1 239:-1 240:-1 241:-1 242:-1 243:-1 244:-1 245:-0.1526 246:-1 247:0.957496 248:0.304897 249:-1 250:-1 251:-1 252:-1 253:-1 254:-1 255:-1 256:-1 257:-1 258:-1 259:-1 260:-1 261:-1 262:-1 263:-1 264:-1 265:-1 266:-0.508497 267:-1 268:-1 269:-1 270:-1 271:-1 272:-1 273:-1 274:-1 275:-1 276:-1 277:-1 278:-1 279:-1 280:-1 281:-1 282:-1 283:-1 284:-1 285:0.915894 286:-1 287:-1 288:-0.542416 289:-1 290:-1 291:-1 292:-1 293:-1 294:-1 295:-1 296:0.148238 297:-1 298:-1 299:-1 300:-1 301:-1 302:-1 303:-1 304:-1 305:-1 306:-1 307:-1 308:-1 309:-1 310:-1 311:-1 312:-1 313:-1 314:-0.599603 315:-1 316:0.786256 317:-0.860179 318:-1 319:-1 320:-0.861016 321:-1 322:-1 323:-1 324:-1 325:-1 326:-1 327:-1 328:-1 329:-1 330:-1 331:-1 332:-1 333:-1 334:-1 335:-1 336:-1 337:-1 338:-0.0763026 339:-1 340:-1 341:-1 342:1.88919 343:-1 344:-1 345:-1 346:-1 347:-1 348:-1 349:-1 350:0.468122 351:0.164971 352:-1 353:-1 354:-1 355:-1 356:-1 357:-0.291768 358:-1 359:0.705717 360:-1 361:-0.398367 362:-1 363:-1 364:-1 365:-1 366:-1 367:-1 368:-1 369:-1 370:-1 371:-0.543594 372:-1 373:-1 374:-1 375:-1 376:-1 377:-1 378:-1 379:-1 380:-1 381:-1 382:-1 383:-0.240136 384:-0.886566 385:-1 386:-1 387:-1 388:-1 389:-0.414941 390:-1 391:-1 392:-1 393:-1 394:-1 395:-0.402566 396:-1 397:-0.711886 398:-1 399:-1 400:-1 401:-1 402:-1 403:-1 404:-1 405:-1 406:-0.345408 407:-1 408:-1 409:2.75954 410:-1 411:-1 412:-1 413:-1 414:-1 415:-1 416:-0.365814 417:-1 418:-1 420:-1 421:-1 422:-1 423:-0.398367 424:-1 425:0.474508 426:-0.542416 427:-1 428:-1 429:-1 430:-1 431:-1 432:-1 433:-1 434:-1 435:-1 436:1.34737 437:-1 438:-1 439:-1 440:-0.25042 441:-1 442:-1 443:-1 444:-1 445:-1 446:-1 447:-1 448:-1 449:-1 450:-1 451:-1 452:-1 453:-1 454:-1 455:-1 456:-1 457:-1 458:-1 459:-1 460:-1 461:-1 462:-1 463:-1 464:-1 465:-1 466:-1 467:-1 468:-1 469:-1 470:-0.32208 471:1.29648 472:0.194867 473:-1 474:-1 475:-1 476:-1 477:-1 478:-1 479:-1 480:-1 481:-1 482:-1 483:-0.455643 484:-1 485:-1 486:-0.398367 487:-1 488:-1 489:-1 490:-1 491:-1 492:-0.635621 493:-1 494:-1 495:-1 496:-1 497:-1 498:-1 499:-1 500:-1 501:-1 502:-1 503:-1 504:-1 505:-1 506:-1 507:-1 508:-1 509:-1 510:-0.720358 511:-1 512:-1 513:-1 514:1.40667 515:-1 516:-1 517:-1 518:-1 519:-1 520:-1 521:-1 522:-1 523:-1 524:-1 525:-1 526:-1 527:-1 528:-1 529:-1 530:-1 531:-1 532:-1 533:-1 534:-1 535:0.0300231 536:-0.32208 537:-1 538:-1 539:-1 540:-1 541:-0.388335 542:-1 543:-1 544:-1 545:-1 546:-1 547:-1 548:-0.00749502 549:3.21171 550:-1 551:-1 552:-0.461729 553:-1 554:-1 555:-1 556:-1 557:0.107423 558:-1 559:-1 560:-1 561:-1 562:-1 563:-1 564:0.566938 565:-1 566:-1 567:-1 568:-1 569:0.444842 570:-1 571:-1 572:-1 573:-1 574:-1 575:-1 576:-1 577:-1 578:-1 579:-1 580:-1 581:-1 582:0.423723 583:-1 584:-1 585:-1 586:-1 587:-1 588:-1 589:-1 590:-0.774027 591:-1 592:-1 593:-1 594:-1 595:-1 596:-1 597:-1 598:-1 599:-1 600:0.512523 601:-1 602:-1 603:-1 604:-1 605:-1 606:-1 607:-1 608:-0.313265 609:-1 610:-1 611:-1 612:2.5292 613:2.915 614:-1 615:-1 616:-1 617:-1 618:-1 619:-1 620:-1 621:-1 622:-1 623:-1 624:-1 625:-1 626:-1 627:0.888146 628:-1 629:-1 630:-1 631:-1 632:-0.466137 633:0.923286 634:-1 635:-1 636:-1 637:-1 638:-1 639:-1 640:1.33444 641:-1 642:-1 643:-1 644:-1 645:-1 646:-1 647:-1 648:-1 649:-1 650:-1 651:-1 652:-1 653:-1 654:-1 655:-1 656:-1 657:-1 658:-1 659:-1 660:-1 661:-1 662:-1 663:-1 664:-1 665:0.957727 666:-1 667:0.618411 668:-1 669:-1 670:-1 671:-1 672:-1 673:-1 674:-1 675:-1 676:0.444842 677:-0.60173 678:-0.110248 679:9.1696 680:-1 681:-1 682:-1 683:-1 684:-1 685:-1 686:-1 687:-1 688:-1 689:-1 690:-1 691:-1 692:-1 693:0.198247 694:-1 695:-1 696:-1 697:-1 698:-1 699:-1 700:-1 701:-1 702:-1 703:-1 704:-1 705:-1 706:-1 707:-1 708:-1 709:-1 710:-1 711:-1 712:2.94323 713:-1 714:-1 715:3.46876 716:-1 717:-1 718:-1 719:-1 720:0.0676578 721:-1 722:-1 723:-1 724:0.035182 725:-1 726:-1 727:-1 728:-1 729:-1 730:-1 731:2.29831 732:0.34572 733:-1 734:-1 735:0.148238 736:-1 737:-1 738:-1 739:-1 740:-1 741:-1 742:0.144053 743:-1 744:4.77907 745:-1 746:-1 747:-1 748:-1 749:-1 750:-1 751:-1 752:-1 753:-1 754:-1 755:-1 756:-1 757:-1 758:-0.865807 759:-1 760:-1 761:-1 762:-1 763:-1 764:-1 765:-1 766:0.37286 767:-1 768:-1 769:-1 770:-1 771:-1 772:-1 773:-0.585137 774:-1 775:-0.542416 776:-1 777:-1 778:-1 779:-1 780:-0.542416 781:-1 782:-1 783:-1 784:-1 785:-1 786:-1 787:-1 788:-1 789:1.45766 790:-1 791:-1 792:-1 793:-1 794:-1 795:-1 796:-1 797:-0.234635 798:-1 799:0.121344 800:-1 801:-1 802:1.29648 803:-1 804:-1 805:-0.518386 806:-1 807:-1 808:-1 809:-1 810:-1 811:-1 812:-1 813:-1 814:-1 815:-1 816:-0.60173 817:-1 818:-1 819:-1 820:-1 821:-1 822:-1 823:-0.127202 824:-1 825:-1 826:-0.889838 827:-1 828:-1 829:-1 830:-1 831:-1 832:-1 833:-1 834:-1 835:-1 836:-1 837:-1 838:-1 839:-1 840:-1 841:-1 842:-1 843:0.519727 844:0.0423124 845:-1 846:-1 847:-1 848:-1 849:-1 850:-1 851:-1 852:-1 853:-0.32208 854:-1 855:-1 856:-1 857:-1 858:-1 859:2.14413 860:-1 861:-1 862:-1 863:-1 864:-1 865:-1 866:0.690068 867:-1 868:-1 869:-1 870:-1 871:-1 872:-1 873:-1 874:-1 875:-1 876:0.688079 877:-1 878:-1 879:-0.406832 880:-1 881:0.0423124 882:-1 883:0.161885 884:-1 885:-1 886:-1 887:-1 888:-1 889:-1 890:-1 891:-1 892:-1 893:-1 894:-1 895:-1 896:-1 897:-1 898:1.17282 899:-1 900:-1 901:-1 902:-1 903:-1 904:-1 905:-1 906:-1 907:-1 908:-1 909:-1 910:-1 911:-1 912:-1 913:-1 914:-1 915:0.635592 916:-1 917:-0.811244 918:1.72476 919:-1 920:-1 921:0.194867 922:-1 923:-0.735741 924:-1 925:-0.341825 926:-1 927:-1 928:-1 929:2.12718 930:-1 931:0.603406 932:-1 933:-1 934:-1 935:-1 936:-1 937:2.20355 938:2.57402 939:-1 940:-0.733662 941:-1 942:-0.423705 943:-1 944:-1 945:-1 946:-1 947:-0.935033 948:-1 949:-0.60173 950:-1 951:-1 952:-1 953:-1 954:-1 955:-1 956:-1 957:-1 958:-1 959:0.49506 960:-1 961:-1 962:-1 963:-1 964:-1 965:-1 966:-1 967:-0.60173 968:-1 969:-1 970:0.635592 971:-1 972:-1 973:-1 974:-1 975:-0.805097 976:5.54188 977:3.72143 978:-1 
3.602241567584161 0 0 2.269738284390969 1.34463836345618 0:-0.562275 1:-1 2:-0.957774 3:-1 4:-1 5:0.153117 6:-1 7:-0.869911 8:-1 9:-1 10:-1 11:-1 12:-0.0721605 13:-1 14:-1 15:-1 16:-1 17:-1 18:-0.344626 19:-0.65952 20:-1 21:-0.423306 22:-1 23:-0.016863 24:-1 25:-0.902111 26:-0.52999 27:-0.201351 28:-1 29:-1 30:-1 31:-1 32:0.0949563 33:0.458941 34:-0.413774 35:-1 36:-1 37:-1 38:-1 39:-0.770182 40:-0.508432 41:-1 42:-1 43:-1 44:-0.399887 45:-1 46:2.14022 47:2.56963 48:-0.262763 49:-1 50:-1 51:-1 52:-1 53:-0.710662 54:-0.702086 55:-1 56:-1 57:0.824437 58:-1 59:-1 60:-1 61:-1 62:-1 63:-1 64:-1 65:-1 66:-0.97821 67:-1 68:-1 69:-1 70:-0.147436 71:-1 72:-1 73:-1 74:-1 75:-1 76:-1 77:1.08017 78:-1 79:-1 80:-1 81:-1 82:-1 83:-0.97749 84:-1 85:-1 86:-1 87:-0.413508 88:-1 89:-0.0721605 90:-0.165915 91:0.879002 92:-0.774433 93:-1 94:0.17867 95:-1 96:-1 97:-1 98:-1 99:-1 100:-0.710662 101:-1 102:-1 103:-1 104:-1 105:-1 106:-1 107:-1 108:-0.0719581 109:-1 110:1.54698 111:-1 112:-1 113:-1 114:0.178947 115:-1 116:-1 117:-1 118:-1 119:-1 120:-1 121:-0.46859 122:-1 123:0.642609 124:-1 125:-1 126:-1 127:-1 128:-1 129:-0.361734 130:-0.53608 131:-0.53608 132:-1 133:-1 134:-1 135:-1 136:1.70245 137:-1 138:-0.814868 139:-0.979619 140:-0.48926 141:-1 142:-1 143:-1 144:-1 145:-0.855297 146:-1 147:-1 148:-1 149:-1 150:-1 151:-1 152:-0.00304521 153:-1 154:-1 155:-1 156:-1 157:-1 158:-1 159:-1 160:-1 161:0.153388 162:-1 163:-0.987234 164:-0.476507 165:-1 166:-1 167:-1 168:-1 169:-0.697895 170:-0.479516 171:-1 172:1.44639 173:-1 174:-1 175:-0.856362 176:-1 177:-1 178:-0.770182 179:-1 180:-0.697835 181:-1 182:-1 183:-1 184:-1 185:-1 186:-1 187:0.422126 188:-1 189:-1 190:0.787064 191:-1 192:-1 193:-0.0878697 194:-1 195:0.0469865 196:-1 197:-1 198:-1 199:-1 200:-1 201:-1 202:-1 203:-1 204:-1 205:0.32215 206:-0.344729 207:1.68081 208:-0.25944 209:-1 210:-1 211:-0.212382 212:-1 213:-1 214:-1 215:-0.709746 216:-1 217:-1 218:-1 219:-1 220:-0.197587 221:-1 222:-0.530968 223:-0.344626 224:-0.642503 225:-1 226:-0.5744 227:-0.399887 228:-1 229:-0.816441 230:-1 231:-1 232:-1 233:-1 234:-1 235:-0.0721605 236:-1 237:-1 238:-1 239:-1 240:-1 241:-0.927649 242:0.45098 243:-1 244:-1 245:0.2766 246:-1 247:-1 248:-1 249:-1 250:-1 251:0.697248 252:-1 253:-1 254:-0.65952 255:-1 256:-1 257:-1 258:-1 259:0.199944 260:-1 261:-1 262:-1 263:-1 264:-1 265:-1 266:-1 267:0.451012 268:-1 269:-0.711653 270:-1 271:-1 272:-1 273:-1 274:-1 275:-1 276:-1 277:-0.10757 278:-1 279:-1 280:-1 281:0.059761 282:-1 283:-1 284:-1 285:0.924033 286:-1 287:-1 288:-1 289:-1 290:-0.725533 291:-1 292:-1 293:-1 294:-1 295:-1 296:-0.423306 297:-1 298:0.45098 299:-0.423306 300:-1 301:-1 302:-1 303:-1 304:1.0761 305:-1 306:-1 307:-0.242165 308:-1 309:-1 310:-1 311:-1 312:-0.626175 313:-1 314:-1 315:-1 316:-0.102867 317:-1 318:-1 319:-1 320:-0.976734 321:0.153388 322:-1 323:-1 324:-0.361249 325:0.174393 326:-1 327:-1 328:-1 329:-1 330:-1 331:-1 332:-1 333:-1 334:-0.546752 335:-1 336:-1 337:-1 338:-1 339:-1 340:0.210811 341:-0.770182 342:-1 343:-1 344:-0.970917 345:-1 346:-1 347:-0.929776 348:-1 349:-1 350:-1 351:-0.414902 352:1.90147 353:-1 354:-1 355:-1 356:-1 357:-1 358:-0.15522 359:-0.143317 360:-0.609039 361:-0.697835 362:-0.519994 363:0.310748 364:-1 365:-1 366:-1 367:-1 368:-1 369:-1 370:-1 371:-0.8854 372:-0.15522 373:-0.476507 374:-0.691929 375:-1 376:-1 377:-1 378:-0.608492 379:-1 380:-1 381:-1 382:-1 383:-1 384:-1 385:-0.103056 386:-1 387:0.608466 388:-0.187166 389:-0.706159 390:-1 391:-1 392:-1 393:-1 394:-0.953184 395:-1 396:-1 397:-0.710662 398:-1 399:-1 400:-1 401:-1 402:-1 403:-1 404:-1 405:-0.476507 406:-0.342628 407:-1 408:-0.25944 409:-1 410:-1 411:-1 412:-1 413:-0.106258 414:-1 415:-1 416:-1 417:-1 418:-1 420:-1 421:-0.896899 422:-1 423:-1 424:-0.227586 425:-0.25944 426:-1 427:-1 428:-1 429:-1 430:-1 431:-1 432:-1 433:-1 434:-1 435:-0.399887 436:-1 437:-0.684283 438:-0.616956 439:-1 440:-1 441:-1 442:-1 443:-1 444:-1 445:-1 446:-1 447:-1 448:-1 449:-1 450:-1 451:-1 452:-1 453:-1 454:-1 455:-1 456:-1 457:-1 458:-1 459:-1 460:-1 461:-1 462:-0.972336 463:-0.54207 464:-1 465:-0.151177 466:-1 467:-0.561644 468:-1 469:-1 470:-0.65952 471:2.45962 472:-1 473:-1 474:-1 475:-1 476:-1 477:-0.449916 478:-1 479:-1 480:-1 481:-0.65952 482:-0.655158 483:-1 484:-1 485:-1 486:-0.697835 487:-0.274339 488:0.135447 489:-1 490:-1 491:-0.766948 492:-0.451066 493:-1 494:-1 495:-1 496:-1 497:0.0467405 498:-1 499:-1 500:-1 501:-0.95744 502:-0.855297 503:-1 504:-1 505:-1 506:-1 507:0.642609 508:-1 509:-0.927649 510:-0.71917 511:-1 512:-1 513:0.64254 514:-0.697835 515:0.0469865 516:-1 517:-1 518:-1 519:-1 520:-1 521:2.82445 522:-0.855297 523:-1 524:-1 525:-0.48173 526:-0.902111 527:0.153388 528:1.78308 529:-1 530:-1 531:-1 532:-1 533:-1 534:-1 535:-1 536:-1 537:-1 538:-1 539:0.153388 540:0.126522 541:-1 542:-0.480088 543:0.00306387 544:-1 545:-1 546:-1 547:-1 548:-0.75079 549:0.510543 550:-1 551:-0.768053 552:-1 553:-0.399887 554:-0.399887 555:-1 556:-0.0213842 557:-0.443806 558:-1 559:-1 560:-0.178537 561:-1 562:-1 563:0.153388 564:-1 565:0.149028 566:-0.742435 567:-0.653025 568:-1 569:0.45098 570:-1 571:-1 572:-1 573:-0.27765 574:-1 575:-1 576:-1 577:-1 578:-1 579:-1 580:-1 581:-1 582:-1 583:-1 584:-1 585:-1 586:-1 587:-1 588:-1 589:-1 590:-0.886507 591:-1 592:-1 593:-1 594:-1 595:-1 596:-1 597:-1 598:-1 599:-1 600:-1 601:-1 602:-1 603:-1 604:-0.274339 605:-1 606:-0.719364 607:-0.399887 608:-0.482781 609:1.35529 610:-1 611:-0.776564 612:0.772202 613:-0.344626 614:1.30623 615:-1 616:-1 617:-1 618:-1 619:-1 620:-0.016863 621:-1 622:-1 623:-0.425689 624:-0.193652 625:-0.899276 626:1.78308 627:-1 628:-1 629:-1 630:-1 631:-1 632:-1 633:-1 634:-1 635:-0.944672 636:-1 637:-1 638:-1 639:-1 640:0.172452 641:-1 642:-1 643:-1 644:-1 645:-1 646:-1 647:-1 648:-1 649:-0.697835 650:-1 651:-1 652:-1 653:-1 654:-1 655:-1 656:-0.410526 657:-0.727162 658:-1 659:0.153388 660:-1 661:-1 662:-1 663:-1 664:-1 665:-0.508432 666:-1 667:1.43812 668:-1 669:-1 670:-1 671:-1 672:-1 673:-1 674:-1 675:0.575271 676:-1 677:-1 678:-1 679:-1 680:-1 681:-1 682:-1 683:-1 684:-1 685:-0.016863 686:-1 687:-0.665277 688:-1 689:-1 690:-1 691:-1 692:-1 693:-1 694:-1 695:-1 696:-1 697:-1 698:-1 699:0.153388 700:-1 701:0.153388 702:-0.769322 703:-1 704:4.31543 705:-0.415642 706:-1 707:-0.533323 708:-1 709:-1 710:-1 711:-0.106258 712:-1 713:0.717014 714:-1 715:-1 716:1.68081 717:-0.178537 718:-1 719:-1 720:-1 721:-1 722:-1 723:-1 724:-1 725:-0.91489 726:-0.878023 727:-0.0935037 728:-1 729:-1 730:-1 731:0.655964 732:-1 733:2.12294 734:-1 735:-1 736:-1 737:-1 738:-1 739:-1 740:-1 741:-1 742:-0.425408 743:0.64254 744:-1 745:-1 746:-0.62972 747:-1 748:-1 749:-1 750:-1 751:-1 752:-1 753:-1 754:-1 755:-1 756:-0.335934 757:-0.523351 758:-1 759:-1 760:-1 761:-1 762:-1 763:-1 764:-1 765:-1 766:-0.770182 767:-1 768:-1 769:-1 770:-0.816993 771:-0.879889 772:-1 773:-1 774:-1 775:-1 776:-1 777:-1 778:-1 779:-1 780:-1 781:0.64254 782:-1 783:-1 784:-1 785:-1 786:-0.381586 787:-1 788:-1 789:0.234339 790:-1 791:-1 792:-0.492185 793:-1 794:-1 795:-1 796:-1 797:-1 798:-1 799:-1 800:-1 801:-1 802:-1 803:-1 804:-1 805:-0.758113 806:-1 807:-1 808:-1 809:-1 810:-1 811:-1 812:-1 813:-1 814:-1 815:-1 816:-1 817:-1 818:-1 819:-0.791454 820:-0.410526 821:-1 822:-1 823:-1 824:-0.944672 825:-1 826:-1 827:-1 828:-0.65952 829:-1 830:-0.710662 831:-1 832:-1 833:0.46708 834:-0.863038 835:-1 836:-1 837:-1 838:-1 839:-0.65952 840:-0.178537 841:-1 842:-1 843:1.28945 844:-1 845:1.2075 846:0.451074 847:-0.284946 848:0.642563 849:0.372911 850:-0.793588 851:-0.83493 852:-1 853:-1 854:-1 855:-0.270358 856:-0.0878885 857:0.723505 858:-1 859:-0.210536 860:-1 861:-0.770182 862:-1 863:-1 864:-1 865:-1 866:-0.151177 867:0.35154 868:-1 869:-1 870:-1 871:-1 872:-1 873:-1 874:-1 875:-1 876:0.695249 877:-1 878:-1 879:-1 880:0.177968 881:-1 882:-1 883:-0.854122 884:-0.9 885:-0.0721605 886:-1 887:-1 888:-1 889:-1 890:0.178947 891:-1 892:-1 893:-1 894:-1 895:-1 896:-0.401911 897:-1 898:1.18205 899:0.458941 900:-1 901:-1 902:-1 903:-0.241895 904:-1 905:-1 906:-0.106258 907:-1 908:-1 909:-0.178537 910:-1 911:-1 912:-0.106258 913:-1 914:-1 915:-1 916:-0.97872 917:-0.905199 918:0.368489 919:-1 920:-1 921:-0.399887 922:-1 923:-1 924:-0.697835 925:-1 926:0.884854 927:-1 928:-1 929:1.61697 930:-1 931:-0.194702 932:-0.741355 933:-0.926138 934:-0.0083877 935:-1 936:1.04224 937:-0.195615 938:0.795023 939:-1 940:-1 941:-1 942:-0.855297 943:-1 944:-0.770182 945:0.178947 946:-1 947:-1 948:2.81564 949:-0.600038 950:-1 951:-1 952:-1 953:-1 954:0.149028 955:-0.106258 956:-1 957:-1 958:-0.476507 959:-1 960:-1 961:-1 962:-1 963:-0.016863 964:-1 965:-1 966:-1 967:-1 968:-1 969:-1 970:-1 971:-1 972:-1 973:-0.745591 974:-1 975:-0.902111 976:0.642609 977:-0.353424 978:-1 
1.017243413146305 0 0 0.5293160164043664 0.3659499251754763 0:1.19603 1:-1 2:-1 3:-1 4:-1 5:-1 6:-1 7:-1 8:-1 9:-1 10:-1 11:-1 12:0.551777 13:-1 14:-1 15:-1 16:-1 17:-1 18:-1 19:-1 20:-1 21:-1 22:-1 23:-1 24:-1 25:-1 26:-1 27:-1 28:-1 29:-1 30:-1 31:-1 32:-1 33:5.10115 34:-1 35:-1 36:-1 37:-1 38:-1 39:-1 40:-1 41:0.914985 42:-0.335077 43:-0.49464 44:-1 45:-1 46:1.62657 47:-1 48:-0.588935 49:-1 50:-1 51:-1 52:-1 53:-1 54:-1 55:-1 56:-1 57:-1 58:-1 59:-1 60:-1 61:-1 62:-1 63:-1 64:-1 65:0.0356467 66:-0.963557 67:-0.0113889 68:-1 69:-1 70:0.425881 71:-1 72:-1 73:-1 74:-1 75:-1 76:-1 77:0.15985 78:-1 79:4.49363 80:0.444986 81:-1 82:-1 83:-0.981172 84:-1 85:-1 86:-1 87:-1 88:-1 89:-1 90:-0.651215 91:0.571649 92:-1 93:-1 94:-1 95:-1 96:-1 97:-1 98:-1 99:-1 100:-0.75799 101:-1 102:-1 103:-1 104:-1 105:-1 106:-1 107:-1 108:-1 109:-1 110:-1 111:-1 112:-1 113:-1 114:-1 115:-1 116:-1 117:0.21364 118:-1 119:-1 120:-1 121:-1 122:-1 123:-1 124:-1 125:-1 126:-1 127:-1 128:-0.878995 129:-0.466137 130:-0.224112 131:-0.224112 132:-1 133:-1 134:-1 135:-1 136:-1 137:-1 138:-1 139:-1 140:0.708148 141:-1 142:-1 143:-1 144:-1 145:-1 146:2.73256 147:-1 148:-0.223586 149:-1 150:-1 151:-1 152:0.667369 153:-1 154:0.0036661 155:-1 156:-1 157:-1 158:-1 159:-1 160:-1 161:-1 162:-1 163:-0.950178 164:-1 165:-1 166:-1 167:-1 168:-1 169:-1 170:-1 171:-1 172:-1 173:-1 174:-1 175:-1 176:0.698807 177:-1 178:-1 179:-1 180:-1 181:-1 182:-1 183:-1 184:-0.693682 185:-0.467614 186:-1 187:4.94719 188:-1 189:-1 190:0.49475 191:0.190792 192:-1 193:-1 194:0.928997 195:-1 196:-1 197:-1 198:5.38959 199:-0.66546 200:-1 201:-1 202:-1 203:-1 204:-1 205:3.42187 206:-1 207:-1 208:-1 209:-1 210:-1 211:0.317324 212:-1 213:-1 214:-0.75799 215:-1 216:-1 217:1.33456 218:-1 219:-1 220:-1 221:-1 222:-1 223:-1 224:-1 225:-1 226:-0.2882 227:-1 228:-1 229:-0.693004 230:-1 231:-1 232:-1 233:-1 234:-1 235:0.551777 236:-1 237:-1 238:-1 239:-1 240:-1 241:-0.878995 242:-1 243:-1 244:-1 245:-1 246:-1 247:-1 248:0.0960887 249:-1 250:-1 251:-1 252:-1 253:-0.615638 254:-1 255:-1 256:-1 257:-1 258:-1 259:-1 260:-1 261:-1 262:-1 263:-1 264:-1 265:-1 266:-1 267:-1 268:-1 269:-1 270:-1 271:-1 272:-0.0355014 273:-1 274:-1 275:-1 276:-1 277:-1 278:-1 279:-1 280:-1 281:-1 282:-1 283:-1 284:-1 285:-1 286:-1 287:-1 288:-0.615638 289:-1 290:-1 291:-1 292:-1 293:-0.130467 294:1.02504 295:-1 296:1.89322 297:-0.75799 298:-1 299:-1 300:-1 301:-1 302:-1 303:-1 304:-1 305:-1 306:-0.485545 307:-1 308:3.50158 309:-1 310:-1 311:-1 312:-1 313:-1 314:-1 315:-1 316:0.500422 317:-1 318:-1 319:-1 320:-0.844364 321:-1 322:-1 323:0.0036661 324:-1 325:-1 326:-1 327:-1 328:-1 329:-1 330:-1 331:-1 332:-1 333:-1 334:-1 335:-1 336:-1 337:-1 338:-0.224112 339:0.831446 340:-1 341:-1 342:-1 343:-0.728683 344:-1 345:-1 346:-1 347:-1 348:-1 349:-1 350:-1 351:-1 352:1.42687 353:-1 354:-1 355:-1 356:-1 357:-1 358:-1 359:0.43277 360:-0.346133 361:-0.49464 362:-1 363:-1 364:-1 365:-1 366:-1 367:-1 368:-1 369:-1 370:-1 371:-1 372:-1 373:-1 374:-1 375:-1 376:-0.0426362 377:-1 378:-1 379:-1 380:-1 381:-1 382:-1 383:-1 384:-1 385:-1 386:-1 387:-1 388:-1 389:-0.508561 390:-1 391:-1 392:-1 393:-1 394:-1 395:1.50902 396:-1 397:-1 398:-1 399:-0.85408 400:-1 401:-1 402:-1 403:-1 404:-1 405:-1 406:-0.72511 407:-0.564829 408:-1 409:-1 410:-1 411:-1 412:-1 413:3.48383 414:-1 415:-1 416:-1 417:-1 418:-1 420:-1 421:-1 422:-1 423:-1 424:-1 425:-1 426:-1 427:-1 428:-1 429:-1 430:-1 431:-1 432:-1 433:-1 434:-1 435:1.00705 436:-1 437:-1 438:-1 439:-1 440:-1 441:-1 442:-1 443:-1 444:-1 445:-1 446:-1 447:-1 448:-0.224112 449:-0.43056 450:-1 451:-1 452:-1 453:0.970108 454:-1 455:-1 456:-1 457:-1 458:-1 459:-1 460:0.0837393 461:-1 462:-1 463:-1 464:-0.252625 465:-1 466:-1 467:-1 468:-1 469:-1 470:-1 471:2.85745 472:-1 473:-1 474:-1 475:-1 476:-0.562239 477:-1 478:-1 479:-1 480:-0.782202 481:1.2776 482:-1 483:-1 484:-1 485:-0.969981 486:-0.49464 487:-1 488:-0.62013 489:-1 490:-1 491:-1 492:-0.0818713 493:-1 494:-0.836285 495:-1 496:-1 497:-1 498:-1 499:-1 500:-1 501:-1 502:-1 503:-1 504:-1 505:-0.75799 506:-1 507:-1 508:-1 509:-1 510:-0.765106 511:-1 512:-1 513:-1 514:0.0105786 515:-1 516:-1 517:-1 518:-1 519:-1 520:-1 521:-1 522:-0.75799 523:-1 524:1.6901 525:-1 526:-1 527:-1 528:-1 529:-1 530:-1 531:-1 532:-1 533:-1 534:-1 535:-0.1348 536:-0.43056 537:-1 538:-1 539:-1 540:-1 541:-1 542:-1 543:-1 544:-1 545:-1 546:-1 547:-0.517718 548:0.250263 549:-0.49464 550:-1 551:-0.224263 552:-1 553:0.0036661 554:0.0036661 555:-1 556:0.636698 557:0.860167 558:-1 559:-1 560:-1 561:-1 562:-1 563:-1 564:-1 565:-1 566:-0.138586 567:-1 568:2.01072 569:-1 570:-1 571:-1 572:-1 573:-1 574:-1 575:-1 576:-1 577:-1 578:-1 579:-1 580:-1 581:-1 582:-1 583:-1 584:-1 585:-1 586:-1 587:-1 588:-1 589:-1 590:-1 591:-1 592:-1 593:-1 594:-1 595:-1 596:-1 597:-1 598:-1 599:-1 600:0.270272 601:-1 602:-1 603:-1 604:-1 605:-1 606:-1 607:-1 608:-0.423304 609:-1 610:-1 611:-1 612:3.44602 613:0.0960887 614:-1 615:-1 616:-1 617:-1 618:-1 619:-1 620:-1 621:-1 622:-1 623:-1 624:-1 625:-1 626:-1 627:0.586007 628:-0.70543 629:-1 630:-1 631:-1 632:-1 633:-1 634:1.02504 635:-1 636:-1 637:-1 638:-1 639:-1 640:-1 641:2.10312 642:-1 643:-1 644:-1 645:-1 646:-1 647:0.551777 648:-1 649:-1 650:-1 651:-1 652:-1 653:-1 654:-1 655:-1 656:-0.0141274 657:-0.543689 658:-1 659:-1 660:-1 661:-1 662:-1 663:-1 664:-1 665:-0.17787 666:-1 667:0.359435 668:-1 669:-1 670:-1 671:-1 672:-1 673:-1 674:-1 675:-0.560834 676:-1 677:-1 678:-1 679:1.8472 680:1.42687 681:-1 682:-1 683:-1 684:-1 685:-1 686:-1 687:-0.440189 688:-1 689:-1 690:-1 691:-1 692:-1 693:0.00650452 694:-1 695:-1 696:-1 697:1.7472 698:-1 699:-1 700:-1 701:-1 702:-0.614201 703:-1 704:-1 705:-1 706:-1 707:-1 708:-1 709:2.94321 710:-1 711:-1 712:2.31224 713:-1 714:-1 715:-1 716:-1 717:-1 718:-1 719:-1 720:-1 721:-1 722:-1 723:-1 724:-1 725:-1 726:-1 727:-1 728:-1 729:-1 730:-1 731:1.7698 732:0.13038 733:-1 734:-1 735:-1 736:-1 737:-1 738:0.848812 739:-1 740:-1 741:-1 742:-0.0390171 743:-1 744:-1 745:-1 746:-1 747:-1 748:-1 749:-1 750:0.0036661 751:-1 752:-1 753:-1 754:-1 755:-1 756:-1 757:-1 758:-0.887281 759:-1 760:-1 761:-1 762:-1 763:-1 764:-1 765:-1 766:-1 767:-1 768:-1 769:-1 770:-1 771:-1 772:-0.744701 773:-0.303143 774:-1 775:-1 776:-1 777:-1 778:-1 779:-1 780:-0.615638 781:-1 782:-1 783:-1 784:-1 785:-1 786:-1 787:-1 788:-1 789:-1 790:-1 791:-1 792:-1 793:-1 794:-1 795:-1 796:-1 797:0.124904 798:-1 799:-1 800:-1 801:0.49475 802:-1 803:1.60836 804:-1 805:-1 806:-1 807:-1 808:-1 809:-1 810:-1 811:-1 812:-1 813:0.373866 814:-1 815:-1 816:-0.66546 817:-1 818:-0.547863 819:-1 820:-1 821:-1 822:-1 823:-1 824:-1 825:-1 826:-1 827:-1 828:-1 829:-1 830:-1 831:-1 832:-1 833:-1 834:-0.656356 835:-1 836:-1 837:-1 838:-1 839:-1 840:0.373866 841:-1 842:-0.202822 843:-1 844:-1 845:-1 846:-1 847:-1 848:-1 849:-0.540685 850:-1 851:-1 852:-1 853:-0.43056 854:-1 855:-1 856:0.525616 857:-1 858:-1 859:-1 860:-1 861:-1 862:-1 863:-0.774454 864:-1 865:-1 866:0.419625 867:1.2604 868:-0.124477 869:-1 870:-1 871:-1 872:-1 873:-1 874:-1 875:1.72825 876:-1 877:-0.697222 878:-1 879:-1 880:-1 881:-0.124477 882:-1 883:-0.0241645 884:-1 885:-1 886:-1 887:-1 888:-1 889:-1 890:-1 891:-1 892:-1 893:-1 894:-1 895:-1 896:-1 897:-1 898:-1 899:-1 900:-1 901:-1 902:-1 903:-1 904:-1 905:-1 906:-1 907:-1 908:-1 909:-1 910:-1 911:-1 912:-1 913:-1 914:-1 915:-1 916:-1 917:-0.841449 918:-1 919:-1 920:-1 921:-1 922:-1 923:-0.556117 924:-0.49464 925:-0.447146 926:-1 927:-1 928:1.32164 929:1.62632 930:-1 931:-1 932:-0.567426 933:-0.876469 934:0.658434 935:-1 936:4.12407 937:-1 938:-1 939:-1 940:-0.888154 941:-1 942:-0.75799 943:-1 944:-1 945:-1 946:-1 947:-1 948:-1 949:-1 950:-1 951:-1 952:-1 953:-1 954:-1 955:-1 956:-1 957:-1 958:-1 959:1.51129 960:1.36557 961:1.55492 962:-1 963:-1 964:-1 965:-1 966:-1 967:-1 968:0.49475 969:-1 970:0.373866 971:-1 972:-1 973:-1 974:-1 975:-0.672616 976:1.7472 977:1.16288 978:-0.53683 
0 0 0 0.133263899716335 0 0:0.732181 1:-0.429539 2:-1 3:-1 4:-1 5:-1 6:-1 7:-1 8:-1 9:-1 10:-1 11:0.306898 12:1.75387 13:-1 14:-1 15:-1 16:-1 17:0.961789 18:-1 19:-1 20:-0.406373 21:-1 22:-1 23:-1 24:-1 25:-1 26:-1 27:-0.209983 28:-1 29:-1 30:-1 31:-1 32:-0.458312 33:1.88736 34:-1 35:-1 36:-1 37:-1 38:-0.554827 39:-0.545224 40:-1 41:-1 42:0.573284 43:-1 44:-1 45:-1 46:0.553506 47:-1 48:-0.756872 49:-1 50:-1 51:-1 52:-1 53:-1 54:-1 55:-1 56:-1 57:0.353912 58:-1 59:-1 60:-1 61:-0.646367 62:-1 63:-1 64:-1 65:-1 66:-1 67:-1 68:-1 69:-1 70:-1 71:-1 72:-1 73:-0.6632 74:-1 75:-0.406373 76:-1 77:1.74434 78:-1 79:0.624855 80:-1 81:-1 82:-0.387981 83:-0.966586 84:-1 85:-1 86:-1 87:-1 88:-1 89:-1 90:-0.793708 91:-0.070435 92:-1 93:-1 94:-0.416898 95:-1 96:-1 97:-1 98:-1 99:-1 100:-0.856861 101:-1 102:-1 103:-1 104:-1 105:-1 106:-1 107:-1 108:-1 109:-1 110:1.51945 111:-1 112:-1 113:-1 114:-1 115:-1 116:-1 117:0.435976 118:-1 119:-1 120:-0.521482 121:-1 122:-1 123:2.25048 124:-1 125:-0.752397 126:-0.224249 127:-1 128:-1 129:-0.684242 130:0.83584 131:-0.541094 132:-1 133:-1 134:-1 135:-1 136:0.336932 137:-1 138:-1 139:-1 140:-1 141:-1 142:-1 143:-1 144:-1 145:-0.856861 146:3.41636 147:-1 148:-0.770359 149:-1 150:-1 151:-1 152:-1 153:-0.981586 154:-1 155:-0.406373 156:-1 157:-0.903169 158:-1 159:-1 160:-1 161:-1 162:-1 163:-0.974736 164:-0.482165 165:-1 166:-0.204309 167:-1 168:-0.115918 169:-1 170:-0.485141 171:-1 172:0.815464 173:-1 174:-1 175:-1 176:-1 177:-1 178:-1 179:-1 180:-1 181:-1 182:-0.557959 183:-1 184:-0.9094 185:-1 186:-1 187:1.81451 188:-1 189:-1 190:1.65267 191:0.408887 192:-0.7011 193:-1 194:-1 195:-1 196:-1 197:-1 198:-1 199:-0.802134 200:-0.115918 201:-1 202:-1 203:-1 204:-1 205:0.30786 206:-1 207:-1 208:-0.267444 209:-0.703187 210:-1 211:1.33787 212:-1 213:-1 214:-1 215:-1 216:-1 217:-0.654777 218:-0.55341 219:-1 220:-0.206259 221:-1 222:-1 223:-0.351709 224:-1 225:-0.630079 226:-0.579 227:-1 228:-0.204309 229:-1 230:-1 231:-1 232:-0.349803 233:-1 234:-1 235:-1 236:-1 237:-1 238:-0.302056 239:-1 240:-1 241:-0.713688 242:-1 243:-1 244:-1 245:-0.579 246:-1 247:-1 248:-1 249:-1 250:-0.897146 251:-1 252:-1 253:-1 254:-1 255:-1 256:-0.698816 257:-1 258:-1 259:-1 260:2.78007 261:-1 262:-1 263:-1 264:-1 265:-1 266:-1 267:-1 268:-1 269:-1 270:-1 271:-1 272:-1 273:-1 274:-1 275:-1 276:-1 277:-1 278:-1 279:-1 280:-1 281:-1 282:-1 283:-1 284:-1 285:-1 286:-1 287:-1 288:-1 289:-0.715829 290:-1 291:-1 292:-1 293:-0.485707 294:0.197724 295:-0.835893 296:-0.429539 297:-0.856861 298:-0.282182 299:-0.429539 300:-1 301:-1 302:-1 303:3.28165 304:-1 305:-1 306:0.217259 307:-1 308:-1 309:-0.513745 310:-0.431619 311:-0.887733 312:-1 313:-1 314:-1 315:-1 316:-1 317:-1 318:-1 319:-1 320:-0.95396 321:0.140921 322:-1 323:-0.406373 324:-1 325:-1 326:-0.637857 327:-1 328:-1 329:-1 330:-1 331:-1 332:-1 333:-1 334:-1 335:-0.513745 336:-1 337:-1 338:-0.0819708 339:-1 340:-1 341:-1 342:-1 343:-1 344:-1 345:-1 346:-1 347:-1 348:-1 349:-1 350:0.459113 351:0.157822 352:-1 353:-1 354:-1 355:-1 356:-1 357:-0.64814 358:-0.164351 359:-0.152576 360:-1 361:-1 362:-1 363:0.296581 364:-1 365:-1 366:-1 367:-0.88633 368:-1 369:-1 370:-1 371:-1 372:-1 373:-1 374:-1 375:-1 376:-1 377:-1 378:-0.709462 379:-1 380:-1 381:-1 382:-1 383:-0.622489 384:-1 385:-1 386:-1 387:-1 388:-1 389:-0.709334 390:-1 391:-1 392:0.0359164 393:0.0300954 394:-1 395:-0.703187 396:-1 397:-0.713654 398:-1 399:-1 400:-1 401:-1 402:-1 403:-1 404:-0.928431 405:-1 406:-0.02433 407:-0.871289 408:-1 409:-1 410:-1 411:-1 412:-1 413:-0.115918 414:0.511127 415:-1 416:-0.684927 417:-1 418:-1 420:-1 421:-1 422:-1 423:-0.7011 424:-0.235935 425:-0.267444 426:-1 427:-1 428:-1 429:-1 430:-1 431:-0.856827 432:-1 433:-1 434:-1 435:0.187535 436:0.166205 437:-1 438:-1 439:-1 440:-1 441:-0.164351 442:-1 443:-1 444:-1 445:-1 446:-1 447:-1 448:-1 449:-1 450:0.0670214 451:-1 452:-1 453:-1 454:-1 455:-1 456:-1 457:-1 458:-1 459:-1 460:-1 461:-1 462:-1 463:-1 464:-1 465:-0.160351 466:-1 467:-1 468:-1 469:-1 470:-1 471:4.70515 472:-1 473:-1 474:-1 475:-1 476:-1 477:-1 478:-1 479:-1 480:-1 481:0.34736 482:-1 483:-0.729556 484:-1 485:-1 486:-0.7011 487:-1 488:1.02231 489:-1 490:-1 491:-0.769467 492:-0.818971 493:-1 494:-1 495:-1 496:-1 497:-1 498:-1 499:-1 500:-1 501:-1 502:-1 503:-1 504:-1 505:-0.713654 506:-1 507:-1 508:-1 509:-0.856827 510:-1 511:-1 512:-1 513:-1 514:1.09258 515:-1 516:0.0356704 517:4.03799 518:-1 519:-1 520:-1 521:-1 522:-1 523:-1 524:0.591081 525:-1 526:-0.806293 527:0.140921 528:-1 529:-1 530:-1 531:-1 532:-1 533:-0.6632 534:-1 535:-1 536:-0.6632 537:-1 538:-0.0449183 539:0.140921 540:2.34357 541:-1 542:-1 543:-1 544:-1 545:-1 546:-1 547:-1 548:0.232697 549:1.98942 550:-0.481212 551:-1 552:-0.73258 553:0.187535 554:-1 555:-1 556:-1 557:-0.449817 558:-1 559:-1 560:-0.187416 561:-1 562:-1 563:-1 564:-1 565:-1 566:0.0192447 567:-0.656775 568:-0.406373 569:-0.282182 570:-1 571:-1 572:-1 573:1.50182 574:-1 575:0.397742 576:-1 577:-1 578:-1 579:2.33035 580:-1 581:-1 582:-0.292675 583:-1 584:-1 585:-1 586:-1 587:-1 588:-1 589:-1 590:-1 591:-1 592:-1 593:-1 594:-1 595:-1 596:-1 597:-1 598:-1 599:-1 600:-0.248498 601:-1 602:-1 603:-1 604:-0.282182 605:-1 606:-0.861166 607:-0.406373 608:-0.31764 609:-1 610:-1 611:-1 612:0.753462 613:0.296889 614:-1 615:-1 616:-1 617:-1 618:-1 619:-1 620:-0.027489 621:-1 622:-1 623:-1 624:2.19128 625:-1 626:-1 627:-1 628:-1 629:-1 630:-1 631:-0.257234 632:-1 633:-1 634:-1 635:-1 636:0.831231 637:-1 638:-1 639:-1 640:-1 641:-0.0821888 642:-1 643:-1 644:-1 645:-1 646:-1 647:-1 648:-1 649:-0.103159 650:-1 651:-1 652:-1 653:-1 654:-1 655:-1 656:-0.416898 657:-1 658:-1 659:-1 660:-1 661:-1 662:-1 663:-1 664:-1 665:-1 666:-1 667:-1 668:-0.928431 669:-1 670:-1 671:-1 672:-1 673:-1 674:-1 675:0.0391165 676:-0.282182 677:-1 678:-1 679:5.7368 680:1.87146 681:-1 682:-1 683:-1 684:-1 685:-1 686:1.09764 687:-1 688:-0.962636 689:-1 690:-1 691:-1 692:-1 693:-1 694:-1 695:-1 696:-1 697:0.624855 698:-1 699:-1 700:-1 701:-1 702:-1 703:-1 704:-1 705:-1 706:-1 707:-1 708:-1 709:-1 710:-1 711:0.768585 712:-1 713:1.26523 714:-1 715:1.22041 716:-1 717:-1 718:-1 719:-1 720:-0.469573 721:-1 722:-1 723:-1 724:-1 725:-1 726:-1 727:-1 728:-1 729:-1 730:-1 731:-1 732:-0.331428 733:-1 734:-1 735:-1 736:-1 737:-1 738:-1 739:0.259348 740:-1 741:-1 742:-0.431619 743:0.625555 744:-1 745:-1 746:-1 747:-1 748:-1 749:-1 750:0.187535 751:-1 752:5.21552 753:-1 754:-1 755:-1 756:-1 757:-1 758:-0.933331 759:-1 760:-1 761:-1 762:0.140921 763:-1 764:-1 765:-1 766:-1 767:-1 768:-0.197484 769:-1 770:-1 771:-0.881188 772:-1 773:-1 774:-1 775:-1 776:-1 777:-1 778:-1 779:-1 780:-1 781:-1 782:-1 783:-1 784:-1 785:-1 786:-1 787:-1 788:-1 789:0.220998 790:-1 791:-1 792:-0.497673 793:-1 794:-1 795:-1 796:-1 797:-0.239467 798:-1 799:-1 800:-0.282182 801:-1 802:0.140921 803:-1 804:-1 805:-1 806:1.75387 807:-1 808:-1 809:-1 810:-1 811:-1 812:-1 813:-1 814:-1 815:-1 816:-1 817:-1 818:-1 819:-0.793708 820:-1 821:-1 822:-0.783892 823:-1 824:-1 825:-1 826:-1 827:-0.31789 828:-1 829:-1 830:-1 831:-1 832:-1 833:-1 834:-0.932243 835:0.140921 836:-1 837:-1 838:-1 839:-0.6632 840:-1 841:-1 842:-1 843:1.26542 844:-1 845:-1 846:-1 847:-1 848:0.625322 849:1.17358 850:-1 851:-1 852:-1 853:-0.6632 854:-1 855:-1 856:-0.0973205 857:-1 858:-1 859:-0.219069 860:-1 861:-1 862:-1 863:-0.866599 864:-1 865:-1 866:-1 867:0.336932 868:-1 869:-1 870:0.136609 871:-1 872:-1 873:-1 874:-1 875:-1 876:0.258042 877:-1 878:-1 879:-0.705306 880:-1 881:-1 882:-1 883:-0.278423 884:-1 885:-1 886:-1 887:-1 888:-1 889:-1 890:-1 891:-1 892:-1 893:-1 894:-1 895:-1 896:0.775155 897:-1 898:0.0794872 899:-0.278244 900:-1 901:-1 902:-1 903:-1 904:-1 905:-0.351709 906:-1 907:-1 908:-1 909:-1 910:-1 911:-1 912:-1 913:-1 914:-1 915:-0.187416 916:-1 917:-0.906224 918:-1 919:-1 920:-1 921:-0.406373 922:-1 923:-1 924:0.793681 925:-1 926:-1 927:-0.429539 928:-0.313326 929:-0.482165 930:-1 931:-0.203406 932:-1 933:-1 934:-1 935:-1 936:1.02112 937:-1 938:-1 939:-1 940:-0.933848 941:-1 942:-1 943:-1 944:-1 945:-1 946:-1 947:-1 948:2.02044 949:-1 950:-1 951:-1 952:-1 953:-1 954:0.136609 955:-1 956:-1 957:-1 958:-1 959:-1 960:-1 961:-1 962:-1 963:-1 964:-1 965:-1 966:-1 967:-1 968:-1 969:-1 970:0.625555 971:-1 972:-1 973:-1 974:-1 975:-0.806293 976:-1 977:0.279579 978:-1 
0 0 0 0.4792231490500887 0 0:0.0825877 1:-1 2:-1 3:-1 4:-0.762551 5:-1 6:-1 7:-1 8:-1 9:-1 10:-1 11:1.04206 12:-1 13:-1 14:-1 15:-1 16:0.349744 17:-1 18:-1 19:-0.57888 20:-1 21:-1 22:-1 23:-1 24:-1 25:-0.878927 26:0.453441 27:-1 28:-1 29:-1 30:-1 31:-1 32:-1 33:0.80456 34:-1 35:-0.95643 36:-1 37:-1 38:-1 39:-1 40:-1 41:-1 42:-0.508267 43:-1 44:-1 45:-1 46:-1 47:1.20805 48:-1 49:-1 50:-1 51:-1 52:-1 53:-0.642119 54:-1 55:-1 56:-1 57:0.128189 58:-1 59:-1 60:-1 61:-1 62:-1 63:-1 64:-1 65:-1 66:-0.946109 67:-1 68:-1 69:-1 70:-1 71:-1 72:-1 73:-1 74:-1 75:-1 76:-0.935356 77:-1 78:-0.931568 79:-1 80:-1 81:-1 82:-1 83:-0.958233 84:-1 85:-1 86:-0.92237 87:-1 88:-1 89:-1 90:-1 91:-1 92:-1 93:-1 94:-1 95:-0.746007 96:-1 97:-1 98:-1 99:-1 100:-1 101:-1 102:-1 103:-1 104:-1 105:-1 106:-1 107:-1 108:-1 109:-1 110:-1 111:-1 112:-1 113:-1 114:0.458172 115:-1 116:-1 117:-1 118:-1 119:-1 120:-1 121:-0.671288 122:-1 123:3.06252 124:-1 125:-1 126:-0.030035 127:-1 128:-1 129:-0.60519 130:-1 131:-1 132:-1 133:-1 134:-1 135:-1 136:-1 137:-1 138:-1 139:-0.949594 140:-1 141:-1 142:-1 143:-1 144:-1 145:-1 146:-1 147:-1 148:-1 149:-1 150:-1 151:-1 152:-1 153:-1 154:-1 155:-1 156:-1 157:-1 158:-1 159:-1 160:-1 161:-1 162:-1 163:-0.994736 164:-1 165:-1 166:-1 167:0.63529 168:-1 169:-1 170:-1 171:-1 172:-1 173:-1 174:-1 175:-0.822342 176:-1 177:-1 178:-1 179:-1 180:-1 181:-1 182:-0.447291 183:-1 184:-1 185:-1 186:-1 187:-1 188:-1 189:-1 190:-1 191:1.1133 192:-1 193:-1 194:-1 195:-1 196:-1 197:-1 198:-1 199:-1 200:-1 201:-1 202:-1 203:-1 204:-1 205:-1 206:-1 207:-1 208:-1 209:-0.257896 210:-1 211:-1 212:-0.459548 213:-1 214:-1 215:-1 216:-1 217:-1 218:-1 219:-1 220:-1 221:-1 222:-1 223:-1 224:-1 225:-1 226:-1 227:-1 228:-1 229:-0.0920383 230:-1 231:-1 232:-1 233:-1 234:-0.276464 235:0.147591 236:-1 237:-1 238:-1 239:-1 240:-0.858536 241:-0.910513 242:-1 243:-1 244:-1 245:-1 246:-1 247:2.64749 248:-1 249:-1 250:-1 251:-1 252:-1 253:-1 254:-1 255:-1 256:-1 257:-1 258:-1 259:-1 260:-1 261:-1 262:-0.808742 263:-1 264:-1 265:-1 266:-1 267:-1 268:-1 269:-1 270:-1 271:-1 272:-1 273:-1 274:-1 275:-1 276:-1 277:-1 278:-1 279:-1 280:-1 281:0.310757 282:-1 283:-1 284:-1 285:-1 286:-1 287:-1 288:-1 289:-1 290:-1 291:-1 292:-1 293:-0.356951 294:-1 295:-1 296:-1 297:-1 298:-1 299:-1 300:-1 301:-1 302:-1 303:-1 304:-1 305:-1 306:0.901995 307:-1 308:-1 309:-1 310:-1 311:-1 312:-1 313:-1 314:-1 315:-0.910513 316:-1 317:-1 318:-1 319:-1 320:-1 321:-1 322:-1 323:-1 324:-1 325:-1 326:-1 327:-1 328:-1 329:-1 330:-1 331:-1 332:-1 333:-1 334:-1 335:-1 336:-1 337:-1 338:-1 339:-1 340:-1 341:-1 342:-1 343:-1 344:-1 345:0.44565 346:-1 347:-1 348:-1 349:-1 350:-1 351:-1 352:-1 353:-1 354:-0.581325 355:-1 356:-1 357:-1 358:-1 359:-1 360:-0.516443 361:-1 362:-0.901036 363:-1 364:-1 365:-1 366:-1 367:-1 368:-1 369:-1 370:-1 371:-0.858258 372:-1 373:-1 374:-1 375:-1 376:-1 377:-1 378:-1 379:-1 380:-1 381:-0.642119 382:-1 383:-1 384:-0.788632 385:-1 386:-1 387:-1 388:3.02063 389:-1 390:-1 391:-1 392:-0.352522 393:-1 394:-1 395:-1 396:-1 397:-0.821025 398:-1 399:-1 400:-1 401:-1 402:-1 403:-0.94736 404:-0.910513 405:-0.352522 406:-0.390206 407:-0.356385 408:-1 409:-1 410:-1 411:-1 412:-1 413:-1 414:-1 415:-1 416:-1 417:-1 418:-1 420:-1 421:-1 422:-1 423:-1 424:-1 425:-1 426:-1 427:-1 428:-1 429:-1 430:-1 431:1.05787 432:-1 433:-1 434:-1 435:-0.257755 436:-1 437:-0.0888587 438:-1 439:-1 440:-1 441:-1 442:-1 443:-1 444:-1 445:-1 446:-1 447:-1 448:-1 449:-1 450:-1 451:-1 452:-1 453:-1 454:-1 455:-1 456:-0.989472 457:-1 458:-1 459:-1 460:-1 461:-1 462:-1 463:-0.433613 464:-1 465:-1 466:-1 467:-0.457823 468:-1 469:-1 470:-1 471:-1 472:-1 473:-1 474:-1 475:-1 476:-1 477:-0.319633 478:-0.789783 479:-1 480:-1 481:-1 482:-1 483:-1 484:-1 485:-1 486:-0.25268 487:-1 488:-0.719074 489:-1 490:-1 491:-1 492:-1 493:-1 494:-1 495:-1 496:-1 497:-1 498:-1 499:-1 500:-1 501:-1 502:2.221 503:-1 504:-1 505:-0.284238 506:-1 507:-1 508:-1 509:-1 510:-0.826288 511:-1 512:-1 513:4.07933 514:-0.25268 515:-1 516:-1 517:-1 518:-1 519:-1 520:-1 521:0.576992 522:-1 523:-0.751885 524:-1 525:-1 526:-1 527:0.426558 528:-1 529:-1 530:-1 531:-1 532:-1 533:-1 534:-1 535:-1 536:-1 537:-1 538:1.38793 539:-1 540:0.39333 541:-1 542:-1 543:-1 544:-1 545:-1 546:-0.484831 547:-1 548:1.15728 549:2.36301 550:-1 551:-1 552:-1 553:-1 554:-1 555:-1 556:-1 557:-0.312075 558:-1 559:-1 560:-1 561:-1 562:-1 563:-1 564:-1 565:0.421166 566:2.8222 567:-1 568:-1 569:-1 570:-1 571:-1 572:-1 573:1.68042 574:-0.284238 575:-1 576:-0.98684 577:-1 578:-1 579:-1 580:-1 581:-1 582:-1 583:-1 584:-1 585:-1 586:-1 587:-1 588:-1 589:-1 590:-1 591:-0.426204 592:-1 593:-1 594:-1 595:-1 596:-1 597:-1 598:-1 599:-1 600:-1 601:-1 602:-1 603:-1 604:-1 605:-1 606:-1 607:-1 608:-0.573535 609:7.73824 610:-1 611:-1 612:-0.451952 613:0.620881 614:-1 615:-1 616:-1 617:-1 618:-0.821059 619:-1 620:0.215985 621:-1 622:-1 623:-0.822396 624:-0.501374 625:-1 626:-1 627:-1 628:-0.782155 629:-1 630:-1 631:-1 632:-1 633:-1 634:-1 635:-1 636:-1 637:-1 638:-1 639:-1 640:-1 641:-1 642:-1 643:-1 644:-1 645:-1 646:-1 647:-1 648:-1 649:-0.626269 650:-1 651:-1 652:-1 653:-1 654:-1 655:-1 656:-1 657:-1 658:-1 659:-1 660:-1 661:-1 662:-1 663:-1 664:-1 665:-1 666:-1 667:-1 668:-1 669:-1 670:-1 671:-1 672:-0.804723 673:-1 674:-1 675:0.623643 676:-1 677:-1 678:-1 679:-1 680:-1 681:-1 682:-1 683:-1 684:0.572709 685:-1 686:-1 687:-1 688:-1 689:-1 690:-1 691:-1 692:-1 693:-1 694:-1 695:-1 696:-1 697:-1 698:-1 699:-1 700:-1 701:-1 702:-1 703:-1 704:-1 705:-1 706:-1 707:-1 708:-1 709:-1 710:-1 711:-1 712:-1 713:-0.291997 714:-1 715:-1 716:-1 717:-1 718:-1 719:-1 720:-1 721:-1 722:-1 723:-1 724:-1 725:-0.97368 726:-1 727:-1 728:-0.169061 729:-1 730:-1 731:-1 732:-1 733:-1 734:-1 735:-1 736:-1 737:-0.762883 738:-1 739:-1 740:-1 741:-1 742:-1 743:-1 744:-1 745:-1 746:-1 747:-0.257755 748:-1 749:-1 750:-1 751:-1 752:0.11008 753:-1 754:-1 755:-1 756:-1 757:-1 758:-0.833312 759:-1 760:-1 761:-1 762:-1 763:-1 764:-1 765:-1 766:-0.715751 767:-1 768:0.00343119 769:-0.797336 770:-1 771:-1 772:-1 773:-1 774:-1 775:-1 776:0.105418 777:-1 778:-1 779:-1 780:-1 781:-1 782:-1 783:-1 784:-0.850318 785:-1 786:-1 787:-1 788:-1 789:-1 790:-1 791:-1 792:-1 793:-1 794:-1 795:-1 796:-1 797:0.307157 798:-1 799:-1 800:0.794714 801:-1 802:-1 803:-1 804:-1 805:-1 806:-1 807:-1 808:-1 809:-1 810:-0.136859 811:-1 812:-1 813:-1 814:-1 815:-1 816:-1 817:-1 818:-1 819:-1 820:-1 821:-1 822:-1 823:-1 824:-1 825:-0.910513 826:-1 827:-1 828:-1 829:-1 830:-1 831:-1 832:-1 833:-1 834:-0.661184 835:-1 836:-1 837:-1 838:-1 839:-1 840:-1 841:-1 842:-1 843:-1 844:-1 845:-1 846:-1 847:-1 848:-1 849:1.03768 850:-1 851:-1 852:-1 853:-1 854:-1 855:1.70701 856:-1 857:-1 858:-1 859:-1 860:-1 861:-1 862:-1 863:-1 864:-1 865:-1 866:-1 867:-1 868:-1 869:-1 870:-1 871:-1 872:-1 873:-1 874:-1 875:-1 876:-0.475749 877:-0.776086 878:-0.94736 879:-1 880:-1 881:-0.352522 882:-0.914907 883:0.443222 884:-1 885:-1 886:-1 887:-1 888:-1 889:-1 890:-1 891:-0.172159 892:-1 893:-1 894:-1 895:-0.799581 896:-1 897:-1 898:-1 899:-1 900:-1 901:-1 902:-1 903:-1 904:-1 905:-1 906:-1 907:-1 908:-1 909:-1 910:-1 911:-1 912:-1 913:-1 914:0.326194 915:-1 916:-1 917:-0.648283 918:-1 919:-1 920:-1 921:0.484208 922:-1 923:-0.67175 924:4.23138 925:-1 926:-1 927:-1 928:17.0274 929:-0.352522 930:-1 931:-1 932:-0.680097 933:-1 934:-1 935:-1 936:-1 937:-0.00510301 938:-1 939:-1 940:-0.834603 941:-1 942:-0.821025 943:-1 944:-1 945:-1 946:-1 947:-1 948:-1 949:-1 950:-1 951:-1 952:-1 953:-1 954:-1 955:-1 956:-1 957:-1 958:-1 959:-1 960:-1 961:-1 962:-1 963:-1 964:-1 965:-1 966:-0.557833 967:-1 968:-1 969:-1 970:-1 971:-1 972:-1 973:-1 974:-1 975:-0.152629 976:-1 977:-0.466876 978:-1 
0.8884254490560062 0 0 0.1669156458269443 0 0:0.188933 1:-1 2:-1 3:-1 4:-1 5:-1 6:-1 7:-1 8:-1 9:-1 10:-1 11:1.69124 12:0.260083 13:-0.199446 14:-1 15:-1 16:-1 17:-1 18:0.780105 19:-1 20:-0.184997 21:-1 22:-1 23:-1 24:1.34986 25:-0.867059 26:-1 27:-1 28:-0.595408 29:-1 30:-1 31:-1 32:-1 33:-0.00908623 34:-0.203857 35:-1 36:-1 37:-0.175111 38:-1 39:-0.687888 40:-0.332409 41:-1 42:-1 43:-0.589634 44:-0.184997 45:-0.579972 46:-1 47:-1 48:-0.666205 49:-1 50:0.19077 51:-0.586582 52:-1 53:-0.803482 54:-0.595408 55:-0.280378 56:-1 57:-1 58:-1 59:-1 60:-1 61:-1 62:-1 63:-1 64:-1 65:-1 66:-1 67:-1 68:1.2308 69:-1 70:-1 71:-1 72:-1 73:-0.5376 74:-1 75:-0.184997 76:-1 77:-0.0581717 78:-0.92486 79:-1 80:-1 81:-0.588788 82:-1 83:-0.709493 84:-1 85:-0.92486 86:-1 87:-1 88:-1 89:-1 90:-1 91:-1 92:-1 93:-0.82838 94:-1 95:-0.72111 96:-1 97:-1 98:-1 99:-1 100:-1 101:-1 102:-0.777058 103:-1 104:-1 105:-1 106:-1 107:-1 108:-1 109:-1 110:-1 111:-1 112:-1 113:-1 114:-1 115:-1 116:-1 117:-1 118:-1 119:-1 120:-0.343033 121:-1 122:-1 123:-1 124:-1 125:-1 126:-1 127:-1 128:-1 129:-0.132978 130:-1 131:-1 132:-1 133:-1 134:-1 135:-1 136:-1 137:-1 138:-1 139:-1 140:-0.306372 141:-1 142:-0.332409 143:-0.7688 144:-1 145:-0.803482 146:-1 147:-0.184997 148:-1 149:-1 150:-1 151:-1 152:-1 153:-1 154:-0.184997 155:-1 156:-1 157:-1 158:-1 159:-1 160:-1 161:-1 162:-1 163:-0.98844 164:-1 165:-1 166:-1 167:-1 168:0.213776 169:-1 170:-1 171:-1 172:-0.169302 173:-1 174:-0.967488 175:-0.804927 176:-1 177:-1 178:-0.687888 179:-1 180:-1 181:-1 182:-1 183:-0.842012 184:-1 185:-1 186:-1 187:1.89806 188:-1 189:-1 190:0.213776 191:-1 192:-1 193:1.4775 194:-1 195:-1 196:-1 197:-1 198:-1 199:-1 200:-1 201:-1 202:-1 203:-1 204:-1 205:-1 206:-1 207:0.213776 208:-1 209:-1 210:-1 211:-0.197575 212:-1 213:-1 214:-1 215:-1 216:-1 217:0.422058 218:-0.386868 219:-1 220:-1 221:-1 222:-0.363015 223:-0.109948 224:-0.51449 225:-1 226:-1 227:-1 228:-1 229:-0.252049 230:-1 231:-1 232:-1 233:-1 234:-1 235:1.52017 236:-1 237:-1 238:-1 239:-1 240:-1 241:-0.901741 242:-1 243:-1 244:-1 245:-1 246:-1 247:-1 248:-1 249:-1 250:-1 251:2.45872 252:-1 253:-1 254:-0.5376 255:0.601108 256:-0.793298 257:-1 258:-1 259:-1 260:1.59425 261:0.792804 262:-0.789994 263:-1 264:-1 265:-1 266:-1 267:-1 268:-1 269:-1 270:-1 271:-1 272:-1 273:-1 274:-1 275:-0.466297 276:-0.608878 277:-1 278:-1 279:-1 280:-1 281:-1 282:-0.982247 283:-0.609855 284:-1 285:-1 286:-1 287:-1 288:-1 289:-1 290:-1 291:-1 292:-1 293:-1 294:-1 295:-1 296:-1 297:-0.410377 298:-1 299:-1 300:-0.739897 301:-1 302:-1 303:1.93849 304:-1 305:-1 306:-0.582249 307:-1 308:-1 309:-1 310:0.560686 311:-1 312:-1 313:-1 314:-1 315:-1 316:-1 317:-0.90463 318:-1 319:-1 320:-0.936805 321:-1 322:-0.317833 323:-0.184997 324:-1 325:-1 326:-1 327:-1 328:-1 329:-1 330:-0.803482 331:-1 332:-1 333:-1 334:-1 335:-1 336:-1 337:-1 338:-0.369959 339:-1 340:0.644381 341:-1 342:-1 343:-0.779684 344:-0.881496 345:-1 346:-1 347:-0.90463 348:-0.803482 349:-1 350:-1 351:-1 352:-1 353:1.57576 354:-1 355:-1 356:-1 357:-1 358:0.147281 359:-1 360:-1 361:-1 362:-1 363:-1 364:-1 365:-1 366:-1 367:-1 368:-0.9422 369:-1 370:-1 371:-0.844364 372:-1 373:-1 374:-1 375:-1 376:-1 377:-1 378:-1 379:-1 380:-0.586227 381:-1 382:-1 383:-1 384:-0.690485 385:-1 386:-1 387:-1 388:-1 389:-1 390:-1 391:-1 392:-0.289053 393:-1 394:-1 395:-1 396:-1 397:-0.803482 398:-1 399:-1 400:-1 401:-1 402:-1 403:-1 404:-1 405:-1 406:-1 407:-0.82329 408:-1 409:-1 410:-0.0288978 411:-1 412:-1 413:0.213776 414:1.07466 415:-1 416:-1 417:-1 418:-1 420:-1 421:-1 422:-1 423:-1 424:0.0490018 425:-1 426:-1 427:-0.703301 428:-0.5376 429:-1 430:-1 431:-0.50867 432:-0.184997 433:-1 434:-0.611585 435:-1 436:-1 437:-1 438:-1 439:-1 440:-0.488722 441:0.147281 442:-1 443:-0.520252 444:-1 445:-1 446:-1 447:-1 448:-1 449:-1 450:-1 451:-1 452:-1 453:-1 454:-1 455:-0.531766 456:-1 457:-1 458:-1 459:-1 460:-1 461:-1 462:-1 463:-1 464:-1 465:-1 466:-1 467:-1 468:-1 469:-1 470:-1 471:2.13279 472:-1 473:-0.754022 474:-1 475:-1 476:-1 477:-1 478:-1 479:-1 480:-1 481:-1 482:-1 483:-0.628702 484:-1 485:-0.951247 486:-0.179269 487:-1 488:1.15936 489:-1 490:-1 491:-1 492:-0.751462 493:-1 494:-1 495:-1 496:-1 497:-1 498:-1 499:-1 500:-1 501:-1 502:-0.606963 503:-1 504:-1 505:-1 506:-1 507:-1 508:-1 509:-1 510:-1 511:-1 512:-1 513:-1 514:0.231239 515:-1 516:-1 517:-1 518:-1 519:-1 520:-1 521:-1 522:-0.803482 523:-1 524:-1 525:-1 526:-1 527:-1 528:-1 529:-0.968531 530:-0.912514 531:-0.0288978 532:-1 533:-0.5376 534:-1 535:-1 536:-0.5376 537:-1 538:0.311252 539:-1 540:2.05982 541:-1 542:-1 543:-1 544:-1 545:-1 546:-1 547:-1 548:1.70769 549:0.641605 550:-1 551:-0.684996 552:-1 553:-1 554:-1 555:-1 556:0.329041 557:-0.244642 558:-1 559:-1 560:-1 561:-1 562:-1 563:-1 564:0.068787 565:-1 566:-1 567:-1 568:-1 569:-1 570:-1 571:-0.289053 572:-1 573:-0.018759 574:-1 575:-1 576:-1 577:-1 578:-1 579:-1 580:-1 581:-1 582:-1 583:0.0197601 584:-1 585:-1 586:-0.585604 587:-1 588:-1 589:-1 590:-1 591:-1 592:-1 593:-1 594:-1 595:-1 596:-1 597:-0.141287 598:-1 599:0.630006 600:-1 601:-0.393112 602:-1 603:-1 604:-1 605:-1 606:-0.809392 607:-1 608:-0.297383 609:11.7958 610:-1 611:-1 612:0.20354 613:-0.109948 614:-1 615:-0.757245 616:-1 617:-1 618:-1 619:-1 620:-1 621:-1 622:-1 623:-1 624:-1 625:-1 626:-1 627:-1 628:-1 629:-1 630:-1 631:-1 632:-1 633:-1 634:-1 635:-1 636:1.51414 637:-1 638:-1 639:-1 640:2.18457 641:0.260083 642:-1 643:-1 644:-1 645:0.169094 646:-1 647:-1 648:-1 649:-0.589634 650:-1 651:-1 652:-1 653:-1 654:-1 655:-1 656:-1 657:-1 658:-1 659:-1 660:-1 661:-1 662:-1 663:-1 664:-1 665:-1 666:-1 667:-1 668:-1 669:-1 670:-1 671:-1 672:-1 673:-1 674:-1 675:-0.286772 676:-0.0144928 677:-1 678:-1 679:-1 680:-1 681:-1 682:-1 683:-0.5376 684:-1 685:-1 686:-1 687:-1 688:-1 689:-1 690:-1 691:-1 692:-1 693:-1 694:-1 695:-1 696:-1 697:-1 698:-1 699:-1 700:-0.606963 701:-1 702:-1 703:-1 704:-1 705:-1 706:-1 707:-1 708:-1 709:-0.199446 710:-1 711:-1 712:-1 713:-1 714:-1 715:-1 716:-1 717:0.115615 718:-1 719:-1 720:-1 721:-1 722:-1 723:2.45901 724:-1 725:-1 726:-1 727:-1 728:-1 729:-1 730:-1 731:-1 732:-1 733:-1 734:-1 735:-1 736:-1 737:-1 738:-1 739:-1 740:-1 741:-1 742:-1 743:-1 744:-1 745:-1 746:-1 747:-0.184997 748:0.592287 749:-1 750:-1 751:-0.109948 752:-1 753:-1 754:-1 755:-1 756:-0.0981432 757:-1 758:-1 759:-1 760:-1 761:-1 762:-1 763:-1 764:-1 765:-1 766:-1 767:-1 768:1.20358 769:-1 770:-1 771:-1 772:-1 773:-1 774:-1 775:-1 776:-1 777:-1 778:-1 779:-1 780:-1 781:-1 782:-1 783:4.18851 784:-1 785:-1 786:-1 787:-1 788:-1 789:-1 790:-1 791:-1 792:-1 793:-1 794:-1 795:-1 796:-1 797:0.696636 798:-1 799:-1 800:-1 801:0.213776 802:-1 803:-1 804:-1 805:-0.671498 806:-1 807:-1 808:-1 809:-1 810:-0.526035 811:-1 812:-1 813:-1 814:0.795589 815:-1 816:-0.728345 817:-1 818:-1 819:-0.716778 820:-1 821:-1 822:-1 823:-1 824:-1 825:-1 826:-1 827:-1 828:-1 829:-1 830:-1 831:-1 832:-1 833:-1 834:-1 835:0.566396 836:-1 837:-1 838:-1 839:-1 840:-1 841:-1 842:-1 843:-1 844:-1 845:-1 846:-1 847:-1 848:-1 849:-0.254049 850:-1 851:-1 852:-0.6598 853:-0.5376 854:-1 855:0.981828 856:-1 857:-1 858:-1 859:-1 860:-1 861:-1 862:-1 863:-1 864:-1 865:-1 866:-1 867:-1 868:-1 869:-1 870:-1 871:-1 872:-1 873:-1 874:-1 875:3.43082 876:-1 877:-1 878:-0.9422 879:-1 880:-1 881:-0.289053 882:-1 883:-0.801885 884:-1 885:-1 886:-1 887:-1 888:-1 889:-1 890:-1 891:0.363901 892:-1 893:-1 894:-1 895:-0.559871 896:-1 897:-0.352671 898:0.482051 899:-1 900:-1 901:-1 902:-1 903:-1 904:-1 905:-1 906:-1 907:-1 908:-1 909:-1 910:-1 911:0.728986 912:-1 913:-1 914:0.45647 915:-1 916:-1 917:-1 918:-1 919:-1 920:-1 921:-0.184997 922:-1 923:-1 924:3.10394 925:-1 926:-1 927:-1 928:1.82858 929:0.421894 930:-1 931:0.0936613 932:-0.297478 933:-0.899689 934:-1 935:-1 936:1.77418 937:1.18484 938:1.43779 939:-1 940:-1 941:-1 942:-1 943:0.952703 944:-1 945:-1 946:-1 947:-1 948:-1 949:-1 950:-1 951:-1 952:-1 953:-1 954:-1 955:0.213776 956:4.82728 957:-1 958:-1 959:-1 960:-1 961:-1 962:-1 963:-1 964:-1 965:-1 966:-1 967:-1 968:-1 969:-1 970:-1 971:-1 972:-1 973:-1 974:-1 975:-0.601132 976:-1 977:2.51317 978:-1 
0.5361550582422897 0 0 0 0 0:0.672323 1:-1 2:-1 3:-1 4:-1 5:1.20325 6:-1 7:-1 8:-1 9:-1 10:-1 11:-0.369132 12:0.7724 13:-1 14:-1 15:-1 16:1.08462 17:-1 18:-1 19:-1 20:-1 21:-1 22:-1 23:-1 24:-1 25:-1 26:-1 27:-1 28:-1 29:-1 30:-0.554813 31:-0.0609841 32:0.0460628 33:-1 34:-1 35:-1 36:-1 37:-1 38:-1 39:-1 40:-1 41:-1 42:-0.240542 43:-1 44:1.29272 45:-1 46:5 47:-1 48:-1 49:-1 50:-1 51:-1 52:-1 53:-1 54:-1 55:-1 56:-1 57:-0.128617 58:-1 59:-1 60:-1 61:-1 62:-1 63:-1 64:-1 65:-1 66:-1 67:0.129167 68:-1 69:-0.635508 70:0.628606 71:-1 72:-1 73:-1 74:-1 75:-1 76:-1 77:-1 78:-1 79:-1 80:-1 81:-1 82:-0.4092 83:-0.978495 84:-1 85:-1 86:-1 87:-1 88:-1 89:-1 90:-0.601627 91:0.795098 92:-1 93:-1 94:-1 95:-1 96:-1 97:-1 98:-1 99:-1 100:-1 101:-1 102:-1 103:-1 104:-1 105:-1 106:-1 107:-1 108:-1 109:-0.379815 110:-1 111:-1 112:-1 113:-1 114:-1 115:-1 116:-0.339669 117:0.386189 118:-1 119:-1 120:-0.0759263 121:-1 122:-1 123:-1 124:-1 125:-1 126:1.99613 127:-1 128:-1 129:-1 130:-1 131:-0.1138 132:-1 133:-1 134:-1 135:-1 136:-1 137:-1 138:-1 139:-0.961068 140:-0.024361 141:-1 142:-1 143:-1 144:-1 145:-0.723582 146:-1 147:-1 148:-1 149:-1 150:-1 151:-1 152:-1 153:-1 154:0.146362 155:-1 156:-1 157:-1 158:-1 159:-1 160:-1 161:-1 162:-1 163:-0.96748 165:-1 166:-1 167:-1 168:-1 169:-1 170:-1 171:-1 172:2.50532 173:-1 174:-1 175:-1 176:-1 177:-1 178:-1 179:-1 180:-1 181:-1 182:-1 183:-1 184:-0.825041 185:-1 186:-1 187:5.79311 188:-1 189:-1 190:-1 191:0.0881349 192:-1 193:-1 194:1.20325 195:1 196:-1 197:-1 198:-1 199:-1 200:-1 201:-1 202:-1 203:-1 204:-1 205:-1 206:-1 207:-1 208:0.414651 209:-1 210:-1 211:2.38562 212:-1 213:-1 214:-1 215:-1 216:-1 217:1 218:-1 219:-1 220:0.532805 221:-1 222:-1 223:-1 224:-1 225:-1 226:-0.187 227:0.146362 228:-1 229:-1 230:-1 231:-1 232:-1 233:-1 234:-1 235:0.7724 236:-1 237:-1 238:-1 239:0.220171 240:-1 241:-0.861791 242:-1 243:-1 244:-1 245:-1 246:-1 247:0.878032 248:-1 249:-1 250:-0.404134 251:-1 252:-1 253:-1 254:-1 255:-1 256:-1 257:-1 258:-1 259:-1 260:-1 261:-1 262:-1 263:-1 264:-1 265:-1 266:-1 267:-1 268:-1 269:-1 270:-1 271:-1 272:-1 273:-1 274:-1 275:-0.249307 276:-1 277:-1 278:-1 279:-1 280:-1 281:-1 282:-1 283:-1 284:-1 285:-1 286:-1 287:-1 288:-1 289:-1 290:-1 291:-1 292:-1 293:-0.00684095 294:-1 295:-0.366181 296:-1 297:-1 298:-1 299:-1 300:-1 301:-1 302:-1 303:-1 304:-1 305:-1 306:-1 307:-1 308:1.57116 309:-1 310:-1 311:-1 312:-1 313:-1 314:-1 315:-1 316:0.713744 317:-1 318:-1 319:-1 320:-0.866668 321:-1 322:-1 323:-1 324:-1 325:-1 326:-1 327:-1 328:-1 329:-1 330:-1 331:-1 332:-1 333:-1 334:-1 335:-1 336:-1 337:-1 338:0.7724 339:-1 340:-1 341:-1 342:1.77191 343:-1 344:-0.944445 345:-0.720868 346:-1 347:-1 348:-1 349:-1 350:-1 351:-1 352:1.77191 353:-1 354:-1 355:-1 356:-1 357:-1 358:-1 359:-1 360:-0.253169 361:-1 362:-1 363:-1 364:-1 365:-1 366:-1 367:-1 368:-1 369:-1 370:-1 371:-1 372:-1 373:-1 374:-1 375:-1 376:-1 377:-1 378:-1 379:-1 380:-1 381:-1 382:-1 383:-1 384:-1 385:-1 386:-1 387:-1 388:0.552712 389:-1 390:-1 391:-1 392:-1 393:-1 394:-0.91057 395:0.719543 396:-1 397:-0.723582 398:1.31294 399:-1 400:-1 401:-1 402:-1 403:-1 404:-1 406:-1 407:-1 408:-1 409:-1 410:-1 411:-1 412:-1 413:2.41453 414:-1 415:-1 416:0.216884 417:-1 418:-1 420:-1 421:-0.803052 422:-1 423:-1 424:-1 425:-1 426:-1 427:-1 428:-1 429:-0.723582 430:-1 431:-1 432:-1 433:-1 434:-1 435:2.43909 436:-1 437:-1 438:-1 439:-1 440:-1 441:-1 442:-1 443:-1 444:-1 445:-1 446:-1 447:-1 448:-1 449:-1 450:0.0300266 451:0.648084 452:-1 453:3.50042 454:-1 455:-1 456:-1 457:-1 458:-1 459:-1 460:1.47564 461:-1 462:-1 463:-1 464:-0.146367 465:-1 466:-1 467:-1 468:-1 469:-1 470:-1 471:1.20325 472:-1 473:-1 474:-1 475:-1 476:-1 477:-1 478:-1 479:-1 480:-0.875601 481:-1 482:-1 483:-1 484:-1 485:-0.965713 486:-1 487:-1 488:-0.132245 489:-1 490:-1 491:-1 492:-0.650413 493:-1 494:-1 495:-1 496:-1 498:-1 499:-1 500:-1 501:-1 502:-1 503:-1 504:-1 505:-0.447164 506:-1 507:-1 508:-1 509:-0.861791 510:-1 511:-1 512:-1 513:-1 514:-0.42279 515:-1 516:-1 517:-1 518:-1 519:-1 520:-1 521:-1 522:-0.447164 523:-1 524:-1 525:-1 526:-1 527:-1 528:-1 529:-1 530:-1 531:-1 532:-1 533:-1 534:-1 535:-0.0117904 536:-1 537:-1 538:-1 539:-1 540:-1 541:-1 542:-1 543:-1 544:-1 545:-1 546:-1 547:-1 548:-0.0478979 549:0.15442 550:-1 551:-1 552:-0.48358 553:-1 554:0.146362 555:-1 556:-1 557:4.31234 558:-1 559:0.339815 560:-1 561:-1 562:-1 563:-1 564:-1 565:-1 566:-0.507988 567:-1 568:0.146362 569:-1 570:-1 571:-1 572:-1 573:-1 574:-1 575:1.6992 576:-1 577:-1 578:-1 579:1.14342 580:-1 581:-1 582:-1 583:-1 584:-1 585:-1 586:-1 587:-1 588:-1 589:-1 590:-0.7832 591:-1 592:-1 593:-1 594:-1 595:-1 596:-1 597:-1 598:-1 599:-1 600:0.451008 601:-1 602:-1 603:-1 604:-1 605:-1 606:-1 607:-1 608:-1 609:-1 610:-1 611:-1 612:3.23217 613:0.251925 614:-1 615:-1 616:-1 617:-1 618:-1 619:-1 620:0.878032 621:-1 622:-1 623:-1 624:-0.229749 625:-1 626:-1 627:0.811497 628:-1 629:-1 630:-1 631:-1 632:-1 633:-1 634:-1 635:-1 636:-1 637:-1 638:-1 639:-1 640:-1 641:-1 642:-1 643:-1 644:-0.92914 645:-1 646:1 647:-1 648:-1 649:-1 650:-1 651:-1 652:-1 653:-1 654:-1 655:-1 656:1.25208 657:-1 658:-1 659:-1 660:-1 661:-1 662:7.3556 663:-1 664:-1 665:-1 666:-1 667:0.552712 668:-1 669:-1 670:-1 671:-1 672:-1 673:-1 674:-1 675:-1 676:-1 677:-1 678:-1 679:-1 680:4.54381 681:-0.544716 682:0.386189 683:-1 684:-1 685:-1 686:-1 687:-1 688:-1 689:-1 690:-1 691:-1 692:-1 693:-1 694:-1 695:-1 696:-1 697:-1 698:-1 699:-1 700:-1 701:-1 702:-0.55935 703:-1 704:-1 705:-1 706:-1 707:-1 708:-1 709:0.126039 710:-1 711:0.707266 712:-1 713:-1 714:-1 715:-1 716:-1 717:-1 718:-1 719:-1 720:-1 721:-0.024361 722:-1 723:-1 724:-1 725:-1 726:-1 727:-1 728:-1 729:-1 730:-1 731:3.74606 732:-1 733:1.98349 734:-1 735:-1 736:-1 737:-1 738:0.0559813 739:-1 740:-1 741:-1 742:0.0976104 743:-1 744:-1 745:-1 746:-1 747:0.146362 748:-1 749:9.86898 750:-1 751:-1 752:0.714466 753:-1 754:-1 755:-1 756:-1 757:-1 758:-0.871255 759:1.20325 760:-1 761:-1 762:-1 763:-1 764:-1 765:-1 766:-1 767:-1 768:0.549752 769:-1 770:-1 771:-1 772:-1 773:-1 774:-1 775:-1 776:-1 777:-1 778:-1 779:-1 780:-1 781:-1 782:-1 783:6.29803 784:-1 785:-1 786:-1 787:-1 788:-1 789:1.35789 790:-1 791:-1 792:-0.0299487 793:-1 794:-1 795:-1 796:-1 797:0.28494 798:-1 799:-1 800:-1 801:-1 802:1.20325 803:-1 804:-1 805:-1 806:-1 807:-1 808:-1 809:-1 810:-1 811:-1 812:-1 813:0.569195 814:-1 815:-1 816:-1 817:-1 818:-1 819:-1 820:-1 821:-1 822:-1 823:-1 824:-1 825:-1 826:-1 827:-1 828:-1 829:-1 830:-1 831:-1 832:-1 833:-1 834:-0.738308 835:1.20325 836:-1 837:-0.0717589 838:-1 839:-1 840:2.13839 841:-1 842:-0.0894837 843:0.458034 844:-1 845:-1 846:1.77191 847:-1 848:-1 849:-1 850:-1 851:-1 852:-1 853:0.3008 854:-1 855:-1 856:-1 857:-1 858:-1 859:-1 860:-1 861:-1 862:-1 863:-1 864:-1 865:-1 866:2.24292 867:-1 868:-1 869:-1 870:-1 871:-1 872:-1 873:-1 874:-1 875:5.23227 876:-1 877:-0.654175 878:-1 879:-1 880:-1 881:-1 882:-1 883:0.114653 884:-1 885:-1 886:-1 887:-1 888:-1 889:-1 890:-1 891:-0.360598 892:-1 893:-1 894:-1 895:-1 896:-1 897:-1 898:1.08462 899:-1 900:-1 901:-1 902:-1 903:-1 904:-1 905:-1 906:-1 907:-1 908:-1 909:-1 910:-1 911:-1 912:-1 913:-1 914:-1 915:-1 916:-1 917:-1 918:-1 919:-1 920:3.06094 921:0.146362 922:-1 923:-0.746468 924:-0.42279 925:-1 926:-1 927:-1 928:-1 929:3 930:-1 931:-1 932:-1 933:-0.858906 934:-1 935:-1 936:0.951044 937:0.536572 938:2.42893 939:-1 940:-0.744504 941:-1 942:-1 943:-1 944:-1 945:-1 946:-1 947:-1 948:-1 949:-0.617897 950:-1 951:-1 952:-1 953:-1 954:-1 955:-1 956:-1 957:-1 958:-1 959:-1 960:-1 961:1.91816 962:-1 963:-1 964:-1 965:-1 966:-1 967:-1 968:-1 969:-1 970:-1 971:-1 972:-1 973:-1 974:-1 975:-0.813009 976:2.13778 977:0.647083 978:-0.470979 
