svm_type c_svc
kernel_type rbf
gamma 0.000488281
nr_class 6
total_sv 270
rho -0.895528 nan nan -3.69654 -2.91011 nan nan -0.220124 -0.972378 nan -1.77515 -3.57194 0.173788 -1.87564 -3.24699
label 0 1 2 3 4 5
nr_sv 26 58 38 18 56 74
SV
2.461350800251966 0 0 4.390871473305195 3.251744813192188 0:-1 1:-1 2:-1 3:-1 4:-1 5:-1 6:-1 7:-1 8:-1 9:-1 10:-1 11:-1 12:0.333308 13:-1 14:-1 15:-1 16:-1 17:-1 18:-1 19:-1 20:-1 21:0.525871 22:-1 23:-1 24:-1 25:-1 26:-1 27:-1 28:-1 29:-1 30:-1 31:-1 32:-1 33:-1 34:-1 35:-1 36:-1 37:-1 38:-1 39:-1 40:-1 41:-1 42:-1 43:-1 44:-1 45:1.4775 46:-1 47:-1 48:-1 49:-1 50:-1 51:0.0924211 52:2.05192 53:-1 54:-1 55:-1 56:-0.609815 57:-1 58:-1 59:-1 60:-1 61:-1 62:-1 63:-1 64:-1 65:-1 66:-1 67:-1 68:-1 69:-1 70:-1 71:-1 72:-1 73:-1 74:-0.5376 75:0.916446 76:-1 77:-1 78:-1 79:-1 80:-1 81:-1 82:-1 83:-1 84:-1 85:-1 86:-1 87:-1 88:-1 89:-0.410411 90:6.18298 91:-1 92:-1 93:-1 94:-1 95:-1 96:-1 97:-1 98:-1 99:-1 100:-1 101:-1 102:-1 103:-1 104:-1 105:-1 106:-1 107:-1 108:-1 109:-1 110:-0.202374 111:-1 112:-1 113:-1 114:-1 115:-1 116:-1 117:-1 118:-1 119:-1 120:-1 121:-0.45669 122:-1 123:-1 124:-1 125:-1 126:-1 127:-1 128:-1 129:-1 130:-1 131:-1 132:-1 133:-1 134:-1 135:-1 136:-1 137:-1 138:-1 139:-0.803482 140:-0.734101 141:-1 142:1.82848 143:-1 144:-1 145:-1 146:-1 147:-1 148:-1 149:-1 150:-1 151:-1 152:-1 153:-1 154:-1 155:-1 156:-1 157:-0.202309 158:-1 159:-1 160:-1 161:1.01166 162:-1 163:-1 164:-1 165:-1 166:-1 167:-1 168:-1 169:-1 170:-1 171:-1 172:-1 173:-1 174:-1 175:-1 176:-1 177:-1 178:-1 179:-1 180:-1 181:-1 182:0.630006 183:-1 184:-0.506573 185:-1 186:-1 187:-1 188:-1 189:-1 190:-1 191:-0.306414 192:-1 193:-1 194:-1 195:-1 196:-1 197:-1 198:-1 199:-1 200:-1 201:-1 202:-1 203:-1 204:-1 205:-1 206:-1 207:-1 208:-1 209:-1 210:-1 211:-1 212:-1 213:-1 214:-1 215:-1 216:-1 217:-1 218:-1 219:-1 220:-1 221:-1 222:-1 223:-1 224:-1 225:1.23123 226:-1 227:-1 228:-1 229:-1 230:-1 231:-1 232:-1 233:-1 234:-1 235:-1 236:-0.46889 237:-1 238:-1 239:-1 240:-1 241:-1 242:-1 243:-1 244:-1 245:-1 246:-1 247:-1 248:-1 249:-1 250:-1 251:-1 252:-1 253:-1 254:-1 255:-1 256:-0.202374 257:-1 258:-1 259:-1 260:-1 261:-1 262:-1 263:-1 264:-1 265:-1 266:-1 267:-1 268:-1 269:-1 270:-1 271:-1 272:-1 273:-1 274:-1 275:-1 276:-1 277:-1 278:-1 279:-1 280:-1 281:-1 282:-1 283:-1 284:-1 285:-1 286:-1 287:-0.61852 288:-1 289:-1 290:-1 291:-1 292:-1 293:-1 294:-1 295:-1 296:-1 297:-1 298:-1 299:-1 300:-0.606963 301:-1 302:-1 303:-1 304:-1 305:-1 306:-1 307:-1 308:-1 309:-1 310:-1 311:0.525871 312:0.111004 313:-1 314:-1 315:-1 316:-0.478433 317:-1 318:-1 319:-1 320:-1 321:-1 322:-1 323:-1 324:-1 325:-1 326:-1 327:-1 328:-1 329:-1 330:-1 331:-1 332:-1 333:-1 334:-1 335:-1 336:-1 337:-1 338:-1 339:-1 340:0.202914 341:-1 342:-1 343:-1 344:-1 345:-1 346:-1 347:-1 348:-1 349:-1 350:-1 351:-1 352:-1 353:-1 354:-1 355:-1 356:-1 357:-1 358:-1 359:-1 360:-1 361:-1 362:-1 363:-1 364:-1 365:-1 366:-1 367:-1 368:-1 369:-1 370:-1 371:-1 372:-1 373:-1 374:-1 375:-1 376:-1 377:-1 378:-1 379:-1 380:-1 381:-1 382:3.85552 383:-1 384:3.26593 385:-1 386:-1 387:-1 388:-1 389:-1 390:-1 391:-1 392:-1 393:-1 394:-1 395:-1 396:-1 397:-1 398:-1 399:-0.213858 400:-1 401:-1 402:-1 403:-1 404:-1 405:-1 406:-1 407:4.24904 408:-1 409:-1 410:-1 411:-0.315997 412:-1 413:-1 414:-1 415:-1 416:-1 417:-1 418:-1 419:-1 420:-1 421:-1 422:-1 423:-1 424:-1 425:-1 426:-1 427:-1 428:-1 429:-1 430:-1 431:-1 432:-1 433:-1 434:-1 435:-1 436:-0.420929 437:-1 438:-1 439:-1 440:-1 441:-1 442:-1 443:-1 444:1.04892 445:-1 446:-0.606963 447:-1 448:-1 449:-0.179269 450:-1 451:-1 452:-1 453:-1 454:-1 455:-1 456:-1 457:-1 458:-1 459:-1 460:-1 461:-1 462:-1 463:0.508548 464:-1 465:-1 466:-1 467:-1 468:-1 469:-1 470:-1 471:-1 472:-1 473:-1 474:-1 475:-1 476:-1 477:-1 478:-1 479:-1 480:-1 481:-1 482:-1 483:-0.601187 484:-0.759372 485:-1 486:-1 487:-1 488:-1 489:-1 490:-1 491:1.11447 492:-1 493:-1 494:-1 495:-1 496:0.554808 497:-1 498:-1 499:-1 500:-1 501:-1 502:-1 503:-1 504:-1 505:-1 506:-1 507:-0.202374 508:-1 509:-1 510:-1 511:-1 512:-1 513:-1 514:-1 515:-1 516:-1 517:-1 518:-1 519:-1 520:-1 521:-1 522:-1 523:-0.700868 524:-1 525:-1 526:-1 527:-1 528:-1 529:-1 530:-1 531:-1 532:-1 533:-1 534:-1 535:-1 536:-1 537:-1 538:-1 539:-1 540:-1 541:-1 542:-1 543:-1 544:-1 545:-1 546:-1 547:-1 548:-1 549:0.249982 550:-1 551:-0.433555 552:-1 553:-1 554:-1 555:-1 556:-1 557:-1 558:-0.891336 559:-1 560:-1 561:-1 562:-1 563:-1 564:-1 565:-1 566:-1 567:-1 568:-1 569:-1 570:-1 571:-1 572:-1 573:-1 574:-1 575:-1 576:-0.179269 577:-1 578:-1 579:-1 580:-1 581:-1 582:-1 583:-1 584:-1 585:-1 586:-0.295941 587:-1 588:-1 589:-1 590:-1 591:-1 592:-1 593:-1 594:-1 595:-1 596:-1 597:-1 598:-1 599:-1 600:-1 601:-1 602:-1 603:-1 604:-1 605:-1 606:-1 607:-1 608:-1 609:-1 610:-1 611:-1 612:-0.22317 613:-1 614:-1 615:-0.941899 616:-1 617:-1 618:-1 619:-1 620:-1 621:-1 622:-1 623:-1 624:-1 625:-1 626:-1 627:0.405129 628:-1 629:-0.202374 630:-1 631:-1 632:1.31896 633:-1 634:-1 635:0.809464 636:-1 637:-1 638:-1 639:-1 640:-1 641:-1 642:-1 643:-1 644:-1 645:-1 646:-1 647:1.66114 648:-1 649:-1 650:-1 651:-1 652:-1 653:-1 654:-1 655:-0.179269 656:-1 657:-1 658:-1 659:-1 660:0.0491402 661:-1 662:-1 663:-1 664:-1 665:-1 666:-1 667:-1 668:-1 669:-1 670:-1 671:-1 672:-1 673:-1 674:-1 675:-1 676:-1 677:-1 678:-1 679:-1 680:-1 681:-1 682:-1 683:-1 684:-1 685:-1 686:-1 687:-1 688:-1 689:-1 690:-0.394193 691:-1 692:-1 693:-0.043996 694:-1 695:-1 696:-1 697:-1 698:-1 699:-1 700:-1 701:-1 702:-1 703:-1 704:-1 705:-1 706:-1 707:-1 708:-1 709:-1 710:-1 711:-1 712:-1 713:2.05201 714:-1 715:-1 716:-0.976878 717:-1 718:-1 719:-1 720:-1 721:-1 722:-1 723:-1 724:-1 725:-1 726:-1 727:-1 728:-1 729:-1 730:-1 731:0.918991 732:-1 733:-1 734:-1 735:-1 736:-1 737:-1 738:-1 739:-1 740:-1 741:-1 742:-1 743:-1 744:-1 745:-1 746:-1 747:-1 748:-1 749:-1 750:-1 751:-1 752:-1 753:-1 754:-1 755:-1 756:-1 757:-1 758:-1 759:-1 760:0.887039 761:-1 762:-1 763:-1 764:-1 765:-1 766:-1 767:-1 768:0.981828 769:-1 770:-1 771:-1 772:-1 773:-1 774:-0.184997 775:-1 776:-1 777:-1 778:-1 779:-1 780:0.663309 781:-1 782:-0.734118 783:-1 784:1 785:-1 786:-1 787:-1 788:1.42755 789:-1 790:1.42755 791:-1 792:-1 793:0.20832 794:-1 795:-1 796:-1 797:-1 798:-1 799:-1 800:-1 801:0.566396 802:-1 803:-1 804:-0.184997 805:-1 806:-1 807:-0.159945 808:-1 809:-1 810:2.05174 811:-1 812:-1 813:-1 814:-1 815:-1 816:1.42755 817:0.0924211 818:-1 819:-1 820:-1 821:-1 822:-1 823:-1 824:-1 825:-1 826:-1 827:-1 828:-1 829:-1 830:-1 831:-1 832:0.971014 833:-1 834:-1 835:-1 836:0.248515 837:-1 838:-1 839:-1 840:0.502079 841:-1 842:-1 843:-1 844:-1 845:-1 846:-1 847:-1 848:-1 849:-1 850:-1 851:-1 852:-1 853:-1 854:-1 855:-1 856:-0.0752 857:-1 858:-1 859:0.0944146 860:0.595382 861:-1 862:-1 863:-1 864:-1 865:-1 866:-1 867:0.478483 868:-1 869:-1 870:-1 871:-1 872:-1 873:-1 874:-1 875:-1 876:-1 877:-1 878:-1 879:-1 880:-1 881:-1 882:-1 883:-1 884:-1 885:-1 886:-1 887:-1 888:-1 889:-1 890:-1 891:-1 892:-0.107543 893:-1 894:-1 895:-1 896:-1 897:-1 898:-1 899:-1 900:-1 901:-1 902:-1 903:-1 904:-1 905:-1 906:-1 907:-1 908:-1 909:-1 910:-1 911:-1 912:-1 913:-1 914:-0.0752 915:-1 916:0.00574213 917:1 918:-1 919:-1 920:-1 921:-1 922:-1 923:-1 924:-1 925:-1 926:-1 927:-1 928:-1 929:-1 930:-1 931:-1 932:-1 933:-1 934:-1 935:-1 936:-1 937:-1 938:-1 939:-1 940:-1 941:-1 942:-1 943:-1 944:-1 945:-1 946:-1 947:-1 948:-1 949:-1 950:-1 951:-1 952:-1 953:-1 954:-1 955:-1 956:-1 957:-1 958:-1 959:-1 960:-1 961:-1 962:-1 963:-1 964:-1 965:-1 966:-1 967:-1 968:-1 969:-1 970:-1 971:-1 972:-1 973:-1 974:-1 975:-1 976:-1 977:-1 978:-1 979:-1 980:-1 981:-1 982:-1 983:-1 984:-1 985:-1 986:-1 987:-1 988:-1 989:-1 990:-1 991:-1 992:-1 993:-1 994:-1 995:-1 996:-1 997:-1 998:-1 999:-1 1000:-1 1001:-1 1002:-1 1003:-1 1004:-1 1005:-1 1006:-1 1007:-1 1008:-1 1009:0.0245502 1010:-1 1011:-1 1012:-1 1013:-1 1014:0.942204 1015:-1 1016:-1 1017:-1 1018:-1 1019:-1 1020:-1 1021:-1 1022:-1 1023:-1 1024:-1 1025:-1 1026:-1 1027:-1 1028:-1 1029:-1 1030:-1 1031:-1 1032:-1 1033:-1 1034:-1 1035:-1 1036:-1 1037:-1 1038:-1 1039:-1 1040:-1 1041:-1 1042:-1 1043:-1 1044:-1 1045:-0.76472 1046:-1 1047:-1 1048:-1 1049:-1 1050:-1 1051:-1 1052:-1 1053:2.24902 1054:-1 1055:-1 1056:-1 1057:-1 1058:-1 1059:-1 1060:-0.109879 1061:-1 1062:-1 1063:-1 1064:-1 1065:-1 1066:-1 1067:-1 1068:-1 1069:-1 1070:-1 1071:-1 1072:-1 1073:-1 1074:-1 1075:-1 1076:-1 1077:-1 1078:-1 1079:-1 1080:0.525871 1081:-1 1082:-1 1083:-1 1084:-1 1085:1.64713 1086:-1 1087:-0.95833 1088:-1 1089:-1 1090:-1 1091:-1 1092:-1 1093:-1 1094:-1 1095:-1 1096:-1 1097:-1 1098:-1 1099:-1 1100:-1 1101:-1 1102:-1 1103:-1 1104:-1 1105:-1 1106:-1 1107:0.260083 1108:-1 1109:-1 1110:-1 1111:-1 1112:-1 1113:-1 1114:-1 1115:-1 1116:-1 1117:-1 1118:-1 1119:-1 1120:-1 1121:-1 1122:-0.375776 1123:-1 1124:-1 1125:-1 1126:-1 1127:-1 1128:-1 1129:-1 1130:-1 1131:-1 1132:-1 1133:-1 1134:-1 1135:-1 1136:0.77338 1137:-1 1138:-1 1139:-1 1140:-1 1141:-1 1142:-1 1143:-1 1144:-1 1145:-1 1146:-1 1147:-1 1148:-1 1149:-1 1150:-1 1151:-1 1152:-1 1153:-1 1154:-1 1155:-1 1156:-0.734118 1157:-1 1158:-1 1159:-1 1160:-1 1161:-1 1162:-1 1163:-1 1164:-1 1165:-1 1166:-1 1167:-1 1168:-1 1169:-1 1170:-1 1171:-1 1172:-1 1173:-1 1174:-1 1175:-1 1176:-1 1177:-1 1178:0.387274 1179:-1 1180:-1 1181:-0.202374 
6.517559878977454 0 0 5.422171960720299 4.375424895563212 0:-1 1:-1 2:-1 3:-1 4:-1 5:-1 6:-1 7:-1 8:-1 9:-1 10:-1 11:-1 12:-0.674227 13:-1 14:-1 15:-1 16:0.805041 17:-1 18:-1 19:-1 20:-1 21:-1 22:-1 23:-0.791538 24:-1 25:-1 26:-1 27:-1 28:-1 29:-1 30:-1 31:-1 32:-1 33:-1 34:-1 35:-1 36:-1 37:-1 38:-1 39:-0.503049 40:0.28176 41:-1 42:-1 43:-1 44:-1 45:-1 46:-1 47:-1 48:-1 49:-1 50:-1 51:-1 52:-1 53:-1 54:0.971156 55:-1 56:-1 57:-0.738486 58:-1 59:-1 60:-1 61:-1 62:-1 63:-1 64:-1 65:-1 66:-1 67:-1 68:-1 69:-1 70:-1 71:-1 72:-1 73:-1 74:-1 75:-1 76:-1 77:-1 78:-1 79:-1 80:-1 81:-1 82:0.779504 83:-1 84:-1 85:-1 86:-1 87:-1 88:-1 89:-1 90:-1 91:-1 92:-1 93:-1 94:-1 95:-1 96:-1 97:-1 98:-1 99:-1 100:-1 101:-0.478844 102:-1 103:-1 104:-1 105:-1 106:-1 107:0.201645 108:-1 109:-1 110:0.754226 111:-1 112:-1 113:-1 114:-1 115:-1 116:-1 117:-1 118:-1 119:-1 120:-1 121:-1 122:-1 123:-1 124:-1 125:-1 126:-0.0630033 127:-1 128:-1 129:1.01682 130:-1 131:-1 132:-1 133:-1 134:-1 135:-1 136:-1 137:-1 138:-1 139:-1 140:0.403388 141:-1 142:-1 143:-1 144:-1 145:-0.237332 146:-1 147:-1 148:-1 149:-1 150:-1 151:-1 152:-1 153:-1 154:-1 155:-1 156:-1 157:-0.0254382 158:-1 159:-1 160:-1 161:-1 162:-1 163:-1 164:-1 165:-1 166:-1 167:-1 168:-1 169:-1 170:-1 171:-1 172:-1 173:-1 174:-1 175:-1 176:-1 177:-1 178:-1 179:-1 180:-0.961554 181:-1 182:-1 183:-1 184:-1 185:-1 186:-1 187:-1 188:-1 189:-1 190:-1 191:-1 192:-1 193:-1 194:-1 195:-1 196:-1 197:-1 198:-1 199:-1 200:-1 201:-1 202:-1 203:-1 204:-1 205:-1 206:-1 207:-1 208:-1 209:-1 210:0.194867 211:-1 212:-1 213:-1 214:-1 215:-1 216:-1 217:-1 218:-1 219:-1 220:-1 221:-1 222:-1 223:-1 224:-1 225:-1 226:-1 227:-1 228:-1 229:-1 230:-1 231:-1 232:1.08487 233:-1 234:-1 235:-1 236:-1 237:-1 238:-1 239:-1 240:-1 241:-1 242:-1 243:-1 244:-1 245:-1 246:-1 247:-1 248:-1 249:-1 250:-1 251:-0.122502 252:-1 253:-1 254:-1 255:-1 256:-1 257:-1 258:-1 259:-1 260:-1 261:-1 262:-1 263:-1 264:-1 265:-1 266:-1 267:-1 268:2.68595 269:-1 270:-1 271:-1 272:-1 273:-1 274:3.1695 275:-1 276:-1 277:-1 278:-1 279:-1 280:-1 281:-1 282:-1 283:-1 284:-1 285:-1 286:1.15898 287:-1 288:-1 289:-1 290:-1 291:-1 292:-1 293:0.144053 294:-1 295:-1 296:-1 297:-1 298:-1 299:-1 300:-1 301:-1 302:-1 303:-1 304:-1 305:-1 306:-1 307:-1 308:-1 309:-0.423705 310:5.9827 311:-1 312:-0.185584 313:-1 314:-1 315:-1 316:-1 317:-1 318:-1 319:-1 320:-1 321:-1 322:-1 323:-1 324:-1 325:-1 326:-1 327:-1 328:-1 329:0.144053 330:-1 331:-1 332:-1 333:-1 334:-1 335:-1 336:-1 337:-1 338:-1 339:-1 340:-1 341:-1 342:0.779504 343:-1 344:-1 345:-1 346:-1 347:-1 348:-1 349:-1 350:-1 351:-1 352:-1 353:-1 354:-1 355:-0.110248 356:-1 357:-0.466137 358:-1 359:-1 360:-1 361:-1 362:-1 363:-1 364:-1 365:-1 366:-1 367:-1 368:0.105833 369:-1 370:-1 371:-0.4473 372:-1 373:-1 374:-1 375:-1 376:-1 377:-1 378:-1 379:-1 380:-1 381:-1 382:-1 383:-1 384:-1 385:-1 386:-1 387:-1 388:-1 389:-1 390:-1 391:-1 392:-1 393:-1 394:-1 395:-1 396:-1 397:-1 398:1.60979 399:-1 400:-1 401:-1 402:-1 403:-1 404:-1 405:-1 406:-1 407:-1 408:-1 409:-1 410:-1 411:-0.799437 412:3.08582 413:-1 414:-1 415:-1 416:0.0951089 417:-1 418:-1 419:-1 420:0.635627 421:-1 422:-1 423:-1 424:-1 425:-1 426:-1 427:-1 428:-1 429:-1 430:-1 431:-1 432:-1 433:-0.583957 434:-1 435:-1 436:-0.150929 437:-1 438:-1 439:-1 440:-1 441:-0.0227194 442:-1 443:-1 444:-1 445:-1 446:-1 447:0.304897 448:-1 449:-1 450:-1 451:-1 452:-1 453:1.06456 454:0.0423124 455:-0.62714 456:-1 457:1.93218 458:-1 459:-1 460:-1 461:-1 462:-1 463:0.105833 464:-1 465:-1 466:-1 467:-1 468:-1 469:-1 470:-1 471:-1 472:-1 473:-1 474:-0.440734 475:-1 476:-1 477:-1 478:-1 479:-0.934532 480:-1 481:-1 482:-1 483:-1 484:-1 485:-1 486:-1 487:-1 488:-1 489:-1 490:-1 491:-1 492:-1 493:-1 494:-1 495:-1 496:-1 497:-1 498:-1 499:-1 500:-1 501:-1 502:-1 503:-0.021252 504:-1 505:-1 506:-1 507:-1 508:-1 509:-1 510:-1 511:-1 512:-1 513:-1 514:3.69529 515:-1 516:-1 517:-1 518:-1 519:-1 520:-1 521:-1 522:-1 523:0.461869 524:-1 525:-1 526:-1 527:-1 528:-1 529:-1 530:-1 531:-1 532:-1 533:-1 534:-1 535:-1 536:-1 537:-1 538:-1 539:-1 540:-1 541:-1 542:-1 543:-1 544:-1 545:-1 546:-1 547:-1 548:-1 549:-1 550:-1 551:-1 552:-0.237242 553:-1 554:-1 555:-0.64796 556:-1 557:3.3284 558:-1 559:-1 560:-1 561:-1 562:-1 563:-1 564:-1 565:-1 566:-1 567:-1 568:-1 569:-1 570:-1 571:-1 572:-1 573:-1 574:-0.359195 575:-1 576:0.203408 577:-1 578:-1 579:-1 580:-1 581:-1 582:-1 583:-1 584:-1 585:-1 586:-1 587:-1 588:-1 589:-1 590:-1 591:-1 592:-0.406832 593:-1 594:-1 595:-1 596:-1 597:-1 598:-1 599:-1 600:-1 601:1.40257 602:-1 603:1.83317 604:0.635592 605:-1 606:-1 607:-1 608:-1 609:-1 610:-1 611:-1 612:-1 613:-1 614:-1 615:-0.872218 616:-1 617:-1 618:-1 619:-1 620:-1 621:-1 622:-1 623:-1 624:0.717819 625:-1 626:-1 627:-1 628:-1 629:-1 630:-1 631:-1 632:-1 633:-1 634:-1 635:-1 636:-1 637:-1 638:-1 639:-1 640:-1 641:-1 642:-1 643:-1 644:-1 645:-1 646:-1 647:-1 648:-1 649:-1 650:0.203408 651:-1 652:-1 653:-1 654:-1 655:-1 656:-1 657:-1 658:-1 659:-1 660:-1 661:-1 662:-1 663:-0.792385 664:-1 665:-1 666:-1 667:-1 668:-1 669:-1 670:-1 671:-1 672:-1 673:-1 674:-1 675:-0.187224 676:-1 677:-1 678:-1 679:-1 680:-1 681:-1 682:-1 683:-1 684:-1 685:-1 686:-1 687:-1 688:-1 689:-1 690:-1 691:-1 692:-1 693:-1 694:-1 695:-1 696:-1 697:-1 698:-1 699:-1 700:-1 701:-1 702:0.690068 703:-1 704:-1 705:-1 706:-1 707:-1 708:-1 709:-0.457632 710:-1 711:-1 712:-1 713:-1 714:-1 715:-1 716:-1 717:-1 718:-1 719:-1 720:-1 721:-1 722:-0.809333 723:-1 724:-1 725:-1 726:-1 727:-1 728:-1 729:-1 730:-1 731:-1 732:-1 733:-1 734:-1 735:-1 736:-1 737:-1 738:-1 739:-1 740:-1 741:-1 742:-1 743:-1 744:-1 745:-1 746:-1 747:-1 748:-1 749:-1 750:-1 751:-1 752:-1 753:-1 754:-1 755:-0.711886 756:-1 757:-1 758:-1 759:-1 760:-1 761:-1 762:-0.933621 763:-1 764:-1 765:-1 766:-1 767:-1 768:0.452769 769:-1 770:-1 771:-1 772:-1 773:-1 774:0.195008 775:-1 776:-1 777:-1 778:-1 779:-1 780:0.219281 781:-1 782:-1 783:-1 784:-1 785:-1 786:-1 787:-1 788:-1 789:-1 790:-1 791:-1 792:-1 793:-0.114247 794:-1 795:-1 796:-1 797:-1 798:-1 799:-1 800:1.79485 801:-1 802:-1 803:-1 804:-0.402566 805:-1 806:-1 807:-1 808:-1 809:-1 810:-1 811:-1 812:-1 813:-1 814:-1 815:-1 816:-1 817:-1 818:-1 819:-1 820:-1 821:-1 822:-1 823:-1 824:-1 825:-1 826:-1 827:-1 828:-1 829:-1 830:-1 831:-1 832:-1 833:-1 834:-1 835:-1 836:-1 837:-1 838:-1 839:-1 840:-1 841:-1 842:-1 843:-1 844:-1 845:-1 846:-1 847:-1 848:-1 849:-1 850:-1 851:-1 852:-1 853:-1 854:-1 855:-1 856:-1 857:-1 858:-1 859:-1 860:-1 861:-1 862:-1 863:-1 864:-0.262746 865:-1 866:-1 867:-1 868:-1 869:-1 870:-1 871:-1 872:-1 873:-1 874:-1 875:-1 876:-1 877:1.54322 878:-1 879:-1 880:1.21196 881:-1 882:-1 883:-1 884:-1 885:-1 886:-1 887:-1 888:-1 889:-0.155976 890:-1 891:-1 892:-1 893:-1 894:-1 895:-1 896:-0.447083 897:-1 898:-1 899:2.75288 900:-1 901:-1 902:-1 903:-1 904:-1 905:-1 906:-1 907:-1 908:-1 909:-1 910:-1 911:-1 912:-1 913:-1 914:-1 915:-1 916:-0.262746 917:-1 918:-1 919:-1 920:-1 921:-1 922:-1 923:-1 924:-1 925:-1 926:-1 927:-1 928:-1 929:-1 930:-1 931:-1 932:-1 933:-1 934:-1 935:-1 936:-1 937:-1 938:-1 939:-1 940:-1 941:-1 942:-1 943:-1 944:-1 945:0.304897 946:-0.511837 947:-1 948:-1 949:-0.208407 950:-1 951:-1 952:-1 953:-1 954:-1 955:-1 956:-1 957:-1 958:-1 959:-1 960:-1 961:-1 962:-1 963:-1 964:-1 965:-1 966:-1 967:-1 968:-1 969:-1 970:-1 971:-1 972:-1 973:-1 974:-1 975:-0.542416 976:-1 977:1.4067 978:-1 979:-1 980:-1 981:-0.886638 982:-1 983:-1 984:-1 985:-1 986:-1 987:-1 988:-1 989:-1 990:-1 991:-0.739422 992:-1 993:-1 994:-1 995:-1 996:-1 997:-1 998:0.0322777 999:-1 1000:0.65888 1001:-1 1002:-1 1003:-1 1004:-1 1005:-1 1006:-1 1007:-1 1008:-1 1009:-1 1010:-1 1011:-1 1012:-1 1013:-0.253195 1014:0.423723 1015:-1 1016:-1 1017:-1 1018:-1 1019:-1 1020:-1 1021:-1 1022:-1 1023:-1 1024:-0.478844 1025:-1 1026:-1 1027:-0.32208 1028:-1 1029:-1 1030:-1 1031:-1 1032:-1 1033:-1 1034:0.148238 1035:-1 1036:-1 1037:-1 1038:-1 1039:-1 1040:-1 1041:-1 1042:-1 1043:-1 1044:-1 1045:-0.827529 1046:-1 1047:-1 1048:-1 1049:-1 1050:-1 1051:-1 1052:-1 1053:-1 1054:-1 1055:-1 1056:-1 1057:-1 1058:-1 1059:-1 1060:-1 1061:-1 1062:-1 1063:-1 1064:-1 1065:-1 1066:-0.217761 1067:-1 1068:-1 1069:-1 1070:0.957496 1071:-1 1072:-1 1073:-0.889838 1074:-1 1075:-1 1076:-1 1077:-1 1078:-1 1079:-1 1080:-1 1081:-1 1082:-1 1083:-1 1084:-1 1085:-1 1086:-1 1087:-0.89309 1088:-1 1089:-1 1090:-1 1091:-1 1092:-1 1093:-1 1094:-1 1095:-1 1096:-1 1097:-0.203422 1098:-1 1099:-1 1100:-1 1101:-1 1102:-1 1103:-1 1104:-1 1105:-1 1106:-0.559357 1107:-1 1108:-1 1109:-1 1110:-1 1111:-1 1112:-1 1113:-1 1114:-1 1115:-0.261176 1116:-1 1117:-1 1118:-1 1119:-1 1120:-1 1121:0.601588 1122:-0.542416 1123:-1 1124:-1 1125:-1 1126:-1 1127:-1 1128:-1 1129:-1 1130:1.72476 1131:-1 1132:-1 1133:-1 1134:-1 1135:-1 1136:-0.133303 1137:-1 1138:-1 1139:-1 1140:-1 1141:1.03702 1142:-1 1143:-1 1144:-1 1145:-1 1146:-1 1147:-1 1148:1.23706 1149:-1 1150:-1 1151:3.66887 1152:-1 1153:0.46609 1154:-1 1155:-1 1156:-1 1157:-1 1158:-1 1159:-1 1160:-1 1161:-1 1162:-1 1163:1.23706 1164:-1 1165:-1 1166:-1 1167:-1 1168:-1 1169:-1 1170:-1 1171:-1 1172:0.0736095 1173:1.08462 1174:-1 1175:-1 1176:-1 1177:-1 1178:-0.491495 1179:-1 1180:-1 1181:-0.415304 
4.159254844436655 0 0 3.522826732479603 2.705917633935994 0:-1 1:-1 2:-0.228753 3:-1 4:-1 5:-1 6:-1 7:-0.182011 8:-1 9:-1 10:0.148238 11:-1 12:-0.837075 13:-1 14:-1 15:-1 16:-1 17:-0.712853 18:-1 19:-0.0454955 20:-1 21:-1 22:-1 23:-1 24:-1 25:-1 26:-1 27:-0.430549 28:-1 29:0.204206 30:-1 31:-1 32:-1 33:-1 34:-1 35:-1 36:-1 37:-1 38:-1 39:-1 40:-1 41:-1 42:-1 43:-1 44:-1 45:-0.0917274 46:-1 47:-1 48:-1 49:-0.0244015 50:-0.0760846 51:-1 52:0.864308 53:-1 54:-0.0141893 55:-1 56:-1 57:-1 58:-1 59:-1 60:-1 61:-1 62:1.21196 63:-1 64:-1 65:-0.60868 66:-1 67:-1 68:-1 69:-1 70:-1 71:-1 72:-1 73:-1 74:-0.66104 75:-1 76:-1 77:-1 78:-1 79:-1 80:-1 81:-0.291541 82:-1 83:1.45358 84:-1 85:-0.429993 86:-1 87:-1 88:-0.66096 89:-0.855943 90:0.316558 91:-1 92:-1 93:-1 94:-1 95:-1 96:-1 97:-1 98:-1 99:-1 100:-1 101:-1 102:-1 103:-0.890891 104:-1 105:-1 106:-1 107:-1 108:-1 109:-1 110:0.16953 111:-1 112:-0.275184 113:-1 114:-1 115:0.779504 116:-1 117:-0.6 118:-0.320616 119:-1 120:-1 121:-1 122:-0.738943 123:0.131944 124:-1 125:-1 126:-1 127:-1 128:-1 129:-1 130:-1 131:-1 132:-0.638827 133:-1 134:-1 135:-1 136:-0.855909 137:-1 138:1.23706 139:-0.927955 140:-0.96102 141:-1 142:1.0734 143:-0.482287 144:-1 145:-1 146:-0.610693 147:-1 148:-0.840112 149:-1 150:-1 151:-0.836333 152:-1 153:-1 154:-1 155:0.444937 156:-1 157:-0.707622 158:-1 159:-1 160:-0.686515 161:-1 162:-0.266782 163:-1 164:-1 165:-1 166:-1 167:-0.182011 168:-1 169:-1 170:-1 171:0.792189 172:-1 173:-0.435827 174:-1 175:-1 176:-1 177:-1 178:-1 179:0.201645 180:-1 181:-1 182:-1 183:-1 184:-0.819105 185:-1 186:-0.533876 187:-1 188:-0.28797 189:-1 190:-0.131557 191:-1 192:-1 193:-1 194:-1 195:-1 196:-1 197:-1 198:-1 199:-1 200:-1 201:-1 202:-1 203:-1 204:-1 205:-1 206:-1 207:-1 208:-1 209:-0.855909 210:-1 211:-0.0763026 212:-1 213:-1 214:-1 215:-1 216:-1 217:-1 218:0.118796 219:-1 220:-1 221:-1 222:-1 223:-1 224:-1 225:-1 226:-1 227:-0.73936 228:-1 229:-1 230:-1 231:-1 232:-1 233:-1 234:-0.110038 235:-1 236:-0.870232 237:-1 238:-1 239:-0.088229 240:-0.855909 241:-1 242:-1 243:0.460279 244:-1 245:-1 246:-1 247:-0.502991 248:-1 249:-1 250:-1 251:-1 252:-1 253:-1 254:0.118796 255:5.22173 256:0.461809 257:0.118796 258:-1 259:-0.248848 260:-0.679522 261:-1 262:-1 263:-1 264:-1 265:-1 266:-1 267:-1 268:-1 269:-0.778891 270:-1 271:0.423676 272:-1 273:-1 274:-1 275:-0.741159 276:0.118796 277:-1 278:-1 279:-1 280:-1 281:-0.0917274 282:-1 283:-1 284:-1 285:-0.266782 286:-1 287:-0.580504 288:-0.230853 289:-1 290:-1 291:-0.771154 292:-1 293:-1 294:-0.122887 295:-1 296:-0.436661 297:-1 298:-1 299:-1 300:-0.855909 301:-1 302:-0.0368266 303:-1 304:-1 305:-1 306:-1 307:0.466436 308:1.15674 309:-0.855909 310:-1 311:0.118532 312:-1 313:-1 314:0.502304 315:-1 316:-0.426457 317:-1 318:-1 319:-0.771154 320:-1 321:-0.110038 322:-1 323:-1 324:-0.402425 325:-0.699113 326:-1 327:-0.111732 328:-1 329:-0.427839 330:-1 331:-1 332:-1 333:-1 334:-1 335:-1 336:-1 337:-0.187344 338:-1 339:-1 340:-1 341:-0.402425 342:0.779504 343:0.957506 344:-1 345:-1 346:-1 347:-1 348:-0.0167092 349:-1 350:-1 351:-1 352:-0.398367 353:-1 354:-1 355:-0.555019 356:-1 357:-1 358:-1 359:-1 360:-1 361:0.0423124 362:-1 363:-0.0888172 364:-1 365:-1 366:-1 367:-1 368:-1 369:-0.288198 370:-0.203365 371:-1 372:-1 373:-1 374:-0.833193 375:3.82299 376:-1 377:-1 378:-1 379:-0.66096 380:-1 381:-1 382:-1 383:-0.525367 384:0.563592 385:-1 386:-1 387:-1 388:-1 389:-0.3499 390:-1 391:-1 392:-1 393:-1 394:-0.974909 395:-0.707652 396:-1 397:-1 398:-1 399:-0.711886 400:-1 401:-0.727355 402:-1 403:-0.902525 404:-1 405:-1 406:-1 407:-1 408:-1 409:-1 410:0.0523963 411:-1 412:-1 413:-1 414:-1 415:-1 416:-1 417:-0.827246 418:-1 419:0.974837 420:-1 421:0.173961 422:-1 423:-1 424:-1 425:-0.707583 426:-0.239957 427:-1 428:0.00165446 429:-1 430:-1 431:-1 432:-0.326981 433:-1 434:-1 435:-1 436:-0.363222 437:-1 438:-1 439:-1 440:-1 441:-0.511244 442:-1 443:-1 444:-0.248848 445:-1 446:-0.855909 447:-0.347398 448:-1 449:-0.699113 450:1.55164 451:1.23706 452:-0.377107 453:-1 454:-1 455:0.86439 456:-1 457:1.93218 458:-1 459:-0.269688 460:-1 461:-1 462:-1 463:1.21193 464:-1 465:-1 466:-1 467:-1 468:-1 469:-1 470:-1 471:-1 472:-1 473:-1 474:-0.720301 475:-1 476:-1 477:-1 478:-1 479:-1 480:1.72476 481:-0.555019 482:-1 483:-0.853791 484:-1 485:-1 486:-1 487:-1 488:-1 489:-1 490:-1 491:-0.896672 492:-1 493:-1 494:-1 495:-1 496:-0.429993 497:-1 498:-0.770311 499:-1 500:-1 501:-0.440602 502:-1 503:-0.021252 504:-1 505:-0.402425 506:-0.66096 507:-1 508:-0.402425 509:-1 510:0.148509 511:-1 512:-1 513:-1 514:-1 515:-1 516:-0.402425 517:-1 518:-1 519:-0.571096 520:-1 521:-1 522:-1 523:-0.817271 524:-1 525:0.078646 526:-1 527:-0.740462 528:-1 529:-1 530:-0.266782 531:-1 532:-0.451336 533:-1 534:-1 535:-1 536:-0.649665 537:-1 538:-1 539:-1 540:-1 541:-1 542:-1 543:-1 544:-1 545:-1 546:-1 547:-1 548:-0.851517 549:-0.847257 550:-1 551:-0.792336 552:-0.809288 553:-1 554:0.466436 555:-0.91198 556:-1 557:-1 558:-1 559:-1 560:-1 561:-1 562:-0.937751 563:-1 564:-1 565:-1 566:-1 567:-1 568:-1 569:-0.182011 570:-0.902525 571:-1 572:-1 573:-0.606044 574:-1 575:0.173961 576:-1 577:-1 578:0.424059 579:-0.855909 580:-1 581:-0.627068 582:-1 583:-0.110038 584:0.720666 585:-1 586:-1 587:-1 588:-1 589:0.127762 590:-1 591:2.51701 592:-1 593:-1 594:-1 595:-1 596:-1 597:-0.771154 598:-1 599:-1 600:-1 601:0.201285 602:0.148509 603:0.416917 604:-1 605:-1 606:-1 607:-1 608:-1 609:-0.440602 610:-1 611:0.502304 612:-1 613:-1 614:-1 615:-1 616:-1 617:-1 618:-1 619:-1 620:1.14369 621:-1 622:-1 623:-1 624:-1 625:-1 626:-1 627:-0.484867 628:-1 629:-0.707583 630:-0.617164 631:-1 632:-0.14985 633:-1 634:-1 635:-0.115668 636:-1 637:-1 638:-1 639:-1 640:-1 641:-1 642:-1 643:-1 644:-1 645:-1 646:-1 647:0.950737 648:-1 649:-0.754191 650:-1 651:-1 652:-1 653:-1 654:-1 655:-1 656:-1 657:-1 658:-1 659:-1 660:-0.423204 661:-1 662:-1 663:-0.896168 664:0.0584416 665:-1 666:-1 667:-1 668:-1 669:0.0112145 670:-1 671:-1 672:-0.66096 673:0.745777 674:-1 675:-0.593516 676:-0.474194 677:-1 678:-1 679:0.847395 680:-1 681:-1 682:-1 683:-1 684:-1 685:-0.927955 686:-1 687:-1 688:-1 689:-1 690:-1 691:0.118796 692:-0.460196 693:-1 694:-1 695:-1 696:-0.280964 697:-1 698:-1 699:-1 700:0.01696 701:-1 702:-1 703:-1 704:-1 705:-1 706:-1 707:-1 708:-1 709:-1 710:-1 711:-1 712:-0.793087 713:-0.440602 714:-1 715:-1 716:-1 717:-0.32208 718:-1 719:-1 720:-1 721:-1 722:-1 723:-1 724:-1 725:-0.927955 726:-1 727:-1 728:-1 729:-0.707401 730:-1 731:-1 732:-0.707583 733:-1 734:-1 735:-0.672743 736:-1 737:-1 738:-1 739:1.16445 740:-1 741:-1 742:-1 743:-1 744:-1 745:-1 746:-1 747:-0.294725 748:-0.564887 749:-1 750:-1 751:-1 752:-1 753:-1 754:-1 755:-0.855909 756:-0.0385662 757:-0.366043 758:-1 759:-0.440602 760:-0.308195 761:-1 762:-1 763:-1 764:-0.454709 765:-0.699113 766:-0.776229 767:-1 768:0.452769 769:-1 770:-1 771:-1 772:-1 773:-0.273444 774:-1 775:0.0425584 776:-1 777:1.69101 778:-1 779:-1 780:-1 781:-1 782:-0.902525 783:-1 784:-1 785:-1 786:-1 787:-1 788:-1 789:-1 790:0.779504 791:-1 792:-1 793:-1 794:-1 795:-1 796:-1 797:-0.402425 798:-1 799:-0.979237 800:-1 801:-0.425745 802:-1 803:-1 804:-0.701213 805:-1 806:-1 807:-0.692028 808:-1 809:-1 810:-1 811:-1 812:-1 813:-1 814:-1 815:-1 816:-1 817:-1 818:-1 819:3.31247 820:0.716484 821:-1 822:-1 823:-0.187032 824:-1 825:-1 826:-1 827:-1 828:-1 829:-1 830:-1 831:1.89003 832:0.444842 833:0.0866667 834:-1 835:-1 836:-1 837:-1 838:-1 839:-1 840:-1 841:-1 842:-0.606937 843:-1 844:-1 845:-1 846:-1 847:-1 848:-1 849:-1 850:-1 851:-1 852:1.34532 853:0.758506 854:-1 855:-1 856:-1 857:-1 858:-1 859:-1 860:-1 861:-0.278515 862:-1 863:-1 864:-1 865:-1 866:1.23294 867:-0.18716 868:-1 869:-1 870:-0.927955 871:-1 872:-0.701213 873:-1 874:-1 875:-1 876:-1 877:-1 878:-0.902525 879:-1 880:-1 881:-1 882:-1 883:-1 884:-1 885:-1 886:-1 887:-1 888:-0.021021 889:-1 890:-1 891:-1 892:-0.672817 893:-1 894:-1 895:-1 896:-1 897:-1 898:-1 899:-1 900:-1 901:-1 902:-1 903:-1 904:-0.187032 905:-1 906:-0.891163 907:-1 908:-1 909:-0.963977 910:-1 911:-1 912:1.24299 913:-0.886987 914:-1 915:-1 916:-1 917:-1 918:-1 919:-1 920:-1 921:-1 922:-0.800818 923:0.290499 924:-1 925:-1 926:-1 927:-0.182011 928:-1 929:-1 930:-1 931:-1 932:1.21196 933:-1 934:-1 935:-1 936:-1 937:-1 938:-1 939:-1 940:-1 941:-1 942:-0.326981 943:-1 944:3.42443 945:0.304897 946:-1 947:-1 948:-1 949:-1 950:-0.182011 951:-1 952:-1 953:-1 954:-0.555019 955:-0.855909 956:-0.0491362 957:-1 958:-1 959:-1 960:-1 961:-1 962:-0.0611431 963:-1 964:-1 965:-1 966:-1 967:-1 968:-0.425745 969:-0.662606 970:-1 971:-1 972:-0.510511 973:0.172662 974:-1 975:-1 976:-1 977:-1 978:-1 979:-0.425745 980:-0.855943 981:-1 982:-0.129533 983:-0.262572 984:-1 985:-1 986:-0.0125815 987:-1 988:-1 989:-1 990:0.431757 991:-1 992:-1 993:-0.833084 994:-1 995:-1 996:-1 997:-0.855943 998:-1 999:-0.712873 1000:-1 1001:-0.851668 1002:-1 1003:-0.617164 1004:-1 1005:-0.588903 1006:-1 1007:-1 1008:-1 1009:-1 1010:-0.564887 1011:-1 1012:-1 1013:-1 1014:-1 1015:-1 1016:-1 1017:-1 1018:-1 1019:-1 1020:0.173961 1021:-1 1022:-1 1023:-1 1024:-1 1025:-1 1026:0.779177 1027:-0.32208 1028:-1 1029:-0.110038 1030:-1 1031:-1 1032:-1 1033:-1 1034:-1 1035:-0.402425 1036:-1 1037:-1 1038:-0.555019 1039:-1 1040:-1 1041:-0.6113 1042:-0.927955 1043:-1 1044:-1 1045:-0.568803 1046:-1 1047:-1 1048:-0.447083 1049:-1 1050:-1 1051:-0.299272 1052:-1 1053:0.191119 1054:-1 1055:-1 1056:0.148509 1057:-1 1058:0.502749 1059:0.0425584 1060:-0.673674 1061:-1 1062:-1 1063:-1 1064:-1 1065:-0.413019 1066:-1 1067:-1 1068:1.74862 1069:-1 1070:0.957496 1071:-1 1072:-1 1073:-1 1074:-1 1075:-1 1076:-1 1077:-1 1078:-0.320071 1079:-1 1080:-1 1081:-1 1082:-0.110038 1083:-0.855909 1084:-1 1085:-1 1086:-1 1087:-1 1088:-1 1089:-0.777509 1090:0.444937 1091:-1 1092:-1 1093:0.118796 1094:-1 1095:-1 1096:-0.857498 1097:-1 1098:-1 1099:-1 1100:-0.222497 1101:-1 1102:-1 1103:-1 1104:-1 1105:0.144168 1106:-1 1107:-0.538042 1108:-1 1109:-0.021021 1110:-1 1111:-1 1112:-1 1113:-1 1114:-1 1115:-1 1116:-1 1117:-1 1118:-1 1119:-1 1120:-1 1121:-0.199017 1122:-1 1123:-1 1124:-1 1125:-1 1126:-1 1127:-1 1128:-0.393271 1129:-1 1130:-1 1131:-1 1132:-1 1133:-1 1134:-1 1135:-1 1136:-0.7833 1137:-1 1138:-1 1139:0.307111 1140:-1 1141:-1 1142:-1 1143:-1 1144:-1 1145:-0.413158 1146:-1 1147:-1 1148:-1 1149:-0.692028 1150:-0.021021 1151:-1 1152:-1 1153:-0.266782 1154:-1 1155:-1 1156:-0.805097 1157:-1 1158:-1 1159:-1 1160:-1 1161:0.498056 1162:-1 1163:-1 1164:-1 1165:-1 1166:0.423723 1167:0.362701 1168:-0.767933 1169:-1 1170:0.194867 1171:-1 1172:-1 1173:-1 1174:-1 1175:-1 1176:-1 1177:-1 1178:-1 1179:-1 1180:-1 1181:-0.707583 
1.396126790213795 0 0 0 0.5943668323218239 0:-1 1:-1 2:-1 3:-1 4:-1 5:-1 6:-1 7:-1 8:-1 9:-1 10:-1 11:-1 12:-1 13:-1 14:-1 15:-1 16:1.05793 17:-1 18:-1 19:-1 20:-1 21:-1 22:-1 23:-1 24:-1 25:7.34129 26:-1 27:-1 28:-1 29:-1 30:-1 31:0.584584 32:-1 33:-1 34:-1 35:-1 36:-1 37:-1 38:-1 39:-1 40:-1 41:-1 42:-1 43:0.913015 44:-1 45:-1 46:-1 47:-0.207708 48:-1 49:-1 50:-1 51:-1 52:1.55069 53:-1 54:-1 55:-1 56:-1 57:-0.105577 58:-1 59:-1 60:-1 61:-1 62:-1 63:-1 64:-1 65:-1 66:-1 67:-1 68:-1 69:-1 70:-1 71:-1 72:-1 73:-1 74:0.15944 75:-1 76:-1 77:-1 78:-1 79:-1 80:-1 81:-1 82:-1 83:-1 84:-1 85:-1 86:-1 87:-1 88:-1 89:-1 90:-1 91:-1 92:-0.293903 93:-1 94:-1 95:-1 96:-1 97:-1 98:-1 99:-1 100:-1 101:-1 102:-1 103:-1 104:-1 105:-1 106:-1 107:-1 108:-1 109:-1 110:-1 111:-1 112:-1 113:-1 114:-1 115:-1 116:-1 117:-1 118:-1 119:-1 120:-1 121:-1 122:0.785512 123:-1 124:-1 125:-1 126:-0.465863 127:-1 128:-1 129:-1 130:-1 131:-1 132:-1 133:8.88271 134:-1 135:-1 136:-1 137:-1 138:-1 139:-1 140:-1 141:-1 142:-1 143:-1 144:-1 145:-1 146:-1 147:-1 148:-1 149:-0.584531 150:-1 151:-1 152:-1 153:-1 154:-1 155:-1 156:-1 157:-1 158:-1 159:-1 160:-1 161:-1 162:-1 163:-1 164:-1 165:-1 166:-1 167:-1 168:-1 169:-1 170:-1 171:-1 172:-1 173:-0.035215 174:-1 175:-1 176:-1 177:-1 178:-1 179:-1 180:-1 181:-1 182:-1 183:-1 184:0.237237 185:-1 186:-1 187:-1 188:-1 189:-1 190:-1 191:-1 192:-1 193:-1 194:-1 195:-1 196:-1 197:-1 198:-1 199:-1 200:-1 201:-1 202:-1 203:-1 204:-1 205:-1 206:-0.656999 207:-1 208:-1 209:-1 210:-1 211:-1 212:-1 213:-1 214:-1 215:-1 216:-1 217:-1 218:-1 219:-1 220:-1 221:-1 222:-1 223:6.65206 224:-1 225:-1 226:-1 227:-1 228:-1 229:-1 230:-1 231:-1 232:-1 233:1 234:-1 235:-1 236:-1 237:-1 238:-1 239:-1 240:-1 241:-1 242:-1 243:-1 244:-1 245:-1 246:-1 247:-1 248:-1 249:-1 250:-1 251:-1 252:-1 253:-1 254:-1 255:-1 256:-1 257:-1 258:-1 259:-1 260:-1 261:-1 262:-1 263:-1 264:-1 265:-1 266:-1 267:-1 268:-1 269:-1 270:-1 271:-1 272:-1 273:-1 274:-1 275:-1 276:-1 277:-1 278:-1 279:-1 280:-1 281:-1 282:-1 283:-1 284:-1 285:-1 286:-1 287:-1 288:-1 289:-1 290:-1 291:-1 292:-1 293:-1 294:-1 295:-1 296:-1 297:-1 298:-1 299:-1 300:-1 301:-1 302:-1 303:-1 304:-1 305:-1 306:-1 307:-1 308:-1 309:-1 310:-1 311:-1 312:-1 313:-1 314:-1 315:-1 316:-1 317:-1 318:-1 319:-1 320:-1 321:-1 322:-1 323:-1 324:-1 325:-1 326:-1 327:1.02543 328:-1 329:-1 330:-1 331:-1 332:-1 333:-1 334:-1 335:3.08714 336:-1 337:-1 338:-0.0547221 339:-1 340:-1 341:-1 342:5.08694 343:-1 344:-1 345:-1 346:-1 347:-1 348:-1 349:-1 350:-1 351:-1 352:-1 353:-1 354:-1 355:-1 356:-1 357:-1 358:6.82559 359:-1 360:-1 361:-1 362:-1 363:-1 364:-1 365:-1 366:-1 367:-1 368:-1 369:-1 370:-1 371:-1 372:-1 373:-1 374:-1 375:-1 376:-1 377:-1 378:-1 379:-1 380:-1 381:-1 382:-1 383:-1 384:-1 385:-1 386:-1 387:-1 388:-1 389:-1 390:-1 391:6.5979 392:-1 393:-1 394:-1 395:-1 396:-1 397:-1 398:-1 399:-0.0144839 400:-1 401:0.864771 402:-1 403:-1 404:-1 405:-1 406:-1 407:-1 408:-1 409:-0.521731 410:6.19791 411:-1 412:-1 413:-1 414:-1 415:-1 416:-1 417:-1 418:-1 419:-1 420:-1 421:-1 422:-1 423:-1 424:-1 425:-1 426:-1 427:-1 428:-1 429:-1 430:-1 431:-1 432:-1 433:-1 434:-1 435:-1 436:-1 437:-1 438:-1 439:-1 440:-1 441:-1 442:-1 443:-1 444:-1 445:-1 446:-1 447:-1 448:-1 449:3.11587 450:-1 451:-1 452:-1 453:-1 454:2.56531 455:-1 456:-1 457:-1 458:-1 459:-1 460:-1 461:-1 462:-1 463:-1 464:0.238983 465:-1 466:-1 467:0.67404 468:-1 469:-1 470:-1 471:-1 472:-1 473:-1 474:-1 475:-1 476:-1 477:-1 478:-1 479:-1 480:-1 481:-1 482:-1 483:-1 484:-1 485:-1 486:-1 487:-1 488:-1 489:-1 490:-1 491:-0.64656 492:-1 493:-1 494:-1 495:-1 496:-1 497:-1 498:-1 499:-1 500:-1 501:-1 502:-1 503:-1 504:-1 505:-1 506:-1 507:-1 508:-1 509:-1 510:-1 511:-1 512:-1 513:-1 514:-1 515:-1 516:-1 517:-1 518:-1 519:1.93351 520:-1 521:-1 522:-1 523:-1 524:-1 525:-1 526:-1 527:-1 528:-1 529:-1 530:-1 531:-1 532:-1 533:-1 534:-1 535:-1 536:-1 537:-1 538:-1 539:-1 540:-1 541:-1 542:-1 543:-1 544:-1 545:-1 546:-1 547:-1 548:1.03111 549:-1 550:-1 551:-1 552:-1 553:-1 554:-1 555:-1 556:-0.0144839 557:-1 558:-1 559:-1 560:-1 561:-1 562:-1 563:-1 564:-1 565:-1 566:-1 567:-1 568:-1 569:-1 570:-1 571:-1 572:-1 573:-1 574:-1 575:-1 576:-1 577:-1 578:-1 579:-1 580:-1 581:-1 582:-1 583:-1 584:-1 585:-1 586:-1 587:-1 588:-1 589:-1 590:-1 591:-1 592:-1 593:-1 594:-1 595:-1 596:-1 597:-1 598:-1 599:-1 600:-1 601:-1 602:-1 603:-1 604:-1 605:-1 606:-1 607:-1 608:-1 609:-1 610:-1 611:-1 612:0.947853 613:-1 614:-1 615:-1 616:-1 617:-1 618:-1 619:-1 620:-1 621:-1 622:-1 623:-1 624:-1 625:-1 626:-1 627:-1 628:-1 629:-1 630:-1 631:-1 632:-1 633:-1 634:-1 635:0.512287 636:-1 637:-1 638:-1 639:-1 640:-1 641:-1 642:-1 643:-1 644:-1 645:-1 646:1.04357 647:-1 648:-1 649:-1 650:-1 651:-1 652:-1 653:-1 654:-1 655:-1 656:-1 657:-1 658:-1 659:-1 660:-1 661:-0.760865 662:-1 663:-1 664:-1 665:-1 666:-1 667:-1 668:-1 669:-1 670:1.22781 671:-1 672:-1 673:-1 674:-1 675:-1 676:-1 677:-1 678:-1 679:-1 680:-1 681:-1 682:-1 683:-1 684:-1 685:-1 686:-1 687:-1 688:-1 689:-1 690:-1 691:-1 692:-1 693:1.39712 694:-1 695:-1 696:-1 697:-1 698:-1 699:-1 700:-1 701:-1 702:-1 703:-1 704:-1 705:-1 706:0.217388 707:-1 708:-1 709:-1 710:-1 711:-1 712:-1 713:-1 714:-1 715:-1 716:-1 717:-1 718:-1 719:-1 720:-1 721:-1 722:-1 723:-1 724:-1 725:-1 726:-1 727:-1 728:-1 729:-1 730:-1 731:-1 732:1 733:-1 734:-1 735:-1 736:-1 737:-1 738:-1 739:-1 740:-1 741:-1 742:-1 743:-1 744:-1 745:-1 746:7.35813 747:-1 748:-1 749:-1 750:-1 751:-1 752:-1 753:-1 754:-1 755:-1 756:-1 757:-1 758:-1 759:-1 760:-1 761:-1 762:-1 763:-1 764:-1 765:-1 766:-1 767:-1 768:3.96931 769:-1 770:3.4635 771:-1 772:-1 773:-1 774:-1 775:-1 776:-1 777:-1 778:-1 779:-1 780:-1 781:-1 782:-1 783:-1 784:-1 785:-1 786:-1 787:-1 788:-1 789:-1 790:-1 791:-1 792:-1 793:-1 794:-1 795:-1 796:-1 797:-1 798:-1 799:-1 800:-1 801:-1 802:-1 803:-1 804:-1 805:-1 806:-1 807:-1 808:-1 809:-1 810:-1 811:-1 812:-1 813:2.82603 814:-1 815:-1 816:-1 817:-1 818:-1 819:-1 820:-1 821:-1 822:-1 823:-1 824:-1 825:-1 826:3.11032 827:-1 828:-1 829:-1 830:-1 831:-1 832:-1 833:-1 834:-1 835:-1 836:2.13058 837:-1 838:-1 839:-1 840:-1 841:-1 842:-1 843:-1 844:-1 845:-1 846:-1 847:-1 848:-1 849:-1 850:-1 851:-1 852:-1 853:-1 854:-1 855:-1 856:-1 857:-1 858:-1 859:-1 860:-1 861:-1 862:-1 863:-1 864:-1 865:-1 866:-1 867:-1 868:-1 869:-1 870:-1 871:-1 872:-1 873:-1 874:-1 875:-1 876:-1 877:-1 878:-1 879:-1 880:-1 881:-1 882:-1 883:-1 884:-1 885:-1 886:-1 887:-1 888:-1 889:-1 890:-1 891:5.08694 892:1.23778 893:-1 894:-1 895:-1 896:-1 897:-1 898:-1 899:-1 900:-1 901:5.85086 902:-1 903:-1 904:-1 905:-1 906:-1 907:-1 908:-1 909:-1 910:-1 911:-1 912:-1 913:-1 914:1.31888 915:-1 916:-1 917:-1 918:-1 919:-1 920:-1 921:-1 922:-1 923:-1 924:-1 925:-1 926:-1 927:-1 928:-1 929:-1 930:-1 931:-1 932:-1 933:-1 934:-1 935:-1 936:-1 937:-1 938:-1 939:-0.732473 940:-1 941:-1 942:-1 943:1.31888 944:-1 945:-1 946:-1 947:-1 948:-1 949:-1 950:-1 951:-1 952:-1 953:-1 954:-1 955:-1 956:-1 957:-1 958:-1 959:-1 960:-1 961:-1 962:-1 963:-1 964:-1 965:-1 966:-1 967:-1 968:-1 969:-1 970:-1 971:-1 972:-1 973:-1 974:-1 975:-1 976:-1 977:-1 978:-1 979:-1 980:-1 981:-1 982:-1 983:-1 984:-1 985:-1 986:-1 987:-1 988:-1 989:-1 990:-1 991:-1 992:-1 993:-1 994:-1 995:-1 996:-1 997:-1 998:-1 999:-1 1000:2.78259 1001:-1 1002:-1 1003:-1 1004:-1 1005:-1 1006:-1 1007:-1 1008:-1 1009:-1 1010:-1 1011:-1 1012:-1 1013:1.55451 1014:-1 1015:-1 1016:-1 1017:-1 1018:-1 1019:-1 1020:-1 1021:-1 1022:-1 1023:-1 1024:-1 1025:-1 1026:-1 1027:-1 1028:-1 1029:-1 1030:-1 1031:-1 1032:-1 1033:-1 1034:-1 1035:-1 1036:-1 1037:-1 1038:-1 1039:-1 1040:-1 1041:-1 1042:-1 1043:-1 1044:-1 1045:-1 1046:-1 1047:-1 1048:-1 1049:-1 1050:-1 1051:-1 1052:-1 1053:-1 1054:-1 1055:-1 1056:-1 1057:-1 1058:-1 1059:-1 1060:-1 1061:-1 1062:-1 1063:-1 1064:-1 1065:-1 1066:1.67571 1067:-1 1068:-1 1069:2.92764 1070:-1 1071:-1 1072:-1 1073:-1 1074:-1 1075:-1 1076:-1 1077:-1 1078:-1 1079:-1 1080:-1 1081:-1 1082:-1 1083:-1 1084:-1 1085:-1 1086:-1 1087:-1 1088:-1 1089:-1 1090:-1 1091:-0.71014 1092:-1 1093:-1 1094:-1 1095:-1 1096:-1 1097:-1 1098:-1 1099:-1 1100:-1 1101:-1 1102:-1 1103:-1 1104:-1 1105:-1 1106:-1 1107:-1 1108:-1 1109:-1 1110:-1 1111:-1 1112:-1 1113:-1 1114:-1 1115:-1 1116:-1 1117:-1 1118:-1 1119:-1 1120:-1 1121:-1 1122:-1 1123:-1 1124:-1 1125:-1 1126:-1 1127:-1 1128:-1 1129:-1 1130:-1 1131:-1 1132:-1 1133:-1 1134:-1 1135:-1 1136:-1 1137:-1 1138:-1 1139:-1 1140:-1 1141:-1 1142:-1 1143:-1 1144:-1 1145:-1 1146:-1 1147:-1 1148:-1 1149:-1 1150:-1 1151:-1 1152:-1 1153:-1 1154:-1 1155:-1 1156:-1 1157:-1 1158:-1 1159:-1 1160:-1 1161:-1 1162:-1 1163:-1 1164:-1 1165:-0.297088 1166:-1 1167:-1 1168:-1 1169:-1 1170:-1 1171:-1 1172:-1 1173:-1 1174:-1 1175:-1 1176:-1 1177:-1 1178:-0.130411 1179:-1 1180:-1 1181:1 
4.771925380728632 0 0 2.29173504818688 2.138038395133067 0:0.77652 1:-1 2:0.542129 3:-1 4:-1 5:-1 6:-1 7:-1 8:-1 9:-1 10:-1 11:-1 12:-0.674227 13:-1 14:-1 15:-1 16:-1 17:-1 18:-1 19:-1 20:-1 21:0.118532 22:-1 23:-0.791538 24:-1 25:-1 26:-1 27:-1 28:-1 29:-1 30:-1 31:-1 32:-1 33:-1 34:-1 35:-1 36:-1 37:-1 38:-1 39:-1 40:-1 41:-1 42:-1 43:-0.440734 44:-1 45:0.816117 46:-1 47:-1 48:-1 49:2.90193 50:-1 51:-1 52:-1 53:-1 54:-1 55:-1 56:-0.857001 57:-1 58:-1 59:-1 60:-1 61:-1 62:-1 63:-1 64:-1 65:-0.217544 66:-1 67:-1 68:-1 69:-1 70:-1 71:-1 72:-1 73:-1 74:-1 75:-1 76:-1 77:-1 78:-1 79:-1 80:-1 81:-1 82:-1 83:-1 84:-1 85:-1 86:-1 87:-1 88:-1 89:-1 90:-1 91:-1 92:-1 93:-1 94:-1 95:-0.415304 96:-1 97:-0.951274 98:-1 99:-1 100:-1 101:-1 102:-1 103:-1 104:1.34737 105:-1 106:-1 107:-1 108:0.118532 109:-1 110:1.92362 111:-1 112:-1 113:-1 114:-1 115:0.779504 116:-1 117:-0.200189 118:-1 119:-1 120:-1 121:-0.60173 122:-1 123:-1 124:-1 125:-1 126:-0.843846 127:-1 128:-1 129:-1 130:-1 131:-1 132:-0.277825 133:-1 134:2.12327 135:-1 136:-1 137:-1 138:-1 139:-1 140:-0.688138 141:-1 142:-1 143:-1 144:0.950737 145:-1 146:-1 147:-1 148:-1 149:-1 150:-1 151:-0.345408 152:-1 153:-1 154:-1 155:-1 156:0.304897 157:-0.0254382 158:-1 159:-1 160:-0.373178 161:-1 162:-1 163:-1 164:1.47344 165:-1 166:-1 167:-1 168:0.957496 169:-1 170:-1 171:-1 172:-1 173:0.692451 174:-1 175:-1 176:-1 177:-1 178:-1 179:-1 180:-1 181:-1 182:0.194867 183:-1 184:-1 185:-1 186:0.864276 187:0.779504 188:-1 189:-1 190:0.736475 191:-1 192:-1 193:-1 194:-1 195:-1 196:-1 197:-1 198:-1 199:-1 200:-1 201:-1 202:-1 203:-1 204:-0.110248 205:-1 206:-1 207:-1 208:-1 209:-1 210:-1 211:0.847613 212:-1 213:-0.711886 214:-1 215:-1 216:-1 217:-1 218:-1 219:-1 220:-1 221:-1 222:-1 223:-1 224:-1 225:0.635592 226:-1 227:-1 228:-1 229:-1 230:-1 231:-1 232:0.0423124 233:-1 234:-1 235:-1 236:-1 237:-1 238:-1 239:-1 240:-1 241:-1 242:-1 243:-1 244:-0.542416 245:-0.779902 246:-1 247:-0.00621555 248:-1 249:-1 250:-1 251:-1 252:-1 253:-1 254:-1 255:5.22173 256:0.16953 257:-1 258:-1 259:0.50195 260:-1 261:-1 262:-1 263:-1 264:-1 265:-1 266:-1 267:-1 268:-1 269:-1 270:-1 271:-0.0509576 272:-1 273:-1 274:-1 275:-1 276:-1 277:-0.861027 278:-1 279:-1 280:-1 281:-1 282:-1 283:-1 284:-1 285:-1 286:-1 287:-1 288:-1 289:-1 290:-1 291:-1 292:-1 293:-1 294:-1 295:-1 296:-1 297:-1 298:-1 299:-1 300:-1 301:-1 302:-1 303:-1 304:-1 305:-0.584771 306:-1 307:-1 308:-1 309:-1 310:-1 311:-1 312:-1 313:-1 314:-1 315:-1 316:0.529417 317:-1 318:-1 319:-0.542416 320:-1 321:-1 322:0.0897634 323:-1 324:-1 325:-1 326:-1 327:-1 328:-1 329:-1 330:-1 331:-1 332:-1 333:-1 334:-1 335:-1 336:-1 337:-1 338:-1 339:-1 340:-1 341:0.194867 342:0.779504 343:-1 344:-1 345:-1 346:-1 347:-1 348:-1 349:-1 350:-1 351:-1 352:-1 353:-1 354:-1 355:-1 356:-1 357:-1 358:-1 359:-1 360:-1 361:0.0423124 362:-1 363:-1 364:-1 365:-0.783832 366:-1 367:-1 368:0.105833 369:-1 370:-1 371:-1 372:-1 373:-0.954988 374:-1 375:-1 376:-1 377:-1 378:-1 379:-1 380:-1 381:-1 382:-1 383:-1 384:-1 385:-1 386:-1 387:-1 388:-1 389:-1 390:-1 391:1.22123 392:-1 393:-1 394:-1 395:-1 396:-1 397:-1 398:-1 399:-1 400:-1 401:-1 402:-1 403:-1 404:-1 405:-0.234508 406:-1 407:0.923723 408:-1 409:-1 410:-1 411:-1 412:-1 413:-1 414:-1 415:-1 416:-0.726239 417:-0.654574 418:-1 419:-1 420:-1 421:-1 422:-1 423:-1 424:-1 425:-1 426:-1 427:-1 428:-1 429:-1 430:-1 431:-1 432:-1 433:-1 434:0.194867 435:-1 436:1.54711 437:-1 438:-1 439:-1 440:-1 441:-1 442:-1 443:0.505151 444:0.50195 445:-1 446:-1 447:-1 448:-1 449:-1 450:-1 451:-1 452:-0.584771 453:-1 454:0.0423124 455:-0.62714 456:-1 457:-1 458:-1 459:0.460279 460:-1 461:-1 462:-1 463:-1 464:-1 465:-1 466:-1 467:-1 468:-0.435067 469:-1 470:-1 471:-1 472:0.118532 473:-1 474:0.67793 475:-1 476:-1 477:-1 478:-1 479:-1 480:-1 481:-1 482:-1 483:-1 484:-1 485:-1 486:-1 487:-1 488:-1 489:-1 490:-1 491:-1 492:-1 493:-1 494:0.635592 495:-1 496:-1 497:-1 498:-0.0813506 499:-1 500:-1 501:0.118532 502:-1 503:-0.021252 504:-1 505:-1 506:-1 507:-1 508:-1 509:-1 510:-1 511:-1 512:-1 513:-1 514:-1 515:-1 516:-1 517:-1 518:-1 519:-1 520:-1 521:-1 522:-1 523:-0.122889 524:-1 525:-1 526:-1 527:-1 528:-1 529:-1 530:-1 531:0.957496 532:-1 533:-1 534:-1 535:-1 536:-0.299496 537:-0.305125 538:-0.711886 539:-1 540:1.49382 541:-1 542:-1 543:-1 544:-1 545:-1 546:-0.455118 547:-1 548:-1 549:-1 550:-1 551:-1 552:-1 553:-1 554:-1 555:-1 556:-1 557:-1 558:-0.920344 559:-1 560:-1 561:-1 562:-1 563:-1 564:-1 565:0.779504 566:-1 567:-1 568:-1 569:-1 570:-1 571:-1 572:-1 573:-1 574:-1 575:-1 576:-1 577:-1 578:-1 579:-1 580:-1 581:-1 582:-1 583:-1 584:2.44052 585:-1 586:-1 587:0.118532 588:-1 589:0.127762 590:-1 591:-1 592:-1 593:-1 594:-1 595:-1 596:-1 597:-1 598:-1 599:-1 600:-1 601:-0.199206 602:1.29648 603:-1 604:-1 605:-1 606:-1 607:-1 608:-1 609:-1 610:-1 611:2.0039 612:-1 613:-1 614:-1 615:-1 616:-1 617:-1 618:-1 619:-1 620:1.14369 621:-1 622:-1 623:-1 624:-1 625:-1 626:-1 627:0.0300231 628:-1 629:-1 630:-1 631:-1 632:-1 633:-1 634:-0.889838 635:-1 636:-1 637:-1 638:-1 639:-1 640:-1 641:-1 642:-1 643:-1 644:-1 645:-1 646:-1 647:-1 648:-1 649:-1 650:-1 651:-1 652:-1 653:-1 654:-1 655:-1 656:-1 657:-1 658:-1 659:-1 660:-1 661:-1 662:-1 663:-0.792385 664:1.11638 665:-1 666:-1 667:-1 668:-1 669:-1 670:-1 671:-1 672:-1 673:-1 674:-1 675:-1 676:-1 677:-1 678:-1 679:-1 680:-1 681:-1 682:0.776892 683:-1 684:-1 685:-1 686:-1 687:-1 688:-1 689:-1 690:-1 691:-1 692:-1 693:-1 694:-1 695:1.00284 696:-1 697:-1 698:-1 699:-1 700:-1 701:-1 702:-1 703:-1 704:-1 705:-1 706:-1 707:-1 708:-1 709:-0.864416 710:-1 711:-1 712:-1 713:1.23733 714:-1 715:-1 716:-1 717:-1 718:-1 719:-1 720:-1 721:-1 722:-1 723:-0.661 724:-1 725:-1 726:-1 727:-1 728:-1 729:-0.414941 730:-1 731:-1 732:-1 733:-1 734:-1 735:-1 736:-1 737:-1 738:-1 739:-1 740:-1 741:-1 742:-1 743:-1 744:-1 745:-1 746:3.88754 747:-1 748:-1 749:-1 750:-1 751:-1 752:-1 753:-1 754:-1 755:-0.711886 756:0.922414 757:-1 758:-1 759:-1 760:-1 761:-1 762:-1 763:-0.182283 764:-1 765:-1 766:-0.552563 767:-1 768:-1 769:-1 770:-1 771:-1 772:-1 773:-1 774:-0.402566 775:-1 776:-1 777:-1 778:-1 779:-1 780:-1 781:-1 782:-1 783:-0.477043 784:-1 785:0.173684 786:-1 787:-1 788:0.779504 789:-1 790:-1 791:-1 792:-1 793:-0.114247 794:-1 795:-1 796:-1 797:-1 798:-1 799:-1 800:-1 801:1.29675 802:-1 803:-1 804:-1 805:-1 806:-1 807:-1 808:-1 809:-1 810:-1 811:-1 812:-0.325909 813:-1 814:-1 815:-1 816:-1 817:-1 818:-1 819:-1 820:-1 821:-1 822:-1 823:-1 824:0.754226 825:-1 826:-1 827:-1 828:-1 829:-1 830:-1 831:-1 832:-1 833:1.17282 834:-1 835:-1 836:-1 837:-1 838:-1 839:-1 840:-1 841:-1 842:-1 843:-1 844:-1 845:-1 846:2.44052 847:-1 848:-1 849:-1 850:0.635592 851:-1 852:-1 853:-1 854:-1 855:-1 856:-1 857:-1 858:-1 859:-1 860:-0.805097 861:-1 862:-1 863:0.423723 864:-1 865:0.391919 866:-1 867:-1 868:-1 869:-1 870:-1 871:-1 872:-1 873:-1 874:-1 875:-0.674352 876:-1 877:-1 878:-1 879:-1 880:-1 881:-1 882:-1 883:-1 884:-1 885:-1 886:-1 887:-1 888:-1 889:-0.155976 890:-1 891:-1 892:-0.345789 893:-1 894:-0.580578 895:-1 896:-1 897:-1 898:-1 899:-1 900:-1 901:-1 902:-1 903:-1 904:-1 905:-1 906:-1 907:-1 908:-1 909:-1 910:-1 911:-1 912:-1 913:-1 914:-1 915:-1 916:-0.262746 917:-1 918:-1 919:-1 920:-1 921:0.624928 922:-1 923:-1 924:-1 925:-1 926:-1 927:-1 928:-1 929:-1 930:-1 931:-1 932:-1 933:-1 934:-1 935:-1 936:-1 937:-1 938:-1 939:-1 940:-1 941:-1 942:-1 943:-1 944:-1 945:-1 946:-0.755947 947:-1 948:-1 949:-1 950:0.635592 951:-1 952:-1 953:-1 954:-1 955:-1 956:-1 957:-1 958:-1 959:-1 960:-1 961:-1 962:-1 963:-1 964:-1 965:-1 966:-1 967:-1 968:-1 969:-1 970:-1 971:-1 972:-1 973:1.34477 974:-1 975:-1 976:-1 977:-1 978:-1 979:-1 980:-1 981:-1 982:-1 983:-1 984:-1 985:-1 986:-1 987:-1 988:-1 989:-1 990:-1 991:-1 992:-1 993:-1 994:-0.855943 995:-1 996:-1 997:-1 998:-0.483922 999:-1 1000:-0.447083 1001:-1 1002:-1 1003:-1 1004:0.847395 1005:-1 1006:-1 1007:-1 1008:-1 1009:-1 1010:-1 1011:1.88919 1012:-1 1013:-0.253195 1014:-1 1015:-1 1016:-1 1017:0.144053 1018:-1 1019:-1 1020:-1 1021:-1 1022:0.118532 1023:-1 1024:-1 1025:-1 1026:-1 1027:-1 1028:-1 1029:-1 1030:-1 1031:-1 1032:-1 1033:-1 1034:-1 1035:-1 1036:-1 1037:-1 1038:-1 1039:-1 1040:-1 1041:-1 1042:-1 1043:-1 1044:-1 1045:0.724829 1046:-1 1047:-1 1048:-1 1049:-1 1050:-1 1051:-1 1052:-1 1053:-1 1054:-1 1055:-1 1056:-1 1057:-1 1058:-1 1059:-1 1060:-1 1061:-1 1062:-1 1063:1.23706 1064:-1 1065:-1 1066:-1 1067:-1 1068:-1 1069:-1 1070:-1 1071:-1 1072:-1 1073:-1 1074:2.43243 1075:-1 1076:-1 1077:-1 1078:-1 1079:-1 1080:-1 1081:-1 1082:0.779504 1083:-1 1084:-1 1085:-1 1086:-1 1087:-0.862543 1088:-1 1089:-1 1090:-1 1091:-0.91526 1092:-1 1093:-1 1094:-1 1095:-1 1096:-1 1097:-1 1098:-1 1099:0.263644 1100:-1 1101:1.28348 1102:-0.542416 1103:-1 1104:-1 1105:1.2878 1106:-1 1107:-1 1108:-1 1109:-1 1110:-1 1111:-1 1112:-1 1113:-1 1114:-1 1115:-0.445871 1116:-1 1117:-1 1118:-1 1119:-0.254312 1120:-1 1121:-1 1122:-0.542416 1123:-1 1124:-1 1125:-1 1126:-1 1127:-1 1128:-1 1129:-1 1130:-1 1131:-0.348705 1132:-1 1133:-1 1134:-1 1135:-1 1136:0.299995 1137:-1 1138:-1 1139:-1 1140:-1 1141:-1 1142:0.745777 1143:-1 1144:-1 1145:-1 1146:-1 1147:-1 1148:-1 1149:-1 1150:-1 1151:-1 1152:-1 1153:-1 1154:-1 1155:-1 1156:-1 1157:-1 1158:-1 1159:-1 1160:-1 1161:-1 1162:-1 1163:1.23706 1164:-1 1165:-1 1166:-1 1167:-1 1168:-1 1169:-1 1170:-1 1171:-1 1172:-1 1173:-1 1174:-1 1175:-1 1176:-1 1177:2.1537 1178:-0.745777 1179:-1 1180:-1 1181:-0.415304 
4.328764646220072 0 0 4.418863764321419 2.120450143710128 0:-1 1:0.237098 2:-1 3:-1 4:-1 5:-1 6:-0.855297 7:-1 8:-1 9:-1 10:-0.423306 11:-1 12:-0.509227 13:-1 14:-1 15:-1 16:-1 17:-1 18:-1 19:1.87523 20:-0.43094 21:0.123284 22:-1 23:-1 24:-0.0327347 25:1.44892 26:-1 27:-1 28:-1 29:0.209322 30:-1 31:-1 32:-1 33:-1 34:0.642609 35:-1 36:-1 37:-1 38:-0.615537 39:-1 40:-0.678161 41:-1 42:-1 43:-0.719113 44:-1 45:-1 46:1.54562 47:-1 48:-1 49:-0.0202578 50:-1 51:-1 52:-1 53:-1 54:-1 55:1.11111 56:-0.92818 57:-1 58:-1 59:-1 60:0.00590877 61:-1 62:-1 63:-1 64:-1 65:-1 66:-1 67:-0.399887 68:-1 69:-1 70:-1 71:-1 72:-1 73:0.449098 74:-1 75:-1 76:-1 77:-1 78:-1 79:-1 80:-1 81:-1 82:-1 83:1.464 84:-1 85:-0.427572 86:-1 87:-1 88:-1 89:-1 90:-1 91:-0.551433 92:-0.896324 93:-1 94:-1 95:-1 96:-1 97:-1 98:-1 99:-1 100:-1 101:-1 102:-1 103:-1 104:-1 105:-0.637324 106:-1 107:-0.396483 108:-1 109:-1 110:-0.119161 111:-1 112:-1 113:-1 114:-1 115:-0.106258 116:-1 117:-0.598301 118:-0.31773 119:-1 120:-1 121:-0.799972 122:-0.475792 123:-1 124:-1 125:-0.706341 126:-1 127:-1 128:-1 129:-0.662383 130:-1 131:-1 132:-0.637293 133:0.451074 134:-1 135:-1 136:-0.710662 137:0.177968 138:0.123548 139:-0.927649 140:-0.980422 141:-1 142:-1 143:-0.480088 144:-1 145:-1 146:-0.609039 147:-1 148:-1 149:-1 150:-1 151:-0.671352 152:-1 153:-1 154:-1 155:0.451074 156:-0.344626 157:-0.804269 158:-1 159:-1 160:-1 161:-0.62972 162:-1 163:-1 164:0.242265 165:-1 166:-1 167:-0.178537 168:-0.016863 169:-1 170:-1 171:-1 172:-1 173:-0.716749 174:-1 175:-1 176:-1 177:-0.785635 178:-1 179:2.01702 180:-1 181:-1 182:-1 183:-1 184:-1 185:-1 186:-0.531896 187:0.787064 188:-1 189:-1 190:-1 191:-1 192:-1 193:-1 194:-0.405353 195:-1 196:-1 197:-1 198:-1 199:-1 200:-1 201:-0.520833 202:-1 203:-1 204:-1 205:-0.344626 206:-1 207:-0.125 208:-1 209:-0.855297 210:-1 211:0.391541 212:-0.616956 213:-0.710662 214:-1 215:-1 216:0.207263 217:-0.971424 218:-1 219:-1 220:-1 221:-1 222:-1 223:-1 224:-1 225:-1 226:-0.291375 227:-1 228:-1 229:-0.706159 230:-1 231:-1 232:-1 233:-1 234:-1 235:-1 236:-0.934825 237:-1 238:-1 239:-0.0843555 240:-1 241:-1 242:-1 243:-0.266586 244:-0.770182 245:-1 246:-1 247:-1 248:-1 249:-1 250:-1 251:-1 252:-1 253:-0.828518 254:0.123548 255:-1 256:-0.41282 257:-1 258:-1 259:-1 260:-0.678161 261:-1 262:-0.553129 263:-1 264:-1 265:-1 266:-1 267:-1 268:-1 269:-1 270:-1 271:-0.523351 272:-0.106468 273:-1 274:-1 275:-1 276:-1 277:-1 278:-1 279:-1 280:-1 281:-1 282:-1 283:-1 284:-1 285:-1 286:0.0843312 287:-1 288:-1 289:-0.699998 290:-1 291:-1 292:0.814125 293:-1 294:-0.41282 295:-1 296:-0.434268 297:0.642609 298:-1 299:-1 300:-0.710662 301:-1 302:-1 303:-1 304:-1 305:-0.791454 306:-1 307:-1 308:-1 309:-0.855297 310:-1 311:-1 312:-0.182124 313:1.72526 314:0.508685 315:-1 316:-0.231998 317:-1 318:-1 319:-1 320:-1 321:-1 322:-1 323:-1 324:-1 325:-1 326:-1 327:-1 328:-1 329:-1 330:-1 331:-0.563039 332:-1 333:-1 334:-0.146239 335:-1 336:-1 337:-1 338:-1 339:-0.65952 340:-1 341:-1 342:-1 343:0.96582 344:-0.0202578 345:-1 346:-0.95745 347:-0.896792 348:-0.50615 349:-1 350:-0.943035 351:-1 352:-0.395811 353:-0.270358 354:-1 355:-1 356:-1 357:-1 358:0.149028 359:-1 360:-1 361:0.0467405 362:-1 363:-0.0849462 364:-1 365:-1 366:-1 367:-1 368:-0.444604 369:-1 370:-0.799972 371:-1 372:-1 373:-1 374:-0.888332 375:-1 376:0.0969072 377:-0.927649 378:-1 379:-1 380:-1 381:-1 382:-1 383:-1 384:-1 385:-0.0516934 386:-0.65952 387:-0.210536 388:-1 389:-1 390:-1 391:-1 392:0.343859 393:-1 394:-1 395:-1 396:-0.151177 397:-1 398:-1 399:-0.855297 400:-1 401:-0.452522 402:-1 403:-0.902111 404:-1 405:-1 406:-1 407:-0.0338252 408:-1 409:-0.929776 410:-1 411:-1 412:-1 413:-1 414:-1 415:-1 416:-1 417:-0.826512 418:0.0832273 419:-1 420:-1 421:-1 422:-1 423:-1 424:-1 425:-0.706341 426:-1 427:-1 428:1.01134 429:-1 430:-1 431:-1 432:-1 433:-1 434:-1 435:-0.781531 436:-1 437:-1 438:-1 439:-1 440:-1 441:-1 442:-1 443:-1 444:-1 445:-1 446:-1 447:-1 448:-1 449:-0.697835 450:-1 451:-1 452:-0.583007 453:-1 454:-1 455:-0.438289 456:-1 457:1.94464 458:-1 459:-1 460:-1 461:-1 462:-1 463:0.110531 464:-1 465:-1 466:-1 467:-0.26272 468:-1 469:-1 470:-0.500352 471:-1 472:-1 473:-1 474:-0.719113 475:-1 476:-1 477:-1 478:-1 479:-1 480:0.368489 481:-1 482:-1 483:-0.85317 484:-1 485:-1 486:-1 487:-1 488:-1 489:-1 490:-1 491:-1 492:-1 493:-0.981764 494:-0.178537 495:-1 496:-1 497:-1 498:-1 499:-1 500:-1 501:0.123284 502:-1 503:-0.508432 504:-1 505:-1 506:-0.65952 507:-0.706341 508:-0.399887 509:-1 510:-1 511:-0.697835 512:-1 513:-1 514:-1 515:-1 516:-0.399887 517:-1 518:-1 519:-1 520:-1 521:-1 522:-1 523:-0.926601 524:-1 525:-1 526:-1 527:-1 528:-0.458455 529:-1 530:-1 531:-1 532:-1 533:-1 534:-1 535:-1 536:0.758783 537:-0.651005 538:-0.855297 539:-1 540:0.252501 541:-1 542:-1 543:-1 544:-1 545:-1 546:-1 547:-0.0876742 548:-0.105459 549:-1 550:-1 551:-1 552:-0.234002 553:-0.869316 554:-1 555:-1 556:-0.421257 557:-1 558:-1 559:-0.3192 560:-1 561:-1 562:-1 563:-1 564:-1 565:-1 566:-1 567:-1 568:-1 569:-1 570:-1 571:-0.651005 572:-1 573:-0.60437 574:-1 575:-1 576:-1 577:-0.83584 578:-1 579:-0.855297 580:-1 581:-0.251144 582:-1 583:-1 584:-1 585:-1 586:-0.870406 587:-1 588:-1 589:-1 590:-1 591:-1 592:-0.702086 593:-1 594:-1 595:-0.569284 596:-1 597:-1 598:-1 599:-1 600:-1 601:-0.597808 602:-1 603:-1 604:-1 605:-0.643103 606:-0.123197 607:-1 608:-1 609:-0.438226 610:-0.70641 611:-1 612:-1 613:-1 614:0.0832273 615:-1 616:-1 617:-1 618:-1 619:-1 620:0.0766506 621:-1 622:-1 623:-1 624:-1 625:-1 626:-0.553129 627:-1 628:-1 629:-0.41282 630:-1 631:-1 632:-1 633:-1 634:-1 635:0.110033 636:-1 637:-1 638:-0.697835 639:-1 640:-1 641:-1 642:-1 643:-1 644:-1 645:-1 646:-0.699944 647:0.959024 648:-0.106258 649:-1 650:-1 651:-1 652:1.22135 653:0.00638449 654:-1 655:-1 656:-1 657:-1 658:-0.106258 659:-1 660:-1 661:-1 662:-1 663:-1 664:-1 665:-1 666:-1 667:-1 668:-1 669:-1 670:-0.672892 671:-1 672:-1 673:-1 674:-0.71133 675:-0.183771 676:-1 677:-1 678:-1 679:-1 680:-1 681:-1 682:-1 683:-1 684:-1 685:-1 686:-1 687:-1 688:-1 689:-1 690:-1 691:-1 692:-1 693:-1 694:-1 695:-1 696:-1 697:-1 698:0.123548 699:-1 700:-1 701:0.855243 702:-1 703:-1 704:-1 705:-1 706:-1 707:-1 708:-1 709:-1 710:0.153388 711:-1 712:-0.168929 713:-0.438226 714:-1 715:-1 716:-0.995744 717:-1 718:-1 719:-1 720:-1 721:-1 722:-1 723:-1 724:-0.684429 725:-0.855331 726:0.153388 727:-1 728:-1 729:-0.706159 730:1.54698 731:-1 732:-0.41282 733:-1 734:-1 735:-0.671352 736:-1 737:-1 738:-1 739:-1 740:-1 741:-1 742:-1 743:-1 744:-1 745:0.149028 746:0.22722 747:-0.291729 748:-1 749:-1 750:-1 751:-1 752:-0.970993 753:-1 754:-1 755:-0.855297 756:-1 757:-1 758:-1 759:-1 760:-1 761:-1 762:-1 763:-1 764:-0.452393 765:-1 766:-0.775279 767:0.252501 768:-1 769:-1 770:-1 771:-1 772:-1 773:-1 774:-0.699944 775:-1 776:-1 777:0.35154 778:-1 779:-1 780:-0.387626 781:-1 782:-0.902111 783:-0.737349 784:-0.263668 785:-1 786:-1 787:-0.872319 788:-0.106258 789:-1 790:-1 791:-1 792:-1 793:-1 794:-1 795:-1 796:-0.99149 797:-1 798:-1 799:-0.958308 800:0.403694 801:-1 802:-1 803:-1 804:-0.400028 805:-1 806:-1 807:-0.69072 808:-1 809:-1 810:-1 811:-1 812:-0.661443 813:0.123284 814:-1 815:-0.816993 816:-1 817:-1 818:-1 819:-1 820:-1 821:-1 822:-1 823:-0.18358 824:-1 825:-1 826:-1 827:-1 828:-1 829:-1 830:0.64254 831:-0.274339 832:-1 833:-1 834:-1 835:-1 836:-1 837:-1 838:-1 839:-1 840:-1 841:0.126522 842:-1 843:-1 844:-1 845:-1 846:0.727974 847:-1 848:-1 849:-1 850:-1 851:-1 852:-1 853:-1 854:-1 855:-1 856:-1 857:-1 858:-1 859:-1 860:-1 861:-0.275451 862:-0.106258 863:-1 864:-0.62972 865:-1 866:0.121476 867:-0.72786 868:-1 869:-1 870:-1 871:-1 872:-1 873:-1 874:-1 875:-1 876:2.45962 877:-1 878:-0.70638 879:-1 880:-1 881:-1 882:-1 883:-1 884:-1 885:-1 886:-1 887:-1 888:-1 889:-0.576096 890:-1 891:-1 892:-0.671427 893:-1 894:-1 895:-1 896:-1 897:-1 898:-1 899:-1 900:-1 901:0.00590877 902:-0.460949 903:-1 904:-1 905:-1 906:-1 907:-1 908:-1 909:-1 910:-1 911:-0.781531 912:-1 913:-0.54608 914:-1 915:-1 916:-1 917:-0.263668 918:-0.344626 919:-0.27791 920:-1 921:-0.183893 922:-0.600038 923:-1 924:-1 925:-1 926:-1 927:-1 928:-1 929:-1 930:-1 931:0.144117 932:0.110937 933:-1 934:-1 935:-1 936:-1 937:-1 938:-1 939:-1 940:-1 941:-1 942:-1 943:-1 944:-1 945:-0.344626 946:-0.877426 947:-1 948:-1 949:-1 950:-0.178537 951:-0.280171 952:0.416916 953:-1 954:-1 955:-1 956:-1 957:-0.26806 958:-1 959:-1 960:-1 961:-0.452393 962:-1 963:-1 964:-1 965:-1 966:-1 967:-1 968:-1 969:-1 970:-1 971:-0.476507 972:-0.508432 973:0.177643 974:-0.713786 975:-1 976:-1 977:-1 978:-1 979:-1 980:-1 981:-1 982:-1 983:-0.25944 984:-1 985:-1 986:0.982759 987:-0.851878 988:-1 989:-0.106258 990:-1 991:-1 992:-1 993:-1 994:-1 995:-1 996:-1 997:-1 998:-1 999:-1 1000:-1 1001:-0.851038 1002:-1 1003:-1 1004:-0.0721605 1005:-0.587157 1006:-1 1007:-1 1008:1.24683 1009:-0.622795 1010:-1 1011:0.451074 1012:0.0469865 1013:-1 1014:-0.284946 1015:-1 1016:-1 1017:0.148913 1018:-1 1019:-1 1020:0.178947 1021:-1 1022:-1 1023:-1 1024:-0.738253 1025:-0.734216 1026:0.786734 1027:-1 1028:-1 1029:-1 1030:-1 1031:-1 1032:-1 1033:-1 1034:-0.423306 1035:-1 1036:-1 1037:-1 1038:-1 1039:-0.830755 1040:-1 1041:0.561222 1042:-1 1043:-0.542388 1044:-1 1045:-0.653553 1046:-1 1047:-1 1048:-1 1049:-1 1050:-1 1051:-1 1052:-1 1053:-1 1054:-1 1055:-1 1056:0.153388 1057:-0.95352 1058:-0.245256 1059:-1 1060:-0.672288 1061:-1 1062:-1 1063:-1 1064:-1 1065:-0.410526 1066:-1 1067:-1 1068:-1 1069:-1 1070:-1 1071:0.305415 1072:-1 1073:-1 1074:-1 1075:-1 1076:-1 1077:-0.52287 1078:-1 1079:0.178947 1080:-1 1081:-1 1082:-1 1083:-0.710662 1084:-1 1085:-1 1086:-1 1087:-0.99233 1088:-1 1089:-1 1090:-1 1091:-1 1092:-1 1093:-1 1094:-1 1095:0.0416055 1096:-0.856893 1097:-1 1098:-1 1099:-1 1100:-1 1101:-1 1102:-1 1103:0.544828 1104:-1 1105:-1 1106:-1 1107:-0.53608 1108:-1 1109:-1 1110:-1 1111:-1 1112:-1 1113:-0.609434 1114:-1 1115:-1 1116:-1 1117:-1 1118:-0.855297 1119:-1 1120:-1 1121:-0.195615 1122:-1 1123:-1 1124:-1 1125:-1 1126:-1 1127:-1 1128:-1 1129:-0.9149 1130:0.368489 1131:-1 1132:-1 1133:-1 1134:-1 1135:-1 1136:-0.78238 1137:-1 1138:-1 1139:-0.343514 1140:-1 1141:-1 1142:-0.123197 1143:-1 1144:-1 1145:-1 1146:-1 1147:-1 1148:0.123548 1149:-0.69072 1150:0.965812 1151:-1 1152:-1 1153:-1 1154:-1 1155:-0.540472 1156:-1 1157:-0.6 1158:0.416916 1159:-1 1160:-1 1161:-1 1162:-0.231256 1163:2.37012 1164:-1 1165:-1 1166:-1 1167:-1 1168:-1 1169:-1 1170:-0.399887 1171:-1 1172:-1 1173:-1 1174:-1 1175:-0.63717 1176:-1 1177:-1 1178:-0.872319 1179:-0.344729 1180:-1 1181:-1 
0.3802468076838532 0 0 0 0 0:-1 1:-1 2:-1 3:-0.749092 4:1.0614 5:-1 6:-1 7:-1 8:-1 9:-1 10:-0.0355014 11:-1 12:-0.452791 13:-1 14:-0.516048 15:-1 16:-1 17:-1 18:-1 19:-1 20:-1 21:0.878828 22:-1 23:-1 24:-1 25:-1 26:-1 27:-1 28:-1 29:-1 30:-1 31:-1 32:-1 33:-1 34:-1 35:0.373866 36:-1 37:-1 38:-1 39:-1 40:-0.461736 41:-1 42:7.5747 43:-1 44:-1 45:-1 46:-1 47:-0.805439 48:-1 49:0.638582 50:0.551777 51:-1 52:-0.373636 53:-1 54:-1 55:-1 56:-1 57:-1 58:-1 59:-1 60:-1 61:-1 62:0.858001 63:-1 64:-1 65:-0.342752 66:-1 67:-1 68:-1 69:-1 70:1.72929 71:1.72929 72:-1 73:-1 74:-0.43064 75:-1 76:-1 77:0.185148 78:-1 79:-1 80:-1 81:-1 82:-1 83:-1 84:-1 85:-1 86:-1 87:-1 88:-1 89:-1 90:-1 91:-1 92:-1 93:-1 94:-1 95:-1 96:-1 97:-1 98:-1 99:-1 100:-1 101:-1 102:-1 103:-1 104:-1 105:-1 106:-1 107:-1 108:-0.0604541 109:-1 110:1.45553 111:-1 112:-1 113:-1 114:-1 115:0.49475 116:1.2604 117:-1 118:0.141071 119:-1 120:-1 121:-1 122:-0.561538 123:-1 124:-1 125:-1 126:-0.868834 127:-0.872298 128:-1 129:-1 130:-1 131:-1 132:-0.393387 133:-1 134:-1 135:-1 136:-0.516048 137:-1 138:0.879092 139:-1 140:-0.705342 141:-1 142:-1 143:-1 144:-1 145:-1 146:-0.346133 147:-1 148:-1 149:-1 150:-1 151:-1 152:-1 153:-1 154:-1 155:1.42687 156:-1 157:-0.836285 158:-1 159:-1 160:-1 161:-1 162:-1 163:-1 164:1.07764 165:-1 166:-1 167:-1 168:0.64426 169:-1 170:-1 171:-1 172:-0.672616 173:-0.526228 174:-1 175:-1 176:-1 177:-1 178:-1 179:-1 180:-1 181:-1 182:-1 183:-1 184:-0.696176 185:-1 186:-0.217114 187:-1 188:-1 189:-1 190:-1 191:-1 192:-1 193:-1 194:-1 195:-1 196:-1 197:-1 198:-1 199:0.903209 200:-1 201:-0.599212 202:-1 203:-1 204:-1 205:-1 206:-1 207:-1 208:-1 209:-1 210:-1 211:2.10334 212:-1 213:-0.75799 214:-1 215:-1 216:-1 217:-1 218:-1 219:-1 220:-1 221:-1 222:-1 223:0.879092 224:-1 225:-1 226:-1 227:-1 228:-1 229:-1 230:-1 231:-1 232:-1 233:-1 234:-1 235:-1 236:-0.890997 237:-1 238:-1 239:-1 240:-0.516048 241:-1 242:-1 243:-1 244:-1 245:-1 246:2.96068 247:-1 248:-1 249:-1 250:-1 251:-1 252:-1 253:-1 254:-1 255:4.22614 256:-0.0178707 257:-1 258:-1 259:-1 260:-1 261:-1 262:-0.252625 263:-1 264:-1 265:-0.936714 266:-1 267:-1 268:-1 269:-1 270:-1 271:-1 272:-1 273:-1 274:-1 275:-1 276:-1 277:-1 278:-1 279:-1 280:-1 281:-1 282:0.49475 283:-1 284:-1 285:-1 286:-1 287:-0.765106 288:-1 289:-1 290:-1 291:-1 292:0.0115106 293:-0.0390171 294:0.964397 295:-1 296:-1 297:-1 298:-1 299:-1 300:-0.75799 301:-1 302:-1 303:-1 304:-1 305:-1 306:-0.612077 307:-1 308:-1 309:-1 310:-1 311:-1 312:-1 313:-1 314:-1 315:-1 316:-1 317:-1 318:-1 319:-1 320:-1 321:-1 322:-1 323:1.09476 324:-1 325:-1 326:-1 327:0.989379 328:-1 329:-1 330:-1 331:-1 332:-1 333:-1 334:-1 335:-1 336:-1 337:-1 338:-1 339:-1 340:-1 341:0.0036661 342:-1 343:-1 344:3.91529 345:-1 346:-1 347:-1 348:-0.174054 349:-1 350:-1 351:-1 352:-1 353:0.220298 354:-1 355:-1 356:-1 357:-1 358:-1 359:0.879092 360:-1 361:-0.124477 362:-1 363:-1 364:-1 365:-1 366:-1 367:-1 368:-1 369:-1 370:-1 371:-0.535742 372:-1 373:-0.96219 374:-1 375:-1 376:-1 377:-1 378:-1 379:-1 380:-1 381:-1 382:-1 383:-1 384:-0.124477 385:-1 386:-1 387:1.64033 388:-1 389:0.0918853 390:10.2497 391:-1 392:-1 393:-1 394:-1 395:-1 396:-1 397:-1 398:1.19218 399:-0.75799 400:-1 401:-0.542074 402:-1 403:-1 404:-1 405:-1 406:-1 407:-1 408:-1 409:-1 410:0.767569 411:-1 412:-1 413:-1 414:-1 415:-1 416:-1 417:-1 418:0.811657 419:-1 420:-1 421:-1 422:-1 423:-1 424:-1 425:-1 426:-1 427:-1 428:0.682345 429:-1 430:-1 431:-1 432:-1 433:-1 434:-1 435:-1 436:-0.286981 437:-1 438:-1 439:-1 440:-1 441:-1 442:-1 443:-1 444:-1 445:-1 446:-1 447:-1 448:-1 449:-1 450:-1 451:2.75766 452:-1 453:-1 454:-1 455:-0.686804 456:-1 457:-1 458:-1 459:-1 460:-1 461:-1 462:-1 463:2.71526 464:-1 465:-1 466:-1 467:-0.588911 468:-0.525467 469:-1 470:-1 471:-1 472:-1 473:-1 474:-0.530227 475:-1 476:-1 477:-1 478:-1 479:-1 480:-1 481:-1 482:0.49475 483:-0.754433 484:-1 485:-1 486:-1 487:-1 488:-1 489:-1 490:-1 491:-1 492:-1 493:-1 494:-1 495:-1 496:-1 497:-1 498:-0.228551 499:-1 500:-1 501:-0.0604541 502:-1 503:-0.17787 504:-1 505:-1 506:-0.43056 507:-1 508:-1 509:-1 510:-1 511:-0.49464 512:0.35169 513:-0.818319 514:-1 515:-1 516:-1 517:-1 518:-1 519:-1 520:-1 521:-1 522:0.49475 523:-0.877232 524:-1 525:-1 526:3.00084 527:-1 528:-1 529:-1 530:-1 531:-1 532:-1 533:-1 534:-1 535:-1 536:-1 537:-1 538:-0.75799 539:-1 540:-1 541:-0.927041 542:-1 543:-1 544:-1 545:-1 546:-1 547:-1 548:-0.750613 549:-0.743459 550:-1 551:-1 552:-1 553:-1 554:-1 555:-0.852164 556:-0.75799 557:-1 558:-1 559:-1 560:-1 561:-1 562:-1 563:-1 564:-1 565:0.49475 566:0.0960887 567:-1 568:-1 569:-1 570:-1 571:-1 572:-1 573:-1 574:-1 575:-1 576:-1 577:-1 578:-1 579:-1 580:-1 581:-0.373636 582:-1 583:-1 584:1.88997 585:-1 586:-1 587:-1 588:-1 589:-1 590:-1 591:-1 592:-1 593:-1 594:-1 595:-1 596:-1 597:-1 598:-0.43056 599:-1 600:-1 601:-1 602:-1 603:-1 604:-1 605:-1 606:0.466419 607:-1 608:-1 609:-1 610:-1 611:-1 612:-1 613:-1 614:-1 615:-1 616:-1 617:-1 618:-1 619:-1 620:4.40147 621:-1 622:-0.75799 623:-1 624:-1 625:-1 626:-1 627:-1 628:-1 629:-1 630:-1 631:-1 632:-1 633:-1 634:-1 635:-0.257369 636:-1 637:-1 638:-1 639:-1 640:-1 641:-1 642:-1 643:-1 644:-1 645:-1 646:-1 647:-1 648:-1 649:-1 650:-1 651:-1 652:-1 653:-1 654:-1 655:-1 656:-1 657:-1 658:-1 659:-1 660:-1 661:-1 662:-1 663:-1 664:-1 665:-1 666:-1 667:-1 668:0.879092 669:-1 670:-1 671:-1 672:-1 673:-1 674:-1 675:1.04796 676:-1 677:-1 678:-1 679:-1 680:-1 681:-1 682:-1 683:-1 684:-1 685:-1 686:-1 687:-1 688:-1 689:-1 690:-1 691:-1 692:-1 693:-0.411346 694:-1 695:-1 696:-1 697:-1 698:-1 699:-1 700:-1 701:-1 702:-1 703:-0.89297 704:-1 705:-1 706:-1 707:-1 708:-1 709:-1 710:-1 711:-1 712:-1 713:6.51584 714:-1 715:-1 716:-1 717:-1 718:-1 719:-1 720:0.742899 721:-1 722:-1 723:-1 724:-1 725:-1 726:-1 727:-1 728:-0.658985 729:-1 730:-1 731:-1 732:-1 733:-0.878995 734:-1 735:-1 736:0.525504 737:-1 738:-1 739:-1 740:-0.765106 741:-1 742:-1 743:-1 744:-1 745:-1 746:-1 747:-1 748:-1 749:-1 750:-1 751:-1 752:-0.951486 753:-0.66546 754:-1 755:-1 756:-1 757:-1 758:-1 759:-1 760:-1 761:-1 762:-1 763:-1 764:-1 765:-1 766:-1 767:-1 768:0.220298 769:-1 770:-1 771:-1 772:-1 773:-1 774:-1 775:-1 776:-1 777:-1 778:0.525504 779:-1 780:-1 781:-1 782:-1 783:-0.560726 784:-1 785:-0.0141274 786:-1 787:-1 788:-1 789:-1 790:-1 791:-1 792:-1 793:-0.255984 794:-1 795:-1 796:-1 797:-1 798:-1 799:-0.965127 800:-1 801:-0.0355014 802:-1 803:-1 804:-1 805:-1 806:-1 807:-1 808:-1 809:-1 810:-1 811:-1 812:-0.433776 813:-1 814:-1 815:-1 816:1.98908 817:-1 818:-1 819:-1 820:-1 821:-0.911704 822:-1 823:-1 824:-1 825:-1 826:0.00935905 827:0.21364 828:-1 829:-1 830:-1 831:0.21364 832:-1 833:-1 834:-1 835:-1 836:-1 837:-1 838:-0.75799 839:-1 840:-0.075104 841:-1 842:-0.339826 843:-1 844:-1 845:-1 846:-1 847:-1 848:-1 849:-1 850:-1 851:-1 852:-1 853:-1 854:-1 855:-1 856:-1 857:-1 858:-1 859:-1 860:-0.672616 861:-1 862:-1 863:-1 864:-0.38072 865:-1 866:-1 867:-0.544856 868:-1 869:-1 870:-0.758024 871:-1 872:-1 873:-1 874:-1 875:-1 876:-1 877:-1 878:-1 879:-1 880:-1 881:-1 882:-1 883:-1 884:-1 885:-1 886:-1 887:-1 888:0.64426 889:-0.291036 890:-1 891:0.49475 892:-1 893:-1 894:-1 895:-1 896:-1 897:-1 898:-1 899:2.15235 900:-1 901:-1 902:-0.549123 903:-1 904:1.73048 905:-1 906:-1 907:-1 908:-1 909:-1 910:-1 911:-1 912:-1 913:-1 914:-1 915:-1 916:-0.38072 917:-1 918:-1 919:2.62267 920:-1 921:-1 922:-1 923:-1 924:-1 925:-1 926:-1 927:-1 928:-1 929:-0.49464 930:1.80457 931:-1 932:-1 933:-1 934:-1 935:-1 936:-1 937:-1 938:-1 939:-1 940:-1 941:-0.293569 942:-1 943:-1 944:0.858001 945:-1 946:-0.795 947:-1 948:-1 949:-0.335077 950:-1 951:-1 952:-1 953:7.22084 954:-1 955:-1 956:2.19363 957:-1 958:-1 959:-1 960:-1 961:0.831446 962:-1 963:-1 964:-1 965:-1 966:-1 967:-1 968:-1 969:-1 970:-1 971:-1 972:3.11042 973:-1 974:-1 975:-1 976:-1 977:-1 978:-1 979:-1 980:-1 981:-1 982:-1 983:-1 984:-1 985:-1 986:-1 987:-0.752271 988:-1 989:0.49475 990:-1 991:-1 992:-1 993:-1 994:-1 995:-1 996:-1 997:-0.878995 998:-1 999:-1 1000:-1 1001:-1 1002:-1 1003:-1 1004:-1 1005:-1 1006:-1 1007:-1 1008:-0.0604541 1009:-1 1010:-0.269199 1011:-1 1012:-1 1013:-1 1014:-1 1015:-1 1016:-1 1017:-1 1018:-1 1019:-1 1020:0.971745 1021:-1 1022:-1 1023:-1 1024:-1 1025:-1 1026:-1 1027:-1 1028:-1 1029:-1 1030:-1 1031:-1 1032:-1 1033:-1 1034:-1 1035:-1 1036:-1 1037:-1 1038:-1 1039:-1 1040:-1 1041:-1 1042:-1 1043:-1 1044:-1 1045:-0.420552 1046:-1 1047:-1 1048:-1 1049:-1 1050:-1 1051:-1 1052:-1 1053:3.00056 1054:-1 1055:-1 1056:-1 1057:-1 1058:-1 1059:-1 1060:-0.451913 1061:-1 1062:-0.517751 1063:-1 1064:-1 1065:-1 1066:-1 1067:-1 1068:-1 1069:-1 1070:-1 1071:-1 1072:-1 1073:-1 1074:-1 1075:-1 1076:-1 1077:-1 1078:-1 1079:-1 1080:-1 1081:-1 1082:-1 1083:-0.75799 1084:-1 1085:-1 1086:-1 1087:-0.897383 1088:-1 1089:-1 1090:-1 1091:-1 1092:-1 1093:-1 1094:-1 1095:-1 1096:-1 1097:-1 1098:-1 1099:-1 1100:-1 1101:-1 1102:-1 1103:-1 1104:0.0819273 1105:-1 1106:-1 1107:-1 1108:-1 1109:-1 1110:-1 1111:-1 1112:-1 1113:-1 1114:-1 1115:-0.689763 1116:-1 1117:-1 1118:-1 1119:-1 1120:-1 1121:-1 1122:-1 1123:-1 1124:-1 1125:-1 1126:-1 1127:-1 1128:-1 1129:-1 1130:-1 1131:-0.452924 1132:-1 1133:-1 1134:-1 1135:-1 1136:-0.636038 1137:-1 1138:-1 1139:1.19559 1140:-1 1141:-1 1142:-1 1143:-1 1144:-1 1145:-1 1146:-1 1147:0.971745 1148:0.879092 1149:0.0343725 1150:-1 1151:-1 1152:-0.708159 1153:-1 1154:-1 1155:-0.615638 1156:-1 1157:-1 1158:-1 1159:-1 1160:-1 1161:-1 1162:-1 1163:-1 1164:-1 1165:-1 1166:0.195901 1167:-1 1168:-1 1169:-1 1170:-1 1171:-1 1172:-1 1173:-1 1174:-1 1175:-1 1176:-1 1177:1.64905 1178:-0.786458 1179:-1 1180:-1 1181:-1 
0 0 0 0.001358579012606138 0 0:-1 1:-1 2:-1 3:0.298671 4:-1 5:-1 6:-1 7:-1 8:-1 9:-1 10:-1 11:-1 12:-0.595341 13:-1 14:-1 15:-1 16:-1 17:-1 18:-1 19:-1 20:1.11124 21:-1 22:-1 23:-1 24:-1 25:0.51482 26:-1 27:-1 28:-1 29:-1 30:-1 31:-1 32:-1 33:-1 34:-1 35:-1 36:-1 37:-1 38:-1 39:-1 40:-1 41:-1 42:-1 43:-1 44:-1 45:-1 46:-1 47:-1 48:-1 49:-1 50:-1 51:-1 52:10.5785 53:-1 54:-1 55:-1 56:-1 57:-1 58:-1 59:-1 60:-1 61:-1 62:-1 63:-1 64:-1 65:-1 66:-1 67:-1 68:-1 69:-1 70:-1 71:-1 72:-1 73:-1 74:-0.57896 75:-1 76:-1 77:-1 78:-1 79:-1 80:-1 81:0.759612 82:-1 83:-1 84:-1 85:-1 86:-1 87:-1 88:-1 89:0.342105 90:0.63529 91:-1 92:-1 93:-1 94:-0.419881 95:-1 96:-1 97:-1 98:-1 99:-1 100:-1 101:-0.676261 102:-1 103:-0.458009 104:-1 105:-1 106:-1 107:-1 108:-1 109:-1 110:-1 111:-1 112:-1 113:-1 114:-1 115:-1 116:-1 117:-1 118:-1 119:-1 120:-1 121:-1 122:-0.675742 123:-1 124:-1 125:-1 126:-0.612066 127:-1 128:-1 129:-1 130:-1 131:-1 132:0.794103 133:-1 134:-0.030035 135:-1 136:-1 137:-1 138:-1 139:-1 140:-0.975786 141:-1 142:-1 143:-1 144:-1 145:-1 146:-1 147:-1 148:-1 149:-1 150:-1 151:-0.79671 152:-1 153:-1 154:-1 155:-1 156:-1 157:-1 158:-1 159:-1 160:-1 161:-1 162:-1 163:-1 164:0.536486 165:-0.875284 166:-1 167:-1 168:-1 169:-0.965037 170:-1 171:-1 172:-0.878927 173:2.6788 174:-1 175:-1 176:-1 177:-1 178:-1 179:-1 180:-0.976118 181:-1 182:-1 183:-1 184:-1 185:-1 186:-0.421029 187:-1 188:-1 189:-1 190:-1 191:-1 192:-1 193:-1 194:0.103347 195:-1 196:-1 197:-1 198:-1 199:0.407487 200:-1 201:-1 202:-1 203:-1 204:-1 205:-1 206:-1 207:-1 208:-1 209:-1 210:-1 211:-0.426204 212:-1 213:-1 214:-1 215:-0.865919 216:-1 217:-1 218:-1 219:-1 220:-1 221:-1 222:-1 223:-1 224:-1 225:-1 226:-1 227:-1 228:-1 229:-1 230:-1 231:-1 232:-1 233:-1 234:3.42083 235:-1 236:-1 237:-1 238:-1 239:-1 240:-1 241:-1 242:-1 243:-0.092883 244:-1 245:-0.863276 246:-1 247:-1 248:-1 249:-1 250:-1 251:-1 252:-1 253:-1 254:-1 255:2.8649 256:-1 257:-1 258:-1 259:-1 260:-1 261:-1 262:-0.447291 263:-1 264:-1 265:-1 266:-1 267:-1 268:-1 269:-1 270:-1 271:-1 272:-1 273:-1 274:-1 275:-1 276:-1 277:-1 278:-1 279:-1 280:-1 281:-1 282:-1 283:-1 284:-1 285:-1 286:-1 287:-1 288:-1 289:-1 290:-1 291:-1 292:-0.251954 293:-1 294:-1 295:-1 296:-1 297:-1 298:-1 299:-1 300:-1 301:-1 302:-1 303:-1 304:-1 305:-1 306:-1 307:-1 308:-1 309:-1 310:-1 311:-1 312:-1 313:-0.157221 314:-1 315:-1 316:-1 317:-1 318:-0.609409 319:-1 320:-0.821025 321:-1 322:-1 323:-1 324:-1 325:-1 326:-1 327:-1 328:-1 329:-1 330:-1 331:-1 332:-1 333:-1 334:-1 335:-0.257755 336:-0.628878 337:0.00939597 338:-1 339:-1 340:-1 341:-1 342:-1 343:-1 344:-1 345:-1 346:-1 347:-1 348:-1 349:-1 350:-1 351:-1 352:-1 353:-1 354:-1 355:-1 356:-1 357:-1 358:-1 359:-1 360:-1 361:-0.352522 362:-1 363:-1 364:-1 365:-1 366:-1 367:-1 368:-0.313063 369:-1 370:0.731541 371:-0.656666 372:-1 373:-1 374:-1 375:-1 376:-1 377:-1 378:-1 379:-0.57888 380:-1 381:-1 382:-1 383:-1 384:-1 385:-1 386:4.47376 387:-1 388:-1 389:0.614665 390:-1 391:-1 392:0.662141 393:-1 394:-1 395:-1 396:-1 397:-1 398:-1 399:1.14735 400:-1 401:-1 402:-1 403:-0.878927 404:-1 405:-1 406:-1 407:1.38956 408:-1 409:-1 410:-1 411:-1 412:-1 413:-0.821025 414:-1 415:-1 416:2.2306 417:-0.785423 418:1.67905 419:-1 420:-1 421:-1 422:-1 423:-1 424:-1 425:-1 426:-1 427:-1 428:-1 429:-1 430:-1 431:-1 432:-1 433:-1 434:-1 435:-1 436:0.0545509 437:-1 438:0.549147 439:-1 440:-1 441:-1 442:-1 443:0.869627 444:-1 445:-1 446:-0.284238 447:-1 448:-1 449:1.61569 450:0.585065 451:-1 452:-1 453:-1 454:-1 455:-0.768381 456:-1 457:-1 458:-1 459:-1 460:-1 461:-1 462:-0.524481 463:0.373613 464:-1 465:-1 466:-1 467:-0.392088 468:-0.298267 469:-1 470:0.235736 471:-1 472:-0.305174 473:-1 474:-1 475:-1 476:-1 477:-1 478:-1 479:-1 480:-1 481:-1 482:-1 483:-1 484:-1 485:-1 486:-1 487:-1 488:-1 489:-1 490:-1 491:-1 492:-1 493:-0.98872 494:-1 495:-0.94736 496:1.83147 497:-1 498:-1 499:-1 500:-1 501:-0.305174 502:-0.405802 503:-1 504:-1 505:-1 506:-1 507:-1 508:-1 509:-1 510:-1 511:-1 512:-1 513:-0.932811 514:-1 515:-1 516:-1 517:-1 518:-1 519:-1 520:-0.868587 521:-1 522:-1 523:-0.818426 524:-1 525:-1 526:-1 527:-1 528:-1 529:-0.897365 530:-1 531:-1 532:-0.7728 533:-1 534:-1 535:-1 536:2.04555 537:-1 538:-1 539:-1 540:-1 541:-1 542:0.2632 543:-1 544:-1 545:-1 546:-1 547:-1 548:1.39724 549:-1 550:-1 551:-1 552:-0.763118 553:-1 554:-1 555:-1 556:-0.642119 557:-1 558:-0.950518 559:-1 560:-1 561:-1 562:-1 563:-1 564:-1 565:-1 566:-1 567:-1 568:-1 569:-1 570:-1 571:-1 572:-1 573:-1 574:-1 575:-1 576:-1 577:-1 578:-1 579:-1 580:-1 581:-1 582:-1 583:-1 584:-1 585:-1 586:-1 587:-0.305174 588:-1 589:3.20256 590:-1 591:-1 592:-1 593:-1 594:-1 595:-0.822396 596:-1 597:-1 598:-1 599:-1 600:-1 601:-0.00529201 602:-1 603:-1 604:-1 605:-1 606:-1 607:-1 608:-0.291997 609:-1 610:-1 611:-1 612:-1 613:-1 614:-1 615:-0.947096 616:-1 617:-1 618:-1 619:-0.821025 620:-1 621:-1 622:-1 623:-1 624:-1 625:-1 626:-1 627:-1 628:-1 629:-1 630:-1 631:-1 632:-1 633:-1 634:-1 635:2.0205 636:-1 637:-1 638:-1 639:-1 640:-1 641:-1 642:-1 643:-1 644:-1 645:-1 646:-1 647:-1 648:-1 649:-1 650:-1 651:-1 652:-1 653:-1 654:-1 655:-1 656:-1 657:-1 658:-1 659:-1 660:-1 661:-1 662:-1 663:-1 664:-1 665:-1 666:-1 667:-1 668:-1 669:-1 670:-1 671:-1 672:-1 673:-1 674:-1 675:-1 676:-1 677:-1 678:-1 679:-1 680:-1 681:-1 682:-1 683:-0.769406 684:-1 685:-1 686:-1 687:-1 688:-1 689:-1 690:-1 691:-1 692:-1 693:-1 694:-1 695:-1 696:-1 697:-1 698:-1 699:-1 700:-1 701:-1 702:-1 703:-1 704:-1 705:-1 706:-1 707:-1 708:-1 709:-1 710:-1 711:-1 712:-1 713:-1 714:-1 715:-1 716:-1 717:-1 718:-1 719:-1 720:-1 721:-1 722:-1 723:-1 724:-1 725:-1 726:-1 727:-1 728:-1 729:-1 730:-1 731:-1 732:-0.63679 733:-1 734:-1 735:-1 736:-1 737:-1 738:-1 739:-1 740:-1 741:-1 742:-1 743:-1 744:-1 745:-1 746:0.517878 747:0.751706 748:-1 749:-1 750:-1 751:-1 752:-1 753:-1 754:-1 755:-1 756:-1 757:-1 758:-0.426017 759:-1 760:-1 761:-1 762:-1 763:-1 764:-1 765:-1 766:-0.722055 767:-1 768:-0.0975484 769:-1 770:-1 771:-1 772:-1 773:-1 774:-1 775:-1 776:-1 777:-1 778:-1 779:-0.931568 780:-1 781:-1 782:-1 783:0.299185 784:-1 785:-1 786:-1 787:-0.842078 788:-1 789:-1 790:-1 791:-1 792:-1 793:0.10024 794:-1 795:-1 796:-1 797:-1 798:-1 799:-0.948431 800:-1 801:-1 802:-1 803:-1 804:-0.257896 805:-1 806:-1 807:-1 808:-1 809:-1 810:-1 811:-1 812:-1 813:-0.305174 814:-1 815:-1 816:1.21042 817:-1 818:-1 819:-1 820:-1 821:-1 822:-1 823:-1 824:-0.63679 825:0.821107 826:-1 827:-1 828:-1 829:-0.0880111 830:-1 831:-1 832:-1 833:-1 834:-1 835:-1 836:-1 837:-1 838:-1 839:-1 840:-1 841:-1 842:-1 843:-1 844:-1 845:-1 846:-1 847:-1 848:-1 849:-1 850:-1 851:-1 852:-1 853:-1 854:-1 855:-1 856:-1 857:-1 858:-1 859:-1 860:0.694742 861:-1 862:-1 863:-1 864:-1 865:-1 866:-1 867:-0.326939 868:-1 869:-1 870:-0.821059 871:-1 872:-1 873:-1 874:-1 875:-1 876:-1 877:-1 878:-0.878927 879:-1 880:-1 881:-1 882:-1 883:-1 884:-1 885:-1 886:-1 887:-1 888:-1 889:0.572709 890:-1 891:-1 892:-0.593608 893:-1 894:-1 895:-1 896:-1 897:-1 898:-1 899:-1 900:-1 901:-1 902:-1 903:-1 904:-1 905:-1 906:-1 907:-1 908:-1 909:-0.865785 910:-1 911:-1 912:-1 913:-1 914:-1 915:-1 916:-0.0842179 917:-1 918:-1 919:-1 920:0.458172 921:-1 922:-1 923:-1 924:-1 925:-1 926:-1 927:-1 928:-1 929:-1 930:-1 931:-1 932:-1 933:-0.557917 934:-1 935:-1 936:-1 937:-1 938:-1 939:-0.854266 940:-1 941:-0.47757 942:-1 943:-1 944:-1 945:-1 946:-0.696849 947:-1 948:-1 949:-1 950:-1 951:-1 952:-1 953:0.215985 954:-1 955:-1 956:-1 957:-1 958:-1 959:-1 960:-1 961:-1 962:-1 963:-1 964:-1 965:-1 966:-1 967:-1 968:-1 969:-1 970:-1 971:-1 972:-1 973:-1 974:-1 975:-1 976:-1 977:-1 978:-1 979:-1 980:-1 981:-1 982:-1 983:-1 984:-1 985:-1 986:-1 987:-1 988:-1 989:-1 990:-1 991:-1 992:-1 993:-1 994:-1 995:-1 996:-1 997:-1 998:-1 999:-1 1000:-0.656531 1001:-1 1002:-1 1003:-1 1004:-1 1005:-1 1006:-1 1007:-1 1008:-1 1009:-1 1010:-0.459548 1011:-1 1012:-1 1013:-1 1014:-1 1015:-1 1016:-1 1017:-1 1018:-1 1019:-1 1020:-1 1021:-1 1022:-1 1023:-0.838819 1024:-1 1025:-1 1026:-1 1027:-1 1028:-1 1029:-1 1030:-1 1031:-1 1032:-0.983509 1033:-1 1034:-1 1035:-1 1036:-1 1037:-1 1038:-1 1039:-1 1040:-1 1041:-1 1042:-1 1043:-1 1044:-1 1045:-0.678627 1046:-1 1047:-1 1048:-1 1049:-1 1050:-1 1051:-1 1052:-1 1053:-1 1054:-1 1055:-1 1056:-1 1057:-1 1058:-1 1059:-1 1060:-1 1061:-1 1062:-1 1063:-1 1064:-1 1065:-0.270914 1066:-1 1067:-1 1068:-1 1069:-1 1070:-1 1071:0.614665 1072:-1 1073:-1 1074:-1 1075:-1 1076:-1 1077:-1 1078:-1 1079:-1 1080:-0.305174 1081:-1 1082:-1 1083:-1 1084:-1 1085:-1 1086:-0.50517 1087:-1 1088:-1 1089:-1 1090:-1 1091:-1 1092:-1 1093:-1 1094:-1 1095:-1 1096:-1 1097:-1 1098:-1 1099:-1 1100:-1 1101:-1 1102:-1 1103:0.910708 1104:-1 1105:-1 1106:-0.726275 1107:-1 1108:-1 1109:-1 1110:-1 1111:-1 1112:-1 1113:-1 1114:-1 1115:-0.77058 1116:-1 1117:-1 1118:-1 1119:-1 1120:-1 1121:-1 1122:-1 1123:-1 1124:-1 1125:-1 1126:-1 1127:-1 1128:-1 1129:-1 1130:-1 1131:-1 1132:-1 1133:-1 1134:-1 1135:-1 1136:-0.730838 1137:-1 1138:-0.784204 1139:-1 1140:-1 1141:-1 1142:-1 1143:-1 1144:-0.475797 1145:-1 1146:-1 1147:-1 1148:-1 1149:-1 1150:-1 1151:-1 1152:-1 1153:-1 1154:-1 1155:-1 1156:-1 1157:-1 1158:-1 1159:-1 1160:-1 1161:-1 1162:-1 1163:-1 1164:-1 1165:-1 1166:-0.115591 1167:-1 1168:-1 1169:-1 1170:-1 1171:-1 1172:-1 1173:-1 1174:-1 1175:-1 1176:-1 1177:-1 1178:-0.684217 1179:-1 1180:-1 1181:-1 
5.07159265512656 0 0 5.094982665551397 3.634508408285538 0:0.21174 1:-0.159762 2:-1 3:-1 4:-1 5:-1 6:-0.803482 7:-1 8:-1 9:-1 10:-1 11:-0.393112 12:-0.777795 13:-1 14:-1 15:-1 16:-1 17:-1 18:-1 19:-1 20:-0.227169 21:1.28907 22:-1 23:-1 24:-1 25:0.663309 26:-1 27:-1 28:-1 29:-0.178627 30:-1 31:-1 32:1.098 33:-1 34:1.2308 35:-1 36:0.260083 37:-1 38:-1 39:-0.661037 40:-1 41:-1 42:-1 43:-1 44:0.482051 45:-1 46:-1 47:-0.842012 48:-1 49:-1 50:-1 51:-1 52:1.54329 53:-1 54:-1 55:-1 56:-1 57:-1 58:-1 59:-1 60:-1 61:0.601108 62:-1 63:-1 64:-1 65:-1 66:-1 67:-1 68:-0.9422 69:-1 70:-1 71:-1 72:-1 73:-1 74:-0.7688 75:-1 76:-1 77:-1 78:0.387089 79:-1 80:-1 81:-1 82:-1 83:-1 84:-1 85:-1 86:-1 87:-1 88:-1 89:-0.901741 90:-1 91:-1 92:-1 93:-1 94:-0.363015 95:-1 96:-1 97:-1 98:-1 99:-0.184997 100:-1 101:-0.644526 102:-1 103:-1 104:-1 105:-0.0149127 106:-1 107:-1 108:-1 109:-1 110:-0.601187 111:-1 112:-1 113:-1 114:-1 115:-1 116:-1 117:-0.45446 118:-1 119:-1 120:-1 121:-1 122:-1 123:0.543803 124:-1 125:-0.601187 126:-1 127:-1 128:-1 129:-1 130:-1 131:-1 132:-1 133:-1 134:0.0650451 135:-0.946863 136:-1 137:-1 138:-1 139:-1 140:-0.282077 141:-1 142:-1 143:-1 144:-1 145:-1 146:-1 147:-1 148:-1 149:-1 150:-1 151:-1 152:-1 153:-1 154:-1 155:-1 156:-1 157:-0.468191 158:-1 159:-1 160:-1 161:-1 162:-1 163:-1 164:-1 165:-1 166:-0.696556 167:-1 168:-1 169:-1 170:-1 171:-1 172:-1 173:-1 174:-1 175:-1 176:-1 177:-1 178:-0.838498 179:-1 180:-0.947553 181:-1 182:-1 183:-1 184:-1 185:-1 186:-0.364276 187:-1 188:-1 189:-1 190:0.184426 191:-1 192:-1 193:-1 194:-1 195:-1 196:-1 197:-1 198:-1 199:0.545455 200:-1 201:-0.67455 202:-1 203:-1 204:-1 205:-1 206:-1 207:-1 208:-1 209:-0.803482 210:-0.184997 211:-0.369959 212:-1 213:-0.606963 214:-1 215:-1 216:-1 217:-1 218:3.57814 219:-1 220:-1 221:-1 222:-1 223:-1 224:-1 225:0.115615 226:-1 227:-1 228:-1 229:-1 230:-1 231:-1 232:-1 233:-1 234:-1 235:-1 236:-0.822974 237:-1 238:-0.261153 239:-1 240:-1 241:-1 242:-1 243:-1 244:-1 245:-1 246:-1 247:-1 248:-1 249:-1 250:-1 251:-1 252:-1 253:-1 254:-1 255:-1 256:-0.601187 257:-1 258:-1 259:-1 260:-1 261:-1 262:-1 263:-1 264:-1 265:-1 266:-1 267:-1 268:-1 269:-1 270:-1 271:-1 272:-1 273:-1 274:-1 275:-1 276:-1 277:-0.905209 278:-1 279:-1 280:-1 281:-1 282:-1 283:-1 284:-1 285:1 286:-1 287:-0.61852 288:-1 289:-1 290:-1 291:-0.687888 292:-1 293:-1 294:-1 295:-1 296:-1 297:-1 298:-1 299:-1 300:-1 301:-1 302:-1 303:-0.827241 304:-1 305:-1 306:-1 307:-1 308:-1 309:-1 310:-1 311:-1 312:-1 313:-0.0746077 314:1.04892 315:-1 316:-1 317:-1 318:-0.571121 319:-1 320:-1 321:-1 322:-1 323:-1 324:-1 325:-1 326:-1 327:-1 328:-1 329:-1 330:-1 331:-1 332:-1 333:-1 334:-1 335:-1 336:-1 337:2.32541 338:-1 339:-1 340:-1 341:-1 342:0.213776 343:-1 344:-1 345:-1 346:-1 347:-1 348:-1 349:-1 350:-1 351:-1 352:-0.589634 353:-1 354:-1 355:-0.393112 356:-1 357:-1 358:-1 359:0.525871 360:-1 361:-1 362:-1 363:-1 364:-1 365:-1 366:-1 367:-1 368:-1 369:-1 370:0.0867134 371:-0.246021 372:-1 373:-1 374:-1 375:-1 376:0.489691 377:-1 378:-1 379:-1 380:-1 381:-1 382:0.213776 383:-1 384:-1 385:-1 386:0.38736 387:-1 388:-1 389:-1 390:-1 391:-1 392:-1 393:-0.497129 394:-1 395:-1 396:-1 397:-1 398:-1 399:-0.213858 400:-1 401:-1 402:-1 403:-1 404:-1 405:-1 406:-1 407:-1 408:-0.595408 409:-0.90463 410:-1 411:-1 412:1.78689 413:-1 414:-1 415:-1 416:-1 417:-1 418:1.94222 419:-1 420:-1 421:-1 422:-0.676317 423:-0.9133 424:-1 425:-1 426:-1 427:-1 428:-1 429:-1 430:-1 431:-1 432:-1 433:-0.716256 434:-0.184997 435:-1 436:0.447778 437:-1 438:-1 439:-1 440:-1 441:-1 442:-1 443:0.026643 444:-1 445:-1 446:-1 447:-0.109948 448:-0.165584 449:2.28307 450:-1 451:-1 452:-1 453:-0.295981 454:-1 455:-0.745677 456:-1 457:1 458:0.115615 459:-0.00396347 460:-1 461:-1 462:-1 463:-0.245726 464:-1 465:-1 466:-1 467:-1 468:-0.614667 469:-1 470:-1 471:-0.589634 472:-1 473:-1 474:-0.618532 475:-0.943356 476:-1 477:-1 478:-1 479:-0.955345 480:-1 481:-0.393112 482:-1 483:-1 484:-1 485:-1 486:-1 487:-1 488:-1 489:-1 490:-1 491:-1 492:-1 493:-1 494:0.115615 495:-0.8844 496:-1 497:-1 498:-1 499:-1 500:-1 501:0.525871 502:-1 503:-0.332409 504:-1 505:-1 506:-1 507:-1 508:-1 509:-1 510:-1 511:-0.589634 512:-1 513:-1 514:-1 515:-1 516:-1 517:-1 518:-1 519:-1 520:-1 521:-1 522:-1 523:-0.102603 524:-1 525:-1 526:-0.187746 527:-1 528:-1 529:-1 531:0.335181 532:-0.501057 533:-1 534:-1 535:-1 536:-1 537:-0.526035 538:-1 539:-1 540:-1 541:-0.88151 542:-0.5376 543:-1 544:-1 545:-1 546:-1 547:-1 548:-0.797491 549:-1 550:0.0101363 551:-1 552:-1 553:-1 554:-1 555:-1 556:-0.803482 557:-1 558:-1 559:-1 560:-1 561:-1 562:-1 563:-1 564:-0.92486 565:-1 566:-0.109948 567:-1 568:-1 569:-1 570:-1 571:-1 572:-1 573:-1 574:-1 575:-1 576:-1 577:-1 578:-1 579:-1 580:-1 581:-1 582:-1 583:-1 584:-1 585:-1 586:-1 587:-1 588:-0.816746 589:-1 590:-1 591:-1 592:-0.595408 593:-1 594:-1 595:-1 596:-1 597:-1 598:-1 599:-1 600:-1 601:-0.453789 602:-1 603:-1 604:-1 605:-1 606:-1 607:-1 608:-1 609:-1 610:-1 611:-1 612:-1 613:-1 614:-1 615:-1 616:-1 617:-1 618:-1 619:-1 620:0.462181 621:-1 622:-0.0173399 623:-1 624:-1 625:-1 626:-1 627:-0.297435 628:-1 629:-1 630:-1 631:-1 632:-1 633:-0.526035 634:-1 635:1.11102 636:-1 637:-1 638:-0.589634 639:0.666186 640:-1 641:-1 642:-1 643:-1 644:-0.748575 645:-1 646:-0.592499 647:-1 648:-1 649:-1 650:-1 651:-1 652:-1 653:-1 654:-1 655:-0.589634 656:0.366753 657:-1 658:0.213776 659:-1 660:-1 661:-1 662:-0.672187 663:-1 664:-1 665:-1 666:-0.306372 667:-1 668:-1 669:-1 670:-1 671:-1 672:-0.5376 673:-1 674:-1 675:-1 676:-1 677:-1 678:-1 679:0.260083 680:-1 681:-1 682:-1 683:-1 684:-1 685:-0.901741 686:-1 687:-1 688:-1 689:-1 690:-1 691:-1 692:-0.263788 693:-0.043996 694:-1 695:-1 696:-1 697:-1 698:-1 699:-0.592499 700:-1 701:-1 702:-1 703:-1 704:-1 705:-1 706:-0.757245 707:-1 708:-1 709:-1 710:-1 711:-1 712:-1 713:-1 714:-1 715:-1 716:-1 717:-1 718:-1 719:-1 720:-1 721:-1 722:-0.869949 723:-1 724:-1 725:-1 726:2.13279 727:0.213776 728:-1 729:-1 730:-1 731:-1 732:-0.601187 733:-1 734:-1 735:-0.776782 736:-1 737:-1 738:-1 739:-1 740:-1 741:-1 742:-1 743:-1 744:-0.84394 745:-1 746:-1 747:-1 748:-1 749:-1 750:-1 751:-1 752:-1 753:-1 754:-1 755:-1 756:-1 757:-1 758:-1 759:-1 760:-1 761:-1 762:-1 763:-1 764:-1 765:-1 766:-0.69481 767:-1 768:-0.00908623 769:-1 770:-1 771:-0.970492 772:-1 773:-1 774:-0.592499 775:-1 776:-1 777:0.835503 778:-1 779:-1 780:-1 781:-1 782:-1 783:0.0702296 785:-1 786:-1 787:-1 788:-1 789:-1 790:-1 791:-1 792:-1 793:-0.39584 794:-1 795:0.421894 796:-0.99422 797:-1 798:-0.282878 799:-1 800:-1 801:-1 802:-1 803:-1 804:-1 805:-1 806:-1 807:-1 808:-1 809:-1 810:-1 811:-1 812:-0.540212 813:-1 814:-1 815:-1 816:0.213776 817:-1 818:-1 819:-1 820:-1 821:-1 822:-1 823:-1 824:-1 825:1 826:-1 827:-1 828:0.115615 829:-1 830:-1 831:-1 832:-1 833:-1 834:-0.363015 835:-1 836:-0.375743 837:-1 838:-1 839:-1 840:-1 841:-1 842:-0.463921 843:0.213776 844:-0.826598 845:-1 846:1.34673 847:-1 848:-1 849:-1 850:-1 851:-1 852:-1 853:-1 854:0.0490018 855:-1 856:-1 857:-1 858:-1 859:-1 860:-0.601132 861:-1 862:-1 863:-1 864:-1 865:-0.0505913 866:-1 867:0.478483 868:-1 869:-1 870:-0.901741 871:-1 872:-1 873:-1 874:-1 875:-1 876:-1 877:-1 878:-1 879:-1 880:-1 881:-1 882:-0.56574 883:-1 884:-1 885:-1 886:-1 887:-1 888:3.00601 889:-1 890:-1 891:0.213776 892:-0.553771 893:-1 894:-1 895:-1 896:-1 897:-1 898:-1 899:-1 900:-1 901:-1 902:-1 903:-1 904:-1 905:-1 906:-1 907:-1 908:0.663309 909:-0.95087 910:-1 911:-1 912:-1 913:-1 914:-0.5376 916:1.01166 917:-1 918:-1 919:-0.0193417 920:-1 921:-1 922:-1 923:-1 924:-0.541051 925:-1 926:-1 927:-1 928:-1 929:-1 930:-1 931:-1 932:0.508744 933:-1 934:-1 935:-1 936:-1 937:-1 938:-1 939:-0.946653 940:-1 941:-1 942:-1 943:-1 944:-1 945:-0.109948 946:-1 947:-1 948:-0.687888 949:-1 950:-1 951:-1 952:-0.037629 953:0.335181 954:-1 955:-1 956:-1 957:-0.751462 958:-1 959:-0.90463 960:-1 961:-1 962:-1 963:-1 964:-1 965:-1 966:-1 967:-1 968:-1 969:-1 970:-1 971:-1 972:-1 973:-1 974:-1 975:-1 976:-1 977:-1 978:-1 979:-1 980:-0.901741 981:-1 982:-1 983:-1 984:-1 985:-1 986:0.346692 987:-1 988:-1 989:-1 990:-1 991:-1 992:-1 993:-1 994:-1 995:-1 996:-1 997:-1 998:-1 999:-1 1000:-1 1001:-1 1002:-1 1003:-1 1004:0.260083 1005:-1 1006:-1 1007:-1 1008:-0.237064 1009:-1 1010:-0.406571 1011:-1 1012:-1 1013:-1 1014:-1 1015:-1 1016:-1 1017:-1 1018:-1 1019:-1 1020:-1 1021:0.99173 1022:-1 1023:-0.82302 1024:-0.289053 1025:-0.639043 1026:-1 1027:-1 1028:-1 1029:-1 1030:-1 1031:0.24838 1032:-1 1033:-0.375776 1034:-1 1035:-1 1036:-0.79481 1037:-1 1038:-1 1039:-0.770152 1040:-1 1041:-1 1042:-0.901741 1043:-1 1044:-1 1045:-0.88236 1046:-1 1047:-1 1048:-1 1049:-1 1050:-1 1051:-1 1052:-1 1053:-1 1054:-1 1055:-1 1056:-1 1057:-1 1058:-1 1059:-1 1060:-1 1061:-0.761866 1062:-0.608401 1063:-1 1064:-1 1065:-1 1066:-1 1067:-1 1068:-1 1069:-1 1070:-1 1071:-1 1072:-1 1073:-1 1074:-0.219657 1075:-1 1076:-1 1077:-1 1078:-1 1079:-1 1080:-1 1081:-1 1082:0.213776 1083:-0.803482 1084:-0.982247 1085:-1 1086:-1 1087:-0.95833 1088:-1 1089:-0.696556 1090:-1 1091:-1 1092:-1 1093:-1 1094:-1 1095:-1 1096:-1 1097:-1 1098:-1 1099:-1 1100:-1 1101:0.557532 1102:-1 1103:-1 1104:-1 1105:-1 1106:-1 1107:-1 1108:-1 1109:-1 1110:-1 1111:0.213776 1112:0.213776 1113:-1 1114:-1 1115:-1 1116:-1 1117:-1 1118:-0.803482 1119:-1 1120:-0.763018 1121:-1 1122:-1 1123:-1 1124:-1 1125:-1 1126:-1 1127:-1 1128:-1 1129:-1 1130:-1 1131:-1 1132:-1 1133:-1 1134:-1 1135:0.335181 1136:-0.113259 1137:-1 1138:-1 1139:-0.108437 1140:-1 1141:-1 1142:-1 1143:-1 1144:-1 1145:-0.599723 1146:-1 1147:-1 1148:0.525871 1149:-1 1150:0.335181 1151:-1 1152:-0.763018 1153:-1 1154:-1 1155:-1 1156:-1 1157:-1 1158:-1 1159:-1 1160:-1 1161:-1 1162:-1 1163:-1 1164:0.757373 1165:-1 1166:-1 1167:-1 1168:-1 1169:-1 1170:-1 1171:-1 1172:-1 1173:-1 1174:-1 1175:-1 1176:-1 1177:-1 1178:-1 1179:-1 1180:-1 1181:-0.601187 
1.352650752522065 0 0 2.63068317925632 1.027107336134354 0:-1 1:-0.216456 2:-1 3:-1 4:-1 5:-1 6:-1 7:-1 8:-1 9:-1 10:-1 11:-1 12:-0.585499 13:-0.9461 14:-1 15:-1 16:-1 17:-1 18:-1 19:-1 20:1.88327 21:0.423178 22:0.460705 23:-1 24:-1 25:-1 26:-1 27:-1 28:-1 29:0.532187 30:-1 31:-1 32:-1 33:-1 34:-1 35:-1 36:-1 37:-1 38:-1 39:-1 40:-1 41:0.659994 42:-1 43:-1 44:0.382051 45:-1 46:-1 47:-1 48:-1 49:1.48204 50:0.17506 51:-1 52:0.42309 53:-1 54:-1 55:-1 56:-0.909043 57:-1 58:-1 59:-1 60:-1 61:-1 62:-1 63:-1 64:-1 65:-1 66:-1 67:-1 68:-1 69:-1 70:3.1342 71:-1 72:0.493075 73:-1 74:-0.7844 75:-1 76:-1 77:-1 78:-1 79:-1 80:-1 81:-1 82:-1 83:-1 84:-1 85:-1 86:-1 87:-1 88:0.29376 89:-0.633415 90:4.02392 91:-1 92:-0.8687 93:-1 94:-1 95:-1 96:-0.9461 97:-1 98:-1 99:-0.239989 100:-0.85447 101:-1 102:-1 103:-0.722414 104:-1 105:-1 106:-1 107:-0.235678 108:-1 109:-1 110:-1 111:-1 112:-1 113:-1 114:-1 115:-1 116:-1 117:0.0176498 118:-0.135941 119:-1 120:-1 121:-1 122:-1 123:-1 124:-1 125:-0.628096 126:-1 127:-1 128:-1 129:-0.572426 130:-0.908371 131:-1 132:-0.540651 133:-1 134:-1 135:-1 136:-0.816741 137:-1 138:0.422914 139:-0.908371 140:-0.975206 141:-1 142:-1 143:-1 144:0.240792 145:-1 146:-1 147:-1 148:-1 149:-1 150:-1 151:-1 152:-1 153:-0.288543 154:-1 155:-1 156:-1 157:-1 158:-1 159:0.837709 160:-1 161:-1 162:-0.067474 163:-1 164:-1 165:-1 166:-1 167:-1 168:-1 169:-1 170:-1 171:-1 172:-0.876029 173:-0.102849 174:-1 175:-1 176:-1 177:-1 178:-1 179:-1 180:-1 181:-1 182:-1 183:-1 184:-0.309715 185:-1 186:-0.407171 187:-1 188:-1 189:0.865052 190:-1 191:-1 192:-1 193:-1 194:-1 195:-0.191055 196:-1 197:0.837709 198:-1 199:0.441176 200:-1 201:-0.696509 202:-1 203:-1 204:-0.434061 205:-1 206:-1 207:-1 208:-1 209:-1 210:-0.239989 211:-0.41247 212:-0.514895 213:-0.816741 214:-1 215:-1 216:-1 217:-1 218:-1 219:-1 220:-1 221:-1 222:2.6761 223:-1 224:-1 225:-1 226:-0.102564 227:-1 228:-1 229:-1 230:-1 231:-1 232:-1 233:-1 234:1.26417 235:-1 236:-0.917459 237:-1 238:-0.311006 239:-0.420056 240:-0.816741 241:-1 242:-1 243:-1 244:-1 245:-1 246:-1 247:-1 248:-1 249:-1 250:-1 251:-1 252:-1 253:-1 254:-1 255:-1 256:-1 257:-1 258:-1 259:-0.044665 260:-0.592408 261:-1 262:-1 263:-1 264:-1 265:-1 266:-1 267:-1 268:1.3445 269:-1 270:-1 271:-1 272:-1 273:-1 274:-1 275:-1 276:-1 277:-1 278:-1 279:-1 280:-1 281:-1 282:-1 283:-1 284:-1 285:-1 286:-1 287:-0.82213 288:-0.0217786 289:-1 290:-1 291:-1 292:-1 293:-1 294:-0.628096 295:-1 296:-1 297:-1 298:-1 299:-1 300:-1 301:-1 302:-1 303:-0.838898 304:-1 305:-1 306:-0.412393 307:-1 308:-1 309:-1 310:-1 311:-1 312:-1 313:-0.137048 314:-1 315:-1 316:-0.513535 317:-1 318:-1 319:-1 320:-1 321:-1 322:-1 323:-1 324:-1 325:-1 326:-0.987723 327:-0.623367 328:-1 329:-1 330:-1 331:-1 332:-0.341559 333:-1 334:-1 335:-1 336:-0.619994 337:-1 338:-1 339:-1 340:-1 341:-1 342:-1 343:-1 344:-1 345:-1 346:-1 347:-1 348:-0.374565 349:-1 350:-1 351:0.865052 352:-1 353:-1 354:-1 355:0.132087 356:-1 357:-1 358:-1 359:-1 360:-1 361:0.326199 362:-1 363:-1 364:-1 365:-0.862504 366:0.110424 367:-1 368:-0.29662 369:-1 370:0.0134887 371:-1 372:-1 373:-1 374:-1 375:-1 376:0.389175 377:-1 378:-1 379:-1 380:-1 381:-1 382:-1 383:-1 384:-0.337023 385:-1 386:-1 387:1.99981 388:-1 389:-1 390:-1 391:-1 392:-1 393:-0.53106 394:-1 395:-0.628027 396:0.07499 397:-1 398:-1 399:0.283014 400:-1 401:-1 402:-1 403:-0.628042 404:-1 405:-1 406:-1 407:-1 408:-0.622708 409:-1 410:-1 411:-1 412:-1 413:-1 414:-1 415:-1 416:-1 417:-0.780287 418:1.74421 419:-1 420:-1 421:-1 422:-1 423:-1 424:-1 425:-1 426:-1 427:-1 428:-1 429:-1 430:-1 431:-1 432:-1 433:-1 434:-1 435:-1 436:0.0801984 437:0.985267 438:0.586227 439:-1 440:-1 441:-1 442:-1 443:-1 444:-1 445:-1 446:-1 447:-1 448:-1 449:0.913667 450:-1 451:-1 452:-1 453:-1 454:-0.337023 455:-1 456:-1 457:0.865052 458:-1 459:-1 460:-1 461:-1 462:-1 463:-1 464:-1 465:-1 466:-1 467:-1 468:-0.2812 469:-1 470:-1 471:-1 472:-0.288543 473:-1 474:-1 475:-1 476:-1 477:-1 478:-1 479:-1 480:-1 481:-0.434061 482:-1 483:-1 484:-0.887804 485:-1 486:-1 487:1.86702 488:-1 489:-1 490:-1 491:-1 492:-1 493:-0.98845 494:-1 495:-1 496:-1 497:-1 498:-0.415641 499:-1 500:-1 501:-1 502:-1 503:-1 504:-1 505:-1 506:-1 507:-1 508:-1 509:-1 510:-1 511:-0.617323 512:-1 513:-1 514:-1 515:-1 516:-1 517:-1 518:-1 519:-1 520:-1 521:-1 522:-1 523:-1 524:-1 525:-1 526:1.27263 527:-0.669912 528:-1 529:-1 530:-0.067474 531:-1 532:-0.534637 533:-1 534:-1 535:0.460705 536:-0.554435 537:-0.558016 538:-1 539:-1 540:2.17304 541:-1 542:-1 543:0.837709 544:-1 545:-1 546:-1 547:1.31125 548:0.133277 549:-0.805738 550:-1 551:-1 552:-1 553:-1 554:-1 555:-0.664119 556:-1 557:-1 558:-1 559:-1 560:-1 561:-1 562:-1 563:-1 564:-1 565:0.131877 566:-1 567:-1 568:-1 569:1.08107 570:-0.876029 571:-1 572:-0.13358 573:-1 574:-1 575:-1 576:-1 577:-1 578:-1 579:-1 580:-1 581:-0.525695 582:-1 583:-1 584:-1 585:-1 586:-1 587:-1 588:-1 589:-1 590:-1 591:-1 592:-1 593:-1 594:-1 595:-1 596:-1 597:-1 598:-1 599:-1 600:-1 601:0.0189 602:-1 603:-1 604:-1 605:-1 606:1.22126 607:1.31076 608:-0.27505 609:-1 610:-1 611:-1 612:-1 613:-1 614:-1 615:-1 616:-1 617:-1 618:-1 619:-1 620:-1 621:-1 622:-0.816741 623:-1 624:-1 625:-1 626:-1 627:-1 628:-1 629:-1 630:-1 631:-1 632:-1 633:-1 634:-1 635:2.65628 636:-1 637:0.811156 638:-0.617323 639:-1 640:-1 641:-1 642:-0.5688 643:-1 644:-1 645:-1 646:-0.619994 647:0.240792 648:-1 649:-1 650:-1 651:-1 652:-1 653:0.274533 654:-1 655:-1 656:-1 657:-1 658:-1 659:-1 660:-1 661:-1 662:-1 663:-1 664:-1 665:-1 666:0.293892 667:-1 668:-1 669:0.286089 670:-1 671:0.269068 672:-1 673:0.110424 674:-0.817164 675:0.551122 676:-1 677:-1 678:-1 679:0.17506 680:-0.493326 681:-1 682:-1 683:-1 684:-1 685:-0.908371 686:-1 687:-1 688:-1 689:-1 690:-1 691:-1 692:-1 693:-0.554251 694:-1 695:-1 696:-1 697:-1 698:0.422914 699:-1 700:-1 701:-1 702:-1 703:-1 704:-1 705:-1 706:-1 707:-1 708:-1 709:-1 710:-1 711:-1 712:-1 713:-1 714:-1 715:-1 716:-1 717:-1 718:-1 719:0.194063 720:-1 721:-1 722:-1 723:-1 724:-1 725:-1 726:-1 727:-1 728:-1 729:-1 730:-1 731:-1 732:-1 733:-1 734:-1 735:-0.58361 736:-1 737:-1 738:-1 739:-1 740:-1 741:-1 742:-0.627865 743:-1 744:-1 745:-1 746:0.55421 747:-1 748:-1 749:-1 750:-1 751:-1 752:-1 753:-1 754:-1 755:-1 756:-1 757:-0.193717 758:-1 759:-0.288543 760:-1 761:1.66832 762:-1 763:-1 764:-1 765:-0.617323 766:-0.715402 767:-1 768:0.848448 769:-1 770:-1 771:-1 772:-1 773:-1 774:-0.619994 775:-1 776:-1 777:-1 778:1.31076 779:-0.92993 780:2.10273 781:-1 782:-1 783:-1 784:-0.067474 785:-1 786:-1 787:-1 788:-1 789:-1 790:-1 791:-1 792:-1 793:-1 794:-1 795:0.325953 796:-1 797:-1 798:-1 799:-1 800:-1 801:-0.269648 802:-1 803:-1 804:-0.239848 805:-1 806:-1 807:0.175205 808:-1 809:-1 810:-1 811:-1 812:1.14414 813:-1 814:-1 815:-1 816:-1 817:-1 818:-1 819:-1 820:-1 821:-1 822:-1 823:0.0339536 824:-1 825:-0.067474 826:-0.235678 827:-1 828:-1 829:-1 830:0.0403397 831:-0.0809889 832:-1 833:-1 834:-1 835:-1 836:-0.417864 837:-1 838:-1 839:-1 840:-0.299636 841:-1 842:-1 843:-1 844:-1 845:-1 846:-1 847:-0.0943301 848:-1 849:-1 850:0.0403397 851:-1 852:-1 853:-1 854:-1 855:-1 856:-1 857:-1 858:0.64634 859:-1 860:-0.504025 861:-1 862:-1 863:-1 864:-1 865:-0.114652 866:0.42029 867:-0.31057 868:-1 869:-1 870:-0.725078 871:-1 872:-1 873:-1 874:-1 875:-1 876:-1 877:-1 878:-0.876029 879:-1 880:-1 881:-1 882:-0.595041 883:-1 884:-1 885:-1 886:-1 887:-1 888:1.49064 889:-1 890:-1 891:-1 892:-0.58388 893:-1 894:-1 895:-1 896:-1 897:-1 898:-1 899:-1 900:-1 901:-1 902:-1 903:-1 904:-1 905:-1 906:-1 907:-1 908:-1 909:-0.954185 910:-1 911:-1 912:-1 913:-0.856267 914:-1 915:-1 916:-1 917:-1 918:-1 919:-1 920:-1 921:-1 922:-1 923:-1 924:-1 925:-1 926:-1 927:0.0403397 928:-1 929:-0.234505 930:-1 931:-1 932:-1 933:-1 934:0.934673 935:-1 936:-1 937:-1 938:-1 939:-1 940:-1 941:-1 942:-1 943:-1 944:-1 945:-1 946:-1 947:1.67361 948:-1 949:-1 950:0.0403397 951:-1 952:-1 953:0.245091 954:-0.434061 955:-1 956:-1 957:-1 958:-0.387361 959:-1 960:-1 961:-1 962:-1 963:3.135 964:-1 965:-1 966:-1 967:-1 968:-1 969:-0.570894 970:-1 971:-1 972:-0.377454 973:-1 974:-1 975:-0.708948 976:-1 977:0.530815 978:-1 979:-1 980:-1 981:-1 982:-0.446328 983:-1 984:-1 985:-1 986:-1 987:-1 988:-1 989:1.26417 990:-1 991:-1 992:-1 993:-1 994:-1 995:-1 996:-1 997:-1 998:-1 999:-1 1000:-1 1001:-1 1002:0.178232 1003:-1 1004:0.17506 1005:-1 1006:-1 1007:-1 1008:-1 1009:-1 1010:-0.446612 1011:-1 1012:-1 1013:-1 1014:-1 1015:-1 1016:-1 1017:-1 1018:-1 1019:-1 1020:1.9867 1021:-1 1022:-1 1023:-1 1024:-1 1025:-1 1026:-1 1027:-1 1028:-1 1029:0.131877 1030:-1 1031:-1 1032:-1 1033:-1 1034:-0.269648 1035:-0.239989 1036:-1 1037:-1 1038:-1 1039:-1 1040:-1 1041:-1 1042:-0.725078 1043:-1 1044:-1 1045:-0.670853 1046:-1 1047:-1 1048:-1 1049:-1 1050:-1 1051:-1 1052:-1 1053:0.514896 1054:-1 1055:1.08028 1056:0.460705 1057:-0.882249 1058:-0.0441568 1059:-1 1060:-1 1061:-1 1062:-1 1063:-1 1064:-1 1065:-1 1066:-1 1067:-1 1068:0.748297 1069:-1 1070:-1 1071:-1 1072:-1 1073:-1 1074:1.18334 1075:-1 1076:-1 1077:-0.39574 1078:-1 1079:-1 1080:-0.288543 1081:-0.234505 1082:-1 1083:-1 1084:-1 1085:0.234257 1086:-1 1087:-1 1088:-1 1089:-1 1090:-1 1091:-1 1092:-1 1093:-1 1094:-1 1095:-1 1096:-0.818763 1097:-1 1098:-1 1099:-0.196242 1100:-1 1101:-1 1102:-1 1103:-1 1104:0.638851 1105:0.455184 1106:-1 1107:-1 1108:-1 1109:-1 1110:-1 1111:-1 1112:-1 1113:-1 1114:-1 1115:-1 1116:-1 1117:-1 1118:-1 1119:-1 1120:-0.779008 1121:-1 1122:-1 1123:-1 1124:-1 1125:-1 1126:-1 1127:-1 1128:-0.228346 1129:-1 1130:-1 1131:-1 1132:-1 1133:-1 1134:-1 1135:1.49064 1136:-1 1137:-1 1138:-1 1139:-1 1140:-1 1141:0.295673 1142:0.110424 1143:-1 1144:-0.731574 1145:-0.626731 1146:-1 1147:0.493075 1148:0.422914 1149:-0.216481 1150:-1 1151:-1 1152:-1 1153:-1 1154:-1 1155:-0.708948 1156:-1 1157:-1 1158:-1 1159:-1 1160:-1 1161:-1 1162:-1 1163:-1 1164:-1 1165:-1 1166:-0.094422 1167:0.733119 1168:-1 1169:-1 1170:-1 1171:-1 1172:-1 1173:-1 1174:-1 1175:-1 1176:-1 1177:1.00595 1178:-0.838298 1179:-1 1180:-1 1181:-0.628096 
